svm_type c_svc
kernel_type linear
nr_class 2
total_sv 8
rho 5.41234
label 1 -1
nr_sv 5 3
SV
12.48750867361941 1:-0.55542 2:-0.575411 3:-0.572885 4:-0.30026 5:-0.116238 6:0.559356 7:-0.691752 8:-0.521872 9:-0.0703368 10:-0.083712 
8.163272295871124 1:-0.20948 2:0.377388 3:0.179477 4:0.307442 5:0.295615 6:-0.346908 7:-0.478706 8:-0.606258 9:-0.182726 10:-0.99103 
1.702664206678417 1:0.246918 2:0.0405071 3:-0.0754724 4:0.447623 5:0.165979 6:0.515007 7:-0.852724 8:-0.368634 9:-0.187123 10:-0.230695 
6.57089169299545 1:0.143935 2:0.329819 3:-0.478291 4:0.29627 5:0.304491 6:-0.531323 7:-0.537259 8:-0.396547 9:-0.0734978 10:-0.165051 
5.018416512949872 1:0.227321 2:-0.0182184 3:-0.00479433 4:-0.0635048 5:-0.363441 6:-0.209785 7:-0.686258 8:-0.460526 9:-0.234238 10:-0.963682 
-2.267999029922358 1:-0.167966 2:0.145649 3:0.29509 4:-0.1152 5:-0.296087 6:0.111587 7:-0.416488 8:-0.42632 9:0.241088 10:-0.366489 
-5.858488407855627 1:-0.0160419 2:0.2388 3:-0.0228009 4:0.184792 5:-0.0222113 6:-0.127162 7:-0.451911 8:-0.376311 9:-0.262803 10:-0.302938 
-25.8162659443363 1:-0.205829 2:-0.162004 3:-0.336697 4:0.0408102 5:0.0394537 6:0.0831576 7:-0.400142 8:-0.404314 9:-0.182999 10:-0.474968 
