svm_type c_svc
kernel_type linear
nr_class 2
total_sv 10
rho 37.6
label 1 -1
nr_sv 5 5
SV
40.21290893148843 1:0.381505 2:-0.421916 3:-0.0230103 4:0.099529 5:-0.221173 6:0.108968 7:-0.463219 8:-0.429202 9:-0.147591 10:-0.415166 
49.31390646849306 1:0.143361 2:0.243508 3:0.0906208 4:-0.0249724 5:-0.496777 6:0.341436 7:-0.473833 8:-0.575187 9:-0.581524 10:-0.150862 
491.6522182841184 1:0.149017 2:0.0438418 3:-0.710523 4:-0.287675 5:-0.275754 6:-0.0328155 7:0.036473 8:-0.628282 9:-0.144157 10:-0.904549 
1133.528966425398 1:-0.317068 2:-0.0178751 3:0.09782 4:-0.355552 5:-0.430598 6:-0.0874123 7:-0.623747 8:-0.256005 9:-0.271714 10:-0.313709 
89.78701116693992 1:0.158523 2:-0.220582 3:-0.323609 4:-0.167959 5:-0.380088 6:0.529832 7:-0.530147 8:-0.374565 9:-0.252202 10:-0.114177 
-279.6704024622895 1:-0.167966 2:0.145649 3:0.29509 4:-0.1152 5:-0.296087 6:0.111587 7:-0.416488 8:-0.42632 9:0.241088 10:-0.366489 
-86.58511811644834 1:-0.101988 2:0.266508 3:-0.344516 4:-0.235005 5:0.175106 6:-0.159171 7:-0.384145 8:-0.327073 9:-0.529929 10:-0.344207 
-733.0404837428212 1:-0.0979838 2:0.0466126 3:-0.105071 4:-0.700048 5:-0.896757 6:-0.164574 7:-0.41376 8:-0.297609 9:-0.460177 10:-0.474225 
-675.1263414111006 1:-0.205829 2:-0.162004 3:-0.336697 4:0.0408102 5:0.0394537 6:0.0831576 7:-0.400142 8:-0.404314 9:-0.182999 10:-0.474968 
-30.07266554377668 1:0.334216 2:-0.539563 3:-0.222558 4:-0.193578 5:0.0456167 6:0.010998 7:-0.362432 8:-0.216655 9:-0.0530102 10:-0.664301 
