svm_type c_svc
kernel_type linear
nr_class 2
total_sv 192
rho 10.1683
label 1 -1
nr_sv 97 95
SV
4096 1:-0.115635 2:0.121644 3:-0.147893 4:-0.0711555 5:-0.0630072 6:-0.12833 7:-0.874289 8:-0.921126 9:0.0588196 10:-0.0224511 
4096 1:-0.55542 2:-0.575411 3:-0.572885 4:-0.30026 5:-0.116238 6:0.559356 7:-0.691752 8:-0.521872 9:-0.0703368 10:-0.083712 
4096 1:-0.106377 2:0.0810387 3:0.142675 4:-0.0126257 5:0.195075 6:-0.0120775 7:-0.996626 8:-0.717284 9:0.201101 10:0.0803241 
4096 1:-0.104082 2:-0.387956 3:-0.303327 4:-0.0489196 5:-0.105936 6:0.285054 7:-0.866405 8:-0.734037 9:-0.0374526 10:-0.101711 
4096 1:-0.02864 2:0.131869 3:0.178705 4:0.17333 5:0.419655 6:-0.0574724 7:-0.798476 8:-0.783809 9:0.169986 10:-0.142414 
4096 1:-0.3997 2:0.228919 3:0.274744 4:-0.207307 5:-0.213601 6:-0.107767 7:-0.778743 8:-0.576729 9:-0.0243406 10:-0.133799 
4096 1:-0.470462 2:-0.00500208 3:0.352939 4:0.236427 5:-0.0855873 6:0.204541 7:-0.948336 8:-0.55416 9:0.0378767 10:0.0257558 
4096 1:0.153198 2:-0.300051 3:-0.105381 4:0.943709 5:0.224177 6:-0.332163 7:-0.821709 8:-0.491754 9:-0.0114757 10:-0.206736 
4096 1:0.194129 2:-0.334453 3:-0.268822 4:0.117755 5:0.00444032 6:-0.379146 7:-0.999961 8:-0.558904 9:0.155755 10:0.0248116 
4096 1:-0.183405 2:0.143074 3:0.348843 4:0.0969621 5:0.458051 6:0.288606 7:-0.827439 8:-0.549306 9:0.0668065 10:-0.1584 
4096 1:-0.546705 2:0.0139029 3:0.1916 4:0.131973 5:0.240647 6:0.0490585 7:-0.777881 8:-0.55171 9:-0.0135699 10:-0.151541 
4096 1:-0.0507114 2:0.225486 3:-0.0834459 4:-0.304636 5:-0.290412 6:-0.171694 7:-0.834774 8:-0.53164 9:0.191267 10:0.0168019 
4096 1:-0.21751 2:-0.059363 3:0.0661431 4:-0.108892 5:-0.0658088 6:-0.0975365 7:-0.831149 8:-0.62179 9:0.117733 10:0.019759 
4096 1:-0.323052 2:0.139151 3:0.0184981 4:-0.00363187 5:-0.328238 6:-0.0686532 7:-0.810302 8:-0.606476 9:-0.0174333 10:0.00942179 
4096 1:-0.69098 2:0.381482 3:0.236213 4:-0.253092 5:-0.0574276 6:-0.130899 7:-0.666225 8:-0.600312 9:0.220886 10:-0.162226 
4096 1:-0.406167 2:0.0771155 3:-0.161028 4:-0.289386 5:-0.566318 6:0.254968 7:-0.777169 8:-0.559625 9:-0.251629 10:0.037791 
4096 1:0.0357403 2:0.289778 3:0.75155 4:0.39766 5:-0.0365546 6:-0.000345426 7:-0.740167 8:-0.508351 9:0.18315 10:-0.374216 
4096 1:0.152827 2:-0.159772 3:-0.487268 4:0.310765 5:-0.0489001 6:0.0119733 7:-0.865337 8:-0.803529 9:-0.0992796 10:-0.11392 
4096 1:-0.214224 2:0.113209 3:0.300278 4:-0.379257 5:-0.181401 6:-0.0100333 7:-0.89839 8:-0.466139 9:0.142578 10:-0.0543157 
2793.865584967094 1:-0.275641 2:0.684771 3:0.16871 4:-0.214401 5:-0.126186 6:-0.482119 7:-0.940264 8:-0.89207 9:0.455589 10:0.175288 
4096 1:0.0155053 2:-0.122772 3:-0.0982223 4:0.32553 5:0.178056 6:0.347468 7:-0.803083 8:-0.416709 9:0.00326241 10:-0.152444 
4096 1:-0.430765 2:0.0328568 3:0.204253 4:-0.000318864 5:0.256173 6:0.299603 7:-0.760007 8:-0.807962 9:0.114208 10:-0.191609 
1884.947069280562 1:-0.180621 2:-0.152245 3:-0.112958 4:0.121168 5:0.0579036 6:-0.185236 7:-0.914486 8:-0.533563 9:0.0454864 10:-0.0386195 
4096 1:-0.168807 2:-0.151779 3:-0.174771 4:0.196382 5:0.419194 6:-0.328546 7:-0.794494 8:-0.64578 9:0.319435 10:0.101073 
1101.510813476636 1:0.213614 2:-0.614202 3:-0.612991 4:0.405281 5:0.493753 6:0.206873 7:-0.661888 8:-0.52136 9:-0.169198 10:-0.469707 
4096 1:-0.0450577 2:0.011647 3:0.610054 4:0.332414 5:0.1126 6:-0.244847 7:-0.959551 8:-0.432645 9:0.567341 10:0.0617537 
4096 1:0.222937 2:-0.301327 3:-0.404339 4:0.149453 5:0.414965 6:0.182432 7:-0.892703 8:-0.629548 9:0.0316719 10:0.110126 
4096 1:-0.00649286 2:0.282495 3:0.420506 4:-0.0436765 5:0.104902 6:-0.220296 7:-0.931642 8:-0.508355 9:0.113635 10:-0.0752303 
4096 1:-0.384308 2:-0.0124071 3:-0.521433 4:-0.242755 5:-0.138458 6:-0.521928 7:-0.682614 8:-0.676939 9:0.0417401 10:0.0734824 
4096 1:-0.0649097 2:0.11343 3:0.487798 4:0.0599221 5:-0.0159352 6:0.266583 7:-0.833301 8:-0.743302 9:-0.251434 10:-0.0887812 
4096 1:-0.146187 2:-0.283917 3:-0.0638235 4:-0.115936 5:0.064289 6:0.461329 7:-0.893989 8:-0.88262 9:0.0197175 10:-0.0880606 
4096 1:-0.0919731 2:-0.0590442 3:0.185567 4:0.357735 5:0.176407 6:0.0547001 7:-0.943986 8:-0.779213 9:0.0932777 10:-0.0520545 
4096 1:-0.54272 2:0.392884 3:0.226653 4:-0.313949 5:-0.386368 6:0.322887 7:-0.868852 8:-0.568973 9:0.0471904 10:-0.0148805 
3537.041321775327 1:-0.392406 2:0.33026 3:0.470995 4:0.13437 5:0.314121 6:0.187029 7:-0.857441 8:-0.774637 9:0.775027 10:-0.0307507 
4096 1:-0.126236 2:0.0206459 3:0.170508 4:-0.105887 5:-0.369723 6:-0.155361 7:-0.853019 8:-0.565904 9:0.118877 10:-0.146182 
4096 1:-0.0200648 2:0.169041 3:-0.370273 4:-0.0933019 5:-0.559954 6:-0.157178 7:-0.797394 8:-0.77841 9:0.276899 10:0.0787503 
4096 1:0.246918 2:0.0405071 3:-0.0754724 4:0.447623 5:0.165979 6:0.515007 7:-0.852724 8:-0.368634 9:-0.187123 10:-0.230695 
4096 1:-0.187489 2:0.140647 3:0.0788178 4:-0.291137 5:-0.17925 6:-0.00913568 7:-0.7266 8:-0.57395 9:0.297373 10:-0.148493 
472.7313797070117 1:-0.239792 2:0.335238 3:0.533901 4:-0.600771 5:-0.541192 6:-0.079327 7:-0.837924 8:-0.608985 9:0.131079 10:-0.230397 
4096 1:-0.0447953 2:0.0555378 3:-0.0691436 4:0.357108 5:0.275583 6:0.0348527 7:-0.851333 8:-0.783615 9:-0.126505 10:-0.124241 
4096 1:-0.238633 2:0.45774 3:0.310589 4:-0.103778 5:-0.18931 6:-0.209467 7:-0.818954 8:-0.441985 9:-0.07381 10:-0.195529 
4096 1:-0.450489 2:0.404924 3:0.0150559 4:0.0330599 5:-0.310239 6:-0.312853 7:-0.990615 8:-0.692699 9:-0.13937 10:0.398647 
4096 1:0.0511487 2:-0.329843 3:-0.211743 4:-0.295753 5:0.239071 6:-0.0928066 7:-0.79506 8:-0.506841 9:-0.15965 10:0.0376999 
4096 1:-0.224816 2:-0.26055 3:-0.14885 4:-0.392007 5:-0.309002 6:-0.0346566 7:-0.861301 8:-0.79783 9:-0.0676312 10:0.0640066 
4096 1:0.12249 2:0.0571807 3:0.108112 4:0.243063 5:0.145586 6:-0.0467757 7:-0.822089 8:-0.593371 9:0.109668 10:-0.121516 
4096 1:-0.321759 2:-0.0602457 3:0.196555 4:0.341936 5:-0.0778967 6:-0.192224 7:-0.767192 8:-0.526659 9:-0.248872 10:-0.331631 
4096 1:-0.101761 2:0.131697 3:0.190404 4:-0.0954509 5:-0.346651 6:-0.135659 7:-0.913321 8:-0.614323 9:-0.0762034 10:-0.108163 
4096 1:0.0626028 2:-0.453743 3:-0.0987977 4:-0.0990226 5:-0.332111 6:-0.303605 7:-0.875762 8:-0.774687 9:0.0571805 10:0.00159437 
4096 1:-0.0482486 2:-0.237942 3:0.284858 4:0.325042 5:-0.0802164 6:-0.70326 7:-0.831232 8:-0.626272 9:0.148562 10:-0.202327 
4096 1:-0.0944928 2:-0.0790035 3:-0.53887 4:-0.553694 5:-0.612783 6:-0.308649 7:-0.756372 8:-0.709293 9:0.069304 10:0.0506462 
4096 1:0.0679304 2:-0.00779737 3:0.475485 4:0.448489 5:0.350167 6:-0.407192 7:-0.669392 8:-0.456884 9:0.538333 10:-0.389324 
4096 1:-0.198738 2:0.131673 3:-0.0540288 4:-0.359684 5:-0.367032 6:-0.117244 7:-0.922168 8:-0.644454 9:0.202415 10:0.280317 
4096 1:-0.0764631 2:0.182037 3:0.293167 4:0.170376 5:0.0658458 6:0.260807 7:-0.774175 8:-0.701696 9:0.274401 10:-0.32604 
158.1552755309127 1:-0.205337 2:-0.0406297 3:0.461882 4:0.950464 5:0.754027 6:0.059681 7:-0.685353 8:-0.761822 9:0.181264 10:-0.500666 
4096 1:0.143935 2:0.329819 3:-0.478291 4:0.29627 5:0.304491 6:-0.531323 7:-0.537259 8:-0.396547 9:-0.0734978 10:-0.165051 
4096 1:0.00955848 2:-0.155653 3:-0.0644148 4:0.129256 5:0.178959 6:-0.2769 7:-0.744423 8:-0.810542 9:0.190604 10:-0.176391 
4096 1:-0.0772242 2:-0.253022 3:-0.0326049 4:0.166306 5:-0.0177496 6:0.187911 7:-0.893488 8:-0.702567 9:-0.162837 10:-0.0618201 
4096 1:-0.0152524 2:-0.380256 3:-0.0233185 4:0.305323 5:0.229704 6:-0.0251861 7:-0.851274 8:-0.630647 9:0.0295386 10:-0.108917 
4096 1:-0.22036 2:0.219994 3:0.228641 4:-0.288182 5:-0.285718 6:-0.384797 7:-0.811465 8:-0.639379 9:-0.189945 10:-0.162972 
4096 1:0.0367779 2:2.22045e-016 3:-0.135974 4:0.12075 5:0.0346446 6:0.210147 7:-0.939198 8:-0.651182 9:0.0613171 10:0.0614638 
4096 1:0.103607 2:0.44445 3:0.207282 4:0.235611 5:-0.166721 6:-0.282533 7:-0.802329 8:-0.513403 9:0.385971 10:-0.288224 
4096 1:-0.232949 2:0.257902 3:0.191846 4:-0.130372 5:-0.0862682 6:-0.0321564 7:-0.698508 8:-0.763658 9:0.390523 10:-0.247601 
4096 1:-0.201711 2:-0.190521 3:0.0304486 4:0.281854 5:0.241732 6:0.0504561 7:-0.687466 8:-0.504591 9:0.0912095 10:-0.303502 
4096 1:-0.258336 2:-0.123189 3:-0.257481 4:0.00677475 5:0.106337 6:-0.0794454 7:-0.821645 8:-0.823069 9:0.104009 10:0.0429761 
4096 1:-0.249397 2:0.0107643 3:0.0373436 4:0.0357461 5:0.469171 6:0.213206 7:-0.746689 8:-0.66722 9:-0.0763986 10:-0.181596 
4096 1:0.000638177 2:-0.212981 3:-0.321005 4:-0.342846 5:-0.0527844 6:-0.182381 7:-0.806097 8:-0.533541 9:-0.115006 10:0.0604698 
4096 1:-0.297828 2:0.0458524 3:0.0198124 4:0.28253 5:0.345931 6:-0.188526 7:-0.681626 8:-0.6274 9:0.186337 10:-0.199376 
4096 1:-0.240484 2:0.140598 3:0.698112 4:0.117716 5:0.363129 6:-0.30211 7:-0.868019 8:-0.925289 9:0.476454 10:0.0740125 
4096 1:-0.236523 2:0.0375892 3:0.329947 4:-0.111847 5:0.0488903 6:-0.185006 7:-0.926043 8:-0.817589 9:0.0447059 10:-0.0320097 
4096 1:-0.176506 2:0.0790525 3:0.154798 4:-0.188991 5:-0.0339969 6:-0.132123 7:-0.829433 8:-0.724186 9:-0.0309746 10:0.0611573 
3515.375649873232 1:-0.176222 2:-0.014712 3:0.130143 4:0.0201263 5:-0.172745 6:0.0820816 7:-0.947896 8:-0.704856 9:0.801589 10:0.0439121 
4096 1:-0.197289 2:0.160802 3:0.0420105 4:-0.267837 5:-0.254821 6:-0.0887622 7:-0.855563 8:-0.720688 9:0.0694211 10:0.0106725 
4096 1:-0.0977924 2:0.301277 3:0.0746632 4:0.0712441 5:0.243121 6:-0.217619 7:-0.964277 8:-0.700868 9:0.075886 10:0.0989028 
4096 1:-0.592162 2:-0.257362 3:0.0981387 4:-0.233552 5:-0.214538 6:0.108337 7:-0.925859 8:-0.79873 9:0.109082 10:0.18155 
4096 1:-0.101555 2:0.0389133 3:0.493447 4:-0.162557 5:-0.0382597 6:-0.254369 7:-0.963042 8:-0.570694 9:0.198864 10:-0.0639074 
4096 1:-0.47313 2:0.343427 3:0.436664 4:-0.511234 5:0.00694726 6:0.518329 7:-0.834002 8:-0.558109 9:-0.105042 10:-0.0535289 
4096 1:0.0105465 2:0.0833436 3:-0.2535 4:0.197427 5:-0.0925229 6:-0.0679323 7:-0.894256 8:-0.610257 9:0.225985 10:0.00982766 
4096 1:-0.247317 2:-0.215703 3:-0.268419 4:0.0413673 5:0.534898 6:0.236007 7:-0.79546 8:-0.825208 9:0.238993 10:-0.00264651 
4096 1:0.00308452 2:0.353897 3:0.223045 4:0.0484112 5:0.0372667 6:0.349099 7:-0.92654 8:-0.488986 9:-0.0653288 10:-0.150166 
4096 1:-0.408079 2:-0.311036 3:0.127612 4:0.00126302 5:0.203533 6:0.10653 7:-0.884027 8:-0.670389 9:0.303305 10:0.0322497 
4096 1:0.0542852 2:0.0547777 3:0.353571 4:0.024653 5:0.0511066 6:-0.221761 7:-0.849076 8:-0.736535 9:-0.0459729 10:0.116214 
4096 1:-0.239281 2:0.411127 3:0.288756 4:0.135017 5:-0.0749899 6:-0.252795 7:-0.869336 8:-0.49897 9:0.143515 10:0.184764 
4096 1:-0.00521414 2:0.0214305 3:0.616033 4:-0.0494469 5:-0.126769 6:-0.0747649 7:-0.942111 8:-0.723883 9:-0.0225585 10:-0.0619775 
4096 1:-0.272963 2:0.259471 3:-0.301545 4:-0.148907 5:0.0320948 6:-0.0423673 7:-0.76801 8:-0.633814 9:-0.235486 10:0.116778 
4096 1:-0.361081 2:0.150994 3:0.0360149 4:0.273825 5:0.397151 6:-0.168753 7:-0.848551 8:-0.760367 9:0.633292 10:0.172911 
4096 1:-0.258913 2:0.296275 3:0.123691 4:0.172176 5:0.42072 6:0.130257 7:-0.964421 8:-0.724842 9:0.334459 10:0.15367 
4096 1:-0.535913 2:0.795037 3:-0.00218433 4:-0.39783 5:0.0194 6:-0.256662 7:-0.815226 8:-0.565168 9:0.653415 10:0.218095 
4096 1:-0.503765 2:-0.0365348 3:0.498714 4:-0.325246 5:-0.414811 6:-0.370383 7:-0.88142 8:-0.914582 9:-0.0876245 10:0.0744183 
4096 1:-0.0806821 2:0.137901 3:0.236398 4:-0.463416 5:-0.178073 6:-0.219323 7:-0.906474 8:-0.64544 9:0.150474 10:-0.0423551 
4096 1:-0.355195 2:0.210701 3:0.303781 4:-0.0420548 5:0.0405052 6:0.277174 7:-0.869061 8:-0.633603 9:-0.0749156 10:-0.132267 
4096 1:-0.258209 2:0.298163 3:-0.343554 4:-0.244178 5:-0.030971 6:-0.219754 7:-0.72085 8:-0.566102 9:0.229367 10:-0.0160235 
4096 1:-0.386506 2:-0.120222 3:0.0424398 4:0.159491 5:0.0808641 6:-0.0412294 7:-0.834131 8:-0.76535 9:0.167827 10:0.3215 
4096 1:0.395883 2:0.0227791 3:-0.0243864 4:0.0244143 5:-0.186421 6:-0.372858 7:-0.825577 8:-0.597337 9:-0.138642 10:-0.0340556 
4096 1:-0.66526 2:-0.247382 3:-0.165394 4:-0.216749 5:0.0219441 6:0.585188 7:-0.881959 8:-0.578299 9:-0.0926976 10:0.263684 
4096 1:-0.172636 2:0.0459996 3:0.0194252 4:0.0920573 5:-0.206611 6:-0.149994 7:-0.897552 8:-0.745535 9:0.0358214 10:-0.0831902 
4096 1:0.0321641 2:0.0706667 3:-0.516645 4:0.0590068 5:-0.46589 6:-0.376814 7:-0.857078 8:-0.631614 9:0.381015 10:0.598789 
4096 1:-0.590163 2:-0.325798 3:0.153679 4:-0.198443 5:0.126438 6:0.156786 7:-0.918788 8:-0.880223 9:0.561175 10:0.273765 
-4096 1:0.0983171 2:0.163058 3:-0.0825899 4:-0.0980177 5:-0.107996 6:-0.161816 7:-0.844587 8:-0.240302 9:0.0161013 10:-0.111858 
-4096 1:0.00155763 2:0.452027 3:0.0890195 4:0.0138684 5:0.219181 6:-0.134122 7:-0.77729 8:-0.419266 9:0.0569984 10:-0.00797247 
-4096 1:-0.223759 2:0.0413653 3:0.0814107 4:0.467133 5:0.346345 6:-0.254109 7:-0.538506 8:-0.565512 9:-0.14179 10:-0.388674 
-4096 1:-0.173863 2:0.0161097 3:0.220029 4:-0.15219 5:0.458617 6:0.374061 7:-0.627282 8:-0.701256 9:0.134318 10:-0.254467 
-4096 1:-0.374835 2:0.2618 3:-0.105429 4:0.0389497 5:0.378131 6:-0.389946 7:-0.646706 8:-0.668675 9:0.0100005 10:-0.105604 
-4096 1:0.297629 2:-0.34279 3:-0.464759 4:0.106652 5:0.0507632 6:-0.115803 7:-0.935919 8:-0.897996 9:-0.216625 10:0.0500995 
-4096 1:-0.276579 2:0.323346 3:0.217804 4:0.385602 5:0.180256 6:-0.0283983 7:-0.578407 8:-0.744219 9:0.19954 10:-0.340988 
-4096 1:-0.226647 2:-0.0129221 3:-0.0923741 4:-0.349479 5:-0.179544 6:0.73836 7:-0.823492 8:-0.360231 9:0.207345 10:-0.253006 
-4096 1:-0.296748 2:-0.2005 3:0.153922 4:0.0467895 5:0.124145 6:-0.38909 7:-0.901101 8:-0.776626 9:-0.335765 10:0.109654 
-4096 1:-0.0734069 2:-0.00894981 3:-0.169655 4:0.165709 5:0.321461 6:-0.0906386 7:-0.469978 8:-0.73627 9:0.0603545 10:-0.364156 
-4096 1:-0.161667 2:0.0988157 3:0.122271 4:-0.0705188 5:-0.0493449 6:-0.140069 7:-0.775557 8:-0.808714 9:-0.0935561 10:-0.0118986 
-4096 1:-0.144372 2:0.00235392 3:0.343484 4:0.751017 5:0.375737 6:0.0234104 7:-0.951682 8:-0.870546 9:-0.0340575 10:-0.0233043 
-3928.020760008764 1:-0.242692 2:0.0345487 3:0.0973551 4:0.0707367 5:-0.0125601 6:0.0186362 7:-0.354072 8:-0.737108 9:0.0219809 10:-0.580102 
-4096 1:0.139773 2:0.0002452 3:0.33848 4:0.374011 5:0.215669 6:-0.502021 7:-0.762349 8:-0.979003 9:0.0926273 10:-0.336392 
-4096 1:-0.395906 2:0.277272 3:0.216513 4:-0.00455712 5:0.0705359 6:-0.0954233 7:-0.707744 8:-0.29055 9:-0.111247 10:-0.299361 
-4096 1:0.105347 2:-0.0803766 3:-0.0675831 4:-0.0735433 5:-0.199414 6:-0.526397 7:-0.792204 8:-0.165718 9:0.127723 10:-0.134155 
-4096 1:-0.300943 2:-0.391756 3:0.0217982 4:0.0384025 5:-0.264259 6:-0.0558309 7:-0.892913 8:-0.589973 9:0.405613 10:0.134163 
-4096 1:-0.313796 2:0.190839 3:0.00867311 4:0.121327 5:0.219269 6:-0.0465089 7:-0.812728 8:-0.953583 9:0.0468912 10:-0.0828423 
-4096 1:0.133852 2:0.0692936 3:0.175708 4:0.339568 5:0.256239 6:-0.287076 7:-0.843081 8:-0.918804 9:0.0259223 10:-0.204103 
-4096 1:-0.626125 2:-0.109139 3:0.301726 4:-0.000686976 5:-0.144104 6:0.14588 7:-0.544672 8:-0.477793 9:0.0568423 10:-0.417344 
-4096 1:0.0800841 2:-0.167472 3:0.103363 4:0.54382 5:0.321644 6:-0.338367 7:-0.584127 8:-0.288638 9:0.44089 10:-0.585278 
-4096 1:-0.220093 2:-0.178653 3:0.0248177 4:0.490533 5:0.0414339 6:0.226897 7:-0.89368 8:-0.85335 9:0.0264947 10:-0.0378492 
-4096 1:-0.114319 2:0.230881 3:0.291732 4:-0.167571 5:0.330008 6:0.340595 7:-0.753238 8:-0.927012 9:-0.0828765 10:-0.286606 
-4096 1:-0.350846 2:0.0536253 3:-0.0300594 4:-0.0105464 5:0.0468809 6:-0.494153 7:-0.651138 8:-0.927594 9:-0.167741 10:-0.259483 
-4096 1:-0.328479 2:0.354388 3:0.636075 4:0.247699 5:0.0877665 6:-0.073074 7:-0.837478 8:-0.393846 9:-0.107267 10:-0.0568006 
-4096 1:-0.140567 2:-0.350416 3:-0.0430884 4:0.256414 5:-0.022701 6:0.424879 7:-0.717948 8:-0.601569 9:0.149784 10:-0.194203 
-4096 1:-0.368741 2:0.133217 3:-0.187259 4:0.000427308 5:0.273323 6:0.736098 7:-0.595214 8:-0.890453 9:0.0461758 10:-0.294171 
-4096 1:0.321329 2:-0.0145159 3:-0.114206 4:-0.199278 5:-0.0702549 6:0.156176 7:-0.965887 8:-0.391357 9:-0.145796 10:0.0060092 
-4096 1:-0.0441902 2:-0.151705 3:-0.264477 4:0.531085 5:0.433194 6:-0.0656619 7:-0.543689 8:-0.67204 9:0.377294 10:-0.465074 
-4096 1:-0.285265 2:-0.544688 3:-0.0275508 4:-0.160567 5:-0.301924 6:-0.0251119 7:-0.796973 8:-0.668113 9:0.143228 10:0.010979 
-2071.75260856312 1:0.132337 2:-0.348307 3:-0.0250475 4:0.0601211 5:0.205025 6:-0.0968033 7:-0.77423 8:-0.849908 9:0.343096 10:-0.0399034 
-4096 1:-0.0716602 2:-0.102469 3:0.0687874 4:0.503457 5:0.7678 6:-0.121446 7:-0.632539 8:-0.487579 9:0.0764584 10:-0.285664 
-4096 1:0.09948 2:-0.274747 3:-0.157064 4:-0.158398 5:-0.184843 6:-0.38868 7:-0.714475 8:-0.738424 9:0.458581 10:-0.093486 
-4096 1:-0.320774 2:-0.199103 3:0.0167454 4:-0.0847856 5:-0.0874407 6:0.0155831 7:-0.832827 8:-0.866582 9:0.00615018 10:0.124323 
-4096 1:-0.137038 2:0.116372 3:0.382002 4:-0.401068 5:0.0732379 6:-0.335036 7:-0.937383 8:-0.257573 9:-0.158024 10:0.00553707 
-4096 1:-0.254576 2:0.542407 3:0.0351682 4:0.108045 5:0.163289 6:-0.156551 7:-0.919596 8:-0.934057 9:0.382888 10:0.170451 
-4096 1:-0.333464 2:0.762842 3:0.470218 4:-0.250784 5:0.154508 6:-0.0216382 7:-0.931008 8:-0.370697 9:-0.151572 10:0.234537 
-4096 1:-0.389685 2:-0.172915 3:-0.109204 4:0.014127 5:-0.367376 6:-0.250086 7:-0.998911 8:-0.61463 9:0.105284 10:0.123719 
-936.4868626586467 1:-0.0324903 2:0.0754971 3:-0.0963879 4:-0.0071737 5:-0.154178 6:0.303601 7:-0.981472 8:-0.966068 9:0.14302 10:0.304892 
-2431.366863379995 1:0.240066 2:-0.0378589 3:0.126456 4:0.251698 5:0.0271784 6:-0.203855 7:-0.974689 8:-0.594811 9:-0.0333031 10:0.0837947 
-4096 1:-0.18336 2:0.0401148 3:-0.239031 4:-0.101878 5:-0.396763 6:-0.2722 7:-0.863319 8:-0.316231 9:0.314557 10:0.120082 
-4096 1:-0.466959 2:0.287375 3:-0.116415 4:-0.232886 5:-0.524845 6:0.556706 7:-0.927266 8:-0.25455 9:-0.04462 10:0.283539 
-4096 1:-0.0760707 2:0.212294 3:0.232842 4:-0.443327 5:-0.0245681 6:0.328567 7:-0.956585 8:-0.965029 9:0.51886 10:0.244708 
-4096 1:-0.276981 2:0.245029 3:0.159404 4:-0.178734 5:-0.0762794 6:0.130192 7:-0.971275 8:-0.734272 9:0.0438734 10:-0.248282 
-4096 1:0.0140399 2:-0.435917 3:-0.34241 4:0.164058 5:-0.0275042 6:-0.268098 7:-0.919765 8:-0.668551 9:0.541104 10:0.146605 
-4096 1:-0.311497 2:-0.0162813 3:0.226205 4:-0.207795 5:-0.156788 6:0.0786026 7:-0.984966 8:-0.394511 9:0.0469172 10:0.135265 
-4096 1:0.00723267 2:-0.0344751 3:-0.0209179 4:-0.094844 5:-0.0864477 6:-0.319067 7:-0.950083 8:-0.929789 9:0.356 10:-0.0406985 
-4096 1:-0.0391557 2:0.0916068 3:-0.0739435 4:-0.518809 5:-0.436786 6:-0.302559 7:-0.763097 8:-0.804946 9:-0.0386884 10:-0.0437715 
-4096 1:-0.196944 2:-0.262757 3:-0.317122 4:0.158258 5:-0.0334702 6:0.372068 7:-0.838526 8:-0.406056 9:0.738995 10:0.0606023 
-4096 1:-0.0880566 2:0.0328568 3:0.153433 4:-0.188265 5:0.0469862 6:-0.0867744 7:-0.918999 8:-0.557957 9:0.154116 10:0.0913073 
-4096 1:-0.268231 2:-0.0228772 3:-0.0570325 4:-0.00948186 5:-0.278382 6:0.0481132 7:-0.730785 8:-0.67348 9:0.223332 10:-0.0275452 
-4096 1:-0.194533 2:-0.186769 3:0.13891 4:-0.291087 5:-0.571911 6:-0.118831 7:-0.873242 8:-0.42984 9:0.125381 10:-0.341676 
-4096 1:-0.126309 2:-0.376799 3:-0.0116341 4:-0.271637 5:-0.0166961 6:0.130975 7:-0.865937 8:-0.784633 9:-0.034812 10:0.0205293 
-4096 1:-0.240026 2:0.623422 3:0.22502 4:0.0742088 5:-0.0875577 6:-0.206778 7:-0.862966 8:-0.713625 9:0.464734 10:-0.0953331 
-4096 1:-0.197367 2:0.224334 3:0.187087 4:0.00380001 5:-0.115567 6:0.0218714 7:-0.899443 8:-0.5716 9:0.170805 10:0.131952 
-4096 1:-0.14498 2:-0.3346 3:-0.284525 4:0.0821382 5:-0.167938 6:-0.0246807 7:-0.927705 8:-0.488947 9:0.0405823 10:-0.0102254 
-4096 1:-0.0929091 2:0.0993061 3:0.0226699 4:0.496642 5:-0.104773 6:-0.439837 7:-0.870282 8:-0.984667 9:0.0773299 10:0.0656632 
-4096 1:-0.320192 2:0.752029 3:0.486652 4:-0.150479 5:0.0115085 6:0.118366 7:-0.783839 8:-0.972952 9:0.444871 10:0.0496854 
-4096 1:-0.162121 2:0.165731 3:0.152592 4:0.31368 5:0.391669 6:-0.447095 7:-0.929957 8:-0.520833 9:0.0733235 10:0.0904459 
-4096 1:-0.248197 2:0.0436702 3:0.416635 4:-0.138152 5:-0.17852 6:0.477443 7:-0.988378 8:-0.809952 9:-0.103923 10:-0.00599284 
-4096 1:-0.261487 2:0.350465 3:0.439258 4:0.0371489 5:0.544633 6:0.0498235 7:-0.65826 8:-0.56179 9:0.562983 10:-0.0869838 
-4096 1:-0.0529593 2:-0.171125 3:0.0822772 4:0.466984 5:0.473424 6:-0.515338 7:-0.985449 8:-0.611614 9:-0.249379 10:-0.195747 
-4096 1:0.057313 2:0.0263345 3:0.196507 4:-0.421541 5:-0.590662 6:-0.301449 7:-0.915719 8:-0.990117 9:0.356807 10:0.0596415 
-4096 1:-0.479259 2:0.331535 3:0.108896 4:0.0327615 5:0.136259 6:0.40562 7:-0.872701 8:-0.31751 9:-0.271206 10:0.134387 
-4096 1:-0.491472 2:0.228674 3:0.218765 4:-0.271926 5:-0.0731014 6:0.218955 7:-0.885811 8:-0.273346 9:0.423837 10:0.080556 
-4096 1:-0.229845 2:0.390702 3:0.288084 4:-0.269637 5:-0.320288 6:0.156528 7:-0.908331 8:-0.609606 9:0.37706 10:0.171901 
-4096 1:-0.16949 2:-0.0913616 3:-0.00434528 4:-0.35044 5:-0.00862311 6:0.471772 7:-0.993352 8:-0.41961 9:-0.0959105 10:0.152842 
-4096 1:-0.412 2:-0.0317289 3:0.216276 4:0.17921 5:0.0647397 6:0.259913 7:-0.959998 8:-0.806938 9:-0.0927106 10:0.0568916 
-4096 1:-0.143361 2:-0.169605 3:-0.0790858 4:-0.102206 5:-0.0467599 6:0.047523 7:-0.792877 8:-0.59395 9:0.489774 10:-0.0405494 
-4096 1:-0.163778 2:0.0787338 3:0.1217 4:0.0322342 5:0.0926965 6:-0.12827 7:-0.982342 8:-0.88816 9:0.188249 10:0.308744 
-4096 1:-0.193803 2:0.467155 3:0.284528 4:-0.161214 5:0.0642578 6:-0.192162 7:-0.935169 8:-0.844098 9:-0.21068 10:0.0500664 
-4096 1:-0.181883 2:-0.0450678 3:-0.127319 4:0.573299 5:0.115772 6:-0.314056 7:-0.971545 8:-0.737004 9:0.0684455 10:0.084888 
-4096 1:-0.0438664 2:-0.392713 3:-0.273759 4:-0.369302 5:-0.156197 6:0.203827 7:-0.94412 8:-0.685799 9:0.513436 10:0.249736 
-4096 1:-0.187608 2:0.163328 3:0.0112541 4:0.194422 5:-0.289596 6:0.418111 7:-0.986953 8:-0.0150072 9:0.274882 10:0.118558 
-4096 1:-0.501097 2:-0.164922 3:0.022587 4:-0.288391 5:-0.145251 6:0.247602 7:-0.890574 8:-0.493305 9:0.0192102 10:0.232574 
-4096 1:-0.173934 2:0.0705931 3:0.0567856 4:-0.104415 5:-0.284783 6:0.0465 7:-0.787411 8:-0.915783 9:0.284977 10:-0.144261 
-4096 1:-0.127739 2:0.117279 3:-0.0423233 4:0.0316173 5:0.162528 6:0.108965 7:-0.827661 8:-0.895414 9:-0.201366 10:0.0842751 
-4096 1:0.0197244 2:-0.207439 3:0.0021942 4:0.618497 5:0.539366 6:0.103016 7:-0.954609 8:-0.598361 9:0.11024 10:-0.094687 
-4096 1:-0.328836 2:0.185911 3:0.125312 4:-0.104534 5:-0.122899 6:-0.228309 7:-0.918551 8:-0.0812925 9:0.16062 10:0.15714 
-4096 1:-0.334854 2:0.00863105 3:0.172758 4:-0.307157 5:0.0856029 6:-0.067321 7:-0.705874 8:-0.450795 9:0.0531351 10:-0.0547216 
-4096 1:-0.155001 2:-0.240811 3:-0.243533 4:-0.388005 5:-0.523772 6:-0.583347 7:-0.851444 8:-0.592197 9:0.256138 10:-0.386462 
-4096 1:-0.100154 2:0.236447 3:-0.0618061 4:-0.133695 5:0.199348 6:0.287099 7:-0.90161 8:-0.54202 9:0.123092 10:0.18136 
-4096 1:0.191834 2:-0.0297183 3:-0.0900828 4:-0.313736 5:-0.142137 6:-0.325696 7:-0.905221 8:-0.960437 9:-0.206661 10:-0.190528 
-4096 1:-0.563581 2:-0.0453375 3:0.048043 4:0.28649 5:0.15171 6:-0.264539 7:-0.930686 8:-0.750322 9:0.0555936 10:0.145486 
-4096 1:-0.141638 2:0.74357 3:-0.0494738 4:-0.0994902 5:-0.0316421 6:-0.108684 7:-0.950927 8:-0.664352 9:-0.280858 10:0.174775 
-4096 1:0.0257658 2:-0.0376628 3:0.0884638 4:-0.236418 5:-0.152241 6:-0.415299 7:-0.866393 8:-0.924568 9:0.137882 10:-0.0212252 
-4096 1:-0.403134 2:-0.229213 3:-0.012328 4:-0.0455966 5:-0.0876124 6:-0.236311 7:-0.875021 8:-0.729391 9:-0.0224804 10:0.190438 
-4096 1:-0.116359 2:0.212319 3:0.27776 4:-0.104853 5:-0.148864 6:-0.0560995 7:-0.979653 8:-0.460328 9:0.275312 10:0.0944135 
-4096 1:-0.494994 2:0.00291788 3:0.037686 4:-0.0589581 5:0.324678 6:-0.143424 7:-0.761708 8:-0.745973 9:-0.109569 10:0.0253748 
-4096 1:0.0517089 2:0.366256 3:0.260338 4:0.118143 5:-0.474041 6:-0.459953 7:-0.883726 8:-0.911472 9:-0.450402 10:-0.154647 
-4096 1:-0.154928 2:-0.00669397 3:0.164455 4:0.20075 5:0.129072 6:-0.0121553 7:-0.993858 8:-0.875288 9:0.239188 10:0.305331 
-4096 1:0.242444 2:-0.277444 3:-0.425049 4:-0.0647782 5:-0.32871 6:-0.227735 7:-0.973354 8:-0.995317 9:0.213563 10:0.187166 
-4096 1:-0.233284 2:-0.504598 3:0.104658 4:-0.220957 5:-0.448209 6:-0.519962 7:-0.906445 8:-0.749688 9:0.0933037 10:0.0181935 
-4096 1:-0.0752364 2:-0.121668 3:-0.254498 4:-0.152936 5:0.119731 6:0.162067 7:-0.780173 8:-0.673269 9:0.413795 10:0.122965 
-4096 1:-0.419694 2:0.723954 3:0.393458 4:-0.0900386 5:-0.146207 6:-0.0774241 7:-0.969978 8:-0.446319 9:0.0274703 10:0.0205376 
