svm_type c_svc
kernel_type linear
nr_class 2
total_sv 532
rho 6.45238
label 1 -1
nr_sv 266 266
SV
131072 1:0.00146781 2:0.0625015 3:-0.204163 4:0.360122 5:-0.0621098 6:0.0060189 7:-0.779062 8:-0.799775 9:0.0735836 10:-0.976486 
131072 1:-0.0811809 2:-0.164235 3:-0.326152 4:-0.0538443 5:0.0910753 6:0.082207 7:-0.939883 8:-0.621576 9:-0.111065 10:-0.0429846 
131072 1:-0.390082 2:-0.146458 3:-0.484883 4:-0.505399 5:-0.0995462 6:-0.0264688 7:-0.85059 8:-0.871774 9:-0.135611 10:-0.905138 
131072 1:-0.115635 2:0.121644 3:-0.147893 4:-0.0711555 5:-0.0630072 6:-0.12833 7:-0.874289 8:-0.921126 9:0.0588196 10:-0.0224511 
131072 1:-0.55542 2:-0.575411 3:-0.572885 4:-0.30026 5:-0.116238 6:0.559356 7:-0.691752 8:-0.521872 9:-0.0703368 10:-0.083712 
131072 1:-0.0386381 2:0.255008 3:0.0811566 4:-0.231971 5:-0.106199 6:0.293797 7:-0.91409 8:-0.741142 9:-0.0314819 10:-0.127645 
131072 1:-0.331649 2:0.341123 3:0.287017 4:-0.0584109 5:-0.431042 6:-0.0760229 7:-0.769776 8:-0.439759 9:-0.195539 10:-0.748529 
131072 1:-0.104082 2:-0.387956 3:-0.303327 4:-0.0489196 5:-0.105936 6:0.285054 7:-0.866405 8:-0.734037 9:-0.0374526 10:-0.101711 
131072 1:0.0626052 2:-0.334404 3:0.118125 4:0.29812 5:0.30949 6:-0.166357 7:-0.804619 8:-0.729611 9:0.0668065 10:-0.935863 
131072 1:-0.0253215 2:-0.152392 3:0.416029 4:-0.0816318 5:-0.35617 6:0.210995 7:-0.948876 8:-0.794279 9:0.3019 10:-0.271405 
32765.65855705953 1:-0.3997 2:0.228919 3:0.274744 4:-0.207307 5:-0.213601 6:-0.107767 7:-0.778743 8:-0.576729 9:-0.0243406 10:-0.133799 
131072 1:0.165933 2:0.508104 3:-0.150696 4:0.393969 5:0.136657 6:-0.486499 7:-0.726261 8:-0.518352 9:0.33217 10:-0.35694 
131072 1:-0.0113383 2:0.303264 3:-0.302143 4:-0.512431 5:-0.625589 6:-0.406706 7:-0.708528 8:-0.546418 9:-0.0400152 10:-0.894866 
131072 1:0.153198 2:-0.300051 3:-0.105381 4:0.943709 5:0.224177 6:-0.332163 7:-0.821709 8:-0.491754 9:-0.0114757 10:-0.206736 
37697.84433809471 1:-0.18571 2:0.269058 3:-0.000236704 4:-0.0817512 5:-0.236646 6:-0.315738 7:-0.868946 8:-0.651772 9:0.136724 10:-0.731115 
131072 1:0.194129 2:-0.334453 3:-0.268822 4:0.117755 5:0.00444032 6:-0.379146 7:-0.999961 8:-0.558904 9:0.155755 10:0.0248116 
131072 1:0.180616 2:0.088836 3:0.0622755 4:0.338662 5:0.0486952 6:0.0841259 7:-0.911323 8:-0.59813 9:-0.176313 10:-0.732574 
131072 1:-0.118682 2:0.216463 3:-0.498193 4:-0.501851 5:-0.282028 6:-0.584847 7:-0.921823 8:-0.614106 9:0.336579 10:-0.83807 
131072 1:-0.0507114 2:0.225486 3:-0.0834459 4:-0.304636 5:-0.290412 6:-0.171694 7:-0.834774 8:-0.53164 9:0.191267 10:0.0168019 
131072 1:0.0163704 2:0.313538 3:-0.376562 4:0.160805 5:0.0875734 6:-0.180525 7:-0.756122 8:-0.773581 9:0.00925909 10:-0.900054 
131072 1:0.0384703 2:0.0645367 3:-0.0116854 4:-0.0122974 5:0.261111 6:-0.410742 7:-0.772015 8:-0.509779 9:-0.377924 10:-0.881716 
70405.0262303178 1:-0.21751 2:-0.059363 3:0.0661431 4:-0.108892 5:-0.0658088 6:-0.0975365 7:-0.831149 8:-0.62179 9:0.117733 10:0.019759 
131072 1:-0.291798 2:-0.344874 3:-0.486703 4:-0.053904 5:-0.039877 6:-0.3399 7:-0.843265 8:-0.6866 9:0.142318 10:-0.290774 
131072 1:0.11591 2:0.550303 3:-0.147118 4:-0.0629277 5:0.150173 6:-0.152838 7:-0.874792 8:-0.697394 9:0.29736 10:-0.679649 
131072 1:-0.323052 2:0.139151 3:0.0184981 4:-0.00363187 5:-0.328238 6:-0.0686532 7:-0.810302 8:-0.606476 9:-0.0174333 10:0.00942179 
131072 1:-0.406167 2:0.0771155 3:-0.161028 4:-0.289386 5:-0.566318 6:0.254968 7:-0.777169 8:-0.559625 9:-0.251629 10:0.037791 
131072 1:-0.1468 2:0.440649 3:0.136176 4:0.238735 5:-0.169815 6:-0.750744 7:-0.901405 8:-0.444744 9:-0.122473 10:-0.996007 
131072 1:0.37469 2:-0.005517 3:-0.251514 4:0.332922 5:-0.302059 6:-0.306024 7:-0.819838 8:-0.42729 9:-0.262803 10:-0.93624 
131072 1:0.0357403 2:0.289778 3:0.75155 4:0.39766 5:-0.0365546 6:-0.000345426 7:-0.740167 8:-0.508351 9:0.18315 10:-0.374216 
131072 1:0.199565 2:0.157002 3:0.259995 4:0.0518734 5:0.277182 6:-0.509475 7:-0.869379 8:-0.839288 9:0.391863 10:-0.632163 
131072 1:-0.20948 2:0.377388 3:0.179477 4:0.307442 5:0.295615 6:-0.346908 7:-0.478706 8:-0.606258 9:-0.182726 10:-0.99103 
131072 1:0.152827 2:-0.159772 3:-0.487268 4:0.310765 5:-0.0489001 6:0.0119733 7:-0.865337 8:-0.803529 9:-0.0992796 10:-0.11392 
108024.2468512866 1:0.142498 2:0.282471 3:0.202278 4:-0.109011 5:0.155831 6:-0.222104 7:-0.949253 8:-0.678829 9:0.24339 10:-0.825287 
131072 1:-0.206675 2:-0.101243 3:-0.0212826 4:-0.287844 5:0.125599 6:0.703481 7:-0.806342 8:-0.565734 9:0.017285 10:-0.390328 
131072 1:-0.390638 2:0.210553 3:0.262682 4:-0.464069 5:-0.332954 6:-0.0344304 7:-0.879982 8:-0.683235 9:-0.0628832 10:-0.319596 
131072 1:-0.214224 2:0.113209 3:0.300278 4:-0.379257 5:-0.181401 6:-0.0100333 7:-0.89839 8:-0.466139 9:0.142578 10:-0.0543157 
131072 1:0.0155053 2:-0.122772 3:-0.0982223 4:0.32553 5:0.178056 6:0.347468 7:-0.803083 8:-0.416709 9:0.00326241 10:-0.152444 
131072 1:-0.00771958 2:0.258858 3:0.27186 4:0.0150821 5:-0.370168 6:-0.620303 7:-0.990716 8:-0.661908 9:0.157264 10:-0.553201 
131072 1:-0.16084 2:0.00193708 3:0.336728 4:-0.364763 5:-0.047154 6:0.285273 7:-0.756431 8:-0.486128 9:0.28456 10:-0.399063 
131072 1:0.109814 2:0.0967805 3:-0.149223 4:0.2533 5:0.0958707 6:0.13095 7:-0.686944 8:-0.56808 9:-0.016848 10:-0.966541 
131072 1:-0.0427602 2:0.0430326 3:0.155783 4:0.0128934 5:0.198447 6:-0.0552602 7:-0.789669 8:-0.793149 9:0.0637366 10:-0.334546 
131072 1:-0.18448 2:-0.336586 3:-0.451564 4:0.093679 5:-0.136667 6:0.275858 7:-0.985277 8:-0.890962 9:-0.147838 10:-0.141055 
131072 1:0.213614 2:-0.614202 3:-0.612991 4:0.405281 5:0.493753 6:0.206873 7:-0.661888 8:-0.52136 9:-0.169198 10:-0.469707 
131072 1:-0.18597 2:0.181865 3:-0.431552 4:-0.605024 5:-0.56854 6:-0.0408743 7:-0.814746 8:-0.538152 9:-0.184911 10:-0.880708 
131072 1:0.222937 2:-0.301327 3:-0.404339 4:0.149453 5:0.414965 6:0.182432 7:-0.892703 8:-0.629548 9:0.0316719 10:0.110126 
131072 1:-0.138964 2:-0.197067 3:0.0570121 4:-0.310321 5:-0.0762814 6:-0.19037 7:-0.905169 8:-0.716596 9:0.358602 10:-0.766479 
131072 1:0.0067505 2:0.103401 3:-0.0453994 4:-0.0879792 5:0.0247612 6:-0.249975 7:-0.87791 8:-0.799935 9:0.0902989 10:-0.258212 
131072 1:-0.384308 2:-0.0124071 3:-0.521433 4:-0.242755 5:-0.138458 6:-0.521928 7:-0.682614 8:-0.676939 9:0.0417401 10:0.0734824 
131072 1:-0.0649097 2:0.11343 3:0.487798 4:0.0599221 5:-0.0159352 6:0.266583 7:-0.833301 8:-0.743302 9:-0.251434 10:-0.0887812 
131072 1:-0.0401461 2:-0.360101 3:-0.366412 4:-0.0559037 5:-0.159233 6:-0.425734 7:-0.997112 8:-0.810382 9:0.0919769 10:-0.155807 
131072 1:0.163711 2:0.155163 3:-0.269106 4:0.199009 5:0.196392 6:-0.161282 7:-0.742626 8:-0.782437 9:0.33295 10:-0.562891 
40998.16045808708 1:-0.249721 2:-0.279724 3:-0.108311 4:0.181638 5:0.0685986 6:0.229772 7:-0.714547 8:-0.745709 9:0.184867 10:-0.781516 
131072 1:0.0250142 2:-0.266435 3:0.0180978 4:0.273944 5:0.157536 6:-0.0729856 7:-0.820939 8:-0.357938 9:-0.0232479 10:-0.629747 
131072 1:-0.0739955 2:-0.283035 3:-0.300991 4:0.253091 5:0.255014 6:-0.0879671 7:-0.858191 8:-0.493592 9:-0.26067 10:-0.212382 
131072 1:-0.282568 2:0.115612 3:-0.345888 4:-0.0482828 5:-0.0367458 6:-0.183637 7:-0.842795 8:-0.623059 9:-0.230322 10:-0.791464 
131072 1:-0.199097 2:0.0699311 3:-0.0878824 4:0.114064 5:-0.185106 6:-0.479325 7:-0.847501 8:-0.643008 9:-0.199571 10:-0.156188 
131072 1:-0.525555 2:-0.155016 3:-0.0209916 4:-0.599624 5:-0.211465 6:0.166705 7:-0.782676 8:-0.686687 9:0.00366565 10:-0.354266 
131072 1:0.267302 2:-0.246794 3:0.126834 4:-0.18915 5:0.00206994 6:-0.46469 7:-0.825674 8:-0.44736 9:0.0331808 10:-0.836565 
131072 1:-0.278768 2:0.222102 3:0.289085 4:-0.247123 5:-0.217671 6:0.0457244 7:-0.71838 8:-0.604964 9:0.290596 10:-0.367819 
131072 1:-0.146187 2:-0.283917 3:-0.0638235 4:-0.115936 5:0.064289 6:0.461329 7:-0.893989 8:-0.88262 9:0.0197175 10:-0.0880606 
131072 1:0.0106883 2:0.000931761 3:-0.270564 4:0.224727 5:0.150986 6:0.266723 7:-0.795731 8:-0.538 9:0.0420132 10:-0.567107 
131072 1:-0.307509 2:0.397175 3:0.229063 4:-0.345482 5:-0.234991 6:-0.279314 7:-0.829837 8:-0.549149 9:0.0893493 10:-0.468828 
131072 1:0.279344 2:-0.138685 3:-0.59999 4:-0.316231 5:-0.289949 6:-0.382166 7:-0.809407 8:-0.754036 9:0.217998 10:-0.991926 
131072 1:-0.661069 2:-0.245421 3:-0.254822 4:-0.37464 5:-0.506399 6:-0.497176 7:-0.805614 8:-0.490051 9:0.114234 10:-0.674678 
17309.5780671296 1:-0.322703 2:0.00510016 3:-0.0398989 4:-0.299086 5:-0.0931491 6:-0.171949 7:-0.917036 8:-0.828978 9:-0.137523 10:-0.0265263 
131072 1:-0.126236 2:0.0206459 3:0.170508 4:-0.105887 5:-0.369723 6:-0.155361 7:-0.853019 8:-0.565904 9:0.118877 10:-0.146182 
131072 1:0.468675 2:-0.165706 3:-0.120642 4:0.20273 5:-0.182904 6:0.46739 7:-0.781292 8:-0.474779 9:0.0636195 10:-0.95767 
131072 1:-0.0200648 2:0.169041 3:-0.370273 4:-0.0933019 5:-0.559954 6:-0.157178 7:-0.797394 8:-0.77841 9:0.276899 10:0.0787503 
131072 1:0.246918 2:0.0405071 3:-0.0754724 4:0.447623 5:0.165979 6:0.515007 7:-0.852724 8:-0.368634 9:-0.187123 10:-0.230695 
131072 1:-0.29584 2:0.20028 3:-0.464433 4:0.24556 5:-0.00478953 6:-0.406459 7:-0.70014 8:-0.664511 9:-0.154082 10:-0.634453 
131072 1:0.228382 2:-0.172964 3:-0.108989 4:0.0014421 5:-0.352917 6:-0.712491 7:-0.982327 8:-0.604392 9:0.282453 10:-0.846816 
131072 1:-0.0110216 2:0.412893 3:0.248117 4:-0.0100689 5:-0.133588 6:-0.411917 7:-0.850899 8:-0.627304 9:0.188574 10:-0.298796 
131072 1:-0.140624 2:-0.0879778 3:-0.381751 4:-0.0314392 5:0.102426 6:-0.162461 7:-0.868231 8:-0.545697 9:-0.0184609 10:-0.309222 
131072 1:-0.035615 2:-0.28073 3:-0.208037 4:-0.138878 5:-0.133748 6:-0.357847 7:-0.876745 8:-0.846076 9:0.375343 10:-0.841554 
131072 1:-0.221894 2:-0.141726 3:-0.283947 4:-0.203656 5:-0.275354 6:0.121412 7:-0.903288 8:-0.966989 9:0.250831 10:-0.763572 
131072 1:0.0969864 2:0.12694 3:-0.5149 4:0.111209 5:-0.0474057 6:-0.100174 7:-0.768947 8:-0.632858 9:0.128451 10:-0.323479 
131072 1:-0.0699277 2:-0.0316553 3:-0.0766628 4:0.148985 5:0.10848 6:-0.3324 7:-0.751335 8:-0.751433 9:0.130611 10:-0.265061 
131072 1:0.109549 2:0.0979084 3:-0.388151 4:-0.023291 5:-0.0950142 6:-0.271375 7:-0.979136 8:-0.571284 9:-0.137432 10:-0.173882 
131072 1:-0.187489 2:0.140647 3:0.0788178 4:-0.291137 5:-0.17925 6:-0.00913568 7:-0.7266 8:-0.57395 9:0.297373 10:-0.148493 
131072 1:-0.221504 2:0.201555 3:0.182399 4:0.119666 5:-0.353003 6:0.176557 7:-0.932006 8:-0.793463 9:-0.0967951 10:-0.168811 
131072 1:-0.239792 2:0.335238 3:0.533901 4:-0.600771 5:-0.541192 6:-0.079327 7:-0.837924 8:-0.608985 9:0.131079 10:-0.230397 
131072 1:-0.238633 2:0.45774 3:0.310589 4:-0.103778 5:-0.18931 6:-0.209467 7:-0.818954 8:-0.441985 9:-0.07381 10:-0.195529 
131072 1:-0.185409 2:0.169973 3:-0.317011 4:-0.334828 5:-0.29182 6:0.0104591 7:-0.705967 8:-0.762051 9:0.373067 10:-0.81202 
131072 1:0.0511487 2:-0.329843 3:-0.211743 4:-0.295753 5:0.239071 6:-0.0928066 7:-0.79506 8:-0.506841 9:-0.15965 10:0.0376999 
131072 1:0.0807294 2:0.585342 3:-0.0573341 4:0.0954001 5:0.199303 6:-0.0717205 7:-0.79864 8:-0.603566 9:0.0388783 10:-0.391435 
131072 1:-0.224816 2:-0.26055 3:-0.14885 4:-0.392007 5:-0.309002 6:-0.0346566 7:-0.861301 8:-0.79783 9:-0.0676312 10:0.0640066 
131072 1:-0.144996 2:-0.311723 3:-0.514184 4:-0.502281 5:-0.628412 6:-0.112004 7:-0.764225 8:-0.654937 9:-0.335297 10:-0.919135 
131072 1:0.123173 2:-0.0734865 3:-0.670216 4:0.436162 5:-0.292889 6:-0.138818 7:-0.939625 8:-0.591339 9:-0.0532964 10:-0.459277 
131072 1:-0.117715 2:-0.190692 3:-0.112696 4:-0.028564 5:0.593914 6:-0.247148 7:-0.718748 8:-0.610118 9:-0.109907 10:-0.68877 
131072 1:-0.290394 2:0.285021 3:0.0623085 4:-0.161104 5:-0.544889 6:-0.722348 7:-0.973856 8:-0.771227 9:0.085538 10:-0.663309 
131072 1:-0.0780254 2:-0.504181 3:-0.203896 4:0.174126 5:0.194843 6:0.100015 7:-0.88184 8:-0.571641 9:-0.386851 10:-0.799985 
131072 1:0.12249 2:0.0571807 3:0.108112 4:0.243063 5:0.145586 6:-0.0467757 7:-0.822089 8:-0.593371 9:0.109668 10:-0.121516 
131072 1:-0.505746 2:-0.00671849 3:-0.318483 4:-0.621295 5:-0.28466 6:0.0912853 7:-0.980093 8:-0.965425 9:0.226245 10:0.129989 
131072 1:-0.321759 2:-0.0602457 3:0.196555 4:0.341936 5:-0.0778967 6:-0.192224 7:-0.767192 8:-0.526659 9:-0.248872 10:-0.331631 
131072 1:-0.101761 2:0.131697 3:0.190404 4:-0.0954509 5:-0.346651 6:-0.135659 7:-0.913321 8:-0.614323 9:-0.0762034 10:-0.108163 
131072 1:0.0626028 2:-0.453743 3:-0.0987977 4:-0.0990226 5:-0.332111 6:-0.303605 7:-0.875762 8:-0.774687 9:0.0571805 10:0.00159437 
131072 1:-0.0482486 2:-0.237942 3:0.284858 4:0.325042 5:-0.0802164 6:-0.70326 7:-0.831232 8:-0.626272 9:0.148562 10:-0.202327 
131072 1:0.00368725 2:0.0427874 3:-0.0771421 4:-0.120363 5:-0.180406 6:-0.525759 7:-0.886609 8:-0.597757 9:0.0321271 10:-0.969113 
131072 1:-0.0365274 2:-0.134983 3:-0.0879969 4:0.188134 5:0.230354 6:0.223565 7:-0.571676 8:-0.675164 9:0.235117 10:-0.849173 
131072 1:-0.0944928 2:-0.0790035 3:-0.53887 4:-0.553694 5:-0.612783 6:-0.308649 7:-0.756372 8:-0.709293 9:0.069304 10:0.0506462 
131072 1:0.0679304 2:-0.00779737 3:0.475485 4:0.448489 5:0.350167 6:-0.407192 7:-0.669392 8:-0.456884 9:0.538333 10:-0.389324 
131072 1:-0.198738 2:0.131673 3:-0.0540288 4:-0.359684 5:-0.367032 6:-0.117244 7:-0.922168 8:-0.644454 9:0.202415 10:0.280317 
131072 1:-0.127796 2:-0.0332737 3:-0.278653 4:0.335379 5:0.11809 6:-0.161189 7:-0.667556 8:-0.628561 9:0.228613 10:-0.780161 
131072 1:0.045658 2:-0.289557 3:-0.0904423 4:0.157382 5:-0.156219 6:-0.254517 7:-0.964886 8:-0.818454 9:0.370283 10:-0.934321 
131072 1:-0.056734 2:0.447932 3:0.281131 4:-0.0474173 5:-0.170537 6:-0.34143 7:-0.839177 8:-0.745909 9:-0.0298559 10:-0.711051 
131072 1:-0.206202 2:-0.16882 3:-0.418972 4:-0.46329 5:-0.096097 6:0.295032 7:-0.76482 8:-0.731759 9:0.188587 10:-0.107981 
131072 1:0.0224047 2:0.347253 3:0.413422 4:-0.072041 5:-0.134361 6:-0.428075 7:-0.994279 8:-0.746591 9:-0.0666426 10:-0.447984 
131072 1:0.143935 2:0.329819 3:-0.478291 4:0.29627 5:0.304491 6:-0.531323 7:-0.537259 8:-0.396547 9:-0.0734978 10:-0.165051 
131072 1:-0.25295 2:0.320231 3:-0.0264012 4:-0.305755 5:-0.310465 6:-0.0874282 7:-0.857539 8:-0.51287 9:-0.188111 10:-0.808908 
131072 1:-0.0796043 2:-0.0418312 3:-0.582511 4:0.128232 5:0.315662 6:-0.286721 7:-0.711677 8:-0.716419 9:0.193947 10:-0.434108 
131072 1:0.227321 2:-0.0182184 3:-0.00479433 4:-0.0635048 5:-0.363441 6:-0.209785 7:-0.686258 8:-0.460526 9:-0.234238 10:-0.963682 
131072 1:-0.268127 2:0.124513 3:-0.045061 4:-0.18537 5:-0.355799 6:-0.73573 7:-0.905521 8:-0.638196 9:-0.192001 10:-0.0243396 
131072 1:0.00955848 2:-0.155653 3:-0.0644148 4:0.129256 5:0.178959 6:-0.2769 7:-0.744423 8:-0.810542 9:0.190604 10:-0.176391 
131072 1:-0.330867 2:0.0901846 3:0.0624125 4:-0.252933 5:-0.261717 6:-0.0153587 7:-0.785887 8:-0.517932 9:0.0265077 10:-0.670715 
131072 1:-0.0772242 2:-0.253022 3:-0.0326049 4:0.166306 5:-0.0177496 6:0.187911 7:-0.893488 8:-0.702567 9:-0.162837 10:-0.0618201 
131072 1:-0.197781 2:0.240223 3:0.16452 4:0.0670555 5:-0.0822024 6:-0.0175125 7:-0.721076 8:-0.661218 9:-0.470919 10:-0.812581 
131072 1:0.121901 2:0.0440134 3:0.145586 4:0.296389 5:-0.510935 6:-0.922704 7:-0.889055 8:-0.793575 9:0.282804 10:-0.78144 
131072 1:-0.0152524 2:-0.380256 3:-0.0233185 4:0.305323 5:0.229704 6:-0.0251861 7:-0.851274 8:-0.630647 9:0.0295386 10:-0.108917 
131072 1:-0.231845 2:-0.0555624 3:-0.493012 4:-0.6219 5:-0.492875 6:-0.224411 7:-0.599109 8:-0.54329 9:-0.492559 10:-0.949514 
131072 1:0.0182471 2:-0.276365 3:0.0813817 4:0.0887741 5:-0.191892 6:-0.284673 7:-0.931347 8:-0.483868 9:0.272632 10:-0.705916 
131072 1:0.0253191 2:0.257853 3:0.338072 4:-0.496711 5:-0.378914 6:-0.28694 7:-0.852726 8:-0.81933 9:0.567107 10:-0.519343 
131072 1:-0.326411 2:0.202143 3:0.167612 4:-0.116772 5:-0.468596 6:-0.269785 7:-0.821235 8:-0.449978 9:-0.269997 10:-0.742138 
131072 1:-0.22036 2:0.219994 3:0.228641 4:-0.288182 5:-0.285718 6:-0.384797 7:-0.811465 8:-0.639379 9:-0.189945 10:-0.162972 
131072 1:0.0367779 2:2.22045e-016 3:-0.135974 4:0.12075 5:0.0346446 6:0.210147 7:-0.939198 8:-0.651182 9:0.0613171 10:0.0614638 
131072 1:-0.337785 2:-0.171738 3:-0.0231394 4:-0.443282 5:-0.168521 6:-0.249616 7:-0.749659 8:-0.824477 9:-0.241834 10:-0.840016 
131072 1:-0.129446 2:0.388422 3:0.204424 4:-0.382231 5:0.0228434 6:-0.0562656 7:-0.662322 8:-0.789904 9:0.35362 10:-0.810362 
131072 1:-0.130436 2:-0.108967 3:0.177929 4:-0.0242461 5:-0.141909 6:0.0176803 7:-0.831266 8:-0.598509 9:0.182773 10:-0.400617 
131072 1:-0.0939775 2:-0.156904 3:-0.0798785 4:-0.00702447 5:0.00710139 6:0.0113655 7:-0.974788 8:-0.888883 9:-0.123566 10:-0.0755202 
131072 1:-0.075754 2:0.415345 3:0.350108 4:0.153721 5:0.300986 6:-0.220275 7:-0.734492 8:-0.607384 9:0.049805 10:-0.649346 
131072 1:0.225258 2:0.143933 3:-0.361585 4:0.0988624 5:-0.0756239 6:0.211025 7:-0.98142 8:-0.828845 9:-0.269827 10:-0.890499 
131072 1:-0.46529 2:-0.0243974 3:0.0900466 4:-0.33835 5:0.301745 6:0.497657 7:-0.701127 8:-0.829852 9:0.0728031 10:-0.584832 
131072 1:0.103607 2:0.44445 3:0.207282 4:0.235611 5:-0.166721 6:-0.282533 7:-0.802329 8:-0.513403 9:0.385971 10:-0.288224 
131072 1:0.42621 2:-0.345144 3:-0.188266 4:0.77003 5:0.526022 6:0.17993 7:-0.643169 8:-0.710225 9:0.150734 10:-0.909961 
24802.74233544765 1:-0.232949 2:0.257902 3:0.191846 4:-0.130372 5:-0.0862682 6:-0.0321564 7:-0.698508 8:-0.763658 9:0.390523 10:-0.247601 
131072 1:-0.17141 2:-0.468259 3:-0.270609 4:-0.0809552 5:0.365503 6:0.382526 7:-0.652127 8:-0.615391 9:0.267832 10:-0.872949 
131072 1:-0.164829 2:0.074737 3:0.301384 4:-0.0113523 5:-0.64655 6:-0.160284 7:-0.965455 8:-0.824652 9:-0.00979762 10:-0.207654 
131072 1:0.0802591 2:-0.0845941 3:-0.429387 4:-0.0823182 5:0.200768 6:-0.251079 7:-0.855446 8:-0.407087 9:-0.0154821 10:-0.871314 
131072 1:0.105429 2:-0.398622 3:0.08908 4:0.370041 5:0.328363 6:0.14114 7:-0.880213 8:-0.582115 9:-0.27637 10:-0.831487 
131072 1:0.09571 2:0.479219 3:-0.173773 4:-0.18525 5:0.0037809 6:-0.304305 7:-0.982496 8:-0.753284 9:0.174461 10:-0.415401 
131072 1:-0.178368 2:0.128828 3:-0.0400952 4:-0.276015 5:-0.49832 6:-0.314401 7:-0.907139 8:-0.954636 9:0.31911 10:-0.643236 
131072 1:-0.0708424 2:0.58495 3:-0.245026 4:-0.705078 5:-0.383613 6:0.301031 7:-0.799973 8:-0.746319 9:0.306895 10:-0.246486 
131072 1:-0.112357 2:-0.101611 3:0.125923 4:-0.00420891 5:0.0733355 6:-0.0996709 7:-0.60876 8:-0.667133 9:0.24391 10:-0.824357 
131072 1:-0.168559 2:-0.240026 3:-0.0444197 4:0.0681101 5:-0.183196 6:-0.373646 7:-0.934987 8:-0.614698 9:0.00768512 10:-0.250522 
131072 1:-0.129276 2:-0.314469 3:-0.295178 4:0.250067 5:0.49426 6:-0.00281553 7:-0.684599 8:-0.381356 9:0.101447 10:-0.586047 
131072 1:0.000638177 2:-0.212981 3:-0.321005 4:-0.342846 5:-0.0527844 6:-0.182381 7:-0.806097 8:-0.533541 9:-0.115006 10:0.0604698 
131072 1:-0.117479 2:-0.052105 3:-0.388074 4:-0.138013 5:-0.19339 6:0.16245 7:-0.840093 8:-0.565996 9:0.100705 10:-0.962074 
73355.885942772 1:-0.182998 2:0.266508 3:-0.000751593 4:-0.487234 5:-0.225719 6:-0.433872 7:-0.974257 8:-0.7956 9:0.140939 10:-0.279468 
131072 1:-0.0989884 2:-0.198391 3:-0.448636 4:-0.305003 5:0.0116392 6:0.0620044 7:-0.807247 8:-0.709093 9:0.347649 10:-0.411634 
131072 1:-0.112062 2:-0.11929 3:-0.0864865 4:-0.257967 5:0.145534 6:0.0609284 7:-0.963636 8:-0.71887 9:-0.0856212 10:-0.131455 
131072 1:-0.144507 2:0.237305 3:0.0715646 4:-0.498825 5:-0.0437652 6:0.644167 7:-0.869975 8:-0.647274 9:0.154272 10:-0.547296 
131072 1:-0.27062 2:0.333031 3:0.112184 4:-0.162019 5:-0.271084 6:0.157494 7:-0.72377 8:-0.651258 9:0.283793 10:-0.884207 
131072 1:-0.0361468 2:-0.4036 3:-0.127625 4:-0.0340956 5:-0.14845 6:-0.122391 7:-0.70901 8:-0.522492 9:0.163235 10:-0.769496 
131072 1:-0.39 2:0.237869 3:0.575869 4:-0.44372 5:-0.614182 6:-0.398794 7:-0.978634 8:-0.388826 9:-0.0843594 10:-0.707792 
131072 1:0.173185 2:-0.317289 3:-0.0178601 4:0.245868 5:-0.0155918 6:-0.0606881 7:-0.976176 8:-0.910645 9:0.161687 10:-0.845491 
131072 1:-0.176506 2:0.0790525 3:0.154798 4:-0.188991 5:-0.0339969 6:-0.132123 7:-0.829433 8:-0.724186 9:-0.0309746 10:0.0611573 
131072 1:-0.0820294 2:0.230169 3:-0.307311 4:-0.307374 5:-0.21741 6:-0.623957 7:-0.791645 8:-0.623776 9:0.308716 10:-0.466536 
131072 1:0.100451 2:0.393963 3:-0.453905 4:0.394247 5:0.295845 6:-0.229118 7:-0.818311 8:-0.830653 9:0.11171 10:-0.291668 
131072 1:-0.191522 2:0.223696 3:-0.0969173 4:-0.158159 5:-0.30343 6:-0.0394007 7:-0.963603 8:-0.691699 9:-0.000848121 10:-0.656555 
131072 1:0.325203 2:-0.176789 3:-0.54857 4:0.0376066 5:-0.181444 6:-0.353055 7:-0.730172 8:-0.548938 9:-0.0859334 10:-0.475841 
131072 1:-0.197289 2:0.160802 3:0.0420105 4:-0.267837 5:-0.254821 6:-0.0887622 7:-0.855563 8:-0.720688 9:0.0694211 10:0.0106725 
131072 1:-0.171053 2:-0.243704 3:-0.148916 4:0.00690409 5:-0.291736 6:-0.105466 7:-0.892341 8:-0.571813 9:0.0102477 10:-0.121333 
131072 1:-0.0766333 2:0.0143933 3:0.0610179 4:-0.225534 5:0.181891 6:0.225021 7:-0.802505 8:-0.706967 9:-0.0499143 10:-0.934697 
131072 1:0.178226 2:-0.154574 3:-0.162313 4:0.193537 5:0.0976753 6:-0.317159 7:-0.802395 8:-0.636528 9:-0.0960016 10:-0.788717 
131072 1:0.236603 2:-0.126401 3:-0.027327 4:0.281983 5:-0.243892 6:-0.560295 7:-0.990811 8:-0.574187 9:0.0755218 10:-0.130594 
131072 1:-0.302475 2:0.458966 3:0.307639 4:-0.46897 5:-0.706393 6:-0.516483 7:-0.853219 8:-0.579826 9:-0.181386 10:-0.750469 
131072 1:-0.243164 2:0.0301106 3:-0.218838 4:-0.0206048 5:-0.288654 6:-0.0233114 7:-0.895602 8:-0.699751 9:-0.111325 10:-0.304221 
131072 1:0.0115085 2:-0.403183 3:0.0240276 4:0.11109 5:-0.0105097 6:-0.0592163 7:-0.93808 8:-0.624305 9:0.0524326 10:-0.897367 
131072 1:0.231221 2:-0.235785 3:0.0874616 4:0.171201 5:0.0729336 6:-0.213794 7:-0.923511 8:-0.854515 9:0.0391905 10:-0.609179 
131072 1:-0.47313 2:0.343427 3:0.436664 4:-0.511234 5:0.00694726 6:0.518329 7:-0.834002 8:-0.558109 9:-0.105042 10:-0.0535289 
131072 1:-0.126139 2:0.157124 3:-0.403917 4:0.024265 5:-0.0586684 6:-0.143681 7:-0.836294 8:-0.829606 9:-0.0383632 10:-0.291335 
131072 1:-0.2344 2:0.120393 3:-0.241867 4:0.0241954 5:-0.190629 6:-0.0557126 7:-0.759742 8:-0.692834 9:0.00164941 10:-0.327555 
131072 1:0.190642 2:-0.224088 3:-0.280295 4:0.130341 5:0.0150592 6:-0.501033 7:-0.810072 8:-0.729418 9:0.247631 10:-0.27606 
67488.38170458558 1:0.0105465 2:0.0833436 3:-0.2535 4:0.197427 5:-0.0925229 6:-0.0679323 7:-0.894256 8:-0.610257 9:0.225985 10:0.00982766 
131072 1:0.0325187 2:0.114386 3:0.0975606 4:0.116104 5:-0.380742 6:-0.487679 7:-0.938943 8:-0.666177 9:-0.173308 10:-0.411711 
131072 1:-0.186033 2:0.000686561 3:-0.334244 4:-0.223942 5:-0.26708 6:0.0691603 7:-0.974739 8:-0.654599 9:-0.143793 10:-0.775975 
131072 1:0.0673348 2:0.218988 3:0.287294 4:0.202262 5:0.0274145 6:-0.684339 7:-0.925277 8:-0.712048 9:0.0280817 10:-0.340197 
131072 1:-0.430985 2:-0.173062 3:0.245523 4:-0.259589 5:-0.501227 6:0.171187 7:-0.853194 8:-0.622515 9:0.249868 10:-0.784206 
131072 1:-0.219372 2:0.0851335 3:0.119929 4:-0.0741501 5:-0.160887 6:-0.314849 7:-0.871882 8:-0.685649 9:-0.0886911 10:-0.212196 
131072 1:0.184755 2:0.308879 3:-0.319193 4:0.151085 5:0.135453 6:-0.139348 7:-0.829878 8:-0.730539 9:0.369255 10:-0.836111 
131072 1:0.00308452 2:0.353897 3:0.223045 4:0.0484112 5:0.0372667 6:0.349099 7:-0.92654 8:-0.488986 9:-0.0653288 10:-0.150166 
131072 1:0.429288 2:0.432705 3:0.347079 4:0.0902167 5:-0.16658 6:-0.343528 7:-0.821841 8:-0.678733 9:0.168724 10:-0.952847 
131072 1:-0.225489 2:0.698723 3:0.56432 4:-0.429004 5:-0.597361 6:0.0946883 7:-0.991734 8:-0.700241 9:0.226532 10:-0.84235 
131072 1:-0.0506075 2:0.179928 3:0.0920127 4:0.0457548 5:0.053155 6:0.303683 7:-0.813108 8:-0.695062 9:0.041701 10:-0.819459 
131072 1:-0.109031 2:0.174386 3:-0.267964 4:-0.159433 5:0.0746797 6:-0.32291 7:-0.849615 8:-0.588627 9:-0.110545 10:-0.704319 
131072 1:0.0477238 2:0.387416 3:-0.314944 4:0.16956 5:0.148339 6:-0.243303 7:-0.772039 8:-0.787818 9:0.207657 10:-0.266227 
131072 1:0.0542852 2:0.0547777 3:0.353571 4:0.024653 5:0.0511066 6:-0.221761 7:-0.849076 8:-0.736535 9:-0.0459729 10:0.116214 
131072 1:-0.0655195 2:0.250864 3:-0.110855 4:-0.0809751 5:-0.0253465 6:0.135196 7:-0.959377 8:-0.831976 9:-0.131253 10:-0.880162 
111709.4280213264 1:0.0308476 2:0.0206704 3:0.0222999 4:-0.136928 5:-0.141932 6:-0.184814 7:-0.953174 8:-0.621071 9:0.321776 10:-0.270453 
131072 1:0.406755 2:0.341981 3:-0.146782 4:0.249271 5:-0.116032 6:-0.387034 7:-0.907864 8:-0.621023 9:0.143996 10:-0.659809 
131072 1:-0.201201 2:-0.562734 3:-0.67385 4:0.149363 5:0.0577748 6:0.413023 7:-0.919893 8:-0.749316 9:-0.0440867 10:-0.0377332 
131072 1:0.0473007 2:0.417699 3:-0.372954 4:0.136698 5:-0.381272 6:-0.77254 7:-0.820262 8:-0.621184 9:-0.0682425 10:-0.674262 
131072 1:-0.161984 2:-0.14305 3:0.127174 4:-0.225325 5:-0.037374 6:-0.0240553 7:-0.84791 8:-0.622809 9:-0.0164967 10:-0.872904 
131072 1:-0.0592985 2:0.0223132 3:-0.455069 4:-0.413722 5:-0.240085 6:0.0933649 7:-0.793046 8:-0.457379 9:0.281425 10:-0.865513 
131072 1:0.174931 2:0.378123 3:0.0796922 4:-0.135197 5:-0.476144 6:-0.704117 7:-0.974899 8:-0.705538 9:0.171014 10:-0.216736 
131072 1:-0.219679 2:0.376137 3:-0.14351 4:-0.00341299 5:0.155737 6:0.157938 7:-0.748597 8:-0.717297 9:-0.223506 10:-0.715575 
131072 1:-0.0052236 2:0.600716 3:-0.126033 4:-0.555609 5:-0.145485 6:-0.38424 7:-0.838997 8:-0.607393 9:0.294121 10:-0.352545 
131072 1:-0.363319 2:0.366746 3:0.12889 4:0.0853218 5:-0.179086 6:-0.200686 7:-0.952402 8:-0.624991 9:-0.638624 10:-0.464292 
131072 1:-0.0675995 2:0.22323 3:-0.429896 4:-0.210869 5:-0.302107 6:0.117527 7:-0.860284 8:-0.888866 9:0.11958 10:-0.217768 
131072 1:-0.0237426 2:0.36243 3:-0.0858755 4:0.0293191 5:-0.121921 6:0.395654 7:-0.789186 8:-0.72377 9:0.254499 10:-0.319374 
131072 1:0.107131 2:0.307211 3:0.026868 4:-0.198791 5:-0.112493 6:-0.0992327 7:-0.829156 8:-0.787204 9:0.224294 10:-0.703329 
131072 1:-0.0426302 2:-0.00522276 3:-0.162936 4:-0.219136 5:-0.0983561 6:-0.198576 7:-0.770052 8:-0.477205 9:0.210454 10:-0.319045 
131072 1:0.0713128 2:0.32006 3:-0.169767 4:-0.203208 5:-0.280253 6:0.108949 7:-0.934861 8:-0.707363 9:0.410218 10:-0.371914 
131072 1:-0.0442162 2:-0.167227 3:-0.12357 4:0.0110528 5:0.0840149 6:0.134745 7:-0.866613 8:-0.857438 9:0.216281 10:-0.572326 
131072 1:-0.183457 2:-0.111909 3:0.119876 4:-0.423952 5:-0.0650128 6:0.142638 7:-0.911472 8:-0.963746 9:0.250583 10:-0.427375 
131072 1:-0.0367236 2:0.038006 3:0.266409 4:-0.45938 5:-0.439866 6:-0.0300786 7:-0.881072 8:-0.747857 9:0.208945 10:-0.457672 
131072 1:-0.00521414 2:0.0214305 3:0.616033 4:-0.0494469 5:-0.126769 6:-0.0747649 7:-0.942111 8:-0.723883 9:-0.0225585 10:-0.0619775 
131072 1:-0.272963 2:0.259471 3:-0.301545 4:-0.148907 5:0.0320948 6:-0.0423673 7:-0.76801 8:-0.633814 9:-0.235486 10:0.116778 
131072 1:0.480826 2:0.357575 3:-0.246159 4:0.193646 5:0.128264 6:-0.105717 7:-0.932803 8:-0.545427 9:-0.077127 10:-0.492503 
131072 1:-0.143344 2:-0.40051 3:0.363592 4:-0.219345 5:0.266675 6:0.000324224 7:-0.947159 8:-0.871045 9:-0.141933 10:-0.788629 
131072 1:-0.289205 2:0.152024 3:0.115296 4:-0.240119 5:-0.185352 6:-0.01265 7:-0.854164 8:-0.794298 9:0.0900908 10:-0.48475 
131072 1:0.36114 2:0.230979 3:-0.674965 4:0.0567086 5:-0.0208106 6:-0.412646 7:-0.900022 8:-0.688334 9:0.76155 10:-0.310599 
131072 1:-0.0975844 2:0.566339 3:-0.126851 4:-0.145872 5:-0.29054 6:-0.387237 7:-0.937462 8:-0.559359 9:0.0138509 10:-0.746546 
131072 1:-0.414784 2:0.428169 3:0.123443 4:-0.282173 5:-0.739879 6:-0.367363 7:-0.972971 8:-0.621857 9:0.381145 10:-0.979532 
126139.9577130004 1:-0.0925688 2:0.558198 3:0.119037 4:0.227134 5:-0.136198 6:0.0708318 7:-0.776107 8:-0.556273 9:0.112829 10:-0.704166 
131072 1:0.0125437 2:0.509379 3:-0.18356 4:-0.293664 5:-0.285246 6:-0.495618 7:-0.875082 8:-0.673744 9:0.205914 10:-0.169317 
131072 1:0.159681 2:-0.203859 3:0.347737 4:0.12068 5:-0.574032 6:-0.684053 7:-0.981553 8:-0.486372 9:0.35894 10:-0.427195 
131072 1:-0.118292 2:0.370547 3:0.138399 4:-0.142937 5:-0.330045 6:-0.678471 7:-0.970701 8:-0.794019 9:0.0779543 10:-0.19377 
131072 1:-0.0379597 2:-0.0627713 3:-0.199279 4:-0.410982 5:-0.37809 6:0.354815 7:-0.860085 8:-0.69443 9:-0.0307535 10:-0.804268 
131072 1:-0.109391 2:0.14891 3:-0.23892 4:-0.0432885 5:-0.233581 6:-0.593349 7:-0.981181 8:-0.754306 9:0.132887 10:-0.985109 
131072 1:-0.204876 2:0.468112 3:-0.486143 4:-0.0445619 5:-0.367227 6:0.0218537 7:-0.799569 8:-0.873907 9:0.132172 10:-0.316316 
131072 1:-0.0024558 2:0.160998 3:0.292627 4:0.00746123 5:-0.251348 6:0.270278 7:-0.982229 8:-0.508348 9:-0.106551 10:-0.844695 
131072 1:-0.284738 2:0.0685089 3:-0.343704 4:-0.420356 5:-0.222223 6:-0.158722 7:-0.85148 8:-0.680839 9:-0.199844 10:-0.148477 
131072 1:-0.315484 2:0.101562 3:-0.0468229 4:-0.0571275 5:-0.279855 6:-0.139292 7:-0.853413 8:-0.677019 9:-0.274029 10:-0.34002 
131072 1:-0.114113 2:0.223157 3:0.0344215 4:-0.370542 5:-0.266669 6:-0.0478217 7:-0.927353 8:-0.655949 9:0.172275 10:-0.353069 
131072 1:-0.238934 2:0.411814 3:0.0639506 4:-0.574813 5:-0.042224 6:0.176274 7:-0.78242 8:-0.695415 9:-0.0721189 10:-0.592027 
131072 1:-0.503765 2:-0.0365348 3:0.498714 4:-0.325246 5:-0.414811 6:-0.370383 7:-0.88142 8:-0.914582 9:-0.0876245 10:0.0744183 
131072 1:0.0637941 2:0.0568619 3:-0.565885 4:-0.0498946 5:0.0728653 6:0.0203307 7:-0.959327 8:-0.669052 9:0.0623577 10:-0.599401 
131072 1:-0.144027 2:-0.19106 3:-0.0353808 4:-0.115558 5:-0.24935 6:0.067586 7:-0.915685 8:-0.599374 9:0.224645 10:-0.782705 
131072 1:0.00510069 2:-0.12336 3:-0.245509 4:0.190383 5:-0.270042 6:-0.211395 7:-0.976027 8:-0.602817 9:-0.11087 10:-0.477145 
131072 1:-0.0806821 2:0.137901 3:0.236398 4:-0.463416 5:-0.178073 6:-0.219323 7:-0.906474 8:-0.64544 9:0.150474 10:-0.0423551 
131072 1:-0.0332183 2:0.172915 3:-0.165183 4:-0.0727075 5:-0.0377271 6:-0.282054 7:-0.879988 8:-0.638246 9:-0.239714 10:-0.537499 
131072 1:0.0862579 2:0.050168 3:-0.497651 4:0.0977481 5:0.291276 6:0.3434 7:-0.795765 8:-0.584831 9:-0.0985902 10:-0.690445 
131072 1:0.165193 2:0.260697 3:0.226324 4:-0.193199 5:-0.585279 6:-0.187338 7:-0.768521 8:-0.524855 9:0.294668 10:-0.638301 
131072 1:-0.365954 2:-0.0696369 3:-0.303808 4:-0.546064 5:-0.393128 6:-0.24204 7:-0.985621 8:-0.678134 9:0.0841201 10:0.0429264 
131072 1:-0.189305 2:-0.189785 3:-0.190133 4:-0.00131376 5:-0.05272 6:0.00940425 7:-0.951398 8:-0.841724 9:-0.126622 10:-0.732283 
131072 1:0.348485 2:-0.0160116 3:-0.602434 4:-0.475552 5:-0.362596 6:0.325364 7:-0.820256 8:-0.726148 9:-0.210147 10:-0.438824 
131072 1:0.0354094 2:0.212711 3:0.124116 4:-0.382345 5:-0.0113017 6:-0.0480319 7:-0.78481 8:-0.704843 9:0.175865 10:-0.752212 
131072 1:-0.088839 2:0.114288 3:0.281645 4:-0.399267 5:-0.161043 6:-0.0568487 7:-0.971949 8:-0.351659 9:-0.00181071 10:-0.505665 
131072 1:0.0753829 2:0.047201 3:-0.172545 4:0.0979869 5:0.154032 6:-0.129643 7:-0.906053 8:-0.591345 9:-0.0697775 10:-0.328586 
131072 1:0.0279403 2:-0.0573768 3:-0.198022 4:-0.219415 5:-0.234631 6:-0.320237 7:-0.83052 8:-0.921759 9:0.0957362 10:-0.376729 
131072 1:-0.431368 2:0.56933 3:-0.0189097 4:-0.513226 5:-0.370948 6:0.223114 7:-0.826037 8:-0.603179 9:-0.15883 10:-0.338163 
131072 1:0.0126052 2:0.0149572 3:0.19739 4:0.330823 5:0.153519 6:-0.236518 7:-0.789182 8:-0.555398 9:-0.0115797 10:-0.592642 
131072 1:0.254389 2:-0.113577 3:0.218159 4:0.254206 5:0.324968 6:-0.20297 7:-0.978336 8:-0.85354 9:0.0581952 10:-0.690449 
131072 1:0.172029 2:0.232401 3:0.201936 4:0.144847 5:0.0494171 6:-0.380661 7:-0.849102 8:-0.495309 9:0.0926664 10:-0.831028 
131072 1:-0.0639312 2:0.0956771 3:0.0462903 4:0.00252654 5:-0.270102 6:-0.313867 7:-0.971006 8:-0.631334 9:-0.00230502 10:-0.0644458 
131072 1:-0.258209 2:0.298163 3:-0.343554 4:-0.244178 5:-0.030971 6:-0.219754 7:-0.72085 8:-0.566102 9:0.229367 10:-0.0160235 
131072 1:0.035433 2:0.212834 3:0.079945 4:0.117198 5:-0.270186 6:-0.0495585 7:-0.811424 8:-0.717079 9:-0.00542694 10:-0.404099 
131072 1:0.175877 2:0.15759 3:-0.211547 4:0.121705 5:-0.405729 6:-0.62898 7:-0.87892 8:-0.677035 9:0.429274 10:-0.358349 
131072 1:0.0464215 2:0.0183165 3:-0.35451 4:0.163431 5:0.0849708 6:-0.398575 7:-0.908188 8:-0.625684 9:-0.252618 10:-0.748744 
131072 1:-0.0694431 2:-0.220043 3:-0.315041 4:0.0922563 5:-0.0856692 6:-0.398147 7:-0.929134 8:-0.710563 9:0.176945 10:-0.163519 
131072 1:-0.0677484 2:-0.242846 3:-0.28069 4:-0.205427 5:-0.450247 6:-0.282501 7:-0.841807 8:-0.824089 9:0.0525107 10:-0.735899 
131072 1:-0.138142 2:-0.0874874 3:-0.0978048 4:-0.0551377 5:-0.169764 6:-0.395633 7:-0.92257 8:-0.610322 9:-0.0189162 10:-0.832727 
131072 1:0.395883 2:0.0227791 3:-0.0243864 4:0.0244143 5:-0.186421 6:-0.372858 7:-0.825577 8:-0.597337 9:-0.138642 10:-0.0340556 
131072 1:-0.127326 2:0.446338 3:0.539365 4:-0.15992 5:-0.265447 6:0.281091 7:-0.88034 8:-0.69824 9:-0.007157 10:-0.64588 
131072 1:-0.66526 2:-0.247382 3:-0.165394 4:-0.216749 5:0.0219441 6:0.585188 7:-0.881959 8:-0.578299 9:-0.0926976 10:0.263684 
131072 1:-0.140654 2:0.240689 3:-0.17458 4:-0.570142 5:-0.439802 6:-0.125075 7:-0.720781 8:-0.71772 9:0.130142 10:-0.613003 
131072 1:0.0418124 2:0.296692 3:-0.0918408 4:0.0482122 5:0.253164 6:0.05364 7:-0.841986 8:-0.783501 9:0.0982728 10:-0.719172 
131072 1:-0.239657 2:0.0940588 3:0.121231 4:-0.293793 5:-0.0441788 6:-0.28645 7:-0.9266 8:-0.655755 9:-0.242159 10:-0.581831 
131072 1:0.0147183 2:0.0996739 3:-0.0729888 4:0.0677022 5:-0.156084 6:-0.0747472 7:-0.898408 8:-0.693324 9:-0.174297 10:-0.545521 
131072 1:-0.337059 2:0.205257 3:0.240532 4:-0.164656 5:0.102227 6:0.2964 7:-0.821923 8:-0.645595 9:-0.261788 10:-0.695117 
131072 1:0.0806018 2:-0.193193 3:-0.138468 4:0.0528484 5:-0.0100219 6:-0.254519 7:-0.961962 8:-0.594813 9:-0.153432 10:-0.325772 
131072 1:-0.2195 2:-0.207709 3:0.0182835 4:-0.185489 5:0.023298 6:0.192418 7:-0.817134 8:-0.701271 9:0.192503 10:-0.582987 
131072 1:0.0321641 2:0.0706667 3:-0.516645 4:0.0590068 5:-0.46589 6:-0.376814 7:-0.857078 8:-0.631614 9:0.381015 10:0.598789 
131072 1:-0.200537 2:-0.297673 3:-0.2124 4:-0.266076 5:-0.633204 6:-0.60335 7:-0.922858 8:-0.780533 9:0.0950728 10:-0.726737 
131072 1:-0.191226 2:-0.044651 3:-0.0380027 4:-0.0645593 5:0.0105955 6:0.00734229 7:-0.845475 8:-0.887562 9:0.0212264 10:-0.411049 
131072 1:-0.222109 2:0.153593 3:0.0844381 4:-0.088019 5:0.000624298 6:-0.0590237 7:-0.873388 8:-0.814219 9:-0.0892895 10:-0.218872 
-131072 1:0.0964002 2:0.34431 3:0.0881609 4:0.0178977 5:0.0269365 6:-0.193955 7:-0.813815 8:-0.734255 9:0.0293304 10:-0.264639 
-131072 1:-0.0921031 2:0.337665 3:0.133453 4:0.0359451 5:-0.0583835 6:-0.422894 7:-0.751559 8:-0.723223 9:-0.0839042 10:-0.276803 
-131072 1:-0.277874 2:0.0872913 3:0.184154 4:0.0763081 5:-0.270415 6:-0.268635 7:-0.672039 8:-0.505081 9:0.00962331 10:-0.208583 
-131072 1:-0.215385 2:-0.223745 3:-0.227579 4:0.0652647 5:-0.2361 6:-0.000477943 7:-0.816637 8:-0.624445 9:-0.0954683 10:-0.566259 
-12965.12628197611 1:0.151234 2:0.0556114 3:-0.209171 4:0.216489 5:-0.022186 6:-0.39513 7:-0.724149 8:-0.594551 9:0.121375 10:-0.370258 
-131072 1:-0.0460291 2:-0.102248 3:0.106688 4:0.118143 5:-0.12127 6:-0.0370772 7:-0.825171 8:-0.580745 9:-0.245568 10:-0.304555 
-131072 1:0.207646 2:0.443886 3:0.0578378 4:0.128988 5:0.178612 6:-0.11511 7:-0.899379 8:-0.458993 9:0.201231 10:-0.490615 
-131072 1:0.116139 2:-0.0119658 3:-0.0438851 4:-0.0276487 5:-0.206315 6:-0.114396 7:-0.976091 8:-0.926609 9:0.0729853 10:-0.643641 
-131072 1:-0.135674 2:-0.0506584 3:0.108654 4:0.0660009 5:0.0983132 6:-0.339453 7:-0.638234 8:-0.920528 9:0.485248 10:-0.604507 
-131072 1:0.0483856 2:0.0858691 3:-0.216136 4:0.0409594 5:-0.261052 6:0.0886385 7:-0.729491 8:-0.688743 9:0.279279 10:-0.171586 
-131072 1:-0.0403612 2:-0.321899 3:-0.160846 4:0.304418 5:0.0402867 6:0.00786176 7:-0.795631 8:-0.977133 9:0.189875 10:-0.477567 
-131072 1:0.121497 2:-0.153912 3:0.0153891 4:4.92474e-005 5:-0.140512 6:-0.295553 7:-0.819641 8:-0.460478 9:0.293146 10:-0.435532 
-57342.98052950503 1:0.0275338 2:0.299046 3:-0.12666 4:0.0768652 5:0.0878699 6:-0.0471785 7:-0.835061 8:-0.602553 9:-0.454502 10:-0.268316 
-131072 1:0.0664721 2:0.30932 3:-0.162182 4:-0.0701805 5:-0.20541 6:-0.00853848 7:-0.931487 8:-0.860139 9:-0.113185 10:-0.255359 
-131072 1:-0.252999 2:0.265307 3:-0.245637 4:-0.555804 5:-0.0790497 6:0.258168 7:-0.706247 8:-0.703025 9:0.117941 10:-0.536999 
-131072 1:-0.068578 2:-0.438001 3:0.0275436 4:-0.0777915 5:-0.0609958 6:0.333995 7:-0.761661 8:-0.776229 9:0.206486 10:-0.454591 
-131072 1:-0.0165335 2:0.38597 3:0.029877 4:-0.181151 5:-0.0670964 6:0.078592 7:-0.856553 8:-0.767084 9:0.216424 10:-0.380619 
-131072 1:-0.344642 2:0.230954 3:-0.23501 4:-0.296261 5:-0.263077 6:-0.17643 7:-0.803322 8:-0.461569 9:0.159085 10:-0.562211 
-131072 1:-0.0952799 2:-0.319104 3:-0.443065 4:-0.19108 5:-0.0379963 6:-0.0517176 7:-0.883315 8:-0.445258 9:-0.153224 10:-0.397776 
-131072 1:-0.0925475 2:-0.095481 3:-0.192314 4:0.160645 5:-0.244625 6:-0.193652 7:-0.830648 8:-0.753415 9:0.162545 10:-0.338444 
-131072 1:0.0308145 2:0.124488 3:-0.163774 4:-0.0257584 5:-0.0386889 6:-0.379991 7:-0.822685 8:-0.698133 9:0.266401 10:-0.683744 
-131072 1:-0.214449 2:0.349165 3:-0.087166 4:-0.0154811 5:-0.144847 6:-0.153296 7:-0.879042 8:-0.868286 9:-0.452183 10:-0.520839 
-131072 1:0.138409 2:-0.00524728 3:-0.254966 4:-0.0455568 5:-0.0296054 6:-0.296788 7:-0.884517 8:-0.379868 9:0.295669 10:-0.813964 
-131072 1:0.126525 2:0.359243 3:-0.00642064 4:-0.0429502 5:-0.263221 6:-0.582291 7:-0.784289 8:-0.821406 9:0.280866 10:-0.250837 
-131072 1:-0.0182117 2:-0.0205478 3:-0.315904 4:-0.0293997 5:-0.546202 6:-0.368958 7:-0.987712 8:-0.482959 9:0.0110932 10:-0.306991 
-131072 1:-0.356729 2:0.136699 3:-0.0703564 4:-0.35502 5:-0.490764 6:-0.202965 7:-0.835974 8:-0.570498 9:0.167371 10:-0.290995 
-131072 1:0.116467 2:0.467793 3:0.0738322 4:0.168296 5:-0.0446763 6:-0.245667 7:-0.773793 8:-0.787511 9:-0.0604117 10:-0.386232 
-131072 1:0.0160182 2:0.191379 3:0.197593 4:-0.0538145 5:0.134347 6:-0.0879229 7:-0.908774 8:-0.504206 9:-0.0634166 10:-0.349955 
-131072 1:-0.120582 2:0.341613 3:0.122045 4:-0.422437 5:0.0243671 6:-0.133609 7:-0.743067 8:-0.468219 9:0.166409 10:-0.574439 
-131072 1:0.0228113 2:0.235515 3:-0.196055 4:-0.147802 5:0.0241389 6:0.0422719 7:-0.929961 8:-0.49936 9:-0.0979268 10:-0.790235 
-68609.37409223917 1:-0.129413 2:-0.168796 3:-0.0329657 4:-0.0500736 5:-0.0514187 6:-0.344464 7:-0.747469 8:-0.684394 9:-0.130213 10:-0.713087 
-131072 1:-0.0171055 2:-0.13486 3:-0.04184 4:0.0325127 5:-0.154358 6:-0.0574052 7:-0.791128 8:-0.547095 9:0.085577 10:-0.422089 
-131072 1:0.0975229 2:-0.047201 3:-0.108969 4:-0.10139 5:0.156669 6:-0.189515 7:-0.963447 8:-0.481925 9:-0.0229097 10:-0.589029 
-131072 1:0.140697 2:0.170488 3:0.247617 4:0.392626 5:0.39829 6:-0.234205 7:-0.747771 8:-0.497439 9:-0.164996 10:-0.430328 
-131072 1:0.0515316 2:0.238776 3:0.16061 4:-0.130362 5:0.0430746 6:0.502003 7:-0.9363 8:-0.56108 9:-0.2032 10:-0.313132 
-131072 1:-0.265832 2:-0.341736 3:-0.256634 4:-0.320186 5:-0.074906 6:0.349471 7:-0.900063 8:-0.792332 9:-0.00142047 10:-0.292359 
-131072 1:-0.193488 2:0.219503 3:0.25885 4:-0.0964657 5:-0.0710197 6:0.17676 7:-0.988248 8:-0.328702 9:-0.171994 10:-0.537387 
-131072 1:-0.0148743 2:-0.00853297 3:0.340824 4:0.269995 5:0.215529 6:0.219968 7:-0.630231 8:-0.734231 9:0.0553334 10:-0.408751 
-131072 1:-0.198724 2:-0.201947 3:0.080086 4:0.17544 5:0.162077 6:-0.310319 7:-0.659625 8:-0.49028 9:-0.107527 10:-0.626122 
-131072 1:0.0165075 2:0.141726 3:0.241349 4:-0.0110936 5:-0.233282 6:0.156206 7:-0.985428 8:-0.614563 9:0.0365108 10:-0.367559 
-131072 1:0.105417 2:-0.108329 3:-0.236796 4:0.149144 5:-0.0825165 6:-0.161213 7:-0.989334 8:-0.715648 9:-0.20415 10:-0.688175 
-131072 1:0.0160726 2:0.0135841 3:0.00150944 4:-0.0696234 5:-0.0670983 6:-0.0445087 7:-0.727619 8:-0.606045 9:0.249491 10:-0.576004 
-131072 1:0.250598 2:-0.225216 3:-0.227347 4:0.0767856 5:-0.0482836 6:-0.107518 7:-0.998857 8:-0.623645 9:0.198512 10:-0.185213 
-131072 1:0.134327 2:0.469338 3:0.378315 4:-0.0354089 5:-0.0689322 6:-0.477217 7:-0.944618 8:-0.574808 9:-0.075527 10:-0.517124 
-131072 1:-0.361173 2:-0.140892 3:0.0582763 4:-0.110842 5:-0.209655 6:0.0747472 7:-0.64346 8:-0.509437 9:0.0248947 10:-0.699875 
-131072 1:-0.0645032 2:0.0216512 3:-0.07912 4:-0.0233607 5:-0.258079 6:0.0675366 7:-0.867958 8:-0.848737 9:0.414484 10:-0.337921 
-131072 1:0.0200364 2:0.17983 3:0.0640151 4:-0.0425622 5:-0.152551 6:-0.235548 7:-0.864165 8:-0.473437 9:0.437899 10:-0.375396 
-131072 1:-0.0637657 2:0.230071 3:0.234817 4:-0.327161 5:-0.368665 6:-0.392119 7:-0.881382 8:-0.615081 9:-0.0076513 10:-0.291903 
-131072 1:-0.0193462 2:0.112866 3:-0.0705276 4:0.0528385 5:-0.0433828 6:-0.0203731 7:-0.802409 8:-0.808936 9:0.0655447 10:-0.689965 
-131072 1:-0.21573 2:0.0319251 3:-0.182127 4:-0.172426 5:-0.289198 6:-0.109603 7:-0.815601 8:-0.638294 9:0.0521855 10:-0.464125 
-131072 1:0.281077 2:-0.0558076 3:0.0880608 4:0.00413827 5:-0.0447778 6:0.0229439 7:-0.952896 8:-0.519646 9:0.246395 10:-0.247187 
-131072 1:-0.111414 2:0.0683128 3:-0.173537 4:0.086854 5:-0.0640685 6:-0.0698247 7:-0.777704 8:-0.673717 9:-0.15139 10:-0.186421 
-131072 1:0.0440768 2:0.00311404 3:-0.147962 4:-0.256465 5:-0.492624 6:-0.219091 7:-0.984372 8:-0.715337 9:0.266739 10:-0.558213 
-131072 1:0.0305876 2:-0.191109 3:-0.166388 4:-0.326578 5:-0.0674417 6:-0.0960347 7:-0.961311 8:-0.607175 9:0.0394637 10:-0.538696 
-131072 1:-0.0724 2:0.230341 3:-0.271916 4:-0.00868595 5:-0.0221977 6:-0.238052 7:-0.829206 8:-0.686581 9:-0.147357 10:-0.495623 
-131072 1:-0.272121 2:0.236324 3:-0.184656 4:-0.26328 5:-0.323835 6:0.0447932 7:-0.831342 8:-0.435392 9:-0.0414721 10:-0.21751 
-131072 1:-0.175501 2:0.143883 3:-0.0240046 4:-0.0886259 5:-0.200745 6:-0.587957 7:-0.721502 8:-0.590452 9:0.0689658 10:-0.439067 
-131072 1:0.183152 2:-0.122674 3:0.0315152 4:-0.105111 5:0.163297 6:0.0551419 7:-0.813659 8:-0.43782 9:0.279708 10:-0.293952 
-131072 1:-0.373319 2:-0.199004 3:-0.272385 4:-0.211814 5:-0.193288 6:-0.252943 7:-0.897638 8:-0.830912 9:-0.173308 10:-0.428117 
-131072 1:-0.393573 2:0.0369517 3:-0.214803 4:-0.220569 5:-0.227572 6:-0.0961336 7:-0.77786 8:-0.549238 9:0.0504684 10:-0.353557 
-131072 1:0.106687 2:0.266925 3:0.0808313 4:-0.00542268 5:-0.331929 6:0.297318 7:-0.870311 8:-0.776438 9:0.183332 10:-0.515087 
-131072 1:-0.116307 2:-0.142388 3:-0.0862363 4:-0.0470591 5:-0.108308 6:-0.394903 7:-0.949202 8:-0.773564 9:-0.240637 10:-0.658027 
-131072 1:-0.0586485 2:-0.173675 3:-0.158716 4:0.0248819 5:0.116533 6:-0.530955 7:-0.77824 8:-0.704686 9:-0.148931 10:-0.290595 
-131072 1:-0.105571 2:0.499939 3:0.25162 4:-0.260295 5:-0.0360025 6:-0.0844368 7:-0.796264 8:-0.671289 9:0.0747023 10:-0.526915 
-131072 1:-0.455694 2:-0.246353 3:-0.48971 4:-0.31121 5:-0.24881 6:-0.179882 7:-0.725138 8:-0.949561 9:0.499374 10:-0.545469 
-131072 1:0.158065 2:0.206532 3:0.190238 4:-0.0678723 5:0.0367653 6:-0.312215 7:-0.721247 8:-0.662583 9:0.410816 10:-0.419315 
-131072 1:-0.290276 2:0.233553 3:-0.104439 4:-0.293963 5:-0.421097 6:-0.242084 7:-0.829097 8:-0.750311 9:0.306609 10:-0.520716 
-131072 1:0.115345 2:0.0848883 3:-0.201168 4:-0.0513272 5:0.0147042 6:-0.0726217 7:-0.793234 8:-0.775082 9:0.204743 10:-0.334358 
-131072 1:-0.0101399 2:-0.258147 3:-0.0818538 4:0.186005 5:-0.28642 6:-0.128939 7:-0.906435 8:-0.485074 9:0.201947 10:-0.428391 
-131072 1:-0.215014 2:0.134639 3:0.126055 4:-0.120274 5:-0.013516 6:0.0244404 7:-0.60625 8:-0.333531 9:0.103255 10:-0.633221 
-131072 1:-0.216798 2:0.329206 3:-0.0728979 4:-0.154508 5:0.0719386 6:-0.170733 7:-0.992972 8:-0.531705 9:-0.196775 10:-0.557715 
-131072 1:0.0805876 2:0.320477 3:0.397225 4:-0.0568489 5:-0.0279373 6:0.128581 7:-0.748113 8:-0.65469 9:0.0537594 10:-0.404449 
-131072 1:-0.257434 2:0.199054 3:0.0108262 4:-0.168417 5:-0.173139 6:-0.0693247 7:-0.773974 8:-0.9967 9:-0.0260706 10:-0.402406 
-131072 1:-0.0734802 2:-0.0650516 3:-0.224403 4:-0.0521729 5:-0.198679 6:0.0143551 7:-0.837728 8:-0.869281 9:0.0597561 10:-0.404142 
-131072 1:-0.0527087 2:0.311012 3:0.110084 4:0.429029 5:0.143953 6:-0.0415863 7:-0.655747 8:-0.577543 9:0.140028 10:-0.492861 
-131072 1:-0.112038 2:0.117573 3:-0.0992244 4:-0.00357218 5:-0.227586 6:-0.190332 7:-0.740551 8:-0.541606 9:0.169778 10:-0.238398 
-131072 1:-0.239763 2:0.0728245 3:-0.149254 4:0.0725076 5:-0.102088 6:-0.236152 7:-0.706545 8:-0.471253 9:-0.387455 10:-0.235534 
-124196.2668515455 1:0.0835823 2:0.0181448 3:0.0389739 4:-0.261022 5:0.13508 6:0.0458834 7:-0.830089 8:-0.631675 9:0.0423905 10:-0.686219 
-131072 1:0.0867283 2:0.0352598 3:0.044739 4:-0.0688871 5:-0.128002 6:-0.302559 7:-0.986263 8:-0.758095 9:0.0633854 10:-0.556798 
-131072 1:-0.0964475 2:-0.116568 3:0.0891103 4:-0.0448604 5:-0.195784 6:0.0108955 7:-0.894618 8:-0.698876 9:-0.177458 10:-0.409943 
-131072 1:-0.205692 2:0.0699311 3:-0.32794 4:-0.0844871 5:-0.460185 6:0.0562391 7:-0.83263 8:-0.805875 9:-0.00984965 10:-0.438375 
-131072 1:-0.0461591 2:-0.0701273 3:0.256242 4:0.0411385 5:0.0980206 6:0.0552108 7:-0.731403 8:-0.542349 9:0.0939802 10:-0.416458 
-131072 1:-0.184469 2:0.187627 3:-0.320079 4:-0.133108 5:-0.452758 6:-0.622282 7:-0.945189 8:-0.815387 9:-0.121224 10:-0.541621 
-131072 1:-0.21715 2:0.0625015 3:0.0479179 4:0.0326719 5:-0.141599 6:0.201608 7:-0.657693 8:-0.524866 9:0.415993 10:-0.502609 
-131072 1:-0.00702231 2:0.0801559 3:0.142656 4:-0.195468 5:-0.437945 6:-0.482871 7:-0.990062 8:-0.741355 9:0.105583 10:-0.35362 
-131072 1:-0.333975 2:0.0313856 3:0.081121 4:-0.176565 5:-0.10845 6:-0.053617 7:-0.996108 8:-0.673145 9:-0.43999 10:-0.535992 
-131072 1:-0.0947953 2:-0.0926366 3:0.0455081 4:0.0964647 5:-0.275815 6:-0.29705 7:-0.782611 8:-0.877521 9:0.0185598 10:-0.247653 
-131072 1:-0.153406 2:0.0682883 3:-0.443825 4:-0.0101882 5:0.112939 6:-0.271301 7:-0.948758 8:-0.824495 9:-0.462307 10:-0.735831 
-131072 1:-0.214782 2:-0.314396 3:-0.653562 4:-0.290033 5:-0.454124 6:-0.148539 7:-0.897352 8:-0.534846 9:0.0613821 10:-0.782643 
-131072 1:-0.0808216 2:0.302258 3:-0.0895113 4:-0.364088 5:-0.213172 6:-0.174064 7:-0.82808 8:-0.693618 9:0.206304 10:-0.581144 
-95045.53534198683 1:-0.00645741 2:0.095481 3:0.115708 4:0.139653 5:-0.097486 6:-0.457093 7:-0.855215 8:-0.803507 9:-0.336064 10:-0.474622 
-131072 1:-0.0803725 2:-0.228306 3:-0.0860809 4:0.55741 5:0.21238 6:-0.481788 7:-0.64573 8:-0.802451 9:0.0680032 10:-0.44115 
-131072 1:-0.165928 2:0.236422 3:-0.0668259 4:-0.152608 5:-0.158654 6:-0.311812 7:-0.904088 8:-0.791763 9:-0.0908765 10:-0.581771 
-131072 1:0.291271 2:0.298924 3:0.182866 4:0.0126446 5:-0.330823 6:0.029439 7:-0.97589 8:-0.547639 9:0.19128 10:-0.289034 
-131072 1:-0.0287889 2:-0.1724 3:-0.264622 4:-0.245123 5:0.125698 6:-0.311759 7:-0.859439 8:-0.488224 9:0.275351 10:-0.335429 
-131072 1:-0.0569183 2:0.27124 3:0.0264216 4:-0.0756624 5:-0.00657463 6:-0.0483729 7:-0.984035 8:-0.666471 9:0.0125501 10:-0.322936 
-131072 1:-0.226009 2:-0.0861634 3:0.184357 4:-0.424159 5:-0.34947 6:0.216413 7:-0.805037 8:-0.786676 9:0.16343 10:-0.369377 
-131072 1:0.0172733 2:0.481892 3:-0.203366 4:0.000128839 5:-0.235665 6:-0.496024 7:-0.880922 8:-0.692718 9:-0.121992 10:-0.346823 
-94123.73395561815 1:0.18493 2:-0.0797881 3:0.0954312 4:-0.0335882 5:-0.242942 6:-0.144999 7:-0.945207 8:-0.856228 9:0.113336 10:-0.615875 
-131072 1:-0.272152 2:0.171027 3:0.101856 4:-0.14624 5:-0.219712 6:-0.272331 7:-0.713847 8:-0.634725 9:0.0516001 10:-0.182004 
-131072 1:0.0924671 2:0.114827 3:-0.261134 4:0.0557635 5:0.0481099 6:-0.500977 7:-0.872604 8:-0.761138 9:-0.167936 10:-0.761904 
-131072 1:-0.271811 2:-0.329426 3:-0.160316 4:-0.164278 5:-0.159194 6:-0.154644 7:-0.972471 8:-0.60701 9:-0.231389 10:-0.464472 
-131072 1:-0.502621 2:0.341883 3:-0.0955188 4:-0.165084 5:-0.0207403 6:-0.339317 7:-0.548988 8:-0.668 9:-0.267525 10:-0.705008 
-131072 1:-0.0130614 2:-0.229556 3:0.0364508 4:-0.222191 5:-0.0564033 6:-0.0197087 7:-0.835886 8:-0.712797 9:0.0913395 10:-0.699094 
-131072 1:-0.0447622 2:-0.101194 3:0.00422874 4:0.0212704 5:0.113154 6:0.20914 7:-0.766674 8:-0.326679 9:-0.0345258 10:-0.219745 
-131072 1:-0.182521 2:-0.00951377 3:-0.357901 4:-0.47254 5:-0.576742 6:-0.365965 7:-0.97816 8:-0.844542 9:0.079034 10:-0.349078 
-131072 1:0.0041907 2:0.0473236 3:0.0560916 4:-0.112096 5:-0.0792253 6:-0.00838829 7:-0.885895 8:-0.757409 9:0.234974 10:-0.491177 
-131072 1:-0.267427 2:0.226467 3:-0.21055 4:-0.368392 5:-0.410805 6:-0.436908 7:-0.899134 8:-0.795737 9:0.164171 10:-0.543139 
-131072 1:0.198941 2:0.186867 3:0.0959803 4:0.340234 5:-0.115286 6:-0.393308 7:-0.773408 8:-0.616676 9:0.1825 10:-0.416672 
-131072 1:-0.012123 2:0.230243 3:0.105888 4:-0.0905261 5:-0.184972 6:0.00153984 7:-0.984442 8:-0.797618 9:-0.0926455 10:-0.667207 
-131072 1:-0.0823934 2:0.121055 3:-0.0609686 4:-0.259509 5:-0.296916 6:-0.35317 7:-0.963627 8:-0.737023 9:-0.0703628 10:-0.50652 
-131072 1:-0.0269122 2:0.28404 3:-0.0888121 4:-0.13465 5:-0.333952 6:0.212884 7:-0.742411 8:-0.604956 9:0.426608 10:-0.354428 
-131072 1:-0.245209 2:0.117794 3:-0.296591 4:-0.64868 5:-0.388206 6:-0.0938031 7:-0.977959 8:-0.819146 9:0.0193533 10:-0.542871 
-131072 1:0.144363 2:-0.305568 3:-0.0662241 4:-0.0962369 5:0.205755 6:-0.0996144 7:-0.718941 8:-0.75566 9:0.442126 10:-0.279991 
-131072 1:-0.054446 2:0.0433269 3:-0.0234739 4:-0.156339 5:-0.121295 6:-0.197484 7:-0.896719 8:-0.855111 9:0.104282 10:-0.71033 
-131072 1:-0.30308 2:-0.052669 3:-0.245396 4:-0.379087 5:-0.146997 6:-0.00804198 7:-0.976994 8:-0.683732 9:-0.0925805 10:-0.709428 
-131072 1:-0.241628 2:0.118334 3:-0.111241 4:-0.351211 5:-0.351749 6:-0.129752 7:-0.849417 8:-0.475441 9:0.0955932 10:-0.362737 
-131072 1:0.0489411 2:-0.152024 3:-0.4176 4:0.103608 5:-0.333658 6:-0.0127649 7:-0.91724 8:-0.656276 9:0.0256362 10:-0.440545 
-131072 1:0.034809 2:0.178579 3:-0.069565 4:-0.0242262 5:-0.0404974 6:0.131816 7:-0.730179 8:-0.546311 9:0.217114 10:-0.354847 
-131072 1:-0.133755 2:0.438859 3:-0.0982328 4:-0.199059 5:-0.376286 6:-0.226957 7:-0.971787 8:-0.469451 9:0.135619 10:-0.501656 
-131072 1:-0.421603 2:-0.276782 3:-0.168547 4:-0.257838 5:-0.123609 6:0.267739 7:-0.726174 8:-0.965043 9:-0.15779 10:-0.503237 
-131072 1:-0.241588 2:-0.273889 3:-0.413358 4:0.0214893 5:-0.011688 6:-0.149135 7:-0.755072 8:-0.652173 9:0.205081 10:-0.421858 
-131072 1:-0.237218 2:-0.0752765 3:-0.0756646 4:-0.10546 5:-0.1335 6:0.190445 7:-0.850733 8:-0.655307 9:-0.245125 10:-0.36326 
-58235.81573644821 1:0.0437624 2:0.114631 3:-0.151326 4:-0.118025 5:-0.306667 6:-0.438409 7:-0.796369 8:-0.656293 9:0.264853 10:-0.632165 
-131072 1:-0.105902 2:-0.0860162 3:-0.077898 4:0.128799 5:0.0409071 6:-0.251683 7:-0.995516 8:-0.651609 9:-0.222647 10:-0.645113 
-131072 1:0.00845939 2:0.071672 3:0.0508466 4:-0.0450793 5:0.0757624 6:-5.389e-005 7:-0.869137 8:-0.656019 9:-0.0615304 10:-0.400999 
-131072 1:-0.0244564 2:0.389157 3:0.0764238 4:-0.14444 5:-0.152781 6:-0.233318 7:-0.907563 8:-0.299709 9:-0.0541159 10:-0.235466 
-131072 1:0.254472 2:0.0271927 3:0.153245 4:-0.235811 5:0.0675041 6:-0.190535 7:-0.940283 8:-0.746304 9:0.282817 10:-0.541493 
-131072 1:-0.0816441 2:0.126916 3:-0.299882 4:-0.259997 5:-0.398197 6:-0.285312 7:-0.998032 8:-0.82827 9:0.228132 10:-0.728366 
-131072 1:-0.152988 2:-0.142044 3:-0.220637 4:-0.378465 5:-0.339831 6:0.451753 7:-0.989523 8:-0.689782 9:-0.120782 10:-0.0666574 
-131072 1:0.126763 2:-0.0101758 3:0.0278833 4:0.0721892 5:0.0287372 6:0.220093 7:-0.851956 8:-0.55668 9:0.1569 10:-0.411114 
-131072 1:-0.173298 2:-0.21151 3:0.118635 4:0.154577 5:0.171647 6:-0.00452941 7:-0.651983 8:-0.774964 9:0.192399 10:-0.527157 
-131072 1:-0.108041 2:-0.355246 3:-0.491874 4:-0.196105 5:-0.34981 6:0.0956265 7:-0.973314 8:-0.680397 9:-0.143936 10:-0.425457 
-131072 1:-0.0557058 2:-0.101979 3:-0.235437 4:-0.236776 5:-0.15863 6:0.299449 7:-0.88289 8:-0.47347 9:0.254252 10:-0.294067 
-131072 1:-0.284464 2:0.180369 3:0.22581 4:-0.0107454 5:-0.342121 6:0.118642 7:-0.736875 8:-0.710944 9:0.117082 10:-0.219281 
-131072 1:-0.476896 2:-0.0235147 3:-0.263387 4:-0.236418 5:-0.444084 6:-0.0732206 7:-0.893581 8:-0.624116 9:-0.167298 10:-0.462147 
-131072 1:-0.242082 2:0.152196 3:-0.00240819 4:-0.0505512 5:-0.197871 6:0.44882 7:-0.677927 8:-0.418166 9:-0.0415241 10:-0.279507 
-131072 1:0.241597 2:0.202437 3:0.0671821 4:-0.083731 5:-0.156578 6:-0.00140732 7:-0.935963 8:-0.819196 9:0.236834 10:-0.489771 
-131072 1:-0.115765 2:0.168379 3:-0.058801 4:0.0419841 5:-0.119535 6:-0.443912 7:-0.782189 8:-0.742858 9:0.177583 10:-0.679663 
-131072 1:-0.144871 2:-0.30628 3:-0.0230051 4:0.286032 5:0.124856 6:-0.0222884 7:-0.690534 8:-0.534781 9:-0.0402623 10:-0.464483 
-131072 1:0.0613288 2:0.28122 3:0.00219815 4:0.138171 5:0.338707 6:-0.100136 7:-0.681493 8:-0.556942 9:0.0873591 10:-0.54676 
-131072 1:0.21741 2:0.340657 3:-0.108812 4:-0.0600624 5:0.0979991 6:-0.256731 7:-0.943771 8:-0.778965 9:0.278928 10:-0.511612 
-131072 1:0.142874 2:-0.133732 3:0.178228 4:-0.0834325 5:0.223417 6:0.450852 7:-0.952555 8:-0.41065 9:-0.323746 10:-0.206122 
-131072 1:-0.128527 2:0.0831964 3:0.110986 4:0.0144056 5:-0.176118 6:-0.275861 7:-0.775973 8:-0.744237 9:0.0316198 10:-0.528498 
-131072 1:-0.224674 2:0.106 3:-0.384931 4:-0.366825 5:-0.183387 6:-0.43014 7:-0.842286 8:-0.587157 9:0.168789 10:-0.608387 
-131072 1:-0.0603101 2:-0.0770419 3:0.130732 4:-0.0768563 5:-0.17575 6:-0.450765 7:-0.921055 8:-0.773071 9:-0.318542 10:-0.43121 
-131072 1:0.147589 2:0.0529632 3:0.054805 4:0.243192 5:0.106109 6:0.0658386 7:-0.931953 8:-0.430071 9:-0.13072 10:-0.533777 
-131072 1:-0.189186 2:0.24981 3:-0.144702 4:-0.120274 5:0.0484494 6:0.0458127 7:-0.750531 8:-0.498473 9:0.0146054 10:-0.482774 
-98285.09145086606 1:0.172464 2:-0.199152 3:-0.160054 4:-0.112096 5:-0.0784411 6:0.00421137 7:-0.962284 8:-0.738175 9:0.004225 10:-0.567162 
-131072 1:0.0507256 2:0.228281 3:-0.123665 4:0.251549 5:-0.07101 6:-0.828647 7:-0.72951 8:-0.788314 9:0.278473 10:-0.417027 
-131072 1:-0.374858 2:0.0746389 3:0.117737 4:-0.0652657 5:-0.281221 6:0.191443 7:-0.656773 8:-0.316286 9:0.207514 10:-0.486077 
-131072 1:-0.274955 2:0.52924 3:0.106233 4:0.0647772 5:0.202497 6:0.0956354 7:-0.59474 8:-0.862117 9:0.0426896 10:-0.639402 
-131072 1:0.125019 2:0.392124 3:-0.0299936 4:0.254852 5:0.326732 6:-0.350678 7:-0.708679 8:-0.443923 9:0.0847835 10:-0.418469 
-131072 1:-0.22296 2:-0.0670377 3:-0.203888 4:-0.355766 5:-0.516189 6:-0.0216947 7:-0.855613 8:-0.47218 9:0.171794 10:-0.499784 
-131072 1:-0.111416 2:0.223353 3:0.145994 4:-0.0940282 5:0.150711 6:-0.323337 7:-0.701382 8:-0.655769 9:-0.191233 10:-0.4476 
-131072 1:-0.258455 2:-0.0338376 3:0.0645616 4:-0.0542622 5:-0.260763 6:-0.108442 7:-0.742849 8:-0.681719 9:-0.0875074 10:-0.38501 
-131072 1:0.36317 2:-0.0364368 3:0.00480947 4:0.212111 5:0.0783513 6:-0.406871 7:-0.890584 8:-0.478817 9:0.110253 10:-0.33667 
-131072 1:0.0652595 2:-0.146752 3:-0.000435549 4:0.322983 5:0.279504 6:0.120462 7:-0.749084 8:-0.99863 9:0.095346 10:-0.615537 
-131072 1:-0.13327 2:-0.15965 3:-0.294491 4:0.0566191 5:0.0653698 6:-0.153504 7:-0.808417 8:-0.706599 9:-0.316617 10:-0.450205 
-131072 1:-0.0892503 2:0.0684599 3:-0.015952 4:-0.396499 5:-0.154104 6:-0.240073 7:-0.86836 8:-0.668442 9:0.0564391 10:-0.416367 
-131072 1:-0.104992 2:-0.110978 3:0.0554463 4:0.059176 5:0.0913738 6:-0.252639 7:-0.822511 8:-0.730899 9:-0.212072 10:-0.25235 
-131072 1:0.0644086 2:0.0774833 3:-0.149809 4:0.171729 5:0.272018 6:-0.143544 7:-0.661533 8:-0.553026 9:0.24724 10:-0.634193 
-131072 1:-0.129467 2:0.584802 3:0.0834676 4:0.068727 5:0.218262 6:0.0143091 7:-0.540548 8:-0.473973 9:-0.03316 10:-0.407794 
-131072 1:0.0724662 2:0.181963 3:0.141725 4:0.0137689 5:-0.180537 6:-0.302274 7:-0.78754 8:-0.790745 9:0.328813 10:-0.270102 
-131072 1:0.187175 2:0.0802295 3:-0.282365 4:-0.135207 5:0.230073 6:0.136922 7:-0.97214 8:-0.689135 9:0.179482 10:-0.65749 
-131072 1:-0.148743 2:-0.284334 3:-0.120252 4:-0.317284 5:-0.447651 6:-0.390548 7:-0.964981 8:-0.674031 9:0.0732324 10:-0.374514 
-131072 1:0.0800605 2:-0.235883 3:0.0222788 4:0.341438 5:-0.00781543 6:-0.125026 7:-0.834324 8:-0.540792 9:-0.181815 10:-0.61601 
-131072 1:0.0840834 2:0.163328 3:-0.279233 4:-0.0916006 5:0.136928 6:0.115737 7:-0.79152 8:-0.798968 9:0.245536 10:-0.661387 
-131072 1:-0.115834 2:-0.197067 3:-0.0773239 4:0.186234 5:-0.201917 6:0.145587 7:-0.94113 8:-0.707472 9:-0.425226 10:-0.401343 
-131072 1:-0.00220053 2:0.136062 3:-0.356452 4:-0.263151 5:-0.090808 6:-0.063319 7:-0.882758 8:-0.509616 9:0.195026 10:-0.459097 
-131072 1:0.211286 2:0.724419 3:0.229655 4:0.0676127 5:-0.357481 6:-0.330405 7:-0.965538 8:-0.573137 9:0.188015 10:-0.454482 
-131072 1:-0.0877399 2:0.0821666 3:0.210456 4:-0.0982167 5:-0.150157 6:-0.31553 7:-0.703534 8:-0.34162 9:0.0975053 10:-0.426299 
-131072 1:0.198128 2:0.0851826 3:-0.15249 4:-0.203825 5:-0.193304 6:-0.481794 7:-0.942942 8:-0.555371 9:0.406302 10:-0.749633 
-131072 1:-0.0904368 2:0.190128 3:0.0929397 4:-0.0171724 5:0.087271 6:0.0218431 7:-0.885486 8:-0.616168 9:-0.370958 10:-0.429809 
-131072 1:0.145183 2:0.363191 3:-0.0979905 4:0.161043 5:-0.219704 6:0.00945902 7:-0.833621 8:-0.635552 9:0.0916647 10:-0.437481 
-131072 1:-0.00725395 2:0.0316308 3:0.0449115 4:0.123118 5:-0.0267902 6:-0.0390614 7:-0.822114 8:-0.879129 9:-0.137276 10:-0.747734 
-131072 1:-0.377314 2:0.16014 3:0.0337986 4:-0.0885761 5:0.0360629 6:-0.376259 7:-0.710225 8:-0.582368 9:0.0893883 10:-0.435792 
-131072 1:-0.205836 2:-0.0302087 3:-0.0288729 4:-0.336689 5:-0.50834 6:-0.00645532 7:-0.952506 8:-0.680119 9:0.176672 10:-0.202579 
-131072 1:0.100607 2:0.0794449 3:0.104932 4:0.0497344 5:-0.0282475 6:0.0939285 7:-0.840048 8:-0.554226 9:0.157173 10:-0.67261 
-131072 1:-0.158268 2:-0.00407032 3:-0.0586219 4:-0.34217 5:-0.171588 6:-0.10536 7:-0.955994 8:-0.626736 9:0.0584813 10:-0.618209 
-131072 1:-0.202217 2:-0.179413 3:-0.141755 4:-0.16196 5:-0.184025 6:0.00952086 7:-0.988829 8:-0.423064 9:0.354413 10:-0.494852 
-131072 1:-0.287631 2:0.224701 3:-0.19666 4:-0.0477655 5:-0.507004 6:-0.15199 7:-0.841981 8:-0.668743 9:0.0825461 10:-0.301419 
-131072 1:-0.169753 2:-0.215776 3:0.177974 4:0.0464711 5:0.0859053 6:-0.274796 7:-0.730136 8:-0.903174 9:-0.0170301 10:-0.299738 
-131072 1:0.0747022 2:-0.207807 3:-0.297684 4:-0.19116 5:-0.174117 6:0.113249 7:-0.864648 8:-0.612115 9:0.397886 10:-0.649599 
-131072 1:-0.177765 2:-0.16833 3:-0.056702 4:-0.249033 5:-0.421108 6:-0.0757809 7:-0.927303 8:-0.717648 9:-0.179071 10:-0.209226 
-131072 1:-0.236345 2:0.444278 3:0.0883597 4:-0.281148 5:-0.34559 6:-0.301758 7:-0.919682 8:-0.661913 9:-0.188215 10:-0.56879 
-131072 1:-0.280096 2:-0.298948 3:-0.144795 4:0.0191115 5:-0.126684 6:-0.010763 7:-0.83794 8:-0.841093 9:-0.134167 10:-0.324313 
-131072 1:-0.261289 2:-0.117966 3:-0.253915 4:-0.240139 5:-0.247113 6:-0.267463 7:-0.996372 8:-0.824377 9:0.21822 10:-0.502062 
-131072 1:-0.0831072 2:0.0806463 3:-0.116685 4:-0.0697428 5:-0.0838627 6:-0.0544793 7:-0.947795 8:-0.633986 9:0.21766 10:-0.558872 
-131072 1:0.0110712 2:-0.00975897 3:-0.162674 4:0.0519928 5:0.0323737 6:-0.00586694 7:-0.923674 8:-0.428858 9:-0.268605 10:-0.579069 
-131072 1:0.12534 2:0.250153 3:-0.19364 4:0.229005 5:0.197264 6:-0.2752 7:-0.770505 8:-0.549648 9:-0.0379209 10:-0.414051 
-131072 1:-0.260348 2:0.0153741 3:-0.244804 4:-0.193498 5:-0.313842 6:-0.447726 7:-0.90594 8:-0.583592 9:0.00458922 10:-0.354772 
-131072 1:-0.170783 2:-0.142167 3:0.0408807 4:-0.0344836 5:-0.322832 6:-0.0796857 7:-0.780844 8:-0.49836 9:-0.0481712 10:-0.343238 
-131072 1:-0.193155 2:0.152294 3:-0.0724844 4:-0.05664 5:-0.0957634 6:-0.0692858 7:-0.895873 8:-0.664025 9:0.0242833 10:-0.381418 
-131072 1:-0.201891 2:0.303411 3:-0.0425787 4:-0.181271 5:-0.0963408 6:-0.47115 7:-0.79864 8:-0.685137 9:-0.122707 10:-0.316575 
-131072 1:0.206911 2:0.0405071 3:-0.146173 4:0.155432 5:-0.0735189 6:-0.304241 7:-0.865819 8:-0.838961 9:0.0437043 10:-0.436047 
-131072 1:-0.265876 2:-0.151902 3:0.0502501 4:-0.212988 5:-0.103274 6:0.365616 7:-0.760229 8:-0.736812 9:0.012394 10:-0.321896 
-131072 1:0.0488324 2:0.195155 3:0.144215 4:-0.077095 5:-0.16468 6:-0.129664 7:-0.846465 8:-0.682442 9:0.179625 10:-0.367739 
-131072 1:-0.187853 2:-0.00532084 3:-0.1118 4:-0.371817 5:-0.0844187 6:-0.206818 7:-0.804347 8:-0.902713 9:0.216411 10:-0.322429 
-131072 1:-0.411889 2:0.0357747 3:-0.432404 4:-0.475247 5:-0.708229 6:-0.212177 7:-0.853892 8:-0.793456 9:0.243884 10:-0.398355 
-131072 1:-0.0980287 2:-0.0385455 3:0.0303393 4:-0.159333 5:-0.171108 6:0.0253734 7:-0.746474 8:-0.672983 9:0.157641 10:-0.190527 
-131072 1:-0.190756 2:0.095481 3:-0.14686 4:-0.00641758 5:0.221622 6:0.227362 7:-0.433102 8:-0.539235 9:0.385632 10:-0.739116 
-131072 1:0.124523 2:-0.0887134 3:0.075797 4:0.1657 5:0.418437 6:-0.250415 7:-0.653311 8:-0.481149 9:0.102487 10:-0.426121 
-131072 1:-0.132166 2:0.0983743 3:-0.0349107 4:-0.048641 5:-0.540039 6:-0.025391 7:-0.931015 8:-0.481687 9:-0.0144025 10:-0.286648 
-131072 1:-0.266382 2:0.0451168 3:0.128881 4:0.29226 5:-0.153527 6:0.0951866 7:-0.644745 8:-0.759894 9:0.0545009 10:-0.667265 
-131072 1:0.228583 2:0.0551455 3:0.312933 4:-0.0297479 5:-0.013877 6:-0.150644 7:-0.929541 8:-0.303359 9:-0.0146366 10:-0.168107 
-131072 1:-0.0499504 2:0.105804 3:-0.114235 4:-0.0559734 5:-0.068942 6:-0.0779188 7:-0.935182 8:-0.854016 9:-0.173789 10:-0.495892 
-131072 1:-0.165189 2:0.023294 3:0.0697908 4:-0.285665 5:-0.229946 6:0.0591156 7:-0.946605 8:-0.5729 9:-0.0386624 10:-0.653737 
-131072 1:-0.13266 2:-0.0519579 3:-0.14365 4:-0.0184956 5:-0.162013 6:-0.192618 7:-0.987017 8:-0.626546 9:0.00707375 10:-0.439603 
-131072 1:-0.195493 2:-0.52978 3:-0.472353 4:-0.370815 5:-0.165858 6:0.398852 7:-0.919312 8:-0.732759 9:0.352839 10:-0.34326 
-131072 1:-0.0993807 2:-0.0230488 3:-0.347213 4:-0.176107 5:0.186911 6:-0.12781 7:-0.722521 8:-0.525609 9:0.085642 10:-0.492811 
-131072 1:-0.17118 2:-0.342079 3:-0.213523 4:0.0824167 5:-0.1304 6:-0.682938 7:-0.925999 8:-0.952796 9:-0.157152 10:-0.627473 
-131072 1:-0.404893 2:0.109188 3:-0.108146 4:-0.271946 5:0.235953 6:-0.0926546 7:-0.56119 8:-0.799432 9:-0.206114 10:-0.567088 
-131072 1:-0.117063 2:0.100728 3:-0.00930849 4:-0.0839897 5:0.0266165 6:-0.164768 7:-0.683172 8:-0.646444 9:0.0262085 10:-0.609362 
-131072 1:0.013943 2:0.170169 3:0.00795411 4:-0.0663402 5:-0.187668 6:-0.182094 7:-0.929977 8:-0.906336 9:0.219637 10:-0.360122 
-131072 1:-0.207415 2:-0.210235 3:-0.192935 4:0.0179474 5:-0.0663863 6:0.170601 7:-0.680375 8:-0.722387 9:0.109121 10:-0.310457 
-131072 1:0.130217 2:-0.0213815 3:-0.166573 4:-0.108255 5:0.0084885 6:-0.105194 7:-0.988058 8:-0.823976 9:0.0228394 10:-0.759997 
-131072 1:-0.10238 2:-0.138097 3:-0.336532 4:0.00657577 5:-0.209066 6:-0.260003 7:-0.756142 8:-0.816188 9:0.137466 10:-0.495266 
-131072 1:-0.251716 2:-0.220337 3:-0.31641 4:0.18518 5:-0.15563 6:-0.305718 7:-0.765992 8:-0.596492 9:-0.0676702 10:-0.2632 
-131072 1:-0.05546 2:0.313047 3:0.0854297 4:-0.202323 5:-0.264058 6:-0.397034 7:-0.978533 8:-0.602122 9:0.0908973 10:-0.428402 
-131072 1:0.0993642 2:-0.0341564 3:0.269622 4:-0.111678 5:0.122003 6:0.0498324 7:-0.778373 8:-0.388593 9:0.103775 10:-0.353751 
-131072 1:-0.192659 2:0.108256 3:-0.144258 4:-0.0624104 5:-0.0832579 6:-0.264283 7:-0.792558 8:-0.807852 9:0.136399 10:-0.583909 
-131072 1:-0.303735 2:0.149229 3:-0.452952 4:0.113627 5:-0.152789 6:-0.163014 7:-0.859945 8:-0.641344 9:-0.243903 10:-0.512243 
-131072 1:0.0373192 2:0.322512 3:-0.124098 4:-0.0940481 5:-0.0254655 6:0.386555 7:-0.925754 8:-0.712919 9:-0.20683 10:-0.34728 
-131072 1:0.0679682 2:-0.173871 3:-0.0429211 4:0.000666083 5:-0.122833 6:0.102304 7:-0.947781 8:-0.803353 9:0.0326345 10:-0.506172 
-131072 1:0.0588707 2:0.446313 3:-0.326069 4:-0.0406818 5:0.00394478 6:-0.2161 7:-0.920522 8:-0.574536 9:-0.129835 10:-0.579863 
-131072 1:0.0644441 2:0.596768 3:-0.0670419 4:0.00603853 5:-0.0351675 6:-0.111945 7:-0.879996 8:-0.567527 9:-0.226082 10:-0.339572 
-131072 1:0.0191902 2:-0.0764534 3:0.00264062 4:-0.0643106 5:-0.0146729 6:0.145101 7:-0.785339 8:-0.740861 9:0.188119 10:-0.29794 
-131072 1:-0.0132292 2:-0.0173111 3:-0.255042 4:-0.089382 5:-0.255145 6:-0.291928 7:-0.974113 8:-0.782918 9:-0.212527 10:-0.2999 
-29319.95548767458 1:0.0231847 2:-0.0782924 3:-0.274537 4:-0.249172 5:-0.106614 6:0.122195 7:-0.817264 8:-0.604261 9:0.205602 10:-0.421208 
-131072 1:0.000262362 2:-0.0683618 3:-0.221081 4:0.0214893 5:-0.101924 6:-0.157437 7:-0.987346 8:-0.537601 9:-0.0192414 10:-0.504231 
-131072 1:-0.143859 2:-0.0992816 3:-0.25348 4:-0.158806 5:-0.345584 6:0.052806 7:-0.99494 8:-0.694428 9:-0.24428 10:-0.229608 
-131072 1:0.266177 2:0.487188 3:0.10479 4:0.210231 5:0.0308559 6:-0.436236 7:-0.766225 8:-0.878911 9:0.2494 10:-0.528054 
-131072 1:-0.167006 2:0.062477 3:-0.319926 4:-0.198423 5:-0.0905446 6:-0.356382 7:-0.947283 8:-0.603623 9:0.10583 10:-0.586283 
-131072 1:-0.112728 2:0.402153 3:0.115916 4:0.126958 5:0.0258381 6:-0.124637 7:-0.836505 8:-0.431755 9:-0.126336 10:-0.418981 
-131072 1:-0.377947 2:0.130152 3:-0.157855 4:-0.409018 5:-0.251531 6:0.0109026 7:-0.852387 8:-0.982071 9:0.612219 10:-0.325157 
-131072 1:-0.0938948 2:-0.0308952 3:0.0111975 4:-0.100008 5:-0.0338935 6:-0.336344 7:-0.981725 8:-0.676869 9:-0.153627 10:-0.543268 
-131072 1:0.0040087 2:-0.223549 3:-0.0823582 4:-0.0798111 5:-0.246016 6:-0.377104 7:-0.964643 8:-0.755839 9:-0.181646 10:-0.401752 
-131072 1:0.224586 2:-0.0650026 3:0.132597 4:0.0927438 5:-0.0264917 6:0.144924 7:-0.840798 8:-0.722986 9:0.144958 10:-0.451813 
-131072 1:-0.113206 2:0.0325135 3:-0.246188 4:0.23767 5:-0.0665599 6:-0.290968 7:-0.869034 8:-0.740242 9:0.0623057 10:-0.640916 
-131072 1:-0.034055 2:0.288429 3:-0.0920568 4:-0.118194 5:-0.24037 6:0.00888125 7:-0.869388 8:-0.715563 9:-0.136157 10:-0.615796 
-131072 1:0.11924 2:0.0461712 3:-0.0758319 4:-0.100694 5:0.0750016 6:-0.298797 7:-0.998865 8:-0.733107 9:0.722683 10:-0.478791 
-131072 1:-0.0350525 2:0.213864 3:-0.118491 4:0.143852 5:0.129296 6:-0.0880907 7:-0.853049 8:-0.655893 9:-0.0839562 10:-0.461084 
-131072 1:0.150548 2:0.19415 3:-0.0330447 4:-0.0889542 5:-0.190852 6:0.0806168 7:-0.888917 8:-0.678783 9:0.208789 10:-0.403921 
-131072 1:-0.0614517 2:0.390776 3:-0.280972 4:-0.1073 5:-0.138276 6:-0.148842 7:-0.77925 8:-0.610255 9:0.0516131 10:-0.672566 
-131072 1:-0.130455 2:-0.118628 3:-0.0670524 4:-0.208819 5:-0.112998 6:-0.241628 7:-0.844618 8:-0.687785 9:-0.0492379 10:-0.408128 
-131072 1:-0.119575 2:-0.33769 3:-0.277369 4:-0.280233 5:-0.158458 6:0.0631918 7:-0.908395 8:-0.765786 9:0.194922 10:-0.414149 
-131072 1:0.0303961 2:0.0951622 3:0.110183 4:-0.165263 5:-0.113503 6:-0.31548 7:-0.91462 8:-0.54126 9:-0.0907984 10:-0.70302 
-131072 1:0.0232202 2:0.171248 3:0.374272 4:0.209067 5:-0.0545734 6:-0.245617 7:-0.906447 8:-0.471507 9:-0.201535 10:-0.513715 
-3079.565219218247 1:-0.0901744 2:-0.208812 3:-0.225209 4:0.0905053 5:-0.327899 6:0.399948 7:-0.872151 8:-0.830802 9:-0.190687 10:-0.416757 
-131072 1:0.084003 2:0.151338 3:-0.0607223 4:0.0220066 5:-0.0632004 6:-0.0227372 7:-0.835121 8:-0.791243 9:0.193999 10:-0.418599 
-131072 1:-0.00817812 2:-0.38364 3:-0.395033 4:0.0417653 5:-0.0429439 6:-0.302759 7:-0.98617 8:-0.705098 9:-0.0621678 10:-0.519965 
-131072 1:0.0323721 2:0.210774 3:-0.0412685 4:-0.180226 5:-0.187157 6:-0.106187 7:-0.924631 8:-0.701781 9:0.0556716 10:-0.322244 
-131072 1:0.0196133 2:-0.268666 3:-0.139529 4:-0.102505 5:-0.02791 6:-0.474786 7:-0.874629 8:-0.75025 9:-0.0125553 10:-0.757141 
-131072 1:-0.195067 2:-0.119878 3:-0.297299 4:-0.106275 5:-0.115731 6:-0.410136 7:-0.924212 8:-0.755739 9:0.0771478 10:-0.611561 
-131072 1:-0.114269 2:0.120982 3:-0.225873 4:-0.263578 5:-0.249676 6:-0.271243 7:-0.831419 8:-0.863568 9:-0.0174203 10:-0.499059 
-131072 1:0.0107521 2:-0.0526445 3:0.138981 4:0.26496 5:0.122394 6:-0.25747 7:-0.806021 8:-0.864415 9:0.08399 10:-0.487121 
-131072 1:-0.192479 2:0.0639973 3:-0.436345 4:-0.193498 5:-0.170123 6:-0.305368 7:-0.83491 8:-0.592698 9:0.000478694 10:-0.666056 
-131072 1:-0.208013 2:-0.280828 3:-0.121351 4:-0.17753 5:-0.0694219 6:-0.214209 7:-0.941367 8:-0.746417 9:0.112933 10:-0.416767 
-101835.4061301767 1:0.0684835 2:0.320011 3:-0.255079 4:-0.232189 5:-0.476515 6:-0.30543 7:-0.975864 8:-0.632645 9:0.0601464 10:-0.567065 
-98730.05914185236 1:-0.308105 2:-0.366403 3:-0.306162 4:-0.38772 5:-0.258664 6:-0.0222036 7:-0.861386 8:-0.538764 9:-0.188371 10:-0.608395 
-131072 1:-0.227957 2:-0.0643405 3:-0.144461 4:-0.184166 5:-0.399593 6:-0.680602 7:-0.953222 8:-0.601724 9:-0.018565 10:-0.466932 
-131072 1:0.15203 2:-0.0555133 3:-0.169248 4:0.043765 5:0.00780177 6:0.295564 7:-0.920113 8:-0.703273 9:-0.109647 10:-0.51977 
-131072 1:-0.0996975 2:0.818699 3:0.467452 4:-0.239223 5:-0.35251 6:-0.355058 7:-0.895665 8:-0.505807 9:0.0577399 10:-0.53747 
-131072 1:0.129864 2:-0.0139764 3:-0.0541473 4:-0.0742198 5:-0.610544 6:0.126051 7:-0.984262 8:-0.614966 9:0.439199 10:-0.339837 
-131072 1:0.079498 2:-0.133683 3:-0.224844 4:0.161899 5:-0.0603403 6:-0.0089802 7:-0.956827 8:-0.586279 9:-0.03649 10:-0.378845 
