svm_type c_svc
kernel_type linear
nr_class 2
total_sv 27
rho 1.4434
label 1 -1
nr_sv 14 13
SV
1732.326242693737 1:-0.226647 2:-0.0129221 3:-0.0923741 4:-0.349479 5:-0.179544 6:0.73836 7:-0.823492 8:-0.360231 9:0.207345 10:-0.253006 
2048 1:-0.242692 2:0.0345487 3:0.0973551 4:0.0707367 5:-0.0125601 6:0.0186362 7:-0.354072 8:-0.737108 9:0.0219809 10:-0.580102 
2048 1:-0.0591354 2:-0.121448 3:0.319991 4:-0.10142 5:-0.516509 6:-0.191466 7:-0.30921 8:-0.636132 9:-0.0174333 10:-0.467487 
2048 1:0.00875957 2:-0.075914 3:-0.323674 4:-0.029141 5:-0.0347227 6:-0.126623 7:-0.196895 8:-0.652987 9:-0.384273 10:-0.316258 
2048 1:0.0800841 2:-0.167472 3:0.103363 4:0.54382 5:0.321644 6:-0.338367 7:-0.584127 8:-0.288638 9:0.44089 10:-0.585278 
2048 1:0.20303 2:0.191845 3:-0.0465504 4:-0.0688672 5:-0.204608 6:0.22184 7:-0.187236 8:-0.737772 9:-0.140489 10:-0.299785 
1660.475624951192 1:0.0948048 2:0.0901111 3:0.20129 4:-0.0314989 5:-0.231761 6:-0.181282 7:-0.280642 8:-0.526925 9:-0.188059 10:-0.259032 
37.33249962533851 1:0.365052 2:-0.126057 3:0.0793828 4:-0.872351 5:-0.479488 6:-0.19404 7:-0.483131 8:-0.392026 9:0.221836 10:-0.195449 
2048 1:0.155928 2:-0.0785131 3:-0.0748218 4:0.0651453 5:-0.556372 6:-0.250551 7:-0.0655777 8:-0.0673228 9:-0.0973935 10:-0.0188729 
2048 1:-0.135138 2:-0.0941324 3:0.0377518 4:0.301652 5:-0.1739 6:-0.0834226 7:-0.0897777 8:-0.0204936 9:0.0657788 10:-0.094364 
2048 1:-0.267061 2:-0.201898 3:-0.0200514 4:0.0584198 5:0.191045 6:0.284812 7:-0.352568 8:-0.0480976 9:-0.633491 10:-0.042587 
1356.318355052903 1:-0.00533232 2:-0.386117 3:-0.122504 4:-0.425096 5:-0.338894 6:0.280266 7:-0.72956 8:0.328845 9:-0.187656 10:0.202374 
1224.868916559815 1:-0.101425 2:0.103769 3:0.0295096 4:-0.0319964 5:0.241882 6:0.624643 7:-0.0319633 8:-0.539444 9:0.0442506 10:-0.127107 
1583.403417505113 1:0.0137444 2:0.345536 3:0.0518724 4:0.00948087 5:-0.120345 6:-0.294938 7:-0.468213 8:0.408984 9:-0.0276966 10:0.207352 
-2048 1:-0.167966 2:0.145649 3:0.29509 4:-0.1152 5:-0.296087 6:0.111587 7:-0.416488 8:-0.42632 9:0.241088 10:-0.366489 
-1719.717635801579 1:0.215347 2:-0.134688 3:0.105709 4:0.0199969 5:-0.0835427 6:0.0914514 7:-0.424594 8:-0.417375 9:-0.404746 10:-0.222123 
-1383.531873551077 1:0.128016 2:-0.483486 3:-0.0656355 4:-0.150349 5:-0.572323 6:0.305944 7:-0.427795 8:-0.447262 9:-0.0346429 10:-0.269077 
-2048 1:-0.0881134 2:0.390481 3:-0.0611187 4:-0.0325038 5:-0.323371 6:-0.455137 7:-0.38897 8:-0.269156 9:-0.145705 10:-0.186076 
-2048 1:-0.179399 2:-0.324081 3:-0.199442 4:-0.103042 5:-0.151172 6:0.207308 7:-0.397161 8:-0.425133 9:-0.262543 10:-0.263261 
-2048 1:0.23597 2:-0.220386 3:-0.106782 4:-0.191966 5:-0.166139 6:-0.341805 7:-0.387815 8:-0.392984 9:-0.157777 10:-0.220494 
-1890.14941787302 1:-0.325265 2:-0.108378 3:-0.203703 4:0.112731 5:0.0716752 6:0.113725 7:-0.301805 8:-0.282614 9:-0.00631148 10:-0.263705 
-2048 1:-0.127527 2:-0.149964 3:0.122209 4:0.206381 5:-0.288277 6:0.0314179 7:-0.339359 8:-0.184329 9:-0.0504606 10:-0.235652 
-2048 1:0.153633 2:0.368217 3:0.0829356 4:0.22597 5:-0.155823 6:0.342222 7:-0.266374 8:-0.278443 9:0.0965688 10:-0.109373 
-2048 1:0.135119 2:0.0762573 3:-0.175978 4:0.0227229 5:-0.0831935 6:-0.135604 7:-0.0842101 8:-0.194932 9:-0.140073 10:-0.00435281 
-1763.489636351926 1:-0.124877 2:0.0193218 3:0.339112 4:0.24559 5:0.350018 6:0.288874 7:-0.376728 8:-0.311451 9:-0.055989 10:-0.353659 
-837.8364928104976 1:0.043396 2:-0.0640708 3:-0.105905 4:0.393571 5:0.226437 6:-0.0461042 7:-0.322921 8:-0.227014 9:0.209803 10:-0.248122 
-2048 1:-0.254278 2:-0.115318 3:0.0918441 4:-0.194602 5:-0.0470857 6:-0.0365083 7:-0.272816 8:-0.264861 9:-0.0883399 10:-0.220439 
