svm_type c_svc
kernel_type linear
nr_class 2
total_sv 34
rho -19.4188
label -1 1
nr_sv 17 17
SV
2058.173110118356 1:0.297629 2:-0.34279 3:-0.464759 4:0.106652 5:0.0507632 6:-0.115803 7:-0.935919 8:-0.897996 9:-0.216625 10:0.0500995 
5107.957900859414 1:-0.226647 2:-0.0129221 3:-0.0923741 4:-0.349479 5:-0.179544 6:0.73836 7:-0.823492 8:-0.360231 9:0.207345 10:-0.253006 
16384 1:-0.144372 2:0.00235392 3:0.343484 4:0.751017 5:0.375737 6:0.0234104 7:-0.951682 8:-0.870546 9:-0.0340575 10:-0.0233043 
16384 1:0.281644 2:-0.48736 3:-0.243671 4:0.420503 5:-0.0374754 6:0.135768 7:-0.848234 8:-0.636389 9:-0.00871796 10:-0.0279924 
16384 1:0.139773 2:0.0002452 3:0.33848 4:0.374011 5:0.215669 6:-0.502021 7:-0.762349 8:-0.979003 9:0.0926273 10:-0.336392 
16384 1:0.133852 2:0.0692936 3:0.175708 4:0.339568 5:0.256239 6:-0.287076 7:-0.843081 8:-0.918804 9:0.0259223 10:-0.204103 
16384 1:0.0800841 2:-0.167472 3:0.103363 4:0.54382 5:0.321644 6:-0.338367 7:-0.584127 8:-0.288638 9:0.44089 10:-0.585278 
924.1605314894953 1:-0.220093 2:-0.178653 3:0.0248177 4:0.490533 5:0.0414339 6:0.226897 7:-0.89368 8:-0.85335 9:0.0264947 10:-0.0378492 
1632.787114104861 1:-0.114319 2:0.230881 3:0.291732 4:-0.167571 5:0.330008 6:0.340595 7:-0.753238 8:-0.927012 9:-0.0828765 10:-0.286606 
16384 1:0.54657 2:-0.453645 3:-0.26936 4:0.374807 5:0.0366833 6:0.675317 7:-0.890736 8:-0.477351 9:-0.254153 10:0.148228 
13362.73095133372 1:-0.0441902 2:-0.151705 3:-0.264477 4:0.531085 5:0.433194 6:-0.0656619 7:-0.543689 8:-0.67204 9:0.377294 10:-0.465074 
16384 1:-0.276981 2:0.245029 3:0.159404 4:-0.178734 5:-0.0762794 6:0.130192 7:-0.971275 8:-0.734272 9:0.0438734 10:-0.248282 
16384 1:-0.194533 2:-0.186769 3:0.13891 4:-0.291087 5:-0.571911 6:-0.118831 7:-0.873242 8:-0.42984 9:0.125381 10:-0.341676 
16384 1:-0.0529593 2:-0.171125 3:0.0822772 4:0.466984 5:0.473424 6:-0.515338 7:-0.985449 8:-0.611614 9:-0.249379 10:-0.195747 
16384 1:0.0197244 2:-0.207439 3:0.0021942 4:0.618497 5:0.539366 6:0.103016 7:-0.954609 8:-0.598361 9:0.11024 10:-0.094687 
16384 1:-0.155001 2:-0.240811 3:-0.243533 4:-0.388005 5:-0.523772 6:-0.583347 7:-0.851444 8:-0.592197 9:0.256138 10:-0.386462 
16384 1:0.191834 2:-0.0297183 3:-0.0900828 4:-0.313736 5:-0.142137 6:-0.325696 7:-0.905221 8:-0.960437 9:-0.206661 10:-0.190528 
-1744.188123287936 1:0.0474686 2:-0.22274 3:-0.294021 4:0.180882 5:0.280232 6:0.361191 7:-0.765008 8:-0.796085 9:0.0787088 10:-0.293873 
-1737.135553303368 1:0.610591 2:0.200378 3:0.0125552 4:0.160825 5:0.177285 6:-0.0162863 7:-0.916775 8:-0.738053 9:0.0110412 10:-0.122915 
-1723.539892352945 1:-0.155124 2:-0.24851 3:-0.451013 4:0.0227528 5:-0.147157 6:0.346157 7:-0.883681 8:-0.822334 9:0.144542 10:-0.235257 
-12839.27314939666 1:0.112364 2:-0.244367 3:0.167518 4:0.12268 5:-0.152998 6:-0.21158 7:-0.845892 8:-0.719634 9:0.0290703 10:-0.287304 
-16384 1:0.180323 2:-0.282569 3:0.462909 4:0.178613 5:0.3175 6:-0.441793 7:-0.777895 8:-0.563256 9:0.147235 10:-0.255475 
-16384 1:0.210622 2:-0.329672 3:0.231789 4:0.396167 5:0.371535 6:-0.2647 7:-0.764919 8:-0.549613 9:-0.0800668 10:-0.227706 
-16384 1:0.222589 2:-0.015276 3:0.0447496 4:0.090744 5:0.324533 6:0.0420598 7:-0.832849 8:-0.661205 9:0.167098 10:-0.200284 
-16384 1:-0.310792 2:-0.455141 3:0.0749344 4:0.392705 5:0.247955 6:0.0433921 7:-0.815936 8:-0.666123 9:-0.0401843 10:-0.180108 
-16384 1:-0.107809 2:-0.47868 3:0.0744538 4:0.181419 5:-0.256887 6:0.0926051 7:-0.832105 8:-0.672448 9:-0.0957154 10:-0.200837 
-16384 1:0.529021 2:0.0659343 3:-0.0856529 4:0.261299 5:0.247737 6:0.302665 7:-0.831833 8:-0.541835 9:0.127853 10:-0.134636 
-16384 1:0.0474449 2:0.166687 3:-0.378273 4:0.264373 5:0.00862311 6:-0.308149 7:-0.900793 8:-0.794271 9:0.0038998 10:-0.212455 
-16384 1:-0.375759 2:-0.365986 3:-0.28044 4:0.0077398 5:-0.207479 6:-0.00261411 7:-0.896627 8:-0.524516 9:-0.235005 10:-0.24982 
-16384 1:-0.380581 2:0.11343 3:0.0501118 4:0.0310502 5:-0.059318 6:0.25933 7:-0.854596 8:-0.762122 9:0.0991183 10:-0.319089 
-6815.296622188313 1:-0.494573 2:-0.0412182 3:-0.349479 4:0.0356765 5:-0.117386 6:-0.679346 7:-0.934239 8:-0.902096 9:0.235104 10:-0.360464 
-16384 1:0.302286 2:-0.0306991 3:0.110464 4:0.15984 5:-0.0739422 6:-0.229763 7:-0.873595 8:-0.716814 9:0.179586 10:-0.162665 
-14610.37626737685 1:0.221131 2:0.00144668 3:-0.420526 4:0.566802 5:0.273991 6:-0.279879 7:-0.841175 8:-0.665604 9:0.0157891 10:-0.212536 
-16384 1:0.0263189 2:0.0625261 3:0.386216 4:0.447265 5:0.177176 6:-0.262237 7:-0.911401 8:-0.776785 9:0.247175 10:-0.192986 
