svm_type c_svc
kernel_type polynomial
degree 2
gamma 1
coef0 0
nr_class 2
total_sv 16
rho 2.43563
label 1 -1
nr_sv 12 4
SV
0.06016833135171729 1:-0.55542 2:-0.575411 3:-0.572885 4:-0.30026 5:-0.116238 6:0.559356 7:-0.691752 8:-0.521872 9:-0.0703368 10:-0.083712 
0.9241067824967436 1:-0.406167 2:0.0771155 3:-0.161028 4:-0.289386 5:-0.566318 6:0.254968 7:-0.777169 8:-0.559625 9:-0.251629 10:0.037791 
0.3523643374948831 1:0.0357403 2:0.289778 3:0.75155 4:0.39766 5:-0.0365546 6:-0.000345426 7:-0.740167 8:-0.508351 9:0.18315 10:-0.374216 
0.4930449956951148 1:0.0155053 2:-0.122772 3:-0.0982223 4:0.32553 5:0.178056 6:0.347468 7:-0.803083 8:-0.416709 9:0.00326241 10:-0.152444 
0.4795202138567543 1:0.246918 2:0.0405071 3:-0.0754724 4:0.447623 5:0.165979 6:0.515007 7:-0.852724 8:-0.368634 9:-0.187123 10:-0.230695 
0.7599494830267822 1:-0.187489 2:0.140647 3:0.0788178 4:-0.291137 5:-0.17925 6:-0.00913568 7:-0.7266 8:-0.57395 9:0.297373 10:-0.148493 
0.5082239129110838 1:-0.238633 2:0.45774 3:0.310589 4:-0.103778 5:-0.18931 6:-0.209467 7:-0.818954 8:-0.441985 9:-0.07381 10:-0.195529 
0.3147693246080301 1:0.0511487 2:-0.329843 3:-0.211743 4:-0.295753 5:0.239071 6:-0.0928066 7:-0.79506 8:-0.506841 9:-0.15965 10:0.0376999 
1.926219599146568 1:0.143935 2:0.329819 3:-0.478291 4:0.29627 5:0.304491 6:-0.531323 7:-0.537259 8:-0.396547 9:-0.0734978 10:-0.165051 
0.8518682713351634 1:0.227321 2:-0.0182184 3:-0.00479433 4:-0.0635048 5:-0.363441 6:-0.209785 7:-0.686258 8:-0.460526 9:-0.234238 10:-0.963682 
0.6564391181981372 1:-0.231845 2:-0.0555624 3:-0.493012 4:-0.6219 5:-0.492875 6:-0.224411 7:-0.599109 8:-0.54329 9:-0.492559 10:-0.949514 
2.711293850247934 1:-0.383894 2:-0.149842 3:-0.0936976 4:0.188851 5:0.255299 6:0.0574017 7:-0.652871 8:-0.480943 9:0.00531767 10:-0.434275 
-1.40084786593398 1:-0.167966 2:0.145649 3:0.29509 4:-0.1152 5:-0.296087 6:0.111587 7:-0.416488 8:-0.42632 9:0.241088 10:-0.366489 
-0.7122619899753941 1:-0.0979838 2:0.0466126 3:-0.105071 4:-0.700048 5:-0.896757 6:-0.164574 7:-0.41376 8:-0.297609 9:-0.460177 10:-0.474225 
-3.738272943645968 1:-0.0160419 2:0.2388 3:-0.0228009 4:0.184792 5:-0.0222113 6:-0.127162 7:-0.451911 8:-0.376311 9:-0.262803 10:-0.302938 
-4.18658542081357 1:-0.205829 2:-0.162004 3:-0.336697 4:0.0408102 5:0.0394537 6:0.0831576 7:-0.400142 8:-0.404314 9:-0.182999 10:-0.474968 
