svm_type c_svc
kernel_type polynomial
degree 2
gamma 1
coef0 0
nr_class 2
total_sv 278
rho 7.90897
label 1 -1
nr_sv 136 142
SV
1509.692664789992 1:-0.55542 2:-0.575411 3:-0.572885 4:-0.30026 5:-0.116238 6:0.559356 7:-0.691752 8:-0.521872 9:-0.0703368 10:-0.083712 
4096 1:-0.104082 2:-0.387956 3:-0.303327 4:-0.0489196 5:-0.105936 6:0.285054 7:-0.866405 8:-0.734037 9:-0.0374526 10:-0.101711 
831.8535477819362 1:-0.13656 2:-0.188633 3:-0.0634851 4:-0.197657 5:0.135359 6:0.103526 7:-0.941643 8:-0.623077 9:0.0510017 10:-0.402324 
4096 1:-0.0601777 2:0.25925 3:-0.136238 4:-0.0181574 5:0.0401872 6:0.00746951 7:-0.871092 8:-0.761824 9:0.177231 10:-0.59985 
4096 1:0.180616 2:0.088836 3:0.0622755 4:0.338662 5:0.0486952 6:0.0841259 7:-0.911323 8:-0.59813 9:-0.176313 10:-0.732574 
622.4129514509777 1:-0.0507114 2:0.225486 3:-0.0834459 4:-0.304636 5:-0.290412 6:-0.171694 7:-0.834774 8:-0.53164 9:0.191267 10:0.0168019 
4096 1:-0.320289 2:0.236912 3:0.255479 4:-0.172585 5:-0.1218 6:-0.21728 7:-0.975527 8:-0.354586 9:0.126513 10:-0.364358 
4096 1:0.0384703 2:0.0645367 3:-0.0116854 4:-0.0122974 5:0.261111 6:-0.410742 7:-0.772015 8:-0.509779 9:-0.377924 10:-0.881716 
4096 1:-0.406167 2:0.0771155 3:-0.161028 4:-0.289386 5:-0.566318 6:0.254968 7:-0.777169 8:-0.559625 9:-0.251629 10:0.037791 
4096 1:-0.0136026 2:0.183287 3:-0.126864 4:-0.0993011 5:0.0547763 6:-0.422113 7:-0.900671 8:-0.429847 9:0.217803 10:-0.82705 
4096 1:-0.16084 2:0.00193708 3:0.336728 4:-0.364763 5:-0.047154 6:0.285273 7:-0.756431 8:-0.486128 9:0.28456 10:-0.399063 
4096 1:-0.0427602 2:0.0430326 3:0.155783 4:0.0128934 5:0.198447 6:-0.0552602 7:-0.789669 8:-0.793149 9:0.0637366 10:-0.334546 
4096 1:0.213614 2:-0.614202 3:-0.612991 4:0.405281 5:0.493753 6:0.206873 7:-0.661888 8:-0.52136 9:-0.169198 10:-0.469707 
4096 1:0.00984211 2:0.366746 3:0.226666 4:0.0894706 5:0.147459 6:-0.0578205 7:-0.929014 8:-0.513987 9:-0.107214 10:-0.560113 
2266.623854991523 1:-0.18597 2:0.181865 3:-0.431552 4:-0.605024 5:-0.56854 6:-0.0408743 7:-0.814746 8:-0.538152 9:-0.184911 10:-0.880708 
2555.204678342604 1:-0.232235 2:0.127553 3:-0.202086 4:0.046501 5:-0.243585 6:-0.0991744 7:-0.92459 8:-0.893034 9:0.069304 10:-0.732838 
4096 1:0.0067505 2:0.103401 3:-0.0453994 4:-0.0879792 5:0.0247612 6:-0.249975 7:-0.87791 8:-0.799935 9:0.0902989 10:-0.258212 
4096 1:0.163711 2:0.155163 3:-0.269106 4:0.199009 5:0.196392 6:-0.161282 7:-0.742626 8:-0.782437 9:0.33295 10:-0.562891 
4096 1:0.0250142 2:-0.266435 3:0.0180978 4:0.273944 5:0.157536 6:-0.0729856 7:-0.820939 8:-0.357938 9:-0.0232479 10:-0.629747 
4096 1:-0.199097 2:0.0699311 3:-0.0878824 4:0.114064 5:-0.185106 6:-0.479325 7:-0.847501 8:-0.643008 9:-0.199571 10:-0.156188 
4096 1:-0.192096 2:0.0332246 3:-0.346307 4:0.0134605 5:0.0610017 6:-0.190429 7:-0.905669 8:-0.982817 9:-0.025056 10:-0.797013 
4096 1:0.267302 2:-0.246794 3:0.126834 4:-0.18915 5:0.00206994 6:-0.46469 7:-0.825674 8:-0.44736 9:0.0331808 10:-0.836565 
4096 1:-0.278768 2:0.222102 3:0.289085 4:-0.247123 5:-0.217671 6:0.0457244 7:-0.71838 8:-0.604964 9:0.290596 10:-0.367819 
4096 1:0.0106883 2:0.000931761 3:-0.270564 4:0.224727 5:0.150986 6:0.266723 7:-0.795731 8:-0.538 9:0.0420132 10:-0.567107 
2253.589990953943 1:-0.0397892 2:-0.220312 3:-0.110929 4:0.155591 5:0.142506 6:0.25122 7:-0.895252 8:-0.508544 9:0.277302 10:-0.519427 
4096 1:-0.156453 2:0.346934 3:0.079579 4:0.0270109 5:-0.264037 6:-0.0505073 7:-0.872169 8:-0.981181 9:0.241725 10:-0.560715 
4096 1:-0.307509 2:0.397175 3:0.229063 4:-0.345482 5:-0.234991 6:-0.279314 7:-0.829837 8:-0.549149 9:0.0893493 10:-0.468828 
1570.44672016334 1:-0.661069 2:-0.245421 3:-0.254822 4:-0.37464 5:-0.506399 6:-0.497176 7:-0.805614 8:-0.490051 9:0.114234 10:-0.674678 
4096 1:-0.126236 2:0.0206459 3:0.170508 4:-0.105887 5:-0.369723 6:-0.155361 7:-0.853019 8:-0.565904 9:0.118877 10:-0.146182 
4096 1:0.246918 2:0.0405071 3:-0.0754724 4:0.447623 5:0.165979 6:0.515007 7:-0.852724 8:-0.368634 9:-0.187123 10:-0.230695 
4096 1:-0.29584 2:0.20028 3:-0.464433 4:0.24556 5:-0.00478953 6:-0.406459 7:-0.70014 8:-0.664511 9:-0.154082 10:-0.634453 
4096 1:-0.0110216 2:0.412893 3:0.248117 4:-0.0100689 5:-0.133588 6:-0.411917 7:-0.850899 8:-0.627304 9:0.188574 10:-0.298796 
4096 1:-0.140624 2:-0.0879778 3:-0.381751 4:-0.0314392 5:0.102426 6:-0.162461 7:-0.868231 8:-0.545697 9:-0.0184609 10:-0.309222 
4096 1:-0.035615 2:-0.28073 3:-0.208037 4:-0.138878 5:-0.133748 6:-0.357847 7:-0.876745 8:-0.846076 9:0.375343 10:-0.841554 
4096 1:-0.221894 2:-0.141726 3:-0.283947 4:-0.203656 5:-0.275354 6:0.121412 7:-0.903288 8:-0.966989 9:0.250831 10:-0.763572 
4096 1:0.0969864 2:0.12694 3:-0.5149 4:0.111209 5:-0.0474057 6:-0.100174 7:-0.768947 8:-0.632858 9:0.128451 10:-0.323479 
2380.259115736635 1:-0.262768 2:0.543266 3:0.388296 4:-0.0870938 5:0.0114481 6:-0.292949 7:-0.695331 8:-0.895072 9:0.198525 10:-0.488085 
4096 1:-0.0699277 2:-0.0316553 3:-0.0766628 4:0.148985 5:0.10848 6:-0.3324 7:-0.751335 8:-0.751433 9:0.130611 10:-0.265061 
4096 1:-0.187489 2:0.140647 3:0.0788178 4:-0.291137 5:-0.17925 6:-0.00913568 7:-0.7266 8:-0.57395 9:0.297373 10:-0.148493 
4096 1:-0.238633 2:0.45774 3:0.310589 4:-0.103778 5:-0.18931 6:-0.209467 7:-0.818954 8:-0.441985 9:-0.07381 10:-0.195529 
4096 1:-0.185409 2:0.169973 3:-0.317011 4:-0.334828 5:-0.29182 6:0.0104591 7:-0.705967 8:-0.762051 9:0.373067 10:-0.81202 
4096 1:0.0807294 2:0.585342 3:-0.0573341 4:0.0954001 5:0.199303 6:-0.0717205 7:-0.79864 8:-0.603566 9:0.0388783 10:-0.391435 
4096 1:-0.127321 2:-0.100238 3:-0.0636181 4:-0.118154 5:-0.17342 6:-0.168046 7:-0.887264 8:-0.855251 9:0.312462 10:-0.334657 
4096 1:-0.144996 2:-0.311723 3:-0.514184 4:-0.502281 5:-0.628412 6:-0.112004 7:-0.764225 8:-0.654937 9:-0.335297 10:-0.919135 
4096 1:-0.165756 2:-0.156021 3:-0.175718 4:-0.204104 5:0.18717 6:0.104005 7:-0.867576 8:-0.487431 9:0.404806 10:-0.537039 
4096 1:-0.101761 2:0.131697 3:0.190404 4:-0.0954509 5:-0.346651 6:-0.135659 7:-0.913321 8:-0.614323 9:-0.0762034 10:-0.108163 
1310.152289152058 1:0.0626028 2:-0.453743 3:-0.0987977 4:-0.0990226 5:-0.332111 6:-0.303605 7:-0.875762 8:-0.774687 9:0.0571805 10:0.00159437 
4096 1:-0.247277 2:0.0382758 3:0.118815 4:0.189249 5:-0.13883 6:-0.244543 7:-0.765767 8:-0.876898 9:0.242662 10:-0.457474 
4096 1:-0.0365274 2:-0.134983 3:-0.0879969 4:0.188134 5:0.230354 6:0.223565 7:-0.571676 8:-0.675164 9:0.235117 10:-0.849173 
1754.050639242514 1:-0.0944928 2:-0.0790035 3:-0.53887 4:-0.553694 5:-0.612783 6:-0.308649 7:-0.756372 8:-0.709293 9:0.069304 10:0.0506462 
4096 1:-0.056734 2:0.447932 3:0.281131 4:-0.0474173 5:-0.170537 6:-0.34143 7:-0.839177 8:-0.745909 9:-0.0298559 10:-0.711051 
4096 1:-0.206202 2:-0.16882 3:-0.418972 4:-0.46329 5:-0.096097 6:0.295032 7:-0.76482 8:-0.731759 9:0.188587 10:-0.107981 
4096 1:0.0462678 2:-0.139642 3:0.209876 4:0.406524 5:-0.00359752 6:-0.0434309 7:-0.998347 8:-0.263421 9:-0.078779 10:-0.360852 
4001.380404511579 1:0.00955848 2:-0.155653 3:-0.0644148 4:0.129256 5:0.178959 6:-0.2769 7:-0.744423 8:-0.810542 9:0.190604 10:-0.176391 
4096 1:-0.330867 2:0.0901846 3:0.0624125 4:-0.252933 5:-0.261717 6:-0.0153587 7:-0.785887 8:-0.517932 9:0.0265077 10:-0.670715 
4096 1:-0.197781 2:0.240223 3:0.16452 4:0.0670555 5:-0.0822024 6:-0.0175125 7:-0.721076 8:-0.661218 9:-0.470919 10:-0.812581 
4096 1:-0.22036 2:0.219994 3:0.228641 4:-0.288182 5:-0.285718 6:-0.384797 7:-0.811465 8:-0.639379 9:-0.189945 10:-0.162972 
51.60426671507582 1:0.112376 2:0.216046 3:0.321624 4:0.267408 5:-0.0543529 6:-0.00274662 7:-0.988605 8:-0.511938 9:0.0162704 10:-0.453443 
4096 1:-0.337785 2:-0.171738 3:-0.0231394 4:-0.443282 5:-0.168521 6:-0.249616 7:-0.749659 8:-0.824477 9:-0.241834 10:-0.840016 
4096 1:-0.130436 2:-0.108967 3:0.177929 4:-0.0242461 5:-0.141909 6:0.0176803 7:-0.831266 8:-0.598509 9:0.182773 10:-0.400617 
4096 1:-0.254477 2:0.486649 3:0.161981 4:-0.105788 5:-0.0614914 6:-0.0399166 7:-0.731574 8:-0.535001 9:0.159527 10:-0.307011 
4096 1:-0.155737 2:0.229581 3:0.24738 4:0.0935198 5:-0.164932 6:0.0170425 7:-0.832293 8:-0.535025 9:0.0288101 10:-0.409233 
4096 1:0.225258 2:0.143933 3:-0.361585 4:0.0988624 5:-0.0756239 6:0.211025 7:-0.98142 8:-0.828845 9:-0.269827 10:-0.890499 
4096 1:0.103607 2:0.44445 3:0.207282 4:0.235611 5:-0.166721 6:-0.282533 7:-0.802329 8:-0.513403 9:0.385971 10:-0.288224 
4096 1:0.0802591 2:-0.0845941 3:-0.429387 4:-0.0823182 5:0.200768 6:-0.251079 7:-0.855446 8:-0.407087 9:-0.0154821 10:-0.871314 
4096 1:-0.178368 2:0.128828 3:-0.0400952 4:-0.276015 5:-0.49832 6:-0.314401 7:-0.907139 8:-0.954636 9:0.31911 10:-0.643236 
1194.210439759928 1:-0.168559 2:-0.240026 3:-0.0444197 4:0.0681101 5:-0.183196 6:-0.373646 7:-0.934987 8:-0.614698 9:0.00768512 10:-0.250522 
4096 1:-0.270155 2:-0.102347 3:-0.415246 4:0.151224 5:0.0741822 6:-0.479315 7:-0.736889 8:-0.812672 9:0.128282 10:-0.624426 
2352.146763585647 1:0.000638177 2:-0.212981 3:-0.321005 4:-0.342846 5:-0.0527844 6:-0.182381 7:-0.806097 8:-0.533541 9:-0.115006 10:0.0604698 
4096 1:-0.0989884 2:-0.198391 3:-0.448636 4:-0.305003 5:0.0116392 6:0.0620044 7:-0.807247 8:-0.709093 9:0.347649 10:-0.411634 
4096 1:0.000106363 2:-0.116249 3:-0.27867 4:-0.0405724 5:-0.167558 6:-0.172096 7:-0.974534 8:-0.900348 9:0.376527 10:-0.688406 
4096 1:-0.0361468 2:-0.4036 3:-0.127625 4:-0.0340956 5:-0.14845 6:-0.122391 7:-0.70901 8:-0.522492 9:0.163235 10:-0.769496 
1477.398547886668 1:-0.236854 2:-0.0456563 3:-0.331842 4:0.209704 5:-0.128459 6:-0.21852 7:-0.903513 8:-0.591942 9:-0.0464932 10:-0.522535 
4096 1:-0.0820294 2:0.230169 3:-0.307311 4:-0.307374 5:-0.21741 6:-0.623957 7:-0.791645 8:-0.623776 9:0.308716 10:-0.466536 
4096 1:-0.191522 2:0.223696 3:-0.0969173 4:-0.158159 5:-0.30343 6:-0.0394007 7:-0.963603 8:-0.691699 9:-0.000848121 10:-0.656555 
4096 1:0.325203 2:-0.176789 3:-0.54857 4:0.0376066 5:-0.181444 6:-0.353055 7:-0.730172 8:-0.548938 9:-0.0859334 10:-0.475841 
4096 1:-0.171053 2:-0.243704 3:-0.148916 4:0.00690409 5:-0.291736 6:-0.105466 7:-0.892341 8:-0.571813 9:0.0102477 10:-0.121333 
4096 1:0.178226 2:-0.154574 3:-0.162313 4:0.193537 5:0.0976753 6:-0.317159 7:-0.802395 8:-0.636528 9:-0.0960016 10:-0.788717 
4096 1:-0.243164 2:0.0301106 3:-0.218838 4:-0.0206048 5:-0.288654 6:-0.0233114 7:-0.895602 8:-0.699751 9:-0.111325 10:-0.304221 
4096 1:0.231221 2:-0.235785 3:0.0874616 4:0.171201 5:0.0729336 6:-0.213794 7:-0.923511 8:-0.854515 9:0.0391905 10:-0.609179 
4096 1:-0.2344 2:0.120393 3:-0.241867 4:0.0241954 5:-0.190629 6:-0.0557126 7:-0.759742 8:-0.692834 9:0.00164941 10:-0.327555 
4096 1:0.190642 2:-0.224088 3:-0.280295 4:0.130341 5:0.0150592 6:-0.501033 7:-0.810072 8:-0.729418 9:0.247631 10:-0.27606 
4096 1:0.0325187 2:0.114386 3:0.0975606 4:0.116104 5:-0.380742 6:-0.487679 7:-0.938943 8:-0.666177 9:-0.173308 10:-0.411711 
4096 1:-0.186033 2:0.000686561 3:-0.334244 4:-0.223942 5:-0.26708 6:0.0691603 7:-0.974739 8:-0.654599 9:-0.143793 10:-0.775975 
1688.811371337785 1:-0.219372 2:0.0851335 3:0.119929 4:-0.0741501 5:-0.160887 6:-0.314849 7:-0.871882 8:-0.685649 9:-0.0886911 10:-0.212196 
4096 1:-0.109031 2:0.174386 3:-0.267964 4:-0.159433 5:0.0746797 6:-0.32291 7:-0.849615 8:-0.588627 9:-0.110545 10:-0.704319 
3143.137963598033 1:-0.1747 2:0.176397 3:-0.141449 4:-0.0812338 5:0.116014 6:-0.59765 7:-0.766374 8:-0.716631 9:0.280762 10:-0.553402 
4096 1:0.0308476 2:0.0206704 3:0.0222999 4:-0.136928 5:-0.141932 6:-0.184814 7:-0.953174 8:-0.621071 9:0.321776 10:-0.270453 
4096 1:0.406755 2:0.341981 3:-0.146782 4:0.249271 5:-0.116032 6:-0.387034 7:-0.907864 8:-0.621023 9:0.143996 10:-0.659809 
4096 1:0.0473007 2:0.417699 3:-0.372954 4:0.136698 5:-0.381272 6:-0.77254 7:-0.820262 8:-0.621184 9:-0.0682425 10:-0.674262 
4096 1:-0.0592985 2:0.0223132 3:-0.455069 4:-0.413722 5:-0.240085 6:0.0933649 7:-0.793046 8:-0.457379 9:0.281425 10:-0.865513 
1627.041626940085 1:0.174931 2:0.378123 3:0.0796922 4:-0.135197 5:-0.476144 6:-0.704117 7:-0.974899 8:-0.705538 9:0.171014 10:-0.216736 
3009.477440749939 1:-0.219679 2:0.376137 3:-0.14351 4:-0.00341299 5:0.155737 6:0.157938 7:-0.748597 8:-0.717297 9:-0.223506 10:-0.715575 
4096 1:-0.365257 2:0.0798617 3:-0.242283 4:-0.105539 5:-0.0386382 6:-0.589807 7:-0.767248 8:-0.707962 9:0.062774 10:-0.486233 
4096 1:-0.0052236 2:0.600716 3:-0.126033 4:-0.555609 5:-0.145485 6:-0.38424 7:-0.838997 8:-0.607393 9:0.294121 10:-0.352545 
4096 1:-0.363319 2:0.366746 3:0.12889 4:0.0853218 5:-0.179086 6:-0.200686 7:-0.952402 8:-0.624991 9:-0.638624 10:-0.464292 
3172.401324936535 1:-0.0237426 2:0.36243 3:-0.0858755 4:0.0293191 5:-0.121921 6:0.395654 7:-0.789186 8:-0.72377 9:0.254499 10:-0.319374 
4096 1:0.107131 2:0.307211 3:0.026868 4:-0.198791 5:-0.112493 6:-0.0992327 7:-0.829156 8:-0.787204 9:0.224294 10:-0.703329 
4096 1:-0.0426302 2:-0.00522276 3:-0.162936 4:-0.219136 5:-0.0983561 6:-0.198576 7:-0.770052 8:-0.477205 9:0.210454 10:-0.319045 
4096 1:0.0713128 2:0.32006 3:-0.169767 4:-0.203208 5:-0.280253 6:0.108949 7:-0.934861 8:-0.707363 9:0.410218 10:-0.371914 
4096 1:-0.0442162 2:-0.167227 3:-0.12357 4:0.0110528 5:0.0840149 6:0.134745 7:-0.866613 8:-0.857438 9:0.216281 10:-0.572326 
1841.704294893864 1:-0.225919 2:0.383125 3:0.0855562 4:-0.155622 5:-0.164941 6:0.0301758 7:-0.807549 8:-0.474541 9:0.297659 10:-0.208119 
4096 1:-0.0367236 2:0.038006 3:0.266409 4:-0.45938 5:-0.439866 6:-0.0300786 7:-0.881072 8:-0.747857 9:0.208945 10:-0.457672 
4096 1:0.480826 2:0.357575 3:-0.246159 4:0.193646 5:0.128264 6:-0.105717 7:-0.932803 8:-0.545427 9:-0.077127 10:-0.492503 
4096 1:-0.0817009 2:0.0298163 3:-0.146466 4:-0.180007 5:-0.0686786 6:0.0767155 7:-0.833413 8:-0.701818 9:0.452298 10:-0.629778 
4096 1:-0.289205 2:0.152024 3:0.115296 4:-0.240119 5:-0.185352 6:-0.01265 7:-0.854164 8:-0.794298 9:0.0900908 10:-0.48475 
4096 1:-0.0975844 2:0.566339 3:-0.126851 4:-0.145872 5:-0.29054 6:-0.387237 7:-0.937462 8:-0.559359 9:0.0138509 10:-0.746546 
4096 1:-0.0379597 2:-0.0627713 3:-0.199279 4:-0.410982 5:-0.37809 6:0.354815 7:-0.860085 8:-0.69443 9:-0.0307535 10:-0.804268 
4096 1:-0.284738 2:0.0685089 3:-0.343704 4:-0.420356 5:-0.222223 6:-0.158722 7:-0.85148 8:-0.680839 9:-0.199844 10:-0.148477 
4096 1:-0.315484 2:0.101562 3:-0.0468229 4:-0.0571275 5:-0.279855 6:-0.139292 7:-0.853413 8:-0.677019 9:-0.274029 10:-0.34002 
4096 1:-0.114113 2:0.223157 3:0.0344215 4:-0.370542 5:-0.266669 6:-0.0478217 7:-0.927353 8:-0.655949 9:0.172275 10:-0.353069 
4096 1:-0.238934 2:0.411814 3:0.0639506 4:-0.574813 5:-0.042224 6:0.176274 7:-0.78242 8:-0.695415 9:-0.0721189 10:-0.592027 
4096 1:0.00510069 2:-0.12336 3:-0.245509 4:0.190383 5:-0.270042 6:-0.211395 7:-0.976027 8:-0.602817 9:-0.11087 10:-0.477145 
4096 1:-0.0332183 2:0.172915 3:-0.165183 4:-0.0727075 5:-0.0377271 6:-0.282054 7:-0.879988 8:-0.638246 9:-0.239714 10:-0.537499 
4096 1:0.165193 2:0.260697 3:0.226324 4:-0.193199 5:-0.585279 6:-0.187338 7:-0.768521 8:-0.524855 9:0.294668 10:-0.638301 
4096 1:-0.189305 2:-0.189785 3:-0.190133 4:-0.00131376 5:-0.05272 6:0.00940425 7:-0.951398 8:-0.841724 9:-0.126622 10:-0.732283 
4096 1:0.348485 2:-0.0160116 3:-0.602434 4:-0.475552 5:-0.362596 6:0.325364 7:-0.820256 8:-0.726148 9:-0.210147 10:-0.438824 
4096 1:0.0354094 2:0.212711 3:0.124116 4:-0.382345 5:-0.0113017 6:-0.0480319 7:-0.78481 8:-0.704843 9:0.175865 10:-0.752212 
4096 1:-0.088839 2:0.114288 3:0.281645 4:-0.399267 5:-0.161043 6:-0.0568487 7:-0.971949 8:-0.351659 9:-0.00181071 10:-0.505665 
4096 1:0.0753829 2:0.047201 3:-0.172545 4:0.0979869 5:0.154032 6:-0.129643 7:-0.906053 8:-0.591345 9:-0.0697775 10:-0.328586 
4096 1:0.0279403 2:-0.0573768 3:-0.198022 4:-0.219415 5:-0.234631 6:-0.320237 7:-0.83052 8:-0.921759 9:0.0957362 10:-0.376729 
4096 1:-0.431368 2:0.56933 3:-0.0189097 4:-0.513226 5:-0.370948 6:0.223114 7:-0.826037 8:-0.603179 9:-0.15883 10:-0.338163 
4096 1:0.0126052 2:0.0149572 3:0.19739 4:0.330823 5:0.153519 6:-0.236518 7:-0.789182 8:-0.555398 9:-0.0115797 10:-0.592642 
4096 1:0.035433 2:0.212834 3:0.079945 4:0.117198 5:-0.270186 6:-0.0495585 7:-0.811424 8:-0.717079 9:-0.00542694 10:-0.404099 
4096 1:0.175877 2:0.15759 3:-0.211547 4:0.121705 5:-0.405729 6:-0.62898 7:-0.87892 8:-0.677035 9:0.429274 10:-0.358349 
4096 1:0.0464215 2:0.0183165 3:-0.35451 4:0.163431 5:0.0849708 6:-0.398575 7:-0.908188 8:-0.625684 9:-0.252618 10:-0.748744 
814.6299086518307 1:-0.0184079 2:0.0460731 3:0.0339817 4:-0.128362 5:0.118702 6:-0.195742 7:-0.929981 8:-0.577803 9:0.145869 10:-0.275823 
4096 1:-0.0677484 2:-0.242846 3:-0.28069 4:-0.205427 5:-0.450247 6:-0.282501 7:-0.841807 8:-0.824089 9:0.0525107 10:-0.735899 
4096 1:0.395883 2:0.0227791 3:-0.0243864 4:0.0244143 5:-0.186421 6:-0.372858 7:-0.825577 8:-0.597337 9:-0.138642 10:-0.0340556 
4096 1:-0.140654 2:0.240689 3:-0.17458 4:-0.570142 5:-0.439802 6:-0.125075 7:-0.720781 8:-0.71772 9:0.130142 10:-0.613003 
4096 1:-0.239657 2:0.0940588 3:0.121231 4:-0.293793 5:-0.0441788 6:-0.28645 7:-0.9266 8:-0.655755 9:-0.242159 10:-0.581831 
4096 1:0.0147183 2:0.0996739 3:-0.0729888 4:0.0677022 5:-0.156084 6:-0.0747472 7:-0.898408 8:-0.693324 9:-0.174297 10:-0.545521 
4096 1:0.0806018 2:-0.193193 3:-0.138468 4:0.0528484 5:-0.0100219 6:-0.254519 7:-0.961962 8:-0.594813 9:-0.153432 10:-0.325772 
4096 1:-0.2195 2:-0.207709 3:0.0182835 4:-0.185489 5:0.023298 6:0.192418 7:-0.817134 8:-0.701271 9:0.192503 10:-0.582987 
4096 1:-0.200537 2:-0.297673 3:-0.2124 4:-0.266076 5:-0.633204 6:-0.60335 7:-0.922858 8:-0.780533 9:0.0950728 10:-0.726737 
4096 1:-0.191226 2:-0.044651 3:-0.0380027 4:-0.0645593 5:0.0105955 6:0.00734229 7:-0.845475 8:-0.887562 9:0.0212264 10:-0.411049 
-3819.696400163589 1:-0.248764 2:0.114582 3:-0.657544 4:-0.244049 5:-0.140514 6:-0.020813 7:-0.775328 8:-0.443374 9:-0.21496 10:-0.460962 
-4096 1:0.207646 2:0.443886 3:0.0578378 4:0.128988 5:0.178612 6:-0.11511 7:-0.899379 8:-0.458993 9:0.201231 10:-0.490615 
-3598.683216076417 1:0.0949608 2:0.142118 3:0.0567658 4:-0.46273 5:-0.531866 6:0.133461 7:-0.498326 8:-0.432055 9:-0.130642 10:-0.721274 
-4096 1:0.0664721 2:0.30932 3:-0.162182 4:-0.0701805 5:-0.20541 6:-0.00853848 7:-0.931487 8:-0.860139 9:-0.113185 10:-0.255359 
-4096 1:-0.252999 2:0.265307 3:-0.245637 4:-0.555804 5:-0.0790497 6:0.258168 7:-0.706247 8:-0.703025 9:0.117941 10:-0.536999 
-4096 1:-0.0165335 2:0.38597 3:0.029877 4:-0.181151 5:-0.0670964 6:0.078592 7:-0.856553 8:-0.767084 9:0.216424 10:-0.380619 
-4096 1:-0.0761582 2:-0.0279773 3:-0.165653 4:0.0807354 5:0.018569 6:-0.521702 7:-0.703674 8:-0.510566 9:-0.252384 10:-0.775055 
-3557.548580642359 1:-0.0925475 2:-0.095481 3:-0.192314 4:0.160645 5:-0.244625 6:-0.193652 7:-0.830648 8:-0.753415 9:0.162545 10:-0.338444 
-4096 1:0.0308145 2:0.124488 3:-0.163774 4:-0.0257584 5:-0.0386889 6:-0.379991 7:-0.822685 8:-0.698133 9:0.266401 10:-0.683744 
-318.2490370715561 1:0.126525 2:0.359243 3:-0.00642064 4:-0.0429502 5:-0.263221 6:-0.582291 7:-0.784289 8:-0.821406 9:0.280866 10:-0.250837 
-681.8459059843331 1:0.0160182 2:0.191379 3:0.197593 4:-0.0538145 5:0.134347 6:-0.0879229 7:-0.908774 8:-0.504206 9:-0.0634166 10:-0.349955 
-243.9847349076006 1:-0.120582 2:0.341613 3:0.122045 4:-0.422437 5:0.0243671 6:-0.133609 7:-0.743067 8:-0.468219 9:0.166409 10:-0.574439 
-4096 1:0.0228113 2:0.235515 3:-0.196055 4:-0.147802 5:0.0241389 6:0.0422719 7:-0.929961 8:-0.49936 9:-0.0979268 10:-0.790235 
-4096 1:0.140697 2:0.170488 3:0.247617 4:0.392626 5:0.39829 6:-0.234205 7:-0.747771 8:-0.497439 9:-0.164996 10:-0.430328 
-810.2124781821312 1:0.0515316 2:0.238776 3:0.16061 4:-0.130362 5:0.0430746 6:0.502003 7:-0.9363 8:-0.56108 9:-0.2032 10:-0.313132 
-4096 1:-0.265832 2:-0.341736 3:-0.256634 4:-0.320186 5:-0.074906 6:0.349471 7:-0.900063 8:-0.792332 9:-0.00142047 10:-0.292359 
-4096 1:-0.193488 2:0.219503 3:0.25885 4:-0.0964657 5:-0.0710197 6:0.17676 7:-0.988248 8:-0.328702 9:-0.171994 10:-0.537387 
-4096 1:-0.198724 2:-0.201947 3:0.080086 4:0.17544 5:0.162077 6:-0.310319 7:-0.659625 8:-0.49028 9:-0.107527 10:-0.626122 
-3144.91970697922 1:-0.18197 2:-0.294902 3:-0.63768 4:-0.313829 5:-0.22232 6:0.688268 7:-0.73667 8:-0.672938 9:0.318654 10:-0.704212 
-4096 1:0.0165075 2:0.141726 3:0.241349 4:-0.0110936 5:-0.233282 6:0.156206 7:-0.985428 8:-0.614563 9:0.0365108 10:-0.367559 
-4096 1:0.250598 2:-0.225216 3:-0.227347 4:0.0767856 5:-0.0482836 6:-0.107518 7:-0.998857 8:-0.623645 9:0.198512 10:-0.185213 
-4096 1:0.00547887 2:-0.0454356 3:-0.0377735 4:-0.0875813 5:-0.546454 6:-0.49681 7:-0.933976 8:-0.885041 9:0.120126 10:-0.173396 
-4096 1:-0.361173 2:-0.140892 3:0.0582763 4:-0.110842 5:-0.209655 6:0.0747472 7:-0.64346 8:-0.509437 9:0.0248947 10:-0.699875 
-4096 1:-0.0645032 2:0.0216512 3:-0.07912 4:-0.0233607 5:-0.258079 6:0.0675366 7:-0.867958 8:-0.848737 9:0.414484 10:-0.337921 
-4096 1:0.396039 2:-0.218498 3:-0.233778 4:0.648632 5:-0.0175954 6:0.0198501 7:-0.860926 8:-0.424197 9:-0.245932 10:-0.372317 
-4096 1:-0.111414 2:0.0683128 3:-0.173537 4:0.086854 5:-0.0640685 6:-0.0698247 7:-0.777704 8:-0.673717 9:-0.15139 10:-0.186421 
-4096 1:-0.00215326 2:-0.296815 3:-0.242676 4:0.393073 5:0.0375866 6:0.0495832 7:-0.632076 8:-0.481261 9:-0.0562492 10:-0.711434 
-4096 1:-0.373319 2:-0.199004 3:-0.272385 4:-0.211814 5:-0.193288 6:-0.252943 7:-0.897638 8:-0.830912 9:-0.173308 10:-0.428117 
-4096 1:0.180195 2:0.143663 3:-0.383941 4:0.220857 5:-0.328693 6:-0.153718 7:-0.992802 8:-0.812742 9:-0.196306 10:-0.272506 
-4096 1:-0.105571 2:0.499939 3:0.25162 4:-0.260295 5:-0.0360025 6:-0.0844368 7:-0.796264 8:-0.671289 9:0.0747023 10:-0.526915 
-4096 1:-0.290276 2:0.233553 3:-0.104439 4:-0.293963 5:-0.421097 6:-0.242084 7:-0.829097 8:-0.750311 9:0.306609 10:-0.520716 
-4096 1:-0.215014 2:0.134639 3:0.126055 4:-0.120274 5:-0.013516 6:0.0244404 7:-0.60625 8:-0.333531 9:0.103255 10:-0.633221 
-4096 1:-0.216798 2:0.329206 3:-0.0728979 4:-0.154508 5:0.0719386 6:-0.170733 7:-0.992972 8:-0.531705 9:-0.196775 10:-0.557715 
-4096 1:-0.0527087 2:0.311012 3:0.110084 4:0.429029 5:0.143953 6:-0.0415863 7:-0.655747 8:-0.577543 9:0.140028 10:-0.492861 
-3674.433765543588 1:0.185161 2:-0.294436 3:-0.505522 4:0.215335 5:-0.0863384 6:-0.373104 7:-0.720038 8:-0.797558 9:0.15478 10:-0.190173 
-4096 1:-0.0461591 2:-0.0701273 3:0.256242 4:0.0411385 5:0.0980206 6:0.0552108 7:-0.731403 8:-0.542349 9:0.0939802 10:-0.416458 
-4096 1:-0.21715 2:0.0625015 3:0.0479179 4:0.0326719 5:-0.141599 6:0.201608 7:-0.657693 8:-0.524866 9:0.415993 10:-0.502609 
-4096 1:-0.00702231 2:0.0801559 3:0.142656 4:-0.195468 5:-0.437945 6:-0.482871 7:-0.990062 8:-0.741355 9:0.105583 10:-0.35362 
-4096 1:-0.333975 2:0.0313856 3:0.081121 4:-0.176565 5:-0.10845 6:-0.053617 7:-0.996108 8:-0.673145 9:-0.43999 10:-0.535992 
-255.8578751651961 1:-0.0105417 2:-0.0547287 3:0.0701358 4:0.120511 5:-0.574256 6:-0.595514 7:-0.796618 8:-0.639924 9:-0.224052 10:-0.720091 
-4096 1:-0.153406 2:0.0682883 3:-0.443825 4:-0.0101882 5:0.112939 6:-0.271301 7:-0.948758 8:-0.824495 9:-0.462307 10:-0.735831 
-4096 1:-0.230812 2:0.00865557 3:-0.0451413 4:-0.014914 5:-0.214598 6:-0.217741 7:-0.619068 8:-0.578426 9:-0.16951 10:-0.782761 
-4096 1:-0.165928 2:0.236422 3:-0.0668259 4:-0.152608 5:-0.158654 6:-0.311812 7:-0.904088 8:-0.791763 9:-0.0908765 10:-0.581771 
-4096 1:0.127383 2:-0.508128 3:-0.321917 4:-0.299624 5:-0.0402028 6:-0.478631 7:-0.966554 8:-0.816833 9:0.464266 10:-0.567362 
-644.0767122367846 1:0.0569419 2:-0.376284 3:-0.146036 4:0.483529 5:0.0397248 6:-0.4319 7:-0.855816 8:-0.475162 9:-0.465582 10:-0.217162 
-4096 1:-0.0569183 2:0.27124 3:0.0264216 4:-0.0756624 5:-0.00657463 6:-0.0483729 7:-0.984035 8:-0.666471 9:0.0125501 10:-0.322936 
-3000.898478355685 1:-0.226009 2:-0.0861634 3:0.184357 4:-0.424159 5:-0.34947 6:0.216413 7:-0.805037 8:-0.786676 9:0.16343 10:-0.369377 
-4096 1:0.0172733 2:0.481892 3:-0.203366 4:0.000128839 5:-0.235665 6:-0.496024 7:-0.880922 8:-0.692718 9:-0.121992 10:-0.346823 
-4096 1:-0.272152 2:0.171027 3:0.101856 4:-0.14624 5:-0.219712 6:-0.272331 7:-0.713847 8:-0.634725 9:0.0516001 10:-0.182004 
-651.9842874791808 1:-0.502621 2:0.341883 3:-0.0955188 4:-0.165084 5:-0.0207403 6:-0.339317 7:-0.548988 8:-0.668 9:-0.267525 10:-0.705008 
-4096 1:-0.0130614 2:-0.229556 3:0.0364508 4:-0.222191 5:-0.0564033 6:-0.0197087 7:-0.835886 8:-0.712797 9:0.0913395 10:-0.699094 
-4096 1:0.0519878 2:-0.193635 3:-0.126221 4:-0.259619 5:-0.0520567 6:0.180746 7:-0.603286 8:-0.420281 9:-0.133777 10:-0.930279 
-4096 1:0.0041907 2:0.0473236 3:0.0560916 4:-0.112096 5:-0.0792253 6:-0.00838829 7:-0.885895 8:-0.757409 9:0.234974 10:-0.491177 
-4096 1:-0.267427 2:0.226467 3:-0.21055 4:-0.368392 5:-0.410805 6:-0.436908 7:-0.899134 8:-0.795737 9:0.164171 10:-0.543139 
-4096 1:-0.012123 2:0.230243 3:0.105888 4:-0.0905261 5:-0.184972 6:0.00153984 7:-0.984442 8:-0.797618 9:-0.0926455 10:-0.667207 
-4096 1:0.189255 2:-0.297698 3:-0.461232 4:0.648483 5:0.367766 6:0.110924 7:-0.581499 8:-0.437457 9:-0.17855 10:-0.602227 
-3236.576245477091 1:0.575251 2:-0.47635 3:-0.834733 4:-0.0382145 5:-0.0903476 6:0.00882118 7:-0.86435 8:-0.396846 9:0.154311 10:-0.731812 
-4096 1:-0.158188 2:0.390702 3:0.172272 4:-0.539146 5:-0.291568 6:-0.448827 7:-0.693385 8:-0.688162 9:0.308001 10:-0.482852 
-4096 1:-0.245209 2:0.117794 3:-0.296591 4:-0.64868 5:-0.388206 6:-0.0938031 7:-0.977959 8:-0.819146 9:0.0193533 10:-0.542871 
-4096 1:-0.106282 2:0.167276 3:-0.0058939 4:-0.397383 5:-0.496949 6:-0.134166 7:-0.461053 8:-0.423232 9:-0.122434 10:-0.742227 
-4096 1:-0.215104 2:0.123679 3:0.0250389 4:-0.593032 5:-0.370981 6:0.112147 7:-0.931412 8:-0.777575 9:-0.110818 10:-0.228946 
-4096 1:-0.054446 2:0.0433269 3:-0.0234739 4:-0.156339 5:-0.121295 6:-0.197484 7:-0.896719 8:-0.855111 9:0.104282 10:-0.71033 
-4096 1:-0.30308 2:-0.052669 3:-0.245396 4:-0.379087 5:-0.146997 6:-0.00804198 7:-0.976994 8:-0.683732 9:-0.0925805 10:-0.709428 
-4096 1:-0.105902 2:-0.0860162 3:-0.077898 4:0.128799 5:0.0409071 6:-0.251683 7:-0.995516 8:-0.651609 9:-0.222647 10:-0.645113 
-1494.389072720155 1:-0.0102132 2:-0.186279 3:0.117436 4:-0.0671859 5:0.11283 6:0.305156 7:-0.439809 8:-0.560838 9:0.446848 10:-0.713122 
-4008.19752833968 1:0.149017 2:0.0438418 3:-0.710523 4:-0.287675 5:-0.275754 6:-0.0328155 7:0.036473 8:-0.628282 9:-0.144157 10:-0.904549 
-4096 1:-0.175312 2:0.183066 3:-0.367492 4:-0.372075 5:-0.453049 6:-0.462033 7:-0.757377 8:-0.694175 9:0.327799 10:-0.77134 
-2182.980394765837 1:0.254472 2:0.0271927 3:0.153245 4:-0.235811 5:0.0675041 6:-0.190535 7:-0.940283 8:-0.746304 9:0.282817 10:-0.541493 
-4096 1:-0.0816441 2:0.126916 3:-0.299882 4:-0.259997 5:-0.398197 6:-0.285312 7:-0.998032 8:-0.82827 9:0.228132 10:-0.728366 
-4096 1:-0.152988 2:-0.142044 3:-0.220637 4:-0.378465 5:-0.339831 6:0.451753 7:-0.989523 8:-0.689782 9:-0.120782 10:-0.0666574 
-4096 1:-0.173298 2:-0.21151 3:0.118635 4:0.154577 5:0.171647 6:-0.00452941 7:-0.651983 8:-0.774964 9:0.192399 10:-0.527157 
-4096 1:-0.284464 2:0.180369 3:0.22581 4:-0.0107454 5:-0.342121 6:0.118642 7:-0.736875 8:-0.710944 9:0.117082 10:-0.219281 
-1221.551574399425 1:-0.476896 2:-0.0235147 3:-0.263387 4:-0.236418 5:-0.444084 6:-0.0732206 7:-0.893581 8:-0.624116 9:-0.167298 10:-0.462147 
-4096 1:-0.115765 2:0.168379 3:-0.058801 4:0.0419841 5:-0.119535 6:-0.443912 7:-0.782189 8:-0.742858 9:0.177583 10:-0.679663 
-16.2268064929562 1:-0.144871 2:-0.30628 3:-0.0230051 4:0.286032 5:0.124856 6:-0.0222884 7:-0.690534 8:-0.534781 9:-0.0402623 10:-0.464483 
-4096 1:0.21741 2:0.340657 3:-0.108812 4:-0.0600624 5:0.0979991 6:-0.256731 7:-0.943771 8:-0.778965 9:0.278928 10:-0.511612 
-3116.777338060931 1:-0.224674 2:0.106 3:-0.384931 4:-0.366825 5:-0.183387 6:-0.43014 7:-0.842286 8:-0.587157 9:0.168789 10:-0.608387 
-4052.42403721394 1:-0.101399 2:0.485031 3:0.224467 4:-0.335252 5:-1 6:-0.32917 7:-0.893918 8:-0.436402 9:0.0358865 10:-0.399017 
-4096 1:0.0507256 2:0.228281 3:-0.123665 4:0.251549 5:-0.07101 6:-0.828647 7:-0.72951 8:-0.788314 9:0.278473 10:-0.417027 
-4096 1:-0.374858 2:0.0746389 3:0.117737 4:-0.0652657 5:-0.281221 6:0.191443 7:-0.656773 8:-0.316286 9:0.207514 10:-0.486077 
-3319.634627654154 1:-0.274955 2:0.52924 3:0.106233 4:0.0647772 5:0.202497 6:0.0956354 7:-0.59474 8:-0.862117 9:0.0426896 10:-0.639402 
-4096 1:0.125019 2:0.392124 3:-0.0299936 4:0.254852 5:0.326732 6:-0.350678 7:-0.708679 8:-0.443923 9:0.0847835 10:-0.418469 
-1723.52784388967 1:0.295956 2:-0.295711 3:0.101702 4:0.251977 5:-0.108232 6:-0.428358 7:-0.734866 8:-0.622362 9:-0.413137 10:-0.875823 
-4096 1:-0.104992 2:-0.110978 3:0.0554463 4:0.059176 5:0.0913738 6:-0.252639 7:-0.822511 8:-0.730899 9:-0.212072 10:-0.25235 
-4096 1:0.0644086 2:0.0774833 3:-0.149809 4:0.171729 5:0.272018 6:-0.143544 7:-0.661533 8:-0.553026 9:0.24724 10:-0.634193 
-4096 1:0.0724662 2:0.181963 3:0.141725 4:0.0137689 5:-0.180537 6:-0.302274 7:-0.78754 8:-0.790745 9:0.328813 10:-0.270102 
-4096 1:0.187175 2:0.0802295 3:-0.282365 4:-0.135207 5:0.230073 6:0.136922 7:-0.97214 8:-0.689135 9:0.179482 10:-0.65749 
-2051.338198048324 1:0.0840834 2:0.163328 3:-0.279233 4:-0.0916006 5:0.136928 6:0.115737 7:-0.79152 8:-0.798968 9:0.245536 10:-0.661387 
-4096 1:0.211286 2:0.724419 3:0.229655 4:0.0676127 5:-0.357481 6:-0.330405 7:-0.965538 8:-0.573137 9:0.188015 10:-0.454482 
-4096 1:-0.235554 2:-0.0397224 3:0.00439598 4:-0.368113 5:-0.12444 6:-0.00158755 7:-0.59383 8:-0.499578 9:-0.135949 10:-0.711884 
-3566.851255315683 1:0.198128 2:0.0851826 3:-0.15249 4:-0.203825 5:-0.193304 6:-0.481794 7:-0.942942 8:-0.555371 9:0.406302 10:-0.749633 
-4096 1:0.0172851 2:-0.0259667 3:-0.622906 4:-0.0713147 5:-0.0328771 6:0.392739 7:-0.684501 8:-0.69631 9:-0.210888 10:-0.171503 
-4096 1:-0.377314 2:0.16014 3:0.0337986 4:-0.0885761 5:0.0360629 6:-0.376259 7:-0.710225 8:-0.582368 9:0.0893883 10:-0.435792 
-4096 1:-0.205836 2:-0.0302087 3:-0.0288729 4:-0.336689 5:-0.50834 6:-0.00645532 7:-0.952506 8:-0.680119 9:0.176672 10:-0.202579 
-855.8657996897161 1:0.0352581 2:-0.0153986 3:-0.134296 4:-0.0606196 5:0.0539393 6:0.00129071 7:-0.650465 8:-0.567302 9:-0.0174984 10:-0.819152 
-4096 1:0.100607 2:0.0794449 3:0.104932 4:0.0497344 5:-0.0282475 6:0.0939285 7:-0.840048 8:-0.554226 9:0.157173 10:-0.67261 
-4096 1:-0.158268 2:-0.00407032 3:-0.0586219 4:-0.34217 5:-0.171588 6:-0.10536 7:-0.955994 8:-0.626736 9:0.0584813 10:-0.618209 
-4096 1:-0.287631 2:0.224701 3:-0.19666 4:-0.0477655 5:-0.507004 6:-0.15199 7:-0.841981 8:-0.668743 9:0.0825461 10:-0.301419 
-4096 1:0.0848965 2:0.0607851 3:0.0605966 4:0.104961 5:-0.295226 6:-0.0718548 7:-0.890684 8:-0.815921 9:-0.0823562 10:-0.124083 
-184.0530924546082 1:-0.169753 2:-0.215776 3:0.177974 4:0.0464711 5:0.0859053 6:-0.274796 7:-0.730136 8:-0.903174 9:-0.0170301 10:-0.299738 
-4096 1:-0.236345 2:0.444278 3:0.0883597 4:-0.281148 5:-0.34559 6:-0.301758 7:-0.919682 8:-0.661913 9:-0.188215 10:-0.56879 
-1893.652046911383 1:0.158318 2:-0.273055 3:-0.699034 4:0.119118 5:-0.0634228 6:-0.0818413 7:-0.693809 8:-0.517886 9:0.469222 10:-0.706802 
-874.097807815373 1:0.308887 2:-0.0641689 3:-0.53541 4:-0.28082 5:-0.0466663 6:-0.554464 7:-0.901159 8:-0.541476 9:-0.320455 10:-0.181068 
-4096 1:-0.261289 2:-0.117966 3:-0.253915 4:-0.240139 5:-0.247113 6:-0.267463 7:-0.996372 8:-0.824377 9:0.21822 10:-0.502062 
-4096 1:-0.0831072 2:0.0806463 3:-0.116685 4:-0.0697428 5:-0.0838627 6:-0.0544793 7:-0.947795 8:-0.633986 9:0.21766 10:-0.558872 
-1587.223096444688 1:0.12534 2:0.250153 3:-0.19364 4:0.229005 5:0.197264 6:-0.2752 7:-0.770505 8:-0.549648 9:-0.0379209 10:-0.414051 
-4096 1:-0.193155 2:0.152294 3:-0.0724844 4:-0.05664 5:-0.0957634 6:-0.0692858 7:-0.895873 8:-0.664025 9:0.0242833 10:-0.381418 
-4096 1:-0.265876 2:-0.151902 3:0.0502501 4:-0.212988 5:-0.103274 6:0.365616 7:-0.760229 8:-0.736812 9:0.012394 10:-0.321896 
-4096 1:-0.187853 2:-0.00532084 3:-0.1118 4:-0.371817 5:-0.0844187 6:-0.206818 7:-0.804347 8:-0.902713 9:0.216411 10:-0.322429 
-2449.585477904845 1:0.479706 2:0.113675 3:-0.424535 4:0.191905 5:-0.166949 6:-0.00701189 7:-0.438826 8:-0.64 9:-0.126635 10:-0.926288 
-4096 1:-0.190756 2:0.095481 3:-0.14686 4:-0.00641758 5:0.221622 6:0.227362 7:-0.433102 8:-0.539235 9:0.385632 10:-0.739116 
-4096 1:-0.266382 2:0.0451168 3:0.128881 4:0.29226 5:-0.153527 6:0.0951866 7:-0.644745 8:-0.759894 9:0.0545009 10:-0.667265 
-4096 1:-0.165189 2:0.023294 3:0.0697908 4:-0.285665 5:-0.229946 6:0.0591156 7:-0.946605 8:-0.5729 9:-0.0386624 10:-0.653737 
-4096 1:-0.13266 2:-0.0519579 3:-0.14365 4:-0.0184956 5:-0.162013 6:-0.192618 7:-0.987017 8:-0.626546 9:0.00707375 10:-0.439603 
-1516.197396969042 1:-0.195493 2:-0.52978 3:-0.472353 4:-0.370815 5:-0.165858 6:0.398852 7:-0.919312 8:-0.732759 9:0.352839 10:-0.34326 
-826.3099914558 1:-0.17118 2:-0.342079 3:-0.213523 4:0.0824167 5:-0.1304 6:-0.682938 7:-0.925999 8:-0.952796 9:-0.157152 10:-0.627473 
-4096 1:0.013943 2:0.170169 3:0.00795411 4:-0.0663402 5:-0.187668 6:-0.182094 7:-0.929977 8:-0.906336 9:0.219637 10:-0.360122 
-4096 1:0.130217 2:-0.0213815 3:-0.166573 4:-0.108255 5:0.0084885 6:-0.105194 7:-0.988058 8:-0.823976 9:0.0228394 10:-0.759997 
-4096 1:0.434844 2:-0.299438 3:-0.0222716 4:0.122053 5:0.00868944 6:-0.0568487 7:-0.925146 8:-0.512319 9:0.264619 10:-0.846471 
-4096 1:-0.251716 2:-0.220337 3:-0.31641 4:0.18518 5:-0.15563 6:-0.305718 7:-0.765992 8:-0.596492 9:-0.0676702 10:-0.2632 
-2262.791807871178 1:0.158355 2:-0.311282 3:-0.247399 4:-0.165551 5:-0.467679 6:-0.559858 7:-0.596112 8:-0.537908 9:-0.577085 10:-0.855913 
-4096 1:-0.05546 2:0.313047 3:0.0854297 4:-0.202323 5:-0.264058 6:-0.397034 7:-0.978533 8:-0.602122 9:0.0908973 10:-0.428402 
-4096 1:-0.303735 2:0.149229 3:-0.452952 4:0.113627 5:-0.152789 6:-0.163014 7:-0.859945 8:-0.641344 9:-0.243903 10:-0.512243 
-4096 1:0.0373192 2:0.322512 3:-0.124098 4:-0.0940481 5:-0.0254655 6:0.386555 7:-0.925754 8:-0.712919 9:-0.20683 10:-0.34728 
-4096 1:0.0588707 2:0.446313 3:-0.326069 4:-0.0406818 5:0.00394478 6:-0.2161 7:-0.920522 8:-0.574536 9:-0.129835 10:-0.579863 
-4096 1:-0.167006 2:0.062477 3:-0.319926 4:-0.198423 5:-0.0905446 6:-0.356382 7:-0.947283 8:-0.603623 9:0.10583 10:-0.586283 
-4096 1:-0.112728 2:0.402153 3:0.115916 4:0.126958 5:0.0258381 6:-0.124637 7:-0.836505 8:-0.431755 9:-0.126336 10:-0.418981 
-4096 1:-0.377947 2:0.130152 3:-0.157855 4:-0.409018 5:-0.251531 6:0.0109026 7:-0.852387 8:-0.982071 9:0.612219 10:-0.325157 
-4096 1:-0.0938948 2:-0.0308952 3:0.0111975 4:-0.100008 5:-0.0338935 6:-0.336344 7:-0.981725 8:-0.676869 9:-0.153627 10:-0.543268 
-4096 1:-0.113206 2:0.0325135 3:-0.246188 4:0.23767 5:-0.0665599 6:-0.290968 7:-0.869034 8:-0.740242 9:0.0623057 10:-0.640916 
-4096 1:0.11924 2:0.0461712 3:-0.0758319 4:-0.100694 5:0.0750016 6:-0.298797 7:-0.998865 8:-0.733107 9:0.722683 10:-0.478791 
-4096 1:-0.0350525 2:0.213864 3:-0.118491 4:0.143852 5:0.129296 6:-0.0880907 7:-0.853049 8:-0.655893 9:-0.0839562 10:-0.461084 
-4096 1:-0.0614517 2:0.390776 3:-0.280972 4:-0.1073 5:-0.138276 6:-0.148842 7:-0.77925 8:-0.610255 9:0.0516131 10:-0.672566 
-4096 1:0.0232202 2:0.171248 3:0.374272 4:0.209067 5:-0.0545734 6:-0.245617 7:-0.906447 8:-0.471507 9:-0.201535 10:-0.513715 
-4096 1:-0.00817812 2:-0.38364 3:-0.395033 4:0.0417653 5:-0.0429439 6:-0.302759 7:-0.98617 8:-0.705098 9:-0.0621678 10:-0.519965 
-4096 1:0.0196133 2:-0.268666 3:-0.139529 4:-0.102505 5:-0.02791 6:-0.474786 7:-0.874629 8:-0.75025 9:-0.0125553 10:-0.757141 
-4096 1:-0.195067 2:-0.119878 3:-0.297299 4:-0.106275 5:-0.115731 6:-0.410136 7:-0.924212 8:-0.755739 9:0.0771478 10:-0.611561 
-4096 1:0.0107521 2:-0.0526445 3:0.138981 4:0.26496 5:0.122394 6:-0.25747 7:-0.806021 8:-0.864415 9:0.08399 10:-0.487121 
-4096 1:-0.208013 2:-0.280828 3:-0.121351 4:-0.17753 5:-0.0694219 6:-0.214209 7:-0.941367 8:-0.746417 9:0.112933 10:-0.416767 
-4096 1:-0.227957 2:-0.0643405 3:-0.144461 4:-0.184166 5:-0.399593 6:-0.680602 7:-0.953222 8:-0.601724 9:-0.018565 10:-0.466932 
-4096 1:-0.0996975 2:0.818699 3:0.467452 4:-0.239223 5:-0.35251 6:-0.355058 7:-0.895665 8:-0.505807 9:0.0577399 10:-0.53747 
-3257.58818749031 1:0.079498 2:-0.133683 3:-0.224844 4:0.161899 5:-0.0603403 6:-0.0089802 7:-0.956827 8:-0.586279 9:-0.03649 10:-0.378845 
