svm_type c_svc
kernel_type polynomial
degree 2
gamma 1
coef0 0
nr_class 2
total_sv 57
rho 9.02556
label -1 1
nr_sv 33 24
SV
2170.373849720927 1:0.0964002 2:0.34431 3:0.0881609 4:0.0178977 5:0.0269365 6:-0.193955 7:-0.813815 8:-0.734255 9:0.0293304 10:-0.264639 
3202.789866387243 1:0.103394 2:0.128779 3:0.0242857 4:-0.318873 5:-0.437283 6:-0.233315 7:-0.633631 8:-0.741386 9:0.46835 10:-0.196758 
3565.961563083835 1:-0.0921031 2:0.337665 3:0.133453 4:0.0359451 5:-0.0583835 6:-0.422894 7:-0.751559 8:-0.723223 9:-0.0839042 10:-0.276803 
1083.166768797129 1:-0.325633 2:-0.0875855 3:-0.146287 4:-0.35283 5:-0.514921 6:0.0348633 7:-0.647158 8:-0.484177 9:0.21035 10:-0.281634 
485.80130562123 1:0.140697 2:0.170488 3:0.247617 4:0.392626 5:0.39829 6:-0.234205 7:-0.747771 8:-0.497439 9:-0.164996 10:-0.430328 
14895.51609486964 1:0.181169 2:0.0652478 3:-0.0603668 4:-0.215177 5:-0.416268 6:-0.507786 7:-0.704202 8:-0.554853 9:-0.175858 10:-0.0603292 
4943.607060955734 1:-0.0148743 2:-0.00853297 3:0.340824 4:0.269995 5:0.215529 6:0.219968 7:-0.630231 8:-0.734231 9:0.0553334 10:-0.408751 
2963.673982600512 1:0.0845467 2:-0.465954 3:-0.197396 4:-0.124741 5:-0.327313 6:-0.444412 7:-0.902219 8:-0.408454 9:0.160373 10:-0.434862 
118.8556086130363 1:0.18917 2:-0.31393 3:-0.398185 4:-0.41918 5:-0.571703 6:-0.226862 7:-0.552614 8:-0.640499 9:-0.135949 10:-0.0924754 
2548.509323626768 1:0.815732 2:-0.182895 3:-0.559777 4:-0.386382 5:-0.368566 6:-0.156957 7:-0.485518 8:-0.678496 9:-0.379386 10:-0.214672 
13743.42996524027 1:-0.0803725 2:-0.228306 3:-0.0860809 4:0.55741 5:0.21238 6:-0.481788 7:-0.64573 8:-0.802451 9:0.0680032 10:-0.44115 
32768 1:-0.112402 2:-0.236863 3:-0.0561844 4:-0.175391 5:-0.0344534 6:-0.201141 7:-0.690873 8:-0.798591 9:0.0180265 10:-0.139001 
2716.389434746805 1:0.242751 2:-0.214624 3:0.0444651 4:-0.0458453 5:0.0451523 6:-0.135917 7:-0.868956 8:-0.311895 9:-0.19204 10:-0.137286 
1207.188718462706 1:-0.0447622 2:-0.101194 3:0.00422874 4:0.0212704 5:0.113154 6:0.20914 7:-0.766674 8:-0.326679 9:-0.0345258 10:-0.219745 
1263.580315352918 1:0.214997 2:-0.536032 3:-0.429464 4:-0.0283053 5:0.221202 6:-0.441012 7:-0.675493 8:-0.760781 9:-0.18815 10:-0.339005 
4687.683063300427 1:0.305113 2:-0.227668 3:-0.182356 4:-0.0339762 5:0.34724 6:0.129621 7:-0.719509 8:-0.73517 9:-0.065693 10:-0.170153 
3182.182552566824 1:0.251595 2:-0.784395 3:-0.495166 4:0.132609 5:-0.207249 6:0.154863 7:-0.617942 8:-0.659898 9:-0.013726 10:-0.103541 
5155.029790855577 1:-0.147537 2:-0.451585 3:0.125051 4:-0.387878 5:-0.441667 6:-0.415935 7:-0.587143 8:-0.684235 9:-0.472393 10:-0.150448 
4037.391538285414 1:0.276501 2:0.312336 3:-0.302563 4:-0.216868 5:-0.195101 6:-0.377758 7:-0.538526 8:-0.679478 9:-0.112457 10:-0.133526 
20967.96160350083 1:-0.131245 2:-0.0136331 3:0.0770322 4:-0.282352 5:-0.410581 6:0.245962 7:-0.847834 8:-0.716837 9:-0.26919 10:-0.0354305 
1275.958987732214 1:-0.232013 2:0.17316 3:0.369492 4:-0.300479 5:-0.611256 6:0.289224 7:-0.63582 8:-0.640516 9:0.161049 10:-0.299937 
11967.37345103433 1:-0.284464 2:0.180369 3:0.22581 4:-0.0107454 5:-0.342121 6:0.118642 7:-0.736875 8:-0.710944 9:0.117082 10:-0.219281 
11704.0478529087 1:-0.374858 2:0.0746389 3:0.117737 4:-0.0652657 5:-0.281221 6:0.191443 7:-0.656773 8:-0.316286 9:0.207514 10:-0.486077 
2254.180873583685 1:-0.274955 2:0.52924 3:0.106233 4:0.0647772 5:0.202497 6:0.0956354 7:-0.59474 8:-0.862117 9:0.0426896 10:-0.639402 
3985.360482831954 1:-0.280909 2:0.274845 3:0.034116 4:-0.112812 5:0.324851 6:0.143907 7:-0.50975 8:-0.531511 9:-0.421183 10:-0.373514 
426.8824703340085 1:-0.0137161 2:0.169728 3:0.0340225 4:-0.328727 5:-0.0801793 6:-0.184019 7:-0.755733 8:-0.224378 9:0.109304 10:-0.276828 
12970.96198970157 1:0.175364 2:0.289067 3:-0.26347 4:-0.126074 5:-0.117665 6:0.169961 7:-0.671318 8:-0.608434 9:-0.242433 10:0.00757469 
2671.007717662001 1:-0.202217 2:-0.179413 3:-0.141755 4:-0.16196 5:-0.184025 6:0.00952086 7:-0.988829 8:-0.423064 9:0.354413 10:-0.494852 
138.5960410453081 1:-0.169753 2:-0.215776 3:0.177974 4:0.0464711 5:0.0859053 6:-0.274796 7:-0.730136 8:-0.903174 9:-0.0170301 10:-0.299738 
377.9420754638798 1:0.0122766 2:-0.516882 3:-0.398177 4:-0.192612 5:0.0940621 6:-0.013772 7:-0.660796 8:-0.867579 9:0.0370051 10:-0.122129 
3185.596657479784 1:0.228583 2:0.0551455 3:0.312933 4:-0.0297479 5:-0.013877 6:-0.150644 7:-0.929541 8:-0.303359 9:-0.0146366 10:-0.168107 
13482.51840780549 1:-0.190659 2:0.214305 3:0.179205 4:-0.368644 5:-0.295888 6:-0.10794 7:-0.611721 8:-0.368394 9:-0.0149228 10:-0.205458 
615.8052228673141 1:0.28727 2:-1 3:-0.36499 4:-0.0385627 5:-0.0975972 6:0.175343 7:-0.459789 8:-0.53901 9:-0.0114626 10:-0.614988 
-15532.56150210341 1:-0.0752151 2:-0.125788 3:0.231868 4:0.110622 5:-0.127874 6:-0.356338 7:-0.68374 8:-0.730239 9:0.0244004 10:-0.181245 
-7550.047536774176 1:0.149709 2:-0.128215 3:-0.111644 4:-0.492631 5:-0.183337 6:0.298933 7:-0.642947 8:-0.453541 9:-0.199168 10:-0.0290941 
-3220.669683191232 1:0.124667 2:-0.102199 3:-0.273063 4:-0.251083 5:-0.570577 6:0.0909425 7:-0.552839 8:-0.595941 9:0.115339 10:0.0187567 
-7004.078292747008 1:-0.242692 2:0.0345487 3:0.0973551 4:0.0707367 5:-0.0125601 6:0.0186362 7:-0.354072 8:-0.737108 9:0.0219809 10:-0.580102 
-8197.38463754662 1:-0.626125 2:-0.109139 3:0.301726 4:-0.000686976 5:-0.144104 6:0.14588 7:-0.544672 8:-0.477793 9:0.0568423 10:-0.417344 
-2684.960686084147 1:0.0800841 2:-0.167472 3:0.103363 4:0.54382 5:0.321644 6:-0.338367 7:-0.584127 8:-0.288638 9:0.44089 10:-0.585278 
-4934.123746361981 1:-0.350846 2:0.0536253 3:-0.0300594 4:-0.0105464 5:0.0468809 6:-0.494153 7:-0.651138 8:-0.927594 9:-0.167741 10:-0.259483 
-1655.596033215796 1:-0.140567 2:-0.350416 3:-0.0430884 4:0.256414 5:-0.022701 6:0.424879 7:-0.717948 8:-0.601569 9:0.149784 10:-0.194203 
-6717.459168645501 1:-0.0441902 2:-0.151705 3:-0.264477 4:0.531085 5:0.433194 6:-0.0656619 7:-0.543689 8:-0.67204 9:0.377294 10:-0.465074 
-4417.455241754481 1:0.307786 2:-0.173209 3:-0.292633 4:0.509138 5:0.168917 6:-0.163092 7:-0.612675 8:-0.888029 9:0.158422 10:-0.295043 
-2379.831125139609 1:-0.193642 2:0.830518 3:-0.21435 4:-0.716749 5:-0.968533 6:0.0762667 7:-0.493685 8:-0.553601 9:0.321022 10:-0.0488241 
-13668.99966037198 1:-0.0263969 2:-0.409779 3:-0.1599 4:-0.116214 5:-0.107494 6:0.366948 7:-0.592839 8:-0.685102 9:-0.228462 10:-0.0376752 
-673.9810609156597 1:-0.43955 2:0.192212 3:0.0119955 4:-0.175003 5:-0.254198 6:-0.286323 7:-0.699312 8:-0.672663 9:-0.249951 10:0.0520129 
-793.8165152297135 1:0.09948 2:-0.274747 3:-0.157064 4:-0.158398 5:-0.184843 6:-0.38868 7:-0.714475 8:-0.738424 9:0.458581 10:-0.093486 
-995.0104835611342 1:-0.383582 2:-0.085109 3:0.369847 4:-0.13464 5:-0.0435077 6:0.442777 7:-0.117207 8:-0.262992 9:0.38614 10:0.579796 
-20469.2667292863 1:-0.276981 2:0.245029 3:0.159404 4:-0.178734 5:-0.0762794 6:0.130192 7:-0.971275 8:-0.734272 9:0.0438734 10:-0.248282 
-40.10802533128321 1:-0.497057 2:-0.103205 3:-0.0974783 4:-0.0300464 5:-0.000792078 6:-0.457124 7:-0.0463397 8:-0.642149 9:0.0850437 10:0.0721405 
-15150.8782234622 1:-0.194533 2:-0.186769 3:0.13891 4:-0.291087 5:-0.571911 6:-0.118831 7:-0.873242 8:-0.42984 9:0.125381 10:-0.341676 
-2487.656767621314 1:-0.0626477 2:-0.572199 3:-0.0517374 4:-0.268444 5:-0.492828 6:-0.315572 7:0.343475 8:-0.248132 9:0.235052 10:0.39738 
-5699.683855019836 1:-0.199279 2:0.0142461 3:0.145522 4:-0.0179882 5:0.0044052 6:0.0283718 7:0.198147 8:-0.0777184 9:-0.139813 10:0.197214 
-1501.932808077008 1:-0.155001 2:-0.240811 3:-0.243533 4:-0.388005 5:-0.523772 6:-0.583347 7:-0.851444 8:-0.592197 9:0.256138 10:-0.386462 
-24060.28600618493 1:0.191834 2:-0.0297183 3:-0.0900828 4:-0.313736 5:-0.142137 6:-0.325696 7:-0.905221 8:-0.960437 9:-0.206661 10:-0.190528 
-32768 1:0.0792072 2:-0.197729 3:-0.211707 4:-0.0113622 5:-0.116441 6:-0.31894 7:-0.51553 8:-0.444047 9:-0.175337 10:-0.0805479 
-8159.536848412649 1:0.0416328 2:0.621509 3:0.170882 4:-0.0900187 5:-0.561285 6:0.279346 7:-0.850535 8:-0.634028 9:-0.361977 10:-0.0480538 
