svm_type c_svc
kernel_type polynomial
degree 2
gamma 1
coef0 0
nr_class 2
total_sv 116
rho 6.21152
label 1 -1
nr_sv 64 52
SV
2417.937518375328 1:-0.55542 2:-0.575411 3:-0.572885 4:-0.30026 5:-0.116238 6:0.559356 7:-0.691752 8:-0.521872 9:-0.0703368 10:-0.083712 
16384 1:-0.02864 2:0.131869 3:0.178705 4:0.17333 5:0.419655 6:-0.0574724 7:-0.798476 8:-0.783809 9:0.169986 10:-0.142414 
16384 1:-0.470462 2:-0.00500208 3:0.352939 4:0.236427 5:-0.0855873 6:0.204541 7:-0.948336 8:-0.55416 9:0.0378767 10:0.0257558 
16384 1:0.153198 2:-0.300051 3:-0.105381 4:0.943709 5:0.224177 6:-0.332163 7:-0.821709 8:-0.491754 9:-0.0114757 10:-0.206736 
3816.948564969339 1:-0.546705 2:0.0139029 3:0.1916 4:0.131973 5:0.240647 6:0.0490585 7:-0.777881 8:-0.55171 9:-0.0135699 10:-0.151541 
7673.933888222171 1:-0.489879 2:0.26511 3:0.133126 4:-0.121189 5:0.106218 6:-0.404275 7:-0.770599 8:-0.73963 9:-0.349514 10:-0.256012 
16384 1:-0.21751 2:-0.059363 3:0.0661431 4:-0.108892 5:-0.0658088 6:-0.0975365 7:-0.831149 8:-0.62179 9:0.117733 10:0.019759 
2125.342009729266 1:-0.637955 2:0.546772 3:0.474392 4:-0.100784 5:0.014989 6:-0.1393 7:-0.812587 8:-0.296457 9:0.180158 10:-0.357497 
169.0053535995899 1:-0.394008 2:-0.315229 3:0.244904 4:-0.212759 5:-0.131134 6:0.302859 7:-0.886311 8:-0.715659 9:0.518327 10:-0.189207 
16384 1:-0.323052 2:0.139151 3:0.0184981 4:-0.00363187 5:-0.328238 6:-0.0686532 7:-0.810302 8:-0.606476 9:-0.0174333 10:0.00942179 
16384 1:-0.214224 2:0.113209 3:0.300278 4:-0.379257 5:-0.181401 6:-0.0100333 7:-0.89839 8:-0.466139 9:0.142578 10:-0.0543157 
14370.40565604485 1:0.0155053 2:-0.122772 3:-0.0982223 4:0.32553 5:0.178056 6:0.347468 7:-0.803083 8:-0.416709 9:0.00326241 10:-0.152444 
4112.620647500772 1:-0.423719 2:0.71547 3:0.242969 4:0.270422 5:0.333482 6:0.331983 7:-0.786542 8:-0.6956 9:0.184282 10:-0.322269 
16384 1:-0.168807 2:-0.151779 3:-0.174771 4:0.196382 5:0.419194 6:-0.328546 7:-0.794494 8:-0.64578 9:0.319435 10:0.101073 
1381.972717914635 1:-0.0450577 2:0.011647 3:0.610054 4:0.332414 5:0.1126 6:-0.244847 7:-0.959551 8:-0.432645 9:0.567341 10:0.0617537 
5368.534376808009 1:0.222937 2:-0.301327 3:-0.404339 4:0.149453 5:0.414965 6:0.182432 7:-0.892703 8:-0.629548 9:0.0316719 10:0.110126 
1649.738299910303 1:-0.00649286 2:0.282495 3:0.420506 4:-0.0436765 5:0.104902 6:-0.220296 7:-0.931642 8:-0.508355 9:0.113635 10:-0.0752303 
16384 1:-0.0649097 2:0.11343 3:0.487798 4:0.0599221 5:-0.0159352 6:0.266583 7:-0.833301 8:-0.743302 9:-0.251434 10:-0.0887812 
16384 1:-0.146187 2:-0.283917 3:-0.0638235 4:-0.115936 5:0.064289 6:0.461329 7:-0.893989 8:-0.88262 9:0.0197175 10:-0.0880606 
12104.75667787126 1:-0.266222 2:-0.580315 3:0.0214373 4:0.286908 5:0.259987 6:-0.830895 7:-0.917034 8:-0.430825 9:0.491908 10:-0.473797 
5098.348114716438 1:-0.661069 2:-0.245421 3:-0.254822 4:-0.37464 5:-0.506399 6:-0.497176 7:-0.805614 8:-0.490051 9:0.114234 10:-0.674678 
16384 1:-0.0200648 2:0.169041 3:-0.370273 4:-0.0933019 5:-0.559954 6:-0.157178 7:-0.797394 8:-0.77841 9:0.276899 10:0.0787503 
7992.214560652541 1:-0.262768 2:0.543266 3:0.388296 4:-0.0870938 5:0.0114481 6:-0.292949 7:-0.695331 8:-0.895072 9:0.198525 10:-0.488085 
16384 1:-0.187489 2:0.140647 3:0.0788178 4:-0.291137 5:-0.17925 6:-0.00913568 7:-0.7266 8:-0.57395 9:0.297373 10:-0.148493 
16384 1:-0.0447953 2:0.0555378 3:-0.0691436 4:0.357108 5:0.275583 6:0.0348527 7:-0.851333 8:-0.783615 9:-0.126505 10:-0.124241 
16384 1:-0.450489 2:0.404924 3:0.0150559 4:0.0330599 5:-0.310239 6:-0.312853 7:-0.990615 8:-0.692699 9:-0.13937 10:0.398647 
16384 1:0.0511487 2:-0.329843 3:-0.211743 4:-0.295753 5:0.239071 6:-0.0928066 7:-0.79506 8:-0.506841 9:-0.15965 10:0.0376999 
16384 1:-0.224816 2:-0.26055 3:-0.14885 4:-0.392007 5:-0.309002 6:-0.0346566 7:-0.861301 8:-0.79783 9:-0.0676312 10:0.0640066 
16384 1:0.12249 2:0.0571807 3:0.108112 4:0.243063 5:0.145586 6:-0.0467757 7:-0.822089 8:-0.593371 9:0.109668 10:-0.121516 
16384 1:0.0626028 2:-0.453743 3:-0.0987977 4:-0.0990226 5:-0.332111 6:-0.303605 7:-0.875762 8:-0.774687 9:0.0571805 10:0.00159437 
16384 1:-0.048154 2:0.539686 3:0.311998 4:-0.188275 5:0.213623 6:0.0398424 7:-0.871422 8:-0.675164 9:0.300573 10:-0.119105 
16384 1:-0.198738 2:0.131673 3:-0.0540288 4:-0.359684 5:-0.367032 6:-0.117244 7:-0.922168 8:-0.644454 9:0.202415 10:0.280317 
167.8054554561297 1:-0.27257 2:-0.113675 3:0.355928 4:0.0156492 5:0.140225 6:0.246282 7:-0.692419 8:-0.996461 9:0.286837 10:-0.586757 
1848.807542552027 1:-0.205337 2:-0.0406297 3:0.461882 4:0.950464 5:0.754027 6:0.059681 7:-0.685353 8:-0.761822 9:0.181264 10:-0.500666 
6193.771614193868 1:0.143935 2:0.329819 3:-0.478291 4:0.29627 5:0.304491 6:-0.531323 7:-0.537259 8:-0.396547 9:-0.0734978 10:-0.165051 
16384 1:0.00955848 2:-0.155653 3:-0.0644148 4:0.129256 5:0.178959 6:-0.2769 7:-0.744423 8:-0.810542 9:0.190604 10:-0.176391 
13866.21981104987 1:-0.0152524 2:-0.380256 3:-0.0233185 4:0.305323 5:0.229704 6:-0.0251861 7:-0.851274 8:-0.630647 9:0.0295386 10:-0.108917 
16384 1:-0.232949 2:0.257902 3:0.191846 4:-0.130372 5:-0.0862682 6:-0.0321564 7:-0.698508 8:-0.763658 9:0.390523 10:-0.247601 
8861.347234971345 1:-0.356857 2:-0.0572542 3:-0.115513 4:0.293902 5:0.441581 6:0.0873116 7:-0.749742 8:-0.357062 9:-0.0173423 10:-0.237786 
10032.64952793853 1:0.000638177 2:-0.212981 3:-0.321005 4:-0.342846 5:-0.0527844 6:-0.182381 7:-0.806097 8:-0.533541 9:-0.115006 10:0.0604698 
16384 1:-0.297828 2:0.0458524 3:0.0198124 4:0.28253 5:0.345931 6:-0.188526 7:-0.681626 8:-0.6274 9:0.186337 10:-0.199376 
383.2390423399561 1:-0.240484 2:0.140598 3:0.698112 4:0.117716 5:0.363129 6:-0.30211 7:-0.868019 8:-0.925289 9:0.476454 10:0.0740125 
1419.906614104797 1:-0.0361468 2:-0.4036 3:-0.127625 4:-0.0340956 5:-0.14845 6:-0.122391 7:-0.70901 8:-0.522492 9:0.163235 10:-0.769496 
16384 1:-0.176506 2:0.0790525 3:0.154798 4:-0.188991 5:-0.0339969 6:-0.132123 7:-0.829433 8:-0.724186 9:-0.0309746 10:0.0611573 
16384 1:-0.176222 2:-0.014712 3:0.130143 4:0.0201263 5:-0.172745 6:0.0820816 7:-0.947896 8:-0.704856 9:0.801589 10:0.0439121 
1399.217607858799 1:-0.657651 2:0.0799843 3:-0.127944 4:0.23582 5:0.395003 6:-0.243642 7:-0.866364 8:-0.990175 9:-0.100997 10:-0.195821 
16384 1:-0.0977924 2:0.301277 3:0.0746632 4:0.0712441 5:0.243121 6:-0.217619 7:-0.964277 8:-0.700868 9:0.075886 10:0.0989028 
4265.102254304506 1:-0.592162 2:-0.257362 3:0.0981387 4:-0.233552 5:-0.214538 6:0.108337 7:-0.925859 8:-0.79873 9:0.109082 10:0.18155 
24.94997741467325 1:-0.47313 2:0.343427 3:0.436664 4:-0.511234 5:0.00694726 6:0.518329 7:-0.834002 8:-0.558109 9:-0.105042 10:-0.0535289 
873.9617572485647 1:-0.247317 2:-0.215703 3:-0.268419 4:0.0413673 5:0.534898 6:0.236007 7:-0.79546 8:-0.825208 9:0.238993 10:-0.00264651 
3374.341839922008 1:-0.299133 2:0.288527 3:0.118126 4:0.466845 5:0.0430629 6:0.030962 7:-0.901523 8:-0.481415 9:0.404858 10:-0.148319 
16384 1:0.0542852 2:0.0547777 3:0.353571 4:0.024653 5:0.0511066 6:-0.221761 7:-0.849076 8:-0.736535 9:-0.0459729 10:0.116214 
10002.54779092377 1:-0.250201 2:-0.0663512 3:-0.0503218 4:0.391034 5:0.132057 6:-0.291763 7:-0.989248 8:-0.789662 9:-0.187474 10:0.0226 
16384 1:-0.239281 2:0.411127 3:0.288756 4:0.135017 5:-0.0749899 6:-0.252795 7:-0.869336 8:-0.49897 9:0.143515 10:0.184764 
14090.29719361749 1:-0.361081 2:0.150994 3:0.0360149 4:0.273825 5:0.397151 6:-0.168753 7:-0.848551 8:-0.760367 9:0.633292 10:0.172911 
16384 1:-0.258913 2:0.296275 3:0.123691 4:0.172176 5:0.42072 6:0.130257 7:-0.964421 8:-0.724842 9:0.334459 10:0.15367 
11095.71990590893 1:-0.503765 2:-0.0365348 3:0.498714 4:-0.325246 5:-0.414811 6:-0.370383 7:-0.88142 8:-0.914582 9:-0.0876245 10:0.0744183 
1663.436973540098 1:0.165193 2:0.260697 3:0.226324 4:-0.193199 5:-0.585279 6:-0.187338 7:-0.768521 8:-0.524855 9:0.294668 10:-0.638301 
8256.053525876057 1:-0.53115 2:0.0382512 3:0.052648 4:0.221881 5:0.0218816 6:-0.158044 7:-0.97382 8:-0.604542 9:-0.0891984 10:0.0658455 
16384 1:-0.386506 2:-0.120222 3:0.0424398 4:0.159491 5:0.0808641 6:-0.0412294 7:-0.834131 8:-0.76535 9:0.167827 10:0.3215 
16384 1:0.395883 2:0.0227791 3:-0.0243864 4:0.0244143 5:-0.186421 6:-0.372858 7:-0.825577 8:-0.597337 9:-0.138642 10:-0.0340556 
5348.150220985749 1:-0.66526 2:-0.247382 3:-0.165394 4:-0.216749 5:0.0219441 6:0.585188 7:-0.881959 8:-0.578299 9:-0.0926976 10:0.263684 
6150.695350774573 1:0.0321641 2:0.0706667 3:-0.516645 4:0.0590068 5:-0.46589 6:-0.376814 7:-0.857078 8:-0.631614 9:0.381015 10:0.598789 
2293.531451505142 1:-0.590163 2:-0.325798 3:0.153679 4:-0.198443 5:0.126438 6:0.156786 7:-0.918788 8:-0.880223 9:0.561175 10:0.273765 
-7665.095575432713 1:0.121946 2:0.0161097 3:0.416938 4:-0.21057 5:-0.0404759 6:-0.202491 7:-0.772253 8:-0.681003 9:-0.0556768 10:-0.0830328 
-14278.54891986438 1:-0.173863 2:0.0161097 3:0.220029 4:-0.15219 5:0.458617 6:0.374061 7:-0.627282 8:-0.701256 9:0.134318 10:-0.254467 
-16384 1:-0.374835 2:0.2618 3:-0.105429 4:0.0389497 5:0.378131 6:-0.389946 7:-0.646706 8:-0.668675 9:0.0100005 10:-0.105604 
-16384 1:0.297629 2:-0.34279 3:-0.464759 4:0.106652 5:0.0507632 6:-0.115803 7:-0.935919 8:-0.897996 9:-0.216625 10:0.0500995 
-844.1185338008612 1:0.365264 2:0.0570581 3:0.0700397 4:0.205665 5:-0.0900159 6:-0.176522 7:-0.848344 8:-0.390037 9:-0.221633 10:-0.0266423 
-16384 1:-0.395906 2:0.277272 3:0.216513 4:-0.00455712 5:0.0705359 6:-0.0954233 7:-0.707744 8:-0.29055 9:-0.111247 10:-0.299361 
-4825.67407780638 1:-0.329886 2:0.402153 3:0.320781 4:-0.244268 5:-0.429833 6:-0.180752 7:-0.784867 8:-0.784784 9:0.153049 10:0.138322 
-3962.22724666652 1:0.133852 2:0.0692936 3:0.175708 4:0.339568 5:0.256239 6:-0.287076 7:-0.843081 8:-0.918804 9:0.0259223 10:-0.204103 
-10662.92233799127 1:-0.626125 2:-0.109139 3:0.301726 4:-0.000686976 5:-0.144104 6:0.14588 7:-0.544672 8:-0.477793 9:0.0568423 10:-0.417344 
-16384 1:0.0800841 2:-0.167472 3:0.103363 4:0.54382 5:0.321644 6:-0.338367 7:-0.584127 8:-0.288638 9:0.44089 10:-0.585278 
-14328.57600340677 1:-0.220093 2:-0.178653 3:0.0248177 4:0.490533 5:0.0414339 6:0.226897 7:-0.89368 8:-0.85335 9:0.0264947 10:-0.0378492 
-6316.706269681001 1:-0.0441902 2:-0.151705 3:-0.264477 4:0.531085 5:0.433194 6:-0.0656619 7:-0.543689 8:-0.67204 9:0.377294 10:-0.465074 
-16332.86950961057 1:-0.0716602 2:-0.102469 3:0.0687874 4:0.503457 5:0.7678 6:-0.121446 7:-0.632539 8:-0.487579 9:0.0764584 10:-0.285664 
-11553.31440548098 1:-0.43955 2:0.192212 3:0.0119955 4:-0.175003 5:-0.254198 6:-0.286323 7:-0.699312 8:-0.672663 9:-0.249951 10:0.0520129 
-15296.61322853358 1:0.0815118 2:0.341196 3:0.588682 4:0.162914 5:-0.0934125 6:-0.200189 7:-0.597191 8:-0.655464 9:0.202337 10:-0.226736 
-16384 1:-0.254576 2:0.542407 3:0.0351682 4:0.108045 5:0.163289 6:-0.156551 7:-0.919596 8:-0.934057 9:0.382888 10:0.170451 
-16384 1:-0.389685 2:-0.172915 3:-0.109204 4:0.014127 5:-0.367376 6:-0.250086 7:-0.998911 8:-0.61463 9:0.105284 10:0.123719 
-16384 1:0.240066 2:-0.0378589 3:0.126456 4:0.251698 5:0.0271784 6:-0.203855 7:-0.974689 8:-0.594811 9:-0.0333031 10:0.0837947 
-16384 1:-0.276981 2:0.245029 3:0.159404 4:-0.178734 5:-0.0762794 6:0.130192 7:-0.971275 8:-0.734272 9:0.0438734 10:-0.248282 
-4001.332324857257 1:0.0140399 2:-0.435917 3:-0.34241 4:0.164058 5:-0.0275042 6:-0.268098 7:-0.919765 8:-0.668551 9:0.541104 10:0.146605 
-16384 1:0.00723267 2:-0.0344751 3:-0.0209179 4:-0.094844 5:-0.0864477 6:-0.319067 7:-0.950083 8:-0.929789 9:0.356 10:-0.0406985 
-16384 1:-0.445053 2:-0.353137 3:0.0348745 4:-0.298858 5:0.0490405 6:-0.0878381 7:-0.778277 8:-0.613156 9:0.247514 10:0.152759 
-16384 1:-0.0880566 2:0.0328568 3:0.153433 4:-0.188265 5:0.0469862 6:-0.0867744 7:-0.918999 8:-0.557957 9:0.154116 10:0.0913073 
-5099.667411780591 1:-0.0590432 2:-0.11544 3:0.241862 4:-0.137038 5:-0.231687 6:-0.388672 7:-0.802981 8:-0.637465 9:0.65707 10:0.153852 
-1500.809672806432 1:0.112629 2:0.230047 3:-0.105921 4:-0.622419 5:-0.205609 6:0.0416976 7:-0.867786 8:-0.656161 9:-0.393734 10:0.119486 
-16384 1:-0.268231 2:-0.0228772 3:-0.0570325 4:-0.00948186 5:-0.278382 6:0.0481132 7:-0.730785 8:-0.67348 9:0.223332 10:-0.0275452 
-13375.40476806327 1:-0.126309 2:-0.376799 3:-0.0116341 4:-0.271637 5:-0.0166961 6:0.130975 7:-0.865937 8:-0.784633 9:-0.034812 10:0.0205293 
-16384 1:-0.240026 2:0.623422 3:0.22502 4:0.0742088 5:-0.0875577 6:-0.206778 7:-0.862966 8:-0.713625 9:0.464734 10:-0.0953331 
-16384 1:-0.197367 2:0.224334 3:0.187087 4:0.00380001 5:-0.115567 6:0.0218714 7:-0.899443 8:-0.5716 9:0.170805 10:0.131952 
-16384 1:-0.14498 2:-0.3346 3:-0.284525 4:0.0821382 5:-0.167938 6:-0.0246807 7:-0.927705 8:-0.488947 9:0.0405823 10:-0.0102254 
-16384 1:-0.248197 2:0.0436702 3:0.416635 4:-0.138152 5:-0.17852 6:0.477443 7:-0.988378 8:-0.809952 9:-0.103923 10:-0.00599284 
-11535.011922786 1:-0.261487 2:0.350465 3:0.439258 4:0.0371489 5:0.544633 6:0.0498235 7:-0.65826 8:-0.56179 9:0.562983 10:-0.0869838 
-16384 1:-0.0529593 2:-0.171125 3:0.0822772 4:0.466984 5:0.473424 6:-0.515338 7:-0.985449 8:-0.611614 9:-0.249379 10:-0.195747 
-14574.5778673591 1:-0.47092 2:0.195179 3:0.213353 4:-0.0560629 5:-0.0908178 6:0.00588815 7:-0.641042 8:-0.607395 9:0.275468 10:0.0501658 
-585.317273029902 1:-0.229845 2:0.390702 3:0.288084 4:-0.269637 5:-0.320288 6:0.156528 7:-0.908331 8:-0.609606 9:0.37706 10:0.171901 
-14604.29572488685 1:-0.183424 2:0.250202 3:0.250725 4:-0.00190075 5:-0.259612 6:-0.437466 7:-0.997806 8:-0.741837 9:0.268079 10:0.428673 
-16384 1:-0.412 2:-0.0317289 3:0.216276 4:0.17921 5:0.0647397 6:0.259913 7:-0.959998 8:-0.806938 9:-0.0927106 10:0.0568916 
-6034.362017231196 1:-0.19527 2:0.0625015 3:0.543408 4:0.213246 5:0.0849298 6:-0.442323 7:-0.995221 8:-0.70082 9:-0.013596 10:0.209713 
-16384 1:-0.143361 2:-0.169605 3:-0.0790858 4:-0.102206 5:-0.0467599 6:0.047523 7:-0.792877 8:-0.59395 9:0.489774 10:-0.0405494 
-16384 1:-0.181883 2:-0.0450678 3:-0.127319 4:0.573299 5:0.115772 6:-0.314056 7:-0.971545 8:-0.737004 9:0.0684455 10:0.084888 
-16384 1:0.0197244 2:-0.207439 3:0.0021942 4:0.618497 5:0.539366 6:0.103016 7:-0.954609 8:-0.598361 9:0.11024 10:-0.094687 
-7006.428551493896 1:-0.178531 2:-0.0596572 3:0.15088 4:-0.48505 5:-0.290127 6:-0.215374 7:-0.898127 8:-0.703316 9:0.0332718 10:0.209638 
-16384 1:-0.334854 2:0.00863105 3:0.172758 4:-0.307157 5:0.0856029 6:-0.067321 7:-0.705874 8:-0.450795 9:0.0531351 10:-0.0547216 
-16384 1:-0.155001 2:-0.240811 3:-0.243533 4:-0.388005 5:-0.523772 6:-0.583347 7:-0.851444 8:-0.592197 9:0.256138 10:-0.386462 
-16384 1:-0.100154 2:0.236447 3:-0.0618061 4:-0.133695 5:0.199348 6:0.287099 7:-0.90161 8:-0.54202 9:0.123092 10:0.18136 
-16384 1:0.191834 2:-0.0297183 3:-0.0900828 4:-0.313736 5:-0.142137 6:-0.325696 7:-0.905221 8:-0.960437 9:-0.206661 10:-0.190528 
-16384 1:-0.563581 2:-0.0453375 3:0.048043 4:0.28649 5:0.15171 6:-0.264539 7:-0.930686 8:-0.750322 9:0.0555936 10:0.145486 
-6578.18087578533 1:-0.141638 2:0.74357 3:-0.0494738 4:-0.0994902 5:-0.0316421 6:-0.108684 7:-0.950927 8:-0.664352 9:-0.280858 10:0.174775 
-16384 1:-0.403134 2:-0.229213 3:-0.012328 4:-0.0455966 5:-0.0876124 6:-0.236311 7:-0.875021 8:-0.729391 9:-0.0224804 10:0.190438 
-5315.456560446257 1:0.0416328 2:0.621509 3:0.170882 4:-0.0900187 5:-0.561285 6:0.279346 7:-0.850535 8:-0.634028 9:-0.361977 10:-0.0480538 
-16384 1:-0.11716 2:0.26999 3:-0.236471 4:0.295653 5:0.145426 6:-0.00920283 7:-0.802817 8:-0.447201 9:0.355506 10:0.206466 
-16384 1:-0.0752364 2:-0.121668 3:-0.254498 4:-0.152936 5:0.119731 6:0.162067 7:-0.780173 8:-0.673269 9:0.413795 10:0.122965 
