svm_type c_svc
kernel_type polynomial
degree 2
gamma 1
coef0 0
nr_class 2
total_sv 289
rho -1.73352
label 1 -1
nr_sv 143 146
SV
8192 1:-0.122918 2:0.0239561 3:-0.110726 4:0.686259 5:0.505849 6:-0.192883 7:-0.991806 8:-0.609863 9:0.420169 10:-0.32504 
8192 1:0.101026 2:0.385847 3:-0.0960034 4:0.517167 5:0.600332 6:-0.595532 7:-0.972444 8:-0.716282 9:0.474815 10:-0.606251 
8192 1:-0.0450884 2:0.135645 3:0.184196 4:0.395551 5:0.169019 6:-0.519734 7:-0.916383 8:-0.621591 9:0.136607 10:-0.527798 
4006.845625969164 1:-0.55542 2:-0.575411 3:-0.572885 4:-0.30026 5:-0.116238 6:0.559356 7:-0.691752 8:-0.521872 9:-0.0703368 10:-0.083712 
908.0963740138712 1:-0.195034 2:0.0424687 3:0.0284759 4:0.0771139 5:-0.296551 6:0.0341831 7:-0.907049 8:-0.711628 9:0.106923 10:-0.292335 
1262.1670204998 1:-0.104082 2:-0.387956 3:-0.303327 4:-0.0489196 5:-0.105936 6:0.285054 7:-0.866405 8:-0.734037 9:-0.0374526 10:-0.101711 
8192 1:-0.0253215 2:-0.152392 3:0.416029 4:-0.0816318 5:-0.35617 6:0.210995 7:-0.948876 8:-0.794279 9:0.3019 10:-0.271405 
8192 1:-0.13656 2:-0.188633 3:-0.0634851 4:-0.197657 5:0.135359 6:0.103526 7:-0.941643 8:-0.623077 9:0.0510017 10:-0.402324 
8192 1:-0.0293585 2:0.185837 3:-0.00348669 4:0.451563 5:0.465445 6:0.000871958 7:-0.871331 8:-0.610832 9:0.0997427 10:-0.197952 
6396.931417781895 1:-0.175905 2:0.0277076 3:0.481437 4:0.108015 5:0.208012 6:-0.365305 7:-0.944666 8:-0.782029 9:0.035158 10:-0.426224 
6941.620257380386 1:-0.178486 2:0.0377118 3:0.299554 4:0.292469 5:0.176109 6:0.079585 7:-0.996535 8:-0.628576 9:0.222551 10:-0.288281 
8192 1:0.180616 2:0.088836 3:0.0622755 4:0.338662 5:0.0486952 6:0.0841259 7:-0.911323 8:-0.59813 9:-0.176313 10:-0.732574 
8192 1:-0.135783 2:0.247407 3:-0.486167 4:0.33911 5:0.458675 6:-0.672161 7:-0.880482 8:-0.826603 9:0.194844 10:-0.574607 
8192 1:-0.0848468 2:-0.0155212 3:0.156013 4:0.0920971 5:0.137599 6:-0.144672 7:-0.933141 8:-0.750901 9:0.381782 10:-0.430954 
8192 1:-0.291798 2:-0.344874 3:-0.486703 4:-0.053904 5:-0.039877 6:-0.3399 7:-0.843265 8:-0.6866 9:0.142318 10:-0.290774 
3740.118705961599 1:0.0357403 2:0.289778 3:0.75155 4:0.39766 5:-0.0365546 6:-0.000345426 7:-0.740167 8:-0.508351 9:0.18315 10:-0.374216 
8192 1:-0.151577 2:-0.117402 3:-0.187302 4:0.291614 5:0.0776724 6:-0.115345 7:-0.777715 8:-0.542414 9:0.186948 10:-0.315823 
8192 1:-0.138428 2:-0.134787 3:-0.16246 4:0.165312 5:0.166664 6:-0.00242858 7:-0.773651 8:-0.792544 9:0.232463 10:-0.328144 
8192 1:0.00773613 2:-0.0590197 3:0.0637965 4:0.236088 5:0.208289 6:-0.312688 7:-0.920869 8:-0.817634 9:0.022059 10:-0.132366 
8192 1:-0.163487 2:0.0149817 3:0.144481 4:0.269766 5:-0.137558 6:0.328767 7:-0.851235 8:-0.628378 9:-0.0672539 10:-0.321201 
1141.614745074746 1:-0.381566 2:0.0136822 3:0.0392162 4:0.299642 5:0.492622 6:-0.3128 7:-0.999892 8:-0.627304 9:0.0877753 10:-0.437748 
8192 1:-0.121634 2:0.173798 3:-0.385728 4:0.176962 5:0.223623 6:0.267767 7:-0.974756 8:-0.733172 9:0.211091 10:-0.76096 
8192 1:-0.403413 2:0.0418802 3:-0.157158 4:0.0841877 5:0.061187 6:-0.276621 7:-0.883188 8:-0.741499 9:0.0111192 10:-0.357098 
8192 1:-0.281231 2:-0.0633597 3:-0.232222 4:0.461482 5:0.31338 6:-0.0612871 7:-0.905809 8:-0.926816 9:0.454627 10:-0.530253 
2403.395802718117 1:-0.448187 2:0.153961 3:0.102817 4:0.13242 5:0.365573 6:0.108871 7:-0.937319 8:-0.889478 9:-0.0483533 10:-0.526039 
8192 1:-0.145748 2:0.0948434 3:-0.311522 4:0.27481 5:0.311013 6:0.0435334 7:-0.9831 8:-0.760197 9:0.710234 10:-0.670738 
5499.93031933045 1:-0.18448 2:-0.336586 3:-0.451564 4:0.093679 5:-0.136667 6:0.275858 7:-0.985277 8:-0.890962 9:-0.147838 10:-0.141055 
7352.274383235424 1:0.213614 2:-0.614202 3:-0.612991 4:0.405281 5:0.493753 6:0.206873 7:-0.661888 8:-0.52136 9:-0.169198 10:-0.469707 
8192 1:-0.143836 2:0.0470784 3:0.16139 4:-0.125825 5:0.0454781 6:0.254915 7:-0.930406 8:-0.809527 9:0.0651805 10:-0.357643 
8192 1:-0.0649097 2:0.11343 3:0.487798 4:0.0599221 5:-0.0159352 6:0.266583 7:-0.833301 8:-0.743302 9:-0.251434 10:-0.0887812 
8192 1:-0.212097 2:0.0745654 3:-0.539203 4:0.342672 5:0.287645 6:-0.00776105 7:-0.885902 8:-0.895705 9:0.356625 10:-0.524684 
1158.050700497065 1:-0.287799 2:0.123189 3:0.198563 4:0.528877 5:0.286761 6:-0.00772217 7:-0.825603 8:-0.700714 9:0.382823 10:-0.315827 
8192 1:-0.0924435 2:-0.118726 3:-0.382748 4:-0.118224 5:0.387119 6:-0.00153631 7:-0.841768 8:-0.687034 9:0.322765 10:-0.710186 
8192 1:0.0106883 2:0.000931761 3:-0.270564 4:0.224727 5:0.150986 6:0.266723 7:-0.795731 8:-0.538 9:0.0420132 10:-0.567107 
8192 1:-0.0397892 2:-0.220312 3:-0.110929 4:0.155591 5:0.142506 6:0.25122 7:-0.895252 8:-0.508544 9:0.277302 10:-0.519427 
8192 1:-0.0919731 2:-0.0590442 3:0.185567 4:0.357735 5:0.176407 6:0.0547001 7:-0.943986 8:-0.779213 9:0.0932777 10:-0.0520545 
8192 1:0.128297 2:0.309516 3:0.312591 4:0.315312 5:0.19196 6:-0.328658 7:-0.935967 8:-0.67071 9:0.216711 10:-0.164421 
1975.656045753055 1:-0.639132 2:-0.225216 3:-0.0477869 4:-0.0126158 5:0.420047 6:-0.247153 7:-0.970399 8:-0.715202 9:0.00470629 10:-0.229777 
8192 1:-0.113955 2:0.018954 3:0.111877 4:-0.0231716 5:0.178598 6:0.0269618 7:-0.962902 8:-0.811199 9:0.13424 10:-0.725425 
8192 1:-0.0144606 2:0.0351372 3:0.324271 4:0.285644 5:0.282842 6:-0.656475 7:-0.973867 8:-0.875565 9:0.033519 10:-0.621526 
8192 1:-0.10693 2:0.224628 3:0.125134 4:0.293962 5:0.393436 6:-0.078516 7:-0.830973 8:-0.843598 9:0.00918104 10:-0.442975 
8192 1:-0.159568 2:0.106907 3:-0.0487376 4:0.130361 5:-0.0337687 6:-0.0875306 7:-0.977914 8:-0.872863 9:0.253562 10:-0.416265 
7101.811783071743 1:-0.140624 2:-0.0879778 3:-0.381751 4:-0.0314392 5:0.102426 6:-0.162461 7:-0.868231 8:-0.545697 9:-0.0184609 10:-0.309222 
8192 1:0.0969864 2:0.12694 3:-0.5149 4:0.111209 5:-0.0474057 6:-0.100174 7:-0.768947 8:-0.632858 9:0.128451 10:-0.323479 
8192 1:-0.506256 2:-0.0716965 3:-0.103933 4:0.0792629 5:-0.252234 6:-0.388809 7:-0.882117 8:-0.74998 9:-0.183441 10:-0.615603 
8192 1:-0.0447953 2:0.0555378 3:-0.0691436 4:0.357108 5:0.275583 6:0.0348527 7:-0.851333 8:-0.783615 9:-0.126505 10:-0.124241 
8192 1:-0.178801 2:-0.0363387 3:-0.222081 4:0.116343 5:0.663465 6:0.148964 7:-0.80614 8:-0.612757 9:0.307728 10:-0.481269 
8192 1:0.081266 2:0.276733 3:0.0668055 4:0.169092 5:0.245716 6:0.114995 7:-0.902667 8:-0.807009 9:0.244314 10:-0.293177 
8192 1:-0.243186 2:-0.13003 3:-0.182822 4:0.135684 5:0.135359 6:0.0129522 7:-0.926401 8:-0.5659 9:0.138298 10:-0.499281 
6429.659592346563 1:-0.117715 2:-0.190692 3:-0.112696 4:-0.028564 5:0.593914 6:-0.247148 7:-0.718748 8:-0.610118 9:-0.109907 10:-0.68877 
8192 1:-0.488092 2:0.0294731 3:0.0195727 4:0.170783 5:0.411439 6:-0.221139 7:-0.936715 8:-0.770852 9:0.176581 10:-0.454962 
6216.943608073878 1:-0.348617 2:0.27102 3:0.29077 4:0.415657 5:0.527621 6:0.154794 7:-0.817133 8:-0.632078 9:-0.118349 10:-0.402116 
8192 1:0.12249 2:0.0571807 3:0.108112 4:0.243063 5:0.145586 6:-0.0467757 7:-0.822089 8:-0.593371 9:0.109668 10:-0.121516 
5130.066950417038 1:-0.321759 2:-0.0602457 3:0.196555 4:0.341936 5:-0.0778967 6:-0.192224 7:-0.767192 8:-0.526659 9:-0.248872 10:-0.331631 
8148.001715074289 1:-0.223936 2:0.291053 3:-0.263733 4:0.392645 5:0.215297 6:-0.36504 7:-0.805106 8:-0.761698 9:-0.0471176 10:-0.53591 
2809.344902618968 1:0.0039047 2:0.127185 3:-0.0365081 4:0.0885553 5:-0.112163 6:-0.125151 7:-0.968513 8:-0.819397 9:0.497774 10:-0.527131 
8192 1:0.036317 2:-0.091901 3:-0.138422 4:-0.0271811 5:0.301579 6:-0.155625 7:-0.94262 8:-0.654723 9:0.0760812 10:-0.81546 
8192 1:-0.187948 2:-0.297305 3:0.158123 4:0.0547387 5:-0.106199 6:-0.372582 7:-0.952488 8:-0.739362 9:0.235247 10:-0.631306 
8192 1:0.045658 2:-0.289557 3:-0.0904423 4:0.157382 5:-0.156219 6:-0.254517 7:-0.964886 8:-0.818454 9:0.370283 10:-0.934321 
8192 1:-0.34254 2:0.0664002 3:-0.192945 4:0.09543 5:0.500757 6:-0.0771484 7:-0.89141 8:-0.674857 9:0.185908 10:-0.4551 
8192 1:-0.0796043 2:-0.0418312 3:-0.582511 4:0.128232 5:0.315662 6:-0.286721 7:-0.711677 8:-0.716419 9:0.193947 10:-0.434108 
6874.264402798839 1:-0.423407 2:-0.221367 3:-0.128149 4:0.134888 5:0.290181 6:0.181669 7:-0.867651 8:-0.576119 9:0.213146 10:-0.628544 
8192 1:-0.39658 2:-0.0996984 3:0.167031 4:0.0562609 5:0.398159 6:-0.135567 7:-0.88801 8:-0.728202 9:0.067756 10:-0.374904 
8192 1:-0.0152524 2:-0.380256 3:-0.0233185 4:0.305323 5:0.229704 6:-0.0251861 7:-0.851274 8:-0.630647 9:0.0295386 10:-0.108917 
8192 1:-0.383894 2:-0.149842 3:-0.0936976 4:0.188851 5:0.255299 6:0.0574017 7:-0.652871 8:-0.480943 9:0.00531767 10:-0.434275 
8192 1:-0.130436 2:-0.108967 3:0.177929 4:-0.0242461 5:-0.141909 6:0.0176803 7:-0.831266 8:-0.598509 9:0.182773 10:-0.400617 
8192 1:0.225258 2:0.143933 3:-0.361585 4:0.0988624 5:-0.0756239 6:0.211025 7:-0.98142 8:-0.828845 9:-0.269827 10:-0.890499 
8192 1:-0.201711 2:-0.190521 3:0.0304486 4:0.281854 5:0.241732 6:0.0504561 7:-0.687466 8:-0.504591 9:0.0912095 10:-0.303502 
8192 1:-0.0559989 2:0.178113 3:-0.118445 4:0.225672 5:0.145713 6:-0.437876 7:-0.996296 8:-0.814302 9:0.174838 10:-0.627667 
7956.470267169653 1:0.105429 2:-0.398622 3:0.08908 4:0.370041 5:0.328363 6:0.14114 7:-0.880213 8:-0.582115 9:-0.27637 10:-0.831487 
8192 1:-0.105299 2:-0.0568129 3:0.0393702 4:0.394874 5:-0.000470174 6:-0.282296 7:-0.932454 8:-0.991837 9:0.0187419 10:-0.352968 
8192 1:-0.270155 2:-0.102347 3:-0.415246 4:0.151224 5:0.0741822 6:-0.479315 7:-0.736889 8:-0.812672 9:0.128282 10:-0.624426 
8192 1:-0.0989884 2:-0.198391 3:-0.448636 4:-0.305003 5:0.0116392 6:0.0620044 7:-0.807247 8:-0.709093 9:0.347649 10:-0.411634 
8192 1:0.114966 2:0.13616 3:-0.390474 4:0.275556 5:0.542956 6:0.275603 7:-0.871636 8:-0.75531 9:0.0160102 10:-0.71166 
8192 1:0.000106363 2:-0.116249 3:-0.27867 4:-0.0405724 5:-0.167558 6:-0.172096 7:-0.974534 8:-0.900348 9:0.376527 10:-0.688406 
8192 1:0.173185 2:-0.317289 3:-0.0178601 4:0.245868 5:-0.0155918 6:-0.0606881 7:-0.976176 8:-0.910645 9:0.161687 10:-0.845491 
8192 1:-0.236854 2:-0.0456563 3:-0.331842 4:0.209704 5:-0.128459 6:-0.21852 7:-0.903513 8:-0.591942 9:-0.0464932 10:-0.522535 
8192 1:-0.362903 2:-0.301743 3:-0.36427 4:0.352481 5:0.32031 6:-0.444261 7:-0.992335 8:-0.69462 9:0.213615 10:-0.27648 
8192 1:0.325203 2:-0.176789 3:-0.54857 4:0.0376066 5:-0.181444 6:-0.353055 7:-0.730172 8:-0.548938 9:-0.0859334 10:-0.475841 
8192 1:-0.500002 2:-0.128338 3:0.173152 4:0.316516 5:0.0195152 6:0.173677 7:-0.929081 8:-0.849631 9:0.135463 10:-0.6422 
1847.096715800954 1:-0.283081 2:0.096192 3:-0.136321 4:0.271527 5:0.267006 6:-0.236318 7:-0.924348 8:-0.820492 9:-0.00197982 10:-0.213582 
8192 1:-0.131923 2:0.0145649 3:0.142972 4:0.277814 5:0.55111 6:-0.0798871 7:-0.903846 8:-0.688743 9:-0.118896 10:-0.619059 
8192 1:-0.213768 2:-0.148297 3:-0.499709 4:0.564952 5:0.350391 6:0.147462 7:-0.94208 8:-0.884019 9:0.466022 10:-0.685338 
8192 1:-0.33987 2:-0.391585 3:0.188735 4:-0.0647086 5:-0.00432131 6:-0.0599337 7:-0.919586 8:-0.712039 9:0.080634 10:-0.477675 
8192 1:0.178226 2:-0.154574 3:-0.162313 4:0.193537 5:0.0976753 6:-0.317159 7:-0.802395 8:-0.636528 9:-0.0960016 10:-0.788717 
8192 1:-0.263418 2:-0.250447 3:0.345999 4:0.0450186 5:0.363798 6:0.068367 7:-0.993624 8:-0.79812 9:0.380858 10:-0.448344 
5685.543396177842 1:-0.243164 2:0.0301106 3:-0.218838 4:-0.0206048 5:-0.288654 6:-0.0233114 7:-0.895602 8:-0.699751 9:-0.111325 10:-0.304221 
8192 1:0.231221 2:-0.235785 3:0.0874616 4:0.171201 5:0.0729336 6:-0.213794 7:-0.923511 8:-0.854515 9:0.0391905 10:-0.609179 
8192 1:0.190642 2:-0.224088 3:-0.280295 4:0.130341 5:0.0150592 6:-0.501033 7:-0.810072 8:-0.729418 9:0.247631 10:-0.27606 
8192 1:-0.0859483 2:-0.388691 3:0.187695 4:0.144687 5:0.151737 6:-0.293247 7:-0.99555 8:-0.756181 9:0.325119 10:-0.296647 
8192 1:-0.11802 2:-0.145575 3:-0.149512 4:0.100365 5:-0.0410924 6:0.585542 7:-0.962159 8:-0.879376 9:0.0604325 10:-0.318264 
8192 1:-0.0141628 2:-0.116715 3:-0.522337 4:0.309691 5:-0.023575 6:-0.280146 7:-0.964898 8:-0.777162 9:0.0430539 10:-0.417519 
8192 1:-0.0907252 2:-0.0811613 3:-0.46116 4:0.319739 5:0.00730428 6:0.236751 7:-0.975425 8:-0.991495 9:-0.0322754 10:-0.499248 
3070.813490200864 1:-0.507001 2:-0.0470784 3:0.0684226 4:-0.0520435 5:0.0198897 6:-0.386207 7:-0.994969 8:-0.743403 9:-0.103052 10:-0.588555 
1687.818955198018 1:-0.0554931 2:0.470662 3:0.197057 4:0.358709 5:0.29317 6:0.277036 7:-0.892405 8:-0.793909 9:0.0444457 10:-0.46618 
8192 1:0.0319632 2:-0.175686 3:-0.283079 4:0.203227 5:-0.0210115 6:0.138327 7:-0.944786 8:-0.789949 9:0.225322 10:-0.131405 
8192 1:-0.189678 2:0.00328568 3:-0.122709 4:0.3878 5:0.460022 6:-0.286982 7:-0.910262 8:-0.865634 9:-0.150089 10:-0.584856 
8192 1:-0.201165 2:0.163254 3:-0.264842 4:0.10719 5:0.0140721 6:-0.218665 7:-0.880695 8:-0.713054 9:-0.00629847 10:-0.491327 
8192 1:-0.472669 2:-0.0921462 3:-0.0219371 4:0.165302 5:0.0582333 6:-0.44403 7:-0.92264 8:-0.794453 9:-0.216755 10:-0.361898 
8192 1:0.406755 2:0.341981 3:-0.146782 4:0.249271 5:-0.116032 6:-0.387034 7:-0.907864 8:-0.621023 9:0.143996 10:-0.659809 
8192 1:0.15818 2:0.0601476 3:0.244285 4:0.275864 5:0.270752 6:-0.165972 7:-0.905758 8:-0.725769 9:0.308898 10:-0.277932 
8192 1:-0.157795 2:0.0555869 3:-0.14156 4:0.291017 5:0.215076 6:0.160095 7:-0.934575 8:-0.654815 9:-0.138056 10:-0.376034 
8192 1:-0.140115 2:-0.319055 3:-0.24432 4:0.108662 5:0.0917679 6:0.0467757 7:-0.895032 8:-0.726061 9:0.326095 10:-0.411024 
8192 1:-0.0442162 2:-0.167227 3:-0.12357 4:0.0110528 5:0.0840149 6:0.134745 7:-0.866613 8:-0.857438 9:0.216281 10:-0.572326 
8192 1:-0.0224615 2:0.159625 3:-0.0778756 4:0.429039 5:0.129565 6:-0.0717029 7:-0.886238 8:-0.688188 9:0.167866 10:-0.649763 
8192 1:0.480826 2:0.357575 3:-0.246159 4:0.193646 5:0.128264 6:-0.105717 7:-0.932803 8:-0.545427 9:-0.077127 10:-0.492503 
8192 1:-0.258582 2:0.145379 3:-0.361598 4:0.0219469 5:0.123724 6:-0.110173 7:-0.962914 8:-0.725251 9:0.291142 10:-0.574366 
1169.867962062716 1:-0.228716 2:0.0417331 3:-0.132823 4:-0.191926 5:0.115593 6:0.22063 7:-0.953321 8:-0.885272 9:-0.015248 10:-0.670844 
4994.269121238424 1:0.0125934 2:0.197729 3:-0.210685 4:0.599912 5:0.203591 6:-0.39358 7:-0.939909 8:-0.785459 9:0.456617 10:-0.266211 
8192 1:-0.381238 2:-0.597945 3:-0.123684 4:0.157551 5:0.00577866 6:0.164314 7:-0.900773 8:-0.688439 9:0.0867087 10:-0.324935 
8192 1:-0.0645032 2:-0.165486 3:-0.374199 4:0.619333 5:0.742536 6:-0.16457 7:-0.828902 8:-0.818017 9:0.628088 10:-0.770332 
8192 1:-0.167862 2:-0.226467 3:-0.231348 4:0.38402 5:0.114186 6:-0.0621988 7:-0.91276 8:-0.704854 9:-0.178524 10:-0.792167 
8192 1:0.0637941 2:0.0568619 3:-0.565885 4:-0.0498946 5:0.0728653 6:0.0203307 7:-0.959327 8:-0.669052 9:0.0623577 10:-0.599401 
8192 1:0.00510069 2:-0.12336 3:-0.245509 4:0.190383 5:-0.270042 6:-0.211395 7:-0.976027 8:-0.602817 9:-0.11087 10:-0.477145 
8192 1:-0.168455 2:-0.0788564 3:-0.222271 4:0.237173 5:0.0199346 6:-0.135705 7:-0.95522 8:-0.790581 9:-0.0768018 10:-0.583838 
8192 1:-0.0332183 2:0.172915 3:-0.165183 4:-0.0727075 5:-0.0377271 6:-0.282054 7:-0.879988 8:-0.638246 9:-0.239714 10:-0.537499 
3107.497443490355 1:0.0862579 2:0.050168 3:-0.497651 4:0.0977481 5:0.291276 6:0.3434 7:-0.795765 8:-0.584831 9:-0.0985902 10:-0.690445 
8192 1:-0.141226 2:-0.0759385 3:0.0268272 4:-0.0822387 5:0.0594956 6:-0.253613 7:-0.941554 8:-0.837984 9:0.0708389 10:-0.459122 
8192 1:-0.315347 2:-0.171419 3:-0.248566 4:-0.176296 5:-0.0437886 6:0.0519067 7:-0.90764 8:-0.855256 9:0.466893 10:-0.552568 
8192 1:-0.272528 2:-0.0362161 3:0.00279732 4:0.409549 5:0.685139 6:-0.163242 7:-0.829432 8:-0.747741 9:-0.02183 10:-0.56121 
8192 1:-0.189305 2:-0.189785 3:-0.190133 4:-0.00131376 5:-0.05272 6:0.00940425 7:-0.951398 8:-0.841724 9:-0.126622 10:-0.732283 
7761.645281631378 1:0.348485 2:-0.0160116 3:-0.602434 4:-0.475552 5:-0.362596 6:0.325364 7:-0.820256 8:-0.726148 9:-0.210147 10:-0.438824 
8192 1:0.0727026 2:0.0587745 3:-0.177865 4:0.274193 5:-0.0254596 6:-0.188568 7:-0.917668 8:-0.91042 9:0.358277 10:-0.453109 
8192 1:0.0753829 2:0.047201 3:-0.172545 4:0.0979869 5:0.154032 6:-0.129643 7:-0.906053 8:-0.591345 9:-0.0697775 10:-0.328586 
8192 1:0.154037 2:-0.243655 3:-0.283668 4:0.424154 5:0.308434 6:-0.0749416 7:-0.924175 8:-0.696451 9:0.295123 10:-0.489342 
8192 1:-0.31694 2:0.0419047 3:0.195339 4:0.399749 5:0.614204 6:0.0571614 7:-0.891566 8:-0.795426 9:0.211494 10:-0.625288 
8192 1:0.0126052 2:0.0149572 3:0.19739 4:0.330823 5:0.153519 6:-0.236518 7:-0.789182 8:-0.555398 9:-0.0115797 10:-0.592642 
8192 1:0.254389 2:-0.113577 3:0.218159 4:0.254206 5:0.324968 6:-0.20297 7:-0.978336 8:-0.85354 9:0.0581952 10:-0.690449 
8192 1:-0.122168 2:0.177108 3:0.181722 4:0.23377 5:0.106913 6:-0.1821 7:-0.995512 8:-0.849948 9:-0.033225 10:-0.551861 
8192 1:0.035433 2:0.212834 3:0.079945 4:0.117198 5:-0.270186 6:-0.0495585 7:-0.811424 8:-0.717079 9:-0.00542694 10:-0.404099 
8192 1:-0.446601 2:0.176618 3:-0.418394 4:0.10721 5:0.345863 6:0.376153 7:-0.950421 8:-0.787723 9:0.005864 10:-0.584012 
8192 1:0.0464215 2:0.0183165 3:-0.35451 4:0.163431 5:0.0849708 6:-0.398575 7:-0.908188 8:-0.625684 9:-0.252618 10:-0.748744 
4042.189241771674 1:-0.0392739 2:-0.353039 3:0.53822 4:-0.0120686 5:0.457524 6:0.141776 7:-0.927481 8:-0.633938 9:0.232437 10:-0.596552 
8192 1:-0.525225 2:0.0812593 3:-0.0932828 4:0.166684 5:0.196644 6:-0.507551 7:-0.952037 8:-0.730779 9:0.066065 10:-0.531298 
8192 1:-0.0677484 2:-0.242846 3:-0.28069 4:-0.205427 5:-0.450247 6:-0.282501 7:-0.841807 8:-0.824089 9:0.0525107 10:-0.735899 
8192 1:-0.445745 2:-0.00958733 3:-0.41933 4:-0.127745 5:-0.28577 6:-0.375475 7:-0.890069 8:-0.774006 9:0.284586 10:-0.575289 
8192 1:-0.431339 2:-0.23142 3:-0.245695 4:-0.0477854 5:0.165421 6:-0.252408 7:-0.912861 8:-0.77705 9:0.0928224 10:-0.271259 
8192 1:0.0147183 2:0.0996739 3:-0.0729888 4:0.0677022 5:-0.156084 6:-0.0747472 7:-0.898408 8:-0.693324 9:-0.174297 10:-0.545521 
8192 1:-0.203716 2:-0.0411446 3:-0.210209 4:0.106553 5:0.235698 6:-0.148926 7:-0.862426 8:-0.576276 9:0.140575 10:-0.645702 
8192 1:-0.417068 2:0.200598 3:0.172938 4:0.542139 5:0.436854 6:0.0745988 7:-0.862426 8:-0.820937 9:0.113154 10:-0.425225 
8192 1:0.0806018 2:-0.193193 3:-0.138468 4:0.0528484 5:-0.0100219 6:-0.254519 7:-0.961962 8:-0.594813 9:-0.153432 10:-0.325772 
8192 1:-0.2195 2:-0.207709 3:0.0182835 4:-0.185489 5:0.023298 6:0.192418 7:-0.817134 8:-0.701271 9:0.192503 10:-0.582987 
8192 1:-0.189579 2:-0.0962901 3:-0.0375023 4:0.0660109 5:0.121114 6:0.000407267 7:-0.972953 8:-0.780808 9:0.242557 10:-0.277783 
-8192 1:0.0474686 2:-0.22274 3:-0.294021 4:0.180882 5:0.280232 6:0.361191 7:-0.765008 8:-0.796085 9:0.0787088 10:-0.293873 
-8192 1:0.0545665 2:0.155114 3:-0.205012 4:0.0664586 5:0.250913 6:-0.115628 7:-0.948211 8:-0.804693 9:0.160178 10:-0.641473 
-8192 1:0.0347027 2:-0.0670132 3:0.171392 4:-0.0802688 5:0.215902 6:-0.132599 7:-0.830831 8:-0.664396 9:-0.07554 10:-0.366943 
-8192 1:0.0792782 2:-0.0603928 3:0.225876 4:0.206043 5:0.0627946 6:0.295799 7:-0.893788 8:-0.523218 9:-0.0682686 10:-0.411171 
-8192 1:0.10005 2:0.27764 3:-0.143845 4:0.547541 5:0.114853 6:0.0371691 7:-0.84154 8:-0.753077 9:0.226779 10:-0.471981 
-6425.508017273298 1:-0.328912 2:0.0141481 3:-0.364397 4:0.152358 5:0.538507 6:-0.0308401 7:-0.976795 8:-0.843071 9:0.272203 10:-0.590662 
-8192 1:-0.164541 2:-0.130667 3:-0.155695 4:0.0262548 5:0.496211 6:0.0190461 7:-0.934952 8:-0.804346 9:0.332846 10:-0.719665 
-8192 1:-0.131051 2:-0.00382512 3:-0.148451 4:0.294907 5:0.375835 6:0.261544 7:-0.841483 8:-0.684311 9:-0.0958585 10:-0.260049 
-4210.000700397923 1:-0.0354708 2:-0.317216 3:-0.570344 4:0.0201362 5:0.077052 6:-0.177638 7:-0.856903 8:-0.954672 9:0.200386 10:-0.473242 
-8192 1:-0.119833 2:0.0573523 3:-0.527624 4:0.184831 5:0.0475071 6:0.0628702 7:-0.934594 8:-0.681867 9:-0.168924 10:-0.621987 
-2159.154171197459 1:-0.265486 2:-0.0705196 3:0.0694576 4:0.115815 5:0.117981 6:0.0271491 7:-0.846646 8:-0.784391 9:-0.0603467 10:-0.399397 
-8192 1:-0.285003 2:-0.0913616 3:0.0336854 4:0.182981 5:0.159477 6:-0.00351345 7:-0.902426 8:-0.683621 9:-0.0943236 10:-0.284325 
-8192 1:-0.144505 2:-0.175196 3:-0.18371 4:0.386139 5:0.361859 6:-0.540811 7:-0.872914 8:-0.9231 9:0.175905 10:-0.692391 
-8192 1:-0.155124 2:-0.24851 3:-0.451013 4:0.0227528 5:-0.147157 6:0.346157 7:-0.883681 8:-0.822334 9:0.144542 10:-0.235257 
-8192 1:-0.121972 2:-0.0177035 3:0.239347 4:0.0471974 5:-0.0352514 6:-0.00424671 7:-0.904576 8:-0.793688 9:0.0418701 10:-0.386404 
-5719.422554959039 1:0.0393732 2:-0.0782189 3:-0.0925572 4:0.498602 5:0.409611 6:-0.166574 7:-0.890253 8:-0.960647 9:0.298687 10:-0.429744 
-8192 1:-0.356956 2:-0.111296 3:-0.128673 4:0.193437 5:0.205472 6:-0.628532 7:-0.931287 8:-0.834462 9:0.140575 10:-0.702675 
-847.7384470144683 1:-0.21247 2:0.0513204 3:0.0808063 4:0.221971 5:0.0697887 6:-0.299331 7:-0.985464 8:-0.855957 9:-0.0327307 10:-0.389706 
-8192 1:-0.0365746 2:-0.44418 3:-0.414076 4:-0.0723792 5:-0.135529 6:-0.0125122 7:-0.969709 8:-0.7001 9:0.136998 10:-0.240224 
-8192 1:0.180323 2:-0.282569 3:0.462909 4:0.178613 5:0.3175 6:-0.441793 7:-0.777895 8:-0.563256 9:0.147235 10:-0.255475 
-8192 1:0.0304363 2:0.0303558 3:0.0894119 4:0.137922 5:0.370999 6:-0.0936476 7:-0.939406 8:-0.729232 9:0.260938 10:-0.250221 
-8192 1:-0.217396 2:-0.0689993 3:0.241507 4:0.243451 5:0.148544 6:-0.0127472 7:-0.830176 8:-0.713039 9:0.108783 10:-0.533529 
-8192 1:-0.11438 2:0.148837 3:-0.167111 4:0.201665 5:0.0179447 6:-0.367697 7:-0.844198 8:-0.720819 9:0.0388523 10:-0.532386 
-3659.015838667543 1:0.0694857 2:-0.0117206 3:-0.0166223 4:0.330504 5:0.379834 6:-0.131819 7:-0.926532 8:-0.704042 9:0.225218 10:-0.181813 
-8192 1:0.0419991 2:0.0127504 3:0.347922 4:0.195188 5:0.184837 6:0.145469 7:-0.913504 8:-0.574246 9:0.0321662 10:-0.575189 
-5533.44032123548 1:0.297977 2:-0.00014712 3:-0.145348 4:0.474525 5:-0.225284 6:-0.0445017 7:-0.980184 8:-0.723724 9:0.0324003 10:-0.160437 
-8192 1:0.176222 2:-0.00738053 3:-0.586674 4:0.22992 5:0.0903866 6:-0.458117 7:-0.897199 8:-0.663202 9:0.596362 10:-0.754276 
-8192 1:0.325598 2:0.0943776 3:-0.230712 4:0.278083 5:0.37721 6:0.117829 7:-0.861361 8:-0.784775 9:-0.0883659 10:-0.903915 
-8192 1:-0.0318545 2:0.0599515 3:0.0772639 4:0.170246 5:0.193454 6:0.0351955 7:-0.896153 8:-0.771194 9:0.0113924 10:-0.245397 
-5786.607526392801 1:-0.0960386 2:-0.397347 3:-0.265501 4:0.166834 5:0.0843251 6:-0.0961371 7:-0.914383 8:-0.776874 9:-0.166544 10:-0.922413 
-8192 1:-0.34697 2:-0.233995 3:0.0461731 4:-0.0160581 5:-0.205423 6:0.010998 7:-0.854734 8:-0.773873 9:0.117447 10:-0.37537 
-8192 1:-0.0515954 2:-0.0760611 3:-0.209789 4:0.221384 5:0.00847874 6:-0.155146 7:-0.911617 8:-0.562827 9:-0.00893909 10:-0.42492 
-8192 1:-0.044956 2:-0.0657382 3:0.0531076 4:0.0370992 5:0.045523 6:-0.21837 7:-0.873574 8:-0.795886 9:0.0814665 10:-0.650863 
-937.9926470148359 1:-0.310792 2:-0.455141 3:0.0749344 4:0.392705 5:0.247955 6:0.0433921 7:-0.815936 8:-0.666123 9:-0.0401843 10:-0.180108 
-8192 1:-0.236903 2:-0.0892038 3:-0.118956 4:0.370738 5:0.354697 6:-0.102602 7:-0.875869 8:-0.91548 9:0.103918 10:-0.38797 
-8192 1:-0.281897 2:0.0880514 3:0.0871653 4:0.451454 5:0.745872 6:0.153068 7:-0.856321 8:-0.80405 9:0.208281 10:-0.295691 
-8192 1:0.0788031 2:-0.0231714 3:-0.289737 4:0.0255982 5:0.200948 6:-0.151066 7:-0.897546 8:-0.654523 9:0.241322 10:-0.756738 
-3183.796700944879 1:-0.394285 2:-0.515754 3:0.16612 4:0.020574 5:0.18424 6:-0.0919903 7:-0.807442 8:-0.718268 9:-0.078792 10:-0.558592 
-851.6344421908386 1:0.295719 2:0.146948 3:0.229682 4:0.100066 5:-0.105701 6:-0.134304 7:-0.999665 8:-0.668002 9:0.345516 10:-0.321146 
-8192 1:0.0121774 2:0.0661305 3:-0.164794 4:0.208102 5:0.218018 6:0.291963 7:-0.742538 8:-0.667763 9:0.0202118 10:-0.538626 
-8192 1:-0.429647 2:0.0277567 3:0.120936 4:0.551093 5:0.683188 6:-0.155305 7:-0.857447 8:-0.734024 9:0.0968419 10:-0.506818 
-8192 1:0.0250095 2:-0.0633352 3:0.0759761 4:0.214569 5:0.205622 6:-0.0262003 7:-0.744768 8:-0.777382 9:0.0164265 10:-0.522876 
-2924.256548855397 1:0.211308 2:-0.0920727 3:-0.339311 4:0.429994 5:0.447575 6:-0.357514 7:-0.896021 8:-0.528933 9:0.0329727 10:-0.780529 
-3389.133824169003 1:0.0473811 2:0.0484025 3:-0.0477632 4:0.727548 5:0.363675 6:0.0450035 7:-0.895047 8:-0.974568 9:0.361763 10:-0.459098 
-2209.318757951375 1:0.208379 2:-0.233553 3:-0.35431 4:0.0748257 5:-0.079239 6:-0.244762 7:-0.901694 8:-0.687909 9:0.0928094 10:-0.921211 
-1692.792214400784 1:-0.177962 2:-0.338818 3:-0.273803 4:0.30986 5:0.207458 6:-0.172055 7:-0.899414 8:-0.84872 9:0.403883 10:-0.273002 
-8192 1:-0.243318 2:-0.0723586 3:-0.399931 4:0.01354 5:0.181753 6:-0.015894 7:-0.88971 8:-0.690244 9:0.281022 10:-0.399393 
-5415.092075622139 1:0.119861 2:0.151583 3:-0.111361 4:0.336086 5:0.512092 6:-0.584322 7:-0.835867 8:-0.56456 9:0.0585984 10:-0.625215 
-8192 1:-0.352586 2:-0.431479 3:-0.000419746 4:0.0651155 5:0.325195 6:-0.205269 7:-0.80092 8:-0.789808 9:0.0885558 10:-0.406825 
-8192 1:0.122197 2:0.167668 3:-0.343852 4:0.300578 5:0.644482 6:-0.0306811 7:-0.919238 8:-0.664393 9:0.39293 10:-0.345456 
-8192 1:-0.107809 2:-0.47868 3:0.0744538 4:0.181419 5:-0.256887 6:0.0926051 7:-0.832105 8:-0.672448 9:-0.0957154 10:-0.200837 
-8192 1:0.128368 2:-0.0855258 3:0.0141394 4:0.369604 5:0.237065 6:-0.340312 7:-0.816779 8:-0.618692 9:0.333249 10:-0.690894 
-8192 1:0.14025 2:-0.864453 3:-0.934302 4:0.555411 5:0.316968 6:0.210552 7:-0.724696 8:-0.657896 9:0.194064 10:-0.610068 
-8192 1:0.166233 2:-0.239193 3:-0.267443 4:0.450021 5:-0.161814 6:-0.27857 7:-0.892519 8:-0.646172 9:-0.212996 10:-0.778913 
-3932.911572191908 1:0.238874 2:-0.530466 3:-0.432571 4:0.216569 5:0.146281 6:0.258403 7:-0.997567 8:-0.528432 9:0.136672 10:-0.658442 
-8192 1:-0.0587123 2:0.0920972 3:0.212707 4:0.158128 5:0.0480826 6:-0.366154 7:-0.907565 8:-0.764732 9:-0.0908895 10:-0.526921 
-8192 1:-0.0248322 2:0.241571 3:0.0550236 4:0.256961 5:0.281293 6:0.256159 7:-0.769266 8:-0.721507 9:-0.211343 10:-0.510475 
-8192 1:-0.721757 2:0.00988157 3:-0.0930326 4:0.431745 5:0.651622 6:-0.405337 7:-0.976495 8:-0.758533 9:0.306089 10:-0.423579 
-8192 1:-0.246672 2:-0.0423706 3:0.0992856 4:0.143285 5:0.0948523 6:-0.0695155 7:-0.821609 8:-0.778806 9:0.0913656 10:-0.439963 
-8192 1:0.0749551 2:-0.0208175 3:0.40984 4:0.174614 5:0.102359 6:-0.183412 7:-0.914162 8:-0.854593 9:0.225322 10:-0.420973 
-8192 1:0.190746 2:0.433735 3:-0.00112426 4:0.764329 5:0.375125 6:-0.578099 7:-0.846673 8:-0.737511 9:0.204834 10:-0.611712 
-8192 1:0.0533563 2:0.0759385 3:-0.0880759 4:0.0285928 5:0.0519669 6:0.0285873 7:-0.90761 8:-0.675741 9:0.195351 10:-0.622073 
-8192 1:-0.448608 2:0.0127259 3:-0.406797 4:0.531623 5:0.511604 6:0.144352 7:-0.966509 8:-0.844881 9:0.249218 10:-0.365931 
-8192 1:0.0912192 2:-0.0544344 3:0.258771 4:0.127814 5:-0.299854 6:0.0575731 7:-0.951337 8:-0.73021 9:-0.0368933 10:-0.1652 
-8192 1:0.121788 2:-0.00713533 3:-0.384298 4:0.0241556 5:0.43772 6:-0.495547 7:-0.943272 8:-0.614613 9:0.0122379 10:-0.84652 
-8192 1:-0.213132 2:0.204276 3:-0.36004 4:0.181319 5:0.00634443 6:0.0444663 7:-0.864672 8:-0.67945 9:0.122325 10:-0.435707 
-8192 1:0.0237402 2:-0.161685 3:-0.0977667 4:0.188333 5:0.0068107 6:0.15915 7:-0.804267 8:-0.649396 9:-0.115136 10:-0.72073 
-8192 1:-0.541385 2:0.0577201 3:-0.374024 4:-0.0173515 5:-0.0128917 6:-0.281872 7:-0.847898 8:-0.788654 9:-0.312689 10:-0.606863 
-8192 1:-0.27275 2:0.0219699 3:-0.0573959 4:0.145075 5:0.222392 6:0.129344 7:-0.901871 8:-0.699296 9:-0.146629 10:-0.673778 
-8192 1:-0.106561 2:-0.338548 3:-0.396278 4:-0.36021 5:-0.270001 6:0.370736 7:-0.802257 8:-0.734124 9:0.144958 10:-0.707413 
-1770.096169343868 1:0.260017 2:-0.360518 3:-0.728137 4:0.211624 5:0.192305 6:0.316395 7:-0.776457 8:-0.688961 9:-0.173165 10:-0.728871 
-8192 1:-0.187307 2:-0.0491626 3:0.0298244 4:0.193925 5:0.215939 6:0.0947484 7:-0.887704 8:-0.741249 9:-0.0875724 10:-0.671619 
-8192 1:-0.13289 2:-0.41917 3:-0.0744004 4:-0.236527 5:-0.071166 6:-0.338276 7:-0.934495 8:-0.851529 9:0.0764974 10:-0.368413 
-8192 1:0.0474449 2:0.166687 3:-0.378273 4:0.264373 5:0.00862311 6:-0.308149 7:-0.900793 8:-0.794271 9:0.0038998 10:-0.212455 
-1695.315538578037 1:-0.0812612 2:-0.600839 3:-0.0845033 4:-0.182067 5:-0.144133 6:-0.187496 7:-0.942217 8:-0.837661 9:0.200542 10:-0.374344 
-8192 1:-0.263529 2:0.127676 3:0.205188 4:0.381234 5:0.402672 6:-0.257341 7:-0.974346 8:-0.884134 9:0.0297077 10:-0.231813 
-8192 1:0.0484518 2:-0.0127504 3:-0.123318 4:0.159153 5:-0.176549 6:-0.283872 7:-0.896917 8:-0.73836 9:0.0775511 10:-0.329939 
-5152.51180987638 1:-0.218758 2:-0.224996 3:-0.521532 4:-0.00903416 5:0.235836 6:0.158552 7:-0.827185 8:-0.890706 9:0.199527 10:-0.7112 
-8192 1:-0.309178 2:-0.260819 3:-0.222092 4:-0.1366 5:0.0303057 6:-0.0999819 7:-0.904891 8:-0.714424 9:0.0638536 10:-0.733645 
-8192 1:0.251189 2:-0.0211117 3:-0.423714 4:-0.112046 5:-0.177548 6:0.101155 7:-0.99763 8:-0.664814 9:-0.376459 10:-0.428084 
-8192 1:0.0406401 2:0.227301 3:0.174042 4:0.0417354 5:0.0273852 6:0.475288 7:-0.82989 8:-0.641237 9:0.238785 10:-0.493254 
-8192 1:-0.305113 2:-0.141481 3:0.0931386 4:0.291554 5:0.220997 6:-0.0465972 7:-0.95797 8:-0.713873 9:0.409099 10:-0.28528 
-8192 1:-0.375759 2:-0.365986 3:-0.28044 4:0.0077398 5:-0.207479 6:-0.00261411 7:-0.896627 8:-0.524516 9:-0.235005 10:-0.24982 
-8192 1:-0.380581 2:0.11343 3:0.0501118 4:0.0310502 5:-0.059318 6:0.25933 7:-0.854596 8:-0.762122 9:0.0991183 10:-0.319089 
-8192 1:-0.110617 2:0.0753745 3:0.338098 4:0.208749 5:0.263803 6:-0.172096 7:-0.985285 8:-0.630728 9:-0.0955984 10:-0.448116 
-8192 1:-0.172272 2:-0.166638 3:0.30253 4:0.142857 5:-0.0118304 6:0.0411905 7:-0.890133 8:-0.730733 9:0.369932 10:-0.306171 
-2041.14751935761 1:0.0800227 2:-0.463968 3:-0.429492 4:0.083143 5:-0.1821 6:-0.479661 7:-0.924879 8:-0.827468 9:0.123469 10:-0.269962 
-8192 1:-0.0261534 2:0.0784395 3:0.0944989 4:-0.005751 5:0.111283 6:-0.130607 7:-0.926954 8:-0.866144 9:0.492181 10:-0.393264 
-8192 1:0.0817009 2:0.226933 3:0.0136297 4:0.143772 5:0.161478 6:-0.439076 7:-0.926016 8:-0.690654 9:0.136139 10:-0.438824 
-8192 1:-0.494573 2:-0.0412182 3:-0.349479 4:0.0356765 5:-0.117386 6:-0.679346 7:-0.934239 8:-0.902096 9:0.235104 10:-0.360464 
-8192 1:-0.30736 2:-0.14994 3:0.0938194 4:0.135156 5:0.150959 6:-0.298942 7:-0.928357 8:-0.704471 9:0.206642 10:-0.439752 
-8192 1:-0.122428 2:0.0732413 3:-0.0628767 4:0.218519 5:-0.15889 6:-0.184252 7:-0.974391 8:-0.695541 9:-0.0984211 10:-0.314763 
-8192 1:-0.120062 2:-0.273938 3:0.251554 4:0.0151916 5:0.0650811 6:0.393781 7:-0.944243 8:-0.738095 9:-0.0712214 10:-0.165316 
-8192 1:0.197821 2:-0.243606 3:-0.579379 4:-0.262395 5:-0.0642441 6:-0.210481 7:-0.911935 8:-0.769101 9:0.14929 10:-0.287574 
-8192 1:-0.087981 2:-0.0166981 3:-0.170494 4:0.257081 5:0.156244 6:-0.0555147 7:-0.86022 8:-0.74479 9:-0.354845 10:-0.829038 
-8192 1:-0.00368016 2:-0.0747125 3:-0.316147 4:0.0803673 5:-0.181971 6:-0.237453 7:-0.88651 8:-0.731469 9:0.168971 10:-0.751502 
-5100.013966471369 1:-0.0450411 2:0.0474217 3:-0.480333 4:0.186274 5:-0.000969612 6:-0.387705 7:-0.859632 8:-0.705858 9:-0.110219 10:-0.708925 
-8192 1:0.00771722 2:0.110193 3:-0.0218673 4:0.47361 5:0.0520508 6:-0.0353298 7:-0.849077 8:-0.663348 9:0.0722828 10:-0.600718 
-8192 1:-0.0765978 2:-0.287939 3:-0.286805 4:-0.185469 5:0.155895 6:0.239926 7:-0.988035 8:-0.66545 9:0.344982 10:-0.474466 
-8192 1:-0.126837 2:0.112768 3:-0.0573314 4:0.281496 5:0.391117 6:-0.212504 7:-0.958314 8:-0.778015 9:0.291637 10:-0.695055 
-8192 1:0.145618 2:0.172915 3:-0.00620731 4:0.104603 5:-0.175437 6:-0.339948 7:-0.935768 8:-0.679197 9:-0.0289454 10:-0.603892 
-6438.65250292164 1:-0.0229389 2:0.0467106 3:-0.0721947 4:0.334822 5:0.51574 6:0.13127 7:-0.974194 8:-0.623175 9:0.305464 10:-0.483322 
-8192 1:-0.252052 2:-0.139642 3:0.381778 4:0.100385 5:-0.0840402 6:0.109767 7:-0.98458 8:-0.71922 9:0.321399 10:-0.519647 
-8192 1:0.0821098 2:0.415198 3:-0.477722 4:0.176703 5:0.128358 6:0.12048 7:-0.967943 8:-0.642657 9:0.21152 10:-0.3755 
-8192 1:-0.246535 2:0.147782 3:-0.310692 4:0.389034 5:0.406892 6:0.124718 7:-0.901878 8:-0.863291 9:0.223969 10:-0.412802 
-8192 1:-0.120332 2:0.0661305 3:-0.321259 4:0.113587 5:0.208092 6:0.123333 7:-0.915845 8:-0.712636 9:-0.170837 10:-0.413398 
-8192 1:0.0151461 2:0.132163 3:-0.326741 4:0.0832624 5:0.111224 6:-0.135366 7:-0.798921 8:-0.758899 9:-0.0752799 10:-0.57213 
-8192 1:-0.45255 2:-0.00213324 3:-0.114503 4:0.26299 5:0.0260781 6:-0.16262 7:-0.992283 8:-0.757215 9:0.204236 10:-0.478822 
-2253.197107845117 1:0.174664 2:0.154403 3:-0.265283 4:0.284789 5:-0.156072 6:-0.0850535 7:-0.866083 8:-0.627651 9:-0.0138821 10:-0.445944 
-8192 1:-0.587957 2:0.0461222 3:-0.0718484 4:0.161451 5:0.512287 6:0.0710385 7:-0.950465 8:-0.76635 9:0.0114704 10:-0.445956 
-8192 1:-0.00892739 2:-0.0227791 3:0.0488529 4:0.188134 5:-0.153109 6:-0.0625168 7:-0.857004 8:-0.772475 9:-0.106161 10:-0.690348 
-8192 1:-0.0504373 2:-0.000907241 3:0.106333 4:0.242923 5:-0.0527122 6:-0.552711 7:-0.986803 8:-0.874151 9:0.106494 10:-0.455166 
-1278.999828863432 1:-0.45347 2:-0.41917 3:-0.269555 4:-0.425002 5:-0.236115 6:-0.265587 7:-0.880666 8:-0.65894 9:-0.379538 10:-0.551551 
-8192 1:0.206174 2:0.110708 3:0.0392701 4:-0.053705 5:-0.0253055 6:-0.207242 7:-0.8762 8:-0.747576 9:-0.0252771 10:-0.406508 
-8192 1:-0.0652406 2:0.0723831 3:-0.303045 4:0.10901 5:0.114245 6:0.0076568 7:-0.796216 8:-0.683368 9:0.263539 10:-0.684487 
-8192 1:-0.243046 2:0.0253782 3:-0.185487 4:0.391641 5:0.270036 6:0.0153975 7:-0.881414 8:-0.693659 9:0.109863 10:-0.246324 
-1867.40164318964 1:-0.459518 2:-0.135743 3:-0.0346013 4:0.554833 5:1 6:0.213601 7:-0.963553 8:-0.782778 9:0.222044 10:-0.451506 
-8192 1:-0.153021 2:-0.0711326 3:-0.227812 4:0.346671 5:0.367711 6:-0.0156113 7:-0.951464 8:-0.618697 9:0.213706 10:-0.440916 
-8192 1:-0.173735 2:-0.295368 3:0.148112 4:0.348174 5:0.0840012 6:-0.254058 7:-0.984013 8:-0.600813 9:0.0192883 10:-0.48232 
-8192 1:-0.424799 2:-0.238899 3:-0.0596451 4:0.183299 5:0.131518 6:0.388569 7:-0.88995 8:-0.789831 9:0.547491 10:-0.336236 
-8192 1:-0.460182 2:-0.298899 3:-0.175981 4:0.0328112 5:0.234543 6:-0.0797563 7:-0.904069 8:-0.642369 9:0.328111 10:-0.607659 
-8192 1:0.221131 2:0.00144668 3:-0.420526 4:0.566802 5:0.273991 6:-0.279879 7:-0.841175 8:-0.665604 9:0.0157891 10:-0.212536 
-8192 1:-0.145119 2:0.350048 3:0.179009 4:0.275148 5:0.0482972 6:-0.159432 7:-0.895105 8:-0.774844 9:-0.018604 10:-0.708993 
-1853.406145909634 1:-0.649589 2:-0.284972 3:-0.0837014 4:0.0351293 5:0.32285 6:0.190812 7:-0.997309 8:-0.796188 9:0.363922 10:-0.460156 
-8192 1:0.0263189 2:0.0625261 3:0.386216 4:0.447265 5:0.177176 6:-0.262237 7:-0.911401 8:-0.776785 9:0.247175 10:-0.192986 
-8192 1:-0.538945 2:-0.0644631 3:-0.0570417 4:0.330713 5:0.0132683 6:-0.242912 7:-0.948362 8:-0.709718 9:0.0894404 10:-0.515179 
-8192 1:0.202189 2:0.145036 3:0.141913 4:-0.141952 5:-0.131514 6:0.0655135 7:-0.844016 8:-0.729176 9:-0.124762 10:-0.334411 
-8192 1:-0.225165 2:0.0737317 3:0.00342809 4:0.0686474 5:0.151016 6:-0.161542 7:-0.98252 8:-0.81486 9:0.0916387 10:-0.329693 
-5723.447634523216 1:-0.0151673 2:0.211264 3:-0.682343 4:0.17152 5:0.28428 6:-0.091727 7:-0.955849 8:-0.772082 9:0.0244134 10:-0.617925 
-8192 1:-0.1133 2:0.00105436 3:-0.0765548 4:0.166396 5:0.217935 6:-0.168371 7:-0.836701 8:-0.631584 9:0.316482 10:-0.464959 
-8192 1:0.0448615 2:-0.0910674 3:0.234541 4:0.36638 5:0.537122 6:-0.216939 7:-0.895172 8:-0.632756 9:0.371688 10:-0.677786 
-8192 1:-0.323168 2:-0.0603928 3:-0.0879601 4:0.0779198 5:-0.00711894 6:-0.423681 7:-0.877171 8:-0.774217 9:0.186129 10:-0.495522 
-8192 1:-0.0360216 2:-0.0370743 3:-0.320974 4:-0.0390502 5:0.0693497 6:0.133084 7:-0.939759 8:-0.770808 9:0.460584 10:-0.890707 
-8192 1:-0.231379 2:-0.0130692 3:-0.505372 4:0.0862869 5:-0.0329063 6:-0.0532372 7:-0.851018 8:-0.829546 9:0.430419 10:-0.540206 
-8192 1:-0.211473 2:-0.242037 3:-0.0328828 4:-0.0220275 5:0.210515 6:-0.189112 7:-0.926152 8:-0.715099 9:0.049818 10:-0.280936 
-8192 1:-0.135086 2:-0.0153495 3:0.25299 4:0.566175 5:0.770766 6:-0.221314 7:-0.903804 8:-0.558405 9:-0.0919171 10:-0.656374 
-8192 1:-0.0471377 2:-0.152662 3:0.248565 4:0.090157 5:0.00830316 6:0.0305662 7:-0.895898 8:-0.646749 9:-0.213763 10:-0.617025 
-8192 1:-0.0835208 2:-0.045926 3:-0.265364 4:0.163889 5:0.107635 6:-0.303322 7:-0.830238 8:-0.798272 9:0.240424 10:-0.497667 
-8192 1:-0.19935 2:-0.0605645 3:-0.371364 4:0.0541318 5:0.29836 6:-0.228586 7:-0.986381 8:-0.638373 9:0.0216817 10:-0.543323 
-8192 1:0.0222464 2:-0.055685 3:-0.0424615 4:-0.0664099 5:-0.387829 6:0.266355 7:-0.835312 8:-0.795223 9:0.321373 10:-0.471477 
-8192 1:-0.142233 2:0.161513 3:-0.529698 4:0.157541 5:-0.188721 6:-0.585944 7:-0.988515 8:-0.73441 9:-0.20895 10:-0.272626 
-8192 1:-0.369928 2:-0.1686 3:0.137998 4:0.239839 5:0.461953 6:0.251787 7:-0.991732 8:-0.636312 9:-0.0520476 10:-0.420528 
-8192 1:-0.0188239 2:0.0829512 3:-0.0256256 4:0.37614 5:0.0868261 6:-0.39528 7:-0.896615 8:-0.655348 9:0.55657 10:-0.328043 
-8192 1:-0.317741 2:-0.00228036 3:-0.271523 4:-0.201537 5:-0.251016 6:-0.0749557 7:-0.909615 8:-0.766261 9:-0.195318 10:-0.59797 
-8192 1:-0.331864 2:-0.141505 3:-0.151785 4:0.162814 5:-0.0547685 6:-0.135401 7:-0.791366 8:-0.716678 9:0.512265 10:-0.608682 
-8192 1:-0.299419 2:-0.0469313 3:-0.449585 4:-0.118393 5:0.132199 6:-0.1139 7:-0.919139 8:-0.746339 9:0.15491 10:-0.688154 
