svm_type c_svc
kernel_type polynomial
degree 2
gamma 0.25
coef0 1
nr_class 2
total_sv 21
rho 12.8994
label 1 -1
nr_sv 11 10
SV
190.3329515454933 1:-0.136199 2:0.037393 3:-0.294355 4:-0.157751 5:0.133528 6:-0.0467509 7:-0.41234 8:-0.47729 9:-0.115279 10:-0.264066 
107.8266385285687 1:0.104177 2:0.245494 3:0.0748343 4:0.140519 5:-0.0225371 6:0.0330876 7:-0.415244 8:-0.463797 9:-0.207649 10:-0.509097 
5.885875642720166 1:0.154857 2:-0.138783 3:-0.29672 4:0.422005 5:0.227211 6:0.0687221 7:-0.316771 8:-0.623606 9:-0.119039 10:-0.49209 
74.10802057127376 1:0.381505 2:-0.421916 3:-0.0230103 4:0.099529 5:-0.221173 6:0.108968 7:-0.463219 8:-0.429202 9:-0.147591 10:-0.415166 
28.29017579731304 1:0.149017 2:0.0438418 3:-0.710523 4:-0.287675 5:-0.275754 6:-0.0328155 7:0.036473 8:-0.628282 9:-0.144157 10:-0.904549 
10.72688785661408 1:0.598341 2:-0.237967 3:-0.373252 4:-0.193956 5:-0.298828 6:-0.293641 7:-0.522032 8:-0.224511 9:-0.418111 10:-0.353194 
3.895206203314732 1:-0.0922686 2:-0.0913616 3:-0.315738 4:-0.269309 5:-0.312549 6:0.0732153 7:-0.437463 8:-0.506318 9:-0.0483533 10:-0.124887 
29.86415015667637 1:0.253751 2:0.0900375 3:0.00104196 4:0.267468 5:0.0791453 6:-0.0589424 7:-0.512393 8:-0.364918 9:-0.00166762 10:-0.39094 
73.24009091579268 1:-0.317068 2:-0.0178751 3:0.09782 4:-0.355552 5:-0.430598 6:-0.0874123 7:-0.623747 8:-0.256005 9:-0.271714 10:-0.313709 
30.31053736464167 1:-0.294542 2:-0.24493 3:-0.0250067 4:-0.150638 5:-0.375263 6:-0.156808 7:-0.51896 8:-0.468604 9:-0.0797546 10:-0.322211 
50.16879543162068 1:0.158523 2:-0.220582 3:-0.323609 4:-0.167959 5:-0.380088 6:0.529832 7:-0.530147 8:-0.374565 9:-0.252202 10:-0.114177 
-25.68186795317468 1:-0.167966 2:0.145649 3:0.29509 4:-0.1152 5:-0.296087 6:0.111587 7:-0.416488 8:-0.42632 9:0.241088 10:-0.366489 
-37.01052739715318 1:-0.101988 2:0.266508 3:-0.344516 4:-0.235005 5:0.175106 6:-0.159171 7:-0.384145 8:-0.327073 9:-0.529929 10:-0.344207 
-139.8668093521513 1:0.216054 2:0.287105 3:-0.0133354 4:-0.0602912 5:-0.0605549 6:-0.042915 7:-0.366908 8:-0.412882 9:-0.0281779 10:-0.238996 
-52.03378625533124 1:0.215347 2:-0.134688 3:0.105709 4:0.0199969 5:-0.0835427 6:0.0914514 7:-0.424594 8:-0.417375 9:-0.404746 10:-0.222123 
-56.3563577348405 1:0.128016 2:-0.483486 3:-0.0656355 4:-0.150349 5:-0.572323 6:0.305944 7:-0.427795 8:-0.447262 9:-0.0346429 10:-0.269077 
-26.94444182183607 1:-0.0979838 2:0.0466126 3:-0.105071 4:-0.700048 5:-0.896757 6:-0.164574 7:-0.41376 8:-0.297609 9:-0.460177 10:-0.474225 
-21.82166297228567 1:-0.0160419 2:0.2388 3:-0.0228009 4:0.184792 5:-0.0222113 6:-0.127162 7:-0.451911 8:-0.376311 9:-0.262803 10:-0.302938 
-206.2258053184183 1:-0.205829 2:-0.162004 3:-0.336697 4:0.0408102 5:0.0394537 6:0.0831576 7:-0.400142 8:-0.404314 9:-0.182999 10:-0.474968 
-29.56893262457458 1:0.23597 2:-0.220386 3:-0.106782 4:-0.191966 5:-0.166139 6:-0.341805 7:-0.387815 8:-0.392984 9:-0.157777 10:-0.220494 
-9.139138584263693 1:0.334216 2:-0.539563 3:-0.222558 4:-0.193578 5:0.0456167 6:0.010998 7:-0.362432 8:-0.216655 9:-0.0530102 10:-0.664301 
