svm_type c_svc
kernel_type polynomial
degree 2
gamma 0.25
coef0 1
nr_class 2
total_sv 38
rho 1.19731
label 1 -1
nr_sv 21 17
SV
73.20341103292238 1:0.0983171 2:0.163058 3:-0.0825899 4:-0.0980177 5:-0.107996 6:-0.161816 7:-0.844587 8:-0.240302 9:0.0161013 10:-0.111858 
18.68497831834457 1:-0.212738 2:0.536228 3:0.535362 4:0.00802832 5:0.0331209 6:0.0198607 7:-0.651337 8:-0.134081 9:-0.346614 10:-0.163461 
16.8857082570439 1:-0.226647 2:-0.0129221 3:-0.0923741 4:-0.349479 5:-0.179544 6:0.73836 7:-0.823492 8:-0.360231 9:0.207345 10:-0.253006 
70.01528369021868 1:-0.0649924 2:0.119976 3:0.153786 4:0.0555247 5:0.239855 6:-0.143306 7:-0.436893 8:-0.394748 9:-0.32039 10:-0.226205 
41.88182926589023 1:-0.242692 2:0.0345487 3:0.0973551 4:0.0707367 5:-0.0125601 6:0.0186362 7:-0.354072 8:-0.737108 9:0.0219809 10:-0.580102 
17.30437618357433 1:-0.0591354 2:-0.121448 3:0.319991 4:-0.10142 5:-0.516509 6:-0.191466 7:-0.30921 8:-0.636132 9:-0.0174333 10:-0.467487 
128 1:0.00875957 2:-0.075914 3:-0.323674 4:-0.029141 5:-0.0347227 6:-0.126623 7:-0.196895 8:-0.652987 9:-0.384273 10:-0.316258 
1.057020072613273 1:-0.626125 2:-0.109139 3:0.301726 4:-0.000686976 5:-0.144104 6:0.14588 7:-0.544672 8:-0.477793 9:0.0568423 10:-0.417344 
57.68860490327286 1:0.0800841 2:-0.167472 3:0.103363 4:0.54382 5:0.321644 6:-0.338367 7:-0.584127 8:-0.288638 9:0.44089 10:-0.585278 
9.462363088511143 1:0.0654344 2:-0.131158 3:0.202423 4:-0.0533568 5:-0.40942 6:-0.185471 7:-0.594416 8:-0.0709644 9:-0.613941 10:0.00502353 
39.42858035414506 1:0.20303 2:0.191845 3:-0.0465504 4:-0.0688672 5:-0.204608 6:0.22184 7:-0.187236 8:-0.737772 9:-0.140489 10:-0.299785 
128 1:0.0948048 2:0.0901111 3:0.20129 4:-0.0314989 5:-0.231761 6:-0.181282 7:-0.280642 8:-0.526925 9:-0.188059 10:-0.259032 
5.919795479006699 1:0.54657 2:-0.453645 3:-0.26936 4:0.374807 5:0.0366833 6:0.675317 7:-0.890736 8:-0.477351 9:-0.254153 10:0.148228 
19.6971758015671 1:0.365052 2:-0.126057 3:0.0793828 4:-0.872351 5:-0.479488 6:-0.19404 7:-0.483131 8:-0.392026 9:0.221836 10:-0.195449 
128 1:0.155928 2:-0.0785131 3:-0.0748218 4:0.0651453 5:-0.556372 6:-0.250551 7:-0.0655777 8:-0.0673228 9:-0.0973935 10:-0.0188729 
128 1:-0.135138 2:-0.0941324 3:0.0377518 4:0.301652 5:-0.1739 6:-0.0834226 7:-0.0897777 8:-0.0204936 9:0.0657788 10:-0.094364 
93.81711828971521 1:-0.267061 2:-0.201898 3:-0.0200514 4:0.0584198 5:0.191045 6:0.284812 7:-0.352568 8:-0.0480976 9:-0.633491 10:-0.042587 
15.94654898152366 1:-0.101425 2:0.103769 3:0.0295096 4:-0.0319964 5:0.241882 6:0.624643 7:-0.0319633 8:-0.539444 9:0.0442506 10:-0.127107 
3.065044604180288 1:-0.290087 2:0.0708874 3:0.0115201 4:-0.275935 5:-0.573772 6:0.0607199 7:-0.754478 8:-0.0962031 9:-0.0650296 10:-0.0541252 
11.09680245048337 1:0.0137444 2:0.345536 3:0.0518724 4:0.00948087 5:-0.120345 6:-0.294938 7:-0.468213 8:0.408984 9:-0.0276966 10:0.207352 
87.65858202370869 1:-0.324955 2:-0.0101022 3:0.109013 4:-0.254933 5:-0.0264371 6:0.126602 7:-0.444414 8:-0.382087 9:0.335096 10:-0.268967 
-128 1:-0.167966 2:0.145649 3:0.29509 4:-0.1152 5:-0.296087 6:0.111587 7:-0.416488 8:-0.42632 9:0.241088 10:-0.366489 
-112.8257790945649 1:0.215347 2:-0.134688 3:0.105709 4:0.0199969 5:-0.0835427 6:0.0914514 7:-0.424594 8:-0.417375 9:-0.404746 10:-0.222123 
-101.4566547301468 1:-0.0881134 2:0.390481 3:-0.0611187 4:-0.0325038 5:-0.323371 6:-0.455137 7:-0.38897 8:-0.269156 9:-0.145705 10:-0.186076 
-70.00922407704933 1:-0.0160419 2:0.2388 3:-0.0228009 4:0.184792 5:-0.0222113 6:-0.127162 7:-0.451911 8:-0.376311 9:-0.262803 10:-0.302938 
-80.54379779648629 1:-0.179399 2:-0.324081 3:-0.199442 4:-0.103042 5:-0.151172 6:0.207308 7:-0.397161 8:-0.425133 9:-0.262543 10:-0.263261 
-104.4992626730332 1:0.23597 2:-0.220386 3:-0.106782 4:-0.191966 5:-0.166139 6:-0.341805 7:-0.387815 8:-0.392984 9:-0.157777 10:-0.220494 
-24.7276629349129 1:-0.107214 2:0.0920972 3:0.0781067 4:0.175708 5:-0.508377 6:-0.0723655 7:-0.10283 8:-0.117722 9:-0.356766 10:-0.176711 
-38.65160919422608 1:-0.161248 2:-0.27124 3:0.0082504 4:0.478157 5:-0.174942 6:-0.0176273 7:-0.193834 8:-0.246455 9:-0.0440607 10:-0.325435 
-1.774591980131221 1:0.118063 2:-0.097982 3:-0.247464 4:0.139633 5:-0.449096 6:-0.274866 7:-0.193076 8:-0.10427 9:-0.0712864 10:-0.107716 
-15.84830789682496 1:-0.325265 2:-0.108378 3:-0.203703 4:0.112731 5:0.0716752 6:0.113725 7:-0.301805 8:-0.282614 9:-0.00631148 10:-0.263705 
-0.8178493413132137 1:-0.127527 2:-0.149964 3:0.122209 4:0.206381 5:-0.288277 6:0.0314179 7:-0.339359 8:-0.184329 9:-0.0504606 10:-0.235652 
-17.75415854854386 1:0.199532 2:-0.127259 3:-0.150658 4:0.229681 5:-0.337766 6:0.0575996 7:-0.285508 8:-0.24535 9:-0.196215 10:-0.099135 
-0.3092049738004322 1:0.0507067 2:-0.218719 3:-0.315866 4:-0.0361053 5:-0.578743 6:0.421999 7:-0.229755 8:-0.0790578 9:-0.297652 10:-0.00681285 
-128 1:0.135119 2:0.0762573 3:-0.175978 4:0.0227229 5:-0.0831935 6:-0.135604 7:-0.0842101 8:-0.194932 9:-0.140073 10:-0.00435281 
-59.90853868302518 1:-0.124877 2:0.0193218 3:0.339112 4:0.24559 5:0.350018 6:0.288874 7:-0.376728 8:-0.311451 9:-0.055989 10:-0.353659 
-81.6865808726632 1:0.043396 2:-0.0640708 3:-0.105905 4:0.393571 5:0.226437 6:-0.0461042 7:-0.322921 8:-0.227014 9:0.209803 10:-0.248122 
-128 1:-0.254278 2:-0.115318 3:0.0918441 4:-0.194602 5:-0.0470857 6:-0.0365083 7:-0.272816 8:-0.264861 9:-0.0883399 10:-0.220439 
