svm_type c_svc
kernel_type polynomial
degree 2
gamma 8
coef0 1
nr_class 2
total_sv 96
rho 119.463
label 1 -1
nr_sv 47 49
SV
241.7862510902189 1:-0.55542 2:-0.575411 3:-0.572885 4:-0.30026 5:-0.116238 6:0.559356 7:-0.691752 8:-0.521872 9:-0.0703368 10:-0.083712 
380.1150285882295 1:-0.106377 2:0.0810387 3:0.142675 4:-0.0126257 5:0.195075 6:-0.0120775 7:-0.996626 8:-0.717284 9:0.201101 10:0.0803241 
485.7407230449547 1:-0.470462 2:-0.00500208 3:0.352939 4:0.236427 5:-0.0855873 6:0.204541 7:-0.948336 8:-0.55416 9:0.0378767 10:0.0257558 
841.2002867843686 1:0.153198 2:-0.300051 3:-0.105381 4:0.943709 5:0.224177 6:-0.332163 7:-0.821709 8:-0.491754 9:-0.0114757 10:-0.206736 
624.2583058343187 1:0.194129 2:-0.334453 3:-0.268822 4:0.117755 5:0.00444032 6:-0.379146 7:-0.999961 8:-0.558904 9:0.155755 10:0.0248116 
94.84786818789284 1:-0.0507114 2:0.225486 3:-0.0834459 4:-0.304636 5:-0.290412 6:-0.171694 7:-0.834774 8:-0.53164 9:0.191267 10:0.0168019 
1109.431608164476 1:-0.214224 2:0.113209 3:0.300278 4:-0.379257 5:-0.181401 6:-0.0100333 7:-0.89839 8:-0.466139 9:0.142578 10:-0.0543157 
545.6774197641477 1:-0.275641 2:0.684771 3:0.16871 4:-0.214401 5:-0.126186 6:-0.482119 7:-0.940264 8:-0.89207 9:0.455589 10:0.175288 
690.4142232427196 1:-0.168807 2:-0.151779 3:-0.174771 4:0.196382 5:0.419194 6:-0.328546 7:-0.794494 8:-0.64578 9:0.319435 10:0.101073 
258.4708005092644 1:0.222937 2:-0.301327 3:-0.404339 4:0.149453 5:0.414965 6:0.182432 7:-0.892703 8:-0.629548 9:0.0316719 10:0.110126 
1796.563588575038 1:-0.0649097 2:0.11343 3:0.487798 4:0.0599221 5:-0.0159352 6:0.266583 7:-0.833301 8:-0.743302 9:-0.251434 10:-0.0887812 
1519.473586660739 1:-0.146187 2:-0.283917 3:-0.0638235 4:-0.115936 5:0.064289 6:0.461329 7:-0.893989 8:-0.88262 9:0.0197175 10:-0.0880606 
1620.229735726315 1:-0.0919731 2:-0.0590442 3:0.185567 4:0.357735 5:0.176407 6:0.0547001 7:-0.943986 8:-0.779213 9:0.0932777 10:-0.0520545 
490.721334266752 1:-0.266222 2:-0.580315 3:0.0214373 4:0.286908 5:0.259987 6:-0.830895 7:-0.917034 8:-0.430825 9:0.491908 10:-0.473797 
1594.494533882424 1:-0.0200648 2:0.169041 3:-0.370273 4:-0.0933019 5:-0.559954 6:-0.157178 7:-0.797394 8:-0.77841 9:0.276899 10:0.0787503 
709.4943542415272 1:-0.262768 2:0.543266 3:0.388296 4:-0.0870938 5:0.0114481 6:-0.292949 7:-0.695331 8:-0.895072 9:0.198525 10:-0.488085 
2048 1:-0.187489 2:0.140647 3:0.0788178 4:-0.291137 5:-0.17925 6:-0.00913568 7:-0.7266 8:-0.57395 9:0.297373 10:-0.148493 
940.929601266896 1:-0.450489 2:0.404924 3:0.0150559 4:0.0330599 5:-0.310239 6:-0.312853 7:-0.990615 8:-0.692699 9:-0.13937 10:0.398647 
2048 1:0.0511487 2:-0.329843 3:-0.211743 4:-0.295753 5:0.239071 6:-0.0928066 7:-0.79506 8:-0.506841 9:-0.15965 10:0.0376999 
1068.950702839009 1:-0.224816 2:-0.26055 3:-0.14885 4:-0.392007 5:-0.309002 6:-0.0346566 7:-0.861301 8:-0.79783 9:-0.0676312 10:0.0640066 
2048 1:0.0626028 2:-0.453743 3:-0.0987977 4:-0.0990226 5:-0.332111 6:-0.303605 7:-0.875762 8:-0.774687 9:0.0571805 10:0.00159437 
2048 1:-0.198738 2:0.131673 3:-0.0540288 4:-0.359684 5:-0.367032 6:-0.117244 7:-0.922168 8:-0.644454 9:0.202415 10:0.280317 
1446.954587399561 1:-0.184875 2:0.279872 3:0.221201 4:-0.162736 5:-0.0747343 6:0.308745 7:-0.943997 8:-0.829277 9:0.167241 10:-0.0528082 
53.62826717186442 1:0.143935 2:0.329819 3:-0.478291 4:0.29627 5:0.304491 6:-0.531323 7:-0.537259 8:-0.396547 9:-0.0734978 10:-0.165051 
644.5880023618954 1:0.0462678 2:-0.139642 3:0.209876 4:0.406524 5:-0.00359752 6:-0.0434309 7:-0.998347 8:-0.263421 9:-0.078779 10:-0.360852 
1589.422523180127 1:0.00955848 2:-0.155653 3:-0.0644148 4:0.129256 5:0.178959 6:-0.2769 7:-0.744423 8:-0.810542 9:0.190604 10:-0.176391 
1214.5479545133 1:0.0367779 2:2.22045e-016 3:-0.135974 4:0.12075 5:0.0346446 6:0.210147 7:-0.939198 8:-0.651182 9:0.0613171 10:0.0614638 
2048 1:-0.0939775 2:-0.156904 3:-0.0798785 4:-0.00702447 5:0.00710139 6:0.0113655 7:-0.974788 8:-0.888883 9:-0.123566 10:-0.0755202 
729.6007463235108 1:-0.232949 2:0.257902 3:0.191846 4:-0.130372 5:-0.0862682 6:-0.0321564 7:-0.698508 8:-0.763658 9:0.390523 10:-0.247601 
36.95684692932557 1:-0.0708424 2:0.58495 3:-0.245026 4:-0.705078 5:-0.383613 6:0.301031 7:-0.799973 8:-0.746319 9:0.306895 10:-0.246486 
2048 1:-0.297828 2:0.0458524 3:0.0198124 4:0.28253 5:0.345931 6:-0.188526 7:-0.681626 8:-0.6274 9:0.186337 10:-0.199376 
2048 1:-0.176506 2:0.0790525 3:0.154798 4:-0.188991 5:-0.0339969 6:-0.132123 7:-0.829433 8:-0.724186 9:-0.0309746 10:0.0611573 
1741.082474555651 1:-0.176222 2:-0.014712 3:0.130143 4:0.0201263 5:-0.172745 6:0.0820816 7:-0.947896 8:-0.704856 9:0.801589 10:0.0439121 
707.0576037254774 1:-0.657651 2:0.0799843 3:-0.127944 4:0.23582 5:0.395003 6:-0.243642 7:-0.866364 8:-0.990175 9:-0.100997 10:-0.195821 
2048 1:-0.0977924 2:0.301277 3:0.0746632 4:0.0712441 5:0.243121 6:-0.217619 7:-0.964277 8:-0.700868 9:0.075886 10:0.0989028 
402.6949172183873 1:0.00308452 2:0.353897 3:0.223045 4:0.0484112 5:0.0372667 6:0.349099 7:-0.92654 8:-0.488986 9:-0.0653288 10:-0.150166 
2048 1:0.0542852 2:0.0547777 3:0.353571 4:0.024653 5:0.0511066 6:-0.221761 7:-0.849076 8:-0.736535 9:-0.0459729 10:0.116214 
230.4950863011168 1:0.174931 2:0.378123 3:0.0796922 4:-0.135197 5:-0.476144 6:-0.704117 7:-0.974899 8:-0.705538 9:0.171014 10:-0.216736 
2048 1:-0.250201 2:-0.0663512 3:-0.0503218 4:0.391034 5:0.132057 6:-0.291763 7:-0.989248 8:-0.789662 9:-0.187474 10:0.0226 
2048 1:-0.239281 2:0.411127 3:0.288756 4:0.135017 5:-0.0749899 6:-0.252795 7:-0.869336 8:-0.49897 9:0.143515 10:0.184764 
2048 1:-0.258913 2:0.296275 3:0.123691 4:0.172176 5:0.42072 6:0.130257 7:-0.964421 8:-0.724842 9:0.334459 10:0.15367 
1012.455036402733 1:-0.503765 2:-0.0365348 3:0.498714 4:-0.325246 5:-0.414811 6:-0.370383 7:-0.88142 8:-0.914582 9:-0.0876245 10:0.0744183 
2048 1:-0.53115 2:0.0382512 3:0.052648 4:0.221881 5:0.0218816 6:-0.158044 7:-0.97382 8:-0.604542 9:-0.0891984 10:0.0658455 
2048 1:-0.386506 2:-0.120222 3:0.0424398 4:0.159491 5:0.0808641 6:-0.0412294 7:-0.834131 8:-0.76535 9:0.167827 10:0.3215 
168.2719000023773 1:0.395883 2:0.0227791 3:-0.0243864 4:0.0244143 5:-0.186421 6:-0.372858 7:-0.825577 8:-0.597337 9:-0.138642 10:-0.0340556 
556.0282184623558 1:-0.66526 2:-0.247382 3:-0.165394 4:-0.216749 5:0.0219441 6:0.585188 7:-0.881959 8:-0.578299 9:-0.0926976 10:0.263684 
186.1364864246956 1:-0.200537 2:-0.297673 3:-0.2124 4:-0.266076 5:-0.633204 6:-0.60335 7:-0.922858 8:-0.780533 9:0.0950728 10:-0.726737 
-2048 1:0.121946 2:0.0161097 3:0.416938 4:-0.21057 5:-0.0404759 6:-0.202491 7:-0.772253 8:-0.681003 9:-0.0556768 10:-0.0830328 
-1392.805074520442 1:-0.0752151 2:-0.125788 3:0.231868 4:0.110622 5:-0.127874 6:-0.356338 7:-0.68374 8:-0.730239 9:0.0244004 10:-0.181245 
-207.1392059096891 1:-0.173863 2:0.0161097 3:0.220029 4:-0.15219 5:0.458617 6:0.374061 7:-0.627282 8:-0.701256 9:0.134318 10:-0.254467 
-268.0431389262568 1:-0.374835 2:0.2618 3:-0.105429 4:0.0389497 5:0.378131 6:-0.389946 7:-0.646706 8:-0.668675 9:0.0100005 10:-0.105604 
-1075.58432126441 1:0.297629 2:-0.34279 3:-0.464759 4:0.106652 5:0.0507632 6:-0.115803 7:-0.935919 8:-0.897996 9:-0.216625 10:0.0500995 
-525.3323004500692 1:0.037669 2:-0.00053944 3:0.061093 4:0.0823769 5:-0.283749 6:-0.23488 7:-0.729657 8:-0.669059 9:0.103619 10:-0.0883422 
-119.9844492558833 1:0.139773 2:0.0002452 3:0.33848 4:0.374011 5:0.215669 6:-0.502021 7:-0.762349 8:-0.979003 9:0.0926273 10:-0.336392 
-462.929761516691 1:0.365264 2:0.0570581 3:0.0700397 4:0.205665 5:-0.0900159 6:-0.176522 7:-0.848344 8:-0.390037 9:-0.221633 10:-0.0266423 
-176.4061586540598 1:-0.395906 2:0.277272 3:0.216513 4:-0.00455712 5:0.0705359 6:-0.0954233 7:-0.707744 8:-0.29055 9:-0.111247 10:-0.299361 
-2048 1:-0.313796 2:0.190839 3:0.00867311 4:0.121327 5:0.219269 6:-0.0465089 7:-0.812728 8:-0.953583 9:0.0468912 10:-0.0828423 
-225.9232347998925 1:0.133852 2:0.0692936 3:0.175708 4:0.339568 5:0.256239 6:-0.287076 7:-0.843081 8:-0.918804 9:0.0259223 10:-0.204103 
-516.4634326674315 1:0.0800841 2:-0.167472 3:0.103363 4:0.54382 5:0.321644 6:-0.338367 7:-0.584127 8:-0.288638 9:0.44089 10:-0.585278 
-621.4537239179502 1:-0.220093 2:-0.178653 3:0.0248177 4:0.490533 5:0.0414339 6:0.226897 7:-0.89368 8:-0.85335 9:0.0264947 10:-0.0378492 
-395.5354355850818 1:-0.328479 2:0.354388 3:0.636075 4:0.247699 5:0.0877665 6:-0.073074 7:-0.837478 8:-0.393846 9:-0.107267 10:-0.0568006 
-517.4112884443158 1:0.358348 2:-0.319815 3:-0.570424 4:-0.703545 5:-0.727274 6:-0.0063334 7:-0.814086 8:-0.720022 9:-0.608747 10:0.155186 
-14.14974447164719 1:-0.368741 2:0.133217 3:-0.187259 4:0.000427308 5:0.273323 6:0.736098 7:-0.595214 8:-0.890453 9:0.0461758 10:-0.294171 
-542.5275482441986 1:-0.43955 2:0.192212 3:0.0119955 4:-0.175003 5:-0.254198 6:-0.286323 7:-0.699312 8:-0.672663 9:-0.249951 10:0.0520129 
-406.6206937390285 1:-0.0474213 2:-0.148297 3:-0.180712 4:0.354879 5:0.162907 6:-0.0829085 7:-0.808107 8:-0.574165 9:-0.286881 10:0.0487991 
-368.0700349607559 1:-0.254576 2:0.542407 3:0.0351682 4:0.108045 5:0.163289 6:-0.156551 7:-0.919596 8:-0.934057 9:0.382888 10:0.170451 
-1485.640321824539 1:-0.389685 2:-0.172915 3:-0.109204 4:0.014127 5:-0.367376 6:-0.250086 7:-0.998911 8:-0.61463 9:0.105284 10:0.123719 
-2048 1:-0.276981 2:0.245029 3:0.159404 4:-0.178734 5:-0.0762794 6:0.130192 7:-0.971275 8:-0.734272 9:0.0438734 10:-0.248282 
-2048 1:0.00723267 2:-0.0344751 3:-0.0209179 4:-0.094844 5:-0.0864477 6:-0.319067 7:-0.950083 8:-0.929789 9:0.356 10:-0.0406985 
-326.0183866905883 1:-0.117522 2:0.289336 3:0.131866 4:0.385343 5:-0.574397 6:-0.00733876 7:-0.922468 8:-0.724423 9:-0.112145 10:0.275065 
-2048 1:-0.0880566 2:0.0328568 3:0.153433 4:-0.188265 5:0.0469862 6:-0.0867744 7:-0.918999 8:-0.557957 9:0.154116 10:0.0913073 
-366.9679363321691 1:-0.268231 2:-0.0228772 3:-0.0570325 4:-0.00948186 5:-0.278382 6:0.0481132 7:-0.730785 8:-0.67348 9:0.223332 10:-0.0275452 
-2048 1:-0.126309 2:-0.376799 3:-0.0116341 4:-0.271637 5:-0.0166961 6:0.130975 7:-0.865937 8:-0.784633 9:-0.034812 10:0.0205293 
-2048 1:-0.240026 2:0.623422 3:0.22502 4:0.0742088 5:-0.0875577 6:-0.206778 7:-0.862966 8:-0.713625 9:0.464734 10:-0.0953331 
-2048 1:-0.197367 2:0.224334 3:0.187087 4:0.00380001 5:-0.115567 6:0.0218714 7:-0.899443 8:-0.5716 9:0.170805 10:0.131952 
-1303.471289737165 1:-0.14498 2:-0.3346 3:-0.284525 4:0.0821382 5:-0.167938 6:-0.0246807 7:-0.927705 8:-0.488947 9:0.0405823 10:-0.0102254 
-62.49300195509849 1:-0.162121 2:0.165731 3:0.152592 4:0.31368 5:0.391669 6:-0.447095 7:-0.929957 8:-0.520833 9:0.0733235 10:0.0904459 
-2048 1:-0.248197 2:0.0436702 3:0.416635 4:-0.138152 5:-0.17852 6:0.477443 7:-0.988378 8:-0.809952 9:-0.103923 10:-0.00599284 
-1750.404141547582 1:-0.0529593 2:-0.171125 3:0.0822772 4:0.466984 5:0.473424 6:-0.515338 7:-0.985449 8:-0.611614 9:-0.249379 10:-0.195747 
-197.8808003754008 1:-0.0926539 2:0.571979 3:0.308785 4:0.369166 5:-0.423305 6:-0.385498 7:-0.789931 8:-0.721677 9:-0.0788831 10:0.097884 
-1855.304108898454 1:-0.183424 2:0.250202 3:0.250725 4:-0.00190075 5:-0.259612 6:-0.437466 7:-0.997806 8:-0.741837 9:0.268079 10:0.428673 
-1389.760409455405 1:-0.412 2:-0.0317289 3:0.216276 4:0.17921 5:0.0647397 6:0.259913 7:-0.959998 8:-0.806938 9:-0.0927106 10:0.0568916 
-2048 1:-0.143361 2:-0.169605 3:-0.0790858 4:-0.102206 5:-0.0467599 6:0.047523 7:-0.792877 8:-0.59395 9:0.489774 10:-0.0405494 
-1085.290592761678 1:-0.181883 2:-0.0450678 3:-0.127319 4:0.573299 5:0.115772 6:-0.314056 7:-0.971545 8:-0.737004 9:0.0684455 10:0.084888 
-1350.280812823517 1:-0.173934 2:0.0705931 3:0.0567856 4:-0.104415 5:-0.284783 6:0.0465 7:-0.787411 8:-0.915783 9:0.284977 10:-0.144261 
-2048 1:0.0197244 2:-0.207439 3:0.0021942 4:0.618497 5:0.539366 6:0.103016 7:-0.954609 8:-0.598361 9:0.11024 10:-0.094687 
-1025.186642766572 1:-0.155001 2:-0.240811 3:-0.243533 4:-0.388005 5:-0.523772 6:-0.583347 7:-0.851444 8:-0.592197 9:0.256138 10:-0.386462 
-1027.707253393404 1:-0.100154 2:0.236447 3:-0.0618061 4:-0.133695 5:0.199348 6:0.287099 7:-0.90161 8:-0.54202 9:0.123092 10:0.18136 
-1273.748098191733 1:-0.563581 2:-0.0453375 3:0.048043 4:0.28649 5:0.15171 6:-0.264539 7:-0.930686 8:-0.750322 9:0.0555936 10:0.145486 
-450.8782471543254 1:-0.141638 2:0.74357 3:-0.0494738 4:-0.0994902 5:-0.0316421 6:-0.108684 7:-0.950927 8:-0.664352 9:-0.280858 10:0.174775 
-2048 1:-0.403134 2:-0.229213 3:-0.012328 4:-0.0455966 5:-0.0876124 6:-0.236311 7:-0.875021 8:-0.729391 9:-0.0224804 10:0.190438 
-614.3423654198984 1:-0.0557223 2:0.229875 3:0.412184 4:-0.145285 5:-0.0435565 6:-0.0236224 7:-0.932861 8:-0.699315 9:0.340378 10:0.172108 
-2048 1:-0.494994 2:0.00291788 3:0.037686 4:-0.0589581 5:0.324678 6:-0.143424 7:-0.761708 8:-0.745973 9:-0.109569 10:0.0253748 
-282.966646986546 1:-0.11716 2:0.26999 3:-0.236471 4:0.295653 5:0.145426 6:-0.00920283 7:-0.802817 8:-0.447201 9:0.355506 10:0.206466 
-2048 1:-0.285589 2:0.340436 3:0.0753216 4:-0.159801 5:0.0429205 6:-0.0769682 7:-0.901141 8:-0.600783 9:0.0703706 10:0.309556 
-2048 1:-0.0752364 2:-0.121668 3:-0.254498 4:-0.152936 5:0.119731 6:0.162067 7:-0.780173 8:-0.673269 9:0.413795 10:0.122965 
