svm_type c_svc
kernel_type polynomial
degree 2
gamma 0.5
coef0 1
nr_class 2
total_sv 12
rho 3.54009
label 1 -1
nr_sv 9 3
SV
0.4274304442559361 1:-0.55542 2:-0.575411 3:-0.572885 4:-0.30026 5:-0.116238 6:0.559356 7:-0.691752 8:-0.521872 9:-0.0703368 10:-0.083712 
2.190112729576301 1:-0.406167 2:0.0771155 3:-0.161028 4:-0.289386 5:-0.566318 6:0.254968 7:-0.777169 8:-0.559625 9:-0.251629 10:0.037791 
0.6262873382909584 1:0.0357403 2:0.289778 3:0.75155 4:0.39766 5:-0.0365546 6:-0.000345426 7:-0.740167 8:-0.508351 9:0.18315 10:-0.374216 
0.6337376721800072 1:-0.20948 2:0.377388 3:0.179477 4:0.307442 5:0.295615 6:-0.346908 7:-0.478706 8:-0.606258 9:-0.182726 10:-0.99103 
1.281652334312733 1:0.246918 2:0.0405071 3:-0.0754724 4:0.447623 5:0.165979 6:0.515007 7:-0.852724 8:-0.368634 9:-0.187123 10:-0.230695 
3.507562501598667 1:0.143935 2:0.329819 3:-0.478291 4:0.29627 5:0.304491 6:-0.531323 7:-0.537259 8:-0.396547 9:-0.0734978 10:-0.165051 
1.757019818262501 1:0.227321 2:-0.0182184 3:-0.00479433 4:-0.0635048 5:-0.363441 6:-0.209785 7:-0.686258 8:-0.460526 9:-0.234238 10:-0.963682 
0.6578284666124509 1:-0.231845 2:-0.0555624 3:-0.493012 4:-0.6219 5:-0.492875 6:-0.224411 7:-0.599109 8:-0.54329 9:-0.492559 10:-0.949514 
4.466743832315523 1:-0.383894 2:-0.149842 3:-0.0936976 4:0.188851 5:0.255299 6:0.0574017 7:-0.652871 8:-0.480943 9:0.00531767 10:-0.434275 
-1.348262017205608 1:-0.167966 2:0.145649 3:0.29509 4:-0.1152 5:-0.296087 6:0.111587 7:-0.416488 8:-0.42632 9:0.241088 10:-0.366489 
-7.283300855411286 1:-0.0160419 2:0.2388 3:-0.0228009 4:0.184792 5:-0.0222113 6:-0.127162 7:-0.451911 8:-0.376311 9:-0.262803 10:-0.302938 
-6.916812264788187 1:-0.205829 2:-0.162004 3:-0.336697 4:0.0408102 5:0.0394537 6:0.0831576 7:-0.400142 8:-0.404314 9:-0.182999 10:-0.474968 
