svm_type c_svc
kernel_type polynomial
degree 2
gamma 4
coef0 1
nr_class 2
total_sv 224
rho 50.3042
label 1 -1
nr_sv 109 115
SV
64.46809552528541 1:-0.55542 2:-0.575411 3:-0.572885 4:-0.30026 5:-0.116238 6:0.559356 7:-0.691752 8:-0.521872 9:-0.0703368 10:-0.083712 
512 1:-0.104082 2:-0.387956 3:-0.303327 4:-0.0489196 5:-0.105936 6:0.285054 7:-0.866405 8:-0.734037 9:-0.0374526 10:-0.101711 
512 1:-0.13656 2:-0.188633 3:-0.0634851 4:-0.197657 5:0.135359 6:0.103526 7:-0.941643 8:-0.623077 9:0.0510017 10:-0.402324 
63.9823589283066 1:0.180616 2:0.088836 3:0.0622755 4:0.338662 5:0.0486952 6:0.0841259 7:-0.911323 8:-0.59813 9:-0.176313 10:-0.732574 
508.4568163983905 1:0.0384703 2:0.0645367 3:-0.0116854 4:-0.0122974 5:0.261111 6:-0.410742 7:-0.772015 8:-0.509779 9:-0.377924 10:-0.881716 
501.4625966138206 1:-0.223192 2:0.140622 3:-0.255898 4:-0.309366 5:0.0104316 6:-0.0237637 7:-0.869519 8:-0.717264 9:0.284404 10:-0.500504 
512 1:-0.406167 2:0.0771155 3:-0.161028 4:-0.289386 5:-0.566318 6:0.254968 7:-0.777169 8:-0.559625 9:-0.251629 10:0.037791 
93.42627696483733 1:-0.20948 2:0.377388 3:0.179477 4:0.307442 5:0.295615 6:-0.346908 7:-0.478706 8:-0.606258 9:-0.182726 10:-0.99103 
512 1:-0.0427602 2:0.0430326 3:0.155783 4:0.0128934 5:0.198447 6:-0.0552602 7:-0.789669 8:-0.793149 9:0.0637366 10:-0.334546 
500.5271045754124 1:0.213614 2:-0.614202 3:-0.612991 4:0.405281 5:0.493753 6:0.206873 7:-0.661888 8:-0.52136 9:-0.169198 10:-0.469707 
512 1:0.00984211 2:0.366746 3:0.226666 4:0.0894706 5:0.147459 6:-0.0578205 7:-0.929014 8:-0.513987 9:-0.107214 10:-0.560113 
47.22570151759081 1:-0.111036 2:0.0887625 3:-0.2947 4:-0.0928244 5:0.0363517 6:-0.28024 7:-0.931579 8:-0.842937 9:0.22514 10:-0.587197 
512 1:0.0067505 2:0.103401 3:-0.0453994 4:-0.0879792 5:0.0247612 6:-0.249975 7:-0.87791 8:-0.799935 9:0.0902989 10:-0.258212 
512 1:0.163711 2:0.155163 3:-0.269106 4:0.199009 5:0.196392 6:-0.161282 7:-0.742626 8:-0.782437 9:0.33295 10:-0.562891 
512 1:0.0250142 2:-0.266435 3:0.0180978 4:0.273944 5:0.157536 6:-0.0729856 7:-0.820939 8:-0.357938 9:-0.0232479 10:-0.629747 
429.3987433976772 1:0.267302 2:-0.246794 3:0.126834 4:-0.18915 5:0.00206994 6:-0.46469 7:-0.825674 8:-0.44736 9:0.0331808 10:-0.836565 
512 1:-0.278768 2:0.222102 3:0.289085 4:-0.247123 5:-0.217671 6:0.0457244 7:-0.71838 8:-0.604964 9:0.290596 10:-0.367819 
172.8407654268069 1:-0.148322 2:0.303729 3:-0.0741924 4:-0.0998782 5:0.0381231 6:0.0574653 7:-0.919669 8:-0.750202 9:-0.0147016 10:-0.575303 
512 1:-0.126236 2:0.0206459 3:0.170508 4:-0.105887 5:-0.369723 6:-0.155361 7:-0.853019 8:-0.565904 9:0.118877 10:-0.146182 
112.9941278854038 1:-0.29584 2:0.20028 3:-0.464433 4:0.24556 5:-0.00478953 6:-0.406459 7:-0.70014 8:-0.664511 9:-0.154082 10:-0.634453 
512 1:-0.221894 2:-0.141726 3:-0.283947 4:-0.203656 5:-0.275354 6:0.121412 7:-0.903288 8:-0.966989 9:0.250831 10:-0.763572 
96.15717163821239 1:-0.262768 2:0.543266 3:0.388296 4:-0.0870938 5:0.0114481 6:-0.292949 7:-0.695331 8:-0.895072 9:0.198525 10:-0.488085 
512 1:-0.0699277 2:-0.0316553 3:-0.0766628 4:0.148985 5:0.10848 6:-0.3324 7:-0.751335 8:-0.751433 9:0.130611 10:-0.265061 
512 1:-0.187489 2:0.140647 3:0.0788178 4:-0.291137 5:-0.17925 6:-0.00913568 7:-0.7266 8:-0.57395 9:0.297373 10:-0.148493 
512 1:-0.185409 2:0.169973 3:-0.317011 4:-0.334828 5:-0.29182 6:0.0104591 7:-0.705967 8:-0.762051 9:0.373067 10:-0.81202 
133.3513527711742 1:0.0807294 2:0.585342 3:-0.0573341 4:0.0954001 5:0.199303 6:-0.0717205 7:-0.79864 8:-0.603566 9:0.0388783 10:-0.391435 
512 1:-0.127321 2:-0.100238 3:-0.0636181 4:-0.118154 5:-0.17342 6:-0.168046 7:-0.887264 8:-0.855251 9:0.312462 10:-0.334657 
19.78719094283236 1:-0.144996 2:-0.311723 3:-0.514184 4:-0.502281 5:-0.628412 6:-0.112004 7:-0.764225 8:-0.654937 9:-0.335297 10:-0.919135 
289.0594436674545 1:-0.165756 2:-0.156021 3:-0.175718 4:-0.204104 5:0.18717 6:0.104005 7:-0.867576 8:-0.487431 9:0.404806 10:-0.537039 
512 1:-0.247277 2:0.0382758 3:0.118815 4:0.189249 5:-0.13883 6:-0.244543 7:-0.765767 8:-0.876898 9:0.242662 10:-0.457474 
512 1:-0.0365274 2:-0.134983 3:-0.0879969 4:0.188134 5:0.230354 6:0.223565 7:-0.571676 8:-0.675164 9:0.235117 10:-0.849173 
512 1:0.0224047 2:0.347253 3:0.413422 4:-0.072041 5:-0.134361 6:-0.428075 7:-0.994279 8:-0.746591 9:-0.0666426 10:-0.447984 
103.1666422307193 1:0.143935 2:0.329819 3:-0.478291 4:0.29627 5:0.304491 6:-0.531323 7:-0.537259 8:-0.396547 9:-0.0734978 10:-0.165051 
47.2796396991366 1:0.0462678 2:-0.139642 3:0.209876 4:0.406524 5:-0.00359752 6:-0.0434309 7:-0.998347 8:-0.263421 9:-0.078779 10:-0.360852 
25.8280274612334 1:-0.235182 2:0.0808915 3:0.0520871 4:-0.128143 5:0.0336555 6:-0.348648 7:-0.940347 8:-0.853875 9:-0.0730685 10:-0.500062 
512 1:-0.197781 2:0.240223 3:0.16452 4:0.0670555 5:-0.0822024 6:-0.0175125 7:-0.721076 8:-0.661218 9:-0.470919 10:-0.812581 
512 1:-0.22036 2:0.219994 3:0.228641 4:-0.288182 5:-0.285718 6:-0.384797 7:-0.811465 8:-0.639379 9:-0.189945 10:-0.162972 
303.9078501440106 1:0.112376 2:0.216046 3:0.321624 4:0.267408 5:-0.0543529 6:-0.00274662 7:-0.988605 8:-0.511938 9:0.0162704 10:-0.453443 
512 1:-0.130436 2:-0.108967 3:0.177929 4:-0.0242461 5:-0.141909 6:0.0176803 7:-0.831266 8:-0.598509 9:0.182773 10:-0.400617 
512 1:-0.254477 2:0.486649 3:0.161981 4:-0.105788 5:-0.0614914 6:-0.0399166 7:-0.731574 8:-0.535001 9:0.159527 10:-0.307011 
512 1:-0.155737 2:0.229581 3:0.24738 4:0.0935198 5:-0.164932 6:0.0170425 7:-0.832293 8:-0.535025 9:0.0288101 10:-0.409233 
512 1:0.103607 2:0.44445 3:0.207282 4:0.235611 5:-0.166721 6:-0.282533 7:-0.802329 8:-0.513403 9:0.385971 10:-0.288224 
408.5826756494756 1:-0.232949 2:0.257902 3:0.191846 4:-0.130372 5:-0.0862682 6:-0.0321564 7:-0.698508 8:-0.763658 9:0.390523 10:-0.247601 
452.7437483466634 1:-0.0656968 2:0.209646 3:-0.0134645 4:0.0248719 5:-0.16292 6:-0.113361 7:-0.94307 8:-0.590932 9:0.310967 10:-0.573733 
512 1:0.09571 2:0.479219 3:-0.173773 4:-0.18525 5:0.0037809 6:-0.304305 7:-0.982496 8:-0.753284 9:0.174461 10:-0.415401 
512 1:-0.178368 2:0.128828 3:-0.0400952 4:-0.276015 5:-0.49832 6:-0.314401 7:-0.907139 8:-0.954636 9:0.31911 10:-0.643236 
503.7554178106136 1:-0.112357 2:-0.101611 3:0.125923 4:-0.00420891 5:0.0733355 6:-0.0996709 7:-0.60876 8:-0.667133 9:0.24391 10:-0.824357 
462.0052282635526 1:-0.270155 2:-0.102347 3:-0.415246 4:0.151224 5:0.0741822 6:-0.479315 7:-0.736889 8:-0.812672 9:0.128282 10:-0.624426 
512 1:-0.0989884 2:-0.198391 3:-0.448636 4:-0.305003 5:0.0116392 6:0.0620044 7:-0.807247 8:-0.709093 9:0.347649 10:-0.411634 
512 1:0.000106363 2:-0.116249 3:-0.27867 4:-0.0405724 5:-0.167558 6:-0.172096 7:-0.974534 8:-0.900348 9:0.376527 10:-0.688406 
512 1:-0.0361468 2:-0.4036 3:-0.127625 4:-0.0340956 5:-0.14845 6:-0.122391 7:-0.70901 8:-0.522492 9:0.163235 10:-0.769496 
512 1:-0.0820294 2:0.230169 3:-0.307311 4:-0.307374 5:-0.21741 6:-0.623957 7:-0.791645 8:-0.623776 9:0.308716 10:-0.466536 
512 1:-0.191522 2:0.223696 3:-0.0969173 4:-0.158159 5:-0.30343 6:-0.0394007 7:-0.963603 8:-0.691699 9:-0.000848121 10:-0.656555 
512 1:0.325203 2:-0.176789 3:-0.54857 4:0.0376066 5:-0.181444 6:-0.353055 7:-0.730172 8:-0.548938 9:-0.0859334 10:-0.475841 
265.8517639313217 1:-0.171053 2:-0.243704 3:-0.148916 4:0.00690409 5:-0.291736 6:-0.105466 7:-0.892341 8:-0.571813 9:0.0102477 10:-0.121333 
512 1:0.178226 2:-0.154574 3:-0.162313 4:0.193537 5:0.0976753 6:-0.317159 7:-0.802395 8:-0.636528 9:-0.0960016 10:-0.788717 
512 1:-0.243164 2:0.0301106 3:-0.218838 4:-0.0206048 5:-0.288654 6:-0.0233114 7:-0.895602 8:-0.699751 9:-0.111325 10:-0.304221 
512 1:0.231221 2:-0.235785 3:0.0874616 4:0.171201 5:0.0729336 6:-0.213794 7:-0.923511 8:-0.854515 9:0.0391905 10:-0.609179 
512 1:-0.2344 2:0.120393 3:-0.241867 4:0.0241954 5:-0.190629 6:-0.0557126 7:-0.759742 8:-0.692834 9:0.00164941 10:-0.327555 
512 1:0.190642 2:-0.224088 3:-0.280295 4:0.130341 5:0.0150592 6:-0.501033 7:-0.810072 8:-0.729418 9:0.247631 10:-0.27606 
512 1:0.0325187 2:0.114386 3:0.0975606 4:0.116104 5:-0.380742 6:-0.487679 7:-0.938943 8:-0.666177 9:-0.173308 10:-0.411711 
512 1:-0.186033 2:0.000686561 3:-0.334244 4:-0.223942 5:-0.26708 6:0.0691603 7:-0.974739 8:-0.654599 9:-0.143793 10:-0.775975 
512 1:-0.0347807 2:0.115146 3:0.123393 4:-0.116811 5:-0.0273598 6:-0.488796 7:-0.991021 8:-0.794191 9:0.169257 10:-0.57551 
512 1:-0.109031 2:0.174386 3:-0.267964 4:-0.159433 5:0.0746797 6:-0.32291 7:-0.849615 8:-0.588627 9:-0.110545 10:-0.704319 
512 1:0.0308476 2:0.0206704 3:0.0222999 4:-0.136928 5:-0.141932 6:-0.184814 7:-0.953174 8:-0.621071 9:0.321776 10:-0.270453 
512 1:0.406755 2:0.341981 3:-0.146782 4:0.249271 5:-0.116032 6:-0.387034 7:-0.907864 8:-0.621023 9:0.143996 10:-0.659809 
512 1:0.0473007 2:0.417699 3:-0.372954 4:0.136698 5:-0.381272 6:-0.77254 7:-0.820262 8:-0.621184 9:-0.0682425 10:-0.674262 
512 1:-0.0592985 2:0.0223132 3:-0.455069 4:-0.413722 5:-0.240085 6:0.0933649 7:-0.793046 8:-0.457379 9:0.281425 10:-0.865513 
476.9731175884572 1:0.174931 2:0.378123 3:0.0796922 4:-0.135197 5:-0.476144 6:-0.704117 7:-0.974899 8:-0.705538 9:0.171014 10:-0.216736 
512 1:-0.365257 2:0.0798617 3:-0.242283 4:-0.105539 5:-0.0386382 6:-0.589807 7:-0.767248 8:-0.707962 9:0.062774 10:-0.486233 
261.4710967714208 1:-0.0052236 2:0.600716 3:-0.126033 4:-0.555609 5:-0.145485 6:-0.38424 7:-0.838997 8:-0.607393 9:0.294121 10:-0.352545 
512 1:-0.363319 2:0.366746 3:0.12889 4:0.0853218 5:-0.179086 6:-0.200686 7:-0.952402 8:-0.624991 9:-0.638624 10:-0.464292 
460.4355448138875 1:-0.0675995 2:0.22323 3:-0.429896 4:-0.210869 5:-0.302107 6:0.117527 7:-0.860284 8:-0.888866 9:0.11958 10:-0.217768 
205.7252028602095 1:-0.0237426 2:0.36243 3:-0.0858755 4:0.0293191 5:-0.121921 6:0.395654 7:-0.789186 8:-0.72377 9:0.254499 10:-0.319374 
512 1:0.107131 2:0.307211 3:0.026868 4:-0.198791 5:-0.112493 6:-0.0992327 7:-0.829156 8:-0.787204 9:0.224294 10:-0.703329 
512 1:-0.0426302 2:-0.00522276 3:-0.162936 4:-0.219136 5:-0.0983561 6:-0.198576 7:-0.770052 8:-0.477205 9:0.210454 10:-0.319045 
512 1:0.0713128 2:0.32006 3:-0.169767 4:-0.203208 5:-0.280253 6:0.108949 7:-0.934861 8:-0.707363 9:0.410218 10:-0.371914 
512 1:-0.0442162 2:-0.167227 3:-0.12357 4:0.0110528 5:0.0840149 6:0.134745 7:-0.866613 8:-0.857438 9:0.216281 10:-0.572326 
512 1:-0.0367236 2:0.038006 3:0.266409 4:-0.45938 5:-0.439866 6:-0.0300786 7:-0.881072 8:-0.747857 9:0.208945 10:-0.457672 
512 1:0.480826 2:0.357575 3:-0.246159 4:0.193646 5:0.128264 6:-0.105717 7:-0.932803 8:-0.545427 9:-0.077127 10:-0.492503 
512 1:-0.0817009 2:0.0298163 3:-0.146466 4:-0.180007 5:-0.0686786 6:0.0767155 7:-0.833413 8:-0.701818 9:0.452298 10:-0.629778 
512 1:-0.0975844 2:0.566339 3:-0.126851 4:-0.145872 5:-0.29054 6:-0.387237 7:-0.937462 8:-0.559359 9:0.0138509 10:-0.746546 
512 1:-0.0379597 2:-0.0627713 3:-0.199279 4:-0.410982 5:-0.37809 6:0.354815 7:-0.860085 8:-0.69443 9:-0.0307535 10:-0.804268 
512 1:-0.284738 2:0.0685089 3:-0.343704 4:-0.420356 5:-0.222223 6:-0.158722 7:-0.85148 8:-0.680839 9:-0.199844 10:-0.148477 
512 1:-0.315484 2:0.101562 3:-0.0468229 4:-0.0571275 5:-0.279855 6:-0.139292 7:-0.853413 8:-0.677019 9:-0.274029 10:-0.34002 
512 1:-0.114113 2:0.223157 3:0.0344215 4:-0.370542 5:-0.266669 6:-0.0478217 7:-0.927353 8:-0.655949 9:0.172275 10:-0.353069 
224.8061838595255 1:-0.238934 2:0.411814 3:0.0639506 4:-0.574813 5:-0.042224 6:0.176274 7:-0.78242 8:-0.695415 9:-0.0721189 10:-0.592027 
477.1679016395269 1:0.0637941 2:0.0568619 3:-0.565885 4:-0.0498946 5:0.0728653 6:0.0203307 7:-0.959327 8:-0.669052 9:0.0623577 10:-0.599401 
512 1:0.00510069 2:-0.12336 3:-0.245509 4:0.190383 5:-0.270042 6:-0.211395 7:-0.976027 8:-0.602817 9:-0.11087 10:-0.477145 
512 1:-0.0332183 2:0.172915 3:-0.165183 4:-0.0727075 5:-0.0377271 6:-0.282054 7:-0.879988 8:-0.638246 9:-0.239714 10:-0.537499 
512 1:0.165193 2:0.260697 3:0.226324 4:-0.193199 5:-0.585279 6:-0.187338 7:-0.768521 8:-0.524855 9:0.294668 10:-0.638301 
512 1:-0.189305 2:-0.189785 3:-0.190133 4:-0.00131376 5:-0.05272 6:0.00940425 7:-0.951398 8:-0.841724 9:-0.126622 10:-0.732283 
512 1:0.348485 2:-0.0160116 3:-0.602434 4:-0.475552 5:-0.362596 6:0.325364 7:-0.820256 8:-0.726148 9:-0.210147 10:-0.438824 
512 1:0.0354094 2:0.212711 3:0.124116 4:-0.382345 5:-0.0113017 6:-0.0480319 7:-0.78481 8:-0.704843 9:0.175865 10:-0.752212 
512 1:-0.088839 2:0.114288 3:0.281645 4:-0.399267 5:-0.161043 6:-0.0568487 7:-0.971949 8:-0.351659 9:-0.00181071 10:-0.505665 
512 1:0.0753829 2:0.047201 3:-0.172545 4:0.0979869 5:0.154032 6:-0.129643 7:-0.906053 8:-0.591345 9:-0.0697775 10:-0.328586 
512 1:0.0279403 2:-0.0573768 3:-0.198022 4:-0.219415 5:-0.234631 6:-0.320237 7:-0.83052 8:-0.921759 9:0.0957362 10:-0.376729 
512 1:-0.121249 2:-0.0136822 3:0.0342095 4:-0.00975048 5:0.0885196 6:-0.0686515 7:-0.921764 8:-0.986722 9:-0.0209715 10:-0.359884 
512 1:0.035433 2:0.212834 3:0.079945 4:0.117198 5:-0.270186 6:-0.0495585 7:-0.811424 8:-0.717079 9:-0.00542694 10:-0.404099 
512 1:0.175877 2:0.15759 3:-0.211547 4:0.121705 5:-0.405729 6:-0.62898 7:-0.87892 8:-0.677035 9:0.429274 10:-0.358349 
512 1:0.0464215 2:0.0183165 3:-0.35451 4:0.163431 5:0.0849708 6:-0.398575 7:-0.908188 8:-0.625684 9:-0.252618 10:-0.748744 
512 1:-0.0677484 2:-0.242846 3:-0.28069 4:-0.205427 5:-0.450247 6:-0.282501 7:-0.841807 8:-0.824089 9:0.0525107 10:-0.735899 
512 1:0.395883 2:0.0227791 3:-0.0243864 4:0.0244143 5:-0.186421 6:-0.372858 7:-0.825577 8:-0.597337 9:-0.138642 10:-0.0340556 
512 1:-0.140654 2:0.240689 3:-0.17458 4:-0.570142 5:-0.439802 6:-0.125075 7:-0.720781 8:-0.71772 9:0.130142 10:-0.613003 
512 1:-0.239657 2:0.0940588 3:0.121231 4:-0.293793 5:-0.0441788 6:-0.28645 7:-0.9266 8:-0.655755 9:-0.242159 10:-0.581831 
512 1:0.0147183 2:0.0996739 3:-0.0729888 4:0.0677022 5:-0.156084 6:-0.0747472 7:-0.898408 8:-0.693324 9:-0.174297 10:-0.545521 
512 1:0.0806018 2:-0.193193 3:-0.138468 4:0.0528484 5:-0.0100219 6:-0.254519 7:-0.961962 8:-0.594813 9:-0.153432 10:-0.325772 
512 1:-0.200537 2:-0.297673 3:-0.2124 4:-0.266076 5:-0.633204 6:-0.60335 7:-0.922858 8:-0.780533 9:0.0950728 10:-0.726737 
512 1:-0.191226 2:-0.044651 3:-0.0380027 4:-0.0645593 5:0.0105955 6:0.00734229 7:-0.845475 8:-0.887562 9:0.0212264 10:-0.411049 
-512 1:0.0964002 2:0.34431 3:0.0881609 4:0.0178977 5:0.0269365 6:-0.193955 7:-0.813815 8:-0.734255 9:0.0293304 10:-0.264639 
-84.80534115317742 1:0.204011 2:0.111076 3:-0.0295182 4:-0.20294 5:-0.371264 6:0.0262674 7:-0.941996 8:-0.648705 9:0.0507676 10:-0.822499 
-512 1:0.121561 2:-0.267464 3:-0.195698 4:-0.0943764 5:0.119793 6:-0.0343385 7:-0.765576 8:-0.643792 9:0.134279 10:-0.794472 
-70.91689218731223 1:-0.248764 2:0.114582 3:-0.657544 4:-0.244049 5:-0.140514 6:-0.020813 7:-0.775328 8:-0.443374 9:-0.21496 10:-0.460962 
-221.5893523855933 1:0.210029 2:0.0203026 3:-0.40794 4:0.145662 5:0.0627809 6:0.0234581 7:-0.643932 8:-0.793836 9:0.141173 10:-0.854434 
-512 1:0.207646 2:0.443886 3:0.0578378 4:0.128988 5:0.178612 6:-0.11511 7:-0.899379 8:-0.458993 9:0.201231 10:-0.490615 
-286.3065091727383 1:-0.0403612 2:-0.321899 3:-0.160846 4:0.304418 5:0.0402867 6:0.00786176 7:-0.795631 8:-0.977133 9:0.189875 10:-0.477567 
-470.306116381462 1:-0.252999 2:0.265307 3:-0.245637 4:-0.555804 5:-0.0790497 6:0.258168 7:-0.706247 8:-0.703025 9:0.117941 10:-0.536999 
-512 1:-0.0165335 2:0.38597 3:0.029877 4:-0.181151 5:-0.0670964 6:0.078592 7:-0.856553 8:-0.767084 9:0.216424 10:-0.380619 
-65.13360454602189 1:-0.0925475 2:-0.095481 3:-0.192314 4:0.160645 5:-0.244625 6:-0.193652 7:-0.830648 8:-0.753415 9:0.162545 10:-0.338444 
-512 1:0.0308145 2:0.124488 3:-0.163774 4:-0.0257584 5:-0.0386889 6:-0.379991 7:-0.822685 8:-0.698133 9:0.266401 10:-0.683744 
-153.3039866879552 1:0.138409 2:-0.00524728 3:-0.254966 4:-0.0455568 5:-0.0296054 6:-0.296788 7:-0.884517 8:-0.379868 9:0.295669 10:-0.813964 
-133.6040764745491 1:0.126525 2:0.359243 3:-0.00642064 4:-0.0429502 5:-0.263221 6:-0.582291 7:-0.784289 8:-0.821406 9:0.280866 10:-0.250837 
-149.6647486097408 1:-0.356729 2:0.136699 3:-0.0703564 4:-0.35502 5:-0.490764 6:-0.202965 7:-0.835974 8:-0.570498 9:0.167371 10:-0.290995 
-512 1:0.0160182 2:0.191379 3:0.197593 4:-0.0538145 5:0.134347 6:-0.0879229 7:-0.908774 8:-0.504206 9:-0.0634166 10:-0.349955 
-162.2845588863073 1:-0.120582 2:0.341613 3:0.122045 4:-0.422437 5:0.0243671 6:-0.133609 7:-0.743067 8:-0.468219 9:0.166409 10:-0.574439 
-512 1:0.0228113 2:0.235515 3:-0.196055 4:-0.147802 5:0.0241389 6:0.0422719 7:-0.929961 8:-0.49936 9:-0.0979268 10:-0.790235 
-271.2257433179103 1:0.140697 2:0.170488 3:0.247617 4:0.392626 5:0.39829 6:-0.234205 7:-0.747771 8:-0.497439 9:-0.164996 10:-0.430328 
-404.8512198289261 1:-0.265832 2:-0.341736 3:-0.256634 4:-0.320186 5:-0.074906 6:0.349471 7:-0.900063 8:-0.792332 9:-0.00142047 10:-0.292359 
-148.0933495668523 1:-0.193488 2:0.219503 3:0.25885 4:-0.0964657 5:-0.0710197 6:0.17676 7:-0.988248 8:-0.328702 9:-0.171994 10:-0.537387 
-512 1:-0.198724 2:-0.201947 3:0.080086 4:0.17544 5:0.162077 6:-0.310319 7:-0.659625 8:-0.49028 9:-0.107527 10:-0.626122 
-492.8678630375637 1:-0.18197 2:-0.294902 3:-0.63768 4:-0.313829 5:-0.22232 6:0.688268 7:-0.73667 8:-0.672938 9:0.318654 10:-0.704212 
-512 1:0.0165075 2:0.141726 3:0.241349 4:-0.0110936 5:-0.233282 6:0.156206 7:-0.985428 8:-0.614563 9:0.0365108 10:-0.367559 
-512 1:0.250598 2:-0.225216 3:-0.227347 4:0.0767856 5:-0.0482836 6:-0.107518 7:-0.998857 8:-0.623645 9:0.198512 10:-0.185213 
-512 1:0.00547887 2:-0.0454356 3:-0.0377735 4:-0.0875813 5:-0.546454 6:-0.49681 7:-0.933976 8:-0.885041 9:0.120126 10:-0.173396 
-512 1:-0.361173 2:-0.140892 3:0.0582763 4:-0.110842 5:-0.209655 6:0.0747472 7:-0.64346 8:-0.509437 9:0.0248947 10:-0.699875 
-512 1:-0.0645032 2:0.0216512 3:-0.07912 4:-0.0233607 5:-0.258079 6:0.0675366 7:-0.867958 8:-0.848737 9:0.414484 10:-0.337921 
-427.4477175898052 1:0.375418 2:0.0175809 3:-0.192236 4:-0.125805 5:-0.658306 6:-0.434839 7:-0.891872 8:-0.635313 9:-0.212514 10:-0.836752 
-441.692524938167 1:0.0200364 2:0.17983 3:0.0640151 4:-0.0425622 5:-0.152551 6:-0.235548 7:-0.864165 8:-0.473437 9:0.437899 10:-0.375396 
-512 1:-0.0637657 2:0.230071 3:0.234817 4:-0.327161 5:-0.368665 6:-0.392119 7:-0.881382 8:-0.615081 9:-0.0076513 10:-0.291903 
-512 1:-0.0193462 2:0.112866 3:-0.0705276 4:0.0528385 5:-0.0433828 6:-0.0203731 7:-0.802409 8:-0.808936 9:0.0655447 10:-0.689965 
-13.63124975150564 1:0.396039 2:-0.218498 3:-0.233778 4:0.648632 5:-0.0175954 6:0.0198501 7:-0.860926 8:-0.424197 9:-0.245932 10:-0.372317 
-512 1:-0.111414 2:0.0683128 3:-0.173537 4:0.086854 5:-0.0640685 6:-0.0698247 7:-0.777704 8:-0.673717 9:-0.15139 10:-0.186421 
-512 1:0.180195 2:0.143663 3:-0.383941 4:0.220857 5:-0.328693 6:-0.153718 7:-0.992802 8:-0.812742 9:-0.196306 10:-0.272506 
-512 1:-0.105571 2:0.499939 3:0.25162 4:-0.260295 5:-0.0360025 6:-0.0844368 7:-0.796264 8:-0.671289 9:0.0747023 10:-0.526915 
-512 1:-0.290276 2:0.233553 3:-0.104439 4:-0.293963 5:-0.421097 6:-0.242084 7:-0.829097 8:-0.750311 9:0.306609 10:-0.520716 
-17.14730630617688 1:-0.216798 2:0.329206 3:-0.0728979 4:-0.154508 5:0.0719386 6:-0.170733 7:-0.992972 8:-0.531705 9:-0.196775 10:-0.557715 
-319.582088566379 1:-0.00329725 2:-0.209769 3:-0.0421758 4:-0.0832733 5:-0.340931 6:-0.63218 7:-0.919294 8:-0.719972 9:-0.300878 10:-0.779455 
-512 1:-0.0461591 2:-0.0701273 3:0.256242 4:0.0411385 5:0.0980206 6:0.0552108 7:-0.731403 8:-0.542349 9:0.0939802 10:-0.416458 
-397.2455065283253 1:-0.00702231 2:0.0801559 3:0.142656 4:-0.195468 5:-0.437945 6:-0.482871 7:-0.990062 8:-0.741355 9:0.105583 10:-0.35362 
-480.1871790758773 1:-0.333975 2:0.0313856 3:0.081121 4:-0.176565 5:-0.10845 6:-0.053617 7:-0.996108 8:-0.673145 9:-0.43999 10:-0.535992 
-479.06964268017 1:-0.153406 2:0.0682883 3:-0.443825 4:-0.0101882 5:0.112939 6:-0.271301 7:-0.948758 8:-0.824495 9:-0.462307 10:-0.735831 
-110.0311710413855 1:0.0649617 2:0.120467 3:-0.147557 4:-0.62506 5:-0.764314 6:-0.160007 7:-0.83234 8:-0.558523 9:-0.028269 10:-0.718208 
-512 1:0.0569419 2:-0.376284 3:-0.146036 4:0.483529 5:0.0397248 6:-0.4319 7:-0.855816 8:-0.475162 9:-0.465582 10:-0.217162 
-165.0445417675068 1:0.234542 2:-0.246451 3:-0.47484 4:-0.497837 5:-0.0418436 6:0.0796344 7:-0.791635 8:-0.755974 9:-0.115071 10:-0.0887067 
-512 1:-0.0287889 2:-0.1724 3:-0.264622 4:-0.245123 5:0.125698 6:-0.311759 7:-0.859439 8:-0.488224 9:0.275351 10:-0.335429 
-512 1:0.258414 2:0.183361 3:-0.140799 4:0.234994 5:-0.250615 6:-0.349401 7:-0.803783 8:-0.461225 9:0.141329 10:-0.16732 
-512 1:-0.0569183 2:0.27124 3:0.0264216 4:-0.0756624 5:-0.00657463 6:-0.0483729 7:-0.984035 8:-0.666471 9:0.0125501 10:-0.322936 
-512 1:-0.226009 2:-0.0861634 3:0.184357 4:-0.424159 5:-0.34947 6:0.216413 7:-0.805037 8:-0.786676 9:0.16343 10:-0.369377 
-249.3177674247066 1:0.0172733 2:0.481892 3:-0.203366 4:0.000128839 5:-0.235665 6:-0.496024 7:-0.880922 8:-0.692718 9:-0.121992 10:-0.346823 
-437.2407948398631 1:-0.272152 2:0.171027 3:0.101856 4:-0.14624 5:-0.219712 6:-0.272331 7:-0.713847 8:-0.634725 9:0.0516001 10:-0.182004 
-512 1:0.0924671 2:0.114827 3:-0.261134 4:0.0557635 5:0.0481099 6:-0.500977 7:-0.872604 8:-0.761138 9:-0.167936 10:-0.761904 
-464.7672107164555 1:0.281949 2:0.130226 3:-0.294338 4:-0.353065 5:-0.404268 6:-0.344388 7:-0.691053 8:-0.457246 9:0.272372 10:-0.0659202 
-512 1:-0.0130614 2:-0.229556 3:0.0364508 4:-0.222191 5:-0.0564033 6:-0.0197087 7:-0.835886 8:-0.712797 9:0.0913395 10:-0.699094 
-512 1:0.0519878 2:-0.193635 3:-0.126221 4:-0.259619 5:-0.0520567 6:0.180746 7:-0.603286 8:-0.420281 9:-0.133777 10:-0.930279 
-512 1:0.332656 2:0.0135105 3:-0.460341 4:-0.137485 5:-0.126428 6:-0.320606 7:-0.858572 8:-0.796781 9:0.0634374 10:-0.88577 
-512 1:0.0041907 2:0.0473236 3:0.0560916 4:-0.112096 5:-0.0792253 6:-0.00838829 7:-0.885895 8:-0.757409 9:0.234974 10:-0.491177 
-399.7310883263116 1:-0.267427 2:0.226467 3:-0.21055 4:-0.368392 5:-0.410805 6:-0.436908 7:-0.899134 8:-0.795737 9:0.164171 10:-0.543139 
-512 1:-0.158188 2:0.390702 3:0.172272 4:-0.539146 5:-0.291568 6:-0.448827 7:-0.693385 8:-0.688162 9:0.308001 10:-0.482852 
-342.7087340550413 1:-0.215104 2:0.123679 3:0.0250389 4:-0.593032 5:-0.370981 6:0.112147 7:-0.931412 8:-0.777575 9:-0.110818 10:-0.228946 
-228.235423614065 1:0.144363 2:-0.305568 3:-0.0662241 4:-0.0962369 5:0.205755 6:-0.0996144 7:-0.718941 8:-0.75566 9:0.442126 10:-0.279991 
-512 1:-0.054446 2:0.0433269 3:-0.0234739 4:-0.156339 5:-0.121295 6:-0.197484 7:-0.896719 8:-0.855111 9:0.104282 10:-0.71033 
-512 1:-0.30308 2:-0.052669 3:-0.245396 4:-0.379087 5:-0.146997 6:-0.00804198 7:-0.976994 8:-0.683732 9:-0.0925805 10:-0.709428 
-512 1:-0.241588 2:-0.273889 3:-0.413358 4:0.0214893 5:-0.011688 6:-0.149135 7:-0.755072 8:-0.652173 9:0.205081 10:-0.421858 
-512 1:-0.105902 2:-0.0860162 3:-0.077898 4:0.128799 5:0.0409071 6:-0.251683 7:-0.995516 8:-0.651609 9:-0.222647 10:-0.645113 
-512 1:-0.175312 2:0.183066 3:-0.367492 4:-0.372075 5:-0.453049 6:-0.462033 7:-0.757377 8:-0.694175 9:0.327799 10:-0.77134 
-512 1:-0.0816441 2:0.126916 3:-0.299882 4:-0.259997 5:-0.398197 6:-0.285312 7:-0.998032 8:-0.82827 9:0.228132 10:-0.728366 
-512 1:-0.152988 2:-0.142044 3:-0.220637 4:-0.378465 5:-0.339831 6:0.451753 7:-0.989523 8:-0.689782 9:-0.120782 10:-0.0666574 
-512 1:-0.173298 2:-0.21151 3:0.118635 4:0.154577 5:0.171647 6:-0.00452941 7:-0.651983 8:-0.774964 9:0.192399 10:-0.527157 
-512 1:-0.284464 2:0.180369 3:0.22581 4:-0.0107454 5:-0.342121 6:0.118642 7:-0.736875 8:-0.710944 9:0.117082 10:-0.219281 
-512 1:-0.115765 2:0.168379 3:-0.058801 4:0.0419841 5:-0.119535 6:-0.443912 7:-0.782189 8:-0.742858 9:0.177583 10:-0.679663 
-512 1:0.21741 2:0.340657 3:-0.108812 4:-0.0600624 5:0.0979991 6:-0.256731 7:-0.943771 8:-0.778965 9:0.278928 10:-0.511612 
-322.1210819270629 1:-0.101399 2:0.485031 3:0.224467 4:-0.335252 5:-1 6:-0.32917 7:-0.893918 8:-0.436402 9:0.0358865 10:-0.399017 
-240.7105062085698 1:0.0507256 2:0.228281 3:-0.123665 4:0.251549 5:-0.07101 6:-0.828647 7:-0.72951 8:-0.788314 9:0.278473 10:-0.417027 
-512 1:-0.104992 2:-0.110978 3:0.0554463 4:0.059176 5:0.0913738 6:-0.252639 7:-0.822511 8:-0.730899 9:-0.212072 10:-0.25235 
-512 1:0.0724662 2:0.181963 3:0.141725 4:0.0137689 5:-0.180537 6:-0.302274 7:-0.78754 8:-0.790745 9:0.328813 10:-0.270102 
-512 1:0.150459 2:0.00899885 3:-0.0704854 4:0.0581214 5:-0.462622 6:-0.324735 7:-0.875733 8:-0.783585 9:0.147755 10:-0.743323 
-512 1:0.0840834 2:0.163328 3:-0.279233 4:-0.0916006 5:0.136928 6:0.115737 7:-0.79152 8:-0.798968 9:0.245536 10:-0.661387 
-114.4579578534907 1:0.211286 2:0.724419 3:0.229655 4:0.0676127 5:-0.357481 6:-0.330405 7:-0.965538 8:-0.573137 9:0.188015 10:-0.454482 
-512 1:-0.00725395 2:0.0316308 3:0.0449115 4:0.123118 5:-0.0267902 6:-0.0390614 7:-0.822114 8:-0.879129 9:-0.137276 10:-0.747734 
-512 1:0.0172851 2:-0.0259667 3:-0.622906 4:-0.0713147 5:-0.0328771 6:0.392739 7:-0.684501 8:-0.69631 9:-0.210888 10:-0.171503 
-96.87883754993496 1:0.175364 2:0.289067 3:-0.26347 4:-0.126074 5:-0.117665 6:0.169961 7:-0.671318 8:-0.608434 9:-0.242433 10:0.00757469 
-512 1:-0.377314 2:0.16014 3:0.0337986 4:-0.0885761 5:0.0360629 6:-0.376259 7:-0.710225 8:-0.582368 9:0.0893883 10:-0.435792 
-512 1:-0.205836 2:-0.0302087 3:-0.0288729 4:-0.336689 5:-0.50834 6:-0.00645532 7:-0.952506 8:-0.680119 9:0.176672 10:-0.202579 
-512 1:0.100607 2:0.0794449 3:0.104932 4:0.0497344 5:-0.0282475 6:0.0939285 7:-0.840048 8:-0.554226 9:0.157173 10:-0.67261 
-512 1:-0.287631 2:0.224701 3:-0.19666 4:-0.0477655 5:-0.507004 6:-0.15199 7:-0.841981 8:-0.668743 9:0.0825461 10:-0.301419 
-512 1:-0.121809 2:-0.0412182 3:-0.0878784 4:-0.111479 5:-0.131432 6:0.108332 7:-0.77686 8:-0.742459 9:-0.12553 10:-0.770693 
-26.50749166509077 1:0.204437 2:-0.135645 3:-0.743387 4:-0.0344936 5:-0.309472 6:0.123163 7:-0.738599 8:-0.519676 9:0.284261 10:-0.307383 
-512 1:-0.236345 2:0.444278 3:0.0883597 4:-0.281148 5:-0.34559 6:-0.301758 7:-0.919682 8:-0.661913 9:-0.188215 10:-0.56879 
-512 1:0.158318 2:-0.273055 3:-0.699034 4:0.119118 5:-0.0634228 6:-0.0818413 7:-0.693809 8:-0.517886 9:0.469222 10:-0.706802 
-512 1:0.308887 2:-0.0641689 3:-0.53541 4:-0.28082 5:-0.0466663 6:-0.554464 7:-0.901159 8:-0.541476 9:-0.320455 10:-0.181068 
-512 1:-0.0831072 2:0.0806463 3:-0.116685 4:-0.0697428 5:-0.0838627 6:-0.0544793 7:-0.947795 8:-0.633986 9:0.21766 10:-0.558872 
-512 1:0.12534 2:0.250153 3:-0.19364 4:0.229005 5:0.197264 6:-0.2752 7:-0.770505 8:-0.549648 9:-0.0379209 10:-0.414051 
-512 1:-0.193155 2:0.152294 3:-0.0724844 4:-0.05664 5:-0.0957634 6:-0.0692858 7:-0.895873 8:-0.664025 9:0.0242833 10:-0.381418 
-256.1838958140552 1:-0.187853 2:-0.00532084 3:-0.1118 4:-0.371817 5:-0.0844187 6:-0.206818 7:-0.804347 8:-0.902713 9:0.216411 10:-0.322429 
-29.7554513122637 1:-0.266382 2:0.0451168 3:0.128881 4:0.29226 5:-0.153527 6:0.0951866 7:-0.644745 8:-0.759894 9:0.0545009 10:-0.667265 
-512 1:-0.165189 2:0.023294 3:0.0697908 4:-0.285665 5:-0.229946 6:0.0591156 7:-0.946605 8:-0.5729 9:-0.0386624 10:-0.653737 
-512 1:0.013943 2:0.170169 3:0.00795411 4:-0.0663402 5:-0.187668 6:-0.182094 7:-0.929977 8:-0.906336 9:0.219637 10:-0.360122 
-512 1:0.434844 2:-0.299438 3:-0.0222716 4:0.122053 5:0.00868944 6:-0.0568487 7:-0.925146 8:-0.512319 9:0.264619 10:-0.846471 
-329.4680520273481 1:-0.251716 2:-0.220337 3:-0.31641 4:0.18518 5:-0.15563 6:-0.305718 7:-0.765992 8:-0.596492 9:-0.0676702 10:-0.2632 
-512 1:-0.192659 2:0.108256 3:-0.144258 4:-0.0624104 5:-0.0832579 6:-0.264283 7:-0.792558 8:-0.807852 9:0.136399 10:-0.583909 
-512 1:-0.303735 2:0.149229 3:-0.452952 4:0.113627 5:-0.152789 6:-0.163014 7:-0.859945 8:-0.641344 9:-0.243903 10:-0.512243 
-512 1:0.0588707 2:0.446313 3:-0.326069 4:-0.0406818 5:0.00394478 6:-0.2161 7:-0.920522 8:-0.574536 9:-0.129835 10:-0.579863 
-256.7212035072997 1:-0.112728 2:0.402153 3:0.115916 4:0.126958 5:0.0258381 6:-0.124637 7:-0.836505 8:-0.431755 9:-0.126336 10:-0.418981 
-512 1:-0.377947 2:0.130152 3:-0.157855 4:-0.409018 5:-0.251531 6:0.0109026 7:-0.852387 8:-0.982071 9:0.612219 10:-0.325157 
-512 1:-0.113206 2:0.0325135 3:-0.246188 4:0.23767 5:-0.0665599 6:-0.290968 7:-0.869034 8:-0.740242 9:0.0623057 10:-0.640916 
-512 1:0.11924 2:0.0461712 3:-0.0758319 4:-0.100694 5:0.0750016 6:-0.298797 7:-0.998865 8:-0.733107 9:0.722683 10:-0.478791 
-512 1:-0.0350525 2:0.213864 3:-0.118491 4:0.143852 5:0.129296 6:-0.0880907 7:-0.853049 8:-0.655893 9:-0.0839562 10:-0.461084 
-512 1:-0.0614517 2:0.390776 3:-0.280972 4:-0.1073 5:-0.138276 6:-0.148842 7:-0.77925 8:-0.610255 9:0.0516131 10:-0.672566 
-512 1:0.0232202 2:0.171248 3:0.374272 4:0.209067 5:-0.0545734 6:-0.245617 7:-0.906447 8:-0.471507 9:-0.201535 10:-0.513715 
-512 1:0.0196133 2:-0.268666 3:-0.139529 4:-0.102505 5:-0.02791 6:-0.474786 7:-0.874629 8:-0.75025 9:-0.0125553 10:-0.757141 
-512 1:-0.195067 2:-0.119878 3:-0.297299 4:-0.106275 5:-0.115731 6:-0.410136 7:-0.924212 8:-0.755739 9:0.0771478 10:-0.611561 
-512 1:0.0107521 2:-0.0526445 3:0.138981 4:0.26496 5:0.122394 6:-0.25747 7:-0.806021 8:-0.864415 9:0.08399 10:-0.487121 
-512 1:-0.208013 2:-0.280828 3:-0.121351 4:-0.17753 5:-0.0694219 6:-0.214209 7:-0.941367 8:-0.746417 9:0.112933 10:-0.416767 
-512 1:-0.0996975 2:0.818699 3:0.467452 4:-0.239223 5:-0.35251 6:-0.355058 7:-0.895665 8:-0.505807 9:0.0577399 10:-0.53747 
