svm_type c_svc
kernel_type rbf
gamma 0.015625
nr_class 2
total_sv 28
rho -46.6143
label -1 1
nr_sv 10 18
SV
3183.621260803384 1:0.133131 2:-0.632322 3:0.128596 4:0.194104 5:0.00890014 6:-0.476088 7:-0.748843 8:-0.462767 9:-0.00904316 10:-0.136408 
14267.58137737582 1:0.281644 2:-0.48736 3:-0.243671 4:0.420503 5:-0.0374754 6:0.135768 7:-0.848234 8:-0.636389 9:-0.00871796 10:-0.0279924 
1903.467870444874 1:0.139773 2:0.0002452 3:0.33848 4:0.374011 5:0.215669 6:-0.502021 7:-0.762349 8:-0.979003 9:0.0926273 10:-0.336392 
51657.27598528981 1:0.133852 2:0.0692936 3:0.175708 4:0.339568 5:0.256239 6:-0.287076 7:-0.843081 8:-0.918804 9:0.0259223 10:-0.204103 
9519.140565915372 1:0.0800841 2:-0.167472 3:0.103363 4:0.54382 5:0.321644 6:-0.338367 7:-0.584127 8:-0.288638 9:0.44089 10:-0.585278 
2329.705589577375 1:0.307786 2:-0.173209 3:-0.292633 4:0.509138 5:0.168917 6:-0.163092 7:-0.612675 8:-0.888029 9:0.158422 10:-0.295043 
13114.29804766013 1:-0.276981 2:0.245029 3:0.159404 4:-0.178734 5:-0.0762794 6:0.130192 7:-0.971275 8:-0.734272 9:0.0438734 10:-0.248282 
752.2899765491138 1:-0.194533 2:-0.186769 3:0.13891 4:-0.291087 5:-0.571911 6:-0.118831 7:-0.873242 8:-0.42984 9:0.125381 10:-0.341676 
34671.88312217764 1:-0.0529593 2:-0.171125 3:0.0822772 4:0.466984 5:0.473424 6:-0.515338 7:-0.985449 8:-0.611614 9:-0.249379 10:-0.195747 
32067.50555262014 1:0.0197244 2:-0.207439 3:0.0021942 4:0.618497 5:0.539366 6:0.103016 7:-0.954609 8:-0.598361 9:0.11024 10:-0.094687 
-74.80346170122178 1:-0.155124 2:-0.24851 3:-0.451013 4:0.0227528 5:-0.147157 6:0.346157 7:-0.883681 8:-0.822334 9:0.144542 10:-0.235257 
-22607.4458591584 1:0.151546 2:-0.199299 3:0.0427295 4:0.384199 5:0.58135 6:-0.485523 7:-0.988735 8:-0.659833 9:-0.0945837 10:-0.162359 
-19644.64115937524 1:0.210622 2:-0.329672 3:0.231789 4:0.396167 5:0.371535 6:-0.2647 7:-0.764919 8:-0.549613 9:-0.0800668 10:-0.227706 
-2477.954707583533 1:0.387712 2:-0.229826 3:0.0711617 4:0.542606 5:0.0163468 6:-0.470793 7:-0.905975 8:-0.675702 9:-0.569456 10:-0.229419 
-12945.47384750926 1:0.230295 2:-0.491283 3:0.0754467 4:0.535483 5:0.410493 6:0.214416 7:-0.872326 8:-0.673591 9:0.120269 10:-0.0804485 
-11661.7629414037 1:-0.310792 2:-0.455141 3:0.0749344 4:0.392705 5:0.247955 6:0.0433921 7:-0.815936 8:-0.666123 9:-0.0401843 10:-0.180108 
-4774.551289194788 1:0.078302 2:0.347841 3:0.270609 4:0.468536 5:0.0944348 6:0.0909301 7:-0.895251 8:-0.70204 9:0.064504 10:-0.234365 
-650.4086987564228 1:0.529021 2:0.0659343 3:-0.0856529 4:0.261299 5:0.247737 6:0.302665 7:-0.831833 8:-0.541835 9:0.127853 10:-0.134636 
-1653.39482809558 1:0.0474449 2:0.166687 3:-0.378273 4:0.264373 5:0.00862311 6:-0.308149 7:-0.900793 8:-0.794271 9:0.0038998 10:-0.212455 
-27965.33178905673 1:-0.263529 2:0.127676 3:0.205188 4:0.381234 5:0.402672 6:-0.257341 7:-0.974346 8:-0.884134 9:0.0297077 10:-0.231813 
-2347.918217785959 1:-0.375759 2:-0.365986 3:-0.28044 4:0.0077398 5:-0.207479 6:-0.00261411 7:-0.896627 8:-0.524516 9:-0.235005 10:-0.24982 
-2453.890682006099 1:-0.380581 2:0.11343 3:0.0501118 4:0.0310502 5:-0.059318 6:0.25933 7:-0.854596 8:-0.762122 9:0.0991183 10:-0.319089 
-12983.08175673107 1:0.302286 2:-0.0306991 3:0.110464 4:0.15984 5:-0.0739422 6:-0.229763 7:-0.873595 8:-0.716814 9:0.179586 10:-0.162665 
-612.9090617131295 1:-0.243046 2:0.0253782 3:-0.185487 4:0.391641 5:0.270036 6:0.0153975 7:-0.881414 8:-0.693659 9:0.109863 10:-0.246324 
-20467.08205715854 1:0.221131 2:0.00144668 3:-0.420526 4:0.566802 5:0.273991 6:-0.279879 7:-0.841175 8:-0.665604 9:0.0157891 10:-0.212536 
-13894.48434391702 1:0.0263189 2:0.0625261 3:0.386216 4:0.447265 5:0.177176 6:-0.262237 7:-0.911401 8:-0.776785 9:0.247175 10:-0.192986 
-1942.709607218576 1:0.202189 2:0.145036 3:0.141913 4:-0.141952 5:-0.131514 6:0.0655135 7:-0.844016 8:-0.729176 9:-0.124762 10:-0.334411 
-4308.92504004866 1:-0.0484211 2:0.096805 3:0.0936706 4:0.444937 5:0.457934 6:0.208942 7:-0.85556 8:-0.65596 9:-0.312181 10:-0.261386 
