svm_type c_svc
kernel_type rbf
gamma 0.03125
nr_class 2
total_sv 25
rho -47.8643
label 1 -1
nr_sv 12 13
SV
1614.232402199396 1:0.0983171 2:0.163058 3:-0.0825899 4:-0.0980177 5:-0.107996 6:-0.161816 7:-0.844587 8:-0.240302 9:0.0161013 10:-0.111858 
213.6516738129412 1:-0.226647 2:-0.0129221 3:-0.0923741 4:-0.349479 5:-0.179544 6:0.73836 7:-0.823492 8:-0.360231 9:0.207345 10:-0.253006 
1141.269952131968 1:-0.242692 2:0.0345487 3:0.0973551 4:0.0707367 5:-0.0125601 6:0.0186362 7:-0.354072 8:-0.737108 9:0.0219809 10:-0.580102 
2282.950075339826 1:0.00875957 2:-0.075914 3:-0.323674 4:-0.029141 5:-0.0347227 6:-0.126623 7:-0.196895 8:-0.652987 9:-0.384273 10:-0.316258 
701.5676317510651 1:0.0800841 2:-0.167472 3:0.103363 4:0.54382 5:0.321644 6:-0.338367 7:-0.584127 8:-0.288638 9:0.44089 10:-0.585278 
279.50938119067 1:0.20303 2:0.191845 3:-0.0465504 4:-0.0688672 5:-0.204608 6:0.22184 7:-0.187236 8:-0.737772 9:-0.140489 10:-0.299785 
2856.736741791723 1:0.0948048 2:0.0901111 3:0.20129 4:-0.0314989 5:-0.231761 6:-0.181282 7:-0.280642 8:-0.526925 9:-0.188059 10:-0.259032 
287.9158103325395 1:0.365052 2:-0.126057 3:0.0793828 4:-0.872351 5:-0.479488 6:-0.19404 7:-0.483131 8:-0.392026 9:0.221836 10:-0.195449 
1547.795566066849 1:0.155928 2:-0.0785131 3:-0.0748218 4:0.0651453 5:-0.556372 6:-0.250551 7:-0.0655777 8:-0.0673228 9:-0.0973935 10:-0.0188729 
5093.661693911782 1:-0.135138 2:-0.0941324 3:0.0377518 4:0.301652 5:-0.1739 6:-0.0834226 7:-0.0897777 8:-0.0204936 9:0.0657788 10:-0.094364 
910.3892079262696 1:-0.267061 2:-0.201898 3:-0.0200514 4:0.0584198 5:0.191045 6:0.284812 7:-0.352568 8:-0.0480976 9:-0.633491 10:-0.042587 
1168.391182604336 1:-0.324955 2:-0.0101022 3:0.109013 4:-0.254933 5:-0.0264371 6:0.126602 7:-0.444414 8:-0.382087 9:0.335096 10:-0.268967 
-2745.156331416665 1:-0.167966 2:0.145649 3:0.29509 4:-0.1152 5:-0.296087 6:0.111587 7:-0.416488 8:-0.42632 9:0.241088 10:-0.366489 
-929.3063080949527 1:0.215347 2:-0.134688 3:0.105709 4:0.0199969 5:-0.0835427 6:0.0914514 7:-0.424594 8:-0.417375 9:-0.404746 10:-0.222123 
-1923.223698447887 1:-0.0881134 2:0.390481 3:-0.0611187 4:-0.0325038 5:-0.323371 6:-0.455137 7:-0.38897 8:-0.269156 9:-0.145705 10:-0.186076 
-685.7530309638562 1:-0.179399 2:-0.324081 3:-0.199442 4:-0.103042 5:-0.151172 6:0.207308 7:-0.397161 8:-0.425133 9:-0.262543 10:-0.263261 
-1665.422790747995 1:0.23597 2:-0.220386 3:-0.106782 4:-0.191966 5:-0.166139 6:-0.341805 7:-0.387815 8:-0.392984 9:-0.157777 10:-0.220494 
-206.4747632120404 1:-0.107214 2:0.0920972 3:0.0781067 4:0.175708 5:-0.508377 6:-0.0723655 7:-0.10283 8:-0.117722 9:-0.356766 10:-0.176711 
-3119.82575125268 1:-0.161248 2:-0.27124 3:0.0082504 4:0.478157 5:-0.174942 6:-0.0176273 7:-0.193834 8:-0.246455 9:-0.0440607 10:-0.325435 
-21.1426432474283 1:-0.228191 2:0.0614227 3:-0.30471 4:0.529285 5:0.0619928 6:0.145859 7:-0.0274867 8:-0.143204 9:-0.389999 10:-0.182886 
-3388.467978425532 1:0.135119 2:0.0762573 3:-0.175978 4:0.0227229 5:-0.0831935 6:-0.135604 7:-0.0842101 8:-0.194932 9:-0.140073 10:-0.00435281 
-341.0393557386646 1:-0.124877 2:0.0193218 3:0.339112 4:0.24559 5:0.350018 6:0.288874 7:-0.376728 8:-0.311451 9:-0.055989 10:-0.353659 
-1361.053280633995 1:0.043396 2:-0.0640708 3:-0.105905 4:0.393571 5:0.226437 6:-0.0461042 7:-0.322921 8:-0.227014 9:0.209803 10:-0.248122 
-1611.555212736911 1:-0.254278 2:-0.115318 3:0.0918441 4:-0.194602 5:-0.0470857 6:-0.0365083 7:-0.272816 8:-0.264861 9:-0.0883399 10:-0.220439 
-99.65017414076935 1:-0.292304 2:-0.699826 3:-0.300537 4:-0.1541 5:-0.909498 6:-0.138793 7:-0.287806 8:-0.224311 9:-0.169497 10:-0.367964 
