svm_type c_svc
kernel_type rbf
gamma 0.0078125
nr_class 2
total_sv 204
rho 468.655
label 1 -1
nr_sv 98 106
SV
1056174.998492322 1:-0.0386381 2:0.255008 3:0.0811566 4:-0.231971 5:-0.106199 6:0.293797 7:-0.91409 8:-0.741142 9:-0.0314819 10:-0.127645 
8388608 1:-0.104082 2:-0.387956 3:-0.303327 4:-0.0489196 5:-0.105936 6:0.285054 7:-0.866405 8:-0.734037 9:-0.0374526 10:-0.101711 
8388608 1:-0.13656 2:-0.188633 3:-0.0634851 4:-0.197657 5:0.135359 6:0.103526 7:-0.941643 8:-0.623077 9:0.0510017 10:-0.402324 
8381149.305126076 1:-0.166607 2:0.19974 3:-0.00969565 4:0.258205 5:-0.164364 6:-0.179946 7:-0.822842 8:-0.672027 9:0.117121 10:-0.535072 
994966.18679211 1:-0.406167 2:0.0771155 3:-0.161028 4:-0.289386 5:-0.566318 6:0.254968 7:-0.777169 8:-0.559625 9:-0.251629 10:0.037791 
8388608 1:-0.0136026 2:0.183287 3:-0.126864 4:-0.0993011 5:0.0547763 6:-0.422113 7:-0.900671 8:-0.429847 9:0.217803 10:-0.82705 
8388608 1:-0.244249 2:0.348013 3:-0.0552547 4:0.0347711 5:0.0729297 6:-0.481852 7:-0.848829 8:-0.626792 9:-0.138616 10:-0.397186 
942519.3302145908 1:-0.206675 2:-0.101243 3:-0.0212826 4:-0.287844 5:0.125599 6:0.703481 7:-0.806342 8:-0.565734 9:0.017285 10:-0.390328 
2649162.454465947 1:-0.00771958 2:0.258858 3:0.27186 4:0.0150821 5:-0.370168 6:-0.620303 7:-0.990716 8:-0.661908 9:0.157264 10:-0.553201 
8388608 1:0.00984211 2:0.366746 3:0.226666 4:0.0894706 5:0.147459 6:-0.0578205 7:-0.929014 8:-0.513987 9:-0.107214 10:-0.560113 
8388608 1:0.0067505 2:0.103401 3:-0.0453994 4:-0.0879792 5:0.0247612 6:-0.249975 7:-0.87791 8:-0.799935 9:0.0902989 10:-0.258212 
8388608 1:0.163711 2:0.155163 3:-0.269106 4:0.199009 5:0.196392 6:-0.161282 7:-0.742626 8:-0.782437 9:0.33295 10:-0.562891 
8388608 1:0.0250142 2:-0.266435 3:0.0180978 4:0.273944 5:0.157536 6:-0.0729856 7:-0.820939 8:-0.357938 9:-0.0232479 10:-0.629747 
7778261.619206413 1:-0.525555 2:-0.155016 3:-0.0209916 4:-0.599624 5:-0.211465 6:0.166705 7:-0.782676 8:-0.686687 9:0.00366565 10:-0.354266 
1569053.605704876 1:0.267302 2:-0.246794 3:0.126834 4:-0.18915 5:0.00206994 6:-0.46469 7:-0.825674 8:-0.44736 9:0.0331808 10:-0.836565 
476570.5245706889 1:-0.661069 2:-0.245421 3:-0.254822 4:-0.37464 5:-0.506399 6:-0.497176 7:-0.805614 8:-0.490051 9:0.114234 10:-0.674678 
8388608 1:-0.148322 2:0.303729 3:-0.0741924 4:-0.0998782 5:0.0381231 6:0.0574653 7:-0.919669 8:-0.750202 9:-0.0147016 10:-0.575303 
3625674.329306598 1:-0.221894 2:-0.141726 3:-0.283947 4:-0.203656 5:-0.275354 6:0.121412 7:-0.903288 8:-0.966989 9:0.250831 10:-0.763572 
8388608 1:-0.0699277 2:-0.0316553 3:-0.0766628 4:0.148985 5:0.10848 6:-0.3324 7:-0.751335 8:-0.751433 9:0.130611 10:-0.265061 
3766832.687206638 1:0.109549 2:0.0979084 3:-0.388151 4:-0.023291 5:-0.0950142 6:-0.271375 7:-0.979136 8:-0.571284 9:-0.137432 10:-0.173882 
4793284.260669539 1:-0.185409 2:0.169973 3:-0.317011 4:-0.334828 5:-0.29182 6:0.0104591 7:-0.705967 8:-0.762051 9:0.373067 10:-0.81202 
5716726.229862732 1:0.0807294 2:0.585342 3:-0.0573341 4:0.0954001 5:0.199303 6:-0.0717205 7:-0.79864 8:-0.603566 9:0.0388783 10:-0.391435 
8388608 1:-0.127321 2:-0.100238 3:-0.0636181 4:-0.118154 5:-0.17342 6:-0.168046 7:-0.887264 8:-0.855251 9:0.312462 10:-0.334657 
2617613.538504633 1:-0.321759 2:-0.0602457 3:0.196555 4:0.341936 5:-0.0778967 6:-0.192224 7:-0.767192 8:-0.526659 9:-0.248872 10:-0.331631 
561874.3007994762 1:-0.165756 2:-0.156021 3:-0.175718 4:-0.204104 5:0.18717 6:0.104005 7:-0.867576 8:-0.487431 9:0.404806 10:-0.537039 
2041020.183853283 1:0.0626028 2:-0.453743 3:-0.0987977 4:-0.0990226 5:-0.332111 6:-0.303605 7:-0.875762 8:-0.774687 9:0.0571805 10:0.00159437 
8388608 1:-0.247277 2:0.0382758 3:0.118815 4:0.189249 5:-0.13883 6:-0.244543 7:-0.765767 8:-0.876898 9:0.242662 10:-0.457474 
4452557.456667505 1:-0.0365274 2:-0.134983 3:-0.0879969 4:0.188134 5:0.230354 6:0.223565 7:-0.571676 8:-0.675164 9:0.235117 10:-0.849173 
5908722.996703198 1:0.0224047 2:0.347253 3:0.413422 4:-0.072041 5:-0.134361 6:-0.428075 7:-0.994279 8:-0.746591 9:-0.0666426 10:-0.447984 
2163960.71243897 1:0.143935 2:0.329819 3:-0.478291 4:0.29627 5:0.304491 6:-0.531323 7:-0.537259 8:-0.396547 9:-0.0734978 10:-0.165051 
4067308.101580079 1:0.0462678 2:-0.139642 3:0.209876 4:0.406524 5:-0.00359752 6:-0.0434309 7:-0.998347 8:-0.263421 9:-0.078779 10:-0.360852 
8388608 1:-0.197781 2:0.240223 3:0.16452 4:0.0670555 5:-0.0822024 6:-0.0175125 7:-0.721076 8:-0.661218 9:-0.470919 10:-0.812581 
844976.6077693109 1:-0.231845 2:-0.0555624 3:-0.493012 4:-0.6219 5:-0.492875 6:-0.224411 7:-0.599109 8:-0.54329 9:-0.492559 10:-0.949514 
750679.1872343047 1:0.112376 2:0.216046 3:0.321624 4:0.267408 5:-0.0543529 6:-0.00274662 7:-0.988605 8:-0.511938 9:0.0162704 10:-0.453443 
6199639.711009021 1:-0.254477 2:0.486649 3:0.161981 4:-0.105788 5:-0.0614914 6:-0.0399166 7:-0.731574 8:-0.535001 9:0.159527 10:-0.307011 
1050729.96371022 1:0.225258 2:0.143933 3:-0.361585 4:0.0988624 5:-0.0756239 6:0.211025 7:-0.98142 8:-0.828845 9:-0.269827 10:-0.890499 
3489836.519684531 1:0.103607 2:0.44445 3:0.207282 4:0.235611 5:-0.166721 6:-0.282533 7:-0.802329 8:-0.513403 9:0.385971 10:-0.288224 
8388608 1:-0.232949 2:0.257902 3:0.191846 4:-0.130372 5:-0.0862682 6:-0.0321564 7:-0.698508 8:-0.763658 9:0.390523 10:-0.247601 
853959.2782356697 1:-0.164829 2:0.074737 3:0.301384 4:-0.0113523 5:-0.64655 6:-0.160284 7:-0.965455 8:-0.824652 9:-0.00979762 10:-0.207654 
8388608 1:-0.178368 2:0.128828 3:-0.0400952 4:-0.276015 5:-0.49832 6:-0.314401 7:-0.907139 8:-0.954636 9:0.31911 10:-0.643236 
813958.885576864 1:0.120216 2:0.410759 3:0.167434 4:-0.270891 5:-0.121155 6:-8.5694e-005 7:-0.967521 8:-0.716286 9:0.748243 10:-0.368895 
8388608 1:-0.0989884 2:-0.198391 3:-0.448636 4:-0.305003 5:0.0116392 6:0.0620044 7:-0.807247 8:-0.709093 9:0.347649 10:-0.411634 
8388608 1:0.000106363 2:-0.116249 3:-0.27867 4:-0.0405724 5:-0.167558 6:-0.172096 7:-0.974534 8:-0.900348 9:0.376527 10:-0.688406 
8388608 1:-0.0361468 2:-0.4036 3:-0.127625 4:-0.0340956 5:-0.14845 6:-0.122391 7:-0.70901 8:-0.522492 9:0.163235 10:-0.769496 
8388608 1:-0.0820294 2:0.230169 3:-0.307311 4:-0.307374 5:-0.21741 6:-0.623957 7:-0.791645 8:-0.623776 9:0.308716 10:-0.466536 
8388608 1:-0.191522 2:0.223696 3:-0.0969173 4:-0.158159 5:-0.30343 6:-0.0394007 7:-0.963603 8:-0.691699 9:-0.000848121 10:-0.656555 
8388608 1:0.325203 2:-0.176789 3:-0.54857 4:0.0376066 5:-0.181444 6:-0.353055 7:-0.730172 8:-0.548938 9:-0.0859334 10:-0.475841 
8388608 1:0.178226 2:-0.154574 3:-0.162313 4:0.193537 5:0.0976753 6:-0.317159 7:-0.802395 8:-0.636528 9:-0.0960016 10:-0.788717 
8388608 1:-0.243164 2:0.0301106 3:-0.218838 4:-0.0206048 5:-0.288654 6:-0.0233114 7:-0.895602 8:-0.699751 9:-0.111325 10:-0.304221 
8388608 1:0.231221 2:-0.235785 3:0.0874616 4:0.171201 5:0.0729336 6:-0.213794 7:-0.923511 8:-0.854515 9:0.0391905 10:-0.609179 
8388608 1:-0.2344 2:0.120393 3:-0.241867 4:0.0241954 5:-0.190629 6:-0.0557126 7:-0.759742 8:-0.692834 9:0.00164941 10:-0.327555 
8388608 1:0.190642 2:-0.224088 3:-0.280295 4:0.130341 5:0.0150592 6:-0.501033 7:-0.810072 8:-0.729418 9:0.247631 10:-0.27606 
8388608 1:0.0325187 2:0.114386 3:0.0975606 4:0.116104 5:-0.380742 6:-0.487679 7:-0.938943 8:-0.666177 9:-0.173308 10:-0.411711 
8388608 1:-0.186033 2:0.000686561 3:-0.334244 4:-0.223942 5:-0.26708 6:0.0691603 7:-0.974739 8:-0.654599 9:-0.143793 10:-0.775975 
946664.2611750221 1:-0.11802 2:-0.145575 3:-0.149512 4:0.100365 5:-0.0410924 6:0.585542 7:-0.962159 8:-0.879376 9:0.0604325 10:-0.318264 
8388608 1:-0.109031 2:0.174386 3:-0.267964 4:-0.159433 5:0.0746797 6:-0.32291 7:-0.849615 8:-0.588627 9:-0.110545 10:-0.704319 
5261986.268900928 1:-0.1747 2:0.176397 3:-0.141449 4:-0.0812338 5:0.116014 6:-0.59765 7:-0.766374 8:-0.716631 9:0.280762 10:-0.553402 
7496284.948836281 1:0.0692611 2:0.097933 3:0.161835 4:-0.00835763 5:-0.0188987 6:-0.129429 7:-0.943194 8:-0.782273 9:0.426738 10:-0.471066 
2740162.24204107 1:0.0308476 2:0.0206704 3:0.0222999 4:-0.136928 5:-0.141932 6:-0.184814 7:-0.953174 8:-0.621071 9:0.321776 10:-0.270453 
8388608 1:0.406755 2:0.341981 3:-0.146782 4:0.249271 5:-0.116032 6:-0.387034 7:-0.907864 8:-0.621023 9:0.143996 10:-0.659809 
4785678.996114692 1:0.0473007 2:0.417699 3:-0.372954 4:0.136698 5:-0.381272 6:-0.77254 7:-0.820262 8:-0.621184 9:-0.0682425 10:-0.674262 
1003771.072419658 1:0.174931 2:0.378123 3:0.0796922 4:-0.135197 5:-0.476144 6:-0.704117 7:-0.974899 8:-0.705538 9:0.171014 10:-0.216736 
8388608 1:-0.365257 2:0.0798617 3:-0.242283 4:-0.105539 5:-0.0386382 6:-0.589807 7:-0.767248 8:-0.707962 9:0.062774 10:-0.486233 
8237936.022833405 1:-0.0052236 2:0.600716 3:-0.126033 4:-0.555609 5:-0.145485 6:-0.38424 7:-0.838997 8:-0.607393 9:0.294121 10:-0.352545 
8388608 1:0.107131 2:0.307211 3:0.026868 4:-0.198791 5:-0.112493 6:-0.0992327 7:-0.829156 8:-0.787204 9:0.224294 10:-0.703329 
8388608 1:-0.0426302 2:-0.00522276 3:-0.162936 4:-0.219136 5:-0.0983561 6:-0.198576 7:-0.770052 8:-0.477205 9:0.210454 10:-0.319045 
8388608 1:0.0713128 2:0.32006 3:-0.169767 4:-0.203208 5:-0.280253 6:0.108949 7:-0.934861 8:-0.707363 9:0.410218 10:-0.371914 
3910141.819353606 1:-0.0367236 2:0.038006 3:0.266409 4:-0.45938 5:-0.439866 6:-0.0300786 7:-0.881072 8:-0.747857 9:0.208945 10:-0.457672 
8388608 1:0.480826 2:0.357575 3:-0.246159 4:0.193646 5:0.128264 6:-0.105717 7:-0.932803 8:-0.545427 9:-0.077127 10:-0.492503 
8388608 1:-0.0817009 2:0.0298163 3:-0.146466 4:-0.180007 5:-0.0686786 6:0.0767155 7:-0.833413 8:-0.701818 9:0.452298 10:-0.629778 
1444040.155231189 1:-0.0975844 2:0.566339 3:-0.126851 4:-0.145872 5:-0.29054 6:-0.387237 7:-0.937462 8:-0.559359 9:0.0138509 10:-0.746546 
8388608 1:-0.0379597 2:-0.0627713 3:-0.199279 4:-0.410982 5:-0.37809 6:0.354815 7:-0.860085 8:-0.69443 9:-0.0307535 10:-0.804268 
8388608 1:-0.0517396 2:0.276586 3:-0.12376 4:0.262971 5:-0.0631126 6:-0.2171 7:-0.952267 8:-0.510642 9:-0.0191113 10:-0.422795 
4564927.710838256 1:-0.284738 2:0.0685089 3:-0.343704 4:-0.420356 5:-0.222223 6:-0.158722 7:-0.85148 8:-0.680839 9:-0.199844 10:-0.148477 
8388608 1:-0.315484 2:0.101562 3:-0.0468229 4:-0.0571275 5:-0.279855 6:-0.139292 7:-0.853413 8:-0.677019 9:-0.274029 10:-0.34002 
8388608 1:-0.114113 2:0.223157 3:0.0344215 4:-0.370542 5:-0.266669 6:-0.0478217 7:-0.927353 8:-0.655949 9:0.172275 10:-0.353069 
2670450.454242114 1:-0.238934 2:0.411814 3:0.0639506 4:-0.574813 5:-0.042224 6:0.176274 7:-0.78242 8:-0.695415 9:-0.0721189 10:-0.592027 
8388608 1:0.0637941 2:0.0568619 3:-0.565885 4:-0.0498946 5:0.0728653 6:0.0203307 7:-0.959327 8:-0.669052 9:0.0623577 10:-0.599401 
8388608 1:0.00510069 2:-0.12336 3:-0.245509 4:0.190383 5:-0.270042 6:-0.211395 7:-0.976027 8:-0.602817 9:-0.11087 10:-0.477145 
8388608 1:-0.0332183 2:0.172915 3:-0.165183 4:-0.0727075 5:-0.0377271 6:-0.282054 7:-0.879988 8:-0.638246 9:-0.239714 10:-0.537499 
6861051.947542739 1:0.165193 2:0.260697 3:0.226324 4:-0.193199 5:-0.585279 6:-0.187338 7:-0.768521 8:-0.524855 9:0.294668 10:-0.638301 
8388608 1:0.348485 2:-0.0160116 3:-0.602434 4:-0.475552 5:-0.362596 6:0.325364 7:-0.820256 8:-0.726148 9:-0.210147 10:-0.438824 
8388608 1:0.0354094 2:0.212711 3:0.124116 4:-0.382345 5:-0.0113017 6:-0.0480319 7:-0.78481 8:-0.704843 9:0.175865 10:-0.752212 
8388608 1:-0.088839 2:0.114288 3:0.281645 4:-0.399267 5:-0.161043 6:-0.0568487 7:-0.971949 8:-0.351659 9:-0.00181071 10:-0.505665 
8388608 1:0.0279403 2:-0.0573768 3:-0.198022 4:-0.219415 5:-0.234631 6:-0.320237 7:-0.83052 8:-0.921759 9:0.0957362 10:-0.376729 
8388608 1:-0.121249 2:-0.0136822 3:0.0342095 4:-0.00975048 5:0.0885196 6:-0.0686515 7:-0.921764 8:-0.986722 9:-0.0209715 10:-0.359884 
103508.835353279 1:0.0126052 2:0.0149572 3:0.19739 4:0.330823 5:0.153519 6:-0.236518 7:-0.789182 8:-0.555398 9:-0.0115797 10:-0.592642 
8388608 1:0.035433 2:0.212834 3:0.079945 4:0.117198 5:-0.270186 6:-0.0495585 7:-0.811424 8:-0.717079 9:-0.00542694 10:-0.404099 
8388608 1:0.175877 2:0.15759 3:-0.211547 4:0.121705 5:-0.405729 6:-0.62898 7:-0.87892 8:-0.677035 9:0.429274 10:-0.358349 
8388608 1:0.0464215 2:0.0183165 3:-0.35451 4:0.163431 5:0.0849708 6:-0.398575 7:-0.908188 8:-0.625684 9:-0.252618 10:-0.748744 
8388608 1:-0.0677484 2:-0.242846 3:-0.28069 4:-0.205427 5:-0.450247 6:-0.282501 7:-0.841807 8:-0.824089 9:0.0525107 10:-0.735899 
8388608 1:0.395883 2:0.0227791 3:-0.0243864 4:0.0244143 5:-0.186421 6:-0.372858 7:-0.825577 8:-0.597337 9:-0.138642 10:-0.0340556 
1702641.121544785 1:-0.445745 2:-0.00958733 3:-0.41933 4:-0.127745 5:-0.28577 6:-0.375475 7:-0.890069 8:-0.774006 9:0.284586 10:-0.575289 
8388608 1:-0.140654 2:0.240689 3:-0.17458 4:-0.570142 5:-0.439802 6:-0.125075 7:-0.720781 8:-0.71772 9:0.130142 10:-0.613003 
8388608 1:-0.239657 2:0.0940588 3:0.121231 4:-0.293793 5:-0.0441788 6:-0.28645 7:-0.9266 8:-0.655755 9:-0.242159 10:-0.581831 
8388608 1:0.0147183 2:0.0996739 3:-0.0729888 4:0.0677022 5:-0.156084 6:-0.0747472 7:-0.898408 8:-0.693324 9:-0.174297 10:-0.545521 
8388608 1:0.0806018 2:-0.193193 3:-0.138468 4:0.0528484 5:-0.0100219 6:-0.254519 7:-0.961962 8:-0.594813 9:-0.153432 10:-0.325772 
8388608 1:-0.191226 2:-0.044651 3:-0.0380027 4:-0.0645593 5:0.0105955 6:0.00734229 7:-0.845475 8:-0.887562 9:0.0212264 10:-0.411049 
-8388608 1:0.207646 2:0.443886 3:0.0578378 4:0.128988 5:0.178612 6:-0.11511 7:-0.899379 8:-0.458993 9:0.201231 10:-0.490615 
-7640564.035514263 1:0.30143 2:0.0929799 3:-0.098961 4:0.277805 5:-0.0580304 6:-0.76695 7:-0.894185 8:-0.667027 9:-0.170082 10:-0.39283 
-8133518.950333118 1:-0.252999 2:0.265307 3:-0.245637 4:-0.555804 5:-0.0790497 6:0.258168 7:-0.706247 8:-0.703025 9:0.117941 10:-0.536999 
-8388608 1:-0.0165335 2:0.38597 3:0.029877 4:-0.181151 5:-0.0670964 6:0.078592 7:-0.856553 8:-0.767084 9:0.216424 10:-0.380619 
-9287.117543735529 1:0.186003 2:-0.135228 3:-0.645474 4:-0.0376175 5:-0.268542 6:-0.126789 7:-0.875697 8:-0.518032 9:0.210454 10:-0.378319 
-8388608 1:0.0308145 2:0.124488 3:-0.163774 4:-0.0257584 5:-0.0386889 6:-0.379991 7:-0.822685 8:-0.698133 9:0.266401 10:-0.683744 
-2700728.637427412 1:0.138409 2:-0.00524728 3:-0.254966 4:-0.0455568 5:-0.0296054 6:-0.296788 7:-0.884517 8:-0.379868 9:0.295669 10:-0.813964 
-8388608 1:-0.120582 2:0.341613 3:0.122045 4:-0.422437 5:0.0243671 6:-0.133609 7:-0.743067 8:-0.468219 9:0.166409 10:-0.574439 
-8388608 1:-0.265832 2:-0.341736 3:-0.256634 4:-0.320186 5:-0.074906 6:0.349471 7:-0.900063 8:-0.792332 9:-0.00142047 10:-0.292359 
-7037487.437681968 1:-0.193488 2:0.219503 3:0.25885 4:-0.0964657 5:-0.0710197 6:0.17676 7:-0.988248 8:-0.328702 9:-0.171994 10:-0.537387 
-1377027.401618235 1:-0.198724 2:-0.201947 3:0.080086 4:0.17544 5:0.162077 6:-0.310319 7:-0.659625 8:-0.49028 9:-0.107527 10:-0.626122 
-1214738.637268037 1:-0.18197 2:-0.294902 3:-0.63768 4:-0.313829 5:-0.22232 6:0.688268 7:-0.73667 8:-0.672938 9:0.318654 10:-0.704212 
-7859916.20528549 1:0.250598 2:-0.225216 3:-0.227347 4:0.0767856 5:-0.0482836 6:-0.107518 7:-0.998857 8:-0.623645 9:0.198512 10:-0.185213 
-8388608 1:0.00547887 2:-0.0454356 3:-0.0377735 4:-0.0875813 5:-0.546454 6:-0.49681 7:-0.933976 8:-0.885041 9:0.120126 10:-0.173396 
-8388608 1:-0.0645032 2:0.0216512 3:-0.07912 4:-0.0233607 5:-0.258079 6:0.0675366 7:-0.867958 8:-0.848737 9:0.414484 10:-0.337921 
-1378884.578313679 1:0.375418 2:0.0175809 3:-0.192236 4:-0.125805 5:-0.658306 6:-0.434839 7:-0.891872 8:-0.635313 9:-0.212514 10:-0.836752 
-8388608 1:0.202527 2:0.155555 3:-0.319494 4:0.145901 5:0.0513856 6:-0.0374129 7:-0.824211 8:-0.658062 9:-0.259161 10:-0.644529 
-470478.7451789592 1:-0.0637657 2:0.230071 3:0.234817 4:-0.327161 5:-0.368665 6:-0.392119 7:-0.881382 8:-0.615081 9:-0.0076513 10:-0.291903 
-8388608 1:-0.0193462 2:0.112866 3:-0.0705276 4:0.0528385 5:-0.0433828 6:-0.0203731 7:-0.802409 8:-0.808936 9:0.0655447 10:-0.689965 
-2326579.538478537 1:0.396039 2:-0.218498 3:-0.233778 4:0.648632 5:-0.0175954 6:0.0198501 7:-0.860926 8:-0.424197 9:-0.245932 10:-0.372317 
-7255425.446155266 1:-0.111414 2:0.0683128 3:-0.173537 4:0.086854 5:-0.0640685 6:-0.0698247 7:-0.777704 8:-0.673717 9:-0.15139 10:-0.186421 
-4155359.394504814 1:0.220332 2:-0.0917539 3:-0.461169 4:-0.323948 5:-0.258401 6:0.156416 7:-0.818024 8:-0.887659 9:0.222473 10:-0.840673 
-8388608 1:-0.0729366 2:-0.00323664 3:-0.145135 4:-0.481139 5:-0.62136 6:0.333806 7:-0.846681 8:-0.607254 9:-0.196501 10:-0.772413 
-3127008.905078814 1:0.180195 2:0.143663 3:-0.383941 4:0.220857 5:-0.328693 6:-0.153718 7:-0.992802 8:-0.812742 9:-0.196306 10:-0.272506 
-1353030.31634114 1:-0.105571 2:0.499939 3:0.25162 4:-0.260295 5:-0.0360025 6:-0.0844368 7:-0.796264 8:-0.671289 9:0.0747023 10:-0.526915 
-8388608 1:-0.290276 2:0.233553 3:-0.104439 4:-0.293963 5:-0.421097 6:-0.242084 7:-0.829097 8:-0.750311 9:0.306609 10:-0.520716 
-8388608 1:0.115345 2:0.0848883 3:-0.201168 4:-0.0513272 5:0.0147042 6:-0.0726217 7:-0.793234 8:-0.775082 9:0.204743 10:-0.334358 
-7845905.683229635 1:-0.0101399 2:-0.258147 3:-0.0818538 4:0.186005 5:-0.28642 6:-0.128939 7:-0.906435 8:-0.485074 9:0.201947 10:-0.428391 
-8226676.760879526 1:-0.216798 2:0.329206 3:-0.0728979 4:-0.154508 5:0.0719386 6:-0.170733 7:-0.992972 8:-0.531705 9:-0.196775 10:-0.557715 
-3517494.590764108 1:0.0149239 2:0.101709 3:0.264407 4:-0.447347 5:-0.504807 6:-0.233172 7:-0.837295 8:-0.369141 9:0.33494 10:-0.446018 
-4510557.067798561 1:0.0594379 2:0.0712797 3:-0.469113 4:0.143653 5:-0.19449 6:-0.191037 7:-0.794871 8:-0.517664 9:-0.183064 10:-0.704183 
-4846461.285761189 1:-0.333975 2:0.0313856 3:0.081121 4:-0.176565 5:-0.10845 6:-0.053617 7:-0.996108 8:-0.673145 9:-0.43999 10:-0.535992 
-2297345.419039804 1:-0.0105417 2:-0.0547287 3:0.0701358 4:0.120511 5:-0.574256 6:-0.595514 7:-0.796618 8:-0.639924 9:-0.224052 10:-0.720091 
-5794836.188075591 1:0.182093 2:-0.274943 3:-0.24838 4:0.021937 5:0.181345 6:-0.149499 7:-0.777956 8:-0.441815 9:-0.157555 10:-0.821171 
-1143499.676216772 1:-0.272426 2:-0.36476 3:-0.25104 4:-0.364612 5:-0.320251 6:-0.130265 7:-0.750647 8:-0.955085 9:-0.207545 10:-0.774861 
-7497640.540411223 1:0.234542 2:-0.246451 3:-0.47484 4:-0.497837 5:-0.0418436 6:0.0796344 7:-0.791635 8:-0.755974 9:-0.115071 10:-0.0887067 
-139034.3488333581 1:-0.0287889 2:-0.1724 3:-0.264622 4:-0.245123 5:0.125698 6:-0.311759 7:-0.859439 8:-0.488224 9:0.275351 10:-0.335429 
-6418115.869067504 1:0.258414 2:0.183361 3:-0.140799 4:0.234994 5:-0.250615 6:-0.349401 7:-0.803783 8:-0.461225 9:0.141329 10:-0.16732 
-8388608 1:-0.0569183 2:0.27124 3:0.0264216 4:-0.0756624 5:-0.00657463 6:-0.0483729 7:-0.984035 8:-0.666471 9:0.0125501 10:-0.322936 
-8388608 1:-0.226009 2:-0.0861634 3:0.184357 4:-0.424159 5:-0.34947 6:0.216413 7:-0.805037 8:-0.786676 9:0.16343 10:-0.369377 
-7725362.04204409 1:-0.272152 2:0.171027 3:0.101856 4:-0.14624 5:-0.219712 6:-0.272331 7:-0.713847 8:-0.634725 9:0.0516001 10:-0.182004 
-3083759.879706683 1:0.281949 2:0.130226 3:-0.294338 4:-0.353065 5:-0.404268 6:-0.344388 7:-0.691053 8:-0.457246 9:0.272372 10:-0.0659202 
-8388608 1:-0.0130614 2:-0.229556 3:0.0364508 4:-0.222191 5:-0.0564033 6:-0.0197087 7:-0.835886 8:-0.712797 9:0.0913395 10:-0.699094 
-2383028.997733333 1:0.0519878 2:-0.193635 3:-0.126221 4:-0.259619 5:-0.0520567 6:0.180746 7:-0.603286 8:-0.420281 9:-0.133777 10:-0.930279 
-8388608 1:0.332656 2:0.0135105 3:-0.460341 4:-0.137485 5:-0.126428 6:-0.320606 7:-0.858572 8:-0.796781 9:0.0634374 10:-0.88577 
-8388608 1:0.0041907 2:0.0473236 3:0.0560916 4:-0.112096 5:-0.0792253 6:-0.00838829 7:-0.885895 8:-0.757409 9:0.234974 10:-0.491177 
-8388608 1:-0.012123 2:0.230243 3:0.105888 4:-0.0905261 5:-0.184972 6:0.00153984 7:-0.984442 8:-0.797618 9:-0.0926455 10:-0.667207 
-8231121.781557608 1:-0.158188 2:0.390702 3:0.172272 4:-0.539146 5:-0.291568 6:-0.448827 7:-0.693385 8:-0.688162 9:0.308001 10:-0.482852 
-8388608 1:-0.054446 2:0.0433269 3:-0.0234739 4:-0.156339 5:-0.121295 6:-0.197484 7:-0.896719 8:-0.855111 9:0.104282 10:-0.71033 
-8388608 1:-0.30308 2:-0.052669 3:-0.245396 4:-0.379087 5:-0.146997 6:-0.00804198 7:-0.976994 8:-0.683732 9:-0.0925805 10:-0.709428 
-8388608 1:-0.241588 2:-0.273889 3:-0.413358 4:0.0214893 5:-0.011688 6:-0.149135 7:-0.755072 8:-0.652173 9:0.205081 10:-0.421858 
-8388608 1:-0.105902 2:-0.0860162 3:-0.077898 4:0.128799 5:0.0409071 6:-0.251683 7:-0.995516 8:-0.651609 9:-0.222647 10:-0.645113 
-3213241.48161443 1:-0.131245 2:-0.0136331 3:0.0770322 4:-0.282352 5:-0.410581 6:0.245962 7:-0.847834 8:-0.716837 9:-0.26919 10:-0.0354305 
-8388608 1:-0.175312 2:0.183066 3:-0.367492 4:-0.372075 5:-0.453049 6:-0.462033 7:-0.757377 8:-0.694175 9:0.327799 10:-0.77134 
-899517.8010537574 1:0.173468 2:0.184096 3:-0.00385278 4:-0.0198686 5:-0.19687 6:-0.312614 7:-0.761847 8:-0.719405 9:0.227663 10:-0.779746 
-8298879.390974894 1:-0.173298 2:-0.21151 3:0.118635 4:0.154577 5:0.171647 6:-0.00452941 7:-0.651983 8:-0.774964 9:0.192399 10:-0.527157 
-8388608 1:-0.000666541 2:0.22068 3:-0.527558 4:-0.394821 5:-0.441256 6:0.0489118 7:-0.832359 8:-0.797067 9:0.117993 10:-0.632704 
-8388608 1:-0.115765 2:0.168379 3:-0.058801 4:0.0419841 5:-0.119535 6:-0.443912 7:-0.782189 8:-0.742858 9:0.177583 10:-0.679663 
-1626888.012139165 1:0.161858 2:-0.0914597 3:-0.472029 4:0.0661203 5:-0.0448538 6:0.584305 7:-0.838064 8:-0.902361 9:-0.0278787 10:-0.352176 
-8388608 1:0.21741 2:0.340657 3:-0.108812 4:-0.0600624 5:0.0979991 6:-0.256731 7:-0.943771 8:-0.778965 9:0.278928 10:-0.511612 
-438541.5862922879 1:0.624147 2:0.0691465 3:-0.532376 4:-0.312749 5:-0.469187 6:0.330129 7:-0.860119 8:-0.464719 9:-0.617253 10:-0.504883 
-7645191.358688284 1:0.0507256 2:0.228281 3:-0.123665 4:0.251549 5:-0.07101 6:-0.828647 7:-0.72951 8:-0.788314 9:0.278473 10:-0.417027 
-2849850.557034984 1:-0.274955 2:0.52924 3:0.106233 4:0.0647772 5:0.202497 6:0.0956354 7:-0.59474 8:-0.862117 9:0.0426896 10:-0.639402 
-1720780.618579936 1:0.125019 2:0.392124 3:-0.0299936 4:0.254852 5:0.326732 6:-0.350678 7:-0.708679 8:-0.443923 9:0.0847835 10:-0.418469 
-1140114.762535504 1:0.0652595 2:-0.146752 3:-0.000435549 4:0.322983 5:0.279504 6:0.120462 7:-0.749084 8:-0.99863 9:0.095346 10:-0.615537 
-1450988.764484631 1:0.295956 2:-0.295711 3:0.101702 4:0.251977 5:-0.108232 6:-0.428358 7:-0.734866 8:-0.622362 9:-0.413137 10:-0.875823 
-8388608 1:-0.0892503 2:0.0684599 3:-0.015952 4:-0.396499 5:-0.154104 6:-0.240073 7:-0.86836 8:-0.668442 9:0.0564391 10:-0.416367 
-3812403.31166 1:-0.104992 2:-0.110978 3:0.0554463 4:0.059176 5:0.0913738 6:-0.252639 7:-0.822511 8:-0.730899 9:-0.212072 10:-0.25235 
-8388608 1:0.150459 2:0.00899885 3:-0.0704854 4:0.0581214 5:-0.462622 6:-0.324735 7:-0.875733 8:-0.783585 9:0.147755 10:-0.743323 
-8388608 1:0.211286 2:0.724419 3:0.229655 4:0.0676127 5:-0.357481 6:-0.330405 7:-0.965538 8:-0.573137 9:0.188015 10:-0.454482 
-112249.8384487308 1:-0.00725395 2:0.0316308 3:0.0449115 4:0.123118 5:-0.0267902 6:-0.0390614 7:-0.822114 8:-0.879129 9:-0.137276 10:-0.747734 
-8388608 1:-0.377314 2:0.16014 3:0.0337986 4:-0.0885761 5:0.0360629 6:-0.376259 7:-0.710225 8:-0.582368 9:0.0893883 10:-0.435792 
-8388608 1:0.100607 2:0.0794449 3:0.104932 4:0.0497344 5:-0.0282475 6:0.0939285 7:-0.840048 8:-0.554226 9:0.157173 10:-0.67261 
-8388608 1:0.0848965 2:0.0607851 3:0.0605966 4:0.104961 5:-0.295226 6:-0.0718548 7:-0.890684 8:-0.815921 9:-0.0823562 10:-0.124083 
-168559.3120281557 1:0.204437 2:-0.135645 3:-0.743387 4:-0.0344936 5:-0.309472 6:0.123163 7:-0.738599 8:-0.519676 9:0.284261 10:-0.307383 
-8388608 1:-0.236345 2:0.444278 3:0.0883597 4:-0.281148 5:-0.34559 6:-0.301758 7:-0.919682 8:-0.661913 9:-0.188215 10:-0.56879 
-1483066.342219238 1:0.158318 2:-0.273055 3:-0.699034 4:0.119118 5:-0.0634228 6:-0.0818413 7:-0.693809 8:-0.517886 9:0.469222 10:-0.706802 
-4305946.7426395 1:0.308887 2:-0.0641689 3:-0.53541 4:-0.28082 5:-0.0466663 6:-0.554464 7:-0.901159 8:-0.541476 9:-0.320455 10:-0.181068 
-1326360.21346144 1:-0.0960622 2:-0.0548268 3:-0.681593 4:-0.339051 5:-0.132497 6:-0.252335 7:-0.814566 8:-0.902555 9:0.00655343 10:-0.699816 
-8388608 1:-0.0831072 2:0.0806463 3:-0.116685 4:-0.0697428 5:-0.0838627 6:-0.0544793 7:-0.947795 8:-0.633986 9:0.21766 10:-0.558872 
-8388608 1:0.12534 2:0.250153 3:-0.19364 4:0.229005 5:0.197264 6:-0.2752 7:-0.770505 8:-0.549648 9:-0.0379209 10:-0.414051 
-591119.6717377023 1:-0.260348 2:0.0153741 3:-0.244804 4:-0.193498 5:-0.313842 6:-0.447726 7:-0.90594 8:-0.583592 9:0.00458922 10:-0.354772 
-8388608 1:-0.193155 2:0.152294 3:-0.0724844 4:-0.05664 5:-0.0957634 6:-0.0692858 7:-0.895873 8:-0.664025 9:0.0242833 10:-0.381418 
-8388608 1:-0.201891 2:0.303411 3:-0.0425787 4:-0.181271 5:-0.0963408 6:-0.47115 7:-0.79864 8:-0.685137 9:-0.122707 10:-0.316575 
-69222.94365314052 1:0.561676 2:-0.383223 3:-0.776276 4:-0.436396 5:-0.94865 6:-0.137843 7:-0.604497 8:-0.556857 9:-0.412586 10:-0.422222 
-3473819.43265577 1:-0.266382 2:0.0451168 3:0.128881 4:0.29226 5:-0.153527 6:0.0951866 7:-0.644745 8:-0.759894 9:0.0545009 10:-0.667265 
-907844.4240280094 1:-0.165189 2:0.023294 3:0.0697908 4:-0.285665 5:-0.229946 6:0.0591156 7:-0.946605 8:-0.5729 9:-0.0386624 10:-0.653737 
-8388608 1:-0.13266 2:-0.0519579 3:-0.14365 4:-0.0184956 5:-0.162013 6:-0.192618 7:-0.987017 8:-0.626546 9:0.00707375 10:-0.439603 
-6423848.724054972 1:0.013943 2:0.170169 3:0.00795411 4:-0.0663402 5:-0.187668 6:-0.182094 7:-0.929977 8:-0.906336 9:0.219637 10:-0.360122 
-746661.3321309936 1:0.343793 2:-0.722605 3:0.0440385 4:0.274432 5:0.129749 6:-0.186162 7:-0.843957 8:-0.514024 9:-0.190518 10:-0.290795 
-3367621.32448371 1:0.434844 2:-0.299438 3:-0.0222716 4:0.122053 5:0.00868944 6:-0.0568487 7:-0.925146 8:-0.512319 9:0.264619 10:-0.846471 
-8388608 1:-0.251716 2:-0.220337 3:-0.31641 4:0.18518 5:-0.15563 6:-0.305718 7:-0.765992 8:-0.596492 9:-0.0676702 10:-0.2632 
-8388608 1:-0.303735 2:0.149229 3:-0.452952 4:0.113627 5:-0.152789 6:-0.163014 7:-0.859945 8:-0.641344 9:-0.243903 10:-0.512243 
-8388608 1:0.0588707 2:0.446313 3:-0.326069 4:-0.0406818 5:0.00394478 6:-0.2161 7:-0.920522 8:-0.574536 9:-0.129835 10:-0.579863 
-7172116.882571324 1:-0.377947 2:0.130152 3:-0.157855 4:-0.409018 5:-0.251531 6:0.0109026 7:-0.852387 8:-0.982071 9:0.612219 10:-0.325157 
-8388608 1:-0.0938948 2:-0.0308952 3:0.0111975 4:-0.100008 5:-0.0338935 6:-0.336344 7:-0.981725 8:-0.676869 9:-0.153627 10:-0.543268 
-8388608 1:0.181571 2:0.15249 3:-0.409319 4:-0.0542224 5:-0.00930789 6:-0.399365 7:-0.804654 8:-0.429045 9:0.141121 10:-0.364756 
-8388608 1:-0.113206 2:0.0325135 3:-0.246188 4:0.23767 5:-0.0665599 6:-0.290968 7:-0.869034 8:-0.740242 9:0.0623057 10:-0.640916 
-8388608 1:0.11924 2:0.0461712 3:-0.0758319 4:-0.100694 5:0.0750016 6:-0.298797 7:-0.998865 8:-0.733107 9:0.722683 10:-0.478791 
-8388608 1:-0.0350525 2:0.213864 3:-0.118491 4:0.143852 5:0.129296 6:-0.0880907 7:-0.853049 8:-0.655893 9:-0.0839562 10:-0.461084 
-2749516.076545507 1:0.146031 2:0.319202 3:-0.280864 4:-0.160895 5:-0.3097 6:-0.372158 7:-0.805183 8:-0.426283 9:0.390497 10:-0.519706 
-8388608 1:0.0232202 2:0.171248 3:0.374272 4:0.209067 5:-0.0545734 6:-0.245617 7:-0.906447 8:-0.471507 9:-0.201535 10:-0.513715 
-8388608 1:-0.195067 2:-0.119878 3:-0.297299 4:-0.106275 5:-0.115731 6:-0.410136 7:-0.924212 8:-0.755739 9:0.0771478 10:-0.611561 
-8388608 1:0.0107521 2:-0.0526445 3:0.138981 4:0.26496 5:0.122394 6:-0.25747 7:-0.806021 8:-0.864415 9:0.08399 10:-0.487121 
-8388608 1:-0.208013 2:-0.280828 3:-0.121351 4:-0.17753 5:-0.0694219 6:-0.214209 7:-0.941367 8:-0.746417 9:0.112933 10:-0.416767 
-710096.4482544353 1:-0.227957 2:-0.0643405 3:-0.144461 4:-0.184166 5:-0.399593 6:-0.680602 7:-0.953222 8:-0.601724 9:-0.018565 10:-0.466932 
