svm_type c_svc
kernel_type rbf
gamma 0.00390625
nr_class 2
total_sv 8
rho -0.586051
label 1 -1
nr_sv 4 4
SV
404.7037919747475 1:0.0121774 2:0.0661305 3:-0.164794 4:0.208102 5:0.218018 6:0.291963 7:-0.742538 8:-0.667763 9:0.0202118 10:-0.538626 
323.8443198384871 1:0.248468 2:0.0768703 3:-0.157284 4:0.264224 5:0.156931 6:-0.198708 7:-0.760955 8:-0.647414 9:-0.237346 10:-0.409977 
434.6354052840479 1:-0.375759 2:-0.365986 3:-0.28044 4:0.0077398 5:-0.207479 6:-0.00261411 7:-0.896627 8:-0.524516 9:-0.235005 10:-0.24982 
73.18618336086539 1:-0.45347 2:-0.41917 3:-0.269555 4:-0.425002 5:-0.236115 6:-0.265587 7:-0.880666 8:-0.65894 9:-0.379538 10:-0.551551 
-34.4978053337614 1:0.215347 2:-0.134688 3:0.105709 4:0.0199969 5:-0.0835427 6:0.0914514 7:-0.424594 8:-0.417375 9:-0.404746 10:-0.222123 
-99.84197145548616 1:0.128016 2:-0.483486 3:-0.0656355 4:-0.150349 5:-0.572323 6:0.305944 7:-0.427795 8:-0.447262 9:-0.0346429 10:-0.269077 
-375.9690563968855 1:-0.0160419 2:0.2388 3:-0.0228009 4:0.184792 5:-0.0222113 6:-0.127162 7:-0.451911 8:-0.376311 9:-0.262803 10:-0.302938 
-726.060867272015 1:-0.205829 2:-0.162004 3:-0.336697 4:0.0408102 5:0.0394537 6:0.0831576 7:-0.400142 8:-0.404314 9:-0.182999 10:-0.474968 
