svm_type c_svc
kernel_type rbf
gamma 0.00390625
nr_class 2
total_sv 230
rho -3572.27
label 1 -1
nr_sv 113 117
SV
6638069.458468856 1:-0.122918 2:0.0239561 3:-0.110726 4:0.686259 5:0.505849 6:-0.192883 7:-0.991806 8:-0.609863 9:0.420169 10:-0.32504 
8388608 1:-0.0450884 2:0.135645 3:0.184196 4:0.395551 5:0.169019 6:-0.519734 7:-0.916383 8:-0.621591 9:0.136607 10:-0.527798 
8388608 1:-0.212118 2:0.0664002 3:-0.166809 4:-0.016466 5:0.0343676 6:-0.23291 7:-0.946406 8:-0.704329 9:0.0103518 10:-0.2556 
8388608 1:-0.13656 2:-0.188633 3:-0.0634851 4:-0.197657 5:0.135359 6:0.103526 7:-0.941643 8:-0.623077 9:0.0510017 10:-0.402324 
8388608 1:-0.0293585 2:0.185837 3:-0.00348669 4:0.451563 5:0.465445 6:0.000871958 7:-0.871331 8:-0.610832 9:0.0997427 10:-0.197952 
1576802.679515812 1:-0.204576 2:0.235392 3:0.497819 4:0.57314 5:0.475902 6:-0.000530949 7:-0.970604 8:-0.809534 9:0.438627 10:-0.598222 
8388608 1:0.180616 2:0.088836 3:0.0622755 4:0.338662 5:0.0486952 6:0.0841259 7:-0.911323 8:-0.59813 9:-0.176313 10:-0.732574 
8388608 1:-0.291798 2:-0.344874 3:-0.486703 4:-0.053904 5:-0.039877 6:-0.3399 7:-0.843265 8:-0.6866 9:0.142318 10:-0.290774 
2286256.635147214 1:0.0357403 2:0.289778 3:0.75155 4:0.39766 5:-0.0365546 6:-0.000345426 7:-0.740167 8:-0.508351 9:0.18315 10:-0.374216 
8388608 1:-0.138428 2:-0.134787 3:-0.16246 4:0.165312 5:0.166664 6:-0.00242858 7:-0.773651 8:-0.792544 9:0.232463 10:-0.328144 
8388608 1:0.00773613 2:-0.0590197 3:0.0637965 4:0.236088 5:0.208289 6:-0.312688 7:-0.920869 8:-0.817634 9:0.022059 10:-0.132366 
8388608 1:-0.163487 2:0.0149817 3:0.144481 4:0.269766 5:-0.137558 6:0.328767 7:-0.851235 8:-0.628378 9:-0.0672539 10:-0.321201 
8388608 1:-0.131703 2:0.0288846 3:-0.09153 4:0.100305 5:0.122571 6:-0.147025 7:-0.833155 8:-0.726155 9:0.285393 10:-0.701405 
8388608 1:-0.381566 2:0.0136822 3:0.0392162 4:0.299642 5:0.492622 6:-0.3128 7:-0.999892 8:-0.627304 9:0.0877753 10:-0.437748 
8388608 1:-0.121634 2:0.173798 3:-0.385728 4:0.176962 5:0.223623 6:0.267767 7:-0.974756 8:-0.733172 9:0.211091 10:-0.76096 
5382227.431010012 1:-0.18448 2:-0.336586 3:-0.451564 4:0.093679 5:-0.136667 6:0.275858 7:-0.985277 8:-0.890962 9:-0.147838 10:-0.141055 
8388608 1:-0.111036 2:0.0887625 3:-0.2947 4:-0.0928244 5:0.0363517 6:-0.28024 7:-0.931579 8:-0.842937 9:0.22514 10:-0.587197 
5862475.824210237 1:-0.345996 2:-0.133683 3:0.144444 4:-0.163591 5:0.0880845 6:0.430603 7:-0.896957 8:-0.78502 9:0.260938 10:-0.460259 
8388608 1:0.163711 2:0.155163 3:-0.269106 4:0.199009 5:0.196392 6:-0.161282 7:-0.742626 8:-0.782437 9:0.33295 10:-0.562891 
8388608 1:-0.212097 2:0.0745654 3:-0.539203 4:0.342672 5:0.287645 6:-0.00776105 7:-0.885902 8:-0.895705 9:0.356625 10:-0.524684 
400282.4872853541 1:-0.287799 2:0.123189 3:0.198563 4:0.528877 5:0.286761 6:-0.00772217 7:-0.825603 8:-0.700714 9:0.382823 10:-0.315827 
8388608 1:-0.0924435 2:-0.118726 3:-0.382748 4:-0.118224 5:0.387119 6:-0.00153631 7:-0.841768 8:-0.687034 9:0.322765 10:-0.710186 
8388608 1:0.0106883 2:0.000931761 3:-0.270564 4:0.224727 5:0.150986 6:0.266723 7:-0.795731 8:-0.538 9:0.0420132 10:-0.567107 
7947278.72718585 1:-0.0397892 2:-0.220312 3:-0.110929 4:0.155591 5:0.142506 6:0.25122 7:-0.895252 8:-0.508544 9:0.277302 10:-0.519427 
8388608 1:-0.0919731 2:-0.0590442 3:0.185567 4:0.357735 5:0.176407 6:0.0547001 7:-0.943986 8:-0.779213 9:0.0932777 10:-0.0520545 
8388608 1:0.0338825 2:0.217174 3:0.143286 4:0.0863963 5:-0.0305086 6:-0.286302 7:-0.921921 8:-0.708901 9:0.169921 10:-0.382799 
884148.9399489135 1:0.128297 2:0.309516 3:0.312591 4:0.315312 5:0.19196 6:-0.328658 7:-0.935967 8:-0.67071 9:0.216711 10:-0.164421 
8388608 1:-0.0144606 2:0.0351372 3:0.324271 4:0.285644 5:0.282842 6:-0.656475 7:-0.973867 8:-0.875565 9:0.033519 10:-0.621526 
8388608 1:-0.10693 2:0.224628 3:0.125134 4:0.293962 5:0.393436 6:-0.078516 7:-0.830973 8:-0.843598 9:0.00918104 10:-0.442975 
8388608 1:-0.506256 2:-0.0716965 3:-0.103933 4:0.0792629 5:-0.252234 6:-0.388809 7:-0.882117 8:-0.74998 9:-0.183441 10:-0.615603 
8388608 1:-0.0447953 2:0.0555378 3:-0.0691436 4:0.357108 5:0.275583 6:0.0348527 7:-0.851333 8:-0.783615 9:-0.126505 10:-0.124241 
752468.2918108553 1:-0.144996 2:-0.311723 3:-0.514184 4:-0.502281 5:-0.628412 6:-0.112004 7:-0.764225 8:-0.654937 9:-0.335297 10:-0.919135 
5229717.855112437 1:-0.178801 2:-0.0363387 3:-0.222081 4:0.116343 5:0.663465 6:0.148964 7:-0.80614 8:-0.612757 9:0.307728 10:-0.481269 
8388608 1:0.081266 2:0.276733 3:0.0668055 4:0.169092 5:0.245716 6:0.114995 7:-0.902667 8:-0.807009 9:0.244314 10:-0.293177 
8388608 1:-0.243186 2:-0.13003 3:-0.182822 4:0.135684 5:0.135359 6:0.0129522 7:-0.926401 8:-0.5659 9:0.138298 10:-0.499281 
234925.7420833007 1:-0.0780254 2:-0.504181 3:-0.203896 4:0.174126 5:0.194843 6:0.100015 7:-0.88184 8:-0.571641 9:-0.386851 10:-0.799985 
8388608 1:0.0677531 2:0.241277 3:-0.185032 4:0.3626 5:0.271312 6:-0.414648 7:-0.999275 8:-0.806358 9:0.291129 10:-0.231453 
8388608 1:-0.0764631 2:0.182037 3:0.293167 4:0.170376 5:0.0658458 6:0.260807 7:-0.774175 8:-0.701696 9:0.274401 10:-0.32604 
8388608 1:0.036317 2:-0.091901 3:-0.138422 4:-0.0271811 5:0.301579 6:-0.155625 7:-0.94262 8:-0.654723 9:0.0760812 10:-0.81546 
8388608 1:-0.187948 2:-0.297305 3:0.158123 4:0.0547387 5:-0.106199 6:-0.372582 7:-0.952488 8:-0.739362 9:0.235247 10:-0.631306 
5042837.931760092 1:-0.205337 2:-0.0406297 3:0.461882 4:0.950464 5:0.754027 6:0.059681 7:-0.685353 8:-0.761822 9:0.181264 10:-0.500666 
2290028.260555309 1:-0.423407 2:-0.221367 3:-0.128149 4:0.134888 5:0.290181 6:0.181669 7:-0.867651 8:-0.576119 9:0.213146 10:-0.628544 
8388608 1:-0.39658 2:-0.0996984 3:0.167031 4:0.0562609 5:0.398159 6:-0.135567 7:-0.88801 8:-0.728202 9:0.067756 10:-0.374904 
8388608 1:-0.0152524 2:-0.380256 3:-0.0233185 4:0.305323 5:0.229704 6:-0.0251861 7:-0.851274 8:-0.630647 9:0.0295386 10:-0.108917 
8388608 1:-0.379247 2:0.0388152 3:0.10198 4:0.117746 5:0.0817615 6:-0.144848 7:-0.988055 8:-0.666105 9:0.0418051 10:-0.503633 
3952391.479597898 1:0.42621 2:-0.345144 3:-0.188266 4:0.77003 5:0.526022 6:0.17993 7:-0.643169 8:-0.710225 9:0.150734 10:-0.909961 
8388608 1:-0.0559989 2:0.178113 3:-0.118445 4:0.225672 5:0.145713 6:-0.437876 7:-0.996296 8:-0.814302 9:0.174838 10:-0.627667 
8388608 1:-0.270155 2:-0.102347 3:-0.415246 4:0.151224 5:0.0741822 6:-0.479315 7:-0.736889 8:-0.812672 9:0.128282 10:-0.624426 
8388608 1:0.114966 2:0.13616 3:-0.390474 4:0.275556 5:0.542956 6:0.275603 7:-0.871636 8:-0.75531 9:0.0160102 10:-0.71166 
8388608 1:-0.259608 2:0.133364 3:-0.298909 4:0.392436 5:0.100736 6:0.281024 7:-0.847009 8:-0.804489 9:-0.323329 10:-0.430952 
8388608 1:0.173185 2:-0.317289 3:-0.0178601 4:0.245868 5:-0.0155918 6:-0.0606881 7:-0.976176 8:-0.910645 9:0.161687 10:-0.845491 
8388608 1:-0.362903 2:-0.301743 3:-0.36427 4:0.352481 5:0.32031 6:-0.444261 7:-0.992335 8:-0.69462 9:0.213615 10:-0.27648 
8122549.224223842 1:0.325203 2:-0.176789 3:-0.54857 4:0.0376066 5:-0.181444 6:-0.353055 7:-0.730172 8:-0.548938 9:-0.0859334 10:-0.475841 
8388608 1:-0.500002 2:-0.128338 3:0.173152 4:0.316516 5:0.0195152 6:0.173677 7:-0.929081 8:-0.849631 9:0.135463 10:-0.6422 
8388608 1:-0.283081 2:0.096192 3:-0.136321 4:0.271527 5:0.267006 6:-0.236318 7:-0.924348 8:-0.820492 9:-0.00197982 10:-0.213582 
8388608 1:-0.131923 2:0.0145649 3:0.142972 4:0.277814 5:0.55111 6:-0.0798871 7:-0.903846 8:-0.688743 9:-0.118896 10:-0.619059 
8388608 1:-0.213768 2:-0.148297 3:-0.499709 4:0.564952 5:0.350391 6:0.147462 7:-0.94208 8:-0.884019 9:0.466022 10:-0.685338 
8388608 1:-0.33987 2:-0.391585 3:0.188735 4:-0.0647086 5:-0.00432131 6:-0.0599337 7:-0.919586 8:-0.712039 9:0.080634 10:-0.477675 
8388608 1:0.178226 2:-0.154574 3:-0.162313 4:0.193537 5:0.0976753 6:-0.317159 7:-0.802395 8:-0.636528 9:-0.0960016 10:-0.788717 
1472.480568089852 1:-0.630354 2:0.120467 3:0.101063 4:0.116253 5:0.0154045 6:-0.064865 7:-0.863558 8:-0.847025 9:0.020537 10:-0.373522 
1085413.250163709 1:0.0115085 2:-0.403183 3:0.0240276 4:0.11109 5:-0.0105097 6:-0.0592163 7:-0.93808 8:-0.624305 9:0.0524326 10:-0.897367 
8388608 1:0.231221 2:-0.235785 3:0.0874616 4:0.171201 5:0.0729336 6:-0.213794 7:-0.923511 8:-0.854515 9:0.0391905 10:-0.609179 
8388608 1:0.190642 2:-0.224088 3:-0.280295 4:0.130341 5:0.0150592 6:-0.501033 7:-0.810072 8:-0.729418 9:0.247631 10:-0.27606 
8388608 1:-0.0859483 2:-0.388691 3:0.187695 4:0.144687 5:0.151737 6:-0.293247 7:-0.99555 8:-0.756181 9:0.325119 10:-0.296647 
1058560.04409464 1:0.0325187 2:0.114386 3:0.0975606 4:0.116104 5:-0.380742 6:-0.487679 7:-0.938943 8:-0.666177 9:-0.173308 10:-0.411711 
8388608 1:-0.11802 2:-0.145575 3:-0.149512 4:0.100365 5:-0.0410924 6:0.585542 7:-0.962159 8:-0.879376 9:0.0604325 10:-0.318264 
8388608 1:-0.0141628 2:-0.116715 3:-0.522337 4:0.309691 5:-0.023575 6:-0.280146 7:-0.964898 8:-0.777162 9:0.0430539 10:-0.417519 
8388608 1:-0.0907252 2:-0.0811613 3:-0.46116 4:0.319739 5:0.00730428 6:0.236751 7:-0.975425 8:-0.991495 9:-0.0322754 10:-0.499248 
8388608 1:0.0319632 2:-0.175686 3:-0.283079 4:0.203227 5:-0.0210115 6:0.138327 7:-0.944786 8:-0.789949 9:0.225322 10:-0.131405 
8388608 1:-0.189678 2:0.00328568 3:-0.122709 4:0.3878 5:0.460022 6:-0.286982 7:-0.910262 8:-0.865634 9:-0.150089 10:-0.584856 
8388608 1:-0.201165 2:0.163254 3:-0.264842 4:0.10719 5:0.0140721 6:-0.218665 7:-0.880695 8:-0.713054 9:-0.00629847 10:-0.491327 
8388608 1:-0.472669 2:-0.0921462 3:-0.0219371 4:0.165302 5:0.0582333 6:-0.44403 7:-0.92264 8:-0.794453 9:-0.216755 10:-0.361898 
7901294.091767421 1:0.406755 2:0.341981 3:-0.146782 4:0.249271 5:-0.116032 6:-0.387034 7:-0.907864 8:-0.621023 9:0.143996 10:-0.659809 
8388608 1:0.15818 2:0.0601476 3:0.244285 4:0.275864 5:0.270752 6:-0.165972 7:-0.905758 8:-0.725769 9:0.308898 10:-0.277932 
8388608 1:-0.157795 2:0.0555869 3:-0.14156 4:0.291017 5:0.215076 6:0.160095 7:-0.934575 8:-0.654815 9:-0.138056 10:-0.376034 
8388608 1:-0.140115 2:-0.319055 3:-0.24432 4:0.108662 5:0.0917679 6:0.0467757 7:-0.895032 8:-0.726061 9:0.326095 10:-0.411024 
8388608 1:-0.0442162 2:-0.167227 3:-0.12357 4:0.0110528 5:0.0840149 6:0.134745 7:-0.866613 8:-0.857438 9:0.216281 10:-0.572326 
8388608 1:-0.111882 2:0.0452885 3:-0.302723 4:0.668799 5:0.484096 6:-0.0407258 7:-0.926154 8:-0.599441 9:-0.0792993 10:-0.309878 
8388608 1:-0.0224615 2:0.159625 3:-0.0778756 4:0.429039 5:0.129565 6:-0.0717029 7:-0.886238 8:-0.688188 9:0.167866 10:-0.649763 
8388608 1:0.480826 2:0.357575 3:-0.246159 4:0.193646 5:0.128264 6:-0.105717 7:-0.932803 8:-0.545427 9:-0.077127 10:-0.492503 
620274.1395145125 1:-0.645942 2:-0.078366 3:0.246616 4:0.187169 5:0.123619 6:0.151257 7:-0.920736 8:-0.822891 9:0.70784 10:-0.561556 
3737486.062584393 1:-0.258582 2:0.145379 3:-0.361598 4:0.0219469 5:0.123724 6:-0.110173 7:-0.962914 8:-0.725251 9:0.291142 10:-0.574366 
8388608 1:0.0445424 2:-0.0293995 3:0.010917 4:-0.0116109 5:0.10966 6:-0.070906 7:-0.92664 8:-0.634028 9:0.420585 10:-0.324654 
8388608 1:-0.114182 2:0.131133 3:-0.086929 4:0.339866 5:0.350046 6:-0.588066 7:-0.995899 8:-0.758925 9:0.513722 10:-0.639711 
8388608 1:0.0125934 2:0.197729 3:-0.210685 4:0.599912 5:0.203591 6:-0.39358 7:-0.939909 8:-0.785459 9:0.456617 10:-0.266211 
8388608 1:-0.173627 2:0.029375 3:-0.0951356 4:0.307094 5:0.307203 6:-0.305824 7:-0.965885 8:-0.659308 9:0.082364 10:-0.823694 
8388608 1:-0.381238 2:-0.597945 3:-0.123684 4:0.157551 5:0.00577866 6:0.164314 7:-0.900773 8:-0.688439 9:0.0867087 10:-0.324935 
2272433.973332513 1:-0.0645032 2:-0.165486 3:-0.374199 4:0.619333 5:0.742536 6:-0.16457 7:-0.828902 8:-0.818017 9:0.628088 10:-0.770332 
8388608 1:-0.167862 2:-0.226467 3:-0.231348 4:0.38402 5:0.114186 6:-0.0621988 7:-0.91276 8:-0.704854 9:-0.178524 10:-0.792167 
8388608 1:0.0637941 2:0.0568619 3:-0.565885 4:-0.0498946 5:0.0728653 6:0.0203307 7:-0.959327 8:-0.669052 9:0.0623577 10:-0.599401 
8388608 1:0.00510069 2:-0.12336 3:-0.245509 4:0.190383 5:-0.270042 6:-0.211395 7:-0.976027 8:-0.602817 9:-0.11087 10:-0.477145 
8388608 1:-0.168455 2:-0.0788564 3:-0.222271 4:0.237173 5:0.0199346 6:-0.135705 7:-0.95522 8:-0.790581 9:-0.0768018 10:-0.583838 
30718.6705670159 1:-0.383899 2:-0.0226075 3:-0.0402795 4:0.165361 5:0.263459 6:0.0976196 7:-0.894111 8:-0.925519 9:0.291715 10:-0.58608 
8388608 1:-0.141226 2:-0.0759385 3:0.0268272 4:-0.0822387 5:0.0594956 6:-0.253613 7:-0.941554 8:-0.837984 9:0.0708389 10:-0.459122 
8388608 1:-0.315347 2:-0.171419 3:-0.248566 4:-0.176296 5:-0.0437886 6:0.0519067 7:-0.90764 8:-0.855256 9:0.466893 10:-0.552568 
8388608 1:-0.272528 2:-0.0362161 3:0.00279732 4:0.409549 5:0.685139 6:-0.163242 7:-0.829432 8:-0.747741 9:-0.02183 10:-0.56121 
8388608 1:-0.189305 2:-0.189785 3:-0.190133 4:-0.00131376 5:-0.05272 6:0.00940425 7:-0.951398 8:-0.841724 9:-0.126622 10:-0.732283 
8388608 1:-0.134159 2:-0.0461957 3:0.137348 4:0.224518 5:-0.0913367 6:-0.419673 7:-0.933686 8:-0.710454 9:0.126123 10:-0.167064 
8388608 1:0.0727026 2:0.0587745 3:-0.177865 4:0.274193 5:-0.0254596 6:-0.188568 7:-0.917668 8:-0.91042 9:0.358277 10:-0.453109 
8388608 1:0.0753829 2:0.047201 3:-0.172545 4:0.0979869 5:0.154032 6:-0.129643 7:-0.906053 8:-0.591345 9:-0.0697775 10:-0.328586 
8388608 1:0.154037 2:-0.243655 3:-0.283668 4:0.424154 5:0.308434 6:-0.0749416 7:-0.924175 8:-0.696451 9:0.295123 10:-0.489342 
5743906.086238716 1:0.0126052 2:0.0149572 3:0.19739 4:0.330823 5:0.153519 6:-0.236518 7:-0.789182 8:-0.555398 9:-0.0115797 10:-0.592642 
8388608 1:0.254389 2:-0.113577 3:0.218159 4:0.254206 5:0.324968 6:-0.20297 7:-0.978336 8:-0.85354 9:0.0581952 10:-0.690449 
8388608 1:-0.122168 2:0.177108 3:0.181722 4:0.23377 5:0.106913 6:-0.1821 7:-0.995512 8:-0.849948 9:-0.033225 10:-0.551861 
8388608 1:0.035433 2:0.212834 3:0.079945 4:0.117198 5:-0.270186 6:-0.0495585 7:-0.811424 8:-0.717079 9:-0.00542694 10:-0.404099 
4582464.508226193 1:-0.446601 2:0.176618 3:-0.418394 4:0.10721 5:0.345863 6:0.376153 7:-0.950421 8:-0.787723 9:0.005864 10:-0.584012 
8388608 1:0.0464215 2:0.0183165 3:-0.35451 4:0.163431 5:0.0849708 6:-0.398575 7:-0.908188 8:-0.625684 9:-0.252618 10:-0.748744 
6569270.075934255 1:-0.525225 2:0.0812593 3:-0.0932828 4:0.166684 5:0.196644 6:-0.507551 7:-0.952037 8:-0.730779 9:0.066065 10:-0.531298 
8388608 1:-0.445745 2:-0.00958733 3:-0.41933 4:-0.127745 5:-0.28577 6:-0.375475 7:-0.890069 8:-0.774006 9:0.284586 10:-0.575289 
8388608 1:0.0147183 2:0.0996739 3:-0.0729888 4:0.0677022 5:-0.156084 6:-0.0747472 7:-0.898408 8:-0.693324 9:-0.174297 10:-0.545521 
8388608 1:0.0806018 2:-0.193193 3:-0.138468 4:0.0528484 5:-0.0100219 6:-0.254519 7:-0.961962 8:-0.594813 9:-0.153432 10:-0.325772 
8388608 1:-0.191226 2:-0.044651 3:-0.0380027 4:-0.0645593 5:0.0105955 6:0.00734229 7:-0.845475 8:-0.887562 9:0.0212264 10:-0.411049 
8388608 1:-0.189579 2:-0.0962901 3:-0.0375023 4:0.0660109 5:0.121114 6:0.000407267 7:-0.972953 8:-0.780808 9:0.242557 10:-0.277783 
-8388608 1:0.0545665 2:0.155114 3:-0.205012 4:0.0664586 5:0.250913 6:-0.115628 7:-0.948211 8:-0.804693 9:0.160178 10:-0.641473 
-8388608 1:0.0347027 2:-0.0670132 3:0.171392 4:-0.0802688 5:0.215902 6:-0.132599 7:-0.830831 8:-0.664396 9:-0.07554 10:-0.366943 
-8388608 1:-0.155124 2:-0.24851 3:-0.451013 4:0.0227528 5:-0.147157 6:0.346157 7:-0.883681 8:-0.822334 9:0.144542 10:-0.235257 
-8388608 1:0.0393732 2:-0.0782189 3:-0.0925572 4:0.498602 5:0.409611 6:-0.166574 7:-0.890253 8:-0.960647 9:0.298687 10:-0.429744 
-5273107.836841148 1:-0.356956 2:-0.111296 3:-0.128673 4:0.193437 5:0.205472 6:-0.628532 7:-0.931287 8:-0.834462 9:0.140575 10:-0.702675 
-8388608 1:-0.21247 2:0.0513204 3:0.0808063 4:0.221971 5:0.0697887 6:-0.299331 7:-0.985464 8:-0.855957 9:-0.0327307 10:-0.389706 
-1805995.715666156 1:-0.0365746 2:-0.44418 3:-0.414076 4:-0.0723792 5:-0.135529 6:-0.0125122 7:-0.969709 8:-0.7001 9:0.136998 10:-0.240224 
-8388608 1:0.0605937 2:-0.347571 3:-0.174049 4:0.293255 5:-0.0384821 6:0.100687 7:-0.904982 8:-0.827323 9:0.321217 10:-0.185501 
-6429167.207952278 1:0.0244091 2:-0.0808915 3:-0.285548 4:-0.0164561 5:-0.0702471 6:-0.255079 7:-0.984653 8:-0.738805 9:0.0777462 10:-0.376902 
-3070741.458531304 1:0.180323 2:-0.282569 3:0.462909 4:0.178613 5:0.3175 6:-0.441793 7:-0.777895 8:-0.563256 9:0.147235 10:-0.255475 
-8388608 1:0.0304363 2:0.0303558 3:0.0894119 4:0.137922 5:0.370999 6:-0.0936476 7:-0.939406 8:-0.729232 9:0.260938 10:-0.250221 
-8388608 1:-0.11438 2:0.148837 3:-0.167111 4:0.201665 5:0.0179447 6:-0.367697 7:-0.844198 8:-0.720819 9:0.0388523 10:-0.532386 
-8388608 1:0.0694857 2:-0.0117206 3:-0.0166223 4:0.330504 5:0.379834 6:-0.131819 7:-0.926532 8:-0.704042 9:0.225218 10:-0.181813 
-8388608 1:-0.297478 2:-0.0715494 3:-0.143984 4:0.117348 5:0.0699135 6:0.403181 7:-0.974528 8:-0.780124 9:0.18436 10:-0.587378 
-7020152.80491196 1:0.297977 2:-0.00014712 3:-0.145348 4:0.474525 5:-0.225284 6:-0.0445017 7:-0.980184 8:-0.723724 9:0.0324003 10:-0.160437 
-5521350.770327139 1:0.288144 2:-0.161906 3:-0.599645 4:0.498224 5:0.295063 6:-0.239704 7:-0.819149 8:-0.556001 9:-0.247141 10:-0.454354 
-8388608 1:-0.210837 2:-0.0453375 3:0.0527968 4:0.237631 5:0.120355 6:0.159501 7:-0.821113 8:-0.664805 9:-0.205672 10:-0.356249 
-8388608 1:0.325598 2:0.0943776 3:-0.230712 4:0.278083 5:0.37721 6:0.117829 7:-0.861361 8:-0.784775 9:-0.0883659 10:-0.903915 
-8388608 1:-0.0318545 2:0.0599515 3:0.0772639 4:0.170246 5:0.193454 6:0.0351955 7:-0.896153 8:-0.771194 9:0.0113924 10:-0.245397 
-8388608 1:0.222589 2:-0.015276 3:0.0447496 4:0.090744 5:0.324533 6:0.0420598 7:-0.832849 8:-0.661205 9:0.167098 10:-0.200284 
-8388608 1:-0.0515954 2:-0.0760611 3:-0.209789 4:0.221384 5:0.00847874 6:-0.155146 7:-0.911617 8:-0.562827 9:-0.00893909 10:-0.42492 
-8388608 1:-0.310792 2:-0.455141 3:0.0749344 4:0.392705 5:0.247955 6:0.0433921 7:-0.815936 8:-0.666123 9:-0.0401843 10:-0.180108 
-8388608 1:0.0788031 2:-0.0231714 3:-0.289737 4:0.0255982 5:0.200948 6:-0.151066 7:-0.897546 8:-0.654523 9:0.241322 10:-0.756738 
-8388608 1:0.0121774 2:0.0661305 3:-0.164794 4:0.208102 5:0.218018 6:0.291963 7:-0.742538 8:-0.667763 9:0.0202118 10:-0.538626 
-8388608 1:-0.0676822 2:-0.491577 3:-0.0265566 4:0.439197 5:0.280483 6:-0.0744416 7:-0.853525 8:-0.904353 9:0.464123 10:-0.618726 
-4671306.383158043 1:0.176969 2:-0.129343 3:-0.484542 4:0.384089 5:0.25134 6:0.0644056 7:-0.744863 8:-0.619459 9:0.284742 10:-0.54134 
-8388608 1:-0.429647 2:0.0277567 3:0.120936 4:0.551093 5:0.683188 6:-0.155305 7:-0.857447 8:-0.734024 9:0.0968419 10:-0.506818 
-6170387.492982462 1:-0.268382 2:0.0304784 3:0.512199 4:0.52037 5:0.397641 6:0.027218 7:-0.966655 8:-0.700426 9:-0.0245877 10:-0.363022 
-1883728.379057198 1:0.138584 2:0.00742957 3:0.0997966 4:-0.0435272 5:0.295303 6:-0.0317324 7:-0.999957 8:-0.658066 9:0.125941 10:-0.536786 
-8388608 1:0.208379 2:-0.233553 3:-0.35431 4:0.0748257 5:-0.079239 6:-0.244762 7:-0.901694 8:-0.687909 9:0.0928094 10:-0.921211 
-8388608 1:-0.243318 2:-0.0723586 3:-0.399931 4:0.01354 5:0.181753 6:-0.015894 7:-0.88971 8:-0.690244 9:0.281022 10:-0.399393 
-8388608 1:0.119861 2:0.151583 3:-0.111361 4:0.336086 5:0.512092 6:-0.584322 7:-0.835867 8:-0.56456 9:0.0585984 10:-0.625215 
-8388608 1:-0.165198 2:-0.0794449 3:-0.030336 4:0.125705 5:0.149311 6:-0.135871 7:-0.90428 8:-0.761493 9:0.131677 10:-0.382815 
-882879.780662447 1:-0.107809 2:-0.47868 3:0.0744538 4:0.181419 5:-0.256887 6:0.0926051 7:-0.832105 8:-0.672448 9:-0.0957154 10:-0.200837 
-305305.1838018809 1:0.14025 2:-0.864453 3:-0.934302 4:0.555411 5:0.316968 6:0.210552 7:-0.724696 8:-0.657896 9:0.194064 10:-0.610068 
-8388608 1:0.166233 2:-0.239193 3:-0.267443 4:0.450021 5:-0.161814 6:-0.27857 7:-0.892519 8:-0.646172 9:-0.212996 10:-0.778913 
-8388608 1:-0.0587123 2:0.0920972 3:0.212707 4:0.158128 5:0.0480826 6:-0.366154 7:-0.907565 8:-0.764732 9:-0.0908895 10:-0.526921 
-3636265.180494804 1:-0.0248322 2:0.241571 3:0.0550236 4:0.256961 5:0.281293 6:0.256159 7:-0.769266 8:-0.721507 9:-0.211343 10:-0.510475 
-8388608 1:-0.246672 2:-0.0423706 3:0.0992856 4:0.143285 5:0.0948523 6:-0.0695155 7:-0.821609 8:-0.778806 9:0.0913656 10:-0.439963 
-2877539.816971478 1:0.190746 2:0.433735 3:-0.00112426 4:0.764329 5:0.375125 6:-0.578099 7:-0.846673 8:-0.737511 9:0.204834 10:-0.611712 
-8388608 1:-0.448608 2:0.0127259 3:-0.406797 4:0.531623 5:0.511604 6:0.144352 7:-0.966509 8:-0.844881 9:0.249218 10:-0.365931 
-1114914.927612618 1:0.15178 2:-0.0113773 3:-0.253026 4:0.497488 5:0.577897 6:-0.225226 7:-0.664482 8:-0.658293 9:-0.139266 10:-0.541687 
-8388608 1:-0.213132 2:0.204276 3:-0.36004 4:0.181319 5:0.00634443 6:0.0444663 7:-0.864672 8:-0.67945 9:0.122325 10:-0.435707 
-7442590.526596765 1:0.0979957 2:-0.107202 3:-0.401984 4:0.303552 5:0.227806 6:0.145712 7:-0.862387 8:-0.707751 9:0.185556 10:-0.214953 
-8388608 1:-0.27275 2:0.0219699 3:-0.0573959 4:0.145075 5:0.222392 6:0.129344 7:-0.901871 8:-0.699296 9:-0.146629 10:-0.673778 
-8388608 1:-0.13289 2:-0.41917 3:-0.0744004 4:-0.236527 5:-0.071166 6:-0.338276 7:-0.934495 8:-0.851529 9:0.0764974 10:-0.368413 
-8388608 1:0.0846034 2:0.0296937 3:-0.275764 4:0.383154 5:0.338272 6:-0.403998 7:-0.986445 8:-0.595664 9:0.190317 10:-0.461416 
-8388608 1:0.0474449 2:0.166687 3:-0.378273 4:0.264373 5:0.00862311 6:-0.308149 7:-0.900793 8:-0.794271 9:0.0038998 10:-0.212455 
-6983307.183565102 1:-0.0812612 2:-0.600839 3:-0.0845033 4:-0.182067 5:-0.144133 6:-0.187496 7:-0.942217 8:-0.837661 9:0.200542 10:-0.374344 
-8388608 1:-0.263529 2:0.127676 3:0.205188 4:0.381234 5:0.402672 6:-0.257341 7:-0.974346 8:-0.884134 9:0.0297077 10:-0.231813 
-7099669.556021646 1:0.0609483 2:0.0875855 3:-0.119114 4:0.175808 5:-0.209237 6:0.346081 7:-0.89822 8:-0.804322 9:-0.0314559 10:-0.56715 
-8388608 1:-0.309178 2:-0.260819 3:-0.222092 4:-0.1366 5:0.0303057 6:-0.0999819 7:-0.904891 8:-0.714424 9:0.0638536 10:-0.733645 
-8388608 1:0.0406401 2:0.227301 3:0.174042 4:0.0417354 5:0.0273852 6:0.475288 7:-0.82989 8:-0.641237 9:0.238785 10:-0.493254 
-3031789.673714279 1:-0.305113 2:-0.141481 3:0.0931386 4:0.291554 5:0.220997 6:-0.0465972 7:-0.95797 8:-0.713873 9:0.409099 10:-0.28528 
-8388608 1:-0.375759 2:-0.365986 3:-0.28044 4:0.0077398 5:-0.207479 6:-0.00261411 7:-0.896627 8:-0.524516 9:-0.235005 10:-0.24982 
-425570.4115174052 1:0.162792 2:-0.00566412 3:-0.40327 4:0.295146 5:0.124356 6:0.209898 7:-0.921726 8:-0.812955 9:0.500831 10:-0.411156 
-8388608 1:0.0190626 2:-0.105387 3:0.178186 4:0.540537 5:0.251812 6:-0.338973 7:-0.947817 8:-0.669292 9:0.282349 10:-0.71756 
-8388608 1:-0.380581 2:0.11343 3:0.0501118 4:0.0310502 5:-0.059318 6:0.25933 7:-0.854596 8:-0.762122 9:0.0991183 10:-0.319089 
-8388608 1:-0.197476 2:-0.0733394 3:-0.256073 4:0.233084 5:0.304214 6:0.101784 7:-0.938133 8:-0.850252 9:0.215904 10:-0.387324 
-2824269.795881216 1:-0.424293 2:0.0544344 3:-0.43804 4:0.168436 5:0.141874 6:-0.282342 7:-0.95975 8:-0.84524 9:0.165667 10:-0.599942 
-1813642.03096015 1:0.428491 2:-0.484785 3:-1 4:0.608269 5:0.336206 6:0.142039 7:-0.83941 8:-0.85726 9:-0.000158698 10:-0.775155 
-8388608 1:0.0389454 2:0.0001226 3:0.184229 4:0.0753928 5:0.0549343 6:0.0504649 7:-0.930011 8:-0.701772 9:0.120178 10:-0.619595 
-8388608 1:-0.0261534 2:0.0784395 3:0.0944989 4:-0.005751 5:0.111283 6:-0.130607 7:-0.926954 8:-0.866144 9:0.492181 10:-0.393264 
-4949704.332726959 1:-0.223449 2:-0.358703 3:-0.422172 4:-0.192712 5:-0.12189 6:-0.180439 7:-0.871239 8:-0.65919 9:0.110344 10:-0.466365 
-8388608 1:0.0817009 2:0.226933 3:0.0136297 4:0.143772 5:0.161478 6:-0.439076 7:-0.926016 8:-0.690654 9:0.136139 10:-0.438824 
-8388608 1:-0.494573 2:-0.0412182 3:-0.349479 4:0.0356765 5:-0.117386 6:-0.679346 7:-0.934239 8:-0.902096 9:0.235104 10:-0.360464 
-8388608 1:-0.301009 2:-0.16068 3:-0.252324 4:0.144289 5:0.328318 6:-0.0814137 7:-0.940637 8:-0.718491 9:0.314206 10:-0.49003 
-1039939.97360788 1:-0.562265 2:-0.0769193 3:-0.334824 4:0.52813 5:0.385289 6:0.234861 7:-0.982136 8:-0.822723 9:0.125668 10:-0.358625 
-8388608 1:-0.151655 2:-0.21406 3:-0.0496489 4:0.11891 5:0.109026 6:0.240412 7:-0.853305 8:-0.653029 9:-0.21548 10:-0.347749 
-8388608 1:-0.122428 2:0.0732413 3:-0.0628767 4:0.218519 5:-0.15889 6:-0.184252 7:-0.974391 8:-0.695541 9:-0.0984211 10:-0.314763 
-1748890.124962003 1:-0.120062 2:-0.273938 3:0.251554 4:0.0151916 5:0.0650811 6:0.393781 7:-0.944243 8:-0.738095 9:-0.0712214 10:-0.165316 
-8388608 1:-0.087981 2:-0.0166981 3:-0.170494 4:0.257081 5:0.156244 6:-0.0555147 7:-0.86022 8:-0.74479 9:-0.354845 10:-0.829038 
-6070507.27133823 1:-0.00368016 2:-0.0747125 3:-0.316147 4:0.0803673 5:-0.181971 6:-0.237453 7:-0.88651 8:-0.731469 9:0.168971 10:-0.751502 
-8388608 1:-0.0305805 2:-0.0396734 3:-0.237781 4:0.204709 5:0.279065 6:-0.300442 7:-0.956972 8:-0.634435 9:0.162038 10:-0.561618 
-2296018.443588013 1:-0.0765978 2:-0.287939 3:-0.286805 4:-0.185469 5:0.155895 6:0.239926 7:-0.988035 8:-0.66545 9:0.344982 10:-0.474466 
-8388608 1:-0.126837 2:0.112768 3:-0.0573314 4:0.281496 5:0.391117 6:-0.212504 7:-0.958314 8:-0.778015 9:0.291637 10:-0.695055 
-8388608 1:-0.252052 2:-0.139642 3:0.381778 4:0.100385 5:-0.0840402 6:0.109767 7:-0.98458 8:-0.71922 9:0.321399 10:-0.519647 
-8388608 1:-0.0043727 2:-0.062428 3:-0.126715 4:-0.0341354 5:-0.00614153 6:-0.349544 7:-0.986092 8:-0.838362 9:0.0394506 10:-0.703902 
-8388608 1:0.0821098 2:0.415198 3:-0.477722 4:0.176703 5:0.128358 6:0.12048 7:-0.967943 8:-0.642657 9:0.21152 10:-0.3755 
-8388608 1:-0.246535 2:0.147782 3:-0.310692 4:0.389034 5:0.406892 6:0.124718 7:-0.901878 8:-0.863291 9:0.223969 10:-0.412802 
-8388608 1:-0.120332 2:0.0661305 3:-0.321259 4:0.113587 5:0.208092 6:0.123333 7:-0.915845 8:-0.712636 9:-0.170837 10:-0.413398 
-520444.5005291092 1:0.0151461 2:0.132163 3:-0.326741 4:0.0832624 5:0.111224 6:-0.135366 7:-0.798921 8:-0.758899 9:-0.0752799 10:-0.57213 
-6324753.74712173 1:0.256162 2:0.0697349 3:0.258284 4:0.295951 5:-0.218077 6:-0.370688 7:-0.924388 8:-0.755867 9:-0.0729775 10:-0.601244 
-8388608 1:0.00396852 2:0.103842 3:0.230551 4:0.403351 5:0.380293 6:-0.135924 7:-0.902535 8:-0.62725 9:0.251741 10:-0.278843 
-5687544.367358987 1:-0.27695 2:-0.39004 3:-0.4672 4:0.470775 5:0.379604 6:0.319668 7:-0.960441 8:-0.944509 9:0.190109 10:-0.600576 
-120935.3203773036 1:0.302286 2:-0.0306991 3:0.110464 4:0.15984 5:-0.0739422 6:-0.229763 7:-0.873595 8:-0.716814 9:0.179586 10:-0.162665 
-4560976.07426277 1:-0.0119741 2:-0.166564 3:-0.06639 4:0.0553755 5:0.0739539 6:0.317736 7:-0.965451 8:-0.814523 9:0.0352361 10:-0.592932 
-8388608 1:0.174664 2:0.154403 3:-0.265283 4:0.284789 5:-0.156072 6:-0.0850535 7:-0.866083 8:-0.627651 9:-0.0138821 10:-0.445944 
-8388608 1:0.0407842 2:0.298727 3:-0.103504 4:0.550376 5:0.364863 6:-0.270739 7:-0.910184 8:-0.774552 9:0.129037 10:-0.451041 
-8139304.118060895 1:-0.129968 2:-0.140156 3:-0.230123 4:-0.132173 5:0.0439369 6:-0.0568769 7:-0.950358 8:-0.775018 9:-0.334815 10:-0.737136 
-8388608 1:-0.00892739 2:-0.0227791 3:0.0488529 4:0.188134 5:-0.153109 6:-0.0625168 7:-0.857004 8:-0.772475 9:-0.106161 10:-0.690348 
-7339113.722441333 1:-0.0504373 2:-0.000907241 3:0.106333 4:0.242923 5:-0.0527122 6:-0.552711 7:-0.986803 8:-0.874151 9:0.106494 10:-0.455166 
-8388608 1:0.119776 2:-0.00929309 3:-0.245295 4:0.686578 5:0.540712 6:0.447495 7:-0.91235 8:-0.811202 9:0.0972582 10:-0.657461 
-8388608 1:-0.0652406 2:0.0723831 3:-0.303045 4:0.10901 5:0.114245 6:0.0076568 7:-0.796216 8:-0.683368 9:0.263539 10:-0.684487 
-8388608 1:-0.243046 2:0.0253782 3:-0.185487 4:0.391641 5:0.270036 6:0.0153975 7:-0.881414 8:-0.693659 9:0.109863 10:-0.246324 
-8388608 1:-0.410809 2:-0.112081 3:0.275416 4:0.267776 5:0.002624 6:-0.109184 7:-0.989158 8:-0.783351 9:-0.179383 10:-0.410139 
-8388608 1:-0.173735 2:-0.295368 3:0.148112 4:0.348174 5:0.0840012 6:-0.254058 7:-0.984013 8:-0.600813 9:0.0192883 10:-0.48232 
-8388608 1:-0.460182 2:-0.298899 3:-0.175981 4:0.0328112 5:0.234543 6:-0.0797563 7:-0.904069 8:-0.642369 9:0.328111 10:-0.607659 
-8388608 1:-0.145119 2:0.350048 3:0.179009 4:0.275148 5:0.0482972 6:-0.159432 7:-0.895105 8:-0.774844 9:-0.018604 10:-0.708993 
-6131195.348969727 1:0.0263189 2:0.0625261 3:0.386216 4:0.447265 5:0.177176 6:-0.262237 7:-0.911401 8:-0.776785 9:0.247175 10:-0.192986 
-6571401.665961025 1:-0.180302 2:-0.151534 3:-0.269297 4:0.195606 5:0.237565 6:-0.233972 7:-0.950261 8:-0.849255 9:-0.0254592 10:-0.270234 
-1075308.046416305 1:0.202189 2:0.145036 3:0.141913 4:-0.141952 5:-0.131514 6:0.0655135 7:-0.844016 8:-0.729176 9:-0.124762 10:-0.334411 
-8388608 1:-0.225165 2:0.0737317 3:0.00342809 4:0.0686474 5:0.151016 6:-0.161542 7:-0.98252 8:-0.81486 9:0.0916387 10:-0.329693 
-8388608 1:-0.1133 2:0.00105436 3:-0.0765548 4:0.166396 5:0.217935 6:-0.168371 7:-0.836701 8:-0.631584 9:0.316482 10:-0.464959 
-8388608 1:-0.323168 2:-0.0603928 3:-0.0879601 4:0.0779198 5:-0.00711894 6:-0.423681 7:-0.877171 8:-0.774217 9:0.186129 10:-0.495522 
-8388608 1:-0.0220927 2:-0.00740505 3:-0.260308 4:0.207117 5:0.40579 6:-0.393096 7:-0.949807 8:-0.805251 9:0.166175 10:-0.812711 
-8388608 1:-0.0360216 2:-0.0370743 3:-0.320974 4:-0.0390502 5:0.0693497 6:0.133084 7:-0.939759 8:-0.770808 9:0.460584 10:-0.890707 
-8388608 1:-0.211473 2:-0.242037 3:-0.0328828 4:-0.0220275 5:0.210515 6:-0.189112 7:-0.926152 8:-0.715099 9:0.049818 10:-0.280936 
-8388608 1:-0.135086 2:-0.0153495 3:0.25299 4:0.566175 5:0.770766 6:-0.221314 7:-0.903804 8:-0.558405 9:-0.0919171 10:-0.656374 
-8388608 1:-0.0835208 2:-0.045926 3:-0.265364 4:0.163889 5:0.107635 6:-0.303322 7:-0.830238 8:-0.798272 9:0.240424 10:-0.497667 
-8388608 1:-0.19935 2:-0.0605645 3:-0.371364 4:0.0541318 5:0.29836 6:-0.228586 7:-0.986381 8:-0.638373 9:0.0216817 10:-0.543323 
-8388608 1:-0.657852 2:-0.0108378 3:-0.265366 4:0.270323 5:0.16294 6:-0.396623 7:-0.919205 8:-0.783552 9:0.0703056 10:-0.66165 
-8388608 1:-0.142233 2:0.161513 3:-0.529698 4:0.157541 5:-0.188721 6:-0.585944 7:-0.988515 8:-0.73441 9:-0.20895 10:-0.272626 
-8388608 1:0.522636 2:0.137386 3:-0.0171569 4:0.126481 5:0.00289518 6:-0.535032 7:-0.857127 8:-0.599722 9:0.239696 10:-0.353259 
-8388608 1:-0.0188239 2:0.0829512 3:-0.0256256 4:0.37614 5:0.0868261 6:-0.39528 7:-0.896615 8:-0.655348 9:0.55657 10:-0.328043 
-6066291.175956645 1:-0.317741 2:-0.00228036 3:-0.271523 4:-0.201537 5:-0.251016 6:-0.0749557 7:-0.909615 8:-0.766261 9:-0.195318 10:-0.59797 
-8388608 1:-0.331864 2:-0.141505 3:-0.151785 4:0.162814 5:-0.0547685 6:-0.135401 7:-0.791366 8:-0.716678 9:0.512265 10:-0.608682 
