svm_type c_svc
kernel_type linear
nr_class 2
total_sv 363
rho -5.75364
label -1 1
nr_sv 180 183
SV
131072 1:0.110525 2:-0.286811 3:-0.323216 4:-0.0834126 5:-0.289688 6:-0.225984 7:-0.719345 8:-0.758034 9:0.00507052 10:-0.749963 
131072 1:-0.395436 2:0.484712 3:0.34995 4:0.102862 5:0.00885527 6:-0.0600291 7:-0.919174 8:-0.718011 9:0.617435 10:-0.130395 
131072 1:-0.136969 2:0.0484761 3:-0.206116 4:-0.255092 5:-0.200132 6:-0.483103 7:-0.878819 8:-0.453508 9:-0.295245 10:-0.358864 
131072 1:-0.0415406 2:-0.176201 3:-0.236519 4:-0.174147 5:-0.221957 6:-0.0376479 7:-0.801322 8:-0.707838 9:-0.121549 10:-0.675876 
131072 1:0.0576203 2:0.226418 3:0.165914 4:0.143941 5:-0.0535511 6:-0.153748 7:-0.849399 8:-0.654899 9:0.00405589 10:-0.365463 
131072 1:0.491864 2:-0.0572297 3:0.473497 4:0.4034 5:0.0942572 6:-0.300407 7:-0.995004 8:-0.501326 9:-0.0227536 10:-0.686143 
131072 1:-0.00822776 2:-0.0481818 3:0.143985 4:-0.164765 5:-0.117721 6:-0.110288 7:-0.869083 8:-0.637724 9:0.271006 10:-0.684631 
131072 1:0.584622 2:-0.429002 3:-0.44317 4:-0.306042 5:-0.420303 6:-0.221689 7:-0.959366 8:-0.684479 9:0.00665749 10:-0.723327 
131072 1:-0.31585 2:0.411912 3:0.27772 4:-0.39904 5:-0.0489157 6:-0.291018 7:-0.84182 8:-0.405913 9:-0.177315 10:-0.162433 
131072 1:-0.0043136 2:0.204129 3:-0.586129 4:-0.0320859 5:-0.110883 6:-0.201221 7:-0.999366 8:-0.972479 9:0.560252 10:-0.0615634 
131072 1:0.20862 2:-0.124341 3:-0.0717891 4:0.781222 5:0.144851 6:-0.34245 7:-0.596509 8:-0.656916 9:-0.0994747 10:0.0133728 
131072 1:0.134532 2:-0.240517 3:0.00727988 4:0.400107 5:-0.135338 6:-0.214349 7:-0.924718 8:-0.728847 9:-0.156385 10:-0.491226 
131072 1:-0.117198 2:0.23142 3:-0.293335 4:-0.624721 5:-0.891359 6:-0.0562656 7:-0.899846 8:-0.299861 9:0.0121989 10:-0.540107 
131072 1:0.0569939 2:-0.528627 3:-0.463074 4:0.247649 5:0.314523 6:-0.111663 7:-0.64912 8:-0.623809 9:-0.175207 10:-0.537583 
131072 1:-0.203817 2:-0.0880759 3:-0.167556 4:-0.0270517 5:0.0634501 6:0.493593 7:-0.842839 8:-0.517518 9:-0.119741 10:-0.384072 
131072 1:-0.377898 2:0.141235 3:0.14593 4:0.116243 5:0.207614 6:-0.140339 7:-0.895416 8:-0.847888 9:0.103164 10:0.094869 
131072 1:-0.103609 2:-0.127357 3:-0.0374009 4:-0.0964756 5:-0.230073 6:0.234159 7:-0.982973 8:-0.523758 9:-0.150336 10:-0.780902 
131072 1:-0.418838 2:-0.424883 3:-0.288748 4:-0.257579 5:0.0557459 6:0.17937 7:-0.768326 8:-0.827236 9:0.16927 10:-0.786478 
131072 1:0.0709724 2:-0.594243 3:-0.0494092 4:0.386626 5:0.125203 6:-0.152944 7:-0.919677 8:-0.761937 9:0.0203159 10:-0.734264 
131072 1:0.164631 2:0.233725 3:-0.0240098 4:-0.127477 5:-0.324793 6:-0.190059 7:-0.885445 8:-0.633999 9:-0.0941024 10:-0.52768 
131072 1:0.229193 2:-0.0404335 3:-0.108093 4:0.152457 5:0.405411 6:-0.0241736 7:-0.787779 8:-0.588433 9:-0.356342 10:-0.27929 
131072 1:-0.515044 2:0.373783 3:-0.285056 4:-0.379341 5:-0.0988244 6:0.0565501 7:-0.5021 8:-0.680844 9:0.160906 10:-0.331216 
131072 1:0.43766 2:-0.179021 3:-0.538468 4:0.0109633 5:0.147401 6:0.0335823 7:-0.7989 8:-0.788566 9:-0.210576 10:-0.52485 
131072 1:-0.163856 2:0.0435721 3:-0.255269 4:-0.303471 5:-0.338465 6:-0.569111 7:-0.57756 8:-0.972412 9:-0.253255 10:-0.421054 
131072 1:0.146965 2:-0.0567638 3:-0.0488878 4:0.409857 5:-0.0916176 6:-0.197701 7:-0.719957 8:-0.567782 9:0.0328816 10:-0.554802 
131072 1:0.101421 2:0.260354 3:0.417267 4:0.23187 5:-0.117899 6:-0.203055 7:-0.779425 8:-0.422879 9:0.0711381 10:-0.258425 
131072 1:-0.267321 2:0.0662041 3:0.151116 4:0.411539 5:0.218321 6:0.0491963 7:-0.933281 8:-0.758409 9:0.0731023 10:-0.110068 
131072 1:-0.103101 2:-0.135179 3:-0.243304 4:-0.0957096 5:-0.408556 6:0.0679235 7:-0.71548 8:-0.610309 9:0.110292 10:-0.31271 
131072 1:0.115189 2:0.146286 3:0.114807 4:0.0394273 5:-0.115655 6:0.193524 7:-0.6558 8:-0.285062 9:-0.645997 10:-0.576452 
131072 1:-0.249468 2:0.0446019 3:0.149921 4:0.0807752 5:0.0484065 6:-0.27164 7:-0.829047 8:-0.58812 9:0.256983 10:-0.483112 
131072 1:-0.0142077 2:0.139078 3:-0.0903278 4:0.216787 5:0.130482 6:0.0236153 7:-0.665491 8:-0.852917 9:0.00868674 10:-0.517796 
131072 1:-0.330521 2:0.158375 3:0.230735 4:0.10706 5:0.162774 6:-0.227449 7:-0.902088 8:-0.766855 9:-0.0116317 10:-0.481217 
131072 1:0.218585 2:-0.474781 3:-0.826477 4:0.07204 5:-0.0265951 6:0.0133585 7:-0.869185 8:-0.617416 9:-0.249418 10:-0.604535 
131072 1:0.0977049 2:-0.151558 3:-0.488332 4:0.0711744 5:0.235128 6:-0.126552 7:-0.891653 8:-0.927055 9:0.234818 10:-0.447198 
131072 1:0.221613 2:-0.231003 3:-0.218743 4:0.37034 5:0.161139 6:-0.775673 7:-0.711117 8:-0.784616 9:0.644934 10:-0.649416 
131072 1:-0.493933 2:0.0662041 3:-0.124085 4:-0.117229 5:0.208537 6:0.4279 7:-0.97538 8:-0.799575 9:-0.31823 10:-0.471711 
131072 1:0.187168 2:-0.28198 3:-0.27014 4:-0.0457757 5:-0.337054 6:-0.280498 7:-0.75587 8:-0.528549 9:0.0404262 10:-0.340555 
131072 1:-0.409154 2:0.425373 3:0.307139 4:0.311502 5:0.359962 6:-0.376696 7:-0.959757 8:-0.611329 9:0.0315418 10:-0.593608 
44726.98049938915 1:0.0161199 2:0.428904 3:-0.119122 4:-0.107151 5:-0.252965 6:0.00300282 7:-0.688442 8:-0.434684 9:-0.133751 10:-0.20214 
131072 1:-0.00724922 2:-0.175956 3:-0.321444 4:-0.0612961 5:-0.329725 6:-0.0138444 7:-0.708174 8:-0.603586 9:-0.028243 10:-0.729529 
131072 1:-0.164085 2:0.0980065 3:-0.377044 4:-0.147991 5:-0.135248 6:0.0567038 7:-0.886153 8:-0.984805 9:0.14488 10:-0.628635 
131072 1:0.130687 2:-0.303975 3:-0.354733 4:-0.506831 5:-0.874668 6:0.18396 7:-0.740567 8:-0.847493 9:-0.178511 10:-0.393698 
131072 1:0.355089 2:0.147169 3:0.404349 4:0.179558 5:-0.347061 6:-0.385253 7:-0.959568 8:-0.804051 9:0.508779 10:-0.330626 
131072 1:0.173475 2:0.0713042 3:-0.901478 4:-0.315172 5:-0.309349 6:-0.448336 7:-0.409067 8:-0.733133 9:0.296333 10:-0.926014 
131072 1:0.397518 2:-0.207856 3:-0.0143915 4:0.545611 5:-0.169854 6:-0.163452 7:-0.964751 8:-0.143895 9:0.0247126 10:0.12347 
131072 1:-0.268297 2:-0.343942 3:-0.108035 4:0.164088 5:0.181208 6:-0.0733761 7:-0.805916 8:-0.651378 9:-0.195136 10:-0.33078 
131072 1:-0.322544 2:-0.277321 3:-0.251484 4:-0.425776 5:-0.285501 6:-0.237679 7:-0.99997 8:-0.887625 9:0.0994825 10:-0.41819 
131072 1:0.485468 2:-0.464949 3:-0.608927 4:-0.0616542 5:-0.334666 6:-0.213068 7:-0.818616 8:-0.502239 9:-0.125413 10:-0.544288 
131072 1:0.268328 2:0.184243 3:-0.128266 4:-0.154011 5:-0.419497 6:-0.047205 7:-0.829474 8:-0.966172 9:0.181238 10:-0.568475 
131072 1:-0.153432 2:0.155874 3:0.145308 4:0.222399 5:0.338919 6:-0.276593 7:-0.538149 8:-0.586724 9:-0.250563 10:-0.287868 
131072 1:0.342583 2:-0.525734 3:-0.299316 4:0.169997 5:-0.439324 6:-0.6526 7:-0.562137 8:-0.400635 9:-0.0373225 10:-0.715673 
131072 1:0.10329 2:-0.377216 3:-0.112281 4:0.388009 5:-0.067032 6:-0.0620433 7:-0.93522 8:-0.516673 9:-0.0997089 10:-0.200588 
131072 1:0.0831947 2:0.105583 3:-0.338536 4:-0.473409 5:-0.377651 6:0.0773339 7:-0.862114 8:-0.65725 9:-0.25721 10:-0.490918 
131072 1:-0.33549 2:-0.284408 3:-0.111866 4:0.0151816 5:0.00335365 6:0.0821204 7:-0.637554 8:-0.953718 9:0.159475 10:-0.75585 
131072 1:-0.20216 2:0.133585 3:-0.362061 4:-0.223325 5:-0.419021 6:-0.583994 7:-0.676428 8:-0.710584 9:0.140393 10:-0.398249 
131072 1:-0.394757 2:-0.019003 3:-0.216814 4:-0.308081 5:0.182231 6:0.0098336 7:-0.892352 8:-0.577824 9:0.116614 10:-0.279617 
131072 1:0.0874728 2:-0.258858 3:-0.251001 4:0.157402 5:-0.158831 6:-0.34451 7:-0.845144 8:-0.76018 9:0.0267548 10:-0.517667 
131072 1:-0.112931 2:0.200034 3:-0.0634126 4:-0.410016 5:-0.121461 6:0.439226 7:-0.924218 8:-0.79614 9:0.0672097 10:0.0163298 
131072 1:-0.531734 2:0.098031 3:-0.0673066 4:-0.541848 5:-0.634027 6:-0.285551 7:-0.869335 8:-0.518716 9:-0.467903 10:-0.266814 
131072 1:-0.0456769 2:0.279332 3:0.159582 4:0.314486 5:0.0162317 6:-0.261896 7:-0.942408 8:-0.454565 9:-0.288871 10:-0.17041 
131072 1:-0.318599 2:-0.0859427 3:-0.0971069 4:-0.264991 5:-0.105553 6:0.135818 7:-0.955709 8:-0.687622 9:-0.0652897 10:-0.462075 
131072 1:0.124643 2:-0.128853 3:-0.414579 4:-0.329667 5:-0.377294 6:-0.237249 7:-0.85236 8:-0.575163 9:-0.545261 10:-0.694745 
131072 1:0.751702 2:-0.18927 3:-0.180568 4:0.224498 5:-0.0818591 6:-0.382473 7:-0.969365 8:-0.661113 9:0.22315 10:-0.762108 
131072 1:-0.0540276 2:-0.140205 3:0.130797 4:-0.114225 5:0.264743 6:-0.117536 7:-0.718923 8:-0.782488 9:0.119723 10:-0.373976 
131072 1:0.205058 2:0.0393792 3:-0.173517 4:0.352183 5:0.292938 6:-0.374164 7:-0.817247 8:-0.613433 9:0.14808 10:-0.742093 
131072 1:0.168573 2:-0.206017 3:-0.385114 4:-0.281516 5:-0.409139 6:-0.222544 7:-0.537692 8:-0.828036 9:-0.0858944 10:-0.508079 
131072 1:0.431214 2:0.316014 3:0.215525 4:0.319331 5:0.194301 6:-0.198788 7:-0.977255 8:-0.735666 9:0.220964 10:0.117904 
131072 1:0.422816 2:-0.565236 3:-0.501736 4:-0.270782 5:-0.214653 6:-0.136917 7:-0.881962 8:-0.846809 9:-0.504663 10:-0.249125 
18930.219472687 1:-0.239872 2:0.202511 3:0.142621 4:-0.0101683 5:-0.0392449 6:-0.112537 7:-0.669343 8:-0.526095 9:0.0601724 10:-0.319036 
131072 1:0.127872 2:-0.0578672 3:-0.233218 4:-0.315856 5:-0.41133 6:0.0816257 7:-0.700741 8:-0.669372 9:-0.178628 10:-0.446342 
131072 1:-0.0872837 2:-0.186499 3:-0.0164735 4:0.30216 5:0.103187 6:0.166187 7:-0.96342 8:-0.880685 9:0.126097 10:-0.162218 
131072 1:-0.0390092 2:-0.00863105 3:-0.309743 4:-0.50115 5:-0.520323 6:-0.0399131 7:-0.916011 8:-0.506734 9:-0.417737 10:-0.616555 
131072 1:-0.283594 2:-0.044136 3:0.216052 4:-0.22236 5:0.0220728 6:-0.528169 7:-0.883148 8:-0.826423 9:0.557923 10:-0.253611 
131072 1:0.175177 2:-0.426894 3:-0.54762 4:-0.346668 5:-0.184055 6:-0.372324 7:-0.512465 8:-0.641823 9:0.06773 10:-0.634148 
131072 1:-0.00574359 2:-0.192703 3:-0.012947 4:0.00876454 5:0.292854 6:-0.0219933 7:-0.921422 8:-0.568816 9:0.00356159 10:-0.497183 
131072 1:-0.226293 2:0.556041 3:0.327247 4:-0.264872 5:-0.554333 6:-0.242732 7:-0.890783 8:-0.541241 9:-0.144847 10:-0.302942 
131072 1:0.0575139 2:0.13871 3:-0.17828 4:-0.53057 5:-0.223621 6:-0.0474647 7:-0.828772 8:-0.45683 9:-0.163955 10:-0.505828 
131072 1:-0.197019 2:0.43116 3:0.281934 4:-0.194373 5:-0.378239 6:-0.211891 7:-0.585839 8:-0.405011 9:-0.243382 10:-0.558126 
131072 1:0.314678 2:-0.0620111 3:0.187513 4:0.20256 5:-0.0512685 6:-0.398812 7:-0.756431 8:-0.566542 9:0.051483 10:-0.241667 
131072 1:0.197818 2:-0.111934 3:-0.263735 4:0.186931 5:-0.0312207 6:-0.0912199 7:-0.826564 8:-0.876794 9:-0.010435 10:-0.55815 
131072 1:0.0948804 2:0.300738 3:0.144032 4:-0.384019 5:-0.0684777 6:0.176924 7:-0.890284 8:-0.905614 9:0.131365 10:-0.327617 
131072 1:0.190612 2:-0.302283 3:-0.369337 4:0.338961 5:0.00828755 6:0.14264 7:-0.928617 8:-0.532842 9:-0.486807 10:-0.242095 
131072 1:0.500752 2:-0.353579 3:-0.546771 4:-0.186345 5:-0.177821 6:-0.0158569 7:-0.954778 8:-0.551715 9:-0.0871171 10:-0.530302 
131072 1:-0.18271 2:-0.0342054 3:0.0305012 4:0.0992205 5:-0.0611695 6:-0.151621 7:-0.745691 8:-0.926607 9:-0.124489 10:-0.598184 
131072 1:0.534374 2:0.310031 3:-0.0533414 4:0.0116099 5:-0.233897 6:-0.256929 7:-0.738171 8:-0.579181 9:-0.0753319 10:-0.493655 
131072 1:0.00382197 2:0.0701518 3:-0.133356 4:-0.201775 5:-0.0882698 6:0.169565 7:-0.804884 8:-0.606644 9:0.152854 10:-0.425167 
131072 1:0.0468162 2:-0.0926366 3:-0.277587 4:0.37228 5:0.291467 6:0.035669 7:-0.805068 8:-0.684557 9:-0.182089 10:-0.831114 
131072 1:0.49103 2:-0.110487 3:-0.388811 4:-0.165979 5:-0.415932 6:-0.175343 7:-0.805114 8:-0.696449 9:0.0114574 10:-0.373292 
131072 1:0.431722 2:-0.365888 3:-0.440023 4:-0.226986 5:-0.738228 6:0.117296 7:-0.78551 8:-0.489502 9:-0.0611272 10:-0.641933 
131072 1:-0.285863 2:0.233161 3:0.0272249 4:-0.0688573 5:0.438331 6:-0.0918701 7:-0.851594 8:-0.918779 9:0.208906 10:-0.575299 
131072 1:0.207486 2:-0.104921 3:-0.124669 4:0.210549 5:0.276874 6:0.168436 7:-0.853793 8:-0.798185 9:0.471875 10:-0.762403 
131072 1:0.1415 2:-0.2299 3:0.0234561 4:-0.42225 5:-0.26121 6:-0.158598 7:-0.912911 8:-0.616593 9:0.0119908 10:-0.265097 
131072 1:-0.0668384 2:-0.0421499 3:-0.133035 4:-0.192722 5:-0.37828 6:-0.148319 7:-0.585338 8:-0.705198 9:0.0916777 10:-0.462764 
131072 1:0.339664 2:-0.0285168 3:-0.117377 4:-0.067156 5:-0.174206 6:0.0298312 7:-0.717117 8:-0.713725 9:0.0519904 10:-0.307087 
131072 1:0.590626 2:-0.418851 3:-0.537129 4:0.17153 5:-0.264129 6:-0.712038 7:-0.889949 8:-0.875752 9:-0.0977707 10:-0.550981 
131072 1:-0.16858 2:-0.238212 3:0.217988 4:0.220299 5:0.246221 6:0.00869926 7:-0.91274 8:-0.895077 9:0.0206801 10:-0.329401 
131072 1:0.30737 2:-0.204399 3:-0.0510974 4:0.0934601 5:0.373205 6:0.130515 7:-0.979436 8:-0.51126 9:0.0218638 10:-0.173106 
131072 1:-0.416207 2:0.178162 3:0.106951 4:-0.515683 5:-0.455962 6:-0.178956 7:-0.948334 8:-0.719586 9:0.0913135 10:-0.376677 
131072 1:0.177255 2:0.0151289 3:0.13986 4:-0.225265 5:-0.376161 6:-0.136972 7:-0.585988 8:-0.718048 9:0.37918 10:-0.715599 
131072 1:-0.383322 2:0.0479121 3:-0.329345 4:-0.132511 5:-0.225174 6:0.39341 7:-0.839705 8:-0.390403 9:-0.13072 10:-0.605599 
131072 1:-0.153765 2:-0.246868 3:-0.424915 4:0.106523 5:-0.137059 6:-0.353834 7:-0.620024 8:-0.716981 9:0.404689 10:-0.552516 
131072 1:-0.302401 2:0.296423 3:0.137929 4:-0.0382941 5:0.0131259 6:-0.0550676 7:-0.668075 8:-0.705233 9:0.0720877 10:-0.43586 
131072 1:-0.472232 2:-0.224383 3:0.241006 4:-0.014516 5:0.0660858 6:-0.165717 7:-0.862222 8:-0.550273 9:0.279721 10:-0.421319 
131072 1:-0.0776851 2:-0.176961 3:0.311774 4:-0.0531976 5:-0.100633 6:-0.277236 7:-0.874209 8:-0.975108 9:0.362348 10:-0.722242 
131072 1:-0.350496 2:0.114043 3:-0.00321279 4:0.0160571 5:0.0434394 6:-0.559164 7:-0.798803 8:-0.723659 9:0.260157 10:-0.449876 
131072 1:0.355784 2:-0.0357011 3:-0.404331 4:0.218728 5:0.460392 6:-0.134385 7:-0.512513 8:-0.733756 9:0.0398019 10:-0.673816 
131072 1:0.512771 2:-0.444916 3:0.0468855 4:-0.010039 5:-0.0771495 6:-0.160593 7:-0.915032 8:-0.60523 9:0.0997557 10:-0.218909 
131072 1:0.375759 2:0.0187333 3:0.238597 4:-0.0742198 5:-0.159998 6:0.0579724 7:-0.992867 8:-0.520194 9:-0.303544 10:-0.438933 
131072 1:-0.493455 2:-0.139813 3:-0.24724 4:-0.5005 5:-0.354061 6:0.0896315 7:-0.910083 8:-0.767602 9:0.138897 10:-0.116604 
131072 1:0.074974 2:0.275777 3:0.082135 4:-0.0795922 5:0.0530868 6:-0.227141 7:-0.945734 8:-0.694615 9:0.197108 10:-0.484487 
131072 1:0.122329 2:0.151754 3:0.163266 4:-0.137445 5:0.0269365 6:0.280899 7:-0.943076 8:-0.571195 9:0.163144 10:-0.0944716 
131072 1:-0.317987 2:-0.439987 3:-0.260782 4:0.0771935 5:-0.0267629 6:-0.181448 7:-0.89444 8:-0.869366 9:0.594437 10:-0.25781 
131072 1:-0.397726 2:0.0109604 3:0.247841 4:0.113587 5:0.160854 6:0.2164 7:-0.947913 8:-0.431171 9:0.120699 10:-0.489129 
131072 1:-0.0336107 2:0.47049 3:0.521074 4:-0.147424 5:-0.487893 6:-0.16415 7:-0.882134 8:-0.604862 9:0.0295646 10:-0.0158413 
131072 1:-0.266817 2:-0.105191 3:-0.115019 4:0.0326023 5:-0.160772 6:-0.134505 7:-0.84289 8:-0.347588 9:0.0248167 10:-0.451217 
131072 1:-0.35581 2:-0.125861 3:0.365251 4:-0.172535 5:-0.00403647 6:-0.421684 7:-0.942621 8:-0.714285 9:0.214629 10:-0.953232 
131072 1:-0.29979 2:0.108403 3:-0.465376 4:0.200909 5:-0.219076 6:0.171021 7:-0.786624 8:-0.719797 9:0.131677 10:-0.829869 
131072 1:-0.612856 2:0.583748 3:0.0102955 4:0.154945 5:0.618242 6:0.153024 7:-0.897852 8:-0.797429 9:0.330374 10:0.174584 
131072 1:-0.212109 2:0.0657872 3:0.347724 4:-0.108733 5:-0.338098 6:0.242845 7:-0.931334 8:-0.684723 9:-0.0167179 10:-0.583783 
131072 1:-0.436412 2:0.291322 3:0.227127 4:-0.286859 5:-0.240074 6:-0.0835746 7:-0.84388 8:-0.521854 9:-0.0861415 10:-0.220428 
131072 1:-0.433481 2:0.209867 3:0.265184 4:-0.215634 5:0.229521 6:0.355279 7:-0.812898 8:-0.800929 9:0.528122 10:-0.550196 
131072 1:-0.212652 2:0.350563 3:0.832246 4:-0.0327624 5:-0.146626 6:0.0563751 7:-0.937776 8:-0.341784 9:-0.121875 10:-0.754188 
131072 1:-0.366061 2:-0.0717456 3:-0.143975 4:0.163073 5:-0.0520898 6:-0.812682 7:-0.966473 8:-0.819507 9:0.194974 10:-0.0152449 
131072 1:-0.513612 2:-0.206606 3:0.485361 4:0.0389398 5:-0.091883 6:-0.0419609 7:-0.911873 8:-0.733079 9:0.0494408 10:-0.264708 
131072 1:-0.456696 2:0.406272 3:-0.00931376 4:-0.450801 5:0.342981 6:-0.185437 7:-0.813014 8:-0.914184 9:0.583133 10:0.229169 
131072 1:-0.340439 2:0.143025 3:0.412526 4:-0.160298 5:0.0803569 6:-0.420923 7:-0.819786 8:-0.628402 9:0.241114 10:-0.701418 
131072 1:-0.366058 2:0.285413 3:-0.0244523 4:-0.218132 5:-0.174405 6:-0.146386 7:-0.772361 8:-0.588338 9:0.262304 10:-0.135713 
131072 1:-0.376447 2:0.0169924 3:0.339494 4:0.141553 5:-0.180832 6:-0.285017 7:-0.995833 8:-0.78913 9:0.318134 10:0.0641889 
131072 1:-0.184495 2:0.75963 3:0.320702 4:-0.056252 5:-0.107563 6:-0.181146 7:-0.842952 8:-0.411952 9:-0.266133 10:-0.611542 
131072 1:-0.334516 2:-0.0604173 3:0.401675 4:0.094057 5:-0.0166961 6:-0.111316 7:-0.932247 8:-0.992949 9:0.236977 10:-0.460191 
131072 1:-0.119954 2:-0.143761 3:0.196727 4:0.315193 5:0.124549 6:-0.303441 7:-0.937112 8:-0.654571 9:0.305022 10:-0.775677 
131072 1:-0.0343741 2:0.180001 3:-0.728046 4:0.164854 5:-0.0363731 6:-0.0775831 7:-0.723663 8:-0.543266 9:-0.0160935 10:-0.507113 
131072 1:-0.393781 2:-0.195841 3:0.151783 4:-0.191299 5:0.0603657 6:0.259154 7:-0.96624 8:-0.796141 9:-0.169276 10:-0.065945 
131072 1:-0.678267 2:0.0222642 3:0.215473 4:-0.166248 5:0.218771 6:0.544939 7:-0.948072 8:-0.485281 9:0.391889 10:-0.617333 
131072 1:-0.0873877 2:0.329574 3:0.508801 4:-0.131397 5:-0.237928 6:0.308584 7:-0.994181 8:-0.580458 9:-0.275941 10:-0.511227 
131072 1:-0.136033 2:0.178064 3:0.00792119 4:0.110473 5:0.210931 6:-0.263596 7:-0.904041 8:-0.855077 9:0.303786 10:-0.0377912 
131072 1:-0.478907 2:0.339651 3:0.200395 4:-0.507949 5:-0.483911 6:0.196364 7:-0.865794 8:-0.6156 9:0.267676 10:-0.436135 
131072 1:-0.664019 2:-0.0158645 3:0.429224 4:-0.0441441 5:0.0819586 6:-0.130128 7:-0.957807 8:-0.798815 9:0.457814 10:-0.274841 
131072 1:-0.27032 2:-0.11647 3:0.0608599 4:-0.487702 5:-0.561511 6:0.245746 7:-0.913601 8:-0.735344 9:0.00356159 10:-0.282297 
131072 1:-0.069228 2:-0.00483044 3:0.329907 4:0.486663 5:0.202807 6:0.0812317 7:-0.980755 8:-0.687517 9:0.160295 10:-0.578273 
131072 1:0.432892 2:-0.23527 3:0.330052 4:0.351079 5:0.300034 6:-0.408353 7:-0.924601 8:-0.76226 9:-0.0946488 10:-0.527211 
131072 1:0.181299 2:-0.243508 3:-0.0396817 4:0.455523 5:0.566055 6:0.287878 7:-0.952369 8:-0.863152 9:-0.221073 10:-0.387851 
131072 1:0.210171 2:-0.34279 3:0.343365 4:0.539025 5:0.506883 6:0.0846789 7:-0.919143 8:-0.771795 9:-0.530355 10:-0.239838 
131072 1:-0.0219864 2:-0.479881 3:0.0655914 4:0.129207 5:-0.105914 6:-0.0548662 7:-0.935355 8:-0.829075 9:-0.346627 10:-0.455321 
131072 1:0.0204146 2:-0.180026 3:0.108993 4:0.264652 5:0.155261 6:-0.235774 7:-0.83159 8:-0.957474 9:-0.152821 10:0.264587 
131072 1:0.0721967 2:0.123483 3:0.177919 4:0.389283 5:0.000657463 6:0.145135 7:-0.838669 8:-0.841306 9:0.137687 10:0.110317 
131072 1:-0.384814 2:0.612167 3:0.361762 4:-0.136789 5:-0.378662 6:0.0605803 7:-0.955314 8:0.135754 9:0.751053 10:0.00485787 
131072 1:-0.218127 2:0.171567 3:0.122741 4:-0.254595 5:0.207199 6:0.361705 7:-0.950059 8:-0.681628 9:0.685037 10:0.0520626 
131072 1:-0.105959 2:0.0825344 3:0.0451907 4:0.263418 5:0.198045 6:-0.302043 7:-0.972114 8:-0.71141 9:-0.314952 10:0.662477 
131072 1:0.111799 2:0.51595 3:0.314 4:0.354322 5:0.0860789 6:0.112762 7:-0.977571 8:-0.680267 9:0.0111583 10:0.5832 
131072 1:-0.370384 2:0.233136 3:0.343471 4:0.453284 5:0.223065 6:-0.182904 7:-0.7518 8:-0.213001 9:0.0505335 10:0.0645699 
131072 1:-0.511296 2:0.380919 3:0.184947 4:0.0165347 5:0.0267999 6:-0.0126253 7:-0.926922 8:-0.16721 9:-0.033212 10:0.12357 
131072 1:0.19164 2:0.414879 3:0.380935 4:-0.118085 5:-0.0895438 6:0.00311237 7:-0.894445 8:-0.883166 9:-0.691975 10:0.252975 
131072 1:0.127621 2:0.112375 3:0.113383 4:0.549073 5:0.266881 6:0.652789 7:-0.974155 8:-0.11144 9:-0.296663 10:0.309307 
110086.7558049004 1:-0.0761109 2:-0.0163058 3:0.141709 4:0.206301 5:0.335771 6:0.046417 7:-0.791971 8:-0.723424 9:0.497111 10:0.180979 
131072 1:-0.15039 2:0.107496 3:0.1207 4:0.491558 5:0.269176 6:-0.263922 7:-0.881763 8:-0.688929 9:0.291051 10:0.0317113 
131072 1:0.0306514 2:-0.0658608 3:0.109209 4:0.22213 5:0.0963721 6:-0.0913277 7:-0.851958 8:-0.95096 9:0.498633 10:0.21749 
131072 1:-0.248192 2:0.260648 3:-0.0317437 4:-0.0846762 5:-0.125981 6:-0.0087611 7:-0.901565 8:-0.757627 9:0.57058 10:0.326403 
131072 1:-0.12842 2:-0.513621 3:-0.255666 4:0.374011 5:-0.147935 6:-0.364511 7:-0.993366 8:-0.181692 9:0.399954 10:0.0925332 
131072 1:-0.0596908 2:-0.0677979 3:-0.0675989 4:0.072418 5:-0.0664389 6:0.0292746 7:-0.947839 8:-0.640422 9:0.629858 10:0.350846 
131072 1:-0.26556 2:0.259741 3:0.10344 4:0.0999568 5:-0.111603 6:0.3853 7:-0.997875 8:-0.35356 9:0.413704 10:0.243457 
131072 1:-0.134372 2:0.230954 3:0.139317 4:-0.00370151 5:0.307896 6:0.0914567 7:-0.843598 8:-0.764324 9:0.276664 10:0.0947199 
131072 1:0.0474166 2:-0.0566167 3:-0.0493513 4:-0.327932 5:-0.739722 6:-0.612199 7:-0.888217 8:-0.621079 9:-0.380812 10:0.380044 
131072 1:0.423208 2:0.286958 3:0.0956603 4:0.0536543 5:-0.0983015 6:-0.758223 7:-0.604195 8:-0.80446 9:-0.58882 10:-0.374809 
131072 1:-0.157209 2:-0.201947 3:-0.0425853 4:-0.170038 5:-0.273405 6:-0.19563 7:-0.878937 8:-0.942258 9:-0.015326 10:-0.504337 
131072 1:-0.18328 2:-0.14587 3:-0.224065 4:0.0341344 5:-0.123086 6:-0.165874 7:-0.858763 8:-0.4861 9:-0.525247 10:-0.489551 
131072 1:-0.422856 2:-0.108991 3:-0.150541 4:-0.454348 5:-0.438713 6:0.123663 7:-0.762653 8:-0.802759 9:0.121336 10:-0.530315 
131072 1:-0.0373901 2:-0.0940588 3:-0.158443 4:-0.250496 5:-0.268087 6:-0.227636 7:-0.802383 8:-0.893518 9:-0.0569126 10:-0.72361 
131072 1:0.384327 2:0.150553 3:-0.153105 4:-0.227285 5:0.0493078 6:0.197871 7:-0.709964 8:-0.64228 9:-0.0732636 10:-0.531621 
131072 1:0.074688 2:-0.0490891 3:-0.310667 4:-0.353853 5:-0.53506 6:0.113942 7:-0.729327 8:-0.695693 9:0.145453 10:-0.673569 
105947.5558800094 1:0.0124846 2:0.257411 3:-0.17091 4:-0.346482 5:-0.420753 6:-0.21207 7:-0.587159 8:-0.620927 9:-0.237672 10:-0.482985 
131072 1:0.215368 2:0.0205968 3:-0.327611 4:-0.275706 5:0.0162395 6:-0.135429 7:-0.846656 8:-0.851831 9:-0.126141 10:-0.503061 
131072 1:0.239761 2:-0.150504 3:-0.278001 4:0.021937 5:-0.0581202 6:0.290191 7:-0.849224 8:-0.911773 9:-0.0405875 10:-0.389053 
131072 1:-0.1049 2:-0.104235 3:-0.152999 4:-0.137227 5:-0.291842 6:-0.0651937 7:-0.936701 8:-0.56052 9:-0.288299 10:-0.514512 
131072 1:0.000200908 2:-0.48047 3:-0.600393 4:-0.551449 5:-0.698626 6:0.0802952 7:-0.805044 8:-0.75859 9:0.240125 10:-0.223971 
131072 1:-0.0734258 2:-0.0400167 3:-0.00784152 4:0.111 5:0.0843855 6:-0.110292 7:-0.720678 8:-0.255803 9:-0.14283 10:-0.542145 
131072 1:0.291794 2:-0.0878062 3:0.240967 4:-0.221415 5:-0.201082 6:-0.403264 7:-0.961178 8:-0.534724 9:-0.473175 10:-0.558494 
131072 1:-0.0176444 2:-0.199323 3:-0.401386 4:-0.336518 5:-0.304525 6:-0.0205268 7:-0.723587 8:-0.557915 9:-0.312728 10:-0.673872 
131072 1:0.0486055 2:-0.560013 3:-0.615607 4:-0.194184 5:-0.303721 6:-0.0287322 7:-0.979892 8:-0.745652 9:-0.267811 10:-0.350903 
131072 1:0.0421315 2:0.154746 3:0.0229412 4:-0.191468 5:-0.0885566 6:0.127086 7:-0.894955 8:-0.461835 9:-0.0450883 10:-0.53088 
-131072 1:-0.0819159 2:-0.0518108 3:-0.346991 4:-0.083532 5:-0.453535 6:0.226074 7:-0.815243 8:-0.887495 9:-0.0691401 10:-0.526067 
-131072 1:-0.0188617 2:-0.355344 3:-0.0355836 4:0.382806 5:0.506629 6:0.0889265 7:-0.761818 8:-0.726991 9:0.121453 10:-0.437102 
-131072 1:0.177867 2:0.109261 3:0.298869 4:0.193616 5:-0.343139 6:-0.492519 7:-0.728525 8:-0.568635 9:-0.273886 10:-0.506783 
-131072 1:0.174404 2:-0.281465 3:-0.266401 4:-0.0451489 5:0.0100024 6:-0.275488 7:-0.771331 8:-0.777937 9:-0.0993707 10:-0.281329 
-131072 1:-0.0595041 2:0.189246 3:0.0817386 4:0.167888 5:0.128028 6:-0.0383158 7:-0.943738 8:-0.719336 9:-0.198726 10:-0.225174 
-115528.6711918673 1:0.0588068 2:-0.212025 3:0.100728 4:0.245371 5:-0.339829 6:-0.241517 7:-0.874798 8:-0.795968 9:0.0635024 10:-0.539319 
-131072 1:-0.768642 2:0.0601476 3:0.1839 4:-0.0902575 5:-0.10799 6:-0.167942 7:-0.730266 8:-0.720627 9:0.0117956 10:-0.299808 
-285.0305898536103 1:0.0445991 2:-0.2005 3:-0.194272 4:0.199655 5:-0.117704 6:-0.0810497 7:-0.998158 8:-0.523418 9:0.00037463 10:-0.378653 
-131072 1:-0.165501 2:0.103524 3:-0.20564 4:0.156348 5:-0.237438 6:-0.323131 7:-0.595154 8:-0.604888 9:-0.0957805 10:-0.467236 
-131072 1:-0.10905 2:-0.065493 3:-0.30737 4:-0.0302056 5:-0.114808 6:-0.0370383 7:-0.914754 8:-0.685914 9:-0.135286 10:-0.330729 
-131072 1:0.122372 2:-0.267244 3:-0.281113 4:0.199039 5:-0.216073 6:-0.458877 7:-0.902051 8:-0.442324 9:-0.125218 10:-0.274665 
-131072 1:-0.0216437 2:-0.220386 3:-0.364379 4:0.0961662 5:-0.194024 6:0.122879 7:-0.684615 8:-0.306842 9:-0.434065 10:-0.421698 
-131072 1:0.0306112 2:-0.291151 3:0.0059841 4:0.135156 5:0.0544602 6:0.132858 7:-0.973685 8:-0.744359 9:-0.222712 10:0.253786 
-131072 1:0.76586 2:-0.108452 3:-0.502608 4:-0.456973 5:-0.559607 6:-0.301737 7:-0.684659 8:-0.628395 9:-0.219304 10:-0.406544 
-131072 1:0.190621 2:-0.396587 3:-0.175831 4:0.00347169 5:0.104685 6:0.0845905 7:-0.720268 8:-0.571373 9:0.0427677 10:-0.155766 
-131072 1:0.285121 2:0.604541 3:0.36109 4:-0.345377 5:-0.190772 6:-0.416352 7:-0.98748 8:-0.437337 9:-0.356029 10:-0.491692 
-131072 1:0.292656 2:0.212956 3:0.352675 4:0.307602 5:-0.334532 6:-0.181031 7:-0.514266 8:-0.572024 9:-0.0106041 10:-0.228378 
-131072 1:0.075728 2:-0.63985 3:-0.572607 4:0.151821 5:0.231932 6:-0.351039 7:-0.567239 8:-0.658123 9:0.153062 10:-0.43251 
-131072 1:-0.050832 2:-0.228281 3:-0.191566 4:0.158327 5:0.0248568 6:0.0536965 7:-0.907108 8:-0.782836 9:0.291949 10:-0.304866 
-131072 1:0.054654 2:-0.231837 3:-0.337257 4:-0.0314691 5:-0.287678 6:-0.0624338 7:-0.848521 8:-0.719824 9:-0.0651987 10:-0.588701 
-131072 1:-0.177586 2:-0.0367065 3:-0.195448 4:-0.260385 5:0.17796 6:-0.173794 7:-0.945967 8:-0.70316 9:-0.353192 10:-0.159137 
-131072 1:0.305148 2:-0.363387 3:-0.680356 4:-0.193767 5:0.056298 6:0.0600803 7:-0.844348 8:-0.557062 9:-0.226979 10:-0.228663 
-131072 1:-0.552903 2:0.155065 3:0.0801465 4:-0.139863 5:0.0976733 6:-0.0710633 7:-0.834545 8:-0.920141 9:0.183098 10:-0.504639 
-131072 1:-0.237054 2:0.05262 3:-0.076543 4:0.385731 5:-0.0623478 6:0.0390703 7:-0.590946 8:-0.350892 9:0.0249207 10:-0.50242 
-131072 1:-0.38379 2:-0.0475934 3:0.263564 4:-0.0924662 5:0.591709 6:0.142931 7:-0.86552 8:-0.723927 9:0.33749 10:-0.224939 
-131072 1:-0.21533 2:-0.0414143 3:0.110005 4:-0.0810448 5:-0.0376451 6:-0.479016 7:-0.871942 8:-0.771682 9:0.352904 10:-0.285428 
-131072 1:-0.258819 2:0.87409 3:0.698362 4:-0.00583059 5:-0.316897 6:-0.53867 7:-0.733107 8:-0.724062 9:0.226649 10:-0.0154437 
-131072 1:-0.298844 2:-0.0251085 3:-0.141377 4:0.0414568 5:0.46008 6:0.254892 7:-0.898546 8:-0.786572 9:0.467778 10:-0.190919 
-127275.4045204666 1:0.0612934 2:-0.130545 3:-0.480341 4:0.0508387 5:-0.17008 6:-0.0688582 7:-0.844884 8:-0.698124 9:0.00477133 10:-0.461751 
-123401.1328787444 1:-0.0010849 2:0.0150063 3:-0.0863588 4:0.0556739 5:-0.134591 6:-0.219261 7:-0.966911 8:-0.543617 9:-0.20134 10:-0.467714 
-131072 1:-0.158582 2:-0.419243 3:-0.120218 4:0.432411 5:0.0844031 6:-0.0487722 7:-0.875427 8:-0.752785 9:0.100354 10:-0.13963 
-131072 1:-0.155146 2:0.321139 3:0.144652 4:0.272701 5:0.225736 6:-0.389048 7:-0.900648 8:-0.539773 9:-0.0639239 10:-0.134164 
-131072 1:0.766829 2:-0.440772 3:-0.304928 4:0.130679 5:-0.539307 6:0.0397629 7:-0.572975 8:-0.748005 9:-0.237542 10:-0.282986 
-131072 1:0.298036 2:-0.256945 3:-0.229173 4:-0.382092 5:-0.392102 6:0.0178765 7:-0.793366 8:-0.560024 9:-0.225808 10:-0.654221 
-131072 1:-0.0161175 2:-0.148371 3:-0.361861 4:0.125148 5:-0.214483 6:-0.296626 7:-0.768382 8:-0.618762 9:-0.172879 10:-0.222748 
-131072 1:-0.0412381 2:0.0430572 3:0.097525 4:0.123416 5:-0.0130927 6:-0.135231 7:-0.926387 8:-0.51799 9:0.270876 10:-0.357851 
-131072 1:0.0479697 2:-0.235637 3:-0.0795493 4:0.307035 5:-0.0324167 6:-0.0358174 7:-0.897654 8:-0.436742 9:-0.039729 10:-0.419979 
-131072 1:0.390758 2:-0.323321 3:-0.331398 4:0.0471477 5:-0.159756 6:-0.157148 7:-0.882793 8:-0.444788 9:-0.0272934 10:0.0618613 
-131072 1:-0.369136 2:-0.0510997 3:0.22045 4:0.0827948 5:-0.0132975 6:-0.0861366 7:-0.929828 8:-0.794337 9:-0.0695303 10:-0.167147 
-131072 1:-0.510866 2:0.0667925 3:-0.019094 4:-0.47294 5:-0.225668 6:-0.256795 7:-0.918665 8:-0.586282 9:0.287149 10:-0.438914 
-131072 1:0.198116 2:0.160312 3:0.0779935 4:0.356262 5:0.0334819 6:-0.654053 7:-0.963392 8:-0.521135 9:0.153453 10:-0.0817241 
-131072 1:-0.00511014 2:-0.0792732 3:0.148301 4:0.0491374 5:0.0271218 6:-0.245688 7:-0.649303 8:-0.712098 9:0.250609 10:-0.419297 
-131072 1:-0.451815 2:-0.0121129 3:-0.14304 4:0.221513 5:0.00717747 6:0.272241 7:-0.93996 8:-0.731622 9:0.391954 10:-0.0296573 
-131072 1:-0.0443604 2:-0.0185371 3:0.0903205 4:-0.181281 5:0.165611 6:0.0121217 7:-0.760094 8:-0.546921 9:-0.164697 10:-0.28819 
-131072 1:0.0979815 2:0.173994 3:0.150354 4:0.0498239 5:-0.131994 6:-0.407448 7:-0.735641 8:-0.54163 9:-0.0209064 10:-0.346254 
-131072 1:-0.295556 2:0.328642 3:-0.0821699 4:-0.239373 5:-0.220459 6:0.0303578 7:-0.778026 8:-0.755412 9:0.307923 10:-0.431043 
-131072 1:-0.0858443 2:-0.141579 3:-0.0370572 4:0.0295678 5:0.000554064 6:0.0836841 7:-0.856315 8:-0.942344 9:-0.108775 10:-0.0264021 
-131072 1:0.0316063 2:-0.291053 3:-0.543217 4:0.0203551 5:-0.163954 6:-0.245049 7:-0.781126 8:-0.609532 9:0.0639057 10:-0.492982 
-64537.48490146126 1:-0.122393 2:-0.0943776 3:-0.131566 4:0.145573 5:0.293707 6:0.0564547 7:-0.978571 8:-0.676658 9:0.167905 10:-0.261086 
-131072 1:0.230796 2:-0.350931 3:-0.015528 4:0.047277 5:0.202202 6:0.00673802 7:-0.914397 8:-0.638586 9:-0.0580833 10:-0.328496 
-131072 1:0.191422 2:0.319545 3:0.4093 4:0.0203451 5:-0.115128 6:0.141809 7:-0.988948 8:-0.483094 9:0.301965 10:-0.311265 
-131072 1:0.307904 2:0.0965844 3:-0.458922 4:0.294171 5:-0.512065 6:-0.23091 7:-0.854783 8:-0.789697 9:-0.0520736 10:0.0234614 
-131072 1:0.596918 2:-0.281882 3:-0.335724 4:-0.0766871 5:-0.394437 6:-0.301575 7:-0.728804 8:-0.60258 9:-0.0327958 10:-0.298489 
-131072 1:-0.121715 2:-0.143834 3:-0.0128679 4:-0.0304244 5:0.026915 6:-0.311885 7:-0.87294 8:-0.727608 9:0.239722 10:0.108528 
-131072 1:-0.189283 2:0.0346468 3:-0.185636 4:0.273636 5:0.0263941 6:-0.0762261 7:-0.495373 8:-0.756364 9:-0.13911 10:-0.610853 
-131072 1:-0.0286305 2:-0.0475198 3:0.365844 4:0.195397 5:0.309579 6:0.332251 7:-0.909196 8:-0.727353 9:-0.0939463 10:-0.257128 
-131072 1:0.0726789 2:0.266949 3:0.402571 4:-0.00585049 5:-0.0913777 6:-0.329186 7:-0.913588 8:-0.635051 9:0.159892 10:-0.488842 
-131072 1:-0.0902737 2:0.109041 3:0.338717 4:-0.503975 5:-0.437988 6:0.206642 7:-0.791632 8:-0.574481 9:-0.204866 10:-0.392337 
-131072 1:-0.175407 2:0.336464 3:-0.109404 4:0.434829 5:0.161274 6:-0.202276 7:-0.748252 8:-0.596843 9:0.0744161 10:-0.310652 
-131072 1:0.0892526 2:-0.205527 3:-0.650121 4:0.132858 5:0.092993 6:0.148852 7:-0.292772 8:-0.810054 9:-0.0528671 10:-0.845099 
-131072 1:-0.283315 2:0.0277076 3:0.228707 4:0.119705 5:0.152249 6:-0.0940381 7:-0.851949 8:-0.869852 9:0.162584 10:-0.402307 
-77131.51411099293 1:0.441321 2:0.249172 3:-0.625233 4:-0.197219 5:-0.0495146 6:-0.181481 7:-0.650654 8:-0.688321 9:-0.13046 10:-0.704738 
-131072 1:0.0104377 2:0.336832 3:0.359418 4:-0.218012 5:-0.266415 6:-0.00679103 7:-0.89385 8:-0.418105 9:0.280073 10:-0.43602 
-131072 1:0.185695 2:0.261016 3:0.0156116 4:-0.225146 5:-0.313436 6:0.00194446 7:-0.808012 8:-0.544736 9:-0.0166789 10:-0.264842 
-131072 1:0.0352037 2:0.0821666 3:0.219107 4:-0.176107 5:-0.194014 6:-0.127324 7:-0.853594 8:-0.596032 9:-0.366979 10:-0.274593 
-131072 1:-0.351794 2:0.288625 3:0.244918 4:-0.295266 5:-0.394656 6:-0.198825 7:-0.956441 8:-0.958857 9:-0.102415 10:-0.4087 
-107702.8687955212 1:-0.272584 2:0.0593384 3:-0.0624105 4:-0.0300961 5:-0.471218 6:-0.480682 7:-0.819165 8:-0.795384 9:0.230122 10:-0.452427 
-131072 1:0.152089 2:-0.447785 3:-0.351773 4:-0.0835917 5:-0.333535 6:-0.372052 7:-0.75117 8:-0.507728 9:-0.309983 10:-0.650844 
-131072 1:-0.282471 2:0.426575 3:0.12892 4:-0.118393 5:-0.103122 6:-0.117078 7:-0.74961 8:-0.476504 9:-0.213711 10:-0.103715 
-131072 1:0.0312305 2:0.525341 3:0.324258 4:0.0693339 5:0.27634 6:0.0779771 7:-0.874902 8:-0.555367 9:0.0645171 10:-0.446682 
-131072 1:-0.434712 2:0.108011 3:-0.0933802 4:-0.529724 5:-0.0351694 6:-0.116458 7:-0.789516 8:-0.767768 9:0.459336 10:-0.623699 
-90055.49450985865 1:0.261267 2:0.440821 3:-0.138194 4:-0.172466 5:-0.271322 6:-0.0304355 7:-0.927753 8:-0.58753 9:0.107951 10:-0.41434 
-131072 1:0.37041 2:0.0313121 3:-0.104602 4:0.302786 5:0.0475812 6:-0.228408 7:-0.707577 8:-0.616828 9:-0.337521 10:-0.653585 
-131072 1:-0.0542971 2:-0.140181 3:0.112001 4:0.1012 5:0.43304 6:0.12731 7:-0.867496 8:-0.586027 9:-0.0416022 10:-0.527614 
-131072 1:-0.166068 2:0.275556 3:-0.284292 4:-0.52542 5:-0.54245 6:0.134378 7:-0.83668 8:-0.693156 9:0.0115875 10:-0.299301 
-88384.02098096244 1:-0.226262 2:0.187848 3:0.249856 4:0.00143215 5:0.178091 6:-0.217745 7:-0.890237 8:-0.69161 9:0.0653886 10:-0.545376 
-131072 1:-0.108483 2:-0.0705931 3:-0.0934869 4:0.351845 5:0.0386869 6:0.117543 7:-0.899432 8:-0.772485 9:0.119203 10:-0.288486 
-131072 1:0.240697 2:0.230831 3:-0.13502 4:-0.273378 5:-0.728128 6:-0.312377 7:-0.6348 8:-0.402267 9:-0.353458 10:-0.240738 
-131072 1:0.141595 2:-0.202045 3:0.0557979 4:-0.0448902 5:-0.0701984 6:-0.255779 7:-0.705427 8:-0.397405 9:0.184256 10:-0.385396 
-131072 1:0.347157 2:-0.0475198 3:-0.0457616 4:-0.0964657 5:-0.364225 6:-0.41433 7:-0.699384 8:-0.614402 9:-0.0786489 10:-0.285321 
-131072 1:-0.670251 2:0.274502 3:-0.310875 4:-0.238408 5:-0.32236 6:0.191289 7:-0.70775 8:-0.601599 9:0.19673 10:-0.578061 
-131072 1:0.076586 2:0.224579 3:0.24763 4:-0.156677 5:-0.184677 6:-0.120702 7:-0.812111 8:-0.337473 9:-0.274849 10:-0.359669 
-131072 1:-0.000392361 2:-0.331118 3:0.142626 4:-0.0297778 5:-0.0933559 6:0.0787952 7:-0.666927 8:-0.713411 9:0.105401 10:-0.474893 
-131072 1:0.259603 2:-0.141039 3:-0.212438 4:-0.112732 5:0.0361332 6:-0.0936158 7:-0.655819 8:-0.815998 9:0.00518759 10:-0.352688 
-131072 1:-0.0639194 2:-0.138808 3:-0.162947 4:-0.107031 5:-0.279055 6:-0.111682 7:-0.896623 8:-0.600515 9:-0.20467 10:-0.387809 
-131072 1:0.344356 2:-0.297281 3:-0.253055 4:-0.0995598 5:-0.249411 6:-0.0801627 7:-0.83252 8:-0.768421 9:-0.0522687 10:-0.229979 
-131072 1:-0.176177 2:0.0363387 3:-0.301233 4:-0.285038 5:-0.549462 6:-0.268548 7:-0.753406 8:-0.649646 9:0.0944615 10:-0.494225 
-131072 1:-0.282887 2:-0.208567 3:0.129964 4:0.157452 5:0.238741 6:-0.191105 7:-0.95118 8:-0.575047 9:0.228925 10:-0.0547133 
-131072 1:-0.166044 2:-0.0683618 3:-0.209698 4:-0.113956 5:0.0921249 6:-0.0256631 7:-0.692018 8:-0.550887 9:0.13251 10:-0.269046 
-131072 1:-0.00316725 2:0.0494569 3:-0.254681 4:0.0379648 5:0.176743 6:0.207871 7:-0.659893 8:-0.376222 9:0.039984 10:-0.168555 
-131072 1:-0.297402 2:-0.192948 3:-0.184097 4:-0.00367167 5:-0.0209491 6:-0.0210198 7:-0.821519 8:-0.584313 9:0.0108201 10:-0.497701 
-131072 1:0.0443131 2:0.219234 3:-0.199538 4:-0.21061 5:-0.721454 6:-0.33537 7:-0.847051 8:-0.788348 9:-0.306497 10:-0.122435 
-131072 1:-0.405117 2:0.506804 3:0.493447 4:-0.0565405 5:-0.0648314 6:-0.313784 7:-0.976405 8:-0.581444 9:0.0216817 10:-0.154266 
-131072 1:-0.459485 2:0.228943 3:0.218185 4:-0.105022 5:-0.189845 6:-0.12104 7:-0.727258 8:-0.704652 9:-0.0461029 10:-0.402883 
-131072 1:-0.15151 2:0.108428 3:-0.442959 4:0.0446107 5:0.0294103 6:0.00660727 7:-0.790299 8:-0.696103 9:0.14635 10:-0.302392 
-131072 1:-0.27405 2:-0.00983253 3:-0.105092 4:-0.246078 5:-0.240776 6:0.197373 7:-0.887387 8:-0.6113 9:0.19647 10:-0.558529 
-131072 1:-0.00482178 2:-0.506387 3:-0.353053 4:0.000954603 5:-0.0783181 6:-0.295852 7:-0.976277 8:-0.850766 9:-0.144743 10:-0.308998 
-131072 1:-0.305985 2:0.164333 3:0.393932 4:0.0486997 5:0.145003 6:0.199975 7:-0.935972 8:-0.782787 9:0.373028 10:-0.431172 
-131072 1:-0.285532 2:0.477086 3:0.103014 4:0.167729 5:0.217757 6:0.147485 7:-0.913107 8:-0.660852 9:0.399863 10:-0.196493 
-131072 1:-0.668855 2:0.0812348 3:0.470665 4:-0.267289 5:-0.239506 6:0.116543 7:-0.936239 8:-0.857801 9:0.3592 10:-0.503079 
-131072 1:0.0212608 2:0.10958 3:0.126728 4:-0.160119 5:-0.117725 6:-0.185939 7:-0.903507 8:-0.540245 9:0.455719 10:-0.444138 
-131072 1:-0.160738 2:-0.0100287 3:0.0576297 4:-0.0765379 5:0.0978294 6:0.352145 7:-0.888066 8:-0.769989 9:0.106624 10:-0.395662 
-131072 1:-0.0467075 2:0.0828777 3:-0.0751352 4:0.160377 5:-0.40647 6:-0.264546 7:-0.889657 8:-0.692274 9:0.186584 10:-0.122708 
-131072 1:-0.333703 2:0.235466 3:0.131138 4:-0.121259 5:-0.153628 6:-0.208446 7:-0.957855 8:-0.580142 9:0.126162 10:-0.291523 
-131072 1:-0.213692 2:-0.199617 3:-0.163064 4:0.134977 5:0.384361 6:-0.18622 7:-0.922225 8:-0.742932 9:0.179742 10:-0.242921 
-131072 1:0.0395433 2:0.427507 3:0.13594 4:-0.0614254 5:-0.227278 6:-0.419567 7:-0.934411 8:-0.574553 9:-0.100177 10:-0.349296 
-131072 1:-0.3217 2:-0.236373 3:-0.0616757 4:-0.153463 5:0.149822 6:0.159272 7:-0.904533 8:-0.706074 9:0.120165 10:-0.653333 
-131072 1:-0.709072 2:0.0291053 3:-0.102177 4:-0.130153 5:-0.103596 6:-0.218192 7:-0.810075 8:-0.744357 9:0.314778 10:-0.287918 
-131072 1:-0.177678 2:0.24878 3:-0.0632467 4:-0.0729662 5:-0.0804739 6:0.0909513 7:-0.822544 8:-0.641622 9:0.174161 10:-0.355512 
-131072 1:-0.689858 2:0.186573 3:0.164715 4:0.173092 5:0.36516 6:0.00789886 7:-0.914944 8:-0.715215 9:0.116289 10:0.0766382 
-131072 1:-0.753233 2:0.115391 3:0.302451 4:-0.0941774 5:0.0562804 6:0.128867 7:-0.926178 8:-0.698076 9:0.162636 10:-0.0508452 
-131072 1:-0.13942 2:0.321874 3:0.192462 4:-0.191001 5:-0.0773407 6:-0.0188977 7:-0.810168 8:-0.725669 9:0.384631 10:-0.680402 
-131072 1:-0.647133 2:0.182233 3:0.125889 4:-0.367485 5:0.337605 6:0.139297 7:-0.956309 8:-0.868367 9:0.196561 10:-0.179701 
-131072 1:-0.498426 2:0.0859182 3:0.186444 4:-0.209745 5:-0.211331 6:-0.422836 7:-0.857368 8:-0.827592 9:0.496708 10:-0.422637 
-131072 1:-0.228099 2:0.168845 3:0.113714 4:-0.516465 5:-0.497544 6:-0.380312 7:-0.807497 8:-0.692951 9:0.031906 10:-0.567203 
-131072 1:-0.148778 2:0.222642 3:0.0105549 4:-0.461427 5:-0.326826 6:-0.419617 7:-0.950688 8:-0.751916 9:0.229875 10:-0.338883 
-131072 1:-0.26685 2:-0.0525709 3:-0.13213 4:-0.0731354 5:-0.0481353 6:-0.103012 7:-0.966785 8:-0.763797 9:-0.0995528 10:-0.248573 
-131072 1:-0.360641 2:0.42785 3:0.227364 4:0.0683091 5:-0.298346 6:-0.109111 7:-0.812617 8:-0.527541 9:0.157888 10:-0.536008 
-131072 1:-0.366212 2:0.468406 3:0.362446 4:-0.0771348 5:-0.103471 6:-0.134293 7:-0.870133 8:-0.673543 9:0.241101 10:-0.0953413 
-131072 1:-0.117006 2:0.125322 3:-0.0914524 4:-0.230777 5:0.362709 6:0.139998 7:-0.957824 8:-0.442756 9:0.395779 10:-0.493117 
-131072 1:-0.15784 2:-0.00833681 3:-0.0295419 4:-0.465644 5:-0.325454 6:-0.423803 7:-0.868837 8:-0.677346 9:0.294004 10:-0.473161 
-131072 1:-0.365699 2:0.101121 3:0.0571227 4:-0.0546502 5:-0.195879 6:0.103141 7:-0.793054 8:-0.667201 9:0.0439514 10:-0.545824 
-131072 1:-0.345074 2:0.417453 3:0.406166 4:-0.582535 5:-0.205015 6:0.347432 7:-0.877807 8:-0.765309 9:0.294915 10:-0.350698 
-131072 1:-0.401236 2:-0.266386 3:0.0932215 4:0.240973 5:-0.0159742 6:0.0671337 7:-0.93838 8:-0.633799 9:0.0821689 10:-0.518134 
-131072 1:0.220046 2:-0.0111566 3:0.268397 4:0.444539 5:0.140211 6:-0.0388388 7:-0.830651 8:-0.679075 9:0.123391 10:-0.209281 
-131072 1:0.0223622 2:-0.048329 3:0.308324 4:0.23776 5:0.298016 6:0.326974 7:-0.979294 8:-0.702715 9:0.0333239 10:-0.409386 
-131072 1:0.276243 2:0.0145404 3:-0.285916 4:-0.0384831 5:0.262146 6:0.00935124 7:-0.883667 8:-0.626017 9:0.0550993 10:-0.46431 
-131072 1:-0.0931077 2:-0.0524728 3:-0.457263 4:0.0133013 5:0.202649 6:0.252166 7:-0.868354 8:-0.790492 9:-0.0992536 10:-0.415605 
-131072 1:0.0168408 2:-0.420984 3:-0.203061 4:-0.0364834 5:0.224417 6:-0.379648 7:-0.878969 8:-0.594745 9:-0.0306234 10:-0.623041 
-43621.52912985751 1:-0.48722 2:0.134296 3:-0.273813 4:0.0652349 5:0.196845 6:0.471683 7:-0.895039 8:-0.827622 9:-0.0288283 10:-0.337782 
-131072 1:0.122157 2:-0.182208 3:-0.263978 4:-0.0191821 5:-0.151661 6:0.053246 7:-0.921915 8:-0.696665 9:0.137466 10:-0.391392 
-86778.40395404676 1:0.120942 2:0.362136 3:0.498161 4:0.316128 5:0.240955 6:-0.13924 7:-0.904114 8:-0.665881 9:0.204678 10:-0.41086 
-131072 1:-0.327877 2:-0.125665 3:0.210087 4:0.042392 5:0.11871 6:0.0614496 7:-0.895574 8:-0.718475 9:0.0520164 10:-0.554676 
-131072 1:0.104897 2:-0.350367 3:-0.499518 4:0.125197 5:-0.146406 6:-0.0359641 7:-0.841198 8:-0.809946 9:0.263982 10:-0.295326 
-131072 1:0.301884 2:0.0255008 3:0.0566368 4:0.147632 5:0.0476866 6:-0.444422 7:-0.863061 8:-0.713542 9:0.215345 10:-0.278514 
-131072 1:0.0662333 2:-0.190177 3:-0.136445 4:0.150786 5:0.0556893 6:-0.0382169 7:-0.898793 8:-0.870171 9:0.283468 10:-0.373119 
-131072 1:0.078094 2:-0.518353 3:-0.277714 4:0.262314 5:0.0360922 6:0.00128541 7:-0.95092 8:-0.680774 9:-0.0652507 10:-0.398686 
-131072 1:0.301262 2:-0.298727 3:-0.220903 4:-0.090546 5:0.0739773 6:0.11931 7:-0.893848 8:-0.726442 9:0.256294 10:-0.571454 
-131072 1:0.236331 2:-0.189785 3:0.122728 4:0.209972 5:0.0341257 6:0.222913 7:-0.889039 8:-0.750028 9:-0.0874944 10:-0.385952 
-131072 1:0.204843 2:0.0491381 3:-0.222021 4:-0.17563 5:-0.483167 6:-0.445177 7:-0.967929 8:-0.740789 9:0.125199 10:-0.232447 
-131072 1:0.309575 2:-0.43756 3:-0.0963892 4:0.178195 5:0.280271 6:0.0272286 7:-0.927509 8:-0.726547 9:-0.0790652 10:-0.501757 
-131072 1:0.570776 2:-0.169605 3:-0.0815022 4:0.321978 5:0.17485 6:0.00399228 7:-0.916617 8:-0.639871 9:0.0695772 10:-0.340306 
-131072 1:0.386442 2:-0.700905 3:-0.00524469 4:0.0372086 5:0.238956 6:0.0698423 7:-0.857249 8:-0.707054 9:0.162636 10:-0.626381 
-131072 1:0.0925995 2:-0.0539686 3:-0.139666 4:0.343925 5:0.177336 6:0.155754 7:-0.952352 8:-0.700862 9:-0.355706 10:-0.247043 
-131072 1:-0.0391675 2:-0.16605 3:-0.053955 4:0.220061 5:0.342347 6:0.061485 7:-0.929263 8:-0.704294 9:0.12546 10:-0.375819 
-131072 1:0.324104 2:-0.397886 3:-0.00787839 4:0.318546 5:0.159816 6:0.182354 7:-0.845151 8:-0.793952 9:0.190382 10:-0.584695 
-131072 1:-0.638574 2:-0.238163 3:0.153907 4:0.202481 5:0.181119 6:0.0851666 7:-0.903748 8:-0.774199 9:0.307389 10:-0.320178 
-131072 1:0.000394724 2:-0.067994 3:-0.239746 4:-0.27895 5:-0.192254 6:-0.233276 7:-0.781673 8:-0.559128 9:-0.00462044 10:-0.577345 
-131072 1:-0.0460622 2:-0.086286 3:-0.0720051 4:0.0794818 5:-0.274439 6:-0.303343 7:-0.95438 8:-0.82947 9:-0.0619467 10:-0.287019 
-131072 1:0.231909 2:0.446044 3:0.0535975 4:-0.219614 5:-0.0152368 6:0.0559529 7:-0.912664 8:-0.670842 9:0.328072 10:-0.559126 
-131072 1:0.151357 2:0.0546796 3:0.314895 4:0.472615 5:0.0451328 6:-0.169548 7:-0.953268 8:-0.693844 9:-0.239116 10:-0.258589 
-131072 1:0.224806 2:-0.0696859 3:-0.0401505 4:0.188901 5:0.220346 6:-0.125271 7:-0.883692 8:-0.551789 9:0.186142 10:-0.445663 
-131072 1:0.34124 2:-0.43116 3:0.0871377 4:-0.153931 5:-0.0293791 6:0.245116 7:-0.968432 8:-0.664289 9:0.020524 10:-0.347995 
-131072 1:0.037487 2:-0.00791997 3:-0.0218436 4:-0.144261 5:-0.067709 6:-0.0494136 7:-0.887404 8:-0.720499 9:-0.147838 10:-0.404688 
-131072 1:-0.0999575 2:-0.115685 3:-0.0851486 4:0.304408 5:0.0402399 6:0.0722842 7:-0.971088 8:-0.732083 9:-0.0581353 10:-0.315857 
-131072 1:0.218559 2:0.288159 3:0.0772337 4:0.0803971 5:0.312042 6:0.0664835 7:-0.844917 8:-0.696976 9:-0.101361 10:-0.352012 
-131072 1:0.260327 2:-0.535689 3:-0.211378 4:-0.0478152 5:-0.140687 6:0.00489869 7:-0.954505 8:-0.588486 9:-0.0161455 10:-0.260482 
-131072 1:0.289168 2:-0.0493833 3:-0.0320808 4:0.101051 5:0.22708 6:0.245701 7:-0.92948 8:-0.826478 9:0.0214606 10:-0.386433 
-131072 1:-0.541021 2:-0.419758 3:-0.0220003 4:-0.306567 5:0.044212 6:0.0460654 7:-0.932292 8:-0.843721 9:0.286629 10:-0.398722 
-131072 1:-0.436102 2:0.187456 3:0.150433 4:-0.335493 5:-0.0292327 6:-0.332728 7:-0.833204 8:-0.819608 9:-0.292032 10:-0.424122 
-131072 1:0.16998 2:-0.0387662 3:-0.106125 4:0.0258469 5:-0.290893 6:-0.353097 7:-0.726553 8:-0.710804 9:-0.0781546 10:-0.441428 
-131072 1:-0.250886 2:-7.35601e-005 3:-0.188446 4:-0.363059 5:-0.227914 6:-0.148601 7:-0.844013 8:-0.815568 9:-0.153796 10:-0.502651 
-131072 1:0.319464 2:-0.550548 3:-0.304041 4:-0.202044 5:-0.423535 6:-0.0658545 7:-0.803555 8:-0.570785 9:0.245523 10:-0.434264 
-131072 1:0.231606 2:-0.278278 3:-0.384947 4:-0.0429601 5:-0.209337 6:-0.125333 7:-0.666422 8:-0.726889 9:-0.155773 10:-0.433014 
-131072 1:0.521339 2:-0.338523 3:-0.28667 4:-0.127506 5:-0.318934 6:-0.442362 7:-0.862719 8:-0.659434 9:-0.405535 10:-0.208774 
-131072 1:-0.000252907 2:-0.0163058 3:0.032969 4:-0.403612 5:-0.471526 6:-0.192508 7:-0.839234 8:-0.639438 9:0.0948387 10:-0.319343 
-131072 1:-0.130725 2:0.187063 3:-0.0543382 4:0.088804 5:-0.324042 6:-0.0752773 7:-0.861076 8:-0.55464 9:-0.395492 10:-0.577075 
-131072 1:-0.00267325 2:-0.231788 3:-0.228883 4:0.193507 5:-0.00250695 6:0.115727 7:-0.770158 8:-0.75301 9:0.0386572 10:-0.421492 
-131072 1:0.128919 2:0.454037 3:0.0280914 4:-0.151692 5:-0.256413 6:0.222687 7:-0.823375 8:-0.704638 9:-0.0956244 10:-0.340494 
-131072 1:-0.157592 2:0.0484025 3:-0.221815 4:-0.372967 5:-0.341503 6:-0.449152 7:-0.884097 8:-0.549809 9:-0.226238 10:-0.533607 
-131072 1:-0.239054 2:-0.28301 3:-0.154857 4:-0.281248 5:-0.0919766 6:0.107138 7:-0.95995 8:-0.673086 9:-0.05928 10:-0.439015 
-131072 1:-0.144942 2:-0.0956771 3:-0.124565 4:-0.341152 5:-0.444875 6:-0.123377 7:-0.994604 8:-0.73767 9:-0.238218 10:-0.571671 
-131072 1:-0.106157 2:0.168354 3:-0.0620089 4:-0.0248033 5:-0.290189 6:-0.281406 7:-0.759044 8:-0.606796 9:0.00105105 10:-0.685152 
-71581.06317488859 1:0.399019 2:-0.00936665 3:-0.513472 4:0.135982 5:-0.319847 6:0.00511955 7:-0.896244 8:-0.659458 9:-0.0987073 10:-0.37459 
-131072 1:-0.208492 2:0.186352 3:-0.139999 4:-0.22042 5:-0.416939 6:-0.443924 7:-0.780378 8:-0.676544 9:-0.104561 10:-0.474607 
-69840.89291847212 1:-0.195025 2:0.0996003 3:-0.133439 4:-0.217326 5:-0.220976 6:0.0854758 7:-0.906444 8:-0.601841 9:0.0194444 10:-0.668693 
-131072 1:0.306982 2:0.0516882 3:-0.211581 4:-0.066191 5:-0.263937 6:0.163851 7:-0.989429 8:-0.542312 9:0.00743797 10:-0.370374 
-131072 1:-0.0844497 2:-0.36677 3:-0.0400148 4:-0.23011 5:-0.511434 6:-0.287436 7:-0.938584 8:-0.806104 9:-0.200495 10:-0.448477 
-131072 1:0.354411 2:0.116127 3:0.0153996 4:-0.213883 5:-0.395617 6:-0.224196 7:-0.86474 8:-0.552719 9:-0.218251 10:-0.421542 
-131072 1:0.0417392 2:0.0474708 3:-0.121238 4:-0.0382145 5:-0.17651 6:-0.279179 7:-0.844545 8:-0.524892 9:-0.0304023 10:-0.469348 
-131072 1:0.0691902 2:-0.012873 3:-0.130523 4:-0.125775 5:-0.475641 6:-0.29482 7:-0.927362 8:-0.583544 9:-0.283174 10:-0.449035 
-131072 1:0.00220998 2:0.236986 3:0.0250231 4:-0.228976 5:-0.245368 6:-0.338019 7:-0.703555 8:-0.654379 9:0.191059 10:-0.518033 
-131072 1:0.0392408 2:0.413187 3:-0.0418624 4:0.185339 5:-0.073911 6:-0.321519 7:-0.289222 8:-0.152287 9:-0.0287112 10:-0.438598 
