svm_type c_svc
kernel_type linear
nr_class 2
total_sv 403
rho -8.5713
label 1 -1
nr_sv 201 202
SV
128 1:0.00369197 2:0.30395 3:-0.0527883 4:0.218728 5:-0.48848 6:-0.164309 7:-0.884577 8:-0.427893 9:-0.242706 10:-0.486696 
128 1:0.0842938 2:-0.521614 3:-0.069831 4:-0.157065 5:0.118486 6:-0.0860147 7:-0.938948 8:-0.849324 9:0.273764 10:-0.179604 
128 1:0.00615014 2:0.111125 3:0.100196 4:0.0274288 5:0.215039 6:-0.135033 7:-0.931734 8:-0.632727 9:0.363116 10:-0.227977 
128 1:0.0795523 2:-0.234191 3:-0.172764 4:0.00497399 5:0.00341023 6:0.159196 7:-0.781029 8:-0.8226 9:0.539361 10:-0.448574 
128 1:-0.29073 2:0.23191 3:-0.106536 4:0.11882 5:0.0196849 6:-0.152877 7:-0.801995 8:-0.797287 9:0.366003 10:-0.446912 
128 1:-0.141323 2:-0.0395998 3:0.0444006 4:-0.279895 5:-0.0600301 6:-0.0377963 7:-0.892892 8:-0.684788 9:0.0956842 10:-0.492028 
128 1:0.338624 2:0.0561508 3:0.0581314 4:-0.202094 5:0.407752 6:-0.248326 7:-0.969409 8:-0.526578 9:0.264957 10:-0.688085 
128 1:0.201101 2:0.331731 3:-0.286303 4:0.0081875 5:-0.345055 6:-0.33097 7:-0.958637 8:-0.322308 9:-0.460781 10:-0.827876 
128 1:-0.0662121 2:-0.0421254 3:-0.216657 4:0.174096 5:-0.113349 6:-0.372916 7:-0.873323 8:-0.857033 9:-0.0987853 10:-0.947395 
128 1:0.214907 2:0.0397224 3:-0.22651 4:0.592431 5:0.00493976 6:-0.130673 7:-0.800445 8:-0.726085 9:0.0451612 10:-0.143532 
128 1:0.132937 2:-0.419734 3:-0.512941 4:-0.327653 5:-0.123096 6:0.323313 7:-0.933975 8:-0.705662 9:-0.0639239 10:-0.755706 
128 1:0.409121 2:-0.648138 3:-0.538425 4:-0.12871 5:-0.349275 6:-0.0962414 7:-0.852598 8:-0.782119 9:-0.0402493 10:-0.594391 
128 1:-0.521131 2:0.296104 3:0.0645221 4:-0.0408311 5:-0.197711 6:-0.366476 7:-0.899868 8:-0.81556 9:0.18008 10:-0.298443 
128 1:-0.0643495 2:0.451463 3:0.314553 4:-0.287973 5:-0.252603 6:-0.425419 7:-0.938254 8:-0.674517 9:-0.28571 10:-0.559488 
128 1:-0.0923608 2:-0.0743692 3:-0.294437 4:0.17736 5:0.0746719 6:0.0540729 7:-0.763105 8:-0.737058 9:0.272502 10:-0.139813 
128 1:-0.365494 2:0.185715 3:0.420546 4:0.453842 5:0.154996 6:0.416062 7:-0.752839 8:-0.687905 9:0.0491156 10:-0.234189 
128 1:-0.0385908 2:-0.102641 3:-0.181557 4:0.328017 5:-0.20714 6:0.020442 7:-0.89131 8:-0.787213 9:-0.103273 10:-0.601262 
128 1:0.0481186 2:-0.310644 3:-0.355748 4:-0.149951 5:-0.222102 6:-0.391126 7:-0.970585 8:-0.685829 9:-0.369426 10:-0.436898 
128 1:0.485506 2:-0.432876 3:-0.429051 4:0.110135 5:-0.249276 6:-0.158545 7:-0.89428 8:-0.629456 9:0.070982 10:-0.563702 
128 1:0.10096 2:-0.365716 3:-0.1894 4:0.607702 5:0.220738 6:-0.613981 7:-0.958359 8:-0.751487 9:-0.266966 10:-0.633776 
128 1:0.110097 2:-0.0117206 3:-0.37821 4:0.144468 5:0.278956 6:0.0836682 7:-0.969738 8:-0.739781 9:0.30428 10:-0.526612 
128 1:0.516162 2:-0.794915 3:-0.339479 4:0.838598 5:0.210509 6:-0.463632 7:-0.807156 8:-0.665317 9:-0.025082 10:-0.423308 
128 1:-0.103609 2:-0.127357 3:-0.0374009 4:-0.0964756 5:-0.230073 6:0.234159 7:-0.982973 8:-0.523758 9:-0.150336 10:-0.780902 
128 1:-0.539444 2:0.301523 3:-0.14777 4:-0.240765 5:-0.19404 6:-0.417005 7:-0.752565 8:-0.935932 9:0.16689 10:-0.438807 
128 1:0.272804 2:-0.0752765 3:-0.148883 4:0.210758 5:0.067508 6:0.163222 7:-0.95172 8:-0.694093 9:-0.206335 10:-0.143308 
128 1:0.204271 2:-0.0199838 3:0.152518 4:0.437923 5:-0.0916645 6:-0.0286403 7:-0.949455 8:-0.741745 9:-0.0971853 10:0.00803853 
128 1:-0.0954335 2:0.148665 3:-0.229727 4:0.239113 5:-0.110795 6:-0.0538609 7:-0.908604 8:-0.807556 9:-0.112808 10:-0.840834 
128 1:-0.740158 2:-0.107839 3:0.0143672 4:0.0349801 5:-0.143272 6:0.203935 7:-0.759493 8:-0.700603 9:0.069291 10:-0.756676 
128 1:-0.528096 2:0.0920236 3:0.383819 4:0.0232204 5:0.108534 6:0.0822441 7:-0.925759 8:-0.596494 9:0.305048 10:0.10972 
128 1:0.0709724 2:-0.594243 3:-0.0494092 4:0.386626 5:0.125203 6:-0.152944 7:-0.919677 8:-0.761937 9:0.0203159 10:-0.734264 
128 1:0.229193 2:-0.0404335 3:-0.108093 4:0.152457 5:0.405411 6:-0.0241736 7:-0.787779 8:-0.588433 9:-0.356342 10:-0.27929 
128 1:0.146005 2:-0.163524 3:-0.117228 4:-0.125308 5:-0.707115 6:-0.221929 7:-0.983397 8:-0.883582 9:0.00361362 10:-0.45397 
128 1:-0.0617023 2:0.109335 3:-0.0342378 4:-0.155055 5:-0.258229 6:-0.268297 7:-0.837944 8:-0.608277 9:0.0404002 10:-0.420768 
128 1:-0.103389 2:-0.189147 3:-0.0532544 4:-0.0072334 5:0.27798 6:-0.019502 7:-0.90479 8:-0.798653 9:0.0166086 10:-0.760832 
128 1:-0.264744 2:0.388029 3:0.0848688 4:-0.211794 5:0.154129 6:0.0782669 7:-0.826907 8:-0.825467 9:0.330908 10:-0.360073 
128 1:0.054654 2:-0.231837 3:-0.337257 4:-0.0314691 5:-0.287678 6:-0.0624338 7:-0.848521 8:-0.719824 9:-0.0651987 10:-0.588701 
128 1:-0.453444 2:0.255572 3:-0.225696 4:0.396854 5:0.399474 6:0.167698 7:-0.995087 8:-0.45221 9:0.108705 10:-0.16578 
128 1:-0.372133 2:-0.0518353 3:-0.171921 4:-0.39098 5:0.0967974 6:0.647188 7:-0.710299 8:-0.854359 9:0.219937 10:-0.340517 
128 1:-0.135216 2:0.343084 3:0.0927119 4:0.109438 5:0.0609744 6:-0.368669 7:-0.846875 8:-0.555652 9:0.367135 10:-0.380707 
128 1:0.143382 2:-0.0994042 3:0.0278715 4:0.189647 5:0.344327 6:0.0935663 7:-0.941169 8:-0.719858 9:-0.0705189 10:-0.230325 
128 1:-0.304567 2:0.213471 3:0.152752 4:0.358441 5:0.0682728 6:-0.377646 7:-0.890589 8:-0.497101 9:0.441242 10:0.013994 
128 1:-0.357618 2:-0.00149572 3:-0.155886 4:0.220508 5:0.501206 6:0.0414008 7:-0.645803 8:-0.823756 9:0.571985 10:-0.732924 
128 1:-0.249468 2:0.0446019 3:0.149921 4:0.0807752 5:0.0484065 6:-0.27164 7:-0.829047 8:-0.58812 9:0.256983 10:-0.483112 
128 1:0.127444 2:-0.0486722 3:0.114881 4:0.262453 5:-0.215896 6:-0.314501 7:-0.933863 8:-0.715402 9:0.166018 10:-0.511851 
128 1:-0.372698 2:0.187259 3:0.233145 4:-0.0395874 5:-0.109182 6:-0.291115 7:-0.993073 8:-0.798625 9:0.133563 10:-0.839605 
128 1:0.471946 2:-0.0816026 3:-0.273004 4:0.237511 5:-0.022621 6:-0.322622 7:-0.996072 8:-0.700259 9:-0.0789871 10:-0.328021 
128 1:0.240572 2:-0.309958 3:-0.236916 4:-0.353088 5:-0.318958 6:0.0454611 7:-0.904342 8:-0.598637 9:-0.151533 10:-0.600114 
84.28023972978079 1:0.562818 2:-0.0894736 3:0.167182 4:0.483877 5:0.600235 6:-0.374955 7:-0.632444 8:-0.621968 9:0.0571155 10:-0.591141 
128 1:-0.25182 2:0.0643651 3:-0.238076 4:-0.399453 5:-0.147504 6:0.312733 7:-0.679629 8:-0.908072 9:0.244821 10:-0.621039 
128 1:0.148816 2:-0.0392075 3:-0.16003 4:0.0268617 5:-0.0985805 6:-0.371506 7:-0.908094 8:-0.424005 9:0.0695902 10:-0.673178 
128 1:-0.374615 2:-0.104897 3:-0.189429 4:0.222498 5:0.315602 6:-0.0405721 7:-0.931693 8:-0.78725 9:0.548805 10:-0.540509 
128 1:0.332755 2:-0.417404 3:-0.367371 4:0.367614 5:0.265344 6:0.112889 7:-0.898238 8:-0.999697 9:-0.147812 10:-0.635997 
128 1:-0.00593268 2:-0.597185 3:-0.127052 4:0.332275 5:-0.0200673 6:0.288344 7:-0.913331 8:-0.913084 9:-0.00233103 10:-0.647571 
128 1:-0.154058 2:0.40458 3:0.169099 4:-0.054481 5:-0.104256 6:-0.039065 7:-0.876989 8:-0.380596 9:-0.104002 10:-0.384074 
128 1:-0.134672 2:0.167619 3:-0.327544 4:-0.0330709 5:0.318995 6:0.227539 7:-0.803952 8:-0.628718 9:0.261458 10:-0.0987622 
128 1:-0.129252 2:-0.173185 3:-0.0110362 4:-0.13073 5:-0.24317 6:-0.381717 7:-0.940244 8:-0.730565 9:0.281477 10:-0.389516 
128 1:0.173475 2:0.0713042 3:-0.901478 4:-0.315172 5:-0.309349 6:-0.448336 7:-0.409067 8:-0.733133 9:0.296333 10:-0.926014 
128 1:0.00903139 2:-0.342398 3:-0.313905 4:0.214231 5:0.176399 6:-0.423981 7:-0.946225 8:-0.845832 9:0.343317 10:-0.674409 
128 1:-0.198286 2:-0.0728735 3:-0.204981 4:-0.0955703 5:0.0390791 6:-0.268594 7:-0.888771 8:-0.807498 9:-0.0390006 10:-0.705133 
128 1:-0.0934079 2:-0.0528406 3:-0.217274 4:0.197855 5:0.00951664 6:-0.342429 7:-0.949199 8:-0.925598 9:0.124822 10:-0.512666 
128 1:-0.119987 2:-0.181375 3:-0.245299 4:0.194571 5:0.0531433 6:0.0629656 7:-0.865461 8:-0.435753 9:-0.0621418 10:-0.334772 
128 1:0.583741 2:-0.382046 3:-0.221278 4:0.0805762 5:-0.251703 6:-0.189943 7:-0.918564 8:-0.750063 9:0.117434 10:-0.657236 
128 1:0.138487 2:-0.25285 3:-0.0705592 4:0.615472 5:-0.0509641 6:-0.028006 7:-0.936959 8:-0.905442 9:0.238642 10:-0.563417 
128 1:-0.126699 2:-0.196798 3:0.139675 4:0.373941 5:0.382589 6:0.124254 7:-0.96627 8:-0.659192 9:-0.128535 10:-0.103657 
128 1:0.195341 2:-0.0119903 3:-0.236601 4:0.286002 5:-0.188284 6:0.555275 7:-0.783698 8:-0.434477 9:0.0398669 10:-0.0147645 
128 1:0.128928 2:-0.335409 3:-0.35152 4:0.106971 5:-0.137119 6:0.0557108 7:-0.930814 8:-0.757287 9:-0.446173 10:-0.539419 
128 1:-0.153711 2:-0.340264 3:-0.411169 4:0.389681 5:0.282458 6:-0.0778446 7:-0.850667 8:-0.694964 9:-0.13072 10:-0.326525 
128 1:-0.112931 2:0.200034 3:-0.0634126 4:-0.410016 5:-0.121461 6:0.439226 7:-0.924218 8:-0.79614 9:0.0672097 10:0.0163298 
128 1:0.0986315 2:-0.33845 3:0.00961993 4:0.614587 5:0.371498 6:-0.215932 7:-0.941917 8:-0.613507 9:-0.190544 10:-0.335066 
128 1:0.31318 2:0.373097 3:0.00280127 4:-0.0654746 5:-0.397092 6:0.059946 7:-0.847765 8:-0.489049 9:0.260404 10:0.222758 
128 1:-0.595039 2:0.69708 3:0.019678 4:-0.09173 5:0.241709 6:-0.100256 7:-0.7858 8:-0.814103 9:-0.226745 10:-0.587924 
128 1:-0.244044 2:-0.0841527 3:0.176349 4:0.0997478 5:0.115731 6:-0.00832115 7:-0.819388 8:-0.943453 9:0.0144883 10:-0.237968 
128 1:-0.409731 2:0.0870461 3:-0.230659 4:-0.065007 5:0.103518 6:-0.198594 7:-0.930241 8:-0.88603 9:-0.157516 10:-0.578392 
128 1:0.10767 2:-0.00669397 3:-0.517633 4:0.0225041 5:-0.115932 6:-0.0289725 7:-0.968719 8:-0.588699 9:0.0623707 10:-0.108983 
128 1:0.0180013 2:-0.0245936 3:-0.0938503 4:0.478555 5:0.448589 6:-0.116296 7:-0.727104 8:-0.504345 9:0.206109 10:-0.637741 
128 1:0.302825 2:-0.223598 3:-0.340781 4:0.365007 5:0.465933 6:-0.0662467 7:-0.973603 8:-0.646015 9:0.0459156 10:-0.912454 
128 1:-0.00905739 2:-0.406665 3:-0.264531 4:0.448688 5:0.178896 6:0.234604 7:-0.757731 8:-0.73975 9:0.0962696 10:-0.218605 
128 1:-0.283594 2:-0.044136 3:0.216052 4:-0.22236 5:0.0220728 6:-0.528169 7:-0.883148 8:-0.826423 9:0.557923 10:-0.253611 
128 1:0.025806 2:-0.00144668 3:-0.173445 4:-0.377534 5:-0.196347 6:0.252505 7:-0.810564 8:-0.600552 9:0.344033 10:-0.665032 
128 1:0.425019 2:-0.332663 3:-0.153123 4:0.0952609 5:-0.104564 6:0.0380684 7:-0.873588 8:-0.672759 9:-0.0567695 10:-0.227043 
128 1:0.441321 2:0.249172 3:-0.625233 4:-0.197219 5:-0.0495146 6:-0.181481 7:-0.650654 8:-0.688321 9:-0.13046 10:-0.704738 
128 1:0.0564763 2:-0.217247 3:0.131601 4:0.456309 5:0.577448 6:-0.0125246 7:-0.843756 8:-0.700921 9:0.310472 10:-0.0735405 
128 1:-0.344932 2:-0.157222 3:0.0272855 4:-0.0335385 5:0.330039 6:-0.399474 7:-0.91976 8:-0.81465 9:0.136126 10:-0.109456 
128 1:-0.030044 2:-0.0166001 3:0.159499 4:0.158178 5:0.290279 6:0.317261 7:-0.959413 8:-0.734632 9:0.203364 10:-0.116024 
128 1:-0.172095 2:0.155506 3:-0.184543 4:-0.293017 5:-0.0590859 6:-0.0404732 7:-0.820707 8:-0.516516 9:0.332963 10:-0.795258 
128 1:-0.27396 2:-0.15553 3:-0.142595 4:0.0622999 5:0.0198507 6:-0.115983 7:-0.835926 8:-0.730866 9:0.0485432 10:-0.589235 
128 1:0.042453 2:0.336782 3:-0.237985 4:-0.60286 5:-0.607268 6:-0.631717 7:-0.987736 8:-0.717628 9:0.162519 10:-0.662624 
128 1:0.101213 2:0.0868254 3:0.0638637 4:0.673744 5:0.437642 6:-0.248646 7:-0.928137 8:-0.607748 9:0.256931 10:-0.244839 
128 1:0.49103 2:-0.110487 3:-0.388811 4:-0.165979 5:-0.415932 6:-0.175343 7:-0.805114 8:-0.696449 9:0.0114574 10:-0.373292 
128 1:-0.00945448 2:-0.0528161 3:-0.182103 4:0.378876 5:-0.284785 6:-0.316357 7:-0.913295 8:-0.983951 9:0.458347 10:-0.329871 
128 1:-0.222863 2:0.0623789 3:-0.254612 4:0.277795 5:-0.113632 6:-0.124695 7:-0.692684 8:-0.646547 9:-0.0725352 10:-0.358411 
128 1:0.482091 2:0.245568 3:-0.114738 4:0.070279 5:0.609599 6:0.0744734 7:-0.709713 8:-0.645665 9:0.0859282 10:-0.341761 
128 1:0.0133261 2:-0.161244 3:-0.39246 4:0.375304 5:0.362297 6:-0.108804 7:-0.805385 8:-0.616085 9:0.022085 10:-0.437611 
128 1:0.0161672 2:0.019003 3:-0.0879074 4:-0.133675 5:0.201215 6:0.149879 7:-0.849124 8:-0.748401 9:0.248983 10:-0.408377 
128 1:-0.0867779 2:-0.278695 3:-0.195243 4:-0.119627 5:-0.2818 6:0.321643 7:-0.88567 8:-0.682641 9:0.283806 10:-0.633163 
128 1:-0.0382244 2:0.418655 3:-0.21841 4:3.92984e-005 5:0.195405 6:0.093379 7:-0.548659 8:-0.603366 9:0.0834177 10:-0.337113 
128 1:-0.16386 2:-0.278817 3:0.166648 4:0.466347 5:0.575439 6:-0.322293 7:-0.966079 8:-0.965235 9:0.18674 10:-0.723383 
128 1:-0.374865 2:-0.392369 3:0.123833 4:-0.0311507 5:-0.0247749 6:0.184959 7:-0.929418 8:-0.898503 9:0.210337 10:-0.811122 
128 1:-0.381696 2:-0.177157 3:-0.107465 4:-0.135495 5:-0.260993 6:-0.0633702 7:-0.848219 8:-0.667687 9:0.218766 10:-0.532554 
68.34788546338493 1:-0.151083 2:0.0314347 3:0.185882 4:0.0733134 5:0.353089 6:-0.0136253 7:-0.686075 8:-0.792806 9:0.215306 10:-0.356358 
128 1:-0.282887 2:-0.208567 3:0.129964 4:0.157452 5:0.238741 6:-0.191105 7:-0.95118 8:-0.575047 9:0.228925 10:-0.0547133 
128 1:0.289423 2:0.32006 3:0.120292 4:0.0323038 5:-0.327393 6:-0.284627 7:-0.943779 8:-0.694114 9:-0.451202 10:-0.176134 
128 1:-0.236962 2:-0.129858 3:0.138725 4:-0.317649 5:-0.0919142 6:0.0467226 7:-0.873081 8:-0.970878 9:0.0531611 10:-0.707185 
128 1:-0.0384608 2:0.335655 3:-0.165999 4:-0.232707 5:-0.082341 6:0.0878823 7:-0.827976 8:-0.691501 9:-0.0184089 10:-0.350485 
128 1:-0.122979 2:-0.399627 3:-0.199657 4:0.109349 5:0.000144369 6:0.0839085 7:-0.905179 8:-0.770695 9:-0.0190593 10:-0.519409 
128 1:0.200811 2:-0.273619 3:-0.175973 4:0.131485 5:-0.0848713 6:-0.288295 7:-0.92535 8:-0.636787 9:0.0210313 10:-0.661705 
128 1:0.136395 2:-0.116715 3:-0.247319 4:0.340801 5:0.262262 6:0.0676638 7:-0.948303 8:-0.879456 9:-0.108762 10:0.116662 
128 1:0.593642 2:-0.288086 3:-0.719476 4:-0.0585303 5:-0.131099 6:-0.0279848 7:-0.912595 8:-0.601144 9:0.171547 10:-0.744383 
128 1:0.122329 2:0.151754 3:0.163266 4:-0.137445 5:0.0269365 6:0.280899 7:-0.943076 8:-0.571195 9:0.163144 10:-0.0944716 
128 1:-0.0776094 2:-0.0729716 3:-0.155587 4:0.112293 5:0.116521 6:-0.325991 7:-0.865498 8:-0.703499 9:0.288242 10:-0.450756 
128 1:-0.397726 2:0.0109604 3:0.247841 4:0.113587 5:0.160854 6:0.2164 7:-0.947913 8:-0.431171 9:0.120699 10:-0.489129 
128 1:-0.243765 2:-0.0818478 3:0.336267 4:-0.039866 5:-0.0165302 6:0.109152 7:-0.942297 8:-0.767276 9:-0.175181 10:-0.400821 
128 1:-0.136551 2:-0.352843 3:-0.420256 4:-0.187529 5:-0.237178 6:-0.0475213 7:-0.89038 8:-0.653817 9:0.197953 10:-0.541546 
128 1:-0.318037 2:-0.508226 3:-0.0335069 4:-0.386658 5:-0.0837827 6:-0.0559352 7:-0.924321 8:-0.906067 9:0.282297 10:-0.615883 
128 1:-0.212652 2:0.350563 3:0.832246 4:-0.0327624 5:-0.146626 6:0.0563751 7:-0.937776 8:-0.341784 9:-0.121875 10:-0.754188 
128 1:-0.262771 2:0.21916 3:-0.300568 4:0.146986 5:-0.147235 6:-0.486668 7:-0.930728 8:-0.59453 9:0.170337 10:0.152999 
128 1:-0.213125 2:0.385798 3:0.309522 4:-0.361872 5:-0.372128 6:-0.372374 7:-0.978694 8:-0.871165 9:-0.103884 10:-0.124854 
128 1:-0.0103881 2:0.00904789 3:-0.0524564 4:-0.00181121 5:0.0273813 6:-0.197537 7:-0.848319 8:-0.574645 9:-0.051098 10:-0.709949 
128 1:-0.685785 2:0.243435 3:0.483017 4:0.195805 5:-0.0587698 6:-0.288588 7:-0.928553 8:-0.57758 9:0.0282117 10:-0.414186 
128 1:-0.340451 2:-0.318466 3:-0.139631 4:-0.0420349 5:0.169206 6:-0.0595025 7:-0.907596 8:-0.675516 9:-0.0457647 10:-0.347219 
128 1:-0.0443415 2:0.0394527 3:-0.108208 4:0.223095 5:0.0716147 6:-0.365748 7:-0.899897 8:-0.658323 9:-0.215259 10:-0.518761 
128 1:-0.0579914 2:0.547164 3:-0.276474 4:-0.100495 5:0.480428 6:0.258228 7:-0.8612 8:-0.785788 9:0.257348 10:-0.609379 
128 1:-0.561364 2:0.214084 3:0.536403 4:-0.12881 5:0.0586781 6:0.0606121 7:-0.915516 8:-0.720616 9:-0.0691791 10:-0.769274 
128 1:-0.314052 2:0.564794 3:0.227456 4:-0.0209033 5:0.188015 6:0.0431235 7:-0.971026 8:-0.956078 9:0.312801 10:-0.639393 
128 1:-0.172736 2:-0.133266 3:-0.389345 4:0.155442 5:0.0397522 6:-0.450278 7:-0.778459 8:-0.725029 9:0.270551 10:0.0488819 
128 1:0.0106292 2:0.309418 3:0.0637372 4:-0.036354 5:-0.24094 6:-0.354122 7:-0.81593 8:-0.727349 9:0.04974 10:-0.342333 
128 1:-0.10043 2:0.246009 3:0.275297 4:0.242277 5:0.068144 6:-0.24149 7:-0.933398 8:-0.597182 9:-0.302881 10:-0.571761 
127.8761645355018 1:-0.521606 2:-0.0940588 3:0.36433 4:-0.221494 5:0.126362 6:0.0742207 7:-0.813638 8:-0.763347 9:0.10479 10:-0.695463 
128 1:-0.465026 2:0.509845 3:0.420981 4:-0.336008 5:0.0723229 6:-0.469909 7:-0.882543 8:-0.866361 9:0.374888 10:-0.497914 
128 1:-0.15763 2:-0.136724 3:0.181148 4:0.0033722 5:0.0785698 6:-0.0419856 7:-0.98208 8:-0.486043 9:0.0763673 10:-0.61509 
128 1:-0.119954 2:-0.143761 3:0.196727 4:0.315193 5:0.124549 6:-0.303441 7:-0.937112 8:-0.654571 9:0.305022 10:-0.775677 
128 1:-0.0343741 2:0.180001 3:-0.728046 4:0.164854 5:-0.0363731 6:-0.0775831 7:-0.723663 8:-0.543266 9:-0.0160935 10:-0.507113 
128 1:-0.307469 2:-0.08327 3:0.119379 4:-0.188374 5:0.131532 6:-0.0765424 7:-0.890124 8:-0.570086 9:0.344488 10:-0.758722 
128 1:-0.301551 2:0.346272 3:0.126327 4:0.0623994 5:0.108618 6:-0.302506 7:-0.805502 8:-0.530836 9:0.123495 10:-0.770211 
128 1:-0.733535 2:0.2452 3:0.336847 4:0.14216 5:0.12421 6:-0.517843 7:-0.98567 8:-0.817671 9:0.679145 10:-0.738884 
128 1:-0.493056 2:0.286222 3:0.777505 4:-0.0500438 5:0.34843 6:-0.0218502 7:-0.905788 8:-0.625146 9:0.355116 10:-0.704287 
128 1:-0.169178 2:-0.153986 3:0.0431351 4:0.307214 5:0.250907 6:0.0773976 7:-0.888663 8:-0.728185 9:-0.366557 10:-0.422529 
128 1:0.0536707 2:-0.1852 3:-0.00678804 4:0.43266 5:-0.000339462 6:0.0171874 7:-0.917912 8:-0.710682 9:-0.138642 10:-0.490834 
128 1:0.0892739 2:0.0925876 3:0.214156 4:0.73291 5:0.342548 6:-0.0541365 7:-0.853968 8:-0.671631 9:-0.219539 10:-0.596724 
128 1:0.0580812 2:-0.350783 3:0.294471 4:0.31957 5:0.00213237 6:-0.527953 7:-0.945496 8:-0.724589 9:0.112946 10:-0.500827 
128 1:-0.186402 2:-0.440036 3:-0.213937 4:0.385303 5:0.135839 6:-0.467489 7:-0.957714 8:-0.738352 9:0.151918 10:-0.699057 
128 1:-0.00837667 2:-0.469558 3:-0.122919 4:0.521246 5:0.41413 6:0.0340223 7:-0.946124 8:-0.657894 9:-0.0145976 10:-0.676122 
128 1:0.16832 2:-0.191232 3:0.0636727 4:0.19686 5:0.275942 6:-0.131987 7:-0.815251 8:-0.715753 9:-0.172749 10:-0.536566 
128 1:-0.192706 2:-0.665964 3:-0.524139 4:0.20261 5:-0.18709 6:-0.0408725 7:-0.985811 8:-0.820815 9:-0.127897 10:-0.42716 
128 1:-0.0708778 2:0.137484 3:-0.258902 4:-0.19899 5:-0.385781 6:-0.35007 7:-0.977377 8:-0.779459 9:-0.0971463 10:-0.439562 
128 1:0.072036 2:-0.501067 3:-0.170795 4:0.606817 5:0.29955 6:-0.266656 7:-0.907776 8:-0.73921 9:0.184386 10:-0.863337 
128 1:0.331724 2:0.159208 3:-0.103761 4:0.260165 5:-0.373305 6:-0.108917 7:-0.944508 8:-0.637083 9:-0.0680344 10:-0.313957 
128 1:0.144237 2:-0.485129 3:-0.0365831 4:0.0797206 5:-0.176879 6:0.0281792 7:-0.919361 8:-0.801443 9:-0.0476509 10:-0.665798 
128 1:0.104054 2:-0.416718 3:0.00139092 4:0.322535 5:0.216366 6:-0.117458 7:-0.898144 8:-0.807107 9:-0.347394 10:-0.599643 
128 1:-0.284138 2:-0.552706 3:-0.0761716 4:0.134838 5:0.446989 6:0.127369 7:-0.938747 8:-0.757072 9:0.111515 10:-0.508892 
128 1:0.161757 2:-0.279357 3:0.020027 4:0.535214 5:0.0742368 6:0.0524474 7:-0.831176 8:-0.677782 9:-0.0974065 10:-0.31357 
128 1:0.204843 2:0.0491381 3:-0.222021 4:-0.17563 5:-0.483167 6:-0.445177 7:-0.967929 8:-0.740789 9:0.125199 10:-0.232447 
128 1:-0.147097 2:-0.244538 3:-0.356474 4:0.29036 5:-0.24459 6:-0.648955 7:-0.919711 8:-0.783067 9:-0.000483897 10:-0.670394 
128 1:0.306994 2:-0.177672 3:0.0327293 4:0.0194696 5:-0.12135 6:0.0621211 7:-0.968071 8:-0.755776 9:0.273998 10:-0.513173 
128 1:0.138508 2:-0.397666 3:-0.305354 4:0.459512 5:-0.204329 6:-0.286629 7:-0.961638 8:-0.716866 9:0.0239191 10:-0.466667 
128 1:-0.197093 2:-0.56575 3:-0.292185 4:0.402097 5:0.142465 6:-0.444408 7:-0.970287 8:-0.698823 9:0.345113 10:-0.300688 
128 1:0.231909 2:0.446044 3:0.0535975 4:-0.219614 5:-0.0152368 6:0.0559529 7:-0.912664 8:-0.670842 9:0.328072 10:-0.559126 
128 1:-0.00293325 2:-0.496114 3:-0.396285 4:0.255807 5:0.0913991 6:-0.399499 7:-0.971315 8:-0.777242 9:0.14345 10:-0.51318 
128 1:0.27426 2:-0.0355295 3:0.0424069 4:0.393411 5:0.0882308 6:0.00950496 7:-0.958601 8:-0.857038 9:0.269497 10:-0.690633 
128 1:0.216555 2:-0.382782 3:-0.152117 4:0.0558431 5:0.170496 6:0.342536 7:-0.865112 8:-0.779046 9:0.0190281 10:-0.62346 
128 1:0.154604 2:-0.315205 3:-0.341134 4:0.155522 5:0.31657 6:0.202574 7:-0.96048 8:-0.704935 9:0.38281 10:-0.724894 
128 1:0.348901 2:-0.485129 3:-0.27672 4:0.0542512 5:0.0938554 6:0.126446 7:-0.982482 8:-0.815699 9:0.0652585 10:-0.694695 
128 1:-0.164451 2:-0.338058 3:-0.249953 4:0.361057 5:-0.113854 6:-0.0591085 7:-0.919484 8:-0.848129 9:-0.0118919 10:-0.569708 
128 1:0.420623 2:-0.650933 3:-0.240677 4:0.622138 5:0.479511 6:-0.47432 7:-0.98043 8:-0.758104 9:-0.091696 10:-0.678067 
128 1:-0.285842 2:-0.346713 3:-0.0718813 4:0.278232 5:0.324161 6:-0.332122 7:-0.953997 8:-0.777625 9:0.0454343 10:-0.496046 
128 1:0.284561 2:-0.289336 3:-0.296353 4:-0.352238 5:-0.0494034 6:-0.358806 7:-0.852818 8:-0.827602 9:0.231579 10:-0.618413 
128 1:0.268292 2:-0.506853 3:-0.229636 4:0.407052 5:0.403158 6:0.0671125 7:-0.958353 8:-0.749105 9:0.088855 10:-0.626641 
128 1:0.182951 2:-0.593311 3:-0.511052 4:0.0272696 5:0.351581 6:0.256915 7:-0.903308 8:-0.681495 9:-0.168209 10:-0.322605 
128 1:-0.241238 2:-0.494324 3:-0.335686 4:-0.158179 5:-0.0429829 6:-0.0380684 7:-0.906146 8:-0.689412 9:0.230967 10:-0.525697 
128 1:0.093129 2:-0.130226 3:-0.305837 4:-0.0726976 5:-0.216676 6:-0.297449 7:-0.938564 8:-0.810036 9:-0.239363 10:-0.357436 
128 1:0.0826321 2:-0.322169 3:0.0826367 4:0.309363 5:0.179181 6:-0.0894371 7:-0.994001 8:-0.790944 9:0.242492 10:-0.691877 
128 1:0.205065 2:-0.231101 3:-0.0462514 4:0.133425 5:-0.00634052 6:0.101049 7:-0.903162 8:-0.713398 9:0.000270566 10:-0.537221 
128 1:0.0379219 2:-0.0271437 3:0.065835 4:-0.0159984 5:-0.0182353 6:0.499971 7:-0.964245 8:-0.799394 9:0.782949 10:0.0212996 
128 1:-0.235875 2:-0.107373 3:0.101469 4:-0.19896 5:0.0160035 6:-0.412811 7:-0.98813 8:-0.736744 9:0.218233 10:0.271073 
128 1:-0.357436 2:0.161391 3:-0.122194 4:0.0444017 5:0.00454957 6:0.598528 7:-0.927756 8:-0.709842 9:-0.0304023 10:-0.0333267 
128 1:-0.236433 2:0.288184 3:0.300304 4:0.140767 5:0.284083 6:-0.273197 7:-0.70751 8:-0.803667 9:0.0440425 10:-0.285962 
128 1:-0.372041 2:0.272491 3:0.291824 4:0.13248 5:-0.20746 6:-0.360737 7:-0.978402 8:-0.666561 9:0.161726 10:-0.012876 
128 1:-0.277929 2:0.210921 3:0.630162 4:0.542059 5:0.312067 6:-0.236264 7:-0.991321 8:-0.521789 9:0.207592 10:0.369831 
128 1:0.173568 2:0.365422 3:0.419703 4:0.047267 5:-0.244867 6:-0.076371 7:-0.839448 8:-0.738944 9:0.121323 10:0.0688687 
128 1:-0.124745 2:0.397764 3:0.309391 4:0.437157 5:0.371026 6:-0.280208 7:-0.794616 8:-0.893825 9:-0.0618166 10:0.254606 
128 1:-0.0899641 2:-0.0419292 3:0.00319238 4:0.216021 5:-0.099993 6:-0.232746 7:-0.938039 8:-0.423912 9:0.195104 10:0.0691918 
128 1:-0.705037 2:0.219307 3:0.203898 4:-0.281377 5:0.172573 6:0.152782 7:-0.898852 8:-0.677742 9:0.172796 10:0.0655059 
128 1:-0.0694502 2:0.350097 3:-0.14267 4:-0.0949136 5:-0.220992 6:-0.173182 7:-0.733305 8:-0.978851 9:0.404728 10:0.589363 
128 1:-0.215751 2:0.276635 3:0.269556 4:0.0991211 5:0.268189 6:-0.369291 7:-0.983101 8:-0.89695 9:0.38839 10:0.605796 
128 1:-0.0596908 2:-0.0677979 3:-0.0675989 4:0.072418 5:-0.0664389 6:0.0292746 7:-0.947839 8:-0.640422 9:0.629858 10:0.350846 
128 1:-0.0823556 2:0.316897 3:0.256203 4:0.52039 5:-0.299813 6:-0.18563 7:-0.960082 8:-0.562152 9:-0.20843 10:0.176639 
128 1:-0.0522289 2:-0.147218 3:-0.00402133 4:0.297533 5:0.0493741 6:0.149547 7:-0.94306 8:-0.959609 9:0.0453953 10:-0.0575875 
127.5688242654017 1:0.0046516 2:-0.0677979 3:0.0587372 4:-0.207048 5:-0.315475 6:0.0365966 7:-0.816796 8:-0.7881 9:-0.321235 10:-0.684313 
128 1:-0.00138272 2:0.419464 3:-0.0377564 4:0.312745 5:0.0553147 6:-0.337052 7:-0.878466 8:-0.523793 9:-0.047781 10:-0.535723 
128 1:-0.0373901 2:-0.0940588 3:-0.158443 4:-0.250496 5:-0.268087 6:-0.227636 7:-0.802383 8:-0.893518 9:-0.0569126 10:-0.72361 
128 1:0.179753 2:-0.222323 3:0.107467 4:-0.270622 5:-0.501658 6:-0.0585802 7:-0.964722 8:-0.750078 9:0.238837 10:-0.609916 
128 1:0.323568 2:0.214011 3:-0.226304 4:-0.273915 5:-0.247249 6:-0.244971 7:-0.806201 8:-0.594072 9:0.164848 10:-0.576303 
128 1:0.208953 2:-0.219307 3:-0.130066 4:-0.0657134 5:-0.444902 6:-0.0833961 7:-0.920693 8:-0.72906 9:0.0224622 10:-0.288143 
128 1:-0.0200411 2:0.0776304 3:-0.53904 4:-0.289764 5:-0.460115 6:0.215798 7:-0.894129 8:-0.86424 9:-0.138486 10:-0.497994 
128 1:-0.106157 2:0.168354 3:-0.0620089 4:-0.0248033 5:-0.290189 6:-0.281406 7:-0.759044 8:-0.606796 9:0.00105105 10:-0.685152 
128 1:0.0587312 2:-0.0633597 3:0.0600896 4:0.0716221 5:-0.251409 6:-0.673308 7:-0.848345 8:-0.741218 9:-0.269723 10:-0.500763 
128 1:-0.00186017 2:0.146139 3:-0.103292 4:-0.370205 5:-0.383399 6:0.0200603 7:-0.779522 8:-0.859957 9:-0.223922 10:-0.670869 
128 1:-0.208492 2:0.186352 3:-0.139999 4:-0.22042 5:-0.416939 6:-0.443924 7:-0.780378 8:-0.676544 9:-0.104561 10:-0.474607 
128 1:0.0643614 2:0.289532 3:-0.208624 4:-0.0568986 5:-0.184808 6:-0.0883487 7:-0.65326 8:-0.400903 9:-0.0259145 10:-0.625031 
17.44840383149021 1:0.105174 2:-0.133536 3:-0.12628 4:-0.145444 5:-0.155901 6:-0.304852 7:-0.830671 8:-0.649694 9:-0.102115 10:-0.439947 
128 1:0.15044 2:-0.14842 3:-0.263905 4:-0.0394183 5:-0.275664 6:-0.377425 7:-0.977184 8:-0.646266 9:-0.407551 10:-0.643207 
-128 1:-0.240609 2:-0.381139 3:-0.178102 4:0.126491 5:-0.399541 6:-0.325712 7:-0.99772 8:-0.874974 9:-0.203148 10:-0.738654 
-128 1:-0.0592559 2:0.183925 3:-0.107205 4:-0.463208 5:-0.44124 6:-0.328002 7:-0.849913 8:-0.589059 9:-0.159194 10:-0.495611 
-128 1:0.459911 2:-0.13616 3:0.139027 4:-0.096008 5:-0.101068 6:-0.13457 7:-0.780729 8:-0.360488 9:-0.257548 10:-0.144045 
-128 1:0.431363 2:-0.0970012 3:-0.141674 4:-0.0276885 5:0.349759 6:0.249367 7:-0.695633 8:-0.70089 9:0.263708 10:-0.365905 
-128 1:-0.311664 2:-0.0462693 3:-0.159473 4:-0.0771249 5:-0.0269014 6:0.160086 7:-0.790947 8:-0.675449 9:0.0236199 10:-0.433986 
-128 1:-0.574846 2:0.627909 3:1 4:-0.334858 5:-0.0444793 6:0.259267 7:-0.963382 8:-0.590328 9:0.220626 10:-0.555567 
-128 1:0.0445991 2:-0.2005 3:-0.194272 4:0.199655 5:-0.117704 6:-0.0810497 7:-0.998158 8:-0.523418 9:0.00037463 10:-0.378653 
-124.9018126785098 1:-0.110454 2:0.300689 3:0.21592 4:0.395312 5:-0.0174316 6:-0.281234 7:-0.89755 8:-0.607931 9:0.335617 10:-0.397787 
-128 1:-0.10905 2:-0.065493 3:-0.30737 4:-0.0302056 5:-0.114808 6:-0.0370383 7:-0.914754 8:-0.685914 9:-0.135286 10:-0.330729 
-128 1:-0.549045 2:-0.301792 3:-0.123236 4:0.231452 5:0.486554 6:0.0958756 7:-0.972499 8:-0.663195 9:0.112699 10:-0.377845 
-128 1:0.282663 2:-0.188657 3:-0.0773054 4:-0.214062 5:-0.306848 6:0.194643 7:-0.871891 8:-0.60746 9:0.085616 10:-0.175656 
-128 1:0.0323012 2:0.0431062 3:0.0972709 4:-0.188921 5:-0.225641 6:0.06892 7:-0.91773 8:-0.650522 9:-0.00741716 10:-0.332328 
-128 1:-0.0489742 2:0.149989 3:0.0229188 4:0.164665 5:-0.0987697 6:-0.00658607 7:-0.863065 8:-0.629759 9:0.143293 10:-0.501495 
-128 1:-0.166155 2:0.592477 3:0.226376 4:0.109528 5:-0.127074 6:-0.268474 7:-0.838317 8:-0.673491 9:0.392631 10:-0.189402 
-128 1:0.147161 2:-0.146458 3:-0.257083 4:0.307045 5:0.182541 6:0.00320955 7:-0.755108 8:-0.430748 9:0.0670796 10:-0.737104 
-128 1:0.390378 2:-0.355025 3:-0.408335 4:0.438351 5:-0.0286884 6:0.28212 7:-0.728125 8:-0.605193 9:-0.210082 10:-0.364857 
-128 1:-0.383925 2:-0.134247 3:-0.314487 4:0.0645583 5:0.0200751 6:-0.49189 7:-0.932681 8:-0.696449 9:-0.140658 10:-0.4091 
-128 1:-0.050832 2:-0.228281 3:-0.191566 4:0.158327 5:0.0248568 6:0.0536965 7:-0.907108 8:-0.782836 9:0.291949 10:-0.304866 
-128 1:0.388707 2:-0.0846431 3:-0.323295 4:0.410106 5:-0.0330019 6:-0.320039 7:-0.812812 8:-0.643424 9:-0.333033 10:-0.234833 
-128 1:-0.238078 2:-0.231469 3:-0.151979 4:0.000646185 5:0.288465 6:-0.158699 7:-0.818447 8:-0.71834 9:0.292287 10:-0.621909 
-128 1:-0.359334 2:0.0769683 3:-0.0390232 4:-0.00690508 5:-0.302172 6:-0.628563 7:-0.950737 8:-0.882767 9:0.450646 10:-0.3776 
-128 1:-0.429793 2:0.404213 3:0.200382 4:0.0029444 5:-0.15544 6:-0.145705 7:-0.790456 8:-0.587874 9:0.29965 10:-0.366809 
-128 1:-0.025208 2:0.0360935 3:-0.0809373 4:0.130162 5:-0.188591 6:-0.470713 7:-0.904931 8:-0.667671 9:-0.164033 10:-0.737709 
-128 1:-0.157207 2:-0.0564451 3:0.226956 4:-0.0109643 5:0.0831877 6:-0.426582 7:-0.84814 8:-0.811421 9:0.104296 10:-0.305791 
-128 1:0.0612934 2:-0.130545 3:-0.480341 4:0.0508387 5:-0.17008 6:-0.0688582 7:-0.844884 8:-0.698124 9:0.00477133 10:-0.461751 
-128 1:-0.346395 2:0.0132163 3:-0.241294 4:-0.0479048 5:-0.020475 6:0.0367839 7:-0.680293 8:-0.582348 9:0.353828 10:-0.333987 
-128 1:-0.024506 2:-0.464802 3:-0.505233 4:-0.191777 5:0.244264 6:-0.0107064 7:-0.881383 8:-0.846894 9:0.0500131 10:-0.552882 
-128 1:-0.0986953 2:0.0955055 3:0.167547 4:0.190413 5:-0.0219948 6:0.135669 7:-0.874264 8:-0.72083 9:-0.0185 10:-0.225386 
-128 1:-0.0350194 2:0.0149817 3:0.266092 4:0.0931517 5:0.0117505 6:-0.212506 7:-0.966506 8:-0.840636 9:0.106559 10:-0.550909 
-128 1:-0.390583 2:-0.210235 3:-0.203815 4:-0.349895 5:-0.513725 6:-0.0494348 7:-0.931496 8:-0.626736 9:0.243663 10:-0.291428 
-128 1:-0.342009 2:0.288821 3:0.304782 4:-0.11503 5:-0.280288 6:-0.15969 7:-0.728239 8:-0.396981 9:0.0923932 10:-0.343509 
-128 1:0.274163 2:0.0487458 3:-0.175891 4:0.0973103 5:0.213916 6:0.106984 7:-0.808462 8:-0.582694 9:0.116445 10:-0.311855 
-128 1:0.512785 2:-0.723414 3:-0.338296 4:0.330733 5:0.271205 6:0.334965 7:-0.854385 8:-0.887071 9:0.0347418 10:-0.362694 
-128 1:-0.361239 2:0.155261 3:-0.242411 4:-0.567591 5:-0.629739 6:-0.0392452 7:-0.833512 8:-0.755166 9:0.033454 10:-0.435952 
-128 1:-0.149237 2:0.212294 3:0.100186 4:0.0193801 5:-0.260537 6:-0.33667 7:-0.863917 8:-0.558013 9:0.178831 10:-0.316938 
-128 1:-0.153853 2:0.196847 3:-0.355522 4:-0.197438 5:-0.484441 6:-0.156612 7:-0.827981 8:-0.70223 9:-0.0793514 10:-0.209027 
-128 1:0.210596 2:-0.558836 3:-0.375413 4:-0.490496 5:-0.350313 6:0.373238 7:-0.911426 8:-0.643262 9:-0.457976 10:-0.569803 
-128 1:-0.222031 2:0.166981 3:-0.0176415 4:-0.0269125 5:0.206795 6:-0.276446 7:-0.741618 8:-0.859312 9:0.098572 10:-0.622541 
-128 1:0.457918 2:-0.00941569 3:0.010572 4:-0.0142773 5:-0.318581 6:-0.0956141 7:-0.731588 8:-0.598051 9:0.144152 10:-0.549457 
-128 1:-0.0830907 2:0.240983 3:0.262669 4:-0.129407 5:-0.0876358 6:0.25072 7:-0.988518 8:-0.714346 9:0.03348 10:-0.421117 
-128 1:0.307904 2:0.0965844 3:-0.458922 4:0.294171 5:-0.512065 6:-0.23091 7:-0.854783 8:-0.789697 9:-0.0520736 10:0.0234614 
-128 1:0.165728 2:-0.2797 3:-0.285186 4:0.0755122 5:0.163353 6:-0.177758 7:-0.972891 8:-0.876556 9:-0.205867 10:-0.432638 
-128 1:-0.181174 2:-0.140132 3:-0.302616 4:-0.0828853 5:-0.100451 6:-0.14009 7:-0.909094 8:-0.632279 9:-0.415872 10:-0.789945 
-128 1:-0.147216 2:-0.0538705 3:-0.374928 4:-0.104345 5:-0.138641 6:-0.201562 7:-0.727467 8:-0.630552 9:-0.0268771 10:-0.543294 
-128 1:-0.0484967 2:0.042248 3:0.160585 4:-0.147036 5:-0.0402535 6:-0.0629603 7:-0.968047 8:-0.864955 9:0.155014 10:-0.534371 
-128 1:-0.482627 2:-0.170169 3:-0.422891 4:-0.0473874 5:0.0723795 6:-0.312759 7:-0.717136 8:-0.888533 9:0.134175 10:-0.584047 
-128 1:-0.0286305 2:-0.0475198 3:0.365844 4:0.195397 5:0.309579 6:0.332251 7:-0.909196 8:-0.727353 9:-0.0939463 10:-0.257128 
-128 1:0.0406164 2:-0.0167962 3:-0.257561 4:-0.0671162 5:0.0212086 6:-0.123125 7:-0.907988 8:-0.643095 9:0.0671187 10:-0.615885 
-128 1:-0.384348 2:-0.0291543 3:0.126284 4:0.00433725 5:0.407828 6:-0.241009 7:-0.995079 8:-0.719776 9:0.23699 10:-0.291849 
-128 1:0.119405 2:-0.163598 3:-0.157237 4:-0.214918 5:-0.146874 6:0.452477 7:-0.853456 8:-0.646767 9:-0.245177 10:-0.576362 
-128 1:0.0823367 2:-0.210848 3:-0.451693 4:0.605772 5:0.377655 6:0.142991 7:-0.727207 8:-0.642289 9:0.162766 10:-0.236256 
-128 1:0.326442 2:-0.0610549 3:-0.207834 4:0.491289 5:0.207889 6:-0.120561 7:-0.863805 8:-0.611215 9:-0.0159114 10:-0.407795 
-128 1:-0.283315 2:0.0277076 3:0.228707 4:0.119705 5:0.152249 6:-0.0940381 7:-0.851949 8:-0.869852 9:0.162584 10:-0.402307 
-128 1:-0.197275 2:0.00434004 3:0.105703 4:-0.100793 5:-0.112504 6:-0.231267 7:-0.733317 8:-0.652528 9:-0.0464932 10:-0.530068 
-128 1:-0.00720195 2:-0.0280509 3:0.17365 4:0.207933 5:0.0369838 6:0.14819 7:-0.899042 8:-0.705107 9:0.347961 10:-0.198662 
-128 1:-0.351794 2:0.288625 3:0.244918 4:-0.295266 5:-0.394656 6:-0.198825 7:-0.956441 8:-0.958857 9:-0.102415 10:-0.4087 
-128 1:-0.154186 2:0.00997965 3:0.183236 4:-0.1989 5:-0.298656 6:-0.225961 7:-0.981743 8:-0.640438 9:0.300053 10:-0.660207 
-128 1:-0.0503002 2:-0.299708 3:-0.329953 4:0.0499234 5:-0.29443 6:0.0949533 7:-0.869867 8:-0.645325 9:-0.156567 10:-0.317511 
-128 1:-0.00446251 2:0.421695 3:0.0581973 4:-0.0460941 5:0.124561 6:-0.294548 7:-0.842401 8:-0.441695 9:0.0532651 10:-0.520165 
-128 1:0.013735 2:-0.0653704 3:-0.145246 4:0.0322839 5:-0.155081 6:-0.332718 7:-0.88625 8:-0.847601 9:0.225127 10:-0.592098 
-128 1:0.209599 2:-0.0714023 3:-0.0138253 4:-0.113498 5:0.118558 6:-0.18587 7:-0.834293 8:-0.806816 9:0.327682 10:-0.385724 
-128 1:-0.0437648 2:0.0840792 3:0.150509 4:-0.593317 5:-0.812484 6:0.105908 7:-0.856941 8:-0.626766 9:0.289321 10:-0.404128 
-128 1:0.180682 2:-0.530932 3:-0.325071 4:0.437187 5:0.0803256 6:-0.0168234 7:-0.990437 8:-0.8877 9:-0.0430721 10:-0.329268 
-128 1:0.236449 2:-0.155236 3:-0.0519336 4:-0.106922 5:-0.471035 6:-0.346936 7:-0.892663 8:-0.817905 9:0.0135647 10:-0.835181 
-128 1:0.198579 2:-0.13844 3:-0.121627 4:0.488852 5:-0.0369389 6:-0.270213 7:-0.940999 8:-0.594606 9:-0.237464 10:-0.322223 
-128 1:-0.240191 2:0.0729225 3:-0.0135988 4:-0.0980874 5:-0.0764335 6:-0.0494118 7:-0.843798 8:-0.847328 9:0.157199 10:-0.66244 
-128 1:-0.166068 2:0.275556 3:-0.284292 4:-0.52542 5:-0.54245 6:0.134378 7:-0.83668 8:-0.693156 9:0.0115875 10:-0.299301 
-128 1:0.0679304 2:0.399456 3:0.537719 4:0.0956787 5:-0.0164288 6:0.495289 7:-0.802999 8:-0.625305 9:0.137362 10:-0.381012 
-128 1:-0.226262 2:0.187848 3:0.249856 4:0.00143215 5:0.178091 6:-0.217745 7:-0.890237 8:-0.69161 9:0.0653886 10:-0.545376 
-128 1:0.270412 2:-0.264497 3:-0.380297 4:-0.0596147 5:-0.136239 6:-0.309282 7:-0.885668 8:-0.745459 9:0.0580781 10:-0.544012 
-128 1:0.182675 2:-0.47765 3:-0.646477 4:0.577159 5:0.154157 6:-0.120792 7:-0.842373 8:-0.61458 9:0.337074 10:-0.328324 
-128 1:-0.188924 2:-0.12135 3:-0.34374 4:0.25136 5:-0.288125 6:-0.336566 7:-0.903569 8:-0.656047 9:0.318303 10:-0.295443 
-46.57972445168907 1:-0.0258107 2:0.0642425 3:-0.207642 4:0.0859785 5:0.141003 6:-0.279692 7:-0.877252 8:-0.544993 9:0.194428 10:-0.59691 
-128 1:-0.00631323 2:-0.223598 3:-0.225555 4:0.0330898 5:-0.0547294 6:-0.258834 7:-0.841526 8:-0.622567 9:0.217439 10:-0.557606 
-128 1:0.187078 2:0.208101 3:0.156403 4:0.352004 5:0.236445 6:-0.0822724 7:-0.849709 8:-0.701587 9:0.217621 10:-0.296244 
-128 1:0.344356 2:-0.297281 3:-0.253055 4:-0.0995598 5:-0.249411 6:-0.0801627 7:-0.83252 8:-0.768421 9:-0.0522687 10:-0.229979 
-128 1:-0.516188 2:0.0330285 3:0.108759 4:-0.17552 5:0.107367 6:-0.0336177 7:-0.770791 8:-0.831918 9:0.246018 10:-0.672509 
-128 1:0.0458849 2:-0.26511 3:-0.0891768 4:-0.165432 5:-0.196584 6:0.329105 7:-0.922853 8:-0.744923 9:0.134955 10:-0.631911 
-128 1:-0.459485 2:0.228943 3:0.218185 4:-0.105022 5:-0.189845 6:-0.12104 7:-0.727258 8:-0.704652 9:-0.0461029 10:-0.402883 
-128 1:-0.227333 2:0.111689 3:-0.383076 4:-0.0800499 5:-0.102904 6:0.19765 7:-0.923699 8:-0.503727 9:0.121661 10:-0.0396383 
-128 1:-0.454335 2:0.208126 3:0.114403 4:0.0435063 5:-0.214581 6:-0.514341 7:-0.955191 8:-0.654714 9:0.45209 10:-0.194234 
-128 1:0.161305 2:-0.0676753 3:-0.0512713 4:0.170933 5:0.34025 6:-0.177094 7:-0.83474 8:-0.781154 9:0.0284589 10:-0.737744 
-128 1:-0.45576 2:-0.0674055 3:-0.449154 4:-0.208183 5:-0.378822 6:-0.0660524 7:-0.995424 8:-0.847729 9:-0.187188 10:-0.297619 
-128 1:-0.295088 2:0.0977613 3:0.412777 4:0.218847 5:0.213859 6:-0.187828 7:-0.965057 8:-0.855703 9:0.368579 10:-0.353641 
-128 1:-0.148445 2:0.110144 3:0.0114675 4:-0.189508 5:-0.247754 6:-0.134441 7:-0.992391 8:-0.703632 9:-0.111039 10:-0.535597 
-128 1:-0.337466 2:0.324719 3:0.541249 4:-0.200761 5:0.087388 6:-0.479362 7:-0.901291 8:-0.768371 9:0.323662 10:-0.487606 
-128 1:-0.196369 2:-0.0476669 3:0.0336643 4:-0.1795 5:0.0465316 6:-0.0437313 7:-0.926558 8:-0.709193 9:0.179117 10:-0.530432 
-128 1:-0.334705 2:0.112179 3:-0.107237 4:-0.338819 5:-0.084368 6:0.0638349 7:-0.947555 8:-0.632854 9:0.267936 10:-0.313173 
-128 1:-0.305985 2:0.164333 3:0.393932 4:0.0486997 5:0.145003 6:0.199975 7:-0.935972 8:-0.782787 9:0.373028 10:-0.431172 
-128 1:-0.668855 2:0.0812348 3:0.470665 4:-0.267289 5:-0.239506 6:0.116543 7:-0.936239 8:-0.857801 9:0.3592 10:-0.503079 
-128 1:-0.549031 2:0.530221 3:-0.0258007 4:-0.215734 5:-0.0999715 6:-0.125393 7:-0.870786 8:-0.725824 9:0.317379 10:-0.202642 
-128 1:-0.269892 2:-0.261849 3:-0.258727 4:0.0132913 5:-0.170543 6:-0.119011 7:-0.898671 8:-0.995267 9:0.157238 10:-0.394436 
-128 1:-0.080649 2:0.330677 3:0.529107 4:-0.176177 5:-0.169286 6:0.00208404 7:-0.976622 8:-0.633549 9:0.144464 10:-0.469113 
-128 1:-0.53574 2:0.00735601 3:-0.209197 4:-0.00268672 5:-0.405317 6:-0.342084 7:-0.9434 8:-0.664531 9:0.540896 10:-0.259581 
-128 1:-0.709072 2:0.0291053 3:-0.102177 4:-0.130153 5:-0.103596 6:-0.218192 7:-0.810075 8:-0.744357 9:0.314778 10:-0.287918 
-128 1:-0.50217 2:0.35017 3:0.342259 4:-0.352403 5:-0.159736 6:-0.0750653 7:-0.922297 8:-0.806614 9:-0.0165748 10:-0.895648 
-128 1:-0.00270398 2:0.0761837 3:0.057764 4:0.391461 5:0.25517 6:-0.0281191 7:-0.920337 8:-0.670069 9:-0.118167 10:-0.339083 
-128 1:-0.272291 2:0.232989 3:-0.0132301 4:0.197337 5:-0.0922849 6:-0.0863398 7:-0.813703 8:-0.715934 9:-0.00919925 10:-0.724719 
-128 1:-0.475889 2:0.515288 3:0.493631 4:-0.214072 5:-0.101244 6:-0.188346 7:-0.793443 8:-0.701099 9:0.319474 10:-0.750889 
-128 1:-0.24446 2:0.205527 3:-0.13188 4:-0.18342 5:-0.0363439 6:-0.0594866 7:-0.886406 8:-0.688079 9:0.350706 10:-0.329413 
-128 1:-0.0311643 2:0.348479 3:-0.24448 4:-0.117747 5:-0.204188 6:-0.34001 7:-0.78419 8:-0.727995 9:0.494275 10:-0.363741 
-128 1:-0.71638 2:-0.071623 3:0.0348613 4:-0.230836 5:-0.168305 6:-0.0381745 7:-0.9988 8:-0.72536 9:0.233075 10:-0.050547 
-128 1:-0.203144 2:0.140941 3:0.262906 4:0.127237 5:0.115366 6:-0.390267 7:-0.8927 8:-0.654671 9:-0.0645613 10:-0.5245 
-128 1:-0.035953 2:0.107054 3:0.171211 4:0.109448 5:0.0178686 6:-0.526535 7:-0.983053 8:-0.753598 9:0.129778 10:-0.236994 
-128 1:-0.689858 2:0.186573 3:0.164715 4:0.173092 5:0.36516 6:0.00789886 7:-0.914944 8:-0.715215 9:0.116289 10:0.0766382 
-128 1:-0.209452 2:-0.333423 3:-0.169496 4:0.0594048 5:0.035027 6:-0.0165389 7:-0.92045 8:-0.755824 9:-0.0667856 10:-0.363589 
-128 1:-0.247561 2:0.161097 3:-0.149661 4:-0.125944 5:-0.681819 6:-0.657388 7:-0.891695 8:-0.672842 9:0.248619 10:-0.650012 
-128 1:-0.37193 2:-0.201015 3:-0.136399 4:0.122441 5:0.348875 6:0.195346 7:-0.873517 8:-0.815659 9:0.226258 10:-0.315063 
-128 1:-0.498426 2:0.0859182 3:0.186444 4:-0.209745 5:-0.211331 6:-0.422836 7:-0.857368 8:-0.827592 9:0.496708 10:-0.422637 
-128 1:-0.111662 2:0.432852 3:0.483518 4:0.0443221 5:-0.0551586 6:-0.32649 7:-0.835193 8:-0.702051 9:0.11612 10:-0.659382 
-128 1:-0.12166 2:0.215506 3:-0.0170753 4:-0.216201 5:-0.480516 6:-0.481053 7:-0.950456 8:-0.749806 9:0.0696422 10:-0.641117 
-128 1:-0.20915 2:-0.0258931 3:-0.208797 4:0.228686 5:-0.0113681 6:-0.0212194 7:-0.770396 8:-0.84382 9:0.119372 10:-0.167561 
-128 1:-0.360641 2:0.42785 3:0.227364 4:0.0683091 5:-0.298346 6:-0.109111 7:-0.812617 8:-0.527541 9:0.157888 10:-0.536008 
-128 1:-0.365699 2:0.101121 3:0.0571227 4:-0.0546502 5:-0.195879 6:0.103141 7:-0.793054 8:-0.667201 9:0.0439514 10:-0.545824 
-128 1:-0.243299 2:0.403379 3:0.399621 4:-0.291097 5:-0.384544 6:-0.162809 7:-0.967712 8:-0.722304 9:-0.100554 10:-0.725236 
-128 1:-0.45229 2:0.132187 3:0.0162608 4:-0.194274 5:0.0651981 6:0.166055 7:-0.914865 8:-0.668906 9:0.05467 10:-0.667819 
-128 1:-0.291387 2:0.108035 3:0.269661 4:0.411429 5:0.247433 6:-0.34888 7:-0.907212 8:-0.63961 9:-0.0143244 10:-0.620856 
-128 1:-0.194048 2:-0.091803 3:0.198991 4:0.0109036 5:-0.00216943 6:0.119794 7:-0.871747 8:-0.678563 9:0.178142 10:-0.22683 
-128 1:-0.44732 2:0.326043 3:-0.0392484 4:0.112343 5:0.0331092 6:-0.148691 7:-0.85516 8:-0.500285 9:0.189121 10:-0.596305 
-128 1:-0.327373 2:-0.183827 3:-0.214548 4:0.138121 5:0.307018 6:0.172571 7:-0.850434 8:-0.662054 9:-0.13444 10:-0.661872 
-128 1:0.458341 2:0.0829757 3:0.0997307 4:0.414364 5:0.432556 6:-0.0235552 7:-0.874722 8:-0.602998 9:0.00122015 10:-0.256575 
-128 1:0.220046 2:-0.0111566 3:0.268397 4:0.444539 5:0.140211 6:-0.0388388 7:-0.830651 8:-0.679075 9:0.123391 10:-0.209281 
-128 1:-0.0552567 2:-0.344237 3:-0.267066 4:0.076905 5:0.23506 6:0.171491 7:-0.945572 8:-0.729821 9:-0.206518 10:-0.59246 
-128 1:-0.0500449 2:-0.0954074 3:0.12465 4:0.513436 5:0.224595 6:0.12737 7:-0.883658 8:-0.729988 9:0.180223 10:-0.456805 
-57.79063580211284 1:-0.439385 2:-0.272344 3:-0.192984 4:0.231651 5:0.371147 6:0.0563469 7:-0.988511 8:-0.664186 9:-0.119663 10:-0.50479 
-128 1:-0.0748227 2:0.00125052 3:0.115263 4:0.126003 5:0.248287 6:0.0291298 7:-0.835493 8:-0.634794 9:0.274258 10:-0.523365 
-128 1:0.239345 2:-0.308217 3:-0.193441 4:0.350919 5:0.197834 6:-0.158307 7:-0.900299 8:-0.753042 9:0.145232 10:-0.397566 
-128 1:-0.0075234 2:-0.163671 3:-0.596478 4:0.0208525 5:0.126666 6:0.0464364 7:-0.812052 8:-0.72274 9:0.0898046 10:-0.574544 
-128 1:0.0971518 2:0.0559547 3:-0.45073 4:-0.00788008 5:-0.169821 6:-0.329679 7:-0.803015 8:-0.771059 9:0.232021 10:-0.602178 
-128 1:0.0839747 2:0.0377363 3:0.265566 4:0.405758 5:0.213728 6:0.193086 7:-0.887567 8:-0.758932 9:0.195273 10:-0.417275 
-128 1:0.559478 2:-0.234044 3:-0.206841 4:0.310089 5:0.322153 6:-0.40945 7:-0.865414 8:-0.676623 9:0.161713 10:-0.514229 
-128 1:-0.193254 2:-0.0593139 3:0.15955 4:0.0903859 5:0.242052 6:-0.13932 7:-0.903549 8:-0.788927 9:0.072582 10:-0.406533 
-128 1:0.63553 2:-0.334061 3:-0.0783444 4:0.0708859 5:-0.055703 6:-0.152609 7:-0.88533 8:-0.597087 9:0.0192102 10:-0.603637 
-128 1:-0.234556 2:0.0476424 3:0.149334 4:0.264543 5:0.222078 6:0.0402717 7:-0.947799 8:-0.640651 9:-0.0980308 10:-0.498124 
-128 1:0.0945495 2:-0.5032 3:-0.391835 4:0.205416 5:0.14853 6:-0.0684571 7:-0.875766 8:-0.785105 9:-0.0629223 10:-0.422473 
-128 1:0.189409 2:-0.171665 3:-0.362571 4:0.317063 5:0.136975 6:0.207075 7:-0.801866 8:-0.675887 9:-0.172723 10:-0.428139 
-128 1:0.0386901 2:-0.190128 3:-0.336395 4:-0.00931273 5:0.00968247 6:-0.659982 7:-0.924833 8:-0.766045 9:0.115118 10:-0.615291 
-128 1:0.155287 2:-0.0876591 3:-0.319552 4:0.0842076 5:-0.0806437 6:-0.334255 7:-0.832015 8:-0.795436 9:0.277952 10:-0.651808 
-99.18357490478199 1:0.405732 2:-0.41738 3:-0.41579 4:0.133057 5:0.0381641 6:-0.214801 7:-0.97858 8:-0.744069 9:0.141785 10:-0.444274 
-128 1:0.344438 2:-0.225511 3:-0.197326 4:0.325132 5:0.090252 6:-0.0392788 7:-0.92393 8:-0.707509 9:0.304072 10:-0.267519 
-128 1:0.557462 2:-0.37165 3:-0.186017 4:0.33331 5:0.486223 6:-0.0158781 7:-0.934853 8:-0.656248 9:0.114221 10:-0.385049 
-128 1:0.435643 2:-0.249982 3:0.05899 4:0.197407 5:0.135404 6:-0.0378122 7:-0.974476 8:-0.68351 9:-0.0221162 10:-0.587421 
-128 1:0.402912 2:-0.192531 3:-0.0215631 4:0.26513 5:0.0553362 6:0.00337564 7:-0.796422 8:-0.671409 9:0.104361 10:-0.502081 
-128 1:0.339711 2:0.0387662 3:-0.27413 4:0.249022 5:0.23332 6:0.117981 7:-0.795147 8:-0.732042 9:-0.0417062 10:-0.482596 
-128 1:0.292548 2:-0.195596 3:-0.27771 4:0.15778 5:0.302505 6:0.102422 7:-0.880229 8:-0.697092 9:0.0837038 10:-0.482479 
-128 1:-0.101903 2:0.0491626 3:0.105969 4:0.156427 5:0.110959 6:-0.355011 7:-0.944087 8:-0.643145 9:0.148562 10:-0.438816 
-128 1:0.208849 2:-0.108795 3:-0.357317 4:0.178285 5:-0.245404 6:-0.450585 7:-0.981383 8:-0.668582 9:-0.0902651 10:-0.413419 
-128 1:0.137683 2:-0.3806 3:-0.561601 4:-0.0397964 5:-0.130861 6:-0.0504013 7:-0.953315 8:-0.708119 9:-0.0847887 10:-0.665823 
-128 1:0.120942 2:0.362136 3:0.498161 4:0.316128 5:0.240955 6:-0.13924 7:-0.904114 8:-0.665881 9:0.204678 10:-0.41086 
-38.70535398743665 1:-0.0819301 2:-0.0839566 3:-0.040535 4:0.259498 5:0.367819 6:0.0808854 7:-0.923734 8:-0.739391 9:0.0736617 10:-0.384307 
-128 1:-0.327877 2:-0.125665 3:0.210087 4:0.042392 5:0.11871 6:0.0614496 7:-0.895574 8:-0.718475 9:0.0520164 10:-0.554676 
-128 1:0.441288 2:-0.211044 3:-0.28225 4:0.155213 5:0.163266 6:-0.215103 7:-0.914831 8:-0.774968 9:-0.0694003 10:-0.4378 
-128 1:0.0784911 2:-0.0157664 3:0.103086 4:0.350929 5:-0.0505896 6:-0.242207 7:-0.925344 8:-0.66188 9:0.0526538 10:-0.559109 
-128 1:0.569885 2:-0.423632 3:-0.278836 4:0.185568 5:0.21572 6:-0.592871 7:-0.973601 8:-0.826036 9:-0.179682 10:-0.575209 
-128 1:-0.034835 2:-0.270064 3:-0.295703 4:0.151801 5:0.200263 6:0.0659923 7:-0.972562 8:-0.739284 9:-0.0534004 10:-0.348279 
-128 1:0.174461 2:-0.0279283 3:-0.178644 4:0.348402 5:0.342191 6:-0.279162 7:-0.880946 8:-0.66885 9:0.0833136 10:-0.358623 
-128 1:-0.269112 2:-0.015276 3:-0.0644213 4:0.104523 5:0.199869 6:0.175424 7:-0.808473 8:-0.749044 9:0.0734666 10:-0.619896 
-128 1:0.036265 2:-0.320648 3:-0.229861 4:0.311651 5:0.161488 6:0.0282905 7:-0.902343 8:-0.706849 9:0.251559 10:-0.46173 
-128 1:-0.123922 2:-0.164088 3:-0.123677 4:0.23392 5:-0.000495536 6:-0.260518 7:-0.935171 8:-0.723149 9:-0.0286592 10:-0.239491 
-128 1:0.540286 2:-0.19464 3:-0.0537404 4:0.407499 5:0.199016 6:-0.616579 7:-0.920322 8:-0.732125 9:0.175436 10:-0.411019 
-128 1:-0.310315 2:0.0290562 3:0.386374 4:0.457592 5:0.405815 6:-0.168564 7:-0.984281 8:-0.742133 9:0.000595766 10:-0.436721 
-128 1:-0.335762 2:-0.331756 3:-0.534963 4:0.173738 5:-0.171541 6:0.049744 7:-0.880446 8:-0.795947 9:-0.00512775 10:-0.23326 
-128 1:-0.102016 2:-0.225094 3:0.161919 4:0.298936 5:0.205012 6:0.148191 7:-0.987964 8:-0.816102 9:-0.0414851 10:-0.429613 
-128 1:0.346622 2:-0.341613 3:-0.305238 4:0.403331 5:0.126186 6:-0.576073 7:-0.96173 8:-0.776706 9:-0.142817 10:-0.495617 
-128 1:0.602527 2:-0.307015 3:0.149651 4:0.608807 5:0.271911 6:-0.318268 7:-0.92721 8:-0.725565 9:0.183969 10:-0.411697 
-128 1:0.236331 2:-0.189785 3:0.122728 4:0.209972 5:0.0341257 6:0.222913 7:-0.889039 8:-0.750028 9:-0.0874944 10:-0.385952 
-128 1:0.309575 2:-0.43756 3:-0.0963892 4:0.178195 5:0.280271 6:0.0272286 7:-0.927509 8:-0.726547 9:-0.0790652 10:-0.501757 
-128 1:-0.14437 2:-0.0680185 3:-0.250815 4:0.111139 5:-0.0168248 6:-0.114882 7:-0.93177 8:-0.788018 9:-0.0366851 10:-0.245803 
-128 1:0.124877 2:-0.184562 3:0.061625 4:0.235959 5:0.165927 6:0.242119 7:-0.82512 8:-0.732506 9:0.210948 10:-0.336152 
-128 1:0.0464829 2:-0.205159 3:-0.0126138 4:0.19092 5:0.431799 6:0.0865553 7:-0.855373 8:-0.708742 9:0.171508 10:-0.501075 
-128 1:-0.0771296 2:-0.183091 3:-0.059233 4:0.329698 5:0.324303 6:0.088142 7:-0.939728 8:-0.729611 9:-0.0320543 10:-0.381489 
-128 1:0.403579 2:0.0615453 3:-0.0897747 4:0.233979 5:-0.210152 6:-0.335161 7:-0.940805 8:-0.63097 9:0.14198 10:-0.375991 
-128 1:-0.235603 2:-0.493711 3:-0.148082 4:0.207535 5:0.651544 6:-0.0304496 7:-0.979595 8:-0.872538 9:-0.400648 10:-0.631693 
-128 1:0.00759194 2:-0.178579 3:-0.165441 4:0.159929 5:0.1076 6:0.0489171 7:-0.950849 8:-0.756041 9:-0.0705189 10:-0.52749 
-128 1:0.300607 2:-0.30802 3:-0.191691 4:0.194014 5:0.266755 6:0.112237 7:-0.922964 8:-0.812724 9:-0.0430721 10:-0.434063 
-128 1:0.364033 2:-0.258662 3:-0.250604 4:0.612358 5:0.308227 6:0.172742 7:-0.889604 8:-0.801099 9:-0.143624 10:-0.337677 
-128 1:0.551071 2:-0.372435 3:-0.287164 4:0.278133 5:0.356977 6:-0.160678 7:-0.877415 8:-0.747314 9:0.152087 10:-0.341339 
-128 1:-0.086161 2:-0.364588 3:-0.561074 4:0.316834 5:-0.0866213 6:-0.176043 7:-0.88316 8:-0.729405 9:-0.225977 10:-0.446889 
-128 1:0.246147 2:-0.267783 3:-0.286943 4:0.303811 5:0.628075 6:-0.0393 7:-0.875093 8:-0.654013 9:0.098533 10:-0.377005 
-128 1:0.243725 2:-0.0928328 3:-0.114751 4:0.263349 5:0.0318021 6:-0.0901969 7:-0.936674 8:-0.703382 9:-0.173308 10:-0.42698 
-128 1:-0.183984 2:-0.157835 3:-0.124848 4:0.182354 5:0.339435 6:0.0459364 7:-0.886323 8:-0.624723 9:0.0148135 10:-0.571143 
-128 1:0.32465 2:-0.245911 3:-0.285292 4:0.351745 5:0.189205 6:-0.152003 7:-0.942051 8:-0.681295 9:0.0849006 10:-0.301966 
-128 1:-0.25 2:-0.148174 3:-0.116255 4:0.0828744 5:0.238345 6:0.0446307 7:-0.851826 8:-0.681521 9:-0.112119 10:-0.195834 
-128 1:-0.294902 2:-0.222568 3:-0.222304 4:0.0703685 5:-0.0818688 6:-0.234338 7:-0.913036 8:-0.705 9:-0.126297 10:-0.556581 
-128 1:0.262962 2:-0.272491 3:-0.253719 4:0.199765 5:0.0298122 6:-0.293184 7:-0.936896 8:-0.695526 9:0.104491 10:-0.412775 
-128 1:0.30061 2:-0.148174 3:-0.0750997 4:0.280152 5:-0.164028 6:-0.00676806 7:-0.847824 8:-0.709219 9:-0.0228056 10:-0.344596 
-128 1:0.172327 2:0.0886399 3:-0.0010571 4:0.147692 5:0.0565243 6:0.0840075 7:-0.892566 8:-0.750041 9:0.254954 10:-0.223305 
-128 1:-0.328415 2:-0.371724 3:-0.176255 4:0.259071 5:0.52249 6:0.0105139 7:-0.905745 8:-0.725369 9:-0.125335 10:-0.590856 
-128 1:0.472963 2:-0.422676 3:-0.295845 4:0.383681 5:0.0745411 6:-0.186102 7:-0.936852 8:-0.774104 9:0.258245 10:-0.299495 
-128 1:0.399842 2:-0.322782 3:-0.274985 4:0.119785 5:-0.0579777 6:-0.403773 7:-0.890592 8:-0.860344 9:0.188913 10:-0.152585 
-69.99779716073911 1:-0.514775 2:0.0417821 3:0.149865 4:0.295902 5:0.430436 6:-0.276715 7:-0.963579 8:-0.726728 9:-0.173802 10:-0.492405 
-128 1:-0.382824 2:-0.292965 3:-0.0895205 4:0.446589 5:0.284465 6:-0.101703 7:-0.971464 8:-0.772777 9:-0.115514 10:-0.405689 
-128 1:-0.518396 2:-0.316578 3:-0.697326 4:-0.0184459 5:0.0139765 6:-0.231981 7:-0.835316 8:-0.844771 9:0.421977 10:-0.513017 
-128 1:-0.126139 2:0.0555624 3:-0.126485 4:0.67639 5:0.53244 6:-0.309785 7:-0.854551 8:-0.669692 9:0.155378 10:-0.00544616 
-128 1:-0.261168 2:0.167741 3:-0.0347685 4:0.080616 5:-0.00974295 6:-0.0612959 7:-0.8919 8:-0.682647 9:-0.250589 10:-0.572919 
-128 1:-0.160192 2:-0.0794203 3:-0.167507 4:0.0835708 5:0.123133 6:-0.0449593 7:-0.877985 8:-0.858253 9:0.0130184 10:-0.573225 
-128 1:0.0927933 2:-0.00225584 3:-0.0478422 4:-0.208949 5:-0.3159 6:-0.347364 7:-0.858033 8:-0.736662 9:0.25178 10:-0.520427 
-128 1:0.171178 2:0.106662 3:0.0603529 4:0.157561 5:-0.21858 6:-0.107541 7:-0.93116 8:-0.657504 9:0.0602374 10:-0.303666 
-128 1:-0.0115463 2:-0.146237 3:-0.258932 4:-0.0555157 5:-0.348895 6:0.02549 7:-0.875953 8:-0.650827 9:0.0289792 10:-0.31907 
-128 1:0.181115 2:-0.0128485 3:-0.222952 4:-0.0265742 5:-0.0938885 6:-0.337844 7:-0.853305 8:-0.67972 9:0.0472945 10:-0.445373 
-128 1:0.0773471 2:-0.0365839 3:-0.376951 4:-0.161791 5:-0.442649 6:-0.248248 7:-0.923318 8:-0.740528 9:0.149889 10:-0.644676 
-116.3626188402887 1:0.227019 2:-0.352598 3:-0.472496 4:0.0630958 5:0.113616 6:-0.296085 7:-0.918547 8:-0.866506 9:-0.0699076 10:-0.57371 
