svm_type c_svc
kernel_type linear
nr_class 2
total_sv 325
rho -3.48938
label -1 1
nr_sv 163 162
SV
128 1:-0.189092 2:0.0915332 3:-0.118257 4:0.348253 5:0.330536 6:0.334502 7:-0.726328 8:-0.402487 9:-0.0222983 10:-0.219711 
128 1:0.142689 2:-0.0118186 3:0.308811 4:-0.303427 5:-0.0530985 6:-0.0349534 7:-0.65088 8:-0.661586 9:0.0407384 10:-0.169068 
128 1:0.107348 2:-0.221171 3:-0.0818393 4:-0.111091 5:-0.100664 6:-0.416871 7:-0.688615 8:-0.646747 9:0.151007 10:-0.616085 
128 1:-0.311688 2:-0.282348 3:0.150088 4:0.328027 5:0.0806573 6:0.210479 7:-0.816389 8:-0.771366 9:0.0989232 10:-0.332154 
128 1:-0.234428 2:0.122159 3:0.335477 4:-0.0033931 5:0.122347 6:-0.0543945 7:-0.916694 8:-0.607188 9:0.124445 10:-0.302059 
128 1:0.277094 2:-0.490719 3:-0.579541 4:-0.374882 5:-0.00704286 6:-0.076689 7:-0.255351 8:-0.582636 9:-0.382535 10:-0.843199 
128 1:0.20862 2:-0.124341 3:-0.0717891 4:0.781222 5:0.144851 6:-0.34245 7:-0.596509 8:-0.656916 9:-0.0994747 10:0.0133728 
128 1:0.156696 2:-0.213251 3:-0.390428 4:0.18507 5:0.319233 6:-0.0849793 7:-0.918289 8:-0.634202 9:-0.054389 10:-0.154374 
128 1:0.104711 2:-0.194763 3:0.122238 4:-0.0221369 5:-0.142354 6:0.000870191 7:-0.638897 8:-0.321478 9:-0.0573028 10:-0.631206 
128 1:-0.418838 2:-0.424883 3:-0.288748 4:-0.257579 5:0.0557459 6:0.17937 7:-0.768326 8:-0.827236 9:0.16927 10:-0.786478 
128 1:-0.187409 2:0.170243 3:-0.20662 4:0.140459 5:0.167175 6:-0.11619 7:-0.906273 8:-0.681876 9:0.146532 10:-0.110507 
128 1:-0.312908 2:-0.297477 3:-0.0321348 4:-0.0588486 5:0.0759731 6:0.162722 7:-0.691682 8:-0.759788 9:0.0366279 10:-0.309302 
128 1:0.204271 2:-0.0199838 3:0.152518 4:0.437923 5:-0.0916645 6:-0.0286403 7:-0.949455 8:-0.741745 9:-0.0971853 10:0.00803853 
128 1:-0.0687979 2:-0.0452149 3:-0.164357 4:-0.116732 5:0.290521 6:0.522764 7:-0.904834 8:-0.856926 9:0.353047 10:-0.0679744 
128 1:-0.0570861 2:0.236103 3:-0.147275 4:-0.760491 5:-0.617622 6:0.0815144 7:-0.952459 8:-0.344332 9:-0.101361 10:-0.741041 
128 1:-0.232679 2:0.103597 3:0.0579352 4:0.298439 5:-0.155454 6:-0.266315 7:-0.935054 8:-0.691675 9:-0.187734 10:-0.523354 
128 1:-0.0645292 2:0.569649 3:0.0387092 4:-0.717859 5:-0.666567 6:0.0581261 7:-0.648877 8:-0.388083 9:0.227351 10:-0.140956 
128 1:-0.206235 2:0.0988157 3:-0.3496 4:-0.208949 5:-0.2749 6:0.168534 7:-0.945995 8:-0.680574 9:-0.267551 10:-0.246168 
128 1:-0.419717 2:0.291813 3:0.213682 4:-0.0715634 5:-0.304166 6:-0.0565872 7:-0.793776 8:-0.41471 9:0.118929 10:-0.692545 
128 1:-0.515044 2:0.373783 3:-0.285056 4:-0.379341 5:-0.0988244 6:0.0565501 7:-0.5021 8:-0.680844 9:0.160906 10:-0.331216 
128 1:0.206157 2:0.208126 3:-0.0428816 4:-0.501817 5:-0.45317 6:-0.145472 7:-0.841927 8:-0.314816 9:-0.205074 10:-0.791585 
128 1:0.0910915 2:0.0963146 3:0.0288683 4:0.362311 5:0.165607 6:-0.496787 7:-0.525129 8:-0.720107 9:-0.191155 10:-0.746355 
128 1:0.654935 2:-0.672927 3:-0.498769 4:-0.0493474 5:-0.293361 6:-0.0598294 7:-0.529337 8:-0.82406 9:0.00641034 10:-0.437563 
128 1:-0.062539 2:-0.0131427 3:0.0180636 4:-0.309408 5:-0.455852 6:-0.30354 7:-0.858941 8:-0.597592 9:-0.234732 10:-0.459216 
128 1:-0.0142077 2:0.139078 3:-0.0903278 4:0.216787 5:0.130482 6:0.0236153 7:-0.665491 8:-0.852917 9:0.00868674 10:-0.517796 
128 1:-0.330521 2:0.158375 3:0.230735 4:0.10706 5:0.162774 6:-0.227449 7:-0.902088 8:-0.766855 9:-0.0116317 10:-0.481217 
128 1:0.0338778 2:0.0444548 3:-0.308764 4:-0.359065 5:-0.302636 6:0.146939 7:-0.819618 8:-0.610113 9:-0.0323795 10:-0.287559 
128 1:0.136858 2:0.106294 3:-0.225079 4:0.0400043 5:-0.0861784 6:-0.55046 7:-0.365649 8:-0.490227 9:-0.0454525 10:-0.62981 
128 1:-0.101352 2:-0.17625 3:-0.15877 4:-0.00607932 5:-0.198031 6:0.228615 7:-0.823807 8:-0.618499 9:0.287357 10:-0.411681 
128 1:-0.140418 2:0.122478 3:-0.131805 4:-0.174456 5:0.0137033 6:-0.009823 7:-0.756406 8:-0.202346 9:-0.121042 10:-0.806617 
128 1:-0.54862 2:0.167913 3:0.362539 4:-0.26906 5:-0.0803471 6:-0.14743 7:-0.969021 8:-0.622641 9:0.312996 10:-0.125856 
128 1:0.187168 2:-0.28198 3:-0.27014 4:-0.0457757 5:-0.337054 6:-0.280498 7:-0.75587 8:-0.528549 9:0.0404262 10:-0.340555 
128 1:-0.0908221 2:-0.334306 3:-0.291872 4:0.403112 5:-0.192356 6:-0.192572 7:-0.934274 8:-0.683318 9:0.140172 10:-0.612782 
128 1:0.217479 2:0.412034 3:0.0608797 4:-0.206452 5:-0.524457 6:-0.349913 7:-0.646506 8:-0.397614 9:-0.100372 10:-0.259673 
128 1:-0.0157677 2:-0.506289 3:0.163865 4:-0.603956 5:-0.351203 6:-0.0603347 7:-0.81431 8:-0.704898 9:-0.098265 10:-0.390489 
128 1:-0.0149168 2:0.224603 3:-0.21031 4:-0.290809 5:-0.1428 6:-0.28688 7:-0.774079 8:-0.38253 9:0.0154379 10:-0.189289 
128 1:-0.374615 2:-0.104897 3:-0.189429 4:0.222498 5:0.315602 6:-0.0405721 7:-0.931693 8:-0.78725 9:0.548805 10:-0.540509 
128 1:-0.191768 2:-0.0326852 3:0.108452 4:0.0627277 5:0.0105936 6:0.148721 7:-0.556192 8:-0.723091 9:-0.00696188 10:-0.574377 
128 1:-0.154058 2:0.40458 3:0.169099 4:-0.054481 5:-0.104256 6:-0.039065 7:-0.876989 8:-0.380596 9:-0.104002 10:-0.384074 
128 1:-0.0714215 2:0.255719 3:-0.012756 4:-0.321499 5:0.148626 6:0.356921 7:-0.816617 8:-0.770745 9:0.461521 10:-0.686496 
128 1:-0.259986 2:-0.352402 3:-0.153063 4:-0.0313895 5:-0.0429848 6:-0.118615 7:-0.804392 8:-0.712174 9:0.101876 10:-0.779096 
128 1:0.0941453 2:0.262438 3:-0.118794 4:-0.154339 5:-0.165977 6:-0.361225 7:-0.57953 8:-0.54079 9:-0.377965 10:-0.414646 
128 1:0.337773 2:0.135228 3:-0.595937 4:-0.162358 5:-0.178364 6:-0.135664 7:-0.866649 8:-0.645098 9:-0.17444 10:-0.755397 
128 1:0.130687 2:-0.303975 3:-0.354733 4:-0.506831 5:-0.874668 6:0.18396 7:-0.740567 8:-0.847493 9:-0.178511 10:-0.393698 
128 1:0.0558641 2:-0.223574 3:-0.387487 4:-0.221872 5:-0.365199 6:-0.238569 7:-0.916164 8:-0.793307 9:0.12572 10:-0.64694 
128 1:0.355089 2:0.147169 3:0.404349 4:0.179558 5:-0.347061 6:-0.385253 7:-0.959568 8:-0.804051 9:0.508779 10:-0.330626 
128 1:0.0387539 2:0.261629 3:-0.0606828 4:-0.150757 5:0.113583 6:0.0383352 7:-0.705005 8:-0.60122 9:-0.200274 10:-0.720876 
128 1:-0.375128 2:-0.285903 3:-0.104001 4:0.0942859 5:0.0146729 6:-0.0111711 7:-0.80418 8:-0.882592 9:-0.252111 10:-0.425007 
128 1:0.10329 2:-0.377216 3:-0.112281 4:0.388009 5:-0.067032 6:-0.0620433 7:-0.93522 8:-0.516673 9:-0.0997089 10:-0.200588 
128 1:0.200035 2:-0.0555869 3:-0.034671 4:-0.0162472 5:0.279488 6:0.0117789 7:-0.564187 8:-0.674064 9:-0.179526 10:-0.276837 
128 1:0.222714 2:-0.619547 3:-0.452808 4:0.216957 5:0.152641 6:-0.161194 7:-0.840499 8:-0.498171 9:-0.594956 10:-0.526104 
128 1:-0.20216 2:0.133585 3:-0.362061 4:-0.223325 5:-0.419021 6:-0.583994 7:-0.676428 8:-0.710584 9:0.140393 10:-0.398249 
128 1:0.164581 2:-0.602481 3:-0.191162 4:0.314805 5:-0.0383553 6:-0.417408 7:-0.840059 8:-0.733976 9:-0.0486395 10:-0.686848 
128 1:-0.39081 2:0.251796 3:0.327405 4:0.352661 5:0.428561 6:-0.0557691 7:-0.985361 8:-0.622367 9:0.396936 10:-0.30219 
128 1:0.0714475 2:-0.0446755 3:-0.0215434 4:-0.0332499 5:-0.129907 6:-0.169118 7:-0.365212 8:-0.539759 9:0.120204 10:-0.86336 
128 1:-0.0996809 2:0.123483 3:0.078802 4:0.0454663 5:-0.080312 6:0.1457 7:-0.572229 8:-0.54312 9:-0.0695173 10:-0.659665 
128 1:-0.320996 2:1 3:0.311748 4:-0.467855 5:-0.448593 6:0.785606 7:-0.805421 8:-0.418735 9:-0.059306 10:-0.200838 
128 1:-0.0386641 2:0.0307236 3:0.259587 4:0.152318 5:-0.416545 6:-0.372803 7:-0.928246 8:-0.407378 9:-0.127117 10:-0.146133 
128 1:0.175177 2:-0.426894 3:-0.54762 4:-0.346668 5:-0.184055 6:-0.372324 7:-0.512465 8:-0.641823 9:0.06773 10:-0.634148 
128 1:-0.192727 2:-0.187578 3:-0.251898 4:0.461721 5:0.145713 6:-0.224258 7:-0.626101 8:-0.62936 9:-0.0882749 10:-0.70644 
128 1:-0.532639 2:-0.00519824 3:0.279077 4:-0.203069 5:0.343321 6:-0.243388 7:-0.781071 8:-0.825644 9:0.542483 10:-0.51376 
128 1:-0.197019 2:0.43116 3:0.281934 4:-0.194373 5:-0.378239 6:-0.211891 7:-0.585839 8:-0.405011 9:-0.243382 10:-0.558126 
128 1:0.0448899 2:-0.146237 3:-0.163612 4:-0.133804 5:-0.0335014 6:0.0190762 7:-0.456344 8:-0.593959 9:0.273699 10:-0.469559 
128 1:0.366864 2:-0.079641 3:-0.278344 4:-0.346158 5:-0.436963 6:-0.536021 7:-0.595872 8:-0.237375 9:-0.449058 10:-0.608428 
128 1:-0.306982 2:-0.0928573 3:-0.243397 4:-0.0671859 5:-0.202649 6:-0.228214 7:-0.823108 8:-0.565192 9:0.0393466 10:-0.839585 
128 1:-0.322797 2:0.192433 3:0.369399 4:0.394576 5:0.286785 6:-0.184206 7:-0.963008 8:-0.775193 9:0.541806 10:0.123586 
128 1:-0.303172 2:-0.248192 3:-0.0187016 4:0.170515 5:0.0431 6:0.192888 7:-0.73442 8:-0.558726 9:-0.133283 10:-0.0616876 
128 1:0.185478 2:0.0321948 3:-0.252224 4:-0.0127153 5:0.0864008 6:0.00742534 7:-0.510512 8:-0.615018 9:-0.132853 10:-0.244416 
128 1:0.257913 2:-0.348944 3:-0.414218 4:-0.341168 5:0.0381543 6:-0.195449 7:-0.697585 8:-0.576191 9:-0.0545191 10:-0.215732 
128 1:-0.13562 2:-0.151828 3:0.293127 4:-0.0665591 5:-0.16772 6:0.06075 7:-0.616595 8:-0.82455 9:0.230239 10:-0.352333 
128 1:-0.164134 2:0.0411691 3:0.15538 4:0.52815 5:0.176637 6:-0.223482 7:-0.808912 8:-0.844682 9:-0.389959 10:0.11392 
128 1:0.131386 2:0.0369026 3:-0.0860572 4:-0.379404 5:-0.433411 6:-0.682139 7:-0.994709 8:-0.81048 9:-0.365694 10:-0.399159 
128 1:-0.121443 2:-0.434887 3:0.293285 4:0.201983 5:-0.15521 6:-0.156326 7:-0.842827 8:-0.783987 9:0.0995346 10:-0.0468445 
128 1:-0.359057 2:0.0529632 3:0.150879 4:-0.125467 5:-0.196478 6:0.061038 7:-0.967032 8:-0.607813 9:-0.304611 10:-0.634604 
128 1:-0.211227 2:-0.35147 3:-0.114213 4:-0.180813 5:-0.398429 6:0.130514 7:-0.678815 8:-0.529 9:-0.0274625 10:-0.238603 
128 1:0.00231162 2:-0.428929 3:0.0197663 4:-0.0463328 5:0.14932 6:-0.0793729 7:-0.770687 8:-0.69832 9:0.114025 10:-0.134122 
128 1:0.0902406 2:-0.0948925 3:-0.15136 4:0.0986037 5:-0.146308 6:0.0378741 7:-0.911321 8:-0.446445 9:-0.398895 10:-0.272157 
128 1:0.178035 2:0.524042 3:-0.114163 4:-0.0670366 5:-0.139685 6:-0.371453 7:-0.674233 8:-0.240385 9:-0.467169 10:-0.634679 
128 1:-0.279871 2:0.301228 3:-0.269126 4:-0.343034 5:-0.0594878 6:0.000145768 7:-0.481394 8:-0.826745 9:0.0822469 10:-0.275408 
128 1:0.590626 2:-0.418851 3:-0.537129 4:0.17153 5:-0.264129 6:-0.712038 7:-0.889949 8:-0.875752 9:-0.0977707 10:-0.550981 
128 1:0.0249905 2:0.271191 3:0.0792037 4:0.125645 5:0.0894541 6:-0.0112577 7:-0.865017 8:-0.757279 9:0.473814 10:-0.354551 
128 1:-0.445036 2:0.229507 3:0.2596 4:-0.166646 5:-0.392601 6:-0.231168 7:-0.652863 8:-0.620877 9:0.0911184 10:-0.675921 
128 1:0.0582396 2:-0.31827 3:-0.225451 4:-0.333448 5:-0.354552 6:-0.0139946 7:-0.737495 8:-0.734336 9:-0.543916 10:-0.252859 
128 1:-0.29276 2:0.384498 3:0.480305 4:0.255678 5:0.0433672 6:-0.384003 7:-0.703541 8:-0.817537 9:-0.583826 10:-0.222214 
128 1:0.352633 2:0.217223 3:-0.148472 4:-0.0586298 5:-0.0372335 6:0.0166343 7:-0.76353 8:-0.652617 9:-0.0724571 10:0.162408 
128 1:0.503096 2:-0.153005 3:-0.0401623 4:-0.0715336 5:-0.205735 6:0.190849 7:-0.280417 8:-0.47191 9:-0.211773 10:-0.596148 
128 1:-0.0754373 2:-0.204105 3:0.126122 4:0.025638 5:0.146012 6:0.149511 7:-0.640989 8:-0.487675 9:0.128516 10:-0.128871 
128 1:-0.0593008 2:0.121619 3:-0.208434 4:0.20269 5:0.0749079 6:0.101033 7:-0.988681 8:-0.575261 9:0.228886 10:-0.723128 
128 1:0.0672591 2:0.249123 3:0.16016 4:-0.733518 5:-0.460572 6:-0.221643 7:-0.816322 8:-0.344604 9:-0.273314 10:-0.261626 
128 1:-0.0454524 2:-0.128289 3:-0.0545502 4:0.256743 5:-0.118607 6:-0.247996 7:-0.873482 8:-0.418345 9:0.411154 10:-0.519043 
128 1:-0.0384608 2:0.335655 3:-0.165999 4:-0.232707 5:-0.082341 6:0.0878823 7:-0.827976 8:-0.691501 9:-0.0184089 10:-0.350485 
128 1:-0.0731776 2:0.00691465 3:0.103435 4:0.155283 5:0.535581 6:-0.277201 7:-0.91279 8:-0.314857 9:-0.30945 10:-0.662293 
128 1:0.375759 2:0.0187333 3:0.238597 4:-0.0742198 5:-0.159998 6:0.0579724 7:-0.992867 8:-0.520194 9:-0.303544 10:-0.438933 
128 1:-0.442072 2:-0.493367 3:-0.316295 4:-0.110902 5:0.119126 6:0.344211 7:-0.668778 8:-0.449494 9:-0.184859 10:-0.566166 
128 1:0.567737 2:-0.544884 3:-0.392525 4:-0.387536 5:-0.572785 6:-0.251443 7:-0.98058 8:-0.798961 9:-0.314835 10:-0.429198 
128 1:-0.152125 2:-0.181644 3:0.233119 4:-0.116772 5:0.0209237 6:-0.0956477 7:-0.84616 8:-0.73608 9:0.454744 10:-0.16954 
128 1:-0.0104567 2:0.180688 3:-0.126703 4:0.0837996 5:0.0212964 6:-0.00635991 7:-0.863538 8:-0.781308 9:0.0811022 10:0.228838 
128 1:-0.0716035 2:0.188804 3:-0.0122174 4:0.0201959 5:-0.345555 6:0.109673 7:-0.923062 8:-0.696388 9:-0.00139446 10:0.0401268 
128 1:-0.251555 2:0.337395 3:0.118172 4:0.0183752 5:0.362785 6:0.0145565 7:-0.883168 8:-0.560498 9:-0.0277226 10:-0.0298727 
128 1:-0.450373 2:-0.106245 3:0.0888088 4:-0.0794132 5:-0.0525581 6:-0.045788 7:-0.953424 8:-0.523762 9:-0.108515 10:-0.902674 
128 1:-0.612856 2:0.583748 3:0.0102955 4:0.154945 5:0.618242 6:0.153024 7:-0.897852 8:-0.797429 9:0.330374 10:0.174584 
128 1:-0.262771 2:0.21916 3:-0.300568 4:0.146986 5:-0.147235 6:-0.486668 7:-0.930728 8:-0.59453 9:0.170337 10:0.152999 
128 1:-0.329562 2:0.287129 3:-0.160039 4:-0.270085 5:-0.494762 6:0.240365 7:-0.891693 8:-0.51074 9:0.0824161 10:-0.672637 
128 1:-0.376447 2:0.0169924 3:0.339494 4:0.141553 5:-0.180832 6:-0.285017 7:-0.995833 8:-0.78913 9:0.318134 10:0.0641889 
53.07919270883058 1:-0.125076 2:0.383787 3:-0.16463 4:0.0737611 5:0.145485 6:-0.502016 7:-0.846036 8:-0.695922 9:0.223709 10:0.452396 
128 1:-0.0083483 2:0.159061 3:-0.151141 4:0.256772 5:-0.311581 6:-0.0634091 7:-0.840083 8:-0.508152 9:0.116094 10:0.16539 
128 1:-0.0856434 2:0.281147 3:-0.0457734 4:-0.12681 5:-0.156968 6:-0.261779 7:-0.99636 8:-0.718891 9:0.293445 10:0.0222935 
128 1:-0.121147 2:0.091852 3:-0.0427196 4:-0.409245 5:-0.342895 6:0.0345417 7:-0.9083 8:-0.719715 9:-0.27027 10:0.0246459 
125.1530359878474 1:-0.42972 2:0.336268 3:0.101158 4:-0.249481 5:-0.131467 6:-0.0452367 7:-0.799804 8:-0.670278 9:0.259624 10:0.180283 
128 1:-0.203248 2:-0.0179732 3:-0.144864 4:-0.155374 5:-0.110571 6:-0.214155 7:-0.956939 8:-0.710865 9:-0.0426298 10:0.0387684 
128 1:0.180495 2:-0.120393 3:0.19819 4:-0.305231 5:-0.161662 6:0.0355436 7:-0.884195 8:-0.81253 9:0.00142828 10:0.169913 
128 1:-0.530559 2:0.143736 3:0.334806 4:-0.524924 5:-0.196386 6:0.262002 7:-0.918865 8:-0.736167 9:0.24884 10:0.14576 
128 1:0.0515127 2:-0.203958 3:0.0215243 4:0.11101 5:0.236948 6:-0.188524 7:-0.938554 8:-0.884986 9:0.0257272 10:0.231886 
128 1:0.0721967 2:0.123483 3:0.177919 4:0.389283 5:0.000657463 6:0.145135 7:-0.838669 8:-0.841306 9:0.137687 10:0.110317 
128 1:0.179425 2:-0.229998 3:0.0490465 4:0.44251 5:0.411478 6:-0.05126 7:-0.957971 8:-0.0985096 9:0.0451481 10:0.27017 
30.05134718267852 1:0.0381914 2:-0.0326116 3:-0.336015 4:0.404485 5:-0.251526 6:-0.500968 7:-0.558747 8:-0.846305 9:-0.279727 10:0.059716 
128 1:0.0392337 2:-0.0871196 3:-0.204054 4:0.515137 5:0.230818 6:-0.0123196 7:-0.975794 8:-0.565419 9:0.0303451 10:0.194364 
128 1:0.0960173 2:0.412451 3:0.174434 4:0.01159 5:0.168377 6:0.123324 7:-0.687475 8:-0.377143 9:0.237953 10:0.0484512 
128 1:-0.0272998 2:-0.0177035 3:0.238755 4:0.028762 5:0.286018 6:0.016152 7:-0.716124 8:-0.897724 9:-0.283499 10:0.0108547 
128 1:-0.195022 2:0.329304 3:0.432134 4:0.406037 5:-0.180301 6:-0.217888 7:-0.993761 8:-0.820924 9:0.291975 10:0.287581 
128 1:-0.249615 2:0.0730206 3:-0.080379 4:0.138927 5:0.0399843 6:-0.0216187 7:-0.806734 8:-0.229427 9:-0.0597743 10:0.0406569 
128 1:-0.204559 2:-0.185518 3:0.25914 4:0.00468547 5:0.368332 6:0.443873 7:-0.952285 8:-0.503618 9:0.240476 10:-0.00871794 
128 1:-0.151832 2:0.261089 3:0.262524 4:0.00494414 5:-0.0505291 6:0.403058 7:-0.910958 8:-0.955485 9:0.444142 10:0.306358 
128 1:-0.277929 2:0.210921 3:0.630162 4:0.542059 5:0.312067 6:-0.236264 7:-0.991321 8:-0.521789 9:0.207592 10:0.369831 
128 1:0.173568 2:0.365422 3:0.419703 4:0.047267 5:-0.244867 6:-0.076371 7:-0.839448 8:-0.738944 9:0.121323 10:0.0688687 
54.26624569879796 1:-0.0677271 2:0.081431 3:0.217962 4:0.132261 5:0.00081744 6:-0.391101 7:-0.794061 8:0.195797 9:-0.328897 10:0.0571069 
128 1:-0.511296 2:0.380919 3:0.184947 4:0.0165347 5:0.0267999 6:-0.0126253 7:-0.926922 8:-0.16721 9:-0.033212 10:0.12357 
128 1:-0.484187 2:0.319324 3:0.315461 4:-0.0952519 5:-0.168906 6:0.0441006 7:-0.881018 8:-0.849366 9:0.649799 10:0.0328378 
128 1:-0.0711615 2:0.522448 3:0.163377 4:0.48341 5:-0.500769 6:-0.452983 7:-0.526974 8:-0.902483 9:0.201491 10:0.111319 
63.4205712771639 1:0.127621 2:0.112375 3:0.113383 4:0.549073 5:0.266881 6:0.652789 7:-0.974155 8:-0.11144 9:-0.296663 10:0.309307 
128 1:-0.0516498 2:0.590834 3:0.0430877 4:-0.300628 5:-0.214833 6:-0.0890254 7:-0.79036 8:-0.748571 9:0.11305 10:0.0973953 
128 1:0.346419 2:-0.144987 3:0.0653688 4:-0.00387065 5:-0.371795 6:0.188658 7:-0.810094 8:-0.499926 9:-0.183728 10:0.0431335 
128 1:-0.414416 2:0.0605154 3:0.403269 4:0.0507691 5:0.23187 6:-0.257424 7:-0.690145 8:-0.815788 9:0.181121 10:0.0395967 
128 1:-0.253401 2:0.0503886 3:0.0127883 4:0.361684 5:0.29868 6:0.365432 7:-0.870784 8:-0.900618 9:0.125837 10:0.274726 
128 1:-0.248192 2:0.260648 3:-0.0317437 4:-0.0846762 5:-0.125981 6:-0.0087611 7:-0.901565 8:-0.757627 9:0.57058 10:0.326403 
128 1:-0.0356505 2:0.098031 3:0.410617 4:0.58091 5:0.557549 6:-0.420272 7:-0.995793 8:-0.589059 9:-0.216208 10:0.539168 
128 1:0.113754 2:-0.149891 3:0.22585 4:0.189159 5:0.478341 6:-0.023004 7:-0.634949 8:-0.786723 9:0.0100266 10:0.0403836 
128 1:0.433119 2:-0.101219 3:-0.111191 4:0.511834 5:0.105101 6:-0.582506 7:-0.948091 8:-0.572229 9:0.194181 10:0.408645 
128 1:-0.26556 2:0.259741 3:0.10344 4:0.0999568 5:-0.111603 6:0.3853 7:-0.997875 8:-0.35356 9:0.413704 10:0.243457 
52.45917008234694 1:-0.19489 2:-0.351323 3:-0.10665 4:0.211992 5:0.286205 6:-0.367269 7:-0.716874 8:-0.792587 9:0.072595 10:0.145155 
128 1:-0.135854 2:-0.175784 3:-0.0143797 4:-0.106882 5:0.357208 6:0.500802 7:-0.955758 8:-0.995587 9:0.447655 10:0.0741864 
128 1:-0.422856 2:-0.108991 3:-0.150541 4:-0.454348 5:-0.438713 6:0.123663 7:-0.762653 8:-0.802759 9:0.121336 10:-0.530315 
128 1:-0.11746 2:-0.164505 3:-0.543372 4:-0.577929 5:-0.332501 6:0.287106 7:-0.81204 8:-0.822623 9:-0.472619 10:-0.362043 
128 1:0.103855 2:-0.209646 3:-0.101561 4:-0.0888746 5:-0.356101 6:0.016493 7:-0.663135 8:-0.629646 9:0.215176 10:-0.486825 
128 1:0.134046 2:-0.10649 3:-0.00492206 4:-0.473197 5:-0.354494 6:0.540627 7:-0.854759 8:-0.561513 9:-0.129796 10:-0.328254 
128 1:0.000200908 2:-0.48047 3:-0.600393 4:-0.551449 5:-0.698626 6:0.0802952 7:-0.805044 8:-0.75859 9:0.240125 10:-0.223971 
128 1:-0.0589818 2:-0.0270701 3:-0.199026 4:-0.0743093 5:-0.142313 6:0.35926 7:-0.851348 8:-0.620163 9:-0.146785 10:-0.464664 
128 1:0.246651 2:-0.151019 3:-0.114928 4:-0.210849 5:-0.225223 6:0.385053 7:-0.761494 8:-0.856548 9:0.0588846 10:-0.578546 
128 1:0.0171622 2:0.135939 3:-0.371645 4:-0.705532 5:-0.585718 6:-0.0368493 7:-0.676832 8:-0.787163 9:-0.0733287 10:-0.467733 
128 1:-0.0176444 2:-0.199323 3:-0.401386 4:-0.336518 5:-0.304525 6:-0.0205268 7:-0.723587 8:-0.557915 9:-0.312728 10:-0.673872 
128 1:-0.0795594 2:-0.327857 3:-0.342069 4:-0.229603 5:-0.374674 6:0.189337 7:-0.965344 8:-0.878263 9:0.0372913 10:-0.443717 
128 1:0.293644 2:0.166319 3:-0.249079 4:-0.0536254 5:-0.362528 6:-0.0131041 7:-0.510219 8:-0.691233 9:-0.362158 10:-0.227399 
117.2827875953068 1:-0.14462 2:0.43192 3:-0.0246195 4:-0.0991817 5:-0.278759 6:-0.320397 7:-0.268612 8:-0.048017 9:-0.307967 10:-0.458519 
128 1:-0.160903 2:0.0166736 3:-0.0808069 4:-0.0760305 5:0.120523 6:0.0214862 7:-0.323952 8:-0.27684 9:0.155313 10:-0.428238 
128 1:-0.0248156 2:-0.299389 3:-0.257864 4:-0.172675 5:-0.268085 6:-0.127658 7:-0.263494 8:-0.208631 9:-0.375835 10:-0.645523 
128 1:0.109755 2:0.0201309 3:-0.206732 4:0.0870729 5:0.00618055 6:-0.0860164 7:-0.26205 8:-0.25389 9:0.0846274 10:-0.537011 
128 1:0.0890399 2:0.150406 3:-0.0885895 4:0.160148 5:-0.0131941 6:0.133798 7:-0.261111 8:-0.0464488 9:-0.162212 10:-0.50046 
128 1:0.138494 2:-0.168526 3:-0.216173 4:0.106841 5:0.0543393 6:-0.121734 7:-0.226502 8:-0.199941 9:0.0187549 10:-0.599531 
128 1:0.17799 2:-0.262144 3:0.0690046 4:-0.0368117 5:0.181202 6:0.0918295 7:-0.24351 8:-0.265179 9:-0.0761774 10:-0.561496 
128 1:0.0439515 2:0.0947944 3:-0.131813 4:-0.171541 5:-0.00213432 6:0.163429 7:-0.261304 8:-0.180219 9:-0.552855 10:-0.568506 
128 1:0.17184 2:-0.269598 3:-0.35339 4:0.0167834 5:-0.431702 6:-0.28659 7:-0.339572 8:-0.216997 9:-0.246309 10:-0.608821 
128 1:-0.0772265 2:0.042297 3:-0.240899 4:0.0412778 5:-0.200794 6:0.170486 7:-0.267954 8:-0.143588 9:-0.0992146 10:-0.560144 
128 1:0.23198 2:0.0120884 3:-0.145371 4:0.0626183 5:0.118938 6:-0.035586 7:-0.237898 8:-0.115304 9:-0.162017 10:-0.677869 
-128 1:0.273551 2:0.141971 3:-0.123115 4:-0.0339762 5:-0.25716 6:0.0127825 7:-0.66153 8:-0.69054 9:-0.10179 10:-0.354816 
-128 1:0.101889 2:-0.145428 3:0.0566328 4:-0.377531 5:-0.490048 6:0.0966707 7:-0.803174 8:-0.715483 9:0.00940218 10:-0.363956 
-128 1:-0.127033 2:0.0289581 3:0.133982 4:0.168525 5:0.0348124 6:-0.255948 7:-0.64664 8:-0.624695 9:-0.155682 10:-0.224033 
-128 1:-0.26084 2:0.246475 3:0.18043 4:-0.470369 5:-0.423217 6:-0.22401 7:-0.908707 8:-0.461171 9:-0.0523858 10:-0.372185 
-128 1:-0.0115226 2:-0.26435 3:-0.159329 4:0.0568578 5:-0.607972 6:-0.554473 7:-0.682061 8:-0.525526 9:-0.419719 10:-0.139614 
-128 1:-0.182467 2:-0.219479 3:0.00260638 4:0.0183951 5:-0.341058 6:-0.569143 7:-0.915997 8:-0.777508 9:0.0319971 10:-0.316509 
-128 1:0.355042 2:-0.503298 3:-0.0122648 4:0.081193 5:0.028903 6:0.0419538 7:-0.532774 8:-0.661214 9:-0.465619 10:0.0219374 
-128 1:0.459911 2:-0.13616 3:0.139027 4:-0.096008 5:-0.101068 6:-0.13457 7:-0.780729 8:-0.360488 9:-0.257548 10:-0.144045 
-128 1:-0.17288 2:0.301989 3:0.0760182 4:0.0171018 5:-0.096415 6:0.141687 7:-0.749693 8:-0.566621 9:-0.0417843 10:-0.0457677 
-128 1:-0.0595041 2:0.189246 3:0.0817386 4:0.167888 5:0.128028 6:-0.0383158 7:-0.943738 8:-0.719336 9:-0.198726 10:-0.225174 
-128 1:0.0319443 2:-0.153103 3:-0.37539 4:-0.575552 5:-0.296091 6:0.437689 7:-0.515839 8:-0.598648 9:-0.171942 10:-0.718852 
-128 1:0.0071854 2:-0.250742 3:-0.758598 4:-0.387188 5:-0.327247 6:0.16271 7:-0.383322 8:-0.394702 9:-0.176716 10:-0.586318 
-128 1:0.214907 2:0.0397224 3:-0.22651 4:0.592431 5:0.00493976 6:-0.130673 7:-0.800445 8:-0.726085 9:0.0451612 10:-0.143532 
-128 1:0.129231 2:-0.0695878 3:-0.0196945 4:0.0728757 5:0.205977 6:0.28066 7:-0.649003 8:-0.557802 9:0.0718275 10:0.19593 
-128 1:0.348194 2:-0.166099 3:-0.126428 4:0.548814 5:0.111384 6:0.00294982 7:-0.710169 8:-0.673016 9:0.0746893 10:-0.408211 
-128 1:-0.10905 2:-0.065493 3:-0.30737 4:-0.0302056 5:-0.114808 6:-0.0370383 7:-0.914754 8:-0.685914 9:-0.135286 10:-0.330729 
-128 1:0.150558 2:0.105632 3:-0.0639078 4:0.274283 5:0.241552 6:0.40645 7:-0.891412 8:-0.555252 9:-0.265327 10:-0.271567 
-128 1:-0.521131 2:0.296104 3:0.0645221 4:-0.0408311 5:-0.197711 6:-0.366476 7:-0.899868 8:-0.81556 9:0.18008 10:-0.298443 
-128 1:-0.0169377 2:0.0437437 3:0.255373 4:-0.343306 5:0.0207345 6:-0.16339 7:-0.600134 8:-0.426334 9:-0.102115 10:-0.596672 
-128 1:0.282663 2:-0.188657 3:-0.0773054 4:-0.214062 5:-0.306848 6:0.194643 7:-0.871891 8:-0.60746 9:0.085616 10:-0.175656 
-128 1:0.031474 2:-0.192041 3:-0.00911755 4:-0.229981 5:-0.103031 6:0.0385437 7:-0.68312 8:-0.573786 9:-0.0983691 10:-0.278755 
-128 1:-0.402198 2:0.206459 3:0.118348 4:0.116611 5:-0.127015 6:-0.437167 7:-0.88253 8:-0.815408 9:0.337607 10:-0.272224 
-128 1:-0.356339 2:0.287277 3:0.183178 4:-0.253838 5:-0.400526 6:0.064236 7:-0.821196 8:-0.60014 9:0.215176 10:-0.199423 
-128 1:0.0306112 2:-0.291151 3:0.0059841 4:0.135156 5:0.0544602 6:0.132858 7:-0.973685 8:-0.744359 9:-0.222712 10:0.253786 
-128 1:0.76586 2:-0.108452 3:-0.502608 4:-0.456973 5:-0.559607 6:-0.301737 7:-0.684659 8:-0.628395 9:-0.219304 10:-0.406544 
-128 1:-0.528096 2:0.0920236 3:0.383819 4:0.0232204 5:0.108534 6:0.0822441 7:-0.925759 8:-0.596494 9:0.305048 10:0.10972 
-128 1:-0.266848 2:0.364784 3:0.315777 4:-0.321012 5:-0.450597 6:0.202677 7:-0.828784 8:-0.670511 9:0.227741 10:-0.450815 
-128 1:0.35312 2:-0.148395 3:0.0706929 4:0.185667 5:-0.229884 6:-0.0477545 7:-0.943976 8:-0.765209 9:0.219702 10:-0.0975695 
-128 1:-0.050832 2:-0.228281 3:-0.191566 4:0.158327 5:0.0248568 6:0.0536965 7:-0.907108 8:-0.782836 9:0.291949 10:-0.304866 
-128 1:0.0769807 2:0.167741 3:-0.37981 4:-0.533179 5:-0.619233 6:-0.0496274 7:-0.516669 8:-0.418983 9:-0.267837 10:-0.535911 
-128 1:-0.429793 2:0.404213 3:0.200382 4:0.0029444 5:-0.15544 6:-0.145705 7:-0.790456 8:-0.587874 9:0.29965 10:-0.366809 
-128 1:-0.304567 2:0.213471 3:0.152752 4:0.358441 5:0.0682728 6:-0.377646 7:-0.890589 8:-0.497101 9:0.441242 10:0.013994 
-128 1:-0.21533 2:-0.0414143 3:0.110005 4:-0.0810448 5:-0.0376451 6:-0.479016 7:-0.871942 8:-0.771682 9:0.352904 10:-0.285428 
-128 1:-0.308398 2:-0.279896 3:-0.116904 4:-0.133247 5:-0.632817 6:-0.41133 7:-0.683191 8:-0.725144 9:0.110305 10:-0.625267 
-128 1:0.346979 2:-0.525513 3:-0.853003 4:-0.013551 5:-0.0652508 6:0.00947139 7:-0.640475 8:-0.449307 9:-0.21133 10:-0.326574 
-128 1:0.0477593 2:0.0025746 3:-0.332807 4:0.287913 5:0.179409 6:-0.0373122 7:-0.779564 8:-0.832612 9:0.135788 10:-0.201759 
-128 1:-0.245554 2:0.466518 3:0.300173 4:-0.0891034 5:-0.0622913 6:-0.497342 7:-0.72664 8:-0.475121 9:0.322023 10:-0.379564 
-128 1:0.0572398 2:0.152294 3:-0.00105183 4:-0.105937 5:-0.254598 6:0.103839 7:-0.560007 8:-0.634709 9:-0.039651 10:-0.0640068 
-128 1:-0.277988 2:0.0436211 3:-0.106396 4:-0.422746 5:-0.487549 6:-0.435989 7:-0.720908 8:-0.449274 9:-0.0272544 10:-0.55339 
-128 1:0.00647395 2:0.305789 3:0.16012 4:0.14222 5:-0.0975816 6:-0.308513 7:-0.68219 8:-0.487529 9:-0.105042 10:-0.340274 
-128 1:-0.346395 2:0.0132163 3:-0.241294 4:-0.0479048 5:-0.020475 6:0.0367839 7:-0.680293 8:-0.582348 9:0.353828 10:-0.333987 
-128 1:0.0184315 2:-0.196405 3:-0.448771 4:-0.488782 5:-0.239005 6:-0.228738 7:-0.783197 8:-0.649474 9:-0.240585 10:-0.525536 
-0.1300866379125332 1:-0.166382 2:0.130275 3:0.118667 4:-0.426168 5:-0.617555 6:-0.471109 7:-0.874457 8:-0.685302 9:-0.222582 10:-0.459267 
-128 1:0.243729 2:0.138783 3:-0.0887449 4:0.110682 5:-0.166756 6:0.0104149 7:-0.714892 8:-0.269147 9:-0.0301421 10:-0.0661024 
-128 1:0.0213837 2:-0.0916804 3:-0.157823 4:0.0878787 5:-0.0830823 6:-0.509452 7:-0.767549 8:-0.582461 9:0.271331 10:-0.369014 
-128 1:0.0353456 2:-0.119486 3:-0.326595 4:-0.193747 5:-0.498059 6:-0.0325558 7:-0.826404 8:-0.747458 9:0.235091 10:-0.334206 
-128 1:-0.0656684 2:-0.357992 3:-0.376677 4:0.146578 5:-0.333127 6:-0.396158 7:-0.693825 8:-0.827479 9:0.0201078 10:-0.580753 
-128 1:0.132878 2:0.392149 3:-0.151964 4:-0.0426119 5:0.0694297 6:-0.0247444 7:-0.694237 8:-0.482561 9:-0.102389 10:-0.46204 
-128 1:-0.369136 2:-0.0510997 3:0.22045 4:0.0827948 5:-0.0132975 6:-0.0861366 7:-0.929828 8:-0.794337 9:-0.0695303 10:-0.167147 
-128 1:-0.14783 2:-0.53282 3:-0.030735 4:0.493647 5:-0.0467677 6:-0.227055 7:-0.890507 8:-0.561372 9:0.0553724 10:-0.275114 
-128 1:-0.510866 2:0.0667925 3:-0.019094 4:-0.47294 5:-0.225668 6:-0.256795 7:-0.918665 8:-0.586282 9:0.287149 10:-0.438914 
-128 1:0.200111 2:-0.218964 3:-0.218191 4:-0.572836 5:-0.340238 6:-0.045371 7:-0.582237 8:-0.518415 9:-0.0368022 10:-0.442151 
-128 1:0.253077 2:-0.287277 3:-0.294137 4:0.0528484 5:-0.640028 6:0.114516 7:-0.700916 8:-0.664448 9:-0.427958 10:-0.368999 
-128 1:-0.249227 2:-0.244465 3:-0.0229511 4:0.0462721 5:-0.166775 6:-0.321958 7:-0.842273 8:-0.598248 9:-0.265301 10:-0.176693 
-128 1:0.0396403 2:0.57649 3:0.00413393 4:-0.011412 5:0.0269853 6:0.335407 7:-0.745107 8:-0.613572 9:0.231787 10:-0.319267 
-128 1:0.0411648 2:-0.00529632 3:-0.29759 4:0.23768 5:-0.0513895 6:-0.0566278 7:-0.7721 8:-0.588179 9:-0.0384672 10:-0.210415 
-128 1:-0.0858443 2:-0.141579 3:-0.0370572 4:0.0295678 5:0.000554064 6:0.0836841 7:-0.856315 8:-0.942344 9:-0.108775 10:-0.0264021 
-128 1:-0.358939 2:-0.0601231 3:-0.130941 4:-0.416099 5:-0.621933 6:-0.0735334 7:-0.521278 8:-0.525522 9:-0.0498622 10:-0.405141 
-128 1:0.0406708 2:-0.0711571 3:-0.232465 4:-0.049616 5:-0.154711 6:0.038754 7:-0.754986 8:-0.850217 9:-0.286283 10:-0.450382 
-128 1:0.194176 2:0.189246 3:0.0598934 4:-0.168765 5:-0.253385 6:-0.17341 7:-0.539212 8:-0.569102 9:-0.110675 10:-0.53093 
-128 1:-0.0632339 2:0.211191 3:0.145486 4:0.297822 5:0.146488 6:0.0299355 7:-0.753139 8:-0.590374 9:-0.0495501 10:-0.179244 
-128 1:0.399499 2:-0.276635 3:-0.420207 4:0.0576438 5:-0.0406106 6:0.013643 7:-0.793447 8:-0.645554 9:0.0434441 10:-0.434346 
-128 1:-0.153711 2:-0.340264 3:-0.411169 4:0.389681 5:0.282458 6:-0.0778446 7:-0.850667 8:-0.694964 9:-0.13072 10:-0.326525 
-128 1:-0.162856 2:-0.114901 3:-0.160679 4:-0.483096 5:-0.547761 6:0.0364111 7:-0.959879 8:-0.576295 9:-0.202004 10:-0.483344 
-128 1:-0.324986 2:0.0155457 3:-0.0770816 4:0.153373 5:0.41485 6:0.0419309 7:-0.992424 8:-0.685289 9:0.0208102 10:-0.0279262 
-128 1:0.237652 2:-0.315622 3:0.014566 4:-0.0865963 5:-0.356741 6:0.0123726 7:-0.820429 8:-0.502631 9:-0.516745 10:-0.463674 
-128 1:-0.0286305 2:-0.0475198 3:0.365844 4:0.195397 5:0.309579 6:0.332251 7:-0.909196 8:-0.727353 9:-0.0939463 10:-0.257128 
-128 1:0.057755 2:0.0132899 3:-0.27972 4:-0.193369 5:-0.133604 6:-0.119062 7:-0.709837 8:-0.47819 9:-0.477392 10:-0.122037 
-128 1:-0.0106127 2:-0.134811 3:-0.174174 4:-0.00133366 5:-0.124222 6:0.0858892 7:-0.991551 8:-0.795764 9:-0.00637652 10:-0.236021 
-128 1:0.431214 2:0.316014 3:0.215525 4:0.319331 5:0.194301 6:-0.198788 7:-0.977255 8:-0.735666 9:0.220964 10:0.117904 
-128 1:-0.20662 2:0.416448 3:0.477566 4:-0.0876011 5:-0.139618 6:-0.0766784 7:-0.886641 8:-0.996579 9:0.212314 10:-0.0719088 
-128 1:-0.246559 2:0.278523 3:0.0501368 4:0.23777 5:0.227765 6:0.091886 7:-0.553256 8:-0.598864 9:0.156835 10:-0.464935 
-128 1:-0.0872837 2:-0.186499 3:-0.0164735 4:0.30216 5:0.103187 6:0.166187 7:-0.96342 8:-0.880685 9:0.126097 10:-0.162218 
-128 1:0.0823367 2:-0.210848 3:-0.451693 4:0.605772 5:0.377655 6:0.142991 7:-0.727207 8:-0.642289 9:0.162766 10:-0.236256 
-128 1:-0.340028 2:0.269254 3:0.244799 4:0.482922 5:0.0620337 6:-0.149967 7:-0.704163 8:-0.620228 9:-0.0554297 10:-0.411844 
-128 1:-0.261849 2:-0.0867273 3:-0.33832 4:-0.285675 5:0.0610388 6:0.439826 7:-0.463143 8:-0.604246 9:-0.101062 10:-0.715002 
-128 1:-0.281864 2:0.47586 3:0.0618002 4:0.121466 5:-0.083254 6:0.126579 7:-0.99463 8:-0.832705 9:0.00479735 10:-0.0914152 
-128 1:0.0352037 2:0.0821666 3:0.219107 4:-0.176107 5:-0.194014 6:-0.127324 7:-0.853594 8:-0.596032 9:-0.366979 10:-0.274593 
-128 1:-0.371417 2:-0.103131 3:0.167201 4:-0.207635 5:-0.116966 6:0.445039 7:-0.764479 8:-0.306607 9:-0.23615 10:-0.553616 
-128 1:0.209412 2:-0.192605 3:-0.151635 4:-0.0772144 5:-0.2563 6:0.170094 7:-0.824303 8:-0.675403 9:-0.0956374 10:-0.17797 
-128 1:-0.120188 2:0.0770174 3:-0.0680954 4:0.455801 5:0.333106 6:-0.0172492 7:-0.663106 8:-0.315526 9:-0.327427 10:-0.291283 
-128 1:-0.0644346 2:-0.201628 3:-0.144369 4:-0.201517 5:-0.570903 6:0.105035 7:-0.744893 8:-0.516747 9:-0.333059 10:-0.176629 
-128 1:-0.627153 2:0.0906015 3:0.00731017 4:-0.122542 5:-0.0916859 6:-0.1189 7:-0.651955 8:-0.675808 9:0.321386 10:-0.356231 
-128 1:0.356415 2:0.158326 3:0.0450617 4:-0.231404 5:-0.202452 6:-0.0123496 7:-0.894594 8:-0.636234 9:-0.250003 10:-0.327797 
-128 1:0.0219769 2:-0.213496 3:0.140643 4:0.0222752 5:-0.14028 6:0.0938349 7:-0.90286 8:-0.706618 9:0.0764194 10:-0.194492 
-128 1:0.0256004 2:0.0278057 3:-0.274507 4:-0.168924 5:0.179868 6:0.00212115 7:-0.672207 8:-0.267936 9:-0.351164 10:-0.460236 
-128 1:-0.282471 2:0.426575 3:0.12892 4:-0.118393 5:-0.103122 6:-0.117078 7:-0.74961 8:-0.476504 9:-0.213711 10:-0.103715 
-128 1:0.0749196 2:0.0818723 3:0.259785 4:0.172166 5:0.271554 6:-0.186628 7:-0.539818 8:-0.571351 9:0.231175 10:-0.488722 
-128 1:0.234488 2:-0.386288 3:-0.353536 4:0.302458 5:0.0969944 6:0.10535 7:-0.626794 8:-0.566466 9:-0.188606 10:-0.58623 
-128 1:-0.166068 2:0.275556 3:-0.284292 4:-0.52542 5:-0.54245 6:0.134378 7:-0.83668 8:-0.693156 9:0.0115875 10:-0.299301 
-128 1:-0.0829252 2:0.222568 3:0.336175 4:-0.28864 5:-0.109305 6:0.146538 7:-0.908707 8:-0.677474 9:0.271318 10:-0.261669 
-128 1:-0.667002 2:-0.0211608 3:0.212628 4:-0.125348 5:-0.0394712 6:-0.433925 7:-0.921626 8:-0.85862 9:0.451453 10:-0.257764 
-128 1:-0.416207 2:0.178162 3:0.106951 4:-0.515683 5:-0.455962 6:-0.178956 7:-0.948334 8:-0.719586 9:0.0913135 10:-0.376677 
-112.8622385590899 1:-0.381696 2:-0.177157 3:-0.107465 4:-0.135495 5:-0.260993 6:-0.0633702 7:-0.848219 8:-0.667687 9:0.218766 10:-0.532554 
-128 1:-0.182805 2:-0.120737 3:-0.0531452 4:0.130082 5:0.211783 6:0.190992 7:-0.786701 8:-0.578935 9:0.148718 10:-0.117159 
-128 1:-0.136991 2:0.319177 3:0.396816 4:0.354869 5:0.0802418 6:0.203822 7:-0.783342 8:-0.696782 9:0.339961 10:-0.291006 
-128 1:0.109426 2:0.0360444 3:0.296525 4:0.393511 5:-0.0801442 6:-0.294928 7:-0.796422 8:-0.576997 9:-0.318685 10:-0.383949 
-128 1:-0.0811927 2:0.213005 3:0.0348363 4:-0.132352 5:-0.030612 6:-0.476131 7:-0.647358 8:-0.491251 9:-0.256273 10:-0.197129 
-128 1:-0.00316725 2:0.0494569 3:-0.254681 4:0.0379648 5:0.176743 6:0.207871 7:-0.659893 8:-0.376222 9:0.039984 10:-0.168555 
-128 1:0.0443131 2:0.219234 3:-0.199538 4:-0.21061 5:-0.721454 6:-0.33537 7:-0.847051 8:-0.788348 9:-0.306497 10:-0.122435 
-128 1:0.233606 2:-0.714955 3:-0.498637 4:-0.292202 5:-0.377298 6:-0.245821 7:-0.90229 8:-0.589148 9:-0.486975 10:-0.250397 
-128 1:0.0444077 2:-0.105412 3:0.074912 4:-0.0113125 5:-0.126904 6:-0.0269547 7:-0.637945 8:-0.503923 9:-0.0257064 10:-0.488414 
-128 1:0.139881 2:-0.0726528 3:-0.0219713 4:-0.0702402 5:-0.163804 6:0.184098 7:-0.623026 8:-0.536495 9:-0.16605 10:-0.273575 
-128 1:-0.185887 2:0.470049 3:0.359418 4:-0.0701109 5:0.117444 6:0.117092 7:-0.866297 8:-0.452731 9:-0.157816 10:-0.183806 
-128 1:-0.344162 2:0.297354 3:0.172898 4:0.0185643 5:0.13559 6:-0.31542 7:-0.933838 8:-0.800391 9:0.288697 10:-0.00471726 
-128 1:-0.022998 2:0.178506 3:0.267897 4:-0.130063 5:0.0504706 6:-0.107647 7:-0.822282 8:-0.64228 9:0.000543734 10:-0.28128 
-128 1:-0.350407 2:0.468063 3:0.284463 4:0.011202 5:-0.0432892 6:-0.498266 7:-0.94093 8:-0.789275 9:0.129219 10:-0.00190933 
-128 1:-0.549031 2:0.530221 3:-0.0258007 4:-0.215734 5:-0.0999715 6:-0.125393 7:-0.870786 8:-0.725824 9:0.317379 10:-0.202642 
-128 1:-0.436936 2:0.214501 3:0.229247 4:0.0975392 5:0.0517153 6:-0.167526 7:-0.878998 8:-0.774443 9:0.092068 10:-0.0996568 
-128 1:-0.160738 2:-0.0100287 3:0.0576297 4:-0.0765379 5:0.0978294 6:0.352145 7:-0.888066 8:-0.769989 9:0.106624 10:-0.395662 
-128 1:-0.0467075 2:0.0828777 3:-0.0751352 4:0.160377 5:-0.40647 6:-0.264546 7:-0.889657 8:-0.692274 9:0.186584 10:-0.122708 
-0.6617018919671647 1:-0.204271 2:-0.00353088 3:0.662425 4:0.44246 5:0.355696 6:-0.13553 7:-0.900504 8:-0.751381 9:0.352774 10:-0.249 
-128 1:-0.546263 2:0.127161 3:-0.108408 4:-0.086855 5:0.20946 6:-0.0850128 7:-0.843602 8:-0.790213 9:0.379272 10:-0.221726 
-128 1:-0.200489 2:-0.00608097 3:-0.214947 4:-0.0506507 5:0.40385 6:0.116956 7:-0.936122 8:-0.720388 9:0.34363 10:-0.153007 
-128 1:0.0531932 2:0.326582 3:0.117583 4:-0.217167 5:-0.486542 6:-0.192814 7:-0.844204 8:-0.492787 9:-0.179461 10:-0.219695 
-126.0583234440035 1:-0.689605 2:0.123213 3:0.253964 4:0.239222 5:0.397252 6:-0.108325 7:-0.977046 8:-0.990212 9:0.0997557 10:-0.188452 
-128 1:-0.24446 2:0.205527 3:-0.13188 4:-0.18342 5:-0.0363439 6:-0.0594866 7:-0.886406 8:-0.688079 9:0.350706 10:-0.329413 
-128 1:-0.230526 2:0.400093 3:0.319873 4:0.338732 5:0.0925365 6:-0.43407 7:-0.995059 8:-0.555099 9:0.250362 10:-0.0102254 
-128 1:-0.191474 2:0.208028 3:-0.0557762 4:0.0686374 5:-0.0649153 6:0.188347 7:-0.76887 8:-0.583535 9:0.247891 10:-0.240356 
-128 1:-0.536901 2:0.411348 3:-0.320301 4:-0.00356223 5:-0.0803471 6:-0.376947 7:-0.932834 8:-0.681325 9:0.287799 10:0.0353227 
-128 1:-0.489706 2:0.240738 3:0.47139 4:0.261886 5:0.065403 6:-0.442314 7:-0.856337 8:-0.839397 9:0.323025 10:-0.232988 
-128 1:-0.13162 2:0.259961 3:0.30199 4:-0.191976 5:-0.151324 6:0.0925468 7:-0.952853 8:-0.651532 9:0.216711 10:-0.218645 
-128 1:-0.136033 2:0.178064 3:0.00792119 4:0.110473 5:0.210931 6:-0.263596 7:-0.904041 8:-0.855077 9:0.303786 10:-0.0377912 
-128 1:-0.37999 2:-0.00637521 3:0.0362848 4:-0.476992 5:0.0587074 6:0.011521 7:-0.938678 8:-0.737731 9:0.486379 10:-0.326718 
-128 1:-0.664019 2:-0.0158645 3:0.429224 4:-0.0441441 5:0.0819586 6:-0.130128 7:-0.957807 8:-0.798815 9:0.457814 10:-0.274841 
-128 1:-0.28462 2:0.0897678 3:-0.117156 4:0.0482321 5:-0.216635 6:-0.0837177 7:-0.880713 8:-0.782826 9:-0.0877675 10:-0.362874 
-128 1:0.220046 2:-0.0111566 3:0.268397 4:0.444539 5:0.140211 6:-0.0388388 7:-0.830651 8:-0.679075 9:0.123391 10:-0.209281 
-128 1:-0.0490309 2:-0.257632 3:-0.178512 4:-0.0914912 5:0.0932876 6:0.0231312 7:-0.883105 8:-0.638954 9:-0.214934 10:-0.269181 
-128 1:-0.48722 2:0.134296 3:-0.273813 4:0.0652349 5:0.196845 6:0.471683 7:-0.895039 8:-0.827622 9:-0.0288283 10:-0.337782 
-128 1:-0.243313 2:-0.41505 3:-0.620629 4:0.376727 5:0.355986 6:0.204145 7:-0.843708 8:-0.739593 9:-0.121393 10:-0.442874 
-128 1:-0.383547 2:-0.171861 3:-0.0470284 4:0.127117 5:0.115671 6:-0.0404449 7:-0.857176 8:-0.614999 9:0.183852 10:-0.415652 
-128 1:0.106034 2:-0.170512 3:0.177191 4:0.262075 5:0.197495 6:-0.0445617 7:-0.865478 8:-0.768966 9:0.434295 10:-0.252691 
-128 1:0.124877 2:-0.184562 3:0.061625 4:0.235959 5:0.165927 6:0.242119 7:-0.82512 8:-0.732506 9:0.210948 10:-0.336152 
-128 1:-0.638574 2:-0.238163 3:0.153907 4:0.202481 5:0.181119 6:0.0851666 7:-0.903748 8:-0.774199 9:0.307389 10:-0.320178 
-128 1:-0.0690342 2:-0.216806 3:0.282698 4:0.268831 5:0.325458 6:-0.290993 7:-0.850527 8:-0.748967 9:-0.0274625 10:-0.250053 
-128 1:-0.171299 2:-0.0937646 3:-0.448856 4:0.123814 5:0.226681 6:0.423412 7:-0.911295 8:-0.716711 9:0.151202 10:-0.3289 
-128 1:0.34124 2:-0.43116 3:0.0871377 4:-0.153931 5:-0.0293791 6:0.245116 7:-0.968432 8:-0.664289 9:0.020524 10:-0.347995 
-128 1:-0.25 2:-0.148174 3:-0.116255 4:0.0828744 5:0.238345 6:0.0446307 7:-0.851826 8:-0.681521 9:-0.112119 10:-0.195834 
-128 1:0.30061 2:-0.148174 3:-0.0750997 4:0.280152 5:-0.164028 6:-0.00676806 7:-0.847824 8:-0.709219 9:-0.0228056 10:-0.344596 
-128 1:0.334748 2:-0.112547 3:0.0296848 4:0.0405216 5:-0.0490971 6:0.0664411 7:-0.960687 8:-0.612997 9:-0.0569386 10:-0.2769 
-128 1:-0.00692777 2:0.0271437 3:-0.0503877 4:0.190652 5:0.098838 6:-0.255848 7:-0.763845 8:-0.552808 9:-0.217015 10:-0.166492 
-128 1:-0.134372 2:0.230954 3:0.139317 4:-0.00370151 5:0.307896 6:0.0914567 7:-0.843598 8:-0.764324 9:0.276664 10:0.0947199 
-128 1:0.0373948 2:0.0252556 3:-0.285945 4:0.0284834 5:-0.061505 6:0.220187 7:-0.718051 8:-0.506207 9:0.0248036 10:-0.433183 
-128 1:0.31949 2:0.0944266 3:-0.178833 4:-0.0401545 5:-0.0976811 6:0.00868866 7:-0.730033 8:-0.73578 9:-0.36991 10:-0.475094 
-128 1:-0.287636 2:-0.443469 3:-0.18451 4:-0.215217 5:-0.224763 6:-0.16542 7:-0.856142 8:-0.63743 9:0.164783 10:-0.464314 
-128 1:0.186256 2:-0.00669397 3:-0.121499 4:-0.267478 5:-0.353946 6:0.0882568 7:-0.710183 8:-0.546124 9:0.0108721 10:-0.307314 
-128 1:-0.0115463 2:-0.146237 3:-0.258932 4:-0.0555157 5:-0.348895 6:0.02549 7:-0.875953 8:-0.650827 9:0.0289792 10:-0.31907 
-128 1:0.30598 2:-0.0635069 3:-0.294666 4:-0.115428 5:-0.55168 6:-0.153213 7:-0.622084 8:-0.386274 9:-0.563876 10:-0.484894 
-128 1:0.587314 2:0.150234 3:-0.0485085 4:0.189756 5:0.156603 6:0.389011 7:-0.775076 8:-0.730522 9:-0.202979 10:-0.0866277 
-128 1:0.26122 2:0.0314592 3:-0.215429 4:-0.0991022 5:-0.211075 6:-0.219287 7:-0.722857 8:-0.396623 9:-0.328767 10:-0.479085 
-128 1:-7.56358e-005 2:0.176373 3:0.216803 4:-0.122005 5:0.181368 6:-0.10306 7:-0.178066 8:-0.0689672 9:0.00305428 10:-0.354338 
-128 1:0.287745 2:-0.099257 3:-0.0834103 4:-0.457447 5:-0.430602 6:-0.144666 7:-0.175868 8:-0.0158392 9:-0.00711797 10:-0.596032 
-128 1:0.306715 2:-0.12748 3:-0.17381 4:-0.294341 5:-0.32818 6:-0.198509 7:-0.320394 8:-0.274435 9:-0.205386 10:-0.36798 
-128 1:0.632906 2:-0.193855 3:-0.0740278 4:-0.185738 5:-0.517018 6:-0.25741 7:-0.0843665 8:0.101318 9:0.0249337 10:-0.480489 
-128 1:0.115401 2:-0.0329549 3:-0.419392 4:-0.297514 5:0.252673 6:-0.170808 7:-0.20296 8:-0.131641 9:-0.109309 10:-0.434392 
-128 1:0.133511 2:0.183459 3:-0.0531926 4:-0.363685 5:0.176752 6:-0.0793129 7:-0.218215 8:-0.176613 9:-0.201692 10:-0.497762 
-128 1:0.261033 2:-0.292058 3:-0.0670801 4:-0.537612 5:-0.146132 6:-0.0145017 7:-0.130677 8:-0.199601 9:0.0858111 10:-0.372675 
-128 1:0.276248 2:-0.130079 3:-0.143614 4:-0.458075 5:-0.0318255 6:0.216264 7:-0.225591 8:-0.137298 9:-0.30426 10:-0.476212 
-128 1:0.278243 2:0.0274624 3:-0.110516 4:-0.215873 5:-0.271571 6:-0.275573 7:-0.333627 8:-0.140499 9:-0.263922 10:-0.31917 
-128 1:0.0255531 2:0.0702499 3:0.122841 4:-0.237333 5:-0.0904705 6:-0.101406 7:-0.268853 8:-0.13366 9:0.177804 10:-0.410076 
-128 1:0.0319136 2:0.270897 3:-0.126369 4:-0.637012 5:-0.313343 6:-0.215596 7:-0.220702 8:-0.218112 9:0.0717495 10:-0.306688 
-128 1:0.340347 2:-0.236422 3:0.0152784 4:-0.191379 5:-0.198981 6:-0.168233 7:-0.237693 8:-0.109151 9:-0.184508 10:-0.388582 
