svm_type c_svc
kernel_type polynomial
degree 2
gamma 8
coef0 1
nr_class 2
total_sv 313
rho 2.03413
label 1 -1
nr_sv 161 152
SV
8 1:-0.0480264 2:0.0383493 3:0.345881 4:0.21443 5:0.0242169 6:0.109652 7:-0.775066 8:-0.617312 9:0.0420522 10:-0.458475 
6.751053654010433 1:0.598936 2:0.183189 3:-0.545561 4:0.0434864 5:-0.379883 6:-0.421702 7:-0.843362 8:-0.378071 9:-0.339095 10:-0.507517 
0.4548409410525447 1:0.277444 2:-0.110291 3:0.149172 4:0.189527 5:0.254025 6:-0.0605132 7:-0.802245 8:-0.659149 9:0.271318 10:-0.0702356 
8 1:0.184818 2:-0.0494814 3:-0.00917681 4:-0.164815 5:-0.474455 6:-0.213453 7:-0.512481 8:-0.561884 9:-0.283031 10:-0.75418 
8 1:0.306524 2:-0.0327342 3:0.319965 4:-0.344039 5:-0.826231 6:-0.343112 7:-0.904128 8:-0.478074 9:-0.244605 10:-0.638645 
8 1:-0.0097712 2:0.0708874 3:-0.00878307 4:-0.454373 5:-0.539286 6:0.115578 7:-0.906122 8:-0.473287 9:-0.0207894 10:-0.1391 
8 1:-0.17288 2:0.301989 3:0.0760182 4:0.0171018 5:-0.096415 6:0.141687 7:-0.749693 8:-0.566621 9:-0.0417843 10:-0.0457677 
7.147859710286739 1:-0.0875272 2:-0.399088 3:0.131664 4:0.250485 5:-0.0801969 6:0.0844616 7:-0.91191 8:-0.762839 9:0.293731 10:-0.279206 
5.388506040416288 1:0.213659 2:-0.37138 3:-0.149545 4:-0.678948 5:-0.122846 6:0.0897287 7:-0.731245 8:-0.785673 9:0.177426 10:-0.315042 
0.3335663119853308 1:-0.197752 2:-0.317216 3:0.100789 4:-0.0817412 5:0.141989 6:-0.179859 7:-0.89527 8:-0.81406 9:0.199982 10:-0.738238 
8 1:-0.121892 2:0.447687 3:-0.0157505 4:-0.225842 5:0.0322079 6:0.0855906 7:-0.65503 8:-0.76143 9:-0.0619597 10:-0.416946 
8 1:0.292656 2:0.212956 3:0.352675 4:0.307602 5:-0.334532 6:-0.181031 7:-0.514266 8:-0.572024 9:-0.0106041 10:-0.228378 
8 1:-0.00534651 2:-0.355712 3:-0.095794 4:-0.279427 5:-0.206613 6:0.100846 7:-0.943455 8:-0.554496 9:-0.108203 10:-0.851118 
8 1:0.354224 2:-0.196209 3:-0.338309 4:0.0549079 5:-0.138175 6:-0.101238 7:-0.484463 8:-0.640738 9:-0.0797156 10:-0.56527 
8 1:-0.237054 2:0.05262 3:-0.076543 4:0.385731 5:-0.0623478 6:0.0390703 7:-0.590946 8:-0.350892 9:0.0249207 10:-0.50242 
8 1:-0.222873 2:-0.0795429 3:0.112391 4:0.0520923 5:-0.156767 6:-0.0257797 7:-0.612421 8:-0.373964 9:0.341171 10:-0.224924 
8 1:0.0524534 2:0.0894 3:0.319912 4:0.0979073 5:0.0963916 6:-0.0335152 7:-0.645926 8:-0.702717 9:-0.0126724 10:-0.591267 
8 1:-0.429793 2:0.404213 3:0.200382 4:0.0029444 5:-0.15544 6:-0.145705 7:-0.790456 8:-0.587874 9:0.29965 10:-0.366809 
8 1:0.0977049 2:-0.198906 3:-0.355655 4:-0.0809552 5:0.00797735 6:0.266279 7:-0.766787 8:-0.616072 9:0.178571 10:-0.685227 
8 1:-0.304567 2:0.213471 3:0.152752 4:0.358441 5:0.0682728 6:-0.377646 7:-0.890589 8:-0.497101 9:0.441242 10:0.013994 
8 1:0.00316961 2:-0.0461222 3:-0.17212 4:0.052729 5:0.0591717 6:-0.174248 7:-0.563067 8:-0.629639 9:0.221029 10:-0.588502 
0.1025177954967475 1:-0.222771 2:-0.281098 3:-0.413386 4:-0.435328 5:-0.0694375 6:0.422829 7:-0.893233 8:-0.817133 9:-0.0616475 10:-0.767441 
0.3055206607773655 1:0.0198213 2:-0.469191 3:0.443235 4:-0.15021 5:-0.335693 6:-0.505537 7:-0.929898 8:-0.889612 9:-0.128248 10:-0.418425 
8 1:0.298036 2:-0.256945 3:-0.229173 4:-0.382092 5:-0.392102 6:0.0178765 7:-0.793366 8:-0.560024 9:-0.225808 10:-0.654221 
8 1:-0.0876525 2:0.14381 3:-0.193835 4:-0.18136 5:-0.0116373 6:-0.210789 7:-0.528567 8:-0.705553 9:0.122208 10:-0.261608 
8 1:-0.166382 2:0.130275 3:0.118667 4:-0.426168 5:-0.617555 6:-0.471109 7:-0.874457 8:-0.685302 9:-0.222582 10:-0.459267 
8 1:0.0161199 2:0.428904 3:-0.119122 4:-0.107151 5:-0.252965 6:0.00300282 7:-0.688442 8:-0.434684 9:-0.133751 10:-0.20214 
4.614270249798227 1:-0.0563156 2:-0.247579 3:-0.452201 4:-0.0473377 5:0.0987327 6:0.0452508 7:-0.785665 8:-0.635914 9:-0.0599564 10:-0.594195 
8 1:0.137073 2:-0.0805483 3:-0.618124 4:-0.200124 5:-0.360655 6:-0.357032 7:-0.470977 8:-0.545697 9:-0.132944 10:-0.657153 
8 1:-0.317616 2:0.492779 3:0.464107 4:-0.182972 5:-0.0804973 6:-0.0520251 7:-0.802348 8:-0.701474 9:0.0419352 10:-0.210908 
8 1:0.0330127 2:0.0592649 3:-0.22897 4:-0.665555 5:-0.481634 6:0.106028 7:-0.918961 8:-0.413973 9:-0.0897578 10:-0.237726 
8 1:-0.153432 2:0.155874 3:0.145308 4:0.222399 5:0.338919 6:-0.276593 7:-0.538149 8:-0.586724 9:-0.250563 10:-0.287868 
8 1:-0.0858443 2:-0.141579 3:-0.0370572 4:0.0295678 5:0.000554064 6:0.0836841 7:-0.856315 8:-0.942344 9:-0.108775 10:-0.0264021 
8 1:-0.115068 2:0.206189 3:0.39521 4:-0.205845 5:-0.102365 6:-0.142786 7:-0.737834 8:-0.67558 9:0.0474245 10:-0.512251 
5.398570141665263 1:-0.126699 2:-0.196798 3:0.139675 4:0.373941 5:0.382589 6:0.124254 7:-0.96627 8:-0.659192 9:-0.128535 10:-0.103657 
8 1:0.07318 2:0.341883 3:0.188303 4:0.127456 5:-0.110489 6:-0.368971 7:-0.875941 8:-0.784557 9:0.0236069 10:-0.0160649 
8 1:0.31318 2:0.373097 3:0.00280127 4:-0.0654746 5:-0.397092 6:0.059946 7:-0.847765 8:-0.489049 9:0.260404 10:0.222758 
8 1:-0.246523 2:0.222102 3:-0.166036 4:-0.0791346 5:0.156667 6:-0.436436 7:-0.432352 8:-0.600142 9:-0.02503 10:-0.446922 
8 1:0.153555 2:-0.0508545 3:-0.268282 4:-0.513193 5:-0.522685 6:-0.581237 7:-0.851156 8:-0.487572 9:-0.153523 10:-0.690737 
8 1:-0.189283 2:0.0346468 3:-0.185636 4:0.273636 5:0.0263941 6:-0.0762261 7:-0.495373 8:-0.756364 9:-0.13911 10:-0.610853 
8 1:-0.275778 2:0.377633 3:-0.169451 4:0.0327714 5:-0.13837 6:-0.1715 7:-0.878069 8:-0.343713 9:0.332573 10:-0.269862 
8 1:-0.310799 2:0.198686 3:-0.0449952 4:-0.458168 5:-0.0970217 6:0.0517371 7:-0.735518 8:-0.642012 9:0.00663148 10:-0.613998 
8 1:-0.00594923 2:-0.0691465 3:-0.20533 4:0.0645484 5:-0.138434 6:-0.302948 7:-0.600364 8:-0.628838 9:-0.130499 10:-0.661956 
2.357829462831062 1:0.574785 2:-0.482824 3:-0.585578 4:-0.110374 5:-0.333724 6:-0.467379 7:-0.730323 8:-0.908231 9:-0.0157943 10:-0.243992 
8 1:-0.159436 2:0.119118 3:0.0817557 4:0.398545 5:0.185229 6:0.0696992 7:-0.995648 8:-0.702537 9:0.448539 10:-0.256605 
8 1:0.0823367 2:-0.210848 3:-0.451693 4:0.605772 5:0.377655 6:0.142991 7:-0.727207 8:-0.642289 9:0.162766 10:-0.236256 
8 1:0.125976 2:-0.346051 3:-0.321547 4:-0.175063 5:-0.11125 6:0.0392558 7:-0.544271 8:-0.516043 9:0.201999 10:-0.894081 
8 1:-0.422681 2:0.286492 3:-0.0198578 4:-0.380957 5:-0.204284 6:-0.04597 7:-0.888683 8:-0.690656 9:0.179456 10:-0.337066 
1.496034502617934 1:0.185695 2:0.261016 3:0.0156116 4:-0.225146 5:-0.313436 6:0.00194446 7:-0.808012 8:-0.544736 9:-0.0166789 10:-0.264842 
8 1:-0.00720195 2:-0.0280509 3:0.17365 4:0.207933 5:0.0369838 6:0.14819 7:-0.899042 8:-0.705107 9:0.347961 10:-0.198662 
8 1:-0.201846 2:0.190619 3:0.0799134 4:-0.17363 5:-0.229067 6:-0.233205 7:-0.85566 8:-0.624952 9:0.138962 10:-0.0812851 
8 1:-0.351794 2:0.288625 3:0.244918 4:-0.295266 5:-0.394656 6:-0.198825 7:-0.956441 8:-0.958857 9:-0.102415 10:-0.4087 
8 1:0.500752 2:-0.353579 3:-0.546771 4:-0.186345 5:-0.177821 6:-0.0158569 7:-0.954778 8:-0.551715 9:-0.0871171 10:-0.530302 
8 1:0.115309 2:0.0766986 3:-0.00351171 4:0.186324 5:0.159742 6:0.0448303 7:-0.646329 8:-0.68897 9:0.0501042 10:-0.136185 
6.587903338569688 1:0.249201 2:0.084496 3:-0.0917934 4:0.412454 5:0.308822 6:0.489865 7:-0.852694 8:-0.780498 9:0.382471 10:-0.142703 
8 1:0.234488 2:-0.386288 3:-0.353536 4:0.302458 5:0.0969944 6:0.10535 7:-0.626794 8:-0.566466 9:-0.188606 10:-0.58623 
3.944763245900794 1:0.43201 2:-0.0105436 3:-0.297445 4:0.274531 5:0.0517504 6:-0.161683 7:-0.910476 8:-0.909425 9:-0.00315054 10:-0.235419 
0.9350170046136587 1:0.362617 2:-0.0666699 3:-0.278707 4:-0.269627 5:-0.56188 6:-0.358905 7:-0.954541 8:-0.489117 9:-0.0433452 10:-0.620404 
8 1:-0.00686395 2:0.0750313 3:0.0938194 4:0.0114408 5:0.286049 6:0.402704 7:-0.704353 8:-0.776693 9:-0.255428 10:-0.437848 
1.663385380615568 1:0.298303 2:-0.440036 3:-0.0152593 4:0.1246 5:-0.0315465 6:0.3346 7:-0.603718 8:-0.574682 9:0.0843282 10:-0.507294 
8 1:0.100567 2:-0.675968 3:-0.510183 4:0.193586 5:0.210812 6:0.0874759 7:-0.82257 8:-0.71829 9:0.128972 10:-0.761721 
0.2203547652552298 1:-0.0712277 2:0.149866 3:-0.161451 4:-0.202064 5:-0.0726643 6:-0.198958 7:-0.724358 8:-0.597041 9:0.161401 10:-0.58198 
8 1:-0.0526733 2:0.201015 3:0.0451973 4:0.263448 5:-0.240632 6:-0.123112 7:-0.785057 8:-0.436187 9:0.0882046 10:-0.515959 
2.050454951081765 1:-0.516188 2:0.0330285 3:0.108759 4:-0.17552 5:0.107367 6:-0.0336177 7:-0.770791 8:-0.831918 9:0.246018 10:-0.672509 
8 1:0.0871348 2:-0.404237 3:-0.0652273 4:0.164426 5:0.228271 6:0.0334834 7:-0.854435 8:-0.650628 9:-0.0546232 10:-0.00402149 
8 1:0.212121 2:-0.0516882 3:-0.314615 4:0.192751 5:-0.0214407 6:-0.388974 7:-0.52184 8:-0.400167 9:-0.620725 10:-0.904732 
8 1:-0.181748 2:0.105926 3:0.609211 4:0.550486 5:0.0507574 6:-0.193821 7:-0.706685 8:-0.58142 9:-0.0607499 10:-0.233782 
8 1:0.0897324 2:0.0255499 3:-0.145903 4:0.0539428 5:-0.201555 6:-0.312941 7:-0.608755 8:-0.476449 9:-0.0770099 10:-0.349204 
8 1:0.0178359 2:0.218057 3:-0.145534 4:-0.429399 5:-0.333574 6:-0.499293 7:-0.976379 8:-0.699579 9:-0.118714 10:-0.399539 
8 1:-0.414659 2:0.207194 3:0.325377 4:-0.387007 5:0.162883 6:0.387244 7:-0.885822 8:-0.453319 9:0.393073 10:-0.103268 
5.692175525393195 1:-0.305985 2:0.164333 3:0.393932 4:0.0486997 5:0.145003 6:0.199975 7:-0.935972 8:-0.782787 9:0.373028 10:-0.431172 
8 1:-0.385012 2:0.278891 3:0.122345 4:-0.120861 5:0.149939 6:0.0726764 7:-0.90675 8:-0.654133 9:-0.047885 10:-0.105148 
8 1:-0.491687 2:0.0807199 3:0.133147 4:0.315252 5:0.0502345 6:-0.456115 7:-0.999583 8:-0.786571 9:0.56206 10:-0.0168353 
8 1:-0.546223 2:0.0815045 3:0.0146332 4:-0.409051 5:-0.134156 6:0.0379801 7:-0.887988 8:-0.619622 9:-0.122525 10:-0.409603 
8 1:-0.502905 2:0.252041 3:0.37206 4:0.233273 5:0.223235 6:0.109647 7:-0.811245 8:-0.605611 9:0.242636 10:-0.719803 
1.050973737129353 1:-0.49276 2:0.205968 3:-0.268423 4:-0.18929 5:-0.088225 6:-0.000124565 7:-0.98498 8:-0.840272 9:0.400383 10:-0.75777 
8 1:-0.574201 2:0.409582 3:0.33449 4:-0.205079 5:-0.073314 6:0.148154 7:-0.956138 8:-0.63141 9:0.175293 10:-0.305162 
8 1:-0.35017 2:-0.0385455 3:0.275771 4:-0.09562 5:0.0221587 6:0.12399 7:-0.883384 8:-0.78402 9:0.268508 10:-0.237679 
8 1:0.0531932 2:0.326582 3:0.117583 4:-0.217167 5:-0.486542 6:-0.192814 7:-0.844204 8:-0.492787 9:-0.179461 10:-0.219695 
8 1:-0.71638 2:-0.071623 3:0.0348613 4:-0.230836 5:-0.168305 6:-0.0381745 7:-0.9988 8:-0.72536 9:0.233075 10:-0.050547 
8 1:-0.172736 2:-0.133266 3:-0.389345 4:0.155442 5:0.0397522 6:-0.450278 7:-0.778459 8:-0.725029 9:0.270551 10:0.0488819 
8 1:-0.13162 2:0.259961 3:0.30199 4:-0.191976 5:-0.151324 6:0.0925468 7:-0.952853 8:-0.651532 9:0.216711 10:-0.218645 
8 1:-0.329011 2:0.316382 3:0.314987 4:-0.145285 5:0.0494093 6:-0.264958 7:-0.906415 8:-0.733863 9:0.0152558 10:-0.466995 
8 1:-0.41136 2:0.0497021 3:-0.332624 4:-0.205287 5:0.0285753 6:-0.14458 7:-0.980195 8:-0.984063 9:0.330791 10:-0.258633 
0.2090365198894905 1:-0.200052 2:0.171861 3:-0.225177 4:0.236506 5:0.0378266 6:-0.60867 7:-0.911268 8:-0.911911 9:0.247019 10:-0.0149053 
8 1:-0.413085 2:-0.0262119 3:-0.295538 4:-0.0149936 5:0.299591 6:0.0580714 7:-0.976364 8:-0.806994 9:0.429365 10:-0.978369 
4.76597455098586 1:-0.0500449 2:-0.0954074 3:0.12465 4:0.513436 5:0.224595 6:0.12737 7:-0.883658 8:-0.729988 9:0.180223 10:-0.456805 
8 1:-0.185875 2:-0.269965 3:-0.325216 4:0.0188727 5:0.412429 6:0.080532 7:-0.876972 8:-0.711869 9:0.258336 10:-0.440882 
8 1:0.243304 2:-0.352966 3:0.208322 4:0.202013 5:0.387353 6:0.497851 7:-0.798712 8:-0.56155 9:-0.0173162 10:-0.488887 
8 1:-0.300421 2:-0.482701 3:-0.0894784 4:0.180334 5:0.182746 6:0.205582 7:-0.910607 8:-0.798659 9:0.0375255 10:-0.689542 
8 1:0.0668762 2:-0.126474 3:0.080639 4:0.218668 5:0.425804 6:0.353558 7:-0.991601 8:-0.904041 9:0.000777878 10:-0.0518143 
3.167063702112007 1:0.154604 2:-0.315205 3:-0.341134 4:0.155522 5:0.31657 6:0.202574 7:-0.96048 8:-0.704935 9:0.38281 10:-0.724894 
2.219180636014596 1:-0.324598 2:-0.00836133 3:-0.371158 4:0.392775 5:0.134002 6:-0.19548 7:-0.939224 8:-0.68498 9:0.209465 10:-0.418125 
8 1:-0.431372 2:-0.119265 3:-0.745489 4:0.0140773 5:0.554817 6:0.193 7:-0.848586 8:-0.888301 9:0.463433 10:-0.681586 
8 1:0.127326 2:-0.240051 3:0.00328719 4:0.346452 5:0.064529 6:-0.742151 7:-0.826128 8:-0.717404 9:-0.238556 10:0.427224 
8 1:-0.195949 2:-0.0660079 3:0.284673 4:0.665575 5:0.251309 6:0.653319 7:-0.877295 8:-0.231651 9:-0.189373 10:0.347102 
8 1:-0.134525 2:0.299512 3:0.0244661 4:-0.257181 5:-0.310711 6:0.463768 7:-0.547993 8:-0.43011 9:0.329555 10:0.155691 
8 1:-0.12427 2:-0.391487 3:-0.230981 4:-0.324931 5:-0.0534652 6:0.559692 7:-0.544463 8:-0.755096 9:-0.00720903 10:0.412372 
8 1:-0.173038 2:-0.507 3:-0.368204 4:0.0168033 5:-0.14305 6:0.383145 7:-0.7236 8:-0.980122 9:0.128881 10:0.262823 
8 1:-0.180037 2:0.312115 3:0.415226 4:-0.024276 5:-0.0460966 6:0.0965718 7:-0.763292 8:-0.335415 9:-0.224234 10:0.231778 
8 1:-0.206034 2:0.319741 3:0.32119 4:-0.275089 5:-0.33475 6:0.0825516 7:-0.864438 8:-0.0558033 9:0.080699 10:0.187034 
8 1:-0.386594 2:-0.122674 3:-0.110169 4:-0.177321 5:0.239079 6:0.475076 7:-0.399103 8:-0.290997 9:0.217114 10:0.0245465 
1.963163486705161 1:-0.118526 2:-0.166197 3:0.373126 4:0.271059 5:0.0867969 6:-0.320212 7:-0.997323 8:-0.384411 9:0.314232 10:0.288575 
8 1:-0.216356 2:0.150798 3:0.00784481 4:0.168794 5:0.308425 6:-0.150398 7:-0.82889 8:-0.734719 9:0.132094 10:-0.0317032 
8 1:-0.110407 2:-0.202388 3:0.191989 4:-0.00852676 5:-0.152098 6:-0.482739 7:-0.785369 8:-0.602211 9:-0.453901 10:0.434827 
3.109831986898188 1:-0.00286471 2:0.76066 3:0.702181 4:0.129157 5:0.0919454 6:-0.163224 7:-0.983031 8:-0.399673 9:0.0672878 10:0.339954 
2.247179680075143 1:0.163184 2:-0.307407 3:0.000702211 4:0.108573 5:-0.309041 6:0.0685543 7:-0.683686 8:-0.258085 9:0.126695 10:-0.0284563 
8 1:-0.217401 2:-0.202315 3:-0.0320229 4:-0.243044 5:-0.255092 6:-0.300212 7:-0.975051 8:-0.384141 9:-0.166635 10:0.331762 
3.420112539737018 1:-0.277657 2:0.259692 3:0.263235 4:0.546636 5:0.572102 6:0.0950947 7:-0.709269 8:-0.119969 9:0.0958533 10:0.374047 
8 1:-0.0694384 2:-0.36525 3:0.0141459 4:0.215942 5:-0.200751 6:-0.140253 7:-0.627874 8:-0.177347 9:0.207644 10:0.359138 
8 1:-0.329857 2:0.126719 3:-0.0679716 4:-0.231851 5:-0.093592 6:-0.154467 7:-0.525257 8:-0.950144 9:0.189888 10:-0.246567 
1.697622549151608 1:-0.286823 2:0.150234 3:0.288795 4:0.161451 5:0.611999 6:0.322749 7:-0.479268 8:0.00234058 9:0.3592 10:0.222104 
2.944462701048022 1:-0.111071 2:-0.454258 3:-0.149578 4:0.124312 5:0.292382 6:0.0122313 7:-0.406957 8:-0.457788 9:-0.130733 10:-0.0528165 
8 1:0.0948757 2:-0.438835 3:0.0493375 4:0.17337 5:0.170057 6:-0.0309974 7:-0.754124 8:-0.436903 9:0.406432 10:0.360281 
8 1:-0.174676 2:-0.126695 3:-0.0477698 4:0.197118 5:0.13153 6:-0.260279 7:-0.59454 8:-0.316865 9:0.0089469 10:0.137162 
8 1:-0.0813747 2:-0.10931 3:0.201988 4:-0.347881 5:-0.140223 6:-0.177569 7:-0.46946 8:-0.837673 9:0.254629 10:-0.113349 
4.755648849591803 1:0.348795 2:-0.344825 3:-0.581616 4:-0.590849 5:-0.704666 6:0.0367521 7:-0.848466 8:-0.613875 9:-0.332409 10:-0.566438 
8 1:-0.0593008 2:-0.140034 3:-0.302687 4:-0.30524 5:-0.235786 6:-0.322433 7:-0.718963 8:-0.73738 9:-0.19896 10:-0.348461 
8 1:-0.11746 2:-0.164505 3:-0.543372 4:-0.577929 5:-0.332501 6:0.287106 7:-0.81204 8:-0.822623 9:-0.472619 10:-0.362043 
2.473679461321858 1:0.0521745 2:0.312974 3:-0.21238 4:-0.0995399 5:-0.28928 6:-0.289461 7:-0.744973 8:-0.769974 9:0.0934598 10:-0.558462 
5.218321280417303 1:-0.0176444 2:-0.199323 3:-0.401386 4:-0.336518 5:-0.304525 6:-0.0205268 7:-0.723587 8:-0.557915 9:-0.312728 10:-0.673872 
8 1:0.354411 2:0.116127 3:0.0153996 4:-0.213883 5:-0.395617 6:-0.224196 7:-0.86474 8:-0.552719 9:-0.218251 10:-0.421542 
8 1:0.0217689 2:0.103327 3:0.0391569 4:-0.0399456 5:-0.0424698 6:-0.204046 7:-0.749231 8:-0.556837 9:-0.218251 10:-0.292133 
8 1:0.511811 2:0.0496285 3:-0.567349 4:-0.325256 5:-0.388859 6:-0.117824 7:-0.808512 8:-0.599437 9:0.182526 10:-0.584507 
8 1:0.101009 2:-0.0152269 3:-0.267114 4:-0.0891233 5:-0.0268721 6:0.457654 7:-0.0819237 8:-0.142263 9:-0.150232 10:-0.273212 
8 1:0.196391 2:-0.466395 3:-0.469855 4:-0.000597435 5:-0.159816 6:0.476472 7:-0.102253 8:-0.229675 9:-0.300917 10:-0.164761 
8 1:0.204585 2:-0.299463 3:-0.314282 4:-0.0982764 5:-0.277533 6:0.284098 7:-0.11906 8:-0.247524 9:-0.326243 10:-0.486112 
8 1:-0.135459 2:-0.103254 3:0.153062 4:-0.0235298 5:-0.0410807 6:0.229928 7:-0.114652 8:-0.135307 9:-0.218719 10:-0.196258 
8 1:0.0221471 2:0.29527 3:0.166489 4:-0.178356 5:0.142297 6:0.260306 7:-0.0517429 8:-0.0292557 9:-0.417754 10:-0.321506 
8 1:-0.0865888 2:-0.286026 3:-0.173854 4:-0.0876907 5:-0.241736 6:-0.152794 7:-0.244869 8:-0.279203 9:-0.140294 10:-0.28908 
8 1:-0.0219226 2:-0.151362 3:-0.434563 4:-0.290918 5:-0.343241 6:0.182241 7:-0.201989 8:-0.235769 9:-0.151025 10:-0.451468 
8 1:0.031975 2:0.0784395 3:0.0781963 4:-0.0589083 5:-0.221384 6:0.277345 7:-0.185049 8:-0.18395 9:-0.408957 10:-0.348803 
8 1:0.0591614 2:-0.0259912 3:0.02043 4:-0.0938093 5:-0.309636 6:0.199843 7:-0.210934 8:-0.256724 9:-0.106291 10:-0.398535 
7.338177985767811 1:0.24173 2:0.053282 3:0.0308528 4:-0.135694 5:-0.0510695 6:0.409259 7:-0.132217 8:-0.165605 9:-0.0688019 10:-0.281041 
1.8119867418614 1:-0.04467 2:-0.286002 3:-0.248405 4:-0.212769 5:-0.662594 6:-0.20694 7:-0.162121 8:-0.10887 9:-0.182843 10:-0.322822 
8 1:-0.00945448 2:0.206262 3:-0.139149 4:0.0547686 5:0.141261 6:0.286713 7:-0.226061 8:-0.206543 9:-0.367719 10:-0.312417 
8 1:-0.111563 2:-0.213937 3:-0.180215 4:-0.185539 5:0.163907 6:0.178539 7:-0.124307 8:-0.127762 9:-0.0999951 10:-0.436884 
7.401896398435725 1:0.277149 2:-0.321997 3:-0.239588 4:-0.205158 5:-0.22295 6:-0.184156 7:-0.280245 8:-0.309331 9:0.566405 10:-0.406812 
8 1:-0.155911 2:0.438614 3:0.0239894 4:-0.192851 5:-0.5676 6:0.141866 7:-0.188575 8:-0.161482 9:-0.121901 10:-0.240072 
8 1:0.197977 2:-0.0734375 3:-0.345936 4:-0.342508 5:-0.19569 6:0.149388 7:-0.194335 8:-0.161622 9:-0.253515 10:-0.440178 
8 1:0.334646 2:-0.091239 3:-0.0316423 4:-0.198661 5:0.436952 6:-0.0418019 7:-0.0505957 8:-0.100483 9:0.0117436 10:-0.267409 
8 1:0.0573674 2:0.0614717 3:0.027034 4:-0.17159 5:0.031172 6:0.274259 7:-0.256522 8:-0.199915 9:0.0957883 10:-0.520175 
8 1:0.0225726 2:0.028198 3:-0.121332 4:-0.272194 5:0.119619 6:0.0323755 7:-0.21156 8:-0.227286 9:0.0541107 10:-0.206646 
8 1:0.215494 2:-0.335728 3:-0.313965 4:-0.113966 5:0.350116 6:0.34492 7:-0.113163 8:-0.182262 9:-0.172293 10:-0.193315 
8 1:0.227033 2:0.130422 3:0.273032 4:0.283565 5:0.0425537 6:0.112136 7:-0.175218 8:0.0600445 9:-0.725997 10:-0.293813 
0.03699419655454959 1:0.275265 2:-0.135007 3:-0.0389376 4:-0.363372 5:-0.166003 6:0.158906 7:-0.0518913 8:-0.124711 9:0.00674855 10:-0.388579 
3.607186759114122 1:-0.168441 2:0.145453 3:-0.000130039 4:-0.355905 5:-0.217755 6:0.252346 7:-0.22229 8:-0.136161 9:0.0876583 10:-0.534763 
8 1:0.18389 2:-0.253929 3:0.0687334 4:0.00877449 5:-0.0368316 6:0.0643014 7:-0.277401 8:-0.0993089 9:-0.0646263 10:-0.503703 
8 1:0.632906 2:-0.193855 3:-0.0740278 4:-0.185738 5:-0.517018 6:-0.25741 7:-0.0843665 8:0.101318 9:0.0249337 10:-0.480489 
8 1:0.321627 2:-0.0564451 3:-0.247065 4:-0.360922 5:-0.305576 6:0.251952 7:-0.0754334 8:-0.0490363 9:-0.436028 10:-0.439959 
8 1:0.150908 2:-0.347964 3:0.0359754 4:0.178693 5:-0.185282 6:0.242278 7:-0.24797 8:-0.16099 9:-0.274692 10:-0.249017 
8 1:0.293888 2:0.0510262 3:-0.0650995 4:0.117039 5:0.17676 6:-0.161376 7:-0.276298 8:-0.204428 9:0.0079713 10:-0.236574 
3.803952387515471 1:0.248459 2:-0.43957 3:-0.324293 4:0.143792 5:-0.250203 6:0.379104 7:-0.152971 8:-0.152792 9:-0.525641 10:-0.324031 
8 1:-0.00299234 2:-0.161047 3:-0.423217 4:-0.333945 5:-0.408084 6:0.330419 7:-0.0173382 8:-0.0905359 9:0.0736617 10:-0.325689 
8 1:0.172766 2:-0.261163 3:-0.164391 4:-0.00518391 5:-0.0316343 6:-0.0139292 7:-0.272551 8:-0.170212 9:-0.127715 10:-0.470285 
8 1:-0.0106032 2:0.0561018 3:-0.151833 4:-0.139187 5:0.0236862 6:0.292587 7:-0.266069 8:-0.169382 9:-0.208664 10:-0.392917 
8 1:0.159752 2:-0.0986931 3:-0.0637287 4:-0.217057 5:-0.153396 6:0.181292 7:-0.238371 8:-0.216538 9:-0.258901 10:-0.393792 
4.159812130558747 1:-0.0954595 2:-0.170439 3:-0.445253 4:-0.176207 5:-0.445514 6:0.0514261 7:-0.247942 8:-0.148314 9:-0.550565 10:-0.523267 
8 1:0.0520634 2:0.162592 3:0.247235 4:-0.190265 5:-0.249485 6:0.119229 7:-0.289611 8:-0.226713 9:0.0712682 10:-0.268457 
8 1:0.132507 2:-0.460756 3:-0.320392 4:-0.113299 5:-0.0244471 6:0.366457 7:-0.221267 8:-0.0597455 9:-0.0943756 10:-0.431374 
8 1:0.284511 2:-0.223279 3:-0.470005 4:0.072428 5:-0.668449 6:0.305739 7:-0.0663038 8:0.0352523 9:-0.635145 10:-0.358669 
-8 1:-0.395436 2:0.484712 3:0.34995 4:0.102862 5:0.00885527 6:-0.0600291 7:-0.919174 8:-0.718011 9:0.617435 10:-0.130395 
-8 1:0.454874 2:0.168183 3:0.0555372 4:0.249908 5:0.131526 6:-0.125218 7:-0.887965 8:-0.707219 9:0.136737 10:-0.261923 
-7.057155989398946 1:-0.413319 2:-0.30292 3:-0.310004 4:-0.842895 5:-0.39545 6:0.109677 7:-0.919314 8:-0.374719 9:0.0871249 10:-0.495913 
-8 1:-0.425435 2:0.459701 3:0.223255 4:-0.621386 5:-0.61404 6:-0.244563 7:-0.705282 8:-0.400082 9:0.0112363 10:-0.913288 
-8 1:0.0275976 2:-0.109065 3:-0.0176784 4:-0.325673 5:-0.349845 6:-0.16648 7:-0.963404 8:-0.544338 9:0.162233 10:-0.369933 
-8 1:-0.172844 2:0.0258931 3:-0.406659 4:-0.437367 5:-0.0837866 6:0.162689 7:-0.638598 8:-0.89518 9:0.0736617 10:-0.705581 
-8 1:-0.107859 2:0.423583 3:0.533387 4:-0.0130834 5:-0.212109 6:0.273448 7:-0.557079 8:-0.405227 9:-0.677642 10:-0.191836 
-8 1:-0.418838 2:-0.424883 3:-0.288748 4:-0.257579 5:0.0557459 6:0.17937 7:-0.768326 8:-0.827236 9:0.16927 10:-0.786478 
-8 1:-0.0687979 2:-0.0452149 3:-0.164357 4:-0.116732 5:0.290521 6:0.522764 7:-0.904834 8:-0.856926 9:0.353047 10:-0.0679744 
-2.160936800615563 1:-0.0570861 2:0.236103 3:-0.147275 4:-0.760491 5:-0.617622 6:0.0815144 7:-0.952459 8:-0.344332 9:-0.101361 10:-0.741041 
-8 1:-0.193155 2:-0.115342 3:-0.163322 4:-0.539991 5:-0.259089 6:0.376856 7:-0.64014 8:-0.76997 9:0.0662471 10:-0.389774 
-8 1:-0.264744 2:0.388029 3:0.0848688 4:-0.211794 5:0.154129 6:0.0782669 7:-0.826907 8:-0.825467 9:0.330908 10:-0.360073 
-8 1:-0.206235 2:0.0988157 3:-0.3496 4:-0.208949 5:-0.2749 6:0.168534 7:-0.945995 8:-0.680574 9:-0.267551 10:-0.246168 
-8 1:-0.515044 2:0.373783 3:-0.285056 4:-0.379341 5:-0.0988244 6:0.0565501 7:-0.5021 8:-0.680844 9:0.160906 10:-0.331216 
-8 1:0.0710669 2:0.366869 3:0.0365245 4:-0.335099 5:-0.477248 6:0.164572 7:-0.817002 8:-0.522651 9:-0.0736148 10:-0.258039 
-8 1:0.394159 2:-0.280632 3:0.23462 4:0.0769846 5:-0.112171 6:0.137074 7:-0.565831 8:-0.618714 9:-0.0756051 10:-0.690775 
-8 1:0.0910915 2:0.0963146 3:0.0288683 4:0.362311 5:0.165607 6:-0.496787 7:-0.525129 8:-0.720107 9:-0.191155 10:-0.746355 
-8 1:-0.357618 2:-0.00149572 3:-0.155886 4:0.220508 5:0.501206 6:0.0414008 7:-0.645803 8:-0.823756 9:0.571985 10:-0.732924 
-8 1:-0.266697 2:-0.105068 3:-0.122687 4:-0.358412 5:-0.245443 6:0.421557 7:-0.882821 8:-0.586197 9:0.154402 10:-0.537533 
-8 1:0.0338778 2:0.0444548 3:-0.308764 4:-0.359065 5:-0.302636 6:0.146939 7:-0.819618 8:-0.610113 9:-0.0323795 10:-0.287559 
-8 1:-0.101352 2:-0.17625 3:-0.15877 4:-0.00607932 5:-0.198031 6:0.228615 7:-0.823807 8:-0.618499 9:0.287357 10:-0.411681 
-8 1:-0.0157677 2:-0.506289 3:0.163865 4:-0.603956 5:-0.351203 6:-0.0603347 7:-0.81431 8:-0.704898 9:-0.098265 10:-0.390489 
-8 1:-0.154058 2:0.40458 3:0.169099 4:-0.054481 5:-0.104256 6:-0.039065 7:-0.876989 8:-0.380596 9:-0.104002 10:-0.384074 
-8 1:-0.173986 2:-0.183827 3:-0.231019 4:-0.185598 5:0.0371945 6:0.162832 7:-0.853961 8:-0.508028 9:0.101421 10:-0.841492 
-8 1:0.0251796 2:0.0683128 3:-0.343914 4:-0.369579 5:-0.240064 6:-0.375759 7:-0.652711 8:-0.430308 9:-0.444514 10:-0.246079 
-8 1:-0.0987095 2:0.171689 3:0.0790404 4:0.111786 5:0.226353 6:-0.0133462 7:-0.784489 8:-0.521375 9:-0.169666 10:-0.432496 
-8 1:-0.375128 2:-0.285903 3:-0.104001 4:0.0942859 5:0.0146729 6:-0.0111711 7:-0.80418 8:-0.882592 9:-0.252111 10:-0.425007 
-8 1:-0.285161 2:0.0560282 3:0.181337 4:0.123605 5:0.414582 6:0.121561 7:-0.914629 8:-0.734475 9:0.317549 10:-0.16737 
-8 1:0.0454619 2:-0.436138 3:-0.30109 4:0.520947 5:0.259314 6:0.0454858 7:-0.468458 8:-0.481561 9:-0.0984081 10:-0.324319 
-8 1:-0.33549 2:-0.284408 3:-0.111866 4:0.0151816 5:0.00335365 6:0.0821204 7:-0.637554 8:-0.953718 9:0.159475 10:-0.75585 
-8 1:-0.0726009 2:0.315426 3:0.304479 4:0.055077 5:-0.0334663 6:-0.438196 7:-0.769126 8:-0.608434 9:-0.356847 10:-0.220799 
-8 1:-0.20216 2:0.133585 3:-0.362061 4:-0.223325 5:-0.419021 6:-0.583994 7:-0.676428 8:-0.710584 9:0.140393 10:-0.398249 
-8 1:0.26512 2:0.0996003 3:-0.347031 4:0.0401535 5:-0.185219 6:-0.17913 7:-0.671714 8:-0.650188 9:-0.184287 10:-0.562084 
-8 1:0.0986315 2:-0.33845 3:0.00961993 4:0.614587 5:0.371498 6:-0.215932 7:-0.941917 8:-0.613507 9:-0.190544 10:-0.335066 
-8 1:-0.39081 2:0.251796 3:0.327405 4:0.352661 5:0.428561 6:-0.0557691 7:-0.985361 8:-0.622367 9:0.396936 10:-0.30219 
-8 1:0.129692 2:0.228232 3:-0.0617574 4:-0.00390049 5:-0.330306 6:0.126953 7:-0.691096 8:-0.403018 9:-0.402888 10:-0.386231 
-8 1:0.183972 2:-0.0606625 3:-0.255872 4:0.145503 5:-0.291658 6:-0.143721 7:-0.766649 8:-0.716199 9:0.0794112 10:-0.332922 
-8 1:-0.0996809 2:0.123483 3:0.078802 4:0.0454663 5:-0.080312 6:0.1457 7:-0.572229 8:-0.54312 9:-0.0695173 10:-0.659665 
-8 1:-0.379791 2:0.168404 3:-0.372808 4:-0.234955 5:-0.114664 6:-0.136217 7:-0.543059 8:-0.770895 9:0.384436 10:-0.417968 
-8 1:-0.0540276 2:-0.140205 3:0.130797 4:-0.114225 5:0.264743 6:-0.117536 7:-0.718923 8:-0.782488 9:0.119723 10:-0.373976 
-8 1:0.168573 2:-0.206017 3:-0.385114 4:-0.281516 5:-0.409139 6:-0.222544 7:-0.537692 8:-0.828036 9:-0.0858944 10:-0.508079 
-8 1:-0.252884 2:-0.106245 3:-0.225092 4:0.0855606 5:-0.0877821 6:0.0103513 7:-0.56977 8:-0.33736 9:-0.044503 10:-0.373489 
-8 1:-0.239872 2:0.202511 3:0.142621 4:-0.0101683 5:-0.0392449 6:-0.112537 7:-0.669343 8:-0.526095 9:0.0601724 10:-0.319036 
-8 1:-0.254749 2:0.388103 3:-0.137479 4:-0.399745 5:-0.270992 6:-0.811452 7:-0.932537 8:-0.829355 9:-0.259304 10:-0.60708 
-8 1:-0.00574359 2:-0.192703 3:-0.012947 4:0.00876454 5:0.292854 6:-0.0219933 7:-0.921422 8:-0.568816 9:0.00356159 10:-0.497183 
-5.295114056668924 1:0.366864 2:-0.079641 3:-0.278344 4:-0.346158 5:-0.436963 6:-0.536021 7:-0.595872 8:-0.237375 9:-0.449058 10:-0.608428 
-8 1:-0.322797 2:0.192433 3:0.369399 4:0.394576 5:0.286785 6:-0.184206 7:-0.963008 8:-0.775193 9:0.541806 10:0.123586 
-8 1:-0.203326 2:0.369713 3:0.486731 4:0.177628 5:0.187812 6:0.12017 7:-0.986645 8:-0.704395 9:0.294342 10:-0.398556 
-8 1:0.126673 2:-0.155849 3:-0.125339 4:0.38591 5:0.134409 6:-0.175601 7:-0.86853 8:-0.893197 9:0.170454 10:-0.758826 
-8 1:-0.295717 2:0.326386 3:-0.0213682 4:0.0994792 5:-0.065321 6:-0.421034 7:-0.938092 8:-0.957308 9:0.211963 10:-0.554764 
-8 1:0.257913 2:-0.348944 3:-0.414218 4:-0.341168 5:0.0381543 6:-0.195449 7:-0.697585 8:-0.576191 9:-0.0545191 10:-0.215732 
-8 1:0.042453 2:0.336782 3:-0.237985 4:-0.60286 5:-0.607268 6:-0.631717 7:-0.987736 8:-0.717628 9:0.162519 10:-0.662624 
-8 1:0.00382197 2:0.0701518 3:-0.133356 4:-0.201775 5:-0.0882698 6:0.169565 7:-0.804884 8:-0.606644 9:0.152854 10:-0.425167 
-3.631075905154568 1:0.131386 2:0.0369026 3:-0.0860572 4:-0.379404 5:-0.433411 6:-0.682139 7:-0.994709 8:-0.81048 9:-0.365694 10:-0.399159 
-8 1:0.0703744 2:0.0512468 3:-0.221418 4:-0.413965 5:-0.805689 6:-0.53285 7:-0.913177 8:-0.604853 9:-0.06741 10:-0.459463 
-8 1:0.207486 2:-0.104921 3:-0.124669 4:0.210549 5:0.276874 6:0.168436 7:-0.853793 8:-0.798185 9:0.471875 10:-0.762403 
-8 1:0.339664 2:-0.0285168 3:-0.117377 4:-0.067156 5:-0.174206 6:0.0298312 7:-0.717117 8:-0.713725 9:0.0519904 10:-0.307087 
-8 1:0.590626 2:-0.418851 3:-0.537129 4:0.17153 5:-0.264129 6:-0.712038 7:-0.889949 8:-0.875752 9:-0.0977707 10:-0.550981 
-8 1:-0.0503947 2:-0.0805973 3:0.128291 4:0.0446206 5:0.33064 6:0.11549 7:-0.743748 8:-0.658839 9:0.0440555 10:-0.317548 
-8 1:-0.0530183 2:-0.30216 3:0.0352261 4:0.0853119 5:0.17861 6:0.324196 7:-0.891231 8:-0.549107 9:0.429521 10:-0.676728 
-8 1:-0.176449 2:0.313219 3:0.575013 4:0.370977 5:-0.0652742 6:-0.334566 7:-0.977234 8:-0.495407 9:0.375876 10:-0.285069 
-6.322703703227391 1:-0.0548029 2:-0.369173 3:-0.381617 4:0.144648 5:0.464645 6:0.0320239 7:-0.948517 8:-0.791767 9:0.311799 10:0.213614 
-8 1:-0.0563936 2:-0.0205968 3:-0.347091 4:0.141315 5:0.143918 6:0.329513 7:-0.810335 8:-0.689687 9:0.165225 10:-0.615099 
-8 1:-0.291453 2:0.348699 3:0.203582 4:-0.0101882 5:-0.108415 6:0.0694925 7:-0.823174 8:-0.59808 9:-0.211682 10:-0.106109 
-8 1:0.111386 2:0.0459015 3:-0.0550506 4:-0.157791 5:0.0919708 6:0.0652113 7:-0.943668 8:-0.842663 9:0.0674178 10:-0.528443 
-8 1:-0.0912026 2:0.105951 3:0.017791 4:-0.220748 5:-0.111835 6:0.0961495 7:-0.746393 8:-0.432763 9:-0.293177 10:-0.264697 
-8 1:-0.15684 2:-0.349582 3:-0.436578 4:-0.159015 5:0.0319894 6:0.314021 7:-0.823592 8:-0.539245 9:0.0594569 10:-0.628151 
-8 1:-0.0454524 2:-0.128289 3:-0.0545502 4:0.256743 5:-0.118607 6:-0.247996 7:-0.873482 8:-0.418345 9:0.411154 10:-0.519043 
-8 1:0.246117 2:-0.561974 3:-0.517186 4:-0.035767 5:-0.0959272 6:0.218618 7:-0.638827 8:-0.754103 9:-0.0797936 10:-0.417433 
-4.411509037180466 1:0.109904 2:-0.0051492 3:-0.430431 4:-0.2789 5:0.0303565 6:-0.480636 7:-0.55194 8:-0.750381 9:0.116042 10:-0.280687 
-8 1:-0.31565 2:0.0549984 3:0.0220694 4:0.105349 5:0.489071 6:-0.148228 7:-0.693199 8:-0.489215 9:-0.0146626 10:-0.417095 
-8 1:0.567737 2:-0.544884 3:-0.392525 4:-0.387536 5:-0.572785 6:-0.251443 7:-0.98058 8:-0.798961 9:-0.314835 10:-0.429198 
-8 1:-0.0336107 2:0.47049 3:0.521074 4:-0.147424 5:-0.487893 6:-0.16415 7:-0.882134 8:-0.604862 9:0.0295646 10:-0.0158413 
-8 1:-0.0716035 2:0.188804 3:-0.0122174 4:0.0201959 5:-0.345555 6:0.109673 7:-0.923062 8:-0.696388 9:-0.00139446 10:0.0401268 
-8 1:-0.170911 2:0.120467 3:0.515833 4:0.159203 5:-0.00132273 6:-0.092045 7:-0.991073 8:-0.672868 9:-0.270738 10:-0.451185 
-8 1:-0.398379 2:0.415663 3:0.537535 4:-0.231493 5:-0.286927 6:-0.337444 7:-0.844191 8:-0.724715 9:0.0167127 10:-0.151425 
-8 1:-0.0343741 2:0.180001 3:-0.728046 4:0.164854 5:-0.0363731 6:-0.0775831 7:-0.723663 8:-0.543266 9:-0.0160935 10:-0.507113 
-8 1:-0.393781 2:-0.195841 3:0.151783 4:-0.191299 5:0.0603657 6:0.259154 7:-0.96624 8:-0.796141 9:-0.169276 10:-0.065945 
-8 1:-0.474038 2:-0.168305 3:0.294747 4:0.175649 5:0.147209 6:0.376947 7:-0.823551 8:-0.724846 9:0.15664 10:-0.289798 
-8 1:-0.435662 2:0.0270701 3:-0.123786 4:-0.286919 5:0.0529541 6:-0.0886827 7:-0.950465 8:-0.717452 9:-0.0716897 10:-0.0505139 
-3.300613944494923 1:-0.183466 2:-0.351347 3:0.0582552 4:0.108035 5:-0.0792487 6:-0.230498 7:0.0459436 8:-0.0595386 9:0.098533 10:0.34827 
-2.435791834467964 1:-0.406892 2:0.405095 3:0.390904 4:-0.439745 5:-0.390531 6:-0.212298 7:-0.971391 8:-0.102219 9:-0.0985512 10:0.39989 
-4.503861414942906 1:-0.0316725 2:0.0593875 3:0.00294481 4:0.0566788 5:-0.177827 6:-0.0285061 7:-0.850586 8:-0.348893 9:-0.14296 10:0.406326 
-8 1:-0.0666375 2:-0.322389 3:-0.136329 4:0.0646678 5:0.105982 6:0.358006 7:-0.791231 8:-0.353658 9:0.340924 10:0.12193 
-2.842298818015848 1:-0.250106 2:-0.0158154 3:0.215986 4:-0.110613 5:-0.0655317 6:0.391891 7:-0.181977 8:-0.244179 9:0.0584293 10:0.496171 
-8 1:-0.120204 2:-0.0249369 3:0.0329782 4:0.149393 5:0.0243261 6:0.179614 7:-0.67814 8:-0.407827 9:0.224606 10:0.0576122 
-8 1:-0.108535 2:0.0327097 3:0.320979 4:0.127297 5:-0.396909 6:-0.16621 7:-0.858419 8:-0.674101 9:0.0136168 10:-0.014135 
-8 1:-0.119334 2:-0.271878 3:-0.184627 4:0.422413 5:0.402649 6:0.16131 7:-0.939029 8:-0.546592 9:0.012342 10:0.354524 
-7.306322728209898 1:-0.575295 2:0.351715 3:0.642514 4:-0.294788 5:0.208691 6:0.246411 7:-0.561042 8:-0.376477 9:0.145479 10:0.287076 
-8 1:-0.420046 2:0.0669151 3:0.140067 4:0.0162263 5:0.22187 6:-0.478083 7:-0.440282 8:-0.733046 9:0.517403 10:0.124083 
-8 1:0.00983738 2:0.093642 3:0.245734 4:-0.229414 5:-0.126748 6:0.273149 7:-0.426861 8:-0.386594 9:0.142786 10:0.279198 
-8 1:0.143337 2:0.183557 3:0.0335129 4:-0.330974 5:-0.263902 6:-0.0385667 7:-0.988043 8:-0.544669 9:-0.0773221 10:-0.246116 
-8 1:-0.256729 2:-0.298163 3:-0.317654 4:0.115766 5:-0.137291 6:-0.0179206 7:-0.571295 8:-0.869213 9:-0.170329 10:0.259046 
-8 1:0.294769 2:-0.0353088 3:0.151051 4:-0.0800101 5:0.000850606 6:0.0734574 7:-0.716884 8:-0.428627 9:-0.126596 10:0.173483 
-8 1:-0.261948 2:-0.168502 3:0.0135481 4:0.158785 5:0.106478 6:0.111855 7:-0.580865 8:-0.739463 9:0.196002 10:-0.106134 
-0.7803466128924029 1:-0.296187 2:-0.213692 3:-0.0960258 4:-0.123726 5:0.144521 6:-0.324371 7:-0.223357 8:-0.541582 9:0.113271 10:0.293288 
-4.226831931800608 1:-0.11097 2:0.127136 3:0.309364 4:-0.452327 5:-0.413734 6:0.277955 7:-0.831823 8:-0.701548 9:0.208581 10:0.186247 
-8 1:-0.0899641 2:-0.0419292 3:0.00319238 4:0.216021 5:-0.099993 6:-0.232746 7:-0.938039 8:-0.423912 9:0.195104 10:0.0691918 
-1.045051942408065 1:-0.100435 2:-0.29093 3:-0.404493 4:-0.091531 5:-0.0840636 6:0.0489242 7:-0.710115 8:-0.744997 9:-0.00410012 10:0.251169 
-8 1:-0.0232935 2:0.284506 3:0.0700278 4:0.251141 5:0.238131 6:-0.00037723 7:-0.863992 8:-0.718928 9:-0.00869194 10:0.143846 
-8 1:-0.0623263 2:-0.110904 3:-0.0155056 4:0.00305384 5:-0.0619615 6:-0.0913012 7:-0.836196 8:-0.200022 9:0.490204 10:0.24687 
-8 1:0.173572 2:-0.136356 3:0.0881806 4:0.336742 5:0.0517835 6:-0.342017 7:-0.717927 8:-0.401591 9:0.0487514 10:0.192418 
-5.74109090969573 1:-0.20368 2:-0.574455 3:-0.353054 4:0.0337464 5:0.250084 6:0.486614 7:-0.84435 8:-0.998273 9:-0.315759 10:0.196584 
-8 1:-0.297743 2:-0.00956281 3:-0.0818288 4:0.351865 5:0.188364 6:-0.234808 7:-0.960264 8:-0.789807 9:-0.0979658 10:0.125069 
-2.175520260779022 1:0.175593 2:-0.0372214 3:-0.190405 4:-0.246675 5:-0.433871 6:-0.328253 7:-0.533617 8:-0.419534 9:0.707892 10:0.180888 
-8 1:-0.0647112 2:0.42888 3:0.26442 4:0.318824 5:-0.140572 6:0.276183 7:-0.624723 8:-0.380829 9:-0.0715986 10:0.125176 
-8 1:-0.120639 2:0.299438 3:0.271439 4:-0.215853 5:-0.578833 6:-0.0233255 7:-0.969386 8:-0.540125 9:0.259572 10:0.0353144 
-2.97446899303958 1:-0.12842 2:-0.513621 3:-0.255666 4:0.374011 5:-0.147935 6:-0.364511 7:-0.993366 8:-0.181692 9:0.399954 10:0.0925332 
-8 1:0.0631984 2:-0.150823 3:0.219792 4:-0.306596 5:-0.128426 6:-0.264721 7:-0.266867 8:-0.404573 9:0.123456 10:0.354731 
-8 1:-0.299688 2:0.146041 3:0.291244 4:0.254216 5:0.014632 6:-0.01121 7:-0.512269 8:-0.00660229 9:0.0382409 10:0.37818 
-8 1:-0.304997 2:-0.0481573 3:0.19483 4:0.129644 5:0.0730077 6:0.0237814 7:-0.786247 8:-0.597237 9:0.107443 10:0.200684 
-8 1:-0.128505 2:-0.0488439 3:-0.0979984 4:-0.0123173 5:-0.352808 6:-0.147147 7:-0.251821 8:-0.181263 9:-0.337573 10:-0.520724 
-8 1:0.513071 2:-0.607165 3:-0.399921 4:0.153224 5:0.0036736 6:0.0873822 7:-0.246855 8:-0.15945 9:-0.174986 10:-0.462493 
-8 1:-0.0344237 2:0.0570826 3:-0.098508 4:-0.18331 5:-0.262693 6:0.218473 7:-0.196778 8:-0.101389 9:0.165446 10:-0.489002 
-8 1:-0.0480973 2:-0.0320477 3:-0.141125 4:-0.13079 5:-0.340135 6:0.0545482 7:-0.210453 8:-0.0888719 9:-0.0235991 10:-0.373885 
-8 1:-0.289813 2:-0.109237 3:-0.0316528 4:0.168276 5:0.144513 6:0.493027 7:-0.328769 8:-0.318695 9:0.054709 10:-0.34114 
-8 1:0.129065 2:0.346615 3:0.230287 4:-0.129964 5:0.11091 6:-0.167468 7:-0.24292 8:-0.168003 9:-0.161081 10:-0.250297 
-8 1:0.265349 2:-0.232572 3:0.0347586 4:0.126839 5:-0.295915 6:-0.00561251 7:-0.273827 8:-0.0952448 9:-0.159233 10:-0.419321 
-4.023742745447335 1:-0.0734613 2:-0.18824 3:-0.182467 4:-0.0843478 5:0.127008 6:0.179992 7:-0.193991 8:-0.240781 9:-0.153861 10:-0.607213 
-8 1:0.167106 2:0.0865066 3:0.0361018 4:0.0437949 5:0.0403725 6:0.415072 7:-0.0857905 8:-0.0957457 9:-0.104158 10:-0.500799 
-8 1:0.403671 2:0.142486 3:-0.0497648 4:-0.35495 5:-0.39535 6:0.171603 7:-0.116569 8:-0.223764 9:-0.0801318 10:-0.315386 
-2.615375429838043 1:0.14116 2:-0.104651 3:0.0737493 4:0.087043 5:-0.199108 6:0.187333 7:-0.161162 8:-0.173121 9:-0.0984731 10:-0.26787 
-8 1:0.13682 2:-0.179462 3:-0.0475512 4:-0.136451 5:-0.0781211 6:0.0165637 7:-0.167139 8:-0.235597 9:-0.201913 10:-0.420274 
-6.51052884180617 1:0.0258344 2:0.0291543 3:-0.0327537 4:0.348979 5:-0.0758658 6:0.416451 7:-0.277132 8:-0.23908 9:-0.219122 10:-0.459865 
-8 1:0.478248 2:-0.235564 3:-0.453656 4:-0.242845 5:-0.784543 6:0.130593 7:-0.155691 8:-0.0281536 9:-0.234758 10:-0.315604 
-3.332830163098734 1:-0.267325 2:0.0287865 3:0.410525 4:0.264433 5:-0.212724 6:-0.22818 7:-0.274172 8:-0.168177 9:-0.36406 10:-0.226975 
-4.203908140524948 1:0.118502 2:-0.0835152 3:0.0293306 4:0.252106 5:-0.0409715 6:0.190279 7:-0.241235 8:-0.226726 9:-0.315837 10:-0.265543 
-8 1:0.169755 2:-0.276978 3:-0.299145 4:-0.0398959 5:-0.236798 6:0.207225 7:-0.21746 8:-0.132118 9:-0.311466 10:-0.556572 
-8 1:0.236142 2:-0.257558 3:0.141043 4:0.0842175 5:0.0802418 6:0.368252 7:-0.212627 8:-0.136712 9:-0.444378 10:-0.408744 
-8 1:0.210324 2:-0.194738 3:-0.306544 4:0.0521321 5:0.0954005 6:0.204997 7:-0.317618 8:-0.0589201 9:-0.0443078 10:-0.425781 
-8 1:-0.0297532 2:-0.0518353 3:-0.552438 4:-0.232528 5:0.102705 6:0.556282 7:-0.0428338 8:-0.0687145 9:-0.0989934 10:-0.229897 
-3.718959193197467 1:0.0474804 2:0.384498 3:0.165093 4:-0.245471 5:0.22041 6:0.00128188 7:-0.184107 8:-0.112092 9:-0.0719498 10:-0.915785 
-8 1:0.0188735 2:-0.127161 3:-0.403565 4:-0.229871 5:-0.148481 6:0.145073 7:-0.182177 8:-0.0755578 9:-0.134076 10:-0.405063 
-8 1:-0.0435426 2:-0.0175073 3:0.0895054 4:0.0754226 5:0.11745 6:0.210539 7:-0.231011 8:-0.251769 9:-0.0438005 10:-0.21488 
-2.806280291402127 1:0.418368 2:-0.453915 3:-0.299712 4:0.1012 5:-0.183017 6:0.000559219 7:-0.196317 8:-0.221216 9:-0.239324 10:-0.314553 
-8 1:0.165156 2:-0.271093 3:-0.180076 4:-0.0526007 5:-0.214641 6:0.0370825 7:-0.130998 8:-0.192007 9:-0.315225 10:-0.403612 
-8 1:0.187404 2:0.139249 3:-0.260482 4:-0.0018908 5:-0.135556 6:0.207174 7:-0.201447 8:-0.156492 9:-0.360397 10:-0.273899 
-8 1:0.492959 2:-0.323419 3:-0.489639 4:0.0114209 5:-0.0745548 6:0.393251 7:-0.320983 8:-0.261176 9:0.000842918 10:-0.391079 
-6.434130532701317 1:0.0567623 2:-0.18824 3:-0.509358 4:-0.414816 5:0.231115 6:0.11508 7:-0.0821643 8:-0.259858 9:0.101564 10:-0.405459 
-8 1:0.419592 2:-0.0259422 3:-0.100507 4:-0.533646 5:-0.140923 6:0.43806 7:-0.0658385 8:-0.0779884 9:-0.348461 10:-0.314134 
-8 1:0.0869055 2:0.00115244 3:-0.208563 4:-0.261161 5:-0.575659 6:-0.237394 7:-0.369034 8:-0.174459 9:-0.250849 10:-0.530407 
-8 1:0.207032 2:-0.262928 3:-0.248694 4:-0.340077 5:-0.0767281 6:0.099102 7:-0.0797255 8:-0.166988 9:-0.146095 10:-0.64947 
-8 1:0.164543 2:-0.328568 3:-0.28192 4:0.196571 5:-0.155025 6:0.122757 7:-0.205094 8:-0.192351 9:-0.336923 10:-0.215298 
-8 1:0.461714 2:0.047201 3:0.00140673 4:-0.211426 5:-0.395368 6:0.257572 7:-0.0844147 8:-0.124811 9:-0.238777 10:-0.339575 
-8 1:0.0282145 2:0.0696369 3:-0.114294 4:-0.0271313 5:0.124214 6:0.30878 7:-0.128815 8:-0.222176 9:-0.421992 10:-0.311977 
-8 1:0.107816 2:-0.179364 3:-0.304238 4:-0.140739 5:-0.333697 6:-0.0440741 7:-0.196562 8:-0.186215 9:-0.247363 10:-0.402194 
-8 1:0.10108 2:-0.190521 3:-0.198278 4:-0.0982963 5:-0.0178588 6:0.139368 7:-0.190882 8:-0.231932 9:-0.0875724 10:-0.513164 
-4.275841768559085 1:0.372461 2:0.309688 3:-0.374566 4:-0.0696234 5:0.32627 6:0.0466502 7:-0.213858 8:-0.194834 9:0.0029242 10:-0.375959 
-8 1:0.0439515 2:0.0947944 3:-0.131813 4:-0.171541 5:-0.00213432 6:0.163429 7:-0.261304 8:-0.180219 9:-0.552855 10:-0.568506 
-1.916158098934566 1:0.109535 2:-0.041022 3:0.00648187 4:0.0641604 5:-0.259333 6:0.15075 7:-0.138996 8:-0.0515105 9:-0.186797 10:-0.280577 
-8 1:0.430391 2:-0.29044 3:0.0947715 4:-0.0515759 5:-0.526119 6:-0.126217 7:-0.240501 8:-0.137618 9:-0.498153 10:-0.426952 
-0.7984318747507098 1:0.311144 2:-0.00524728 3:-0.344646 4:0.0930721 5:0.25414 6:0.182391 7:-0.166999 8:-0.0800989 9:-0.382737 10:-0.469211 
