svm_type c_svc
kernel_type polynomial
degree 2
gamma 8
coef0 1
nr_class 2
total_sv 258
rho -5.23519
label -1 1
nr_sv 124 134
SV
7.543779425141408 1:-0.189092 2:0.0915332 3:-0.118257 4:0.348253 5:0.330536 6:0.334502 7:-0.726328 8:-0.402487 9:-0.0222983 10:-0.219711 
8 1:0.142689 2:-0.0118186 3:0.308811 4:-0.303427 5:-0.0530985 6:-0.0349534 7:-0.65088 8:-0.661586 9:0.0407384 10:-0.169068 
8 1:0.107348 2:-0.221171 3:-0.0818393 4:-0.111091 5:-0.100664 6:-0.416871 7:-0.688615 8:-0.646747 9:0.151007 10:-0.616085 
8 1:-0.311688 2:-0.282348 3:0.150088 4:0.328027 5:0.0806573 6:0.210479 7:-0.816389 8:-0.771366 9:0.0989232 10:-0.332154 
8 1:-0.234428 2:0.122159 3:0.335477 4:-0.0033931 5:0.122347 6:-0.0543945 7:-0.916694 8:-0.607188 9:0.124445 10:-0.302059 
8 1:0.224875 2:-0.420298 3:-0.0363158 4:0.162008 5:0.232705 6:-0.205601 7:-0.562 8:-0.405486 9:-0.215818 10:-0.0255821 
8 1:0.156696 2:-0.213251 3:-0.390428 4:0.18507 5:0.319233 6:-0.0849793 7:-0.918289 8:-0.634202 9:-0.054389 10:-0.154374 
8 1:0.104711 2:-0.194763 3:0.122238 4:-0.0221369 5:-0.142354 6:0.000870191 7:-0.638897 8:-0.321478 9:-0.0573028 10:-0.631206 
5.478492638517145 1:-0.418838 2:-0.424883 3:-0.288748 4:-0.257579 5:0.0557459 6:0.17937 7:-0.768326 8:-0.827236 9:0.16927 10:-0.786478 
8 1:-0.187409 2:0.170243 3:-0.20662 4:0.140459 5:0.167175 6:-0.11619 7:-0.906273 8:-0.681876 9:0.146532 10:-0.110507 
2.641887138979871 1:-0.312908 2:-0.297477 3:-0.0321348 4:-0.0588486 5:0.0759731 6:0.162722 7:-0.691682 8:-0.759788 9:0.0366279 10:-0.309302 
8 1:0.204271 2:-0.0199838 3:0.152518 4:0.437923 5:-0.0916645 6:-0.0286403 7:-0.949455 8:-0.741745 9:-0.0971853 10:0.00803853 
1.116281167512404 1:-0.0687979 2:-0.0452149 3:-0.164357 4:-0.116732 5:0.290521 6:0.522764 7:-0.904834 8:-0.856926 9:0.353047 10:-0.0679744 
8 1:-0.232679 2:0.103597 3:0.0579352 4:0.298439 5:-0.155454 6:-0.266315 7:-0.935054 8:-0.691675 9:-0.187734 10:-0.523354 
8 1:-0.0645292 2:0.569649 3:0.0387092 4:-0.717859 5:-0.666567 6:0.0581261 7:-0.648877 8:-0.388083 9:0.227351 10:-0.140956 
8 1:-0.206235 2:0.0988157 3:-0.3496 4:-0.208949 5:-0.2749 6:0.168534 7:-0.945995 8:-0.680574 9:-0.267551 10:-0.246168 
8 1:-0.419717 2:0.291813 3:0.213682 4:-0.0715634 5:-0.304166 6:-0.0565872 7:-0.793776 8:-0.41471 9:0.118929 10:-0.692545 
2.550147653578307 1:-0.515044 2:0.373783 3:-0.285056 4:-0.379341 5:-0.0988244 6:0.0565501 7:-0.5021 8:-0.680844 9:0.160906 10:-0.331216 
8 1:0.206157 2:0.208126 3:-0.0428816 4:-0.501817 5:-0.45317 6:-0.145472 7:-0.841927 8:-0.314816 9:-0.205074 10:-0.791585 
8 1:-0.062539 2:-0.0131427 3:0.0180636 4:-0.309408 5:-0.455852 6:-0.30354 7:-0.858941 8:-0.597592 9:-0.234732 10:-0.459216 
8 1:-0.0142077 2:0.139078 3:-0.0903278 4:0.216787 5:0.130482 6:0.0236153 7:-0.665491 8:-0.852917 9:0.00868674 10:-0.517796 
8 1:-0.330521 2:0.158375 3:0.230735 4:0.10706 5:0.162774 6:-0.227449 7:-0.902088 8:-0.766855 9:-0.0116317 10:-0.481217 
8 1:0.0338778 2:0.0444548 3:-0.308764 4:-0.359065 5:-0.302636 6:0.146939 7:-0.819618 8:-0.610113 9:-0.0323795 10:-0.287559 
3.724977437964072 1:0.136858 2:0.106294 3:-0.225079 4:0.0400043 5:-0.0861784 6:-0.55046 7:-0.365649 8:-0.490227 9:-0.0454525 10:-0.62981 
8 1:-0.101352 2:-0.17625 3:-0.15877 4:-0.00607932 5:-0.198031 6:0.228615 7:-0.823807 8:-0.618499 9:0.287357 10:-0.411681 
8 1:-0.54862 2:0.167913 3:0.362539 4:-0.26906 5:-0.0803471 6:-0.14743 7:-0.969021 8:-0.622641 9:0.312996 10:-0.125856 
8 1:0.187168 2:-0.28198 3:-0.27014 4:-0.0457757 5:-0.337054 6:-0.280498 7:-0.75587 8:-0.528549 9:0.0404262 10:-0.340555 
8 1:-0.0908221 2:-0.334306 3:-0.291872 4:0.403112 5:-0.192356 6:-0.192572 7:-0.934274 8:-0.683318 9:0.140172 10:-0.612782 
8 1:0.217479 2:0.412034 3:0.0608797 4:-0.206452 5:-0.524457 6:-0.349913 7:-0.646506 8:-0.397614 9:-0.100372 10:-0.259673 
8 1:-0.0149168 2:0.224603 3:-0.21031 4:-0.290809 5:-0.1428 6:-0.28688 7:-0.774079 8:-0.38253 9:0.0154379 10:-0.189289 
8 1:-0.374615 2:-0.104897 3:-0.189429 4:0.222498 5:0.315602 6:-0.0405721 7:-0.931693 8:-0.78725 9:0.548805 10:-0.540509 
8 1:-0.154058 2:0.40458 3:0.169099 4:-0.054481 5:-0.104256 6:-0.039065 7:-0.876989 8:-0.380596 9:-0.104002 10:-0.384074 
8 1:-0.0714215 2:0.255719 3:-0.012756 4:-0.321499 5:0.148626 6:0.356921 7:-0.816617 8:-0.770745 9:0.461521 10:-0.686496 
8 1:-0.259986 2:-0.352402 3:-0.153063 4:-0.0313895 5:-0.0429848 6:-0.118615 7:-0.804392 8:-0.712174 9:0.101876 10:-0.779096 
8 1:0.0941453 2:0.262438 3:-0.118794 4:-0.154339 5:-0.165977 6:-0.361225 7:-0.57953 8:-0.54079 9:-0.377965 10:-0.414646 
8 1:0.337773 2:0.135228 3:-0.595937 4:-0.162358 5:-0.178364 6:-0.135664 7:-0.866649 8:-0.645098 9:-0.17444 10:-0.755397 
8 1:0.130687 2:-0.303975 3:-0.354733 4:-0.506831 5:-0.874668 6:0.18396 7:-0.740567 8:-0.847493 9:-0.178511 10:-0.393698 
8 1:0.0558641 2:-0.223574 3:-0.387487 4:-0.221872 5:-0.365199 6:-0.238569 7:-0.916164 8:-0.793307 9:0.12572 10:-0.64694 
8 1:0.355089 2:0.147169 3:0.404349 4:0.179558 5:-0.347061 6:-0.385253 7:-0.959568 8:-0.804051 9:0.508779 10:-0.330626 
8 1:0.0387539 2:0.261629 3:-0.0606828 4:-0.150757 5:0.113583 6:0.0383352 7:-0.705005 8:-0.60122 9:-0.200274 10:-0.720876 
8 1:-0.375128 2:-0.285903 3:-0.104001 4:0.0942859 5:0.0146729 6:-0.0111711 7:-0.80418 8:-0.882592 9:-0.252111 10:-0.425007 
8 1:0.10329 2:-0.377216 3:-0.112281 4:0.388009 5:-0.067032 6:-0.0620433 7:-0.93522 8:-0.516673 9:-0.0997089 10:-0.200588 
8 1:0.200035 2:-0.0555869 3:-0.034671 4:-0.0162472 5:0.279488 6:0.0117789 7:-0.564187 8:-0.674064 9:-0.179526 10:-0.276837 
8 1:0.222714 2:-0.619547 3:-0.452808 4:0.216957 5:0.152641 6:-0.161194 7:-0.840499 8:-0.498171 9:-0.594956 10:-0.526104 
8 1:-0.20216 2:0.133585 3:-0.362061 4:-0.223325 5:-0.419021 6:-0.583994 7:-0.676428 8:-0.710584 9:0.140393 10:-0.398249 
8 1:0.164581 2:-0.602481 3:-0.191162 4:0.314805 5:-0.0383553 6:-0.417408 7:-0.840059 8:-0.733976 9:-0.0486395 10:-0.686848 
8 1:-0.39081 2:0.251796 3:0.327405 4:0.352661 5:0.428561 6:-0.0557691 7:-0.985361 8:-0.622367 9:0.396936 10:-0.30219 
8 1:-0.0996809 2:0.123483 3:0.078802 4:0.0454663 5:-0.080312 6:0.1457 7:-0.572229 8:-0.54312 9:-0.0695173 10:-0.659665 
3.225923984204666 1:-0.00693722 2:0.217934 3:0.164545 4:-0.115578 5:-0.0389523 6:0.197818 7:-0.612484 8:-0.355921 9:-0.0275926 10:0.0721819 
8 1:-0.0386641 2:0.0307236 3:0.259587 4:0.152318 5:-0.416545 6:-0.372803 7:-0.928246 8:-0.407378 9:-0.127117 10:-0.146133 
5.870022443269992 1:0.175177 2:-0.426894 3:-0.54762 4:-0.346668 5:-0.184055 6:-0.372324 7:-0.512465 8:-0.641823 9:0.06773 10:-0.634148 
8 1:-0.192727 2:-0.187578 3:-0.251898 4:0.461721 5:0.145713 6:-0.224258 7:-0.626101 8:-0.62936 9:-0.0882749 10:-0.70644 
8 1:-0.532639 2:-0.00519824 3:0.279077 4:-0.203069 5:0.343321 6:-0.243388 7:-0.781071 8:-0.825644 9:0.542483 10:-0.51376 
8 1:-0.197019 2:0.43116 3:0.281934 4:-0.194373 5:-0.378239 6:-0.211891 7:-0.585839 8:-0.405011 9:-0.243382 10:-0.558126 
8 1:0.366864 2:-0.079641 3:-0.278344 4:-0.346158 5:-0.436963 6:-0.536021 7:-0.595872 8:-0.237375 9:-0.449058 10:-0.608428 
8 1:-0.306982 2:-0.0928573 3:-0.243397 4:-0.0671859 5:-0.202649 6:-0.228214 7:-0.823108 8:-0.565192 9:0.0393466 10:-0.839585 
8 1:-0.322797 2:0.192433 3:0.369399 4:0.394576 5:0.286785 6:-0.184206 7:-0.963008 8:-0.775193 9:0.541806 10:0.123586 
2.907958224158229 1:-0.303172 2:-0.248192 3:-0.0187016 4:0.170515 5:0.0431 6:0.192888 7:-0.73442 8:-0.558726 9:-0.133283 10:-0.0616876 
8 1:0.185478 2:0.0321948 3:-0.252224 4:-0.0127153 5:0.0864008 6:0.00742534 7:-0.510512 8:-0.615018 9:-0.132853 10:-0.244416 
8 1:0.257913 2:-0.348944 3:-0.414218 4:-0.341168 5:0.0381543 6:-0.195449 7:-0.697585 8:-0.576191 9:-0.0545191 10:-0.215732 
8 1:-0.164134 2:0.0411691 3:0.15538 4:0.52815 5:0.176637 6:-0.223482 7:-0.808912 8:-0.844682 9:-0.389959 10:0.11392 
8 1:-0.359057 2:0.0529632 3:0.150879 4:-0.125467 5:-0.196478 6:0.061038 7:-0.967032 8:-0.607813 9:-0.304611 10:-0.634604 
2.541005094015918 1:-0.305916 2:0.134002 3:-0.197857 4:-0.397502 5:-0.687937 6:-0.236767 7:-0.634304 8:-0.648287 9:0.12291 10:0.124978 
8 1:-0.211227 2:-0.35147 3:-0.114213 4:-0.180813 5:-0.398429 6:0.130514 7:-0.678815 8:-0.529 9:-0.0274625 10:-0.238603 
8 1:0.00231162 2:-0.428929 3:0.0197663 4:-0.0463328 5:0.14932 6:-0.0793729 7:-0.770687 8:-0.69832 9:0.114025 10:-0.134122 
8 1:0.0902406 2:-0.0948925 3:-0.15136 4:0.0986037 5:-0.146308 6:0.0378741 7:-0.911321 8:-0.446445 9:-0.398895 10:-0.272157 
8 1:0.590626 2:-0.418851 3:-0.537129 4:0.17153 5:-0.264129 6:-0.712038 7:-0.889949 8:-0.875752 9:-0.0977707 10:-0.550981 
8 1:0.0249905 2:0.271191 3:0.0792037 4:0.125645 5:0.0894541 6:-0.0112577 7:-0.865017 8:-0.757279 9:0.473814 10:-0.354551 
8 1:-0.445036 2:0.229507 3:0.2596 4:-0.166646 5:-0.392601 6:-0.231168 7:-0.652863 8:-0.620877 9:0.0911184 10:-0.675921 
8 1:0.0582396 2:-0.31827 3:-0.225451 4:-0.333448 5:-0.354552 6:-0.0139946 7:-0.737495 8:-0.734336 9:-0.543916 10:-0.252859 
5.103422399950094 1:-0.29276 2:0.384498 3:0.480305 4:0.255678 5:0.0433672 6:-0.384003 7:-0.703541 8:-0.817537 9:-0.583826 10:-0.222214 
8 1:-0.0754373 2:-0.204105 3:0.126122 4:0.025638 5:0.146012 6:0.149511 7:-0.640989 8:-0.487675 9:0.128516 10:-0.128871 
8 1:-0.0593008 2:0.121619 3:-0.208434 4:0.20269 5:0.0749079 6:0.101033 7:-0.988681 8:-0.575261 9:0.228886 10:-0.723128 
8 1:0.0672591 2:0.249123 3:0.16016 4:-0.733518 5:-0.460572 6:-0.221643 7:-0.816322 8:-0.344604 9:-0.273314 10:-0.261626 
8 1:-0.0454524 2:-0.128289 3:-0.0545502 4:0.256743 5:-0.118607 6:-0.247996 7:-0.873482 8:-0.418345 9:0.411154 10:-0.519043 
8 1:-0.0384608 2:0.335655 3:-0.165999 4:-0.232707 5:-0.082341 6:0.0878823 7:-0.827976 8:-0.691501 9:-0.0184089 10:-0.350485 
8 1:-0.0731776 2:0.00691465 3:0.103435 4:0.155283 5:0.535581 6:-0.277201 7:-0.91279 8:-0.314857 9:-0.30945 10:-0.662293 
8 1:0.375759 2:0.0187333 3:0.238597 4:-0.0742198 5:-0.159998 6:0.0579724 7:-0.992867 8:-0.520194 9:-0.303544 10:-0.438933 
8 1:0.567737 2:-0.544884 3:-0.392525 4:-0.387536 5:-0.572785 6:-0.251443 7:-0.98058 8:-0.798961 9:-0.314835 10:-0.429198 
8 1:-0.152125 2:-0.181644 3:0.233119 4:-0.116772 5:0.0209237 6:-0.0956477 7:-0.84616 8:-0.73608 9:0.454744 10:-0.16954 
8 1:-0.0716035 2:0.188804 3:-0.0122174 4:0.0201959 5:-0.345555 6:0.109673 7:-0.923062 8:-0.696388 9:-0.00139446 10:0.0401268 
8 1:-0.251555 2:0.337395 3:0.118172 4:0.0183752 5:0.362785 6:0.0145565 7:-0.883168 8:-0.560498 9:-0.0277226 10:-0.0298727 
8 1:-0.450373 2:-0.106245 3:0.0888088 4:-0.0794132 5:-0.0525581 6:-0.045788 7:-0.953424 8:-0.523762 9:-0.108515 10:-0.902674 
8 1:-0.612856 2:0.583748 3:0.0102955 4:0.154945 5:0.618242 6:0.153024 7:-0.897852 8:-0.797429 9:0.330374 10:0.174584 
8 1:-0.262771 2:0.21916 3:-0.300568 4:0.146986 5:-0.147235 6:-0.486668 7:-0.930728 8:-0.59453 9:0.170337 10:0.152999 
8 1:-0.329562 2:0.287129 3:-0.160039 4:-0.270085 5:-0.494762 6:0.240365 7:-0.891693 8:-0.51074 9:0.0824161 10:-0.672637 
8 1:-0.376447 2:0.0169924 3:0.339494 4:0.141553 5:-0.180832 6:-0.285017 7:-0.995833 8:-0.78913 9:0.318134 10:0.0641889 
8 1:-0.0856434 2:0.281147 3:-0.0457734 4:-0.12681 5:-0.156968 6:-0.261779 7:-0.99636 8:-0.718891 9:0.293445 10:0.0222935 
8 1:-0.203248 2:-0.0179732 3:-0.144864 4:-0.155374 5:-0.110571 6:-0.214155 7:-0.956939 8:-0.710865 9:-0.0426298 10:0.0387684 
8 1:0.0721967 2:0.123483 3:0.177919 4:0.389283 5:0.000657463 6:0.145135 7:-0.838669 8:-0.841306 9:0.137687 10:0.110317 
8 1:0.0960173 2:0.412451 3:0.174434 4:0.01159 5:0.168377 6:0.123324 7:-0.687475 8:-0.377143 9:0.237953 10:0.0484512 
3.038463645541973 1:-0.204559 2:-0.185518 3:0.25914 4:0.00468547 5:0.368332 6:0.443873 7:-0.952285 8:-0.503618 9:0.240476 10:-0.00871794 
8 1:0.173568 2:0.365422 3:0.419703 4:0.047267 5:-0.244867 6:-0.076371 7:-0.839448 8:-0.738944 9:0.121323 10:0.0688687 
0.1242790184234325 1:0.173572 2:-0.136356 3:0.0881806 4:0.336742 5:0.0517835 6:-0.342017 7:-0.717927 8:-0.401591 9:0.0487514 10:0.192418 
8 1:0.346419 2:-0.144987 3:0.0653688 4:-0.00387065 5:-0.371795 6:0.188658 7:-0.810094 8:-0.499926 9:-0.183728 10:0.0431335 
8 1:-0.422856 2:-0.108991 3:-0.150541 4:-0.454348 5:-0.438713 6:0.123663 7:-0.762653 8:-0.802759 9:0.121336 10:-0.530315 
8 1:-0.11746 2:-0.164505 3:-0.543372 4:-0.577929 5:-0.332501 6:0.287106 7:-0.81204 8:-0.822623 9:-0.472619 10:-0.362043 
8 1:0.103855 2:-0.209646 3:-0.101561 4:-0.0888746 5:-0.356101 6:0.016493 7:-0.663135 8:-0.629646 9:0.215176 10:-0.486825 
8 1:0.134046 2:-0.10649 3:-0.00492206 4:-0.473197 5:-0.354494 6:0.540627 7:-0.854759 8:-0.561513 9:-0.129796 10:-0.328254 
8 1:-0.0589818 2:-0.0270701 3:-0.199026 4:-0.0743093 5:-0.142313 6:0.35926 7:-0.851348 8:-0.620163 9:-0.146785 10:-0.464664 
8 1:0.246651 2:-0.151019 3:-0.114928 4:-0.210849 5:-0.225223 6:0.385053 7:-0.761494 8:-0.856548 9:0.0588846 10:-0.578546 
8 1:0.0171622 2:0.135939 3:-0.371645 4:-0.705532 5:-0.585718 6:-0.0368493 7:-0.676832 8:-0.787163 9:-0.0733287 10:-0.467733 
8 1:-0.0176444 2:-0.199323 3:-0.401386 4:-0.336518 5:-0.304525 6:-0.0205268 7:-0.723587 8:-0.557915 9:-0.312728 10:-0.673872 
8 1:-0.0795594 2:-0.327857 3:-0.342069 4:-0.229603 5:-0.374674 6:0.189337 7:-0.965344 8:-0.878263 9:0.0372913 10:-0.443717 
2.682733358275735 1:0.408344 2:-0.165265 3:-0.423716 4:-0.228289 5:-0.485278 6:-0.134 7:-0.170176 8:-0.0870184 9:-0.474651 10:-0.40247 
0.464332552335999 1:0.153411 2:-0.232621 3:-0.311489 4:-0.245491 5:-0.522321 6:-0.172788 7:-0.25353 8:0.0117648 9:-0.407833 10:-0.56021 
8 1:-0.160903 2:0.0166736 3:-0.0808069 4:-0.0760305 5:0.120523 6:0.0214862 7:-0.323952 8:-0.27684 9:0.155313 10:-0.428238 
8 1:0.139773 2:0.104774 3:-0.0373587 4:-0.289854 5:-0.227962 6:0.0524067 7:-0.227031 8:-0.168358 9:-0.221308 10:-0.444484 
8 1:0.222204 2:-0.0295221 3:-0.155378 4:-0.589131 5:-0.42317 6:-0.180568 7:-0.169486 8:-0.181274 9:-0.366388 10:-0.338776 
8 1:0.219211 2:0.0560773 3:-0.268697 4:-0.015491 5:0.0994096 6:0.00166882 7:-0.239743 8:-0.187413 9:0.0375905 10:-0.280347 
8 1:0.379089 2:-0.0660569 3:-0.12522 4:0.0599221 5:-0.161763 6:-0.512122 7:-0.177829 8:-0.0411236 9:-0.193353 10:-0.438097 
6.015566201797808 1:0.0891864 2:0.0318025 3:-0.130648 4:-0.353834 5:-0.367879 6:0.0173058 7:-0.183465 8:-0.154976 9:-0.0342266 10:-0.44204 
8 1:0.191044 2:-0.102028 3:0.0380033 4:-0.365439 5:-0.253557 6:0.0645859 7:-0.226807 8:-0.121237 9:-0.229073 10:-0.28052 
2.250871633310454 1:0.337619 2:0.118579 3:0.0165189 4:0.055863 5:0.341782 6:0.427317 7:-0.18872 8:-0.164838 9:-0.214608 10:-0.350147 
8 1:0.153281 2:-0.274526 3:-0.134648 4:-0.489304 5:-0.322163 6:0.15936 7:-0.31469 8:-0.17653 9:-0.329482 10:-0.325293 
0.980255960626882 1:-0.246911 2:-0.200672 3:-0.0297092 4:-0.399634 5:0.0394868 6:-0.225086 7:-0.253337 8:-0.252993 9:-0.260449 10:-0.447083 
3.549210555278862 1:0.492959 2:-0.323419 3:-0.489639 4:0.0114209 5:-0.0745548 6:0.393251 7:-0.320983 8:-0.261176 9:0.000842918 10:-0.391079 
0.3476125511260577 1:0.573832 2:-0.0747615 3:0.0923142 4:-0.169899 5:-0.137189 6:0.0358439 7:-0.0291033 8:-0.0856833 9:-0.0728604 10:-0.383915 
8 1:-0.0191571 2:0.115416 3:0.183962 4:-0.335326 5:-0.0500823 6:0.20365 7:-0.229663 8:-0.178335 9:-0.124216 10:-0.411583 
0.004137958408967239 1:0.102193 2:0.001839 3:0.0287143 4:0.0135997 5:0.213051 6:-0.20966 7:-0.197777 8:-0.0808939 9:-0.246816 10:-0.517146 
3.615423578680651 1:0.455661 2:0.216389 3:-0.295257 4:0.0410091 5:-0.165363 6:-0.097851 7:-0.168106 8:-0.0446149 9:0.079112 10:-0.307128 
8 1:0.17184 2:-0.269598 3:-0.35339 4:0.0167834 5:-0.431702 6:-0.28659 7:-0.339572 8:-0.216997 9:-0.246309 10:-0.608821 
8 1:0.23198 2:0.0120884 3:-0.145371 4:0.0626183 5:0.118938 6:-0.035586 7:-0.237898 8:-0.115304 9:-0.162017 10:-0.677869 
8 1:0.377009 2:-0.469681 3:-0.355489 4:-0.550431 5:-0.0904529 6:0.27434 7:-0.158872 8:-0.117905 9:-0.0198008 10:-0.439633 
-8 1:0.101889 2:-0.145428 3:0.0566328 4:-0.377531 5:-0.490048 6:0.0966707 7:-0.803174 8:-0.715483 9:0.00940218 10:-0.363956 
-8 1:-0.127033 2:0.0289581 3:0.133982 4:0.168525 5:0.0348124 6:-0.255948 7:-0.64664 8:-0.624695 9:-0.155682 10:-0.224033 
-8 1:-0.26084 2:0.246475 3:0.18043 4:-0.470369 5:-0.423217 6:-0.22401 7:-0.908707 8:-0.461171 9:-0.0523858 10:-0.372185 
-8 1:0.355042 2:-0.503298 3:-0.0122648 4:0.081193 5:0.028903 6:0.0419538 7:-0.532774 8:-0.661214 9:-0.465619 10:0.0219374 
-0.1961300283620316 1:0.459911 2:-0.13616 3:0.139027 4:-0.096008 5:-0.101068 6:-0.13457 7:-0.780729 8:-0.360488 9:-0.257548 10:-0.144045 
-8 1:-0.17288 2:0.301989 3:0.0760182 4:0.0171018 5:-0.096415 6:0.141687 7:-0.749693 8:-0.566621 9:-0.0417843 10:-0.0457677 
-7.388497357469177 1:-0.254193 2:-0.334404 3:0.19671 4:0.478107 5:0.263748 6:-0.424018 7:-0.82367 8:-0.64771 9:0.262902 10:-0.459267 
-8 1:0.0319443 2:-0.153103 3:-0.37539 4:-0.575552 5:-0.296091 6:0.437689 7:-0.515839 8:-0.598648 9:-0.171942 10:-0.718852 
-8 1:0.0071854 2:-0.250742 3:-0.758598 4:-0.387188 5:-0.327247 6:0.16271 7:-0.383322 8:-0.394702 9:-0.176716 10:-0.586318 
-8 1:0.129231 2:-0.0695878 3:-0.0196945 4:0.0728757 5:0.205977 6:0.28066 7:-0.649003 8:-0.557802 9:0.0718275 10:0.19593 
-8 1:0.0481186 2:-0.310644 3:-0.355748 4:-0.149951 5:-0.222102 6:-0.391126 7:-0.970585 8:-0.685829 9:-0.369426 10:-0.436898 
-8 1:0.282663 2:-0.188657 3:-0.0773054 4:-0.214062 5:-0.306848 6:0.194643 7:-0.871891 8:-0.60746 9:0.085616 10:-0.175656 
-8 1:0.031474 2:-0.192041 3:-0.00911755 4:-0.229981 5:-0.103031 6:0.0385437 7:-0.68312 8:-0.573786 9:-0.0983691 10:-0.278755 
-8 1:-0.356339 2:0.287277 3:0.183178 4:-0.253838 5:-0.400526 6:0.064236 7:-0.821196 8:-0.60014 9:0.215176 10:-0.199423 
-8 1:0.0306112 2:-0.291151 3:0.0059841 4:0.135156 5:0.0544602 6:0.132858 7:-0.973685 8:-0.744359 9:-0.222712 10:0.253786 
-8 1:0.76586 2:-0.108452 3:-0.502608 4:-0.456973 5:-0.559607 6:-0.301737 7:-0.684659 8:-0.628395 9:-0.219304 10:-0.406544 
-8 1:0.0885364 2:0.0214305 3:-0.279212 4:0.290629 5:-0.113464 6:-0.427169 7:-0.848022 8:-0.340612 9:0.0377206 10:-0.461461 
-8 1:-0.528096 2:0.0920236 3:0.383819 4:0.0232204 5:0.108534 6:0.0822441 7:-0.925759 8:-0.596494 9:0.305048 10:0.10972 
-0.7007943105613351 1:-0.266848 2:0.364784 3:0.315777 4:-0.321012 5:-0.450597 6:0.202677 7:-0.828784 8:-0.670511 9:0.227741 10:-0.450815 
-8 1:0.35312 2:-0.148395 3:0.0706929 4:0.185667 5:-0.229884 6:-0.0477545 7:-0.943976 8:-0.765209 9:0.219702 10:-0.0975695 
-4.762229096951101 1:0.0245273 2:-0.171493 3:0.0372382 4:-0.146131 5:-0.270914 6:-0.407832 7:-0.878349 8:-0.615075 9:0.348052 10:-0.42228 
-8 1:-0.0485156 2:-0.0352107 3:-0.273727 4:-0.328408 5:0.0825458 6:0.117575 7:-0.875064 8:-0.866037 9:0.396585 10:-0.412536 
-8 1:0.135955 2:0.0148101 3:0.218936 4:0.458707 5:-0.0745002 6:-0.154407 7:-0.651636 8:-0.60317 9:-0.0635467 10:-0.683672 
-8 1:0.0769807 2:0.167741 3:-0.37981 4:-0.533179 5:-0.619233 6:-0.0496274 7:-0.516669 8:-0.418983 9:-0.267837 10:-0.535911 
-2.286479255206098 1:0.0999693 2:0.443518 3:0.118518 4:-0.348973 5:-0.183694 6:-0.00525384 7:-0.828449 8:-0.540173 9:-0.217132 10:-0.438462 
-8 1:-0.304567 2:0.213471 3:0.152752 4:0.358441 5:0.0682728 6:-0.377646 7:-0.890589 8:-0.497101 9:0.441242 10:0.013994 
-1.585587654706984 1:-0.21533 2:-0.0414143 3:0.110005 4:-0.0810448 5:-0.0376451 6:-0.479016 7:-0.871942 8:-0.771682 9:0.352904 10:-0.285428 
-8 1:-0.308398 2:-0.279896 3:-0.116904 4:-0.133247 5:-0.632817 6:-0.41133 7:-0.683191 8:-0.725144 9:0.110305 10:-0.625267 
-0.7684793674658211 1:-0.101881 2:-0.279087 3:-0.475143 4:-0.0268826 5:0.181889 6:0.382844 7:-0.794323 8:-0.774363 9:0.26393 10:-0.707752 
-8 1:0.0572398 2:0.152294 3:-0.00105183 4:-0.105937 5:-0.254598 6:0.103839 7:-0.560007 8:-0.634709 9:-0.039651 10:-0.0640068 
-8 1:-0.346395 2:0.0132163 3:-0.241294 4:-0.0479048 5:-0.020475 6:0.0367839 7:-0.680293 8:-0.582348 9:0.353828 10:-0.333987 
-8 1:-0.0573981 2:0.372999 3:0.251094 4:0.161362 5:0.0263668 6:0.0384289 7:-0.888215 8:-0.411782 9:-0.120951 10:-0.409048 
-8 1:0.0184315 2:-0.196405 3:-0.448771 4:-0.488782 5:-0.239005 6:-0.228738 7:-0.783197 8:-0.649474 9:-0.240585 10:-0.525536 
-4.981542354637792 1:-0.166382 2:0.130275 3:0.118667 4:-0.426168 5:-0.617555 6:-0.471109 7:-0.874457 8:-0.685302 9:-0.222582 10:-0.459267 
-8 1:0.243729 2:0.138783 3:-0.0887449 4:0.110682 5:-0.166756 6:0.0104149 7:-0.714892 8:-0.269147 9:-0.0301421 10:-0.0661024 
-8 1:-0.305025 2:-0.148738 3:-0.100498 4:0.0350298 5:0.0360747 6:0.0875713 7:-0.896128 8:-0.945607 9:0.499595 10:-0.828798 
-8 1:0.0353456 2:-0.119486 3:-0.326595 4:-0.193747 5:-0.498059 6:-0.0325558 7:-0.826404 8:-0.747458 9:0.235091 10:-0.334206 
-8 1:-0.0656684 2:-0.357992 3:-0.376677 4:0.146578 5:-0.333127 6:-0.396158 7:-0.693825 8:-0.827479 9:0.0201078 10:-0.580753 
-8 1:-0.14783 2:-0.53282 3:-0.030735 4:0.493647 5:-0.0467677 6:-0.227055 7:-0.890507 8:-0.561372 9:0.0553724 10:-0.275114 
-8 1:0.200111 2:-0.218964 3:-0.218191 4:-0.572836 5:-0.340238 6:-0.045371 7:-0.582237 8:-0.518415 9:-0.0368022 10:-0.442151 
-7.969747119751204 1:0.13835 2:-0.170978 3:-0.427166 4:-0.325561 5:-0.652137 6:-0.159037 7:-0.840581 8:-0.55695 9:-0.388956 10:-0.85568 
-6.404139850375107 1:0.0396403 2:0.57649 3:0.00413393 4:-0.011412 5:0.0269853 6:0.335407 7:-0.745107 8:-0.613572 9:0.231787 10:-0.319267 
-8 1:-0.0858443 2:-0.141579 3:-0.0370572 4:0.0295678 5:0.000554064 6:0.0836841 7:-0.856315 8:-0.942344 9:-0.108775 10:-0.0264021 
-8 1:-0.358939 2:-0.0601231 3:-0.130941 4:-0.416099 5:-0.621933 6:-0.0735334 7:-0.521278 8:-0.525522 9:-0.0498622 10:-0.405141 
-2.917399619511625 1:0.0406708 2:-0.0711571 3:-0.232465 4:-0.049616 5:-0.154711 6:0.038754 7:-0.754986 8:-0.850217 9:-0.286283 10:-0.450382 
-8 1:0.194176 2:0.189246 3:0.0598934 4:-0.168765 5:-0.253385 6:-0.17341 7:-0.539212 8:-0.569102 9:-0.110675 10:-0.53093 
-8 1:-0.162856 2:-0.114901 3:-0.160679 4:-0.483096 5:-0.547761 6:0.0364111 7:-0.959879 8:-0.576295 9:-0.202004 10:-0.483344 
-4.795020387895701 1:-0.324986 2:0.0155457 3:-0.0770816 4:0.153373 5:0.41485 6:0.0419309 7:-0.992424 8:-0.685289 9:0.0208102 10:-0.0279262 
-8 1:0.24788 2:-0.236226 3:-0.632889 4:-0.18913 5:-0.144029 6:-0.221475 7:-0.807982 8:-0.918294 9:-0.191675 10:-0.618703 
-8 1:0.237652 2:-0.315622 3:0.014566 4:-0.0865963 5:-0.356741 6:0.0123726 7:-0.820429 8:-0.502631 9:-0.516745 10:-0.463674 
-8 1:0.057755 2:0.0132899 3:-0.27972 4:-0.193369 5:-0.133604 6:-0.119062 7:-0.709837 8:-0.47819 9:-0.477392 10:-0.122037 
-8 1:0.431214 2:0.316014 3:0.215525 4:0.319331 5:0.194301 6:-0.198788 7:-0.977255 8:-0.735666 9:0.220964 10:0.117904 
-8 1:-0.20662 2:0.416448 3:0.477566 4:-0.0876011 5:-0.139618 6:-0.0766784 7:-0.886641 8:-0.996579 9:0.212314 10:-0.0719088 
-8 1:-0.246559 2:0.278523 3:0.0501368 4:0.23777 5:0.227765 6:0.091886 7:-0.553256 8:-0.598864 9:0.156835 10:-0.464935 
-4.341099248379888 1:0.0823367 2:-0.210848 3:-0.451693 4:0.605772 5:0.377655 6:0.142991 7:-0.727207 8:-0.642289 9:0.162766 10:-0.236256 
-5.194642484844113 1:0.174674 2:0.0828777 3:0.0903837 4:0.11489 5:0.0640803 6:-0.582729 7:-0.989718 8:-0.673946 9:0.0371222 10:-0.316446 
-7.950118908793694 1:0.111116 2:0.0935439 3:-0.124803 4:0.173032 5:0.10948 6:-0.0750547 7:-0.945904 8:-0.434662 9:0.415564 10:-0.478737 
-5.561257622094342 1:-0.340028 2:0.269254 3:0.244799 4:0.482922 5:0.0620337 6:-0.149967 7:-0.704163 8:-0.620228 9:-0.0554297 10:-0.411844 
-8 1:-0.0268484 2:0.317265 3:0.165421 4:-0.552696 5:-0.258846 6:0.23972 7:-0.832999 8:-0.468042 9:0.207852 10:-0.540819 
-8 1:-0.261849 2:-0.0867273 3:-0.33832 4:-0.285675 5:0.0610388 6:0.439826 7:-0.463143 8:-0.604246 9:-0.101062 10:-0.715002 
-8 1:0.0352037 2:0.0821666 3:0.219107 4:-0.176107 5:-0.194014 6:-0.127324 7:-0.853594 8:-0.596032 9:-0.366979 10:-0.274593 
-8 1:-0.217644 2:0.073511 3:-0.0330974 4:0.274054 5:0.326451 6:-0.565346 7:-0.959725 8:-0.443949 9:0.00149332 10:-0.953618 
-8 1:-0.371417 2:-0.103131 3:0.167201 4:-0.207635 5:-0.116966 6:0.445039 7:-0.764479 8:-0.306607 9:-0.23615 10:-0.553616 
-8 1:0.209412 2:-0.192605 3:-0.151635 4:-0.0772144 5:-0.2563 6:0.170094 7:-0.824303 8:-0.675403 9:-0.0956374 10:-0.17797 
-8 1:-0.120188 2:0.0770174 3:-0.0680954 4:0.455801 5:0.333106 6:-0.0172492 7:-0.663106 8:-0.315526 9:-0.327427 10:-0.291283 
-8 1:-0.0644346 2:-0.201628 3:-0.144369 4:-0.201517 5:-0.570903 6:0.105035 7:-0.744893 8:-0.516747 9:-0.333059 10:-0.176629 
-0.2413292060632829 1:-0.627153 2:0.0906015 3:0.00731017 4:-0.122542 5:-0.0916859 6:-0.1189 7:-0.651955 8:-0.675808 9:0.321386 10:-0.356231 
-8 1:0.0219769 2:-0.213496 3:0.140643 4:0.0222752 5:-0.14028 6:0.0938349 7:-0.90286 8:-0.706618 9:0.0764194 10:-0.194492 
-6.996763387074389 1:-0.00945448 2:-0.0528161 3:-0.182103 4:0.378876 5:-0.284785 6:-0.316357 7:-0.913295 8:-0.983951 9:0.458347 10:-0.329871 
-8 1:0.0256004 2:0.0278057 3:-0.274507 4:-0.168924 5:0.179868 6:0.00212115 7:-0.672207 8:-0.267936 9:-0.351164 10:-0.460236 
-8 1:-0.282471 2:0.426575 3:0.12892 4:-0.118393 5:-0.103122 6:-0.117078 7:-0.74961 8:-0.476504 9:-0.213711 10:-0.103715 
-5.762983526798404 1:0.0749196 2:0.0818723 3:0.259785 4:0.172166 5:0.271554 6:-0.186628 7:-0.539818 8:-0.571351 9:0.231175 10:-0.488722 
-7.365015504069396 1:0.272691 2:-0.49604 3:-0.525261 4:0.359416 5:0.320961 6:-0.449069 7:-0.736455 8:-0.851709 9:-0.121237 10:-0.634365 
-8 1:-0.166068 2:0.275556 3:-0.284292 4:-0.52542 5:-0.54245 6:0.134378 7:-0.83668 8:-0.693156 9:0.0115875 10:-0.299301 
-8 1:-0.182805 2:-0.120737 3:-0.0531452 4:0.130082 5:0.211783 6:0.190992 7:-0.786701 8:-0.578935 9:0.148718 10:-0.117159 
-2.950840519228511 1:0.162972 2:-0.128166 3:-0.137611 4:0.050988 5:-0.463639 6:0.186411 7:-0.782366 8:-0.803308 9:0.162402 10:-0.760511 
-0.02467656610114132 1:-0.136991 2:0.319177 3:0.396816 4:0.354869 5:0.0802418 6:0.203822 7:-0.783342 8:-0.696782 9:0.339961 10:-0.291006 
-8 1:-0.516188 2:0.0330285 3:0.108759 4:-0.17552 5:0.107367 6:-0.0336177 7:-0.770791 8:-0.831918 9:0.246018 10:-0.672509 
-8 1:-0.47778 2:0.369885 3:-0.0633191 4:-0.172416 5:-0.261873 6:-0.030121 7:-0.817509 8:-0.683292 9:-0.0243796 10:-0.912102 
-8 1:-0.0811927 2:0.213005 3:0.0348363 4:-0.132352 5:-0.030612 6:-0.476131 7:-0.647358 8:-0.491251 9:-0.256273 10:-0.197129 
-8 1:-0.00316725 2:0.0494569 3:-0.254681 4:0.0379648 5:0.176743 6:0.207871 7:-0.659893 8:-0.376222 9:0.039984 10:-0.168555 
-8 1:0.0443131 2:0.219234 3:-0.199538 4:-0.21061 5:-0.721454 6:-0.33537 7:-0.847051 8:-0.788348 9:-0.306497 10:-0.122435 
-8 1:0.212121 2:-0.0516882 3:-0.314615 4:0.192751 5:-0.0214407 6:-0.388974 7:-0.52184 8:-0.400167 9:-0.620725 10:-0.904732 
-8 1:0.233606 2:-0.714955 3:-0.498637 4:-0.292202 5:-0.377298 6:-0.245821 7:-0.90229 8:-0.589148 9:-0.486975 10:-0.250397 
-8 1:0.0444077 2:-0.105412 3:0.074912 4:-0.0113125 5:-0.126904 6:-0.0269547 7:-0.637945 8:-0.503923 9:-0.0257064 10:-0.488414 
-4.573201328396475 1:0.0115037 2:-0.13513 3:-0.301879 4:0.0591959 5:0.116586 6:-0.321841 7:-0.870203 8:-0.931054 9:-0.212358 10:-0.602681 
-8 1:0.139881 2:-0.0726528 3:-0.0219713 4:-0.0702402 5:-0.163804 6:0.184098 7:-0.623026 8:-0.536495 9:-0.16605 10:-0.273575 
-8 1:-0.185887 2:0.470049 3:0.359418 4:-0.0701109 5:0.117444 6:0.117092 7:-0.866297 8:-0.452731 9:-0.157816 10:-0.183806 
-8 1:-0.275754 2:-0.140328 3:-0.071959 4:0.173599 5:-0.261624 6:-0.224814 7:-0.803773 8:-0.514695 9:-0.205087 10:-0.66317 
-8 1:-0.344162 2:0.297354 3:0.172898 4:0.0185643 5:0.13559 6:-0.31542 7:-0.933838 8:-0.800391 9:0.288697 10:-0.00471726 
-7.363608550452098 1:-0.238113 2:0.295417 3:0.0495706 4:-0.18724 5:-0.0682455 6:0.0510833 7:-0.961389 8:-0.675843 9:0.110604 10:-0.912915 
-2.736767628426196 1:-0.350407 2:0.468063 3:0.284463 4:0.011202 5:-0.0432892 6:-0.498266 7:-0.94093 8:-0.789275 9:0.129219 10:-0.00190933 
-8 1:0.0531932 2:0.326582 3:0.117583 4:-0.217167 5:-0.486542 6:-0.192814 7:-0.844204 8:-0.492787 9:-0.179461 10:-0.219695 
-1.884358264885257 1:-0.561364 2:0.214084 3:0.536403 4:-0.12881 5:0.0586781 6:0.0606121 7:-0.915516 8:-0.720616 9:-0.0691791 10:-0.769274 
-8 1:-0.230526 2:0.400093 3:0.319873 4:0.338732 5:0.0925365 6:-0.43407 7:-0.995059 8:-0.555099 9:0.250362 10:-0.0102254 
-8 1:-0.191474 2:0.208028 3:-0.0557762 4:0.0686374 5:-0.0649153 6:0.188347 7:-0.76887 8:-0.583535 9:0.247891 10:-0.240356 
-8 1:0.100841 2:-0.307309 3:-0.0824346 4:-0.0124566 5:-0.271275 6:-0.0843025 7:-0.950991 8:-0.505713 9:0.115873 10:-0.92413 
-6.122392098009518 1:-0.536901 2:0.411348 3:-0.320301 4:-0.00356223 5:-0.0803471 6:-0.376947 7:-0.932834 8:-0.681325 9:0.287799 10:0.0353227 
-4.883601653503942 1:-0.13162 2:0.259961 3:0.30199 4:-0.191976 5:-0.151324 6:0.0925468 7:-0.952853 8:-0.651532 9:0.216711 10:-0.218645 
-6.113464701466618 1:-0.0873877 2:0.329574 3:0.508801 4:-0.131397 5:-0.237928 6:0.308584 7:-0.994181 8:-0.580458 9:-0.275941 10:-0.511227 
-8 1:-0.136033 2:0.178064 3:0.00792119 4:0.110473 5:0.210931 6:-0.263596 7:-0.904041 8:-0.855077 9:0.303786 10:-0.0377912 
-8 1:-0.37999 2:-0.00637521 3:0.0362848 4:-0.476992 5:0.0587074 6:0.011521 7:-0.938678 8:-0.737731 9:0.486379 10:-0.326718 
-0.3512112577649788 1:-0.364465 2:0.330554 3:0.0775089 4:0.33325 5:0.393421 6:-0.127273 7:-0.871078 8:-0.542824 9:-0.0358136 10:-0.879029 
-8 1:-0.15784 2:-0.00833681 3:-0.0295419 4:-0.465644 5:-0.325454 6:-0.423803 7:-0.868837 8:-0.677346 9:0.294004 10:-0.473161 
-0.9082319645910565 1:-0.00165217 2:-0.0913126 3:0.413922 4:0.211365 5:0.168196 6:-0.0189454 7:-0.959451 8:-0.988887 9:0.391551 10:-0.89329 
-2.404639017909204 1:-0.251676 2:0.21124 3:0.351846 4:-0.0447311 5:0.0144232 6:0.290313 7:-0.98157 8:-0.606528 9:0.184568 10:-0.623728 
-5.779108353297809 1:-0.48722 2:0.134296 3:-0.273813 4:0.0652349 5:0.196845 6:0.471683 7:-0.895039 8:-0.827622 9:-0.0288283 10:-0.337782 
-8 1:-0.144417 2:-0.755584 3:0.0328163 4:0.584024 5:0.484252 6:0.107403 7:-0.982475 8:-0.76576 9:0.0192102 10:-0.572193 
-0.2988669838296244 1:0.333247 2:-0.643062 3:-0.267548 4:0.130689 5:0.0170277 6:-0.289291 7:-0.949836 8:-0.867012 9:0.217608 10:-0.549497 
-8 1:-0.638574 2:-0.238163 3:0.153907 4:0.202481 5:0.181119 6:0.0851666 7:-0.903748 8:-0.774199 9:0.307389 10:-0.320178 
-2.94687952434036 1:-0.235603 2:-0.493711 3:-0.148082 4:0.207535 5:0.651544 6:-0.0304496 7:-0.979595 8:-0.872538 9:-0.400648 10:-0.631693 
-0.3091549055727076 1:-0.0690342 2:-0.216806 3:0.282698 4:0.268831 5:0.325458 6:-0.290993 7:-0.850527 8:-0.748967 9:-0.0274625 10:-0.250053 
-2.769350196547465 1:-0.171299 2:-0.0937646 3:-0.448856 4:0.123814 5:0.226681 6:0.423412 7:-0.911295 8:-0.716711 9:0.151202 10:-0.3289 
-2.366770734044929 1:-0.0219864 2:-0.479881 3:0.0655914 4:0.129207 5:-0.105914 6:-0.0548662 7:-0.935355 8:-0.829075 9:-0.346627 10:-0.455321 
-0.8010188241622716 1:-0.00692777 2:0.0271437 3:-0.0503877 4:0.190652 5:0.098838 6:-0.255848 7:-0.763845 8:-0.552808 9:-0.217015 10:-0.166492 
-8 1:-0.134372 2:0.230954 3:0.139317 4:-0.00370151 5:0.307896 6:0.0914567 7:-0.843598 8:-0.764324 9:0.276664 10:0.0947199 
-8 1:0.0373948 2:0.0252556 3:-0.285945 4:0.0284834 5:-0.061505 6:0.220187 7:-0.718051 8:-0.506207 9:0.0248036 10:-0.433183 
-3.843040846865394 1:-0.287636 2:-0.443469 3:-0.18451 4:-0.215217 5:-0.224763 6:-0.16542 7:-0.856142 8:-0.63743 9:0.164783 10:-0.464314 
-5.399624045628458 1:0.509088 2:-0.0547532 3:-0.506225 4:0.0937685 5:-0.368562 6:0.0549316 7:-0.921219 8:-0.419442 9:0.153453 10:-0.513286 
-8 1:0.30598 2:-0.0635069 3:-0.294666 4:-0.115428 5:-0.55168 6:-0.153213 7:-0.622084 8:-0.386274 9:-0.563876 10:-0.484894 
-1.527595832848273 1:0.277973 2:-0.49246 3:-0.108112 4:0.25912 5:-0.302933 6:-0.386673 7:-0.965296 8:-0.518406 9:-0.295401 10:-0.570757 
-2.643190298868961 1:0.119838 2:-0.0417331 3:-0.35089 4:-0.0546104 5:-0.143481 6:-0.541779 7:-0.960015 8:-0.65363 9:-0.171773 10:-0.418628 
-5.800037978512276 1:0.206424 2:-0.530098 3:-0.448203 4:-0.37431 5:-0.140264 6:0.299983 7:-0.998308 8:-0.725698 9:0.103697 10:-0.640367 
-8 1:-7.56358e-005 2:0.176373 3:0.216803 4:-0.122005 5:0.181368 6:-0.10306 7:-0.178066 8:-0.0689672 9:0.00305428 10:-0.354338 
-6.965079887947595 1:0.287745 2:-0.099257 3:-0.0834103 4:-0.457447 5:-0.430602 6:-0.144666 7:-0.175868 8:-0.0158392 9:-0.00711797 10:-0.596032 
-8 1:0.306715 2:-0.12748 3:-0.17381 4:-0.294341 5:-0.32818 6:-0.198509 7:-0.320394 8:-0.274435 9:-0.205386 10:-0.36798 
-8 1:0.632906 2:-0.193855 3:-0.0740278 4:-0.185738 5:-0.517018 6:-0.25741 7:-0.0843665 8:0.101318 9:0.0249337 10:-0.480489 
-7.840816366886058 1:0.115401 2:-0.0329549 3:-0.419392 4:-0.297514 5:0.252673 6:-0.170808 7:-0.20296 8:-0.131641 9:-0.109309 10:-0.434392 
-8 1:0.133511 2:0.183459 3:-0.0531926 4:-0.363685 5:0.176752 6:-0.0793129 7:-0.218215 8:-0.176613 9:-0.201692 10:-0.497762 
-8 1:0.261033 2:-0.292058 3:-0.0670801 4:-0.537612 5:-0.146132 6:-0.0145017 7:-0.130677 8:-0.199601 9:0.0858111 10:-0.372675 
-8 1:0.276248 2:-0.130079 3:-0.143614 4:-0.458075 5:-0.0318255 6:0.216264 7:-0.225591 8:-0.137298 9:-0.30426 10:-0.476212 
-8 1:0.278243 2:0.0274624 3:-0.110516 4:-0.215873 5:-0.271571 6:-0.275573 7:-0.333627 8:-0.140499 9:-0.263922 10:-0.31917 
-8 1:0.0255531 2:0.0702499 3:0.122841 4:-0.237333 5:-0.0904705 6:-0.101406 7:-0.268853 8:-0.13366 9:0.177804 10:-0.410076 
-8 1:0.340347 2:-0.236422 3:0.0152784 4:-0.191379 5:-0.198981 6:-0.168233 7:-0.237693 8:-0.109151 9:-0.184508 10:-0.388582 
