svm_type c_svc
kernel_type polynomial
degree 2
gamma 8
coef0 1
nr_class 2
total_sv 434
rho 5.10641
label -1 1
nr_sv 217 217
SV
8 1:0.205557 2:-0.204154 3:-0.107942 4:0.349626 5:0.14251 6:-0.0976037 7:-0.757782 8:-0.575287 9:0.0419872 10:-0.392563 
8 1:-0.0600856 2:-0.0468823 3:0.069513 4:-0.266484 5:-0.22296 6:-0.348724 7:-0.784357 8:-0.591219 9:-0.153601 10:-0.467804 
8 1:-0.108112 2:-0.182257 3:-0.199613 4:-0.372947 5:-0.350867 6:-0.0938137 7:-0.927941 8:-0.440817 9:0.0240622 10:-0.0338402 
8 1:-0.127033 2:0.0289581 3:0.133982 4:0.168525 5:0.0348124 6:-0.255948 7:-0.64664 8:-0.624695 9:-0.155682 10:-0.224033 
8 1:-0.0112768 2:-0.0133879 3:0.0617501 4:-0.24768 5:-0.451279 6:-0.576331 7:-0.987706 8:-0.860482 9:-0.0144285 10:-0.614071 
8 1:-0.182467 2:-0.219479 3:0.00260638 4:0.0183951 5:-0.341058 6:-0.569143 7:-0.915997 8:-0.777508 9:0.0319971 10:-0.316509 
8 1:0.355042 2:-0.503298 3:-0.0122648 4:0.081193 5:0.028903 6:0.0419538 7:-0.532774 8:-0.661214 9:-0.465619 10:0.0219374 
8 1:0.00615014 2:0.111125 3:0.100196 4:0.0274288 5:0.215039 6:-0.135033 7:-0.931734 8:-0.632727 9:0.363116 10:-0.227977 
8 1:0.250844 2:-0.296594 3:0.0420303 4:0.562444 5:0.46086 6:-0.172066 7:-0.883343 8:-0.482933 9:0.0564261 10:-0.864108 
6.553166278183804 1:-0.224163 2:0.205797 3:0.269569 4:-0.0857407 5:-0.509 6:-0.0989447 7:-0.746731 8:-0.695103 9:-0.122785 10:0.120314 
8 1:0.156391 2:-0.282103 3:-0.33227 4:0.0297967 5:0.301068 6:0.400425 7:-0.556573 8:-0.75886 9:-0.0765026 10:-0.464409 
8 1:0.287506 2:-0.249712 3:-0.0778269 4:0.156029 5:0.0345451 6:-0.437535 7:-0.921932 8:-0.521819 9:-0.110362 10:-0.439691 
0.4060716430609445 1:0.0319443 2:-0.153103 3:-0.37539 4:-0.575552 5:-0.296091 6:0.437689 7:-0.515839 8:-0.598648 9:-0.171942 10:-0.718852 
8 1:0.0071854 2:-0.250742 3:-0.758598 4:-0.387188 5:-0.327247 6:0.16271 7:-0.383322 8:-0.394702 9:-0.176716 10:-0.586318 
8 1:0.214907 2:0.0397224 3:-0.22651 4:0.592431 5:0.00493976 6:-0.130673 7:-0.800445 8:-0.726085 9:0.0451612 10:-0.143532 
8 1:-0.0043136 2:0.204129 3:-0.586129 4:-0.0320859 5:-0.110883 6:-0.201221 7:-0.999366 8:-0.972479 9:0.560252 10:-0.0615634 
8 1:0.163555 2:-0.076576 3:-0.0357008 4:-0.0400948 5:-0.385262 6:-0.0892587 7:-0.943008 8:-0.882471 9:0.119034 10:-0.515925 
8 1:-0.229493 2:-0.0181939 3:-0.0764653 4:-0.0612463 5:-0.0548016 6:-0.172536 7:-0.940964 8:-0.572854 9:0.134617 10:-0.603054 
8 1:0.224757 2:0.127014 3:-0.326547 4:-0.0723991 5:-0.330527 6:-0.607405 7:-0.36092 8:-0.420059 9:-0.211786 10:-0.600042 
0.7054649100949675 1:0.134532 2:-0.240517 3:0.00727988 4:0.400107 5:-0.135338 6:-0.214349 7:-0.924718 8:-0.728847 9:-0.156385 10:-0.491226 
8 1:-0.131141 2:-0.490082 3:-0.198283 4:-0.0959185 5:-0.147947 6:0.289465 7:-0.872905 8:-0.692768 9:0.305009 10:-0.187641 
4.293116332786212 1:-0.0875272 2:-0.399088 3:0.131664 4:0.250485 5:-0.0801969 6:0.0844616 7:-0.91191 8:-0.762839 9:0.293731 10:-0.279206 
8 1:0.106552 2:0.211755 3:-0.133854 4:-0.30465 5:0.0569867 6:-0.165325 7:-0.765356 8:-0.581464 9:-0.133296 10:-0.241967 
8 1:-0.402198 2:0.206459 3:0.118348 4:0.116611 5:-0.127015 6:-0.437167 7:-0.88253 8:-0.815408 9:0.337607 10:-0.272224 
8 1:-0.197381 2:0.152245 3:-0.0774147 4:0.0492568 5:0.0281831 6:-0.437008 7:-0.852998 8:-0.875142 9:0.298479 10:-0.225454 
8 1:-0.471733 2:-0.471226 3:-0.507521 4:-0.311518 5:-0.00577085 6:0.0328614 7:-0.975874 8:-0.959863 9:0.0797884 10:-0.805153 
8 1:-0.302645 2:-0.0850845 3:0.0816741 4:0.197914 5:0.24537 6:0.0246542 7:-0.784868 8:-0.599504 9:0.0794632 10:-0.196167 
8 1:-0.0276449 2:-0.468161 3:-0.259947 4:0.32359 5:0.318035 6:-0.242957 7:-0.890795 8:-0.565943 9:0.0402571 10:-0.574917 
7.555385419350754 1:0.120866 2:-0.0773852 3:0.345788 4:-0.423781 5:-0.183354 6:0.281314 7:-0.814625 8:-0.675026 9:-0.143442 10:-0.220889 
8 1:-0.583043 2:0.626756 3:0.396224 4:-0.38537 5:-0.189002 6:0.0859404 7:-0.669161 8:-0.630201 9:-0.0111895 10:0.0813678 
8 1:-0.528096 2:0.0920236 3:0.383819 4:0.0232204 5:0.108534 6:0.0822441 7:-0.925759 8:-0.596494 9:0.305048 10:0.10972 
8 1:0.191666 2:-0.389329 3:-0.4961 4:0.320734 5:0.0722566 6:0.0171662 7:-0.978038 8:-0.745855 9:-0.303258 10:-0.422449 
6.324484725111189 1:0.471003 2:-0.262291 3:-0.283842 4:0.290858 5:-0.404988 6:-0.341469 7:-0.912515 8:-0.786619 9:0.0108721 10:-0.389496 
8 1:0.0393046 2:0.217958 3:-0.0503942 4:-0.161761 5:-0.142693 6:-0.029151 7:-0.757122 8:-0.245601 9:0.275077 10:0.0380643 
8 1:0.0541009 2:0.291102 3:0.000367731 4:0.318834 5:0.382207 6:-0.589464 7:-0.831407 8:-0.843839 9:0.328228 10:-0.848446 
0.5012050173949502 1:0.103363 2:-0.19925 3:-0.675257 4:-0.441127 5:-0.295066 6:0.0890219 7:-0.660465 8:-0.525696 9:0.220457 10:-0.431452 
8 1:-0.599229 2:-0.0004904 3:0.0475808 4:0.520858 5:0.48074 6:0.0686161 7:-0.931014 8:-0.692622 9:0.02695 10:-0.270321 
0.7384010135286637 1:0.229193 2:-0.0404335 3:-0.108093 4:0.152457 5:0.405411 6:-0.0241736 7:-0.787779 8:-0.588433 9:-0.356342 10:-0.27929 
8 1:-0.00840739 2:0.222421 3:0.0374779 4:-0.377989 5:0.0899379 6:0.229852 7:-0.919535 8:-0.527957 9:-0.11381 10:-0.371488 
8 1:-0.199166 2:-0.316504 3:-0.211743 4:0.279983 5:0.25445 6:0.140346 7:-0.856149 8:-0.81625 9:0.229536 10:-0.37554 
8 1:0.521041 2:-0.422725 3:-0.199268 4:-0.0881981 5:-0.455999 6:-0.282434 7:-0.938114 8:-0.574995 9:-0.45474 10:-0.60246 
8 1:-0.372133 2:-0.0518353 3:-0.171921 4:-0.39098 5:0.0967974 6:0.647188 7:-0.710299 8:-0.854359 9:0.219937 10:-0.340517 
8 1:0.159523 2:-0.0188559 3:-0.461232 4:0.26497 5:0.246471 6:0.149363 7:-0.974992 8:-0.763009 9:0.0344166 10:-0.482396 
8 1:-0.165463 2:0.0058848 3:0.11161 4:0.358182 5:0.332928 6:-0.0344428 7:-0.900302 8:-0.903035 9:0.506177 10:-0.557942 
8 1:-0.0365463 2:-0.123532 3:-0.0714402 4:-0.104365 5:-0.055978 6:0.21107 7:-0.870338 8:-0.670311 9:0.0295776 10:-0.441504 
8 1:0.0999693 2:0.443518 3:0.118518 4:-0.348973 5:-0.183694 6:-0.00525384 7:-0.828449 8:-0.540173 9:-0.217132 10:-0.438462 
8 1:-0.222873 2:-0.0795429 3:0.112391 4:0.0520923 5:-0.156767 6:-0.0257797 7:-0.612421 8:-0.373964 9:0.341171 10:-0.224924 
3.684721108906202 1:-0.141609 2:0.222691 3:0.120696 4:-0.061704 5:-0.0806729 6:-0.380553 7:-0.479376 8:-0.73077 9:0.23206 10:-0.0861307 
8 1:0.189506 2:0.200745 3:-0.0843348 4:0.106036 5:-0.0252684 6:-0.412254 7:-0.97998 8:-0.579153 9:0.288411 10:-0.838632 
8 1:0.276314 2:-0.192114 3:0.122165 4:0.16946 5:0.112582 6:0.205426 7:-0.807559 8:-0.537242 9:-0.0935951 10:0.193884 
8 1:0.0332088 2:-0.409877 3:-0.316144 4:0.181827 5:-0.0625273 6:0.108111 7:-0.581571 8:-0.389129 9:0.285133 10:-0.641408 
8 1:0.0760187 2:-0.28225 3:-0.343359 4:-0.323676 5:-0.416929 6:0.0644321 7:-0.486817 8:-0.536137 9:-0.625816 10:-0.75833 
1.106815135368518 1:0.346979 2:-0.525513 3:-0.853003 4:-0.013551 5:-0.0652508 6:0.00947139 7:-0.640475 8:-0.449307 9:-0.21133 10:-0.326574 
8 1:-0.267321 2:0.0662041 3:0.151116 4:0.411539 5:0.218321 6:0.0491963 7:-0.933281 8:-0.758409 9:0.0731023 10:-0.110068 
8 1:-0.222771 2:-0.281098 3:-0.413386 4:-0.435328 5:-0.0694375 6:0.422829 7:-0.893233 8:-0.817133 9:-0.0616475 10:-0.767441 
8 1:0.298695 2:-0.209793 3:-0.202408 4:0.0107543 5:-0.17327 6:-0.0780495 7:-0.992611 8:-0.553622 9:-0.228358 10:-0.536939 
8 1:0.0977049 2:-0.151558 3:-0.488332 4:0.0711744 5:0.235128 6:-0.126552 7:-0.891653 8:-0.927055 9:0.234818 10:-0.447198 
8 1:0.471946 2:-0.0816026 3:-0.273004 4:0.237511 5:-0.022621 6:-0.322622 7:-0.996072 8:-0.700259 9:-0.0789871 10:-0.328021 
8 1:0.229101 2:-0.170193 3:-0.196386 4:0.0347711 5:-0.0337823 6:-0.350957 7:-0.802851 8:-0.618059 9:-0.349228 10:-0.284945 
8 1:0.0886121 2:0.0638011 3:0.346197 4:-0.00295534 5:-0.282902 6:-0.097821 7:-0.49979 8:-0.516455 9:-0.132957 10:-0.0772844 
8 1:-0.097504 2:-0.00142216 3:-0.243504 4:0.0893412 5:-0.172772 6:-0.338709 7:-0.902588 8:-0.501873 9:-0.321547 10:-0.335995 
8 1:-0.305025 2:-0.148738 3:-0.100498 4:0.0350298 5:0.0360747 6:0.0875713 7:-0.896128 8:-0.945607 9:0.499595 10:-0.828798 
8 1:-0.0111161 2:-0.0375892 3:-0.231808 4:-0.18525 5:-0.409848 6:-0.463959 7:-0.961039 8:-0.864205 9:0.125355 10:-0.592542 
8 1:0.332755 2:-0.417404 3:-0.367371 4:0.367614 5:0.265344 6:0.112889 7:-0.898238 8:-0.999697 9:-0.147812 10:-0.635997 
8 1:0.00420488 2:0.0353824 3:0.0709944 4:0.725677 5:0.31426 6:0.125593 7:-0.684143 8:-0.913024 9:-0.073823 10:-0.336035 
8 1:-0.0352416 2:0.0602947 3:-0.0338441 4:-0.0852333 5:0.179396 6:0.0746553 7:-0.55632 8:-0.517119 9:-0.0192544 10:-0.490626 
8 1:0.0174388 2:0.045264 3:-0.31247 4:0.0334081 5:-0.272502 6:-0.311434 7:-0.668761 8:-0.541881 9:-0.432682 10:-0.341998 
5.983068035551088 1:-0.494169 2:-0.402251 3:-0.132803 4:0.128868 5:-0.0543041 6:-0.159904 7:-0.859254 8:-0.660035 9:0.427622 10:-0.991097 
8 1:-0.202274 2:0.0840056 3:0.225362 4:0.245868 5:0.0404389 6:-0.151556 7:-0.993071 8:-0.919903 9:0.15024 10:-0.270406 
6.885002328900086 1:-0.141824 2:-0.12645 3:-0.125829 4:0.113885 5:-0.118012 6:0.217646 7:-0.863029 8:-0.68926 9:-0.348266 10:-0.810304 
8 1:0.333807 2:0.00826325 3:-0.348045 4:-0.275229 5:-0.220826 6:-0.202505 7:-0.447058 8:-0.805743 9:0.075756 10:-0.691898 
8 1:0.235769 2:-0.15911 3:0.0495311 4:-0.316925 5:0.140243 6:-0.175166 7:-0.72586 8:-0.806446 9:0.0599122 10:-0.879356 
8 1:0.0736504 2:-0.383444 3:0.184884 4:0.57883 5:0.248765 6:-0.444039 7:-0.703335 8:-0.673672 9:0.0345336 10:-0.140318 
8 1:-0.0345868 2:0.43626 3:0.198762 4:0.164277 5:-0.0393269 6:-0.272151 7:-0.780094 8:-0.610592 9:0.0978956 10:-0.210118 
8 1:-0.268297 2:-0.343942 3:-0.108035 4:0.164088 5:0.181208 6:-0.0733761 7:-0.805916 8:-0.651378 9:-0.195136 10:-0.33078 
1.006683392383869 1:0.205911 2:0.00850845 3:-0.335153 4:-0.202611 5:-0.21765 6:-0.518426 7:-0.742826 8:-0.622565 9:-0.271597 10:-0.450975 
8 1:-0.341375 2:0.515117 3:0.360735 4:0.229293 5:0.276474 6:-0.652581 7:-0.904895 8:-0.630399 9:0.169088 10:-0.155335 
8 1:-0.0571783 2:0.0964372 3:0.0107774 4:0.000387512 5:0.126611 6:-0.00220419 7:-0.982189 8:-0.728912 9:-0.0609711 10:-0.00647325 
8 1:-0.262634 2:0.133144 3:-0.0169159 4:-0.33485 5:-0.0472847 6:-0.0907322 7:-0.929726 8:-0.783881 9:0.067652 10:-0.326541 
8 1:-0.269471 2:0.14766 3:-0.0756436 4:0.275904 5:0.197036 6:0.0352679 7:-0.753952 8:-0.998595 9:0.40997 10:-0.456206 
8 1:-0.125388 2:-0.269107 3:-0.31218 4:0.0454364 5:-0.219932 6:-0.310439 7:-0.944049 8:-0.5569 9:-0.114772 10:-0.743606 
8 1:-0.345701 2:0.195326 3:0.190173 4:-0.415026 5:-0.308811 6:0.44435 7:-0.599957 8:-0.530625 9:0.230122 10:0.154059 
8 1:0.194176 2:0.189246 3:0.0598934 4:-0.168765 5:-0.253385 6:-0.17341 7:-0.539212 8:-0.569102 9:-0.110675 10:-0.53093 
8 1:-0.0632339 2:0.211191 3:0.145486 4:0.297822 5:0.146488 6:0.0299355 7:-0.753139 8:-0.590374 9:-0.0495501 10:-0.179244 
8 1:0.399499 2:-0.276635 3:-0.420207 4:0.0576438 5:-0.0406106 6:0.013643 7:-0.793447 8:-0.645554 9:0.0434441 10:-0.434346 
8 1:0.0874728 2:-0.258858 3:-0.251001 4:0.157402 5:-0.158831 6:-0.34451 7:-0.845144 8:-0.76018 9:0.0267548 10:-0.517667 
8 1:-0.531734 2:0.098031 3:-0.0673066 4:-0.541848 5:-0.634027 6:-0.285551 7:-0.869335 8:-0.518716 9:-0.467903 10:-0.266814 
8 1:-0.259121 2:0.0570581 3:-0.353682 4:-0.0364237 5:-0.1654 6:-0.230583 7:-0.833987 8:-0.769349 9:0.129427 10:-0.531343 
8 1:0.31318 2:0.373097 3:0.00280127 4:-0.0654746 5:-0.397092 6:0.059946 7:-0.847765 8:-0.489049 9:0.260404 10:0.222758 
8 1:0.0775078 2:0.133168 3:-0.419516 4:0.0803573 5:-0.379524 6:-0.199528 7:-0.572678 8:-0.584659 9:0.128503 10:-0.515486 
4.682419107151549 1:-0.246523 2:0.222102 3:-0.166036 4:-0.0791346 5:0.156667 6:-0.436436 7:-0.432352 8:-0.600142 9:-0.02503 10:-0.446922 
8 1:-0.358315 2:-0.209303 3:-0.0208467 4:0.0566191 5:-0.0710256 6:-0.14088 7:-0.455172 8:-0.639092 9:0.162025 10:-0.196009 
4.682708616411579 1:0.441217 2:-0.141481 3:0.0587898 4:0.430621 5:0.057252 6:-0.373464 7:-0.348124 8:-0.166324 9:-0.0630393 10:-0.0495199 
7.008062192798311 1:0.10767 2:-0.00669397 3:-0.517633 4:0.0225041 5:-0.115932 6:-0.0289725 7:-0.968719 8:-0.588699 9:0.0623707 10:-0.108983 
8 1:0.00105417 2:0.0691955 3:-0.316659 4:-0.211516 5:-0.171358 6:0.0867073 7:-0.832032 8:-0.495422 9:0.22034 10:-0.644713 
8 1:-0.310799 2:0.198686 3:-0.0449952 4:-0.458168 5:-0.0970217 6:0.0517371 7:-0.735518 8:-0.642012 9:0.00663148 10:-0.613998 
8 1:-0.302297 2:0.129 3:-0.246633 4:-0.0731652 5:-0.173248 6:-0.0461643 7:-0.938219 8:-0.977853 9:0.457398 10:-0.501905 
8 1:-0.30866 2:-0.126106 3:-0.205062 4:0.018425 5:-0.489719 6:-0.163839 7:-0.93428 8:-0.759764 9:-0.177913 10:-0.49305 
8 1:0.302825 2:-0.223598 3:-0.340781 4:0.365007 5:0.465933 6:-0.0662467 7:-0.973603 8:-0.646015 9:0.0459156 10:-0.912454 
4.276318020383587 1:-0.299329 2:0.303018 3:0.415832 4:-0.258415 5:-0.510689 6:0.0663722 7:-0.664358 8:-0.126013 9:0.191111 10:-0.103517 
8 1:0.533587 2:-0.0938626 3:-0.658798 4:0.135485 5:-0.367222 6:-0.136184 7:-0.59598 8:-0.837162 9:-0.296104 10:-0.710242 
8 1:0.205058 2:0.0393792 3:-0.173517 4:0.352183 5:0.292938 6:-0.374164 7:-0.817247 8:-0.613433 9:0.14808 10:-0.742093 
8 1:0.431214 2:0.316014 3:0.215525 4:0.319331 5:0.194301 6:-0.198788 7:-0.977255 8:-0.735666 9:0.220964 10:0.117904 
8 1:0.139376 2:0.106417 3:0.00569834 4:0.0666476 5:-0.177714 6:0.193088 7:-0.847785 8:-0.759997 9:0.0535253 10:0.0205624 
8 1:-0.283594 2:-0.044136 3:0.216052 4:-0.22236 5:0.0220728 6:-0.528169 7:-0.883148 8:-0.826423 9:0.557923 10:-0.253611 
8 1:-0.261976 2:0.233578 3:0.323981 4:0.278809 5:0.587651 6:0.478839 7:-0.900667 8:-0.688227 9:0.248268 10:0.0365817 
8 1:0.22868 2:0.0883702 3:-0.114023 4:-0.237025 5:-0.0374852 6:-0.0413849 7:-0.760038 8:-0.391292 9:0.274037 10:-0.819276 
8 1:-0.0672166 2:-0.349729 3:-0.0408102 4:-0.113837 5:0.232065 6:-0.211755 7:-0.815897 8:-0.586471 9:-0.232612 10:-0.748286 
8 1:-0.226293 2:0.556041 3:0.327247 4:-0.264872 5:-0.554333 6:-0.242732 7:-0.890783 8:-0.541241 9:-0.144847 10:-0.302942 
4.266067160736967 1:0.0575139 2:0.13871 3:-0.17828 4:-0.53057 5:-0.223621 6:-0.0474647 7:-0.828772 8:-0.45683 9:-0.163955 10:-0.505828 
8 1:-0.0304458 2:0.118358 3:-0.000826653 4:0.0510178 5:0.465816 6:0.187725 7:-0.62361 8:-0.570008 9:-0.200248 10:-0.572718 
8 1:0.559452 2:-0.428242 3:-0.404701 4:0.365375 5:0.236312 6:0.199735 7:-0.771891 8:-0.505323 9:-0.0295828 10:-0.410608 
8 1:-0.143311 2:0.260844 3:0.00505967 4:-0.0225349 5:0.0125016 6:-0.244402 7:-0.877354 8:-0.942276 9:0.342264 10:0.0433075 
8 1:-0.340028 2:0.269254 3:0.244799 4:0.482922 5:0.0620337 6:-0.149967 7:-0.704163 8:-0.620228 9:-0.0554297 10:-0.411844 
4.925563621516159 1:-0.397001 2:0.23115 3:0.440246 4:0.171221 5:0.0433945 6:-0.710973 7:-0.816067 8:-0.782036 9:0.193908 10:0.0330366 
8 1:0.0851565 2:-0.463894 3:-0.477365 4:-0.440895 5:-0.282514 6:0.201968 7:-0.897044 8:-0.805272 9:-0.0762034 10:-0.550873 
5.348894572426762 1:0.0367614 2:0.177648 3:0.216065 4:-0.221534 5:-0.431472 6:0.180911 7:-0.715766 8:-0.657049 9:-0.0830977 10:-0.483295 
8 1:-0.191872 2:-0.122894 3:-0.173413 4:-0.0189135 5:-0.238468 6:-0.192549 7:-0.853322 8:-0.504162 9:-0.224104 10:-0.496253 
8 1:-0.0567552 2:0.0846922 3:0.0882702 4:0.174315 5:-0.16689 6:-0.322565 7:-0.918106 8:-0.487276 9:0.135411 10:-0.298159 
8 1:0.28539 2:-0.130226 3:-0.278778 4:0.266075 5:-0.314435 6:-0.015364 7:-0.780239 8:-0.680532 9:0.0804388 10:-0.481427 
8 1:-0.201846 2:0.190619 3:0.0799134 4:-0.17363 5:-0.229067 6:-0.233205 7:-0.85566 8:-0.624952 9:0.138962 10:-0.0812851 
7.19500073341592 1:0.3098 2:0.15401 3:-0.402184 4:-0.192672 5:-0.545308 6:0.0592216 7:-0.920361 8:-0.573664 9:0.000543734 10:-0.600937 
8 1:-0.172095 2:0.155506 3:-0.184543 4:-0.293017 5:-0.0590859 6:-0.0404732 7:-0.820707 8:-0.516516 9:0.332963 10:-0.795258 
8 1:0.500752 2:-0.353579 3:-0.546771 4:-0.186345 5:-0.177821 6:-0.0158569 7:-0.954778 8:-0.551715 9:-0.0871171 10:-0.530302 
8 1:-0.18271 2:-0.0342054 3:0.0305012 4:0.0992205 5:-0.0611695 6:-0.151621 7:-0.745691 8:-0.926607 9:-0.124489 10:-0.598184 
8 1:0.169419 2:-0.254567 3:-0.224158 4:0.525584 5:0.36651 6:0.147251 7:-0.99962 8:-0.7789 9:-0.158791 10:-0.524068 
8 1:-0.120188 2:0.0770174 3:-0.0680954 4:0.455801 5:0.333106 6:-0.0172492 7:-0.663106 8:-0.315526 9:-0.327427 10:-0.291283 
8 1:0.356415 2:0.158326 3:0.0450617 4:-0.231404 5:-0.202452 6:-0.0123496 7:-0.894594 8:-0.636234 9:-0.250003 10:-0.327797 
8 1:-0.195571 2:0.192335 3:-0.316324 4:-0.156209 5:0.0257113 6:0.00969402 7:-0.941989 8:-0.648982 9:0.340078 10:-0.378842 
8 1:-0.00945448 2:-0.0528161 3:-0.182103 4:0.378876 5:-0.284785 6:-0.316357 7:-0.913295 8:-0.983951 9:0.458347 10:-0.329871 
8 1:-0.32677 2:-0.573131 3:-0.38742 4:0.0832624 5:0.180477 6:-0.0345152 7:-0.936061 8:-0.926103 9:0.169908 10:-0.89138 
8 1:-0.285863 2:0.233161 3:0.0272249 4:-0.0688573 5:0.438331 6:-0.0918701 7:-0.851594 8:-0.918779 9:0.208906 10:-0.575299 
8 1:0.356571 2:-0.220312 3:-0.0799325 4:0.124043 5:-0.0384158 6:-0.430734 7:-0.840922 8:-0.727501 9:-0.121367 10:-0.587001 
8 1:0.171412 2:-0.467131 3:-0.447244 4:0.193397 5:-0.2639 6:0.0489701 7:-0.911587 8:-0.932624 9:-0.191871 10:-0.749553 
8 1:-0.161537 2:-0.237599 3:-0.0602943 4:-0.0839399 5:-0.193585 6:-0.242757 7:-0.76327 8:-0.505772 9:-0.299069 10:-0.22641 
8 1:-0.403408 2:-0.254199 3:-0.107582 4:-0.0289818 5:0.0537657 6:-0.313113 7:-0.765469 8:-0.521451 9:-0.0751498 10:-0.390583 
8 1:0.122107 2:0.284187 3:-0.19398 4:0.00447654 5:0.068144 6:-0.208188 7:-0.69166 8:-0.8755 9:0.0877233 10:-0.0318937 
8 1:0.234488 2:-0.386288 3:-0.353536 4:0.302458 5:0.0969944 6:0.10535 7:-0.626794 8:-0.566466 9:-0.188606 10:-0.58623 
8 1:-0.397284 2:0.279357 3:0.395565 4:0.131634 5:-0.00789737 6:-0.0870235 7:-0.667469 8:-0.784521 9:0.181433 10:-0.234804 
8 1:-0.0867779 2:-0.278695 3:-0.195243 4:-0.119627 5:-0.2818 6:0.321643 7:-0.88567 8:-0.682641 9:0.283806 10:-0.633163 
8 1:-0.505089 2:0.488169 3:0.00088262 4:-0.197527 5:-0.179845 6:-0.0068723 7:-0.956334 8:-0.532563 9:-0.0628052 10:-0.0406985 
8 1:-0.0382244 2:0.418655 3:-0.21841 4:3.92984e-005 5:0.195405 6:0.093379 7:-0.548659 8:-0.603366 9:0.0834177 10:-0.337113 
8 1:0.366222 2:-0.230341 3:-0.127549 4:-0.225802 5:-0.493732 6:-0.00939365 7:-0.979353 8:-0.820867 9:-0.194342 10:-0.506275 
8 1:0.329295 2:-0.25849 3:-0.450485 4:0.0879981 5:0.0268233 6:0.174032 7:-0.841316 8:-0.991216 9:0.0415059 10:-0.769183 
7.724570229000354 1:-0.416207 2:0.178162 3:0.106951 4:-0.515683 5:-0.455962 6:-0.178956 7:-0.948334 8:-0.719586 9:0.0913135 10:-0.376677 
8 1:0.295202 2:0.0115734 3:0.0863252 4:0.0353283 5:-0.160413 6:-0.278305 7:-0.941029 8:-0.636988 9:-0.334256 10:-0.281214 
8 1:0.100548 2:-0.286786 3:0.116054 4:0.277068 5:0.225124 6:-0.422018 7:-0.796112 8:-0.787991 9:0.0231907 10:-0.34776 
7.517487344332167 1:0.298303 2:-0.440036 3:-0.0152593 4:0.1246 5:-0.0315465 6:0.3346 7:-0.603718 8:-0.574682 9:0.0843282 10:-0.507294 
8 1:-0.172464 2:0.0303803 3:-0.642788 4:-0.125785 5:-0.0345334 6:-0.40818 7:-0.65339 8:-0.80583 9:-0.102558 10:-0.970768 
8 1:-0.149972 2:0.284113 3:0.111427 4:0.474794 5:0.212045 6:-0.261007 7:-0.700603 8:-0.560222 9:-0.0943106 10:-0.752549 
8 1:-0.00691595 2:-0.166589 3:0.144027 4:0.051754 5:0.219885 6:-0.103199 7:-0.833576 8:-0.749309 9:0.0977135 10:-0.385121 
8 1:-0.498873 2:-0.110561 3:0.243337 4:0.147453 5:0.0715621 6:-0.0134646 7:-0.691921 8:-0.734865 9:0.148536 10:0.16486 
8 1:-0.302401 2:0.296423 3:0.137929 4:-0.0382941 5:0.0131259 6:-0.0550676 7:-0.668075 8:-0.705233 9:0.0720877 10:-0.43586 
4.277326653982315 1:-0.0712277 2:0.149866 3:-0.161451 4:-0.202064 5:-0.0726643 6:-0.198958 7:-0.724358 8:-0.597041 9:0.161401 10:-0.58198 
8 1:-0.0526733 2:0.201015 3:0.0451973 4:0.263448 5:-0.240632 6:-0.123112 7:-0.785057 8:-0.436187 9:0.0882046 10:-0.515959 
8 1:0.125447 2:-0.272491 3:0.00200589 4:0.125247 5:0.166299 6:-0.109124 7:-0.80427 8:-0.709404 9:0.236587 10:-0.195352 
8 1:-0.0798572 2:-0.32874 3:-0.348046 4:-0.191996 5:-0.130874 6:-0.0127154 7:-0.586582 8:-0.490826 9:-0.417248 10:-0.486862 
8 1:0.0753049 2:-0.179217 3:0.0544824 4:0.370539 5:0.134675 6:0.483875 7:-0.570111 8:-0.598115 9:-0.0969122 10:-0.28173 
8 1:-0.47778 2:0.369885 3:-0.0633191 4:-0.172416 5:-0.261873 6:-0.030121 7:-0.817509 8:-0.683292 9:-0.0243796 10:-0.912102 
8 1:0.318481 2:0.148616 3:-0.243301 4:-0.060341 5:-0.224718 6:0.186282 7:-0.888119 8:-0.540899 9:0.0998468 10:-0.485816 
8 1:-0.350496 2:0.114043 3:-0.00321279 4:0.0160571 5:0.0434394 6:-0.559164 7:-0.798803 8:-0.723659 9:0.260157 10:-0.449876 
8 1:0.0871348 2:-0.404237 3:-0.0652273 4:0.164426 5:0.228271 6:0.0334834 7:-0.854435 8:-0.650628 9:-0.0546232 10:-0.00402149 
8 1:-0.280458 2:0.0931516 3:-0.305003 4:0.153383 5:0.462753 6:-0.12054 7:-0.836446 8:-0.616645 9:-0.0784148 10:-0.503502 
8 1:0.584577 2:-0.373612 3:-0.395382 4:0.306418 5:-0.0844246 6:-0.315931 7:-0.443997 8:-0.412497 9:-0.290887 10:-0.449388 
8 1:-0.0488584 2:-0.353873 3:-0.160753 4:0.0469089 5:0.0763633 6:-0.14505 7:-0.800778 8:-0.683179 9:0.137648 10:-0.31854 
8 1:0.216609 2:-0.091239 3:0.0743418 4:-0.0999578 5:-0.384417 6:0.128127 7:-0.862747 8:-0.549197 9:0.266687 10:-0.12545 
8 1:-0.366822 2:0.0114754 3:0.0515366 4:0.0112418 5:0.238008 6:0.134844 7:-0.823959 8:-0.504883 9:0.118812 10:-0.417494 
8 1:-0.038501 2:-0.0926121 3:-0.315657 4:0.374688 5:0.618808 6:-0.281572 7:-0.968487 8:-0.813131 9:0.482191 10:-0.801105 
8 1:0.036291 2:-0.169041 3:-0.153219 4:-0.424653 5:-0.385069 6:0.185586 7:-0.85316 8:-0.419233 9:0.429847 10:-0.0539761 
8 1:0.074974 2:0.275777 3:0.082135 4:-0.0795922 5:0.0530868 6:-0.227141 7:-0.945734 8:-0.694615 9:0.197108 10:-0.484487 
8 1:0.0115037 2:-0.13513 3:-0.301879 4:0.0591959 5:0.116586 6:-0.321841 7:-0.870203 8:-0.931054 9:-0.212358 10:-0.602681 
3.8725110487666 1:-0.185887 2:0.470049 3:0.359418 4:-0.0701109 5:0.117444 6:0.117092 7:-0.866297 8:-0.452731 9:-0.157816 10:-0.183806 
8 1:-0.380469 2:0.13361 3:-0.0939333 4:-0.405099 5:-0.54168 6:-0.261733 7:-0.897538 8:-0.508067 9:-0.208378 10:-0.540828 
8 1:-0.266817 2:-0.105191 3:-0.115019 4:0.0326023 5:-0.160772 6:-0.134505 7:-0.84289 8:-0.347588 9:0.0248167 10:-0.451217 
8 1:-0.227165 2:0.43729 3:0.404862 4:-0.118135 5:-0.0488513 6:-0.28707 7:-0.985309 8:-0.488319 9:0.152529 10:-0.182787 
8 1:-0.350407 2:0.468063 3:0.284463 4:0.011202 5:-0.0432892 6:-0.498266 7:-0.94093 8:-0.789275 9:0.129219 10:-0.00190933 
1.515344211628992 1:-0.436412 2:0.291322 3:0.227127 4:-0.286859 5:-0.240074 6:-0.0835746 7:-0.84388 8:-0.521854 9:-0.0861415 10:-0.220428 
8 1:-0.314792 2:0.0654685 3:0.173399 4:0.279118 5:0.0379085 6:-0.0357344 7:-0.951091 8:-0.451764 9:-0.0839822 10:-0.794236 
8 1:-0.366058 2:0.285413 3:-0.0244523 4:-0.218132 5:-0.174405 6:-0.146386 7:-0.772361 8:-0.588338 9:0.262304 10:-0.135713 
8 1:-0.230526 2:0.400093 3:0.319873 4:0.338732 5:0.0925365 6:-0.43407 7:-0.995059 8:-0.555099 9:0.250362 10:-0.0102254 
4.483455572909835 1:0.100841 2:-0.307309 3:-0.0824346 4:-0.0124566 5:-0.271275 6:-0.0843025 7:-0.950991 8:-0.505713 9:0.115873 10:-0.92413 
8 1:-0.439829 2:0.22377 3:0.3342 4:-0.297514 5:-0.0372472 6:0.0859298 7:-0.944324 8:-0.680339 9:0.458958 10:-0.811394 
8 1:-0.213215 2:0.0582596 3:0.19357 4:0.0689856 5:-0.19631 6:-0.253793 7:-0.986957 8:-0.740863 9:-0.190596 10:-0.1008 
8 1:-0.200052 2:0.171861 3:-0.225177 4:0.236506 5:0.0378266 6:-0.60867 7:-0.911268 8:-0.911911 9:0.247019 10:-0.0149053 
8 1:-0.00165217 2:-0.0913126 3:0.413922 4:0.211365 5:0.168196 6:-0.0189454 7:-0.959451 8:-0.988887 9:0.391551 10:-0.89329 
8 1:-0.251676 2:0.21124 3:0.351846 4:-0.0447311 5:0.0144232 6:0.290313 7:-0.98157 8:-0.606528 9:0.184568 10:-0.623728 
8 1:-0.278356 2:-0.219258 3:0.243719 4:0.172425 5:0.473678 6:0.395937 7:-0.842127 8:-0.736058 9:0.13571 10:-0.263292 
8 1:-0.0936726 2:0.350146 3:0.418531 4:-0.106653 5:0.0378832 6:-0.0252585 7:-0.977318 8:-0.525616 9:0.360514 10:-0.993139 
8 1:0.401912 2:-0.446191 3:0.134327 4:0.738611 5:0.618944 6:-0.0271208 7:-0.89462 8:-0.624603 9:0.32335 10:-0.441162 
8 1:-0.0219864 2:-0.479881 3:0.0655914 4:0.129207 5:-0.105914 6:-0.0548662 7:-0.935355 8:-0.829075 9:-0.346627 10:-0.455321 
6.336259160532523 1:-0.380746 2:0.527328 3:0.373785 4:0.1189 5:0.272102 6:0.180881 7:-0.89878 8:-0.0372315 9:0.539348 10:-0.125566 
8 1:-0.236433 2:0.288184 3:0.300304 4:0.140767 5:0.284083 6:-0.273197 7:-0.70751 8:-0.803667 9:0.0440425 10:-0.285962 
8 1:0.119523 2:-0.272859 3:-0.080379 4:0.525504 5:0.0340184 6:-0.00134548 7:-0.935756 8:-0.793793 9:-0.303479 10:0.0260375 
8 1:-0.0522289 2:-0.147218 3:-0.00402133 4:0.297533 5:0.0493741 6:0.149547 7:-0.94306 8:-0.959609 9:0.0453953 10:-0.0575875 
6.248640248897082 1:-0.0373901 2:-0.0940588 3:-0.158443 4:-0.250496 5:-0.268087 6:-0.227636 7:-0.802383 8:-0.893518 9:-0.0569126 10:-0.72361 
3.518135308702616 1:-0.0593008 2:-0.140034 3:-0.302687 4:-0.30524 5:-0.235786 6:-0.322433 7:-0.718963 8:-0.73738 9:-0.19896 10:-0.348461 
5.262300543959534 1:0.0124846 2:0.257411 3:-0.17091 4:-0.346482 5:-0.420753 6:-0.21207 7:-0.587159 8:-0.620927 9:-0.237672 10:-0.482985 
8 1:-0.1049 2:-0.104235 3:-0.152999 4:-0.137227 5:-0.291842 6:-0.0651937 7:-0.936701 8:-0.56052 9:-0.288299 10:-0.514512 
3.543043343253481 1:0.227843 2:-0.174828 3:-0.404777 4:-0.273617 5:-0.39385 6:-0.320851 7:-0.872425 8:-0.852226 9:-0.0750327 10:-0.354747 
8 1:-0.0122459 2:0.156683 3:-0.0681033 4:-0.174296 5:-0.119935 6:-0.0571331 7:-0.648029 8:-0.818732 9:-0.0830456 10:-0.293211 
0.8328357308435874 1:0.425745 2:-0.0261874 3:0.0895528 4:0.0591561 5:-0.364124 6:-0.441448 7:-0.876149 8:-0.399768 9:-0.304377 10:-0.475551 
8 1:-0.00186017 2:0.146139 3:-0.103292 4:-0.370205 5:-0.383399 6:0.0200603 7:-0.779522 8:-0.859957 9:-0.223922 10:-0.670869 
0.4700072129925692 1:0.0421315 2:0.154746 3:0.0229412 4:-0.191468 5:-0.0885566 6:0.127086 7:-0.894955 8:-0.461835 9:-0.0450883 10:-0.53088 
8 1:-7.56358e-005 2:0.176373 3:0.216803 4:-0.122005 5:0.181368 6:-0.10306 7:-0.178066 8:-0.0689672 9:0.00305428 10:-0.354338 
8 1:0.424326 2:0.0819214 3:-0.0758806 4:0.0436954 5:0.0171077 6:0.146027 7:-0.262042 8:0.0143174 9:-0.177341 10:-0.431835 
8 1:0.34176 2:-0.0323174 3:-0.061386 4:-0.497409 5:-0.420958 6:-0.104207 7:-0.218483 8:-0.143385 9:-0.191858 10:-0.477598 
8 1:0.375355 2:-0.283623 3:-0.365795 4:-0.227066 5:0.0311486 6:-0.111514 7:-0.1932 8:-0.222261 9:-0.191962 10:-0.317069 
8 1:0.169904 2:-0.154157 3:-0.234444 4:-0.216759 5:-0.255835 6:-0.120004 7:-0.290827 8:-0.0664015 9:0.0370572 10:-0.291086 
0.8515066455078749 1:0.193498 2:0.0276095 3:0.119693 4:0.128391 5:-0.0908724 6:-0.486985 7:-0.271007 8:-0.138572 9:-0.0719888 10:-0.397288 
8 1:0.321644 2:-0.209009 3:-0.0795823 4:-0.143544 5:-0.553649 6:-0.222219 7:-0.366331 8:-0.240581 9:-0.142934 10:-0.349468 
3.001533036033171 1:0.306715 2:-0.12748 3:-0.17381 4:-0.294341 5:-0.32818 6:-0.198509 7:-0.320394 8:-0.274435 9:-0.205386 10:-0.36798 
8 1:0.0587525 2:-0.0211117 3:-0.126009 4:-0.0957096 5:0.0461727 6:-0.240122 7:-0.186802 8:-0.183495 9:0.0738568 10:-0.183558 
8 1:0.0941288 2:0.0596817 3:-0.124605 4:-0.551619 5:-0.564451 6:-0.100908 7:-0.30118 8:-0.0930951 9:-0.0894196 10:-0.456566 
8 1:0.0343883 2:-0.15298 3:-0.202795 4:-0.24968 5:-0.146527 6:-0.147064 7:-0.348444 8:-0.25066 9:0.0229955 10:-0.416163 
8 1:0.276248 2:-0.130079 3:-0.143614 4:-0.458075 5:-0.0318255 6:0.216264 7:-0.225591 8:-0.137298 9:-0.30426 10:-0.476212 
8 1:0.278243 2:0.0274624 3:-0.110516 4:-0.215873 5:-0.271571 6:-0.275573 7:-0.333627 8:-0.140499 9:-0.263922 10:-0.31917 
6.457328664047672 1:0.0319136 2:0.270897 3:-0.126369 4:-0.637012 5:-0.313343 6:-0.215596 7:-0.220702 8:-0.218112 9:0.0717495 10:-0.306688 
-8 1:-0.136969 2:0.0484761 3:-0.206116 4:-0.255092 5:-0.200132 6:-0.483103 7:-0.878819 8:-0.453508 9:-0.295245 10:-0.358864 
-8 1:-0.184561 2:0.341834 3:0.119194 4:0.120491 5:0.114461 6:-0.485525 7:-0.87649 8:-0.727085 9:-0.0622068 10:-0.381549 
-1.174585257780472 1:0.185147 2:-0.119192 3:-0.0764376 4:-0.0902476 5:0.247649 6:0.591213 7:-0.666934 8:-0.65684 9:-0.0626881 10:-0.841591 
-8 1:-0.190685 2:-0.0898904 3:0.17221 4:0.0272298 5:0.140225 6:0.0769046 7:-0.954366 8:-0.848257 9:0.337178 10:-0.719469 
-8 1:-0.311664 2:-0.0462693 3:-0.159473 4:-0.0771249 5:-0.0269014 6:0.160086 7:-0.790947 8:-0.675449 9:0.0236199 10:-0.433986 
-8 1:0.228853 2:0.127553 3:-0.0168066 4:0.502542 5:0.136768 6:-0.440756 7:-0.783358 8:-0.923925 9:0.160282 10:-0.404947 
-8 1:0.0576203 2:0.226418 3:0.165914 4:0.143941 5:-0.0535511 6:-0.153748 7:-0.849399 8:-0.654899 9:0.00405589 10:-0.365463 
-8 1:0.0721069 2:-0.259201 3:-0.0534428 4:0.0879583 5:-0.0815801 6:-0.34504 7:-0.766199 8:-0.376799 9:-0.288143 10:-0.462671 
-8 1:-0.240886 2:0.376652 3:-0.135421 4:-0.0657731 5:-0.364008 6:-0.311183 7:-0.944923 8:-0.574222 9:0.154129 10:-0.726985 
-8 1:-0.0822256 2:0.0494569 3:0.0789205 4:0.227542 5:-0.0730799 6:-0.3465 7:-0.892097 8:-0.677058 9:0.0884388 10:-0.501168 
-8 1:0.231063 2:-0.402496 3:-0.0774068 4:-0.00707421 5:-0.0367653 6:0.0890731 7:-0.640676 8:-0.474376 9:0.0122769 10:-0.331672 
-8 1:0.244396 2:0.0122845 3:-0.102349 4:0.170664 5:0.152574 6:0.0504702 7:-0.961017 8:-0.652965 9:0.143814 10:-0.333255 
-8 1:-0.768642 2:0.0601476 3:0.1839 4:-0.0902575 5:-0.10799 6:-0.167942 7:-0.730266 8:-0.720627 9:0.0117956 10:-0.299808 
-8 1:-0.234428 2:0.122159 3:0.335477 4:-0.0033931 5:0.122347 6:-0.0543945 7:-0.916694 8:-0.607188 9:0.124445 10:-0.302059 
-8 1:0.0358632 2:-0.00407032 3:-0.04115 4:-0.0599629 5:-0.423758 6:0.0128302 7:-0.867536 8:-0.609689 9:0.0779413 10:-0.192834 
-2.771056940824325 1:0.224875 2:-0.420298 3:-0.0363158 4:0.162008 5:0.232705 6:-0.205601 7:-0.562 8:-0.405486 9:-0.215818 10:-0.0255821 
-8 1:-0.381547 2:0.546159 3:0.494672 4:-0.460238 5:-0.4778 6:-0.607269 7:-0.922764 8:-0.58213 9:0.0218638 10:-0.393029 
-8 1:-0.113213 2:-0.168256 3:-0.171052 4:0.0335574 5:-0.134788 6:-0.257941 7:-0.917099 8:-0.518955 9:-0.402065 10:-0.216748 
-8 1:0.264449 2:0.137778 3:0.0365429 4:0.201784 5:-0.0196439 6:-0.100773 7:-0.904138 8:-0.85392 9:0.143853 10:-0.477231 
-8 1:0.0569939 2:-0.528627 3:-0.463074 4:0.247649 5:0.314523 6:-0.111663 7:-0.64912 8:-0.623809 9:-0.175207 10:-0.537583 
-8 1:-0.356339 2:0.287277 3:0.183178 4:-0.253838 5:-0.400526 6:0.064236 7:-0.821196 8:-0.60014 9:0.215176 10:-0.199423 
-4.585317195551074 1:-0.16616 2:0.320746 3:-0.0712584 4:0.160546 5:-0.151488 6:0.0675701 7:-0.525081 8:-0.384588 9:-0.304936 10:0.00277056 
-8 1:0.158464 2:-0.0384719 3:0.237741 4:-0.328344 5:-0.258608 6:-0.249814 7:-0.916239 8:-0.514935 9:-0.13803 10:-0.461999 
-8 1:-0.473142 2:-0.0206949 3:-0.179556 4:-0.407885 5:-0.44616 6:0.220259 7:-0.747813 8:-0.456939 9:-0.0953252 10:-0.927015 
-8 1:-0.417318 2:0.0935929 3:-0.16693 4:0.0975889 5:0.101825 6:-0.189028 7:-0.859113 8:-0.921724 9:0.193205 10:-0.406652 
-8 1:-0.0445471 2:0.376726 3:-0.061469 4:0.349755 5:0.194529 6:-0.281125 7:-0.635055 8:-0.729381 9:0.456773 10:-0.37655 
-8 1:-0.0579938 2:0.194934 3:0.0921997 4:0.0477545 5:-0.268132 6:-0.372595 7:-0.733479 8:-0.705797 9:0.136113 10:-0.577225 
-8 1:0.105824 2:0.164186 3:-0.136311 4:-0.613142 5:-0.258202 6:-0.15672 7:-0.746816 8:-0.658262 9:-0.0587337 10:-0.730355 
-8 1:0.0709724 2:-0.594243 3:-0.0494092 4:0.386626 5:0.125203 6:-0.152944 7:-0.919677 8:-0.761937 9:0.0203159 10:-0.734264 
-8 1:-0.0570861 2:0.236103 3:-0.147275 4:-0.760491 5:-0.617622 6:0.0815144 7:-0.952459 8:-0.344332 9:-0.101361 10:-0.741041 
-8 1:-0.050832 2:-0.228281 3:-0.191566 4:0.158327 5:0.0248568 6:0.0536965 7:-0.907108 8:-0.782836 9:0.291949 10:-0.304866 
-8 1:-0.0617023 2:0.109335 3:-0.0342378 4:-0.155055 5:-0.258229 6:-0.268297 7:-0.837944 8:-0.608277 9:0.0404002 10:-0.420768 
-8 1:-0.135216 2:0.343084 3:0.0927119 4:0.109438 5:0.0609744 6:-0.368669 7:-0.846875 8:-0.555652 9:0.367135 10:-0.380707 
-8 1:0.305148 2:-0.363387 3:-0.680356 4:-0.193767 5:0.056298 6:0.0600803 7:-0.844348 8:-0.557062 9:-0.226979 10:-0.228663 
-8 1:-0.419717 2:0.291813 3:0.213682 4:-0.0715634 5:-0.304166 6:-0.0565872 7:-0.793776 8:-0.41471 9:0.118929 10:-0.692545 
-1.583255356247267 1:-0.0984944 2:-0.300689 3:-0.485274 4:0.403888 5:-0.0943255 6:-0.0253804 7:-0.775936 8:-0.864057 9:0.0765494 10:-0.573948 
-8 1:-0.0462655 2:0.0317289 3:-0.331757 4:-0.346343 5:-0.432262 6:0.0474683 7:-0.669064 8:-0.50032 9:0.0293044 10:-0.7328 
-8 1:-0.38379 2:-0.0475934 3:0.263564 4:-0.0924662 5:0.591709 6:0.142931 7:-0.86552 8:-0.723927 9:0.33749 10:-0.224939 
-8 1:0.173837 2:-0.0712552 3:-0.00632187 4:0.0334181 5:-0.263083 6:-0.0378069 7:-0.833532 8:-0.602956 9:0.0442116 10:-0.230727 
-8 1:0.156854 2:-0.0982272 3:-0.442226 4:-0.141395 5:-0.202836 6:-0.0427931 7:-0.753824 8:-0.5983 9:-0.176768 10:-0.594527 
-8 1:-0.346395 2:0.0132163 3:-0.241294 4:-0.0479048 5:-0.020475 6:0.0367839 7:-0.680293 8:-0.582348 9:0.353828 10:-0.333987 
-8 1:-0.3773 2:0.0249123 3:-0.0309378 4:-0.301534 5:0.0876787 6:-0.224487 7:-0.822726 8:-0.580116 9:0.22886 10:-0.308679 
-8 1:0.0184315 2:-0.196405 3:-0.448771 4:-0.488782 5:-0.239005 6:-0.228738 7:-0.783197 8:-0.649474 9:-0.240585 10:-0.525536 
-8 1:0.298036 2:-0.256945 3:-0.229173 4:-0.382092 5:-0.392102 6:0.0178765 7:-0.793366 8:-0.560024 9:-0.225808 10:-0.654221 
-8 1:-0.219649 2:0.106809 3:0.189682 4:0.192283 5:0.243258 6:-0.385615 7:-0.817299 8:-0.682131 9:-0.135104 10:-0.362984 
-8 1:-0.300402 2:0.0855994 3:-0.0246709 4:-0.115727 5:-0.0109935 6:0.251181 7:-0.675075 8:-0.614774 9:0.0592618 10:-0.610049 
-0.6260079568140493 1:0.270722 2:0.11088 3:-0.549511 4:-0.194841 5:-0.0307564 6:0.192788 7:-0.820049 8:-0.450714 9:0.558873 10:-0.624093 
-8 1:0.367361 2:-0.630091 3:-0.439009 4:-0.251819 5:-0.324176 6:-0.315042 7:-0.504639 8:-0.497267 9:-0.0829416 10:-0.565609 
-8 1:0.0851612 2:0.0142216 3:0.00122895 4:0.150159 5:0.209748 6:-0.209921 7:-0.762055 8:-0.47876 9:0.369724 10:-0.710371 
-8 1:0.137073 2:-0.0805483 3:-0.618124 4:-0.200124 5:-0.360655 6:-0.357032 7:-0.470977 8:-0.545697 9:-0.132944 10:-0.657153 
-8 1:-0.130191 2:0.21585 3:-0.446346 4:-0.231175 5:-0.0397775 6:-0.1263 7:-0.858344 8:-0.814588 9:-0.225392 10:-0.824367 
-8 1:0.370117 2:-0.0106417 3:-0.618623 4:0.277874 5:0.171366 6:-0.0326847 7:-0.739208 8:-0.824514 9:-0.0107472 10:-0.466974 
-8 1:0.0558641 2:-0.223574 3:-0.387487 4:-0.221872 5:-0.365199 6:-0.238569 7:-0.916164 8:-0.793307 9:0.12572 10:-0.64694 
-8 1:-0.222031 2:0.166981 3:-0.0176415 4:-0.0269125 5:0.206795 6:-0.276446 7:-0.741618 8:-0.859312 9:0.098572 10:-0.622541 
-0.6522097478718367 1:0.427751 2:-0.541181 3:-0.452175 4:0.163809 5:-0.29272 6:-0.00975763 7:-0.931775 8:-0.592728 9:-0.152768 10:0.0402676 
-8 1:-0.20216 2:0.133585 3:-0.362061 4:-0.223325 5:-0.419021 6:-0.583994 7:-0.676428 8:-0.710584 9:0.140393 10:-0.398249 
-8 1:-0.118677 2:-0.13361 3:0.124531 4:-0.239442 5:-0.123845 6:-0.328665 7:-0.795416 8:-0.604951 9:0.0854339 10:-0.726248 
-8 1:-0.112931 2:0.200034 3:-0.0634126 4:-0.410016 5:-0.121461 6:0.439226 7:-0.924218 8:-0.79614 9:0.0672097 10:0.0163298 
-1.170216867978166 1:-0.159341 2:0.773876 3:0.149782 4:0.304617 5:0.0132956 6:-0.763251 7:-0.955668 8:-0.698725 9:0.228561 10:-0.153662 
-8 1:-0.0192162 2:-0.222813 3:-0.228996 4:-0.172396 5:0.152824 6:-0.0678882 7:-0.557359 8:-0.829243 9:-0.211955 10:-0.616248 
-8 1:-0.00973102 2:-0.266435 3:-0.0857662 4:0.128411 5:-0.183969 6:-0.392619 7:-0.827015 8:-0.805487 9:-0.226277 10:-0.480989 
-8 1:-0.286296 2:-0.0758159 3:0.296894 4:0.433088 5:0.385566 6:-0.0174842 7:-0.979366 8:-0.934313 9:0.0361076 10:-0.404942 
-8 1:-0.011031 2:-0.0471275 3:-0.0556722 4:0.159372 5:0.137519 6:-0.45014 7:-0.897206 8:-0.584652 9:0.269965 10:-0.368289 
-8 1:-0.208743 2:0.129343 3:-0.0914102 4:-0.335305 5:-0.326488 6:0.0768162 7:-0.990739 8:-0.960022 9:0.0350149 10:-0.43108 
-8 1:0.186955 2:-0.175661 3:0.0707271 4:0.466984 5:0.39282 6:0.00293215 7:-0.767678 8:-0.681103 9:0.326381 10:-0.329868 
-8 1:0.345292 2:-0.311944 3:-0.347431 4:-0.322647 5:-0.383455 6:0.108262 7:-0.991704 8:-0.894155 9:0.0766795 10:-0.630782 
-8 1:0.197818 2:-0.111934 3:-0.263735 4:0.186931 5:-0.0312207 6:-0.0912199 7:-0.826564 8:-0.876794 9:-0.010435 10:-0.55815 
-8 1:-0.141361 2:0.290979 3:0.226047 4:-0.121368 5:-0.254659 6:-0.0989748 7:-0.778639 8:-0.668403 9:-0.0601776 10:-0.357918 
-8 1:-0.0608821 2:0.0283206 3:-0.244133 4:0.454448 5:0.238304 6:-0.464135 7:-0.811185 8:-0.758919 9:0.0331938 10:-0.510005 
-8 1:0.185478 2:0.0321948 3:-0.252224 4:-0.0127153 5:0.0864008 6:0.00742534 7:-0.510512 8:-0.615018 9:-0.132853 10:-0.244416 
-8 1:0.193266 2:0.12846 3:-0.239909 4:-0.43235 5:-0.666592 6:-0.0022678 7:-0.43526 8:-0.76853 9:0.0558147 10:-0.386796 
-8 1:0.00382197 2:0.0701518 3:-0.133356 4:-0.201775 5:-0.0882698 6:0.169565 7:-0.804884 8:-0.606644 9:0.152854 10:-0.425167 
-8 1:-0.101959 2:0.20229 3:-0.276357 4:-0.373049 5:-0.276236 6:-0.155526 7:-0.506164 8:-0.55956 9:0.325353 10:-0.548711 
-8 1:-0.315203 2:-0.420077 3:0.00115521 4:0.0804767 5:0.0567974 6:-0.195231 7:-0.775184 8:-0.445151 9:-0.0471566 10:-0.416509 
-8 1:0.119571 2:-0.0373195 3:0.0876539 4:0.263388 5:-0.0638286 6:-0.186923 7:-0.85782 8:-0.529444 9:-0.334022 10:-0.688824 
-8 1:-0.548296 2:-0.262168 3:-0.00810226 4:-0.249958 5:-0.438372 6:-0.414823 7:-0.877512 8:-0.743427 9:-0.130642 10:-0.712812 
-8 1:0.309079 2:0.0154231 3:0.106378 4:0.349149 5:0.0163742 6:-0.00803668 7:-0.937944 8:-0.728265 9:-0.0979528 10:-0.319229 
-8 1:0.639335 2:-0.456465 3:-0.357974 4:0.253211 5:0.13255 6:-0.51832 7:-0.797541 8:-0.604551 9:-0.101465 10:-0.317723 
-8 1:0.178035 2:0.524042 3:-0.114163 4:-0.0670366 5:-0.139685 6:-0.371453 7:-0.674233 8:-0.240385 9:-0.467169 10:-0.634679 
-8 1:0.237664 2:-0.129343 3:-0.050597 4:-0.0328818 5:-0.0725297 6:-0.237145 7:-0.981934 8:-0.61707 9:-0.137341 10:-0.551502 
-8 1:-0.00686395 2:0.0750313 3:0.0938194 4:0.0114408 5:0.286049 6:0.402704 7:-0.704353 8:-0.776693 9:-0.255428 10:-0.437848 
-8 1:0.25442 2:-0.534046 3:-0.454407 4:0.0943754 5:-0.531812 6:-0.51229 7:-0.667256 8:-0.718521 9:-0.219825 10:-0.649837 
-3.997439884780081 1:0.30737 2:-0.204399 3:-0.0510974 4:0.0934601 5:0.373205 6:0.130515 7:-0.979436 8:-0.51126 9:0.0218638 10:-0.173106 
-8 1:-0.667002 2:-0.0211608 3:0.212628 4:-0.125348 5:-0.0394712 6:-0.433925 7:-0.921626 8:-0.85862 9:0.451453 10:-0.257764 
-8 1:0.0834641 2:0.313292 3:0.291495 4:0.278571 5:0.289067 6:0.0287322 7:-0.779019 8:-0.670524 9:-0.0676182 10:-0.349108 
-8 1:-0.29276 2:0.384498 3:0.480305 4:0.255678 5:0.0433672 6:-0.384003 7:-0.703541 8:-0.817537 9:-0.583826 10:-0.222214 
-8 1:0.0108348 2:0.0456563 3:-0.168455 4:0.0577234 5:0.330525 6:-0.09369 7:-0.767751 8:-0.655466 9:0.0291093 10:-0.404002 
-8 1:0.264569 2:-0.0336415 3:-0.221893 4:0.109617 5:-0.123619 6:-0.195839 7:-0.414225 8:-0.820374 9:0.327799 10:-0.432773 
-8 1:-0.119755 2:0.185469 3:0.00408652 4:-0.0573264 5:0.0293439 6:0.0383547 7:-0.889665 8:-0.88035 9:0.0772909 10:-0.420804 
-8 1:-0.0415619 2:-0.0469313 3:0.097205 4:0.405231 5:0.376514 6:-0.273253 7:-0.95592 8:-0.764928 9:0.13904 10:-0.657266 
-8 1:-0.0754373 2:-0.204105 3:0.126122 4:0.025638 5:0.146012 6:0.149511 7:-0.640989 8:-0.487675 9:0.128516 10:-0.128871 
-8 1:-0.114647 2:0.164529 3:0.0426729 4:0.0269413 5:0.169155 6:0.190604 7:-0.810353 8:-0.816549 9:-0.176352 10:-0.730422 
-8 1:-0.0796185 2:-0.28328 3:-0.379278 4:0.0581811 5:0.00134224 6:0.0273858 7:-0.929926 8:-0.576899 9:0.132523 10:-0.702036 
-8 1:0.0381866 2:-0.329696 3:-0.445498 4:0.0763777 5:0.0228805 6:-0.115986 7:-0.58622 8:-0.695776 9:0.334277 10:-0.814487 
-8 1:-0.459485 2:0.228943 3:0.218185 4:-0.105022 5:-0.189845 6:-0.12104 7:-0.727258 8:-0.704652 9:-0.0461029 10:-0.402883 
-8 1:-0.162801 2:-0.218008 3:0.033027 4:0.385223 5:0.0906129 6:0.336169 7:-0.884221 8:-0.680271 9:0.074234 10:-0.274086 
-8 1:0.129108 2:-0.0339112 3:0.0399602 4:-0.0306831 5:0.0197102 6:-0.261345 7:-0.791458 8:-0.862524 9:0.0405953 10:-0.626308 
-8 1:0.242212 2:-0.240247 3:-0.241199 4:-0.0552073 5:-0.561597 6:-0.126959 7:-0.996092 8:-0.568633 9:-0.0159374 10:-0.666358 
-8 1:-0.454335 2:0.208126 3:0.114403 4:0.0435063 5:-0.214581 6:-0.514341 7:-0.955191 8:-0.654714 9:0.45209 10:-0.194234 
-8 1:-0.442072 2:-0.493367 3:-0.316295 4:-0.110902 5:0.119126 6:0.344211 7:-0.668778 8:-0.449494 9:-0.184859 10:-0.566166 
-8 1:0.278919 2:-0.38212 3:-0.378317 4:0.203804 5:0.262008 6:0.0944091 7:-0.530889 8:-0.71002 9:-0.184521 10:-0.382412 
-8 1:-0.0824643 2:0.600348 3:0.251291 4:-0.367049 5:-0.209272 6:0.0230835 7:-0.61475 8:-0.489006 9:-0.0513452 10:-0.368796 
-8 1:-0.350742 2:0.269451 3:0.179994 4:-0.31146 5:0.0119533 6:-0.326037 7:-0.847387 8:-0.70913 9:0.634527 10:-0.264655 
-2.328214911659436 1:-0.148941 2:0.440576 3:0.0631723 4:0.516023 5:0.433758 6:-0.424317 7:-0.964629 8:-0.792931 9:0.29576 10:-0.282965 
-8 1:-0.433481 2:0.209867 3:0.265184 4:-0.215634 5:0.229521 6:0.355279 7:-0.812898 8:-0.800929 9:0.528122 10:-0.550196 
-8 1:-0.00118417 2:0.252507 3:-0.509827 4:-0.0983958 5:-0.252952 6:-0.182041 7:-0.878383 8:-0.701944 9:0.0782145 10:-0.0717017 
-8 1:-0.333703 2:0.235466 3:0.131138 4:-0.121259 5:-0.153628 6:-0.208446 7:-0.957855 8:-0.580142 9:0.126162 10:-0.291523 
-7.919424312580316 1:-0.511868 2:0.00831229 3:0.210798 4:0.443654 5:0.0803549 6:-0.234288 7:-0.946616 8:-0.597054 9:0.070956 10:0.119503 
-8 1:-0.0824927 2:0.11571 3:-0.274832 4:-0.221853 5:-0.0794965 6:-0.218259 7:-0.971561 8:-0.732635 9:-0.0615694 10:-0.730436 
-8 1:-0.353564 2:0.158694 3:-0.0463792 4:0.18511 5:-0.255018 6:0.0711746 7:-0.947485 8:-0.845636 9:0.0941363 10:-0.698291 
-8 1:-0.35017 2:-0.0385455 3:0.275771 4:-0.09562 5:0.0221587 6:0.12399 7:-0.883384 8:-0.78402 9:0.268508 10:-0.237679 
-8 1:-0.0414673 2:0.493711 3:0.143594 4:0.0803275 5:0.1374 6:-0.200505 7:-0.900972 8:-0.601669 9:0.358875 10:-0.294247 
-0.4237088507805505 1:0.104763 2:-0.00051492 3:-0.0139925 4:-0.114831 5:-0.167616 6:0.0227566 7:-0.995218 8:-0.725715 9:0.421209 10:-0.715628 
-8 1:-0.191474 2:0.208028 3:-0.0557762 4:0.0686374 5:-0.0649153 6:0.188347 7:-0.76887 8:-0.583535 9:0.247891 10:-0.240356 
-4.36073888948222 1:-0.158084 2:0.286884 3:-0.0623039 4:-0.224837 5:0.58769 6:-0.211055 7:-0.842451 8:-0.605319 9:0.584772 10:-0.619985 
-3.664842848480055 1:-0.647133 2:0.182233 3:0.125889 4:-0.367485 5:0.337605 6:0.139297 7:-0.956309 8:-0.868367 9:0.196561 10:-0.179701 
-8 1:-0.37193 2:-0.201015 3:-0.136399 4:0.122441 5:0.348875 6:0.195346 7:-0.873517 8:-0.815659 9:0.226258 10:-0.315063 
-8 1:-0.111662 2:0.432852 3:0.483518 4:0.0443221 5:-0.0551586 6:-0.32649 7:-0.835193 8:-0.702051 9:0.11612 10:-0.659382 
-3.261046126819676 1:-0.61048 2:0.0996984 3:-0.424268 4:-0.230618 5:0.0756063 6:-0.00198686 7:-0.927671 8:-0.846496 9:0.468506 10:-0.552883 
-8 1:-0.0343741 2:0.180001 3:-0.728046 4:0.164854 5:-0.0363731 6:-0.0775831 7:-0.723663 8:-0.543266 9:-0.0160935 10:-0.507113 
-8 1:-0.354304 2:0.371135 3:-0.124705 4:-0.408464 5:-0.332815 6:-0.349567 7:-0.786834 8:-0.638497 9:0.105882 10:-0.483468 
-8 1:-0.0867188 2:0.417208 3:0.101906 4:-0.268961 5:0.059599 6:-0.204195 7:-0.840606 8:-0.724848 9:0.400449 10:-0.181431 
-8 1:-0.41136 2:0.0497021 3:-0.332624 4:-0.205287 5:0.0285753 6:-0.14458 7:-0.980195 8:-0.984063 9:0.330791 10:-0.258633 
-8 1:-0.205465 2:0.0488439 3:0.492973 4:-0.184922 5:-0.189264 6:-0.430999 7:-0.972327 8:-0.78651 9:0.447811 10:-0.60186 
-8 1:-0.363423 2:-0.130961 3:-0.190278 4:0.290768 5:0.241625 6:-0.0927112 7:-0.955967 8:-0.730518 9:-0.0146366 10:-0.73527 
-8 1:0.394651 2:0.119805 3:0.0804836 4:-0.275577 5:-0.0734993 6:0.103738 7:-0.883074 8:-0.529965 9:0.243442 10:-0.252637 
-8 1:-0.189633 2:0.334306 3:-0.245341 4:-0.159094 5:0.10441 6:0.106498 7:-0.818666 8:-0.690155 9:0.0111062 10:-0.618355 
-8 1:-0.435662 2:0.0270701 3:-0.123786 4:-0.286919 5:0.0529541 6:-0.0886827 7:-0.950465 8:-0.717452 9:-0.0716897 10:-0.0505139 
-8 1:-0.28462 2:0.0897678 3:-0.117156 4:0.0482321 5:-0.216635 6:-0.0837177 7:-0.880713 8:-0.782826 9:-0.0877675 10:-0.362874 
-8 1:-0.372471 2:0.263909 3:-0.175681 4:0.0662497 5:0.00772373 6:-0.0863857 7:-0.850252 8:-0.654839 9:0.331831 10:-0.597035 
-8 1:-0.132062 2:-0.0956036 3:-0.0245234 4:0.108702 5:0.186476 6:0.343542 7:-0.846316 8:-0.693317 9:-0.181256 10:-0.514685 
-8 1:0.0536707 2:-0.1852 3:-0.00678804 4:0.43266 5:-0.000339462 6:0.0171874 7:-0.917912 8:-0.710682 9:-0.138642 10:-0.490834 
-8 1:0.0960173 2:-0.202805 3:-0.0634192 4:0.5536 5:0.176226 6:0.139253 7:-0.945201 8:-0.736949 9:0.265295 10:-0.460094 
-8 1:0.121079 2:-0.0697104 3:-0.245 4:0.514958 5:0.482496 6:0.0362291 7:-0.863118 8:-0.778677 9:0.109759 10:-0.596704 
-8 1:-0.276172 2:-0.048991 3:-0.196125 4:0.0615836 5:0.405628 6:-0.0304779 7:-0.949476 8:-0.787842 9:0.0543838 10:-0.39571 
-8 1:0.307266 2:-0.249221 3:-0.174307 4:0.48533 5:0.185725 6:0.155858 7:-0.922936 8:-0.737735 9:0.166695 10:-0.59092 
-8 1:-0.0490309 2:-0.257632 3:-0.178512 4:-0.0914912 5:0.0932876 6:0.0231312 7:-0.883105 8:-0.638954 9:-0.214934 10:-0.269181 
-7.813372745323374 1:0.197981 2:-0.317216 3:-0.22962 4:0.571369 5:0.437592 6:0.0386232 7:-0.938233 8:-0.831798 9:-0.103832 10:-0.659169 
-8 1:0.0819727 2:0.0369762 3:-0.220321 4:0.44443 5:0.166801 6:-0.214741 7:-0.959717 8:-0.91697 9:0.00919405 10:-0.319524 
-0.7729332338522597 1:0.252685 2:-0.258441 3:-0.27533 4:0.585178 5:0.183618 6:-0.125828 7:-0.91039 8:-0.765254 9:0.330531 10:-0.654553 
-8 1:-0.0115865 2:-0.0454601 3:-0.272949 4:0.158417 5:0.225699 6:0.124406 7:-0.915435 8:-0.707803 9:0.151593 10:-0.697076 
-0.4964881554164913 1:-0.477874 2:-0.0647819 3:-0.284114 4:0.350203 5:0.137361 6:-0.205099 7:-0.95804 8:-0.708639 9:-0.12579 10:-0.385023 
-8 1:-0.132282 2:-0.171591 3:0.0426215 4:-0.199736 5:-0.259907 6:0.0601103 7:-0.930927 8:-0.695088 9:0.070956 10:-0.384451 
-8 1:-0.0478964 2:-0.196283 3:0.018186 4:0.161909 5:0.0673929 6:0.132417 7:-0.996676 8:-0.776711 9:0.133056 10:-0.581493 
-8 1:0.0818143 2:-0.0148837 3:-0.223031 4:0.379294 5:0.00381992 6:-0.12213 7:-0.929981 8:-0.713886 9:0.285458 10:-0.242996 
-7.84587566773387 1:0.248246 2:-0.115121 3:0.229984 4:0.486892 5:0.446853 6:0.001766 7:-0.973639 8:-0.811903 9:0.465996 10:-0.563741 
-8 1:-0.0606008 2:-0.41993 3:0.135752 4:0.496851 5:0.30422 6:0.0709891 7:-0.881784 8:-0.740506 9:0.184841 10:-0.557574 
-8 1:0.413213 2:-0.396734 3:-0.394202 4:0.221951 5:-0.0571798 6:-0.216308 7:-0.987555 8:-0.677869 9:-0.223831 10:-0.684745 
-8 1:0.383994 2:-0.424368 3:0.0424938 4:0.258971 5:0.122317 6:-0.161129 7:-0.984736 8:-0.671585 9:-0.0278267 10:-0.622803 
-8 1:0.0611728 2:0.280411 3:0.201554 4:0.353835 5:0.476292 6:-0.111179 7:-0.912703 8:-0.69325 9:0.265608 10:-0.478013 
-8 1:-0.205845 2:-0.261481 3:-0.145313 4:0.146588 5:0.270853 6:-0.0555306 7:-0.910451 8:-0.880158 9:0.10345 10:-0.42597 
-8 1:0.247355 2:-0.441017 3:-0.249194 4:-0.0380951 5:-0.125585 6:0.251351 7:-0.855816 8:-0.649019 9:0.219091 10:-0.409034 
-8 1:0.534644 2:-0.136184 3:-0.300898 4:0.414871 5:0.162019 6:-0.511557 7:-0.881301 8:-0.669897 9:-0.0587207 10:-0.679482 
-8 1:-0.144909 2:-0.406419 3:-0.295617 4:0.0028847 5:-0.0211071 6:-0.173712 7:-0.88789 8:-0.752633 9:0.244392 10:-0.548965 
-8 1:0.485877 2:-0.300861 3:-0.464221 4:-0.0774731 5:-0.220957 6:-0.212677 7:-0.90308 8:-0.660726 9:-0.303232 10:-0.733597 
-8 1:-0.119935 2:-0.292695 3:-0.25852 4:0.340662 5:0.415129 6:0.00479621 7:-0.877487 8:-0.802079 9:0.157667 10:-0.601263 
-8 1:-0.0115794 2:-0.0615453 3:0.136513 4:0.375294 5:0.401858 6:0.299769 7:-0.940819 8:-0.88121 9:0.0836128 10:-0.657578 
-8 1:0.188971 2:-0.428487 3:-0.194516 4:0.256225 5:0.00675217 6:-0.0849722 7:-0.906873 8:-0.819415 9:0.300716 10:-0.544702 
-8 1:-0.179656 2:-0.254959 3:0.158187 4:0.176216 5:0.104248 6:-0.328801 7:-0.94187 8:-0.780196 9:0.0720487 10:-0.437086 
-8 1:0.262962 2:-0.272491 3:-0.253719 4:0.199765 5:0.0298122 6:-0.293184 7:-0.936896 8:-0.695526 9:0.104491 10:-0.412775 
-8 1:0.30061 2:-0.148174 3:-0.0750997 4:0.280152 5:-0.164028 6:-0.00676806 7:-0.847824 8:-0.709219 9:-0.0228056 10:-0.344596 
-1.053231062413668 1:0.284561 2:-0.289336 3:-0.296353 4:-0.352238 5:-0.0494034 6:-0.358806 7:-0.852818 8:-0.827602 9:0.231579 10:-0.618413 
-8 1:0.227229 2:-0.179241 3:-0.301665 4:0.0950022 5:0.201 6:-0.027824 7:-0.85175 8:-0.854321 9:0.20979 10:-0.513593 
-8 1:-0.382824 2:-0.292965 3:-0.0895205 4:0.446589 5:0.284465 6:-0.101703 7:-0.971464 8:-0.772777 9:-0.115514 10:-0.405689 
-8 1:-0.203843 2:-0.176029 3:-0.248888 4:0.253638 5:0.397174 6:0.0401392 7:-0.915916 8:-0.640723 9:0.00657944 10:-0.481826 
-8 1:-0.120204 2:-0.0249369 3:0.0329782 4:0.149393 5:0.0243261 6:0.179614 7:-0.67814 8:-0.407827 9:0.224606 10:0.0576122 
-8 1:-0.124664 2:0.00865557 3:0.0244806 4:0.0423622 5:-0.378254 6:-0.056695 7:-0.699408 8:-0.934029 9:-0.262803 10:0.368497 
-8 1:-0.163432 2:-0.00117696 3:-0.127068 4:-0.412659 5:-0.629433 6:0.128286 7:-0.6069 8:-0.658064 9:-0.100841 10:0.264024 
-8 1:-0.384814 2:0.612167 3:0.361762 4:-0.136789 5:-0.378662 6:0.0605803 7:-0.955314 8:0.135754 9:0.751053 10:0.00485787 
-8 1:0.0392337 2:-0.0871196 3:-0.204054 4:0.515137 5:0.230818 6:-0.0123196 7:-0.975794 8:-0.565419 9:0.0303451 10:0.194364 
-8 1:-0.105611 2:0.435623 3:0.220938 4:-0.223176 5:-0.184858 6:0.210234 7:-0.763065 8:-0.610852 9:-0.0884309 10:0.326097 
-1.912699680919827 1:-0.16738 2:0.298139 3:0.288084 4:0.149562 5:-0.064168 6:0.228283 7:-0.651157 8:-0.803959 9:-0.197464 10:0.393437 
-8 1:-0.372041 2:0.272491 3:0.291824 4:0.13248 5:-0.20746 6:-0.360737 7:-0.978402 8:-0.666561 9:0.161726 10:-0.012876 
-1.864156654403579 1:0.0609365 2:-0.0491626 3:0.104033 4:-0.221942 5:-0.229492 6:-0.251874 7:-0.852978 8:-0.438637 9:0.0833917 10:0.120223 
-8 1:0.119334 2:0.15379 3:0.204003 4:0.0836206 5:0.0172306 6:-0.28886 7:-0.8168 8:-0.686291 9:-0.557292 10:0.350208 
-6.785683208923929 1:-0.231119 2:0.0649781 3:0.51079 4:-0.122582 5:0.220453 6:0.0265607 7:-0.661829 8:0.0112987 9:-0.222153 10:0.28879 
-8 1:-0.157696 2:0.529068 3:0.177409 4:-0.0634053 5:-0.211294 6:-0.51082 7:-0.738515 8:-0.54669 9:0.313932 10:0.240302 
-7.250303468583582 1:-0.0373381 2:-0.135939 3:0.297908 4:0.427437 5:-0.0537306 6:0.312015 7:-0.855101 8:-0.904799 9:0.0773169 10:0.428847 
-8 1:0.0685473 2:-0.0708629 3:0.133744 4:-0.0797614 5:-0.117202 6:-0.487054 7:-0.679326 8:-0.809541 9:-0.0545711 10:0.321558 
-8 1:0.346419 2:-0.144987 3:0.0653688 4:-0.00387065 5:-0.371795 6:0.188658 7:-0.810094 8:-0.499926 9:-0.183728 10:0.0431335 
-8 1:0.028562 2:0.183287 3:0.389165 4:0.298389 5:0.147102 6:-0.446053 7:-0.323635 8:-0.460905 9:0.109525 10:0.166194 
-8 1:-0.207904 2:0.260059 3:0.256348 4:0.0953007 5:0.00886112 6:-0.229624 7:-0.589678 8:-0.81911 9:0.248502 10:0.159592 
-8 1:0.0998605 2:0.358826 3:0.357996 4:0.178524 5:0.0690259 6:0.0751554 7:-0.807419 8:0.227692 9:0.103944 10:0.499435 
-2.212468840105541 1:-0.0637539 2:0.0521786 3:0.019013 4:-0.472678 5:-0.468494 6:0.0643915 7:-0.69412 8:-0.984688 9:0.2622 10:0.235232 
-8 1:-0.128505 2:0.123483 3:0.190987 4:0.501 5:-0.330999 6:-0.441963 7:-0.728349 8:-0.724177 9:0.127372 10:0.363652 
-1.149737282457305 1:-0.0761558 2:0.317779 3:0.116123 4:0.484524 5:0.0932837 6:-0.247876 7:-0.544535 8:-0.501139 9:0.0109371 10:0.185344 
-8 1:-0.250886 2:-7.35601e-005 3:-0.188446 4:-0.363059 5:-0.227914 6:-0.148601 7:-0.844013 8:-0.815568 9:-0.153796 10:-0.502651 
-8 1:0.437563 2:-0.429615 3:-0.287811 4:-0.159811 5:-0.479837 6:0.146863 7:-0.73826 8:-0.488139 9:-0.590806 10:-0.581314 
-8 1:0.134046 2:-0.10649 3:-0.00492206 4:-0.473197 5:-0.354494 6:0.540627 7:-0.854759 8:-0.561513 9:-0.129796 10:-0.328254 
-8 1:-0.189825 2:-0.404678 3:-0.308267 4:0.36057 5:-0.235905 6:-0.182087 7:-0.748284 8:-0.788322 9:-0.382253 10:-0.62978 
-8 1:-0.00267325 2:-0.231788 3:-0.228883 4:0.193507 5:-0.00250695 6:0.115727 7:-0.770158 8:-0.75301 9:0.0386572 10:-0.421492 
-8 1:0.477775 2:-0.471422 3:-0.45718 4:-0.128541 5:-0.464651 6:-0.0733956 7:-0.79363 8:-0.597953 9:-0.0210235 10:-0.446134 
-8 1:0.118727 2:-0.130692 3:-0.188704 4:-0.311367 5:-0.28355 6:0.444155 7:-0.762031 8:-0.797087 9:0.0289922 10:-0.414678 
-8 1:0.30598 2:-0.0635069 3:-0.294666 4:-0.115428 5:-0.55168 6:-0.153213 7:-0.622084 8:-0.386274 9:-0.563876 10:-0.484894 
-8 1:-0.157592 2:0.0484025 3:-0.221815 4:-0.372967 5:-0.341503 6:-0.449152 7:-0.884097 8:-0.549809 9:-0.226238 10:-0.533607 
-8 1:0.598468 2:-0.14788 3:-0.479049 4:-0.170864 5:-0.258799 6:-0.271737 7:-0.676267 8:-0.570456 9:-0.140346 10:-0.305669 
-8 1:-0.0217831 2:-0.399627 3:-0.390416 4:0.0980167 5:-0.205133 6:-0.182419 7:-0.958934 8:-0.859371 9:0.0135257 10:-0.48219 
-8 1:0.531294 2:-0.0311895 3:-0.163501 4:-0.170914 5:-0.341329 6:-0.16607 7:-0.873474 8:-0.554838 9:-0.230868 10:-0.419048 
-8 1:0.152981 2:0.0964863 3:-0.198851 4:-0.310799 5:-0.314941 6:-0.13515 7:-0.732264 8:-0.773731 9:0.216294 10:-0.310543 
-8 1:0.354411 2:0.116127 3:0.0153996 4:-0.213883 5:-0.395617 6:-0.224196 7:-0.86474 8:-0.552719 9:-0.218251 10:-0.421542 
-8 1:0.0691902 2:-0.012873 3:-0.130523 4:-0.125775 5:-0.475641 6:-0.29482 7:-0.927362 8:-0.583544 9:-0.283174 10:-0.449035 
-4.478380255858268 1:0.127167 2:-0.0325381 3:-0.0708081 4:-0.217734 5:0.118281 6:0.603051 7:-0.245804 8:-0.126048 9:0.0108981 10:-0.683353 
-8 1:0.312735 2:0.302307 3:-0.0840464 4:0.027777 5:0.120546 6:-0.31669 7:-0.224717 8:-0.180849 9:-0.0340315 10:-0.554024 
-3.14212522815693 1:0.0670346 2:0.0222887 3:-0.159703 4:-0.334691 5:-0.228376 6:0.119409 7:-0.221833 8:-0.333361 9:-0.0680474 10:-0.395338 
-5.851960709412404 1:0.484826 2:-0.49832 3:-0.533053 4:-0.276084 5:-0.324645 6:-0.275524 7:0.0119039 8:-0.112048 9:-0.151728 10:-0.41297 
-8 1:0.218044 2:-0.0610303 3:0.015231 4:0.19292 5:0.0133034 6:-0.423262 7:-0.291356 8:-0.232738 9:-0.155539 10:-0.410578 
-8 1:0.0378463 2:-0.00112792 3:-0.174972 4:-0.222818 5:-0.0601413 6:-0.0472227 7:-0.28909 8:-0.206107 9:-0.0254462 10:-0.271881 
-8 1:0.0202231 2:0.0867028 3:0.0401353 4:0.227861 5:-0.072481 6:-0.140848 7:-0.321625 8:-0.0810137 9:-0.125257 10:-0.601124 
-8 1:0.0901413 2:-0.0475688 3:-0.0129654 4:-0.0158393 5:0.214327 6:-0.079986 7:-0.177949 8:-0.0615598 9:-0.138616 10:-0.261862 
-8 1:0.492959 2:-0.323419 3:-0.489639 4:0.0114209 5:-0.0745548 6:0.393251 7:-0.320983 8:-0.261176 9:0.000842918 10:-0.391079 
-8 1:-0.0191571 2:0.115416 3:0.183962 4:-0.335326 5:-0.0500823 6:0.20365 7:-0.229663 8:-0.178335 9:-0.124216 10:-0.411583 
-8 1:0.106819 2:0.0621092 3:-0.0302346 4:-0.0929736 5:0.0286436 6:-0.145856 7:-0.157183 8:-0.0562803 9:-0.255805 10:-0.423669 
-2.175409095156131 1:0.0439515 2:0.0947944 3:-0.131813 4:-0.171541 5:-0.00213432 6:0.163429 7:-0.261304 8:-0.180219 9:-0.552855 10:-0.568506 
-8 1:0.273494 2:0.0340093 3:0.0986746 4:-0.0642012 5:0.0987034 6:-0.257194 7:-0.157969 8:-0.218358 9:-0.185249 10:-0.527474 
-8 1:-0.250442 2:-0.374617 3:0.0998097 4:-0.349679 5:-0.107264 6:0.273713 7:-0.210356 8:-0.246579 9:-0.0899009 10:-0.430617 
-8 1:0.184126 2:-0.22578 3:-0.131356 4:-0.606635 5:-0.516355 6:0.285595 7:-0.219895 8:-0.118027 9:-0.443012 10:-0.483614 
-4.718013884485919 1:0.17184 2:-0.269598 3:-0.35339 4:0.0167834 5:-0.431702 6:-0.28659 7:-0.339572 8:-0.216997 9:-0.246309 10:-0.608821 
