svm_type c_svc
kernel_type polynomial
degree 2
gamma 20
coef0 1
nr_class 2
total_sv 303
rho -7.47863
label -1 1
nr_sv 145 158
SV
4 1:0.110525 2:-0.286811 3:-0.323216 4:-0.0834126 5:-0.289688 6:-0.225984 7:-0.719345 8:-0.758034 9:0.00507052 10:-0.749963 
4 1:-0.395436 2:0.484712 3:0.34995 4:0.102862 5:0.00885527 6:-0.0600291 7:-0.919174 8:-0.718011 9:0.617435 10:-0.130395 
4 1:-0.136969 2:0.0484761 3:-0.206116 4:-0.255092 5:-0.200132 6:-0.483103 7:-0.878819 8:-0.453508 9:-0.295245 10:-0.358864 
4 1:-0.0415406 2:-0.176201 3:-0.236519 4:-0.174147 5:-0.221957 6:-0.0376479 7:-0.801322 8:-0.707838 9:-0.121549 10:-0.675876 
4 1:0.0576203 2:0.226418 3:0.165914 4:0.143941 5:-0.0535511 6:-0.153748 7:-0.849399 8:-0.654899 9:0.00405589 10:-0.365463 
4 1:0.231063 2:-0.402496 3:-0.0774068 4:-0.00707421 5:-0.0367653 6:0.0890731 7:-0.640676 8:-0.474376 9:0.0122769 10:-0.331672 
4 1:-0.00822776 2:-0.0481818 3:0.143985 4:-0.164765 5:-0.117721 6:-0.110288 7:-0.869083 8:-0.637724 9:0.271006 10:-0.684631 
4 1:0.584622 2:-0.429002 3:-0.44317 4:-0.306042 5:-0.420303 6:-0.221689 7:-0.959366 8:-0.684479 9:0.00665749 10:-0.723327 
4 1:0.283211 2:-0.165902 3:0.0111712 4:-0.172336 5:-0.445284 6:-0.275464 7:-0.802587 8:-0.604043 9:-0.25695 10:-0.176254 
4 1:-0.0602203 2:-0.366059 3:0.0620991 4:0.00779949 5:0.168793 6:0.499848 7:-0.639382 8:-0.611261 9:0.326264 10:-0.289809 
2.931249024228431 1:0.20862 2:-0.124341 3:-0.0717891 4:0.781222 5:0.144851 6:-0.34245 7:-0.596509 8:-0.656916 9:-0.0994747 10:0.0133728 
4 1:0.134532 2:-0.240517 3:0.00727988 4:0.400107 5:-0.135338 6:-0.214349 7:-0.924718 8:-0.728847 9:-0.156385 10:-0.491226 
4 1:0.0569939 2:-0.528627 3:-0.463074 4:0.247649 5:0.314523 6:-0.111663 7:-0.64912 8:-0.623809 9:-0.175207 10:-0.537583 
4 1:-0.377898 2:0.141235 3:0.14593 4:0.116243 5:0.207614 6:-0.140339 7:-0.895416 8:-0.847888 9:0.103164 10:0.094869 
4 1:-0.418838 2:-0.424883 3:-0.288748 4:-0.257579 5:0.0557459 6:0.17937 7:-0.768326 8:-0.827236 9:0.16927 10:-0.786478 
4 1:0.0709724 2:-0.594243 3:-0.0494092 4:0.386626 5:0.125203 6:-0.152944 7:-0.919677 8:-0.761937 9:0.0203159 10:-0.734264 
4 1:0.164631 2:0.233725 3:-0.0240098 4:-0.127477 5:-0.324793 6:-0.190059 7:-0.885445 8:-0.633999 9:-0.0941024 10:-0.52768 
4 1:0.229193 2:-0.0404335 3:-0.108093 4:0.152457 5:0.405411 6:-0.0241736 7:-0.787779 8:-0.588433 9:-0.356342 10:-0.27929 
4 1:0.43766 2:-0.179021 3:-0.538468 4:0.0109633 5:0.147401 6:0.0335823 7:-0.7989 8:-0.788566 9:-0.210576 10:-0.52485 
4 1:0.146965 2:-0.0567638 3:-0.0488878 4:0.409857 5:-0.0916176 6:-0.197701 7:-0.719957 8:-0.567782 9:0.0328816 10:-0.554802 
4 1:0.101421 2:0.260354 3:0.417267 4:0.23187 5:-0.117899 6:-0.203055 7:-0.779425 8:-0.422879 9:0.0711381 10:-0.258425 
4 1:-0.267321 2:0.0662041 3:0.151116 4:0.411539 5:0.218321 6:0.0491963 7:-0.933281 8:-0.758409 9:0.0731023 10:-0.110068 
4 1:-0.103101 2:-0.135179 3:-0.243304 4:-0.0957096 5:-0.408556 6:0.0679235 7:-0.71548 8:-0.610309 9:0.110292 10:-0.31271 
4 1:-0.249468 2:0.0446019 3:0.149921 4:0.0807752 5:0.0484065 6:-0.27164 7:-0.829047 8:-0.58812 9:0.256983 10:-0.483112 
4 1:-0.0142077 2:0.139078 3:-0.0903278 4:0.216787 5:0.130482 6:0.0236153 7:-0.665491 8:-0.852917 9:0.00868674 10:-0.517796 
4 1:-0.330521 2:0.158375 3:0.230735 4:0.10706 5:0.162774 6:-0.227449 7:-0.902088 8:-0.766855 9:-0.0116317 10:-0.481217 
4 1:0.218585 2:-0.474781 3:-0.826477 4:0.07204 5:-0.0265951 6:0.0133585 7:-0.869185 8:-0.617416 9:-0.249418 10:-0.604535 
4 1:0.0977049 2:-0.151558 3:-0.488332 4:0.0711744 5:0.235128 6:-0.126552 7:-0.891653 8:-0.927055 9:0.234818 10:-0.447198 
4 1:-0.493933 2:0.0662041 3:-0.124085 4:-0.117229 5:0.208537 6:0.4279 7:-0.97538 8:-0.799575 9:-0.31823 10:-0.471711 
4 1:0.187168 2:-0.28198 3:-0.27014 4:-0.0457757 5:-0.337054 6:-0.280498 7:-0.75587 8:-0.528549 9:0.0404262 10:-0.340555 
4 1:-0.409154 2:0.425373 3:0.307139 4:0.311502 5:0.359962 6:-0.376696 7:-0.959757 8:-0.611329 9:0.0315418 10:-0.593608 
4 1:0.088059 2:-0.325454 3:-0.309132 4:-0.187718 5:-0.0541325 6:-0.0428938 7:-0.694645 8:-0.703007 9:-0.0187861 10:-0.247274 
4 1:0.0161199 2:0.428904 3:-0.119122 4:-0.107151 5:-0.252965 6:0.00300282 7:-0.688442 8:-0.434684 9:-0.133751 10:-0.20214 
4 1:-0.00724922 2:-0.175956 3:-0.321444 4:-0.0612961 5:-0.329725 6:-0.0138444 7:-0.708174 8:-0.603586 9:-0.028243 10:-0.729529 
4 1:-0.164085 2:0.0980065 3:-0.377044 4:-0.147991 5:-0.135248 6:0.0567038 7:-0.886153 8:-0.984805 9:0.14488 10:-0.628635 
4 1:0.355089 2:0.147169 3:0.404349 4:0.179558 5:-0.347061 6:-0.385253 7:-0.959568 8:-0.804051 9:0.508779 10:-0.330626 
4 1:-0.268297 2:-0.343942 3:-0.108035 4:0.164088 5:0.181208 6:-0.0733761 7:-0.805916 8:-0.651378 9:-0.195136 10:-0.33078 
4 1:-0.322544 2:-0.277321 3:-0.251484 4:-0.425776 5:-0.285501 6:-0.237679 7:-0.99997 8:-0.887625 9:0.0994825 10:-0.41819 
4 1:0.485468 2:-0.464949 3:-0.608927 4:-0.0616542 5:-0.334666 6:-0.213068 7:-0.818616 8:-0.502239 9:-0.125413 10:-0.544288 
4 1:0.268328 2:0.184243 3:-0.128266 4:-0.154011 5:-0.419497 6:-0.047205 7:-0.829474 8:-0.966172 9:0.181238 10:-0.568475 
2.966288523138013 1:-0.153432 2:0.155874 3:0.145308 4:0.222399 5:0.338919 6:-0.276593 7:-0.538149 8:-0.586724 9:-0.250563 10:-0.287868 
4 1:0.342583 2:-0.525734 3:-0.299316 4:0.169997 5:-0.439324 6:-0.6526 7:-0.562137 8:-0.400635 9:-0.0373225 10:-0.715673 
4 1:0.10329 2:-0.377216 3:-0.112281 4:0.388009 5:-0.067032 6:-0.0620433 7:-0.93522 8:-0.516673 9:-0.0997089 10:-0.200588 
4 1:0.292734 2:0.0669642 3:-0.0325628 4:-0.0331306 5:-0.521283 6:0.069678 7:-0.636003 8:-0.525348 9:-0.412914 10:-0.18393 
4 1:0.0831947 2:0.105583 3:-0.338536 4:-0.473409 5:-0.377651 6:0.0773339 7:-0.862114 8:-0.65725 9:-0.25721 10:-0.490918 
0.3054285785138391 1:-0.33549 2:-0.284408 3:-0.111866 4:0.0151816 5:0.00335365 6:0.0821204 7:-0.637554 8:-0.953718 9:0.159475 10:-0.75585 
0.01945827276834968 1:0.327489 2:0.443445 3:0.306006 4:-0.0660915 5:-0.366428 6:-0.168251 7:-0.162827 8:-0.301436 9:-0.459773 10:-0.331727 
4 1:-0.20216 2:0.133585 3:-0.362061 4:-0.223325 5:-0.419021 6:-0.583994 7:-0.676428 8:-0.710584 9:0.140393 10:-0.398249 
4 1:-0.394757 2:-0.019003 3:-0.216814 4:-0.308081 5:0.182231 6:0.0098336 7:-0.892352 8:-0.577824 9:0.116614 10:-0.279617 
4 1:0.0874728 2:-0.258858 3:-0.251001 4:0.157402 5:-0.158831 6:-0.34451 7:-0.845144 8:-0.76018 9:0.0267548 10:-0.517667 
4 1:-0.0456769 2:0.279332 3:0.159582 4:0.314486 5:0.0162317 6:-0.261896 7:-0.942408 8:-0.454565 9:-0.288871 10:-0.17041 
4 1:-0.318599 2:-0.0859427 3:-0.0971069 4:-0.264991 5:-0.105553 6:0.135818 7:-0.955709 8:-0.687622 9:-0.0652897 10:-0.462075 
2.094875821935194 1:0.124643 2:-0.128853 3:-0.414579 4:-0.329667 5:-0.377294 6:-0.237249 7:-0.85236 8:-0.575163 9:-0.545261 10:-0.694745 
4 1:0.751702 2:-0.18927 3:-0.180568 4:0.224498 5:-0.0818591 6:-0.382473 7:-0.969365 8:-0.661113 9:0.22315 10:-0.762108 
4 1:-0.0540276 2:-0.140205 3:0.130797 4:-0.114225 5:0.264743 6:-0.117536 7:-0.718923 8:-0.782488 9:0.119723 10:-0.373976 
4 1:0.205058 2:0.0393792 3:-0.173517 4:0.352183 5:0.292938 6:-0.374164 7:-0.817247 8:-0.613433 9:0.14808 10:-0.742093 
4 1:0.431214 2:0.316014 3:0.215525 4:0.319331 5:0.194301 6:-0.198788 7:-0.977255 8:-0.735666 9:0.220964 10:0.117904 
2.449741271352198 1:0.422816 2:-0.565236 3:-0.501736 4:-0.270782 5:-0.214653 6:-0.136917 7:-0.881962 8:-0.846809 9:-0.504663 10:-0.249125 
4 1:-0.239872 2:0.202511 3:0.142621 4:-0.0101683 5:-0.0392449 6:-0.112537 7:-0.669343 8:-0.526095 9:0.0601724 10:-0.319036 
4 1:0.127872 2:-0.0578672 3:-0.233218 4:-0.315856 5:-0.41133 6:0.0816257 7:-0.700741 8:-0.669372 9:-0.178628 10:-0.446342 
4 1:-0.0872837 2:-0.186499 3:-0.0164735 4:0.30216 5:0.103187 6:0.166187 7:-0.96342 8:-0.880685 9:0.126097 10:-0.162218 
4 1:-0.283594 2:-0.044136 3:0.216052 4:-0.22236 5:0.0220728 6:-0.528169 7:-0.883148 8:-0.826423 9:0.557923 10:-0.253611 
0.2072382071183286 1:0.175177 2:-0.426894 3:-0.54762 4:-0.346668 5:-0.184055 6:-0.372324 7:-0.512465 8:-0.641823 9:0.06773 10:-0.634148 
4 1:-0.00574359 2:-0.192703 3:-0.012947 4:0.00876454 5:0.292854 6:-0.0219933 7:-0.921422 8:-0.568816 9:0.00356159 10:-0.497183 
4 1:-0.226293 2:0.556041 3:0.327247 4:-0.264872 5:-0.554333 6:-0.242732 7:-0.890783 8:-0.541241 9:-0.144847 10:-0.302942 
4 1:0.0575139 2:0.13871 3:-0.17828 4:-0.53057 5:-0.223621 6:-0.0474647 7:-0.828772 8:-0.45683 9:-0.163955 10:-0.505828 
4 1:-0.197019 2:0.43116 3:0.281934 4:-0.194373 5:-0.378239 6:-0.211891 7:-0.585839 8:-0.405011 9:-0.243382 10:-0.558126 
4 1:0.314678 2:-0.0620111 3:0.187513 4:0.20256 5:-0.0512685 6:-0.398812 7:-0.756431 8:-0.566542 9:0.051483 10:-0.241667 
4 1:0.197818 2:-0.111934 3:-0.263735 4:0.186931 5:-0.0312207 6:-0.0912199 7:-0.826564 8:-0.876794 9:-0.010435 10:-0.55815 
0.183350256067425 1:0.0948804 2:0.300738 3:0.144032 4:-0.384019 5:-0.0684777 6:0.176924 7:-0.890284 8:-0.905614 9:0.131365 10:-0.327617 
4 1:0.190612 2:-0.302283 3:-0.369337 4:0.338961 5:0.00828755 6:0.14264 7:-0.928617 8:-0.532842 9:-0.486807 10:-0.242095 
1.491467087794751 1:-0.303172 2:-0.248192 3:-0.0187016 4:0.170515 5:0.0431 6:0.192888 7:-0.73442 8:-0.558726 9:-0.133283 10:-0.0616876 
4 1:0.500752 2:-0.353579 3:-0.546771 4:-0.186345 5:-0.177821 6:-0.0158569 7:-0.954778 8:-0.551715 9:-0.0871171 10:-0.530302 
4 1:-0.18271 2:-0.0342054 3:0.0305012 4:0.0992205 5:-0.0611695 6:-0.151621 7:-0.745691 8:-0.926607 9:-0.124489 10:-0.598184 
4 1:0.534374 2:0.310031 3:-0.0533414 4:0.0116099 5:-0.233897 6:-0.256929 7:-0.738171 8:-0.579181 9:-0.0753319 10:-0.493655 
4 1:0.00382197 2:0.0701518 3:-0.133356 4:-0.201775 5:-0.0882698 6:0.169565 7:-0.804884 8:-0.606644 9:0.152854 10:-0.425167 
4 1:0.0468162 2:-0.0926366 3:-0.277587 4:0.37228 5:0.291467 6:0.035669 7:-0.805068 8:-0.684557 9:-0.182089 10:-0.831114 
4 1:0.49103 2:-0.110487 3:-0.388811 4:-0.165979 5:-0.415932 6:-0.175343 7:-0.805114 8:-0.696449 9:0.0114574 10:-0.373292 
4 1:-0.285863 2:0.233161 3:0.0272249 4:-0.0688573 5:0.438331 6:-0.0918701 7:-0.851594 8:-0.918779 9:0.208906 10:-0.575299 
2.176237577835736 1:0.493261 2:0.0520315 3:0.217185 4:0.483858 5:0.276921 6:-0.144151 7:-0.356944 8:-0.413394 9:-0.03156 10:-0.327892 
4 1:0.207486 2:-0.104921 3:-0.124669 4:0.210549 5:0.276874 6:0.168436 7:-0.853793 8:-0.798185 9:0.471875 10:-0.762403 
4 1:0.1415 2:-0.2299 3:0.0234561 4:-0.42225 5:-0.26121 6:-0.158598 7:-0.912911 8:-0.616593 9:0.0119908 10:-0.265097 
4 1:-0.0668384 2:-0.0421499 3:-0.133035 4:-0.192722 5:-0.37828 6:-0.148319 7:-0.585338 8:-0.705198 9:0.0916777 10:-0.462764 
4 1:0.339664 2:-0.0285168 3:-0.117377 4:-0.067156 5:-0.174206 6:0.0298312 7:-0.717117 8:-0.713725 9:0.0519904 10:-0.307087 
4 1:0.590626 2:-0.418851 3:-0.537129 4:0.17153 5:-0.264129 6:-0.712038 7:-0.889949 8:-0.875752 9:-0.0977707 10:-0.550981 
4 1:-0.16858 2:-0.238212 3:0.217988 4:0.220299 5:0.246221 6:0.00869926 7:-0.91274 8:-0.895077 9:0.0206801 10:-0.329401 
4 1:0.30737 2:-0.204399 3:-0.0510974 4:0.0934601 5:0.373205 6:0.130515 7:-0.979436 8:-0.51126 9:0.0218638 10:-0.173106 
4 1:-0.416207 2:0.178162 3:0.106951 4:-0.515683 5:-0.455962 6:-0.178956 7:-0.948334 8:-0.719586 9:0.0913135 10:-0.376677 
4 1:-0.153765 2:-0.246868 3:-0.424915 4:0.106523 5:-0.137059 6:-0.353834 7:-0.620024 8:-0.716981 9:0.404689 10:-0.552516 
4 1:-0.302401 2:0.296423 3:0.137929 4:-0.0382941 5:0.0131259 6:-0.0550676 7:-0.668075 8:-0.705233 9:0.0720877 10:-0.43586 
4 1:-0.472232 2:-0.224383 3:0.241006 4:-0.014516 5:0.0660858 6:-0.165717 7:-0.862222 8:-0.550273 9:0.279721 10:-0.421319 
4 1:0.327035 2:0.0231959 3:-0.134765 4:-0.191747 5:-0.46978 6:-0.215536 7:-0.669859 8:-0.501318 9:-0.360928 10:-0.180398 
2.213022156201684 1:-0.0776851 2:-0.176961 3:0.311774 4:-0.0531976 5:-0.100633 6:-0.277236 7:-0.874209 8:-0.975108 9:0.362348 10:-0.722242 
4 1:-0.350496 2:0.114043 3:-0.00321279 4:0.0160571 5:0.0434394 6:-0.559164 7:-0.798803 8:-0.723659 9:0.260157 10:-0.449876 
4 1:0.355784 2:-0.0357011 3:-0.404331 4:0.218728 5:0.460392 6:-0.134385 7:-0.512513 8:-0.733756 9:0.0398019 10:-0.673816 
4 1:0.512771 2:-0.444916 3:0.0468855 4:-0.010039 5:-0.0771495 6:-0.160593 7:-0.915032 8:-0.60523 9:0.0997557 10:-0.218909 
4 1:0.375759 2:0.0187333 3:0.238597 4:-0.0742198 5:-0.159998 6:0.0579724 7:-0.992867 8:-0.520194 9:-0.303544 10:-0.438933 
4 1:-0.493455 2:-0.139813 3:-0.24724 4:-0.5005 5:-0.354061 6:0.0896315 7:-0.910083 8:-0.767602 9:0.138897 10:-0.116604 
4 1:0.074974 2:0.275777 3:0.082135 4:-0.0795922 5:0.0530868 6:-0.227141 7:-0.945734 8:-0.694615 9:0.197108 10:-0.484487 
4 1:0.122329 2:0.151754 3:0.163266 4:-0.137445 5:0.0269365 6:0.280899 7:-0.943076 8:-0.571195 9:0.163144 10:-0.0944716 
4 1:-0.317987 2:-0.439987 3:-0.260782 4:0.0771935 5:-0.0267629 6:-0.181448 7:-0.89444 8:-0.869366 9:0.594437 10:-0.25781 
4 1:-0.0336107 2:0.47049 3:0.521074 4:-0.147424 5:-0.487893 6:-0.16415 7:-0.882134 8:-0.604862 9:0.0295646 10:-0.0158413 
4 1:-0.266817 2:-0.105191 3:-0.115019 4:0.0326023 5:-0.160772 6:-0.134505 7:-0.84289 8:-0.347588 9:0.0248167 10:-0.451217 
4 1:-0.35581 2:-0.125861 3:0.365251 4:-0.172535 5:-0.00403647 6:-0.421684 7:-0.942621 8:-0.714285 9:0.214629 10:-0.953232 
4 1:-0.29979 2:0.108403 3:-0.465376 4:0.200909 5:-0.219076 6:0.171021 7:-0.786624 8:-0.719797 9:0.131677 10:-0.829869 
0.4630872713625096 1:-0.612856 2:0.583748 3:0.0102955 4:0.154945 5:0.618242 6:0.153024 7:-0.897852 8:-0.797429 9:0.330374 10:0.174584 
4 1:-0.212109 2:0.0657872 3:0.347724 4:-0.108733 5:-0.338098 6:0.242845 7:-0.931334 8:-0.684723 9:-0.0167179 10:-0.583783 
4 1:-0.436412 2:0.291322 3:0.227127 4:-0.286859 5:-0.240074 6:-0.0835746 7:-0.84388 8:-0.521854 9:-0.0861415 10:-0.220428 
4 1:-0.433481 2:0.209867 3:0.265184 4:-0.215634 5:0.229521 6:0.355279 7:-0.812898 8:-0.800929 9:0.528122 10:-0.550196 
4 1:-0.366061 2:-0.0717456 3:-0.143975 4:0.163073 5:-0.0520898 6:-0.812682 7:-0.966473 8:-0.819507 9:0.194974 10:-0.0152449 
4 1:-0.513612 2:-0.206606 3:0.485361 4:0.0389398 5:-0.091883 6:-0.0419609 7:-0.911873 8:-0.733079 9:0.0494408 10:-0.264708 
4 1:-0.340439 2:0.143025 3:0.412526 4:-0.160298 5:0.0803569 6:-0.420923 7:-0.819786 8:-0.628402 9:0.241114 10:-0.701418 
4 1:-0.366058 2:0.285413 3:-0.0244523 4:-0.218132 5:-0.174405 6:-0.146386 7:-0.772361 8:-0.588338 9:0.262304 10:-0.135713 
2.129797920708825 1:-0.376447 2:0.0169924 3:0.339494 4:0.141553 5:-0.180832 6:-0.285017 7:-0.995833 8:-0.78913 9:0.318134 10:0.0641889 
4 1:-0.184495 2:0.75963 3:0.320702 4:-0.056252 5:-0.107563 6:-0.181146 7:-0.842952 8:-0.411952 9:-0.266133 10:-0.611542 
4 1:-0.334516 2:-0.0604173 3:0.401675 4:0.094057 5:-0.0166961 6:-0.111316 7:-0.932247 8:-0.992949 9:0.236977 10:-0.460191 
4 1:-0.119954 2:-0.143761 3:0.196727 4:0.315193 5:0.124549 6:-0.303441 7:-0.937112 8:-0.654571 9:0.305022 10:-0.775677 
4 1:-0.0343741 2:0.180001 3:-0.728046 4:0.164854 5:-0.0363731 6:-0.0775831 7:-0.723663 8:-0.543266 9:-0.0160935 10:-0.507113 
4 1:-0.393781 2:-0.195841 3:0.151783 4:-0.191299 5:0.0603657 6:0.259154 7:-0.96624 8:-0.796141 9:-0.169276 10:-0.065945 
0.772629100574091 1:-0.678267 2:0.0222642 3:0.215473 4:-0.166248 5:0.218771 6:0.544939 7:-0.948072 8:-0.485281 9:0.391889 10:-0.617333 
4 1:-0.136033 2:0.178064 3:0.00792119 4:0.110473 5:0.210931 6:-0.263596 7:-0.904041 8:-0.855077 9:0.303786 10:-0.0377912 
4 1:-0.478907 2:0.339651 3:0.200395 4:-0.507949 5:-0.483911 6:0.196364 7:-0.865794 8:-0.6156 9:0.267676 10:-0.436135 
4 1:-0.664019 2:-0.0158645 3:0.429224 4:-0.0441441 5:0.0819586 6:-0.130128 7:-0.957807 8:-0.798815 9:0.457814 10:-0.274841 
2.678918657207026 1:-0.27032 2:-0.11647 3:0.0608599 4:-0.487702 5:-0.561511 6:0.245746 7:-0.913601 8:-0.735344 9:0.00356159 10:-0.282297 
4 1:-0.069228 2:-0.00483044 3:0.329907 4:0.486663 5:0.202807 6:0.0812317 7:-0.980755 8:-0.687517 9:0.160295 10:-0.578273 
4 1:0.432892 2:-0.23527 3:0.330052 4:0.351079 5:0.300034 6:-0.408353 7:-0.924601 8:-0.76226 9:-0.0946488 10:-0.527211 
4 1:0.181299 2:-0.243508 3:-0.0396817 4:0.455523 5:0.566055 6:0.287878 7:-0.952369 8:-0.863152 9:-0.221073 10:-0.387851 
4 1:-0.0219864 2:-0.479881 3:0.0655914 4:0.129207 5:-0.105914 6:-0.0548662 7:-0.935355 8:-0.829075 9:-0.346627 10:-0.455321 
4 1:-0.218127 2:0.171567 3:0.122741 4:-0.254595 5:0.207199 6:0.361705 7:-0.950059 8:-0.681628 9:0.685037 10:0.0520626 
4 1:-0.15039 2:0.107496 3:0.1207 4:0.491558 5:0.269176 6:-0.263922 7:-0.881763 8:-0.688929 9:0.291051 10:0.0317113 
3.449745228304757 1:0.423208 2:0.286958 3:0.0956603 4:0.0536543 5:-0.0983015 6:-0.758223 7:-0.604195 8:-0.80446 9:-0.58882 10:-0.374809 
4 1:-0.157209 2:-0.201947 3:-0.0425853 4:-0.170038 5:-0.273405 6:-0.19563 7:-0.878937 8:-0.942258 9:-0.015326 10:-0.504337 
3.654035558824815 1:-0.18328 2:-0.14587 3:-0.224065 4:0.0341344 5:-0.123086 6:-0.165874 7:-0.858763 8:-0.4861 9:-0.525247 10:-0.489551 
1.785446362136801 1:-0.422856 2:-0.108991 3:-0.150541 4:-0.454348 5:-0.438713 6:0.123663 7:-0.762653 8:-0.802759 9:0.121336 10:-0.530315 
4 1:-0.0373901 2:-0.0940588 3:-0.158443 4:-0.250496 5:-0.268087 6:-0.227636 7:-0.802383 8:-0.893518 9:-0.0569126 10:-0.72361 
2.480662016393428 1:0.384327 2:0.150553 3:-0.153105 4:-0.227285 5:0.0493078 6:0.197871 7:-0.709964 8:-0.64228 9:-0.0732636 10:-0.531621 
4 1:0.0124846 2:0.257411 3:-0.17091 4:-0.346482 5:-0.420753 6:-0.21207 7:-0.587159 8:-0.620927 9:-0.237672 10:-0.482985 
4 1:0.215368 2:0.0205968 3:-0.327611 4:-0.275706 5:0.0162395 6:-0.135429 7:-0.846656 8:-0.851831 9:-0.126141 10:-0.503061 
4 1:0.239761 2:-0.150504 3:-0.278001 4:0.021937 5:-0.0581202 6:0.290191 7:-0.849224 8:-0.911773 9:-0.0405875 10:-0.389053 
4 1:-0.1049 2:-0.104235 3:-0.152999 4:-0.137227 5:-0.291842 6:-0.0651937 7:-0.936701 8:-0.56052 9:-0.288299 10:-0.514512 
4 1:0.0486055 2:-0.560013 3:-0.615607 4:-0.194184 5:-0.303721 6:-0.0287322 7:-0.979892 8:-0.745652 9:-0.267811 10:-0.350903 
4 1:0.0421315 2:0.154746 3:0.0229412 4:-0.191468 5:-0.0885566 6:0.127086 7:-0.894955 8:-0.461835 9:-0.0450883 10:-0.53088 
4 1:0.155401 2:-0.00586028 3:-0.0753012 4:-0.426364 5:-0.0898618 6:-0.0223343 7:-0.747627 8:-0.428059 9:0.00885584 10:-0.287395 
0.3846327522727233 1:0.548662 2:-0.00904789 3:-0.52324 4:0.113547 5:-0.486205 6:0.110915 7:-0.130175 8:-0.162131 9:-0.2032 10:-0.511299 
3.247323542622858 1:0.326049 2:0.229753 3:-0.15577 4:0.253241 5:-0.150138 6:-0.0372822 7:-0.350891 8:-0.169767 9:0.0654276 10:-0.514573 
-4 1:-0.0819159 2:-0.0518108 3:-0.346991 4:-0.083532 5:-0.453535 6:0.226074 7:-0.815243 8:-0.887495 9:-0.0691401 10:-0.526067 
-4 1:0.164565 2:-0.226933 3:-0.251347 4:0.330912 5:0.0950571 6:0.0411587 7:-0.955784 8:-0.676377 9:-0.364924 10:-0.563797 
-4 1:0.177867 2:0.109261 3:0.298869 4:0.193616 5:-0.343139 6:-0.492519 7:-0.728525 8:-0.568635 9:-0.273886 10:-0.506783 
-4 1:0.174404 2:-0.281465 3:-0.266401 4:-0.0451489 5:0.0100024 6:-0.275488 7:-0.771331 8:-0.777937 9:-0.0993707 10:-0.281329 
-4 1:0.0588068 2:-0.212025 3:0.100728 4:0.245371 5:-0.339829 6:-0.241517 7:-0.874798 8:-0.795968 9:0.0635024 10:-0.539319 
-4 1:-0.768642 2:0.0601476 3:0.1839 4:-0.0902575 5:-0.10799 6:-0.167942 7:-0.730266 8:-0.720627 9:0.0117956 10:-0.299808 
-4 1:0.201101 2:0.331731 3:-0.286303 4:0.0081875 5:-0.345055 6:-0.33097 7:-0.958637 8:-0.322308 9:-0.460781 10:-0.827876 
-4 1:0.307372 2:-0.0662041 3:-0.247379 4:0.075154 5:0.000676973 6:-0.100669 7:-0.8629 8:-0.416119 9:0.185804 10:-0.67758 
-1.452075048945993 1:0.122372 2:-0.267244 3:-0.281113 4:0.199039 5:-0.216073 6:-0.458877 7:-0.902051 8:-0.442324 9:-0.125218 10:-0.274665 
-4 1:-0.0216437 2:-0.220386 3:-0.364379 4:0.0961662 5:-0.194024 6:0.122879 7:-0.684615 8:-0.306842 9:-0.434065 10:-0.421698 
-4 1:0.0306112 2:-0.291151 3:0.0059841 4:0.135156 5:0.0544602 6:0.132858 7:-0.973685 8:-0.744359 9:-0.222712 10:0.253786 
-4 1:0.76586 2:-0.108452 3:-0.502608 4:-0.456973 5:-0.559607 6:-0.301737 7:-0.684659 8:-0.628395 9:-0.219304 10:-0.406544 
-4 1:0.190621 2:-0.396587 3:-0.175831 4:0.00347169 5:0.104685 6:0.0845905 7:-0.720268 8:-0.571373 9:0.0427677 10:-0.155766 
-4 1:-0.0577409 2:0.0822156 3:-0.00634163 4:-0.0782889 5:-0.0374344 6:-0.0983493 7:-0.773668 8:-0.619566 9:0.0730893 10:-0.8501 
-1.835697415447969 1:0.285121 2:0.604541 3:0.36109 4:-0.345377 5:-0.190772 6:-0.416352 7:-0.98748 8:-0.437337 9:-0.356029 10:-0.491692 
-4 1:0.292656 2:0.212956 3:0.352675 4:0.307602 5:-0.334532 6:-0.181031 7:-0.514266 8:-0.572024 9:-0.0106041 10:-0.228378 
-1.33537747099383 1:0.075728 2:-0.63985 3:-0.572607 4:0.151821 5:0.231932 6:-0.351039 7:-0.567239 8:-0.658123 9:0.153062 10:-0.43251 
-3.058282692459774 1:-0.103389 2:-0.189147 3:-0.0532544 4:-0.0072334 5:0.27798 6:-0.019502 7:-0.90479 8:-0.798653 9:0.0166086 10:-0.760832 
-2.959156424116029 1:0.054654 2:-0.231837 3:-0.337257 4:-0.0314691 5:-0.287678 6:-0.0624338 7:-0.848521 8:-0.719824 9:-0.0651987 10:-0.588701 
-4 1:-0.177586 2:-0.0367065 3:-0.195448 4:-0.260385 5:0.17796 6:-0.173794 7:-0.945967 8:-0.70316 9:-0.353192 10:-0.159137 
-4 1:0.305148 2:-0.363387 3:-0.680356 4:-0.193767 5:0.056298 6:0.0600803 7:-0.844348 8:-0.557062 9:-0.226979 10:-0.228663 
-4 1:-0.237054 2:0.05262 3:-0.076543 4:0.385731 5:-0.0623478 6:0.0390703 7:-0.590946 8:-0.350892 9:0.0249207 10:-0.50242 
-4 1:-0.359334 2:0.0769683 3:-0.0390232 4:-0.00690508 5:-0.302172 6:-0.628563 7:-0.950737 8:-0.882767 9:0.450646 10:-0.3776 
-4 1:-0.21533 2:-0.0414143 3:0.110005 4:-0.0810448 5:-0.0376451 6:-0.479016 7:-0.871942 8:-0.771682 9:0.352904 10:-0.285428 
-4 1:-0.258819 2:0.87409 3:0.698362 4:-0.00583059 5:-0.316897 6:-0.53867 7:-0.733107 8:-0.724062 9:0.226649 10:-0.0154437 
-4 1:-0.155146 2:0.321139 3:0.144652 4:0.272701 5:0.225736 6:-0.389048 7:-0.900648 8:-0.539773 9:-0.0639239 10:-0.134164 
-0.8288601200886613 1:0.766829 2:-0.440772 3:-0.304928 4:0.130679 5:-0.539307 6:0.0397629 7:-0.572975 8:-0.748005 9:-0.237542 10:-0.282986 
-4 1:0.298036 2:-0.256945 3:-0.229173 4:-0.382092 5:-0.392102 6:0.0178765 7:-0.793366 8:-0.560024 9:-0.225808 10:-0.654221 
-4 1:0.0479697 2:-0.235637 3:-0.0795493 4:0.307035 5:-0.0324167 6:-0.0358174 7:-0.897654 8:-0.436742 9:-0.039729 10:-0.419979 
-4 1:0.178359 2:-0.146262 3:0.219608 4:0.401948 5:0.427102 6:-0.209428 7:-0.796622 8:-0.899425 9:0.362465 10:-0.692441 
-4 1:0.390758 2:-0.323321 3:-0.331398 4:0.0471477 5:-0.159756 6:-0.157148 7:-0.882793 8:-0.444788 9:-0.0272934 10:0.0618613 
-4 1:-0.369136 2:-0.0510997 3:0.22045 4:0.0827948 5:-0.0132975 6:-0.0861366 7:-0.929828 8:-0.794337 9:-0.0695303 10:-0.167147 
-2.572059771178616 1:0.198116 2:0.160312 3:0.0779935 4:0.356262 5:0.0334819 6:-0.654053 7:-0.963392 8:-0.521135 9:0.153453 10:-0.0817241 
-4 1:-0.00511014 2:-0.0792732 3:0.148301 4:0.0491374 5:0.0271218 6:-0.245688 7:-0.649303 8:-0.712098 9:0.250609 10:-0.419297 
-2.959576799171205 1:-0.451815 2:-0.0121129 3:-0.14304 4:0.221513 5:0.00717747 6:0.272241 7:-0.93996 8:-0.731622 9:0.391954 10:-0.0296573 
-4 1:-0.0443604 2:-0.0185371 3:0.0903205 4:-0.181281 5:0.165611 6:0.0121217 7:-0.760094 8:-0.546921 9:-0.164697 10:-0.28819 
-4 1:0.0979815 2:0.173994 3:0.150354 4:0.0498239 5:-0.131994 6:-0.407448 7:-0.735641 8:-0.54163 9:-0.0209064 10:-0.346254 
-4 1:-0.295556 2:0.328642 3:-0.0821699 4:-0.239373 5:-0.220459 6:0.0303578 7:-0.778026 8:-0.755412 9:0.307923 10:-0.431043 
-4 1:-0.0858443 2:-0.141579 3:-0.0370572 4:0.0295678 5:0.000554064 6:0.0836841 7:-0.856315 8:-0.942344 9:-0.108775 10:-0.0264021 
-1.157365118228761 1:0.138487 2:-0.25285 3:-0.0705592 4:0.615472 5:-0.0509641 6:-0.028006 7:-0.936959 8:-0.905442 9:0.238642 10:-0.563417 
-4 1:0.10931 2:-0.367089 3:-0.241343 4:-0.0316283 5:0.0622834 6:0.0387134 7:-0.795289 8:-0.776025 9:0.18847 10:-0.765073 
-4 1:0.191422 2:0.319545 3:0.4093 4:0.0203451 5:-0.115128 6:0.141809 7:-0.988948 8:-0.483094 9:0.301965 10:-0.311265 
-4 1:0.290132 2:-0.278498 3:-0.717739 4:-0.0688672 5:-0.324656 6:-0.331854 7:-0.753093 8:-0.721784 9:0.0757039 10:-0.640397 
-3.835138286009215 1:0.307904 2:0.0965844 3:-0.458922 4:0.294171 5:-0.512065 6:-0.23091 7:-0.854783 8:-0.789697 9:-0.0520736 10:0.0234614 
-3.461318661416296 1:0.596918 2:-0.281882 3:-0.335724 4:-0.0766871 5:-0.394437 6:-0.301575 7:-0.728804 8:-0.60258 9:-0.0327958 10:-0.298489 
-4 1:0.128928 2:-0.335409 3:-0.35152 4:0.106971 5:-0.137119 6:0.0557108 7:-0.930814 8:-0.757287 9:-0.446173 10:-0.539419 
-4 1:0.0891652 2:0.138538 3:0.0482853 4:0.181837 5:0.262024 6:-0.105747 7:-0.760227 8:-0.78143 9:0.403479 10:-0.485704 
-4 1:-0.121715 2:-0.143834 3:-0.0128679 4:-0.0304244 5:0.026915 6:-0.311885 7:-0.87294 8:-0.727608 9:0.239722 10:0.108528 
-0.8327416508375679 1:0.161591 2:-0.109727 3:-0.218448 4:-0.0439948 5:0.200774 6:-0.334382 7:-0.94924 8:-0.896685 9:0.234232 10:-0.77084 
-4 1:-0.189283 2:0.0346468 3:-0.185636 4:0.273636 5:0.0263941 6:-0.0762261 7:-0.495373 8:-0.756364 9:-0.13911 10:-0.610853 
-4 1:-0.0286305 2:-0.0475198 3:0.365844 4:0.195397 5:0.309579 6:0.332251 7:-0.909196 8:-0.727353 9:-0.0939463 10:-0.257128 
-4 1:-0.0902737 2:0.109041 3:0.338717 4:-0.503975 5:-0.437988 6:0.206642 7:-0.791632 8:-0.574481 9:-0.204866 10:-0.392337 
-4 1:0.0892526 2:-0.205527 3:-0.650121 4:0.132858 5:0.092993 6:0.148852 7:-0.292772 8:-0.810054 9:-0.0528671 10:-0.845099 
-4 1:-0.660424 2:-0.0467597 3:-0.228271 4:-0.555003 5:-0.351542 6:-0.150195 7:-0.91156 8:-0.728634 9:0.185374 10:-0.616535 
-4 1:-0.283315 2:0.0277076 3:0.228707 4:0.119705 5:0.152249 6:-0.0940381 7:-0.851949 8:-0.869852 9:0.162584 10:-0.402307 
-4 1:0.441321 2:0.249172 3:-0.625233 4:-0.197219 5:-0.0495146 6:-0.181481 7:-0.650654 8:-0.688321 9:-0.13046 10:-0.704738 
-4 1:0.189671 2:0.237231 3:-0.383814 4:0.00563062 5:0.0818922 6:-0.0309779 7:-0.858878 8:-0.905118 9:-0.00607734 10:-0.467078 
-4 1:0.0104377 2:0.336832 3:0.359418 4:-0.218012 5:-0.266415 6:-0.00679103 7:-0.89385 8:-0.418105 9:0.280073 10:-0.43602 
-4 1:0.185695 2:0.261016 3:0.0156116 4:-0.225146 5:-0.313436 6:0.00194446 7:-0.808012 8:-0.544736 9:-0.0166789 10:-0.264842 
-4 1:0.0352037 2:0.0821666 3:0.219107 4:-0.176107 5:-0.194014 6:-0.127324 7:-0.853594 8:-0.596032 9:-0.366979 10:-0.274593 
-3.017600380065749 1:-0.154186 2:0.00997965 3:0.183236 4:-0.1989 5:-0.298656 6:-0.225961 7:-0.981743 8:-0.640438 9:0.300053 10:-0.660207 
-4 1:-0.284636 2:-0.22144 3:0.50148 4:0.216797 5:0.138136 6:-0.599832 7:-0.863748 8:-0.792711 9:0.362335 10:-0.462199 
-4 1:0.152089 2:-0.447785 3:-0.351773 4:-0.0835917 5:-0.333535 6:-0.372052 7:-0.75117 8:-0.507728 9:-0.309983 10:-0.650844 
-4 1:-0.282471 2:0.426575 3:0.12892 4:-0.118393 5:-0.103122 6:-0.117078 7:-0.74961 8:-0.476504 9:-0.213711 10:-0.103715 
-4 1:0.236449 2:-0.155236 3:-0.0519336 4:-0.106922 5:-0.471035 6:-0.346936 7:-0.892663 8:-0.817905 9:0.0135647 10:-0.835181 
-4 1:-0.434712 2:0.108011 3:-0.0933802 4:-0.529724 5:-0.0351694 6:-0.116458 7:-0.789516 8:-0.767768 9:0.459336 10:-0.623699 
-4 1:0.37041 2:0.0313121 3:-0.104602 4:0.302786 5:0.0475812 6:-0.228408 7:-0.707577 8:-0.616828 9:-0.337521 10:-0.653585 
-4 1:0.272691 2:-0.49604 3:-0.525261 4:0.359416 5:0.320961 6:-0.449069 7:-0.736455 8:-0.851709 9:-0.121237 10:-0.634365 
-4 1:-0.0542971 2:-0.140181 3:0.112001 4:0.1012 5:0.43304 6:0.12731 7:-0.867496 8:-0.586027 9:-0.0416022 10:-0.527614 
-4 1:-0.166068 2:0.275556 3:-0.284292 4:-0.52542 5:-0.54245 6:0.134378 7:-0.83668 8:-0.693156 9:0.0115875 10:-0.299301 
-4 1:0.240697 2:0.230831 3:-0.13502 4:-0.273378 5:-0.728128 6:-0.312377 7:-0.6348 8:-0.402267 9:-0.353458 10:-0.240738 
-4 1:0.141595 2:-0.202045 3:0.0557979 4:-0.0448902 5:-0.0701984 6:-0.255779 7:-0.705427 8:-0.397405 9:0.184256 10:-0.385396 
-4 1:0.347157 2:-0.0475198 3:-0.0457616 4:-0.0964657 5:-0.364225 6:-0.41433 7:-0.699384 8:-0.614402 9:-0.0786489 10:-0.285321 
-3.26209456251909 1:-0.670251 2:0.274502 3:-0.310875 4:-0.238408 5:-0.32236 6:0.191289 7:-0.70775 8:-0.601599 9:0.19673 10:-0.578061 
-4 1:0.076586 2:0.224579 3:0.24763 4:-0.156677 5:-0.184677 6:-0.120702 7:-0.812111 8:-0.337473 9:-0.274849 10:-0.359669 
-4 1:-0.000392361 2:-0.331118 3:0.142626 4:-0.0297778 5:-0.0933559 6:0.0787952 7:-0.666927 8:-0.713411 9:0.105401 10:-0.474893 
-4 1:0.259603 2:-0.141039 3:-0.212438 4:-0.112732 5:0.0361332 6:-0.0936158 7:-0.655819 8:-0.815998 9:0.00518759 10:-0.352688 
-4 1:-0.0639194 2:-0.138808 3:-0.162947 4:-0.107031 5:-0.279055 6:-0.111682 7:-0.896623 8:-0.600515 9:-0.20467 10:-0.387809 
-4 1:0.344356 2:-0.297281 3:-0.253055 4:-0.0995598 5:-0.249411 6:-0.0801627 7:-0.83252 8:-0.768421 9:-0.0522687 10:-0.229979 
-4 1:-0.282887 2:-0.208567 3:0.129964 4:0.157452 5:0.238741 6:-0.191105 7:-0.95118 8:-0.575047 9:0.228925 10:-0.0547133 
-4 1:-0.166044 2:-0.0683618 3:-0.209698 4:-0.113956 5:0.0921249 6:-0.0256631 7:-0.692018 8:-0.550887 9:0.13251 10:-0.269046 
-4 1:-0.00316725 2:0.0494569 3:-0.254681 4:0.0379648 5:0.176743 6:0.207871 7:-0.659893 8:-0.376222 9:0.039984 10:-0.168555 
-4 1:-0.297402 2:-0.192948 3:-0.184097 4:-0.00367167 5:-0.0209491 6:-0.0210198 7:-0.821519 8:-0.584313 9:0.0108201 10:-0.497701 
-4 1:0.212121 2:-0.0516882 3:-0.314615 4:0.192751 5:-0.0214407 6:-0.388974 7:-0.52184 8:-0.400167 9:-0.620725 10:-0.904732 
-3.254281100402435 1:-0.459485 2:0.228943 3:0.218185 4:-0.105022 5:-0.189845 6:-0.12104 7:-0.727258 8:-0.704652 9:-0.0461029 10:-0.402883 
-2.238332200445842 1:-0.130129 2:0.351445 3:0.326905 4:0.294111 5:0.498982 6:0.203089 7:-0.968485 8:-0.580959 9:-0.00793748 10:-0.427702 
-4 1:-0.113943 2:-0.0212098 3:0.0480259 4:0.0676724 5:-0.0360688 6:-0.530365 7:-0.818864 8:-0.793566 9:0.192802 10:-0.841562 
-4 1:-0.27405 2:-0.00983253 3:-0.105092 4:-0.246078 5:-0.240776 6:0.197373 7:-0.887387 8:-0.6113 9:0.19647 10:-0.558529 
-2.290475759167102 1:-0.295088 2:0.0977613 3:0.412777 4:0.218847 5:0.213859 6:-0.187828 7:-0.965057 8:-0.855703 9:0.368579 10:-0.353641 
-4 1:-0.668855 2:0.0812348 3:0.470665 4:-0.267289 5:-0.239506 6:0.116543 7:-0.936239 8:-0.857801 9:0.3592 10:-0.503079 
-4 1:-0.160738 2:-0.0100287 3:0.0576297 4:-0.0765379 5:0.0978294 6:0.352145 7:-0.888066 8:-0.769989 9:0.106624 10:-0.395662 
-1.245928115906774 1:-0.209601 2:0.628424 3:0.387822 4:0.393143 5:0.369165 6:-0.0570095 7:-0.924064 8:-0.677668 9:0.297959 10:-0.0976771 
-0.4440219430248593 1:-0.0103881 2:0.00904789 3:-0.0524564 4:-0.00181121 5:0.0273813 6:-0.197537 7:-0.848319 8:-0.574645 9:-0.051098 10:-0.709949 
-4 1:-0.3217 2:-0.236373 3:-0.0616757 4:-0.153463 5:0.149822 6:0.159272 7:-0.904533 8:-0.706074 9:0.120165 10:-0.653333 
-4 1:0.0485771 2:0.108133 3:0.0232375 4:0.104832 5:-0.13493 6:0.00828051 7:-0.966719 8:-0.562058 9:-0.147448 10:-0.624403 
-4 1:-0.689858 2:0.186573 3:0.164715 4:0.173092 5:0.36516 6:0.00789886 7:-0.914944 8:-0.715215 9:0.116289 10:0.0766382 
-4 1:-0.753233 2:0.115391 3:0.302451 4:-0.0941774 5:0.0562804 6:0.128867 7:-0.926178 8:-0.698076 9:0.162636 10:-0.0508452 
-0.7306430791148638 1:-0.13942 2:0.321874 3:0.192462 4:-0.191001 5:-0.0773407 6:-0.0188977 7:-0.810168 8:-0.725669 9:0.384631 10:-0.680402 
-1.462569414487915 1:-0.647133 2:0.182233 3:0.125889 4:-0.367485 5:0.337605 6:0.139297 7:-0.956309 8:-0.868367 9:0.196561 10:-0.179701 
-4 1:-0.498426 2:0.0859182 3:0.186444 4:-0.209745 5:-0.211331 6:-0.422836 7:-0.857368 8:-0.827592 9:0.496708 10:-0.422637 
-2.073147740612077 1:0.00891557 2:0.0805237 3:-0.189447 4:-0.0762693 5:0.550233 6:-0.00260351 7:-0.857511 8:-0.847325 9:0.514047 10:-0.418215 
-1.606184005493164 1:-0.228099 2:0.168845 3:0.113714 4:-0.516465 5:-0.497544 6:-0.380312 7:-0.807497 8:-0.692951 9:0.031906 10:-0.567203 
-2.695077351960194 1:-0.582864 2:0.270284 3:-0.223922 4:-0.194483 5:0.0177944 6:-0.323567 7:-0.881573 8:-0.741122 9:0.68025 10:-0.158963 
-4 1:-0.366212 2:0.468406 3:0.362446 4:-0.0771348 5:-0.103471 6:-0.134293 7:-0.870133 8:-0.673543 9:0.241101 10:-0.0953413 
-1.130738487451919 1:-0.15784 2:-0.00833681 3:-0.0295419 4:-0.465644 5:-0.325454 6:-0.423803 7:-0.868837 8:-0.677346 9:0.294004 10:-0.473161 
-1.728005901816937 1:-0.365699 2:0.101121 3:0.0571227 4:-0.0546502 5:-0.195879 6:0.103141 7:-0.793054 8:-0.667201 9:0.0439514 10:-0.545824 
-4 1:-0.345074 2:0.417453 3:0.406166 4:-0.582535 5:-0.205015 6:0.347432 7:-0.877807 8:-0.765309 9:0.294915 10:-0.350698 
-1.642620911743865 1:0.0760731 2:0.0231224 3:-0.0244457 4:0.57893 5:0.285037 6:0.0928984 7:-0.800555 8:-0.65674 9:0.430913 10:-0.507338 
-4 1:-0.401236 2:-0.266386 3:0.0932215 4:0.240973 5:-0.0159742 6:0.0671337 7:-0.93838 8:-0.633799 9:0.0821689 10:-0.518134 
-4 1:0.439962 2:-0.212392 3:-0.457908 4:0.0228423 5:-0.256653 6:-0.284265 7:-0.84192 8:-0.839188 9:-0.0162106 10:-0.518719 
-4 1:0.220046 2:-0.0111566 3:0.268397 4:0.444539 5:0.140211 6:-0.0388388 7:-0.830651 8:-0.679075 9:0.123391 10:-0.209281 
-4 1:0.00135199 2:-0.189981 3:-0.198427 4:0.657606 5:0.566035 6:-0.588741 7:-0.910918 8:-0.845899 9:-0.0387794 10:-0.708061 
-4 1:0.242732 2:0.101537 3:0.306349 4:0.175718 5:-0.00554649 6:-0.587388 7:-0.869116 8:-0.605505 9:0.42757 10:-0.530103 
-4 1:-0.0931077 2:-0.0524728 3:-0.457263 4:0.0133013 5:0.202649 6:0.252166 7:-0.868354 8:-0.790492 9:-0.0992536 10:-0.415605 
-0.5484632540743669 1:0.335468 2:0.0787583 3:-0.367956 4:0.167849 5:0.302461 6:0.0573964 7:-0.95961 8:-0.803422 9:0.542496 10:-0.359105 
-0.2520156263820128 1:-0.48722 2:0.134296 3:-0.273813 4:0.0652349 5:0.196845 6:0.471683 7:-0.895039 8:-0.827622 9:-0.0288283 10:-0.337782 
-0.6735032636325152 1:0.137683 2:-0.3806 3:-0.561601 4:-0.0397964 5:-0.130861 6:-0.0504013 7:-0.953315 8:-0.708119 9:-0.0847887 10:-0.665823 
-1.066130998934298 1:0.120942 2:0.362136 3:0.498161 4:0.316128 5:0.240955 6:-0.13924 7:-0.904114 8:-0.665881 9:0.204678 10:-0.41086 
-4 1:-0.327877 2:-0.125665 3:0.210087 4:0.042392 5:0.11871 6:0.0614496 7:-0.895574 8:-0.718475 9:0.0520164 10:-0.554676 
-2.257085649860852 1:-0.0196133 2:-0.24878 3:-0.507991 4:0.301951 5:0.181366 6:-0.0276438 7:-0.943046 8:-0.805918 9:-0.492905 10:-0.434539 
-4 1:0.104897 2:-0.350367 3:-0.499518 4:0.125197 5:-0.146406 6:-0.0359641 7:-0.841198 8:-0.809946 9:0.263982 10:-0.295326 
-2.138806807184541 1:0.382067 2:-0.0779001 3:-0.136381 4:0.152278 5:0.0583075 6:-0.51396 7:-0.964134 8:-0.885966 9:0.234167 10:-0.559797 
-2.116446183261356 1:0.0322894 2:-0.558885 3:-0.328345 4:0.269776 5:0.00326 6:-0.102705 7:-0.963722 8:-0.727196 9:-0.310516 10:-0.60874 
-4 1:0.0662333 2:-0.190177 3:-0.136445 4:0.150786 5:0.0556893 6:-0.0382169 7:-0.898793 8:-0.870171 9:0.283468 10:-0.373119 
-4 1:0.0260329 2:0.0523012 3:0.367003 4:0.509237 5:0.444199 6:-0.120147 7:-0.972411 8:-0.660414 9:0.411479 10:-0.257026 
-1.699658093028893 1:0.301262 2:-0.298727 3:-0.220903 4:-0.090546 5:0.0739773 6:0.11931 7:-0.893848 8:-0.726442 9:0.256294 10:-0.571454 
-4 1:-0.163747 2:-0.208199 3:-0.233442 4:0.137614 5:-0.132679 6:-0.16215 7:-0.881675 8:-0.742475 9:0.483726 10:-0.484824 
-1.252188024425459 1:0.236331 2:-0.189785 3:0.122728 4:0.209972 5:0.0341257 6:0.222913 7:-0.889039 8:-0.750028 9:-0.0874944 10:-0.385952 
-4 1:-0.186979 2:-0.389329 3:-0.0435005 4:-0.0973611 5:-0.0616396 6:-0.229058 7:-0.975074 8:-0.923657 9:-0.114018 10:-0.500146 
-3.697557707294509 1:0.324104 2:-0.397886 3:-0.00787839 4:0.318546 5:0.159816 6:0.182354 7:-0.845151 8:-0.793952 9:0.190382 10:-0.584695 
-4 1:0.000394724 2:-0.067994 3:-0.239746 4:-0.27895 5:-0.192254 6:-0.233276 7:-0.781673 8:-0.559128 9:-0.00462044 10:-0.577345 
-4 1:0.597331 2:0.0696123 3:-0.00336554 4:0.419955 5:0.471844 6:0.0860288 7:-0.790368 8:-0.84336 9:0.101603 10:-0.379712 
-4 1:0.151357 2:0.0546796 3:0.314895 4:0.472615 5:0.0451328 6:-0.169548 7:-0.953268 8:-0.693844 9:-0.239116 10:-0.258589 
-0.4685775204741222 1:0.725702 2:0.053846 3:0.0217758 4:0.167411 5:0.143015 6:-0.195192 7:-0.835199 8:-0.683002 9:0.488708 10:-0.501295 
-4 1:0.34124 2:-0.43116 3:0.0871377 4:-0.153931 5:-0.0293791 6:0.245116 7:-0.968432 8:-0.664289 9:0.020524 10:-0.347995 
-4 1:0.037487 2:-0.00791997 3:-0.0218436 4:-0.144261 5:-0.067709 6:-0.0494136 7:-0.887404 8:-0.720499 9:-0.147838 10:-0.404688 
-4 1:-0.179656 2:-0.254959 3:0.158187 4:0.176216 5:0.104248 6:-0.328801 7:-0.94187 8:-0.780196 9:0.0720487 10:-0.437086 
-4 1:0.218559 2:0.288159 3:0.0772337 4:0.0803971 5:0.312042 6:0.0664835 7:-0.844917 8:-0.696976 9:-0.101361 10:-0.352012 
-0.4233850929466352 1:0.260327 2:-0.535689 3:-0.211378 4:-0.0478152 5:-0.140687 6:0.00489869 7:-0.954505 8:-0.588486 9:-0.0161455 10:-0.260482 
-1.476064898894407 1:-0.0609766 2:-0.0292279 3:0.0257118 4:0.652105 5:0.452335 6:-0.500537 7:-0.970837 8:-0.823009 9:-0.0952992 10:-0.698815 
-2.286547919563341 1:-0.541021 2:-0.419758 3:-0.0220003 4:-0.306567 5:0.044212 6:0.0460654 7:-0.932292 8:-0.843721 9:0.286629 10:-0.398722 
-0.1500644867474611 1:-0.518396 2:-0.316578 3:-0.697326 4:-0.0184459 5:0.0139765 6:-0.231981 7:-0.835316 8:-0.844771 9:0.421977 10:-0.513017 
-4 1:-0.436102 2:0.187456 3:0.150433 4:-0.335493 5:-0.0292327 6:-0.332728 7:-0.833204 8:-0.819608 9:-0.292032 10:-0.424122 
-1.791226148172983 1:0.197911 2:-0.505456 3:-0.314822 4:0.277168 5:-0.306712 6:-0.731725 7:-0.855492 8:-0.617357 9:-0.0125553 10:-0.545584 
-4 1:-0.250886 2:-7.35601e-005 3:-0.188446 4:-0.363059 5:-0.227914 6:-0.148601 7:-0.844013 8:-0.815568 9:-0.153796 10:-0.502651 
-4 1:0.319464 2:-0.550548 3:-0.304041 4:-0.202044 5:-0.423535 6:-0.0658545 7:-0.803555 8:-0.570785 9:0.245523 10:-0.434264 
-4 1:0.231606 2:-0.278278 3:-0.384947 4:-0.0429601 5:-0.209337 6:-0.125333 7:-0.666422 8:-0.726889 9:-0.155773 10:-0.433014 
-4 1:0.521339 2:-0.338523 3:-0.28667 4:-0.127506 5:-0.318934 6:-0.442362 7:-0.862719 8:-0.659434 9:-0.405535 10:-0.208774 
-4 1:-0.000252907 2:-0.0163058 3:0.032969 4:-0.403612 5:-0.471526 6:-0.192508 7:-0.839234 8:-0.639438 9:0.0948387 10:-0.319343 
-4 1:0.128919 2:0.454037 3:0.0280914 4:-0.151692 5:-0.256413 6:0.222687 7:-0.823375 8:-0.704638 9:-0.0956244 10:-0.340494 
-4 1:-0.239054 2:-0.28301 3:-0.154857 4:-0.281248 5:-0.0919766 6:0.107138 7:-0.95995 8:-0.673086 9:-0.05928 10:-0.439015 
-4 1:-0.144942 2:-0.0956771 3:-0.124565 4:-0.341152 5:-0.444875 6:-0.123377 7:-0.994604 8:-0.73767 9:-0.238218 10:-0.571671 
-4 1:-0.195025 2:0.0996003 3:-0.133439 4:-0.217326 5:-0.220976 6:0.0854758 7:-0.906444 8:-0.601841 9:0.0194444 10:-0.668693 
-4 1:0.137485 2:0.521394 3:-0.112534 4:-0.229851 5:0.0731794 6:0.0185391 7:-0.90811 8:-0.746822 9:-0.0696214 10:-0.504711 
-4 1:-0.0844497 2:-0.36677 3:-0.0400148 4:-0.23011 5:-0.511434 6:-0.287436 7:-0.938584 8:-0.806104 9:-0.200495 10:-0.448477 
-0.677543099377244 1:0.354411 2:0.116127 3:0.0153996 4:-0.213883 5:-0.395617 6:-0.224196 7:-0.86474 8:-0.552719 9:-0.218251 10:-0.421542 
-4 1:0.206424 2:-0.530098 3:-0.448203 4:-0.37431 5:-0.140264 6:0.299983 7:-0.998308 8:-0.725698 9:0.103697 10:-0.640367 
-4 1:0.0392408 2:0.413187 3:-0.0418624 4:0.185339 5:-0.073911 6:-0.321519 7:-0.289222 8:-0.152287 9:-0.0287112 10:-0.438598 
