svm_type c_svc
kernel_type rbf
gamma 0.00390625
nr_class 2
total_sv 302
rho 686.018
label -1 1
nr_sv 154 148
SV
8388608 1:0.108892 2:-0.211264 3:0.00861912 4:-0.0592366 5:-0.457078 6:-0.244745 7:-0.808274 8:-0.812932 9:0.350524 10:-0.111286 
8388608 1:-0.243228 2:-0.0970748 3:-0.222605 4:0.278033 5:0.27156 6:-0.0587481 7:-0.65754 8:-0.742989 9:0.16754 10:-0.320464 
8388608 1:0.381779 2:-0.155187 3:-0.0719011 4:0.0853119 5:0.299442 6:0.0804295 7:-0.968208 8:-0.811759 9:0.149225 10:-0.262022 
8388608 1:-0.177683 2:-0.157909 3:-0.365336 4:0.341 5:0.319861 6:-0.323148 7:-0.929007 8:-0.73554 9:-0.151077 10:-0.276244 
8388608 1:0.200737 2:-0.0254518 3:-0.00131389 4:-0.454022 5:0.00511339 6:0.0496415 7:-0.521206 8:-0.757601 9:0.0448099 10:-0.532433 
1145869.037440786 1:0.52456 2:-0.206875 3:-0.113861 4:0.327092 5:-0.00801442 6:-0.509829 7:-0.990079 8:-0.683322 9:-0.00628546 10:-0.534189 
8388608 1:0.255841 2:-0.30547 3:0.113094 4:0.135395 5:0.0420835 6:-0.234845 7:-0.863567 8:-0.733051 9:-0.0210365 10:-0.228928 
8388608 1:0.129231 2:-0.0695878 3:-0.0196945 4:0.0728757 5:0.205977 6:0.28066 7:-0.649003 8:-0.557802 9:0.0718275 10:0.19593 
8388608 1:-0.113213 2:-0.168256 3:-0.171052 4:0.0335574 5:-0.134788 6:-0.257941 7:-0.917099 8:-0.518955 9:-0.402065 10:-0.216748 
8388608 1:-0.175248 2:0.149057 3:-0.162547 4:0.0799196 5:-0.0373154 6:-0.0955311 7:-0.947791 8:-0.859559 9:0.23686 10:-0.622978 
1156118.70066605 1:-0.0923608 2:-0.0743692 3:-0.294437 4:0.17736 5:0.0746719 6:0.0540729 7:-0.763105 8:-0.737058 9:0.272502 10:-0.139813 
1075377.102030854 1:-0.0385908 2:-0.102641 3:-0.181557 4:0.328017 5:-0.20714 6:0.020442 7:-0.89131 8:-0.787213 9:-0.103273 10:-0.601262 
8388608 1:0.031474 2:-0.192041 3:-0.00911755 4:-0.229981 5:-0.103031 6:0.0385437 7:-0.68312 8:-0.573786 9:-0.0983691 10:-0.278755 
8388608 1:0.41377 2:-0.335507 3:-0.257636 4:0.221722 5:0.33581 6:-0.118831 7:-0.845541 8:-0.823325 9:0.262642 10:-0.945794 
8388608 1:0.10096 2:-0.365716 3:-0.1894 4:0.607702 5:0.220738 6:-0.613981 7:-0.958359 8:-0.751487 9:-0.266966 10:-0.633776 
8388608 1:0.0181242 2:0.20842 3:-0.112896 4:-0.248575 5:-0.526168 6:-0.342118 7:-0.712424 8:-0.708067 9:-0.130707 10:-0.40904 
8388608 1:-0.377898 2:0.141235 3:0.14593 4:0.116243 5:0.207614 6:-0.140339 7:-0.895416 8:-0.847888 9:0.103164 10:0.094869 
8388608 1:0.0297745 2:-0.279062 3:-0.571512 4:-0.232975 5:-0.328747 6:-0.429748 7:-0.954192 8:-0.592485 9:-0.17388 10:-0.796176 
8388608 1:-0.647724 2:0.0575485 3:0.240256 4:-0.0480441 5:0.14741 6:-0.177032 7:-0.691459 8:-0.627631 9:-0.143728 10:-0.23602 
8388608 1:-0.239721 2:0.146385 3:-0.074116 4:-0.200383 5:-0.229767 6:-0.175924 7:-0.906561 8:-0.628875 9:0.236158 10:-0.506316 
8388608 1:0.374962 2:0.0827551 3:-0.0554773 4:0.082357 5:-0.166286 6:-0.190261 7:-0.882698 8:-0.5928 9:0.0863445 10:-0.517261 
8388608 1:-0.180765 2:0.153177 3:0.0967244 4:-0.135575 5:0.199208 6:-0.179967 7:-0.727495 8:-0.778322 9:0.387545 10:-0.74458 
8388608 1:0.0205966 2:-0.165191 3:-0.354239 4:0.131445 5:-0.309341 6:0.131107 7:-0.792359 8:-0.614295 9:0.228145 10:-0.309943 
8388608 1:-0.453444 2:0.255572 3:-0.225696 4:0.396854 5:0.399474 6:0.167698 7:-0.995087 8:-0.45221 9:0.108705 10:-0.16578 
3134479.939601811 1:0.0769807 2:0.167741 3:-0.37981 4:-0.533179 5:-0.619233 6:-0.0496274 7:-0.516669 8:-0.418983 9:-0.267837 10:-0.535911 
8388608 1:0.0586272 2:0.116617 3:-0.129234 4:0.218996 5:-0.19608 6:-0.163954 7:-0.951484 8:-0.783466 9:0.0830014 10:-0.202379 
8388608 1:0.146965 2:-0.0567638 3:-0.0488878 4:0.409857 5:-0.0916176 6:-0.197701 7:-0.719957 8:-0.567782 9:0.0328816 10:-0.554802 
8388608 1:-0.394755 2:-0.000858201 3:0.244549 4:-0.105897 5:-0.058762 6:-0.0354764 7:-0.863803 8:-0.709794 9:0.330739 10:-0.39642 
1585363.14332825 1:-0.397256 2:0.149302 3:-0.44733 4:-0.377739 5:-0.271692 6:-0.0221947 7:-0.896191 8:-0.549271 9:0.0539416 10:-0.838176 
8388608 1:0.0477593 2:0.0025746 3:-0.332807 4:0.287913 5:0.179409 6:-0.0373122 7:-0.779564 8:-0.832612 9:0.135788 10:-0.201759 
8388608 1:-0.0576156 2:0.462227 3:-0.149047 4:0.00011889 5:-0.204779 6:0.0676585 7:-0.870939 8:-0.609911 9:0.333353 10:-0.67452 
8388608 1:-0.255987 2:-0.058137 3:0.0521753 4:0.132142 5:0.230163 6:-0.0457738 7:-0.870994 8:-0.619564 9:-0.00534889 10:-0.42861 
8388608 1:0.0184315 2:-0.196405 3:-0.448771 4:-0.488782 5:-0.239005 6:-0.228738 7:-0.783197 8:-0.649474 9:-0.240585 10:-0.525536 
8388608 1:0.27677 2:-0.531275 3:-0.126757 4:0.14411 5:0.0430356 6:-0.00486512 7:-0.966438 8:-0.633004 9:-0.0427078 10:-0.347262 
5806089.522708233 1:-0.0428406 2:-0.174141 3:0.239624 4:-0.119289 5:0.153716 6:-0.208246 7:-0.890484 8:-0.920612 9:0.0591057 10:-0.812364 
8388608 1:0.104536 2:-0.120442 3:-0.157894 4:0.377861 5:0.0828541 6:-0.113255 7:-0.95665 8:-0.662457 9:0.0701235 10:-0.514541 
1237887.817451043 1:0.243462 2:-0.444327 3:-0.844785 4:0.00947092 5:-0.0345744 6:-0.227346 7:-0.588864 8:-0.582684 9:-0.11498 10:-0.723379 
8388608 1:0.0526047 2:-0.0460976 3:-0.0995233 4:0.427019 5:0.393212 6:0.205002 7:-0.75702 8:-0.605757 9:0.261692 10:-0.337204 
8388608 1:-0.181729 2:-0.322512 3:-0.280451 4:0.310218 5:0.238667 6:0.251842 7:-0.738062 8:-0.700459 9:0.0567513 10:-0.539925 
8388608 1:-0.409154 2:0.425373 3:0.307139 4:0.311502 5:0.359962 6:-0.376696 7:-0.959757 8:-0.611329 9:0.0315418 10:-0.593608 
8388608 1:-0.437088 2:-0.0194689 3:-0.113204 4:-0.384675 5:-0.249858 6:-0.191174 7:-0.971366 8:-0.819337 9:-0.0200479 10:-0.397983 
5123548.812874886 1:-0.0893684 2:-0.0669151 3:0.0196082 4:-0.156309 5:-0.0702315 6:0.198541 7:-0.708946 8:-0.826047 9:-0.200456 10:-0.786229 
5259564.582651889 1:-0.0372932 2:0.159159 3:0.0851519 4:-0.0693746 5:0.160115 6:-0.143986 7:-0.995692 8:-0.714862 9:-0.0652897 10:-0.306524 
8388608 1:-0.230789 2:-0.169286 3:-0.303417 4:-0.0923966 5:0.375201 6:-0.216118 7:-0.910135 8:-0.831093 9:0.28149 10:-0.408685 
8388608 1:0.0990711 2:0.0594365 3:0.119722 4:-0.0904068 5:-0.175143 6:0.185333 7:-0.663037 8:-0.398324 9:-0.244332 10:-0.390257 
4940825.560184344 1:0.137073 2:-0.0805483 3:-0.618124 4:-0.200124 5:-0.360655 6:-0.357032 7:-0.470977 8:-0.545697 9:-0.132944 10:-0.657153 
8388608 1:-0.00593268 2:-0.597185 3:-0.127052 4:0.332275 5:-0.0200673 6:0.288344 7:-0.913331 8:-0.913084 9:-0.00233103 10:-0.647571 
8388608 1:-0.0835941 2:0.308683 3:-0.257815 4:0.0194995 5:-0.265194 6:-0.508998 7:-0.986622 8:-0.67103 9:-0.086922 10:-0.551555 
2038978.368037935 1:-0.0634537 2:-0.107202 3:-0.216449 4:-0.00836758 5:-0.0140877 6:-0.0400208 7:-0.653043 8:-0.952408 9:-0.164541 10:-0.943726 
8388608 1:-0.129252 2:-0.173185 3:-0.0110362 4:-0.13073 5:-0.24317 6:-0.381717 7:-0.940244 8:-0.730565 9:0.281477 10:-0.389516 
8388608 1:0.484369 2:-0.568006 3:-0.302051 4:0.0544303 5:-0.0792819 6:-0.287671 7:-0.912127 8:-0.927112 9:-0.21734 10:-0.614842 
283718.8595731835 1:-0.094202 2:-0.448569 3:-0.355611 4:0.598708 5:0.440869 6:-0.13479 7:-0.727869 8:-0.799471 9:0.535966 10:-0.465675 
8388608 1:0.370117 2:-0.0106417 3:-0.618623 4:0.277874 5:0.171366 6:-0.0326847 7:-0.739208 8:-0.824514 9:-0.0107472 10:-0.466974 
8388608 1:0.705351 2:-0.233676 3:-0.229594 4:0.00329261 5:0.132133 6:-0.0860906 7:-0.755478 8:-0.31411 9:-0.183428 10:-0.389842 
8388608 1:0.268944 2:0.249834 3:-0.0706724 4:-0.169591 5:-0.45426 6:-0.670223 7:-0.693491 8:-0.599851 9:-0.0632735 10:-0.63246 
8388608 1:0.485468 2:-0.464949 3:-0.608927 4:-0.0616542 5:-0.334666 6:-0.213068 7:-0.818616 8:-0.502239 9:-0.125413 10:-0.544288 
8388608 1:-0.153432 2:0.155874 3:0.145308 4:0.222399 5:0.338919 6:-0.276593 7:-0.538149 8:-0.586724 9:-0.250563 10:-0.287868 
7464454.7007012 1:0.351319 2:0.250693 3:-0.242129 4:0.0819093 5:0.111254 6:-0.223392 7:-0.736297 8:-0.294484 9:0.256151 10:0.050671 
8388608 1:-0.0766049 2:0.404433 3:0.21355 4:0.304587 5:-0.0582216 6:0.124255 7:-0.797181 8:-0.733347 9:-0.0267731 10:-0.582092 
8388608 1:0.07318 2:0.341883 3:0.188303 4:0.127456 5:-0.110489 6:-0.368971 7:-0.875941 8:-0.784557 9:0.0236069 10:-0.0160649 
8388608 1:-0.146986 2:-0.0129956 3:0.0289684 4:0.221792 5:0.132213 6:-0.74343 7:-0.92695 8:-0.79461 9:0.0875022 10:-0.454086 
8388608 1:-0.120597 2:-0.190643 3:-0.481451 4:0.078666 5:-0.0325571 6:-0.242713 7:-0.702747 8:-0.847882 9:0.163508 10:-0.226394 
8388608 1:-0.318599 2:-0.0859427 3:-0.0971069 4:-0.264991 5:-0.105553 6:0.135818 7:-0.955709 8:-0.687622 9:-0.0652897 10:-0.462075 
8388608 1:-0.194034 2:-0.238187 3:-0.0275074 4:0.408494 5:0.341497 6:0.107862 7:-0.980983 8:-0.83775 9:0.262655 10:-0.481352 
8388608 1:-0.551456 2:0.107888 3:0.0413547 4:-0.112503 5:-0.210535 6:-0.307511 7:-0.940571 8:-0.718177 9:0.344878 10:-0.534006 
5778353.717493318 1:0.142221 2:-0.260868 3:-0.513788 4:0.177867 5:0.304363 6:-0.036579 7:-0.208259 8:-0.56159 9:-0.140502 10:-0.409185 
8388608 1:-0.142122 2:-0.302651 3:0.0789416 4:0.154238 5:-0.160606 6:0.0030947 7:-0.751639 8:-0.678794 9:-0.158479 10:-0.201267 
8388608 1:-0.275778 2:0.377633 3:-0.169451 4:0.0327714 5:-0.13837 6:-0.1715 7:-0.878069 8:-0.343713 9:0.332573 10:-0.269862 
8388608 1:0.237652 2:-0.315622 3:0.014566 4:-0.0865963 5:-0.356741 6:0.0123726 7:-0.820429 8:-0.502631 9:-0.516745 10:-0.463674 
8388608 1:0.0727333 2:0.0351862 3:-0.342506 4:0.355934 5:0.0733316 6:-0.252694 7:-0.873674 8:-0.789761 9:-0.144495 10:-0.569502 
8388608 1:0.0426326 2:-0.505112 3:-0.207884 4:0.0171316 5:-0.234422 6:0.000214677 7:-0.709666 8:-0.546095 9:-0.117829 10:-0.185132 
8388608 1:0.751702 2:-0.18927 3:-0.180568 4:0.224498 5:-0.0818591 6:-0.382473 7:-0.969365 8:-0.661113 9:0.22315 10:-0.762108 
8388608 1:0.574785 2:-0.482824 3:-0.585578 4:-0.110374 5:-0.333724 6:-0.467379 7:-0.730323 8:-0.908231 9:-0.0157943 10:-0.243992 
4856192.435507767 1:0.214981 2:-0.758085 3:-0.603251 4:0.0708063 5:-0.342386 6:-0.217886 7:-0.927049 8:-0.476722 9:0.282089 10:-0.295909 
8388608 1:0.196048 2:0.297747 3:0.234462 4:0.164108 5:0.00286006 6:-0.145191 7:-0.939769 8:-0.622595 9:-0.0781546 10:-0.571143 
7909449.46347333 1:0.0102392 2:0.342962 3:0.422929 4:0.0955593 5:-0.464669 6:0.0606068 7:-0.717655 8:-0.627513 9:0.141537 10:-0.482279 
8388608 1:0.425019 2:-0.332663 3:-0.153123 4:0.0952609 5:-0.104564 6:0.0380684 7:-0.873588 8:-0.672759 9:-0.0567695 10:-0.227043 
8388608 1:-0.0590007 2:-0.27406 3:0.0963306 4:0.104165 5:-0.0878992 6:-0.0602853 7:-0.685353 8:-0.536641 9:-0.0166138 10:0.0575708 
4186951.187101164 1:0.218533 2:-0.249001 3:-0.184314 4:0.567877 5:0.00940348 6:-0.243699 7:-0.820112 8:-0.778593 9:0.239175 10:-0.31411 
8388608 1:-0.0288669 2:-0.153618 3:-0.0844915 4:-0.135426 5:-0.24403 6:-0.250648 7:-0.546304 8:-0.606659 9:-0.00758626 10:-0.392847 
8388608 1:0.163648 2:-0.0527916 3:-0.32128 4:0.366569 5:0.305188 6:-0.0441501 7:-0.823327 8:-0.506003 9:-0.294751 10:-0.515214 
3205602.451825862 1:-0.344932 2:-0.157222 3:0.0272855 4:-0.0335385 5:0.330039 6:-0.399474 7:-0.91976 8:-0.81465 9:0.136126 10:-0.109456 
4598272.040784366 1:-0.0268484 2:0.317265 3:0.165421 4:-0.552696 5:-0.258846 6:0.23972 7:-0.832999 8:-0.468042 9:0.207852 10:-0.540819 
8388608 1:-0.131942 2:0.0211363 3:0.00473836 4:0.274482 5:0.387312 6:-0.167122 7:-0.843572 8:-0.846981 9:0.149199 10:-0.283723 
1860122.972246803 1:0.346696 2:-0.0937646 3:0.220885 4:0.628128 5:0.222172 6:-0.040611 7:-0.665533 8:-0.467916 9:-0.00935535 10:-0.0590288 
4786463.134297816 1:-0.334289 2:0.14484 3:0.442827 4:-0.224887 5:-0.167027 6:-0.180638 7:-0.764291 8:-0.618235 9:-0.138148 10:-0.16457 
8388608 1:0.121828 2:-0.469975 3:-0.357322 4:0.143165 5:-0.239426 6:-0.383364 7:-0.880082 8:-0.654767 9:0.141524 10:-0.526989 
5308288.198965441 1:0.101213 2:0.0868254 3:0.0638637 4:0.673744 5:0.437642 6:-0.248646 7:-0.928137 8:-0.607748 9:0.256931 10:-0.244839 
8388608 1:-0.182835 2:-0.230758 3:-0.102071 4:0.344482 5:0.22382 6:-0.0181415 7:-0.961314 8:-0.977732 9:0.316781 10:-0.390092 
8388608 1:0.0468162 2:-0.0926366 3:-0.277587 4:0.37228 5:0.291467 6:0.035669 7:-0.805068 8:-0.684557 9:-0.182089 10:-0.831114 
8388608 1:0.172123 2:-0.0219209 3:-0.10854 4:-0.0799504 5:-0.0818006 6:-0.20482 7:-0.381566 8:-0.548735 9:0.036758 10:-0.882922 
2371877.898011804 1:0.153848 2:-0.158988 3:-0.609258 4:0.133425 5:-0.353752 6:0.175806 7:-0.862614 8:-0.626346 9:-0.196892 10:-0.832874 
8388608 1:-0.04675 2:-0.10242 3:-0.108367 4:0.519097 5:0.0394263 6:-0.44438 7:-0.975525 8:-0.854282 9:0.152477 10:-0.467736 
8388608 1:0.0133261 2:-0.161244 3:-0.39246 4:0.375304 5:0.362297 6:-0.108804 7:-0.805385 8:-0.616085 9:0.022085 10:-0.437611 
2675738.286493899 1:0.249201 2:0.084496 3:-0.0917934 4:0.412454 5:0.308822 6:0.489865 7:-0.852694 8:-0.780498 9:0.382471 10:-0.142703 
8388608 1:0.325215 2:-0.102003 3:-0.273662 4:0.174465 5:7.80372e-005 6:0.0266402 7:-0.945514 8:-0.687837 9:0.0294345 10:-0.678679 
8388608 1:-0.0672686 2:-0.153888 3:-0.179747 4:0.522659 5:0.324494 6:-0.0143551 7:-0.991668 8:-0.575853 9:0.241998 10:-0.336886 
8388608 1:0.237664 2:-0.129343 3:-0.050597 4:-0.0328818 5:-0.0725297 6:-0.237145 7:-0.981934 8:-0.61707 9:-0.137341 10:-0.551502 
8388608 1:0.318441 2:0.0115734 3:0.233948 4:0.391024 5:0.162727 6:-0.150054 7:-0.9206 8:-0.631909 9:0.40893 10:-0.496526 
8388608 1:0.0689728 2:0.0758649 3:-0.263309 4:-0.0453777 5:-0.231214 6:-0.189356 7:-0.523544 8:-0.561457 9:-0.00899113 10:-0.555138 
8388608 1:-0.149693 2:-0.1277 3:0.323929 4:0.136111 5:0.286026 6:-0.172304 7:-0.947927 8:-0.566913 9:0.361776 10:-0.609666 
8388608 1:0.0673064 2:-0.16144 3:-0.143278 4:-0.00726324 5:-0.395738 6:-0.192766 7:-0.866723 8:-0.591376 9:0.00685261 10:-0.561903 
6427462.529203014 1:0.560946 2:-0.316627 3:-0.131173 4:0.293554 5:0.188501 6:-0.377788 7:-0.817514 8:-0.680691 9:-0.196124 10:-0.278309 
4355233.296533234 1:0.327035 2:0.0231959 3:-0.134765 4:-0.191747 5:-0.46978 6:-0.215536 7:-0.669859 8:-0.501318 9:-0.360928 10:-0.180398 
8388608 1:-0.631942 2:0.13692 3:0.0373212 4:0.0771338 5:0.285429 6:-0.117161 7:-0.71113 8:-0.676501 9:0.0849786 10:-0.592613 
3802857.497166395 1:-0.136991 2:0.319177 3:0.396816 4:0.354869 5:0.0802418 6:0.203822 7:-0.783342 8:-0.696782 9:0.339961 10:-0.291006 
8388608 1:0.196034 2:-0.355565 3:-0.396432 4:-0.0259673 5:-0.169085 6:0.193849 7:-0.302006 8:-0.458975 9:-0.181841 10:-0.464371 
3239910.556937971 1:-0.0811927 2:0.213005 3:0.0348363 4:-0.132352 5:-0.030612 6:-0.476131 7:-0.647358 8:-0.491251 9:-0.256273 10:-0.197129 
8388608 1:-0.110201 2:0.0118432 3:-0.171724 4:-0.116493 5:-0.0270535 6:-0.0303542 7:-0.916909 8:-0.666179 9:-0.0790652 10:-0.796257 
8388608 1:0.289423 2:0.32006 3:0.120292 4:0.0323038 5:-0.327393 6:-0.284627 7:-0.943779 8:-0.694114 9:-0.451202 10:-0.176134 
8388608 1:-0.140836 2:0.314101 3:0.0950401 4:0.11885 5:-0.236886 6:-0.0978616 7:-0.811605 8:-0.617802 9:0.0686016 10:-0.255613 
8388608 1:-0.0666517 2:0.0247162 3:0.170899 4:-0.0458752 5:-0.0787512 6:-0.299094 7:-0.617173 8:-0.327853 9:-0.0943626 10:-0.199182 
8388608 1:0.0327172 2:-0.0625015 3:-0.209758 4:0.274153 5:0.472664 6:-0.463701 7:-0.602018 8:-0.721457 9:0.472253 10:-0.787871 
8388608 1:-0.205011 2:0.457642 3:0.163613 4:-5.02423e-005 5:-0.126106 6:-0.10057 7:-0.870136 8:-0.480341 9:0.0810112 10:-0.639415 
8388608 1:0.217217 2:0.231739 3:-0.0606552 4:-0.188394 5:-0.09216 6:-0.0804737 7:-0.972524 8:-0.574411 9:-0.00955047 10:-0.518913 
8388608 1:-0.0210409 2:0.171934 3:0.232118 4:-0.00890482 5:-0.0519474 6:-0.0276491 7:-0.691035 8:-0.340891 9:-0.0488086 10:-0.741172 
8388608 1:-0.122979 2:-0.399627 3:-0.199657 4:0.109349 5:0.000144369 6:0.0839085 7:-0.905179 8:-0.770695 9:-0.0190593 10:-0.519409 
8388608 1:-0.164312 2:0.0683863 3:0.148265 4:-0.0732945 5:-0.178403 6:-0.116144 7:-0.941352 8:-0.843877 9:0.318992 10:-0.207245 
8388608 1:0.0897324 2:0.0255499 3:-0.145903 4:0.0539428 5:-0.201555 6:-0.312941 7:-0.608755 8:-0.476449 9:-0.0770099 10:-0.349204 
8388608 1:0.0766924 2:-0.718118 3:-0.276378 4:0.0238969 5:0.292969 6:-0.0165601 7:-0.72422 8:-0.772442 9:0.0626569 10:-0.621474 
8388608 1:0.470904 2:-0.386828 3:-0.188718 4:0.405718 5:-0.142369 6:-0.0639604 7:-0.965029 8:-0.606084 9:0.0112363 10:-0.181782 
8388608 1:0.121665 2:-0.549714 3:-0.252081 4:-0.190265 5:0.0282378 6:0.473556 7:-0.645285 8:-0.427956 9:-0.140788 10:-0.214958 
8388608 1:-0.344162 2:0.297354 3:0.172898 4:0.0185643 5:0.13559 6:-0.31542 7:-0.933838 8:-0.800391 9:0.288697 10:-0.00471726 
3994347.399210654 1:-0.491687 2:0.0807199 3:0.133147 4:0.315252 5:0.0502345 6:-0.456115 7:-0.999583 8:-0.786571 9:0.56206 10:-0.0168353 
2151593.20579866 1:-0.209438 2:-0.0457053 3:0.251001 4:0.168704 5:-0.162649 6:-0.329129 7:-0.960515 8:-0.76474 9:0.858525 10:-0.65439 
8388608 1:-0.366061 2:-0.0717456 3:-0.143975 4:0.163073 5:-0.0520898 6:-0.812682 7:-0.966473 8:-0.819507 9:0.194974 10:-0.0152449 
8388608 1:-0.340439 2:0.143025 3:0.412526 4:-0.160298 5:0.0803569 6:-0.420923 7:-0.819786 8:-0.628402 9:0.241114 10:-0.701418 
8388608 1:-0.0786376 2:-0.140255 3:-0.267303 4:-0.0198586 5:0.188105 6:0.0598488 7:-0.951375 8:-0.993505 9:0.243312 10:-0.116695 
8388608 1:-0.172736 2:-0.133266 3:-0.389345 4:0.155442 5:0.0397522 6:-0.450278 7:-0.778459 8:-0.725029 9:0.270551 10:0.0488819 
1676925.255464694 1:-0.192985 2:0.315965 3:0.103984 4:0.0334678 5:-0.137609 6:-0.300145 7:-0.811283 8:-0.775931 9:0.398823 10:-0.984255 
8388608 1:-0.239248 2:0.0128485 3:0.098431 4:-0.00354233 5:0.237299 6:0.019502 7:-0.923494 8:-0.590448 9:0.0454733 10:-0.0644624 
3716750.927722785 1:-0.489706 2:0.240738 3:0.47139 4:0.261886 5:0.065403 6:-0.442314 7:-0.856337 8:-0.839397 9:0.323025 10:-0.232988 
8388608 1:-0.124291 2:0.224824 3:-0.106052 4:-0.183907 5:0.213849 6:0.0986815 7:-0.861016 8:-0.733676 9:0.49408 10:-0.177837 
6754399.075503942 1:-0.00237307 2:0.0429346 3:-0.497708 4:0.119954 5:0.144728 6:-0.427368 7:-0.911731 8:-0.847644 9:0.483648 10:-0.0145574 
8388608 1:-0.136033 2:0.178064 3:0.00792119 4:0.110473 5:0.210931 6:-0.263596 7:-0.904041 8:-0.855077 9:0.303786 10:-0.0377912 
8388608 1:-0.0061525 2:0.0970257 3:-0.334559 4:0.300428 5:0.393805 6:0.0246118 7:-0.834734 8:-0.57427 9:-0.102271 10:-0.872441 
2511960.08232159 1:-0.069228 2:-0.00483044 3:0.329907 4:0.486663 5:0.202807 6:0.0812317 7:-0.980755 8:-0.687517 9:0.160295 10:-0.578273 
8388608 1:0.176714 2:-0.366231 3:-0.102052 4:0.211564 5:0.0601823 6:-0.364232 7:-0.971435 8:-0.729875 9:-0.33064 10:-0.75551 
8388608 1:0.176503 2:-0.0860653 3:0.310023 4:0.455921 5:0.395598 6:-0.115453 7:-0.982461 8:-0.752271 9:-0.22919 10:-0.379376 
8388608 1:-0.0459369 2:-0.0777285 3:0.279538 4:0.427576 5:0.379212 6:-0.191992 7:-0.911025 8:-0.638144 9:0.387649 10:-0.328841 
8388608 1:0.194944 2:-0.077802 3:-0.307529 4:0.217175 5:0.158548 6:-0.203758 7:-0.974437 8:-0.926896 9:-0.20454 10:-0.781392 
2527263.154301805 1:0.104054 2:-0.416718 3:0.00139092 4:0.322535 5:0.216366 6:-0.117458 7:-0.898144 8:-0.807107 9:-0.347394 10:-0.599643 
453989.243416689 1:-0.0133379 2:-0.201702 3:0.166477 4:0.242923 5:-0.0726214 6:-0.282545 7:-0.875011 8:-0.646381 9:-0.0493029 10:-0.632828 
5902816.296347843 1:-0.0690342 2:-0.216806 3:0.282698 4:0.268831 5:0.325458 6:-0.290993 7:-0.850527 8:-0.748967 9:-0.0274625 10:-0.250053 
8388608 1:0.0668762 2:-0.126474 3:0.080639 4:0.218668 5:0.425804 6:0.353558 7:-0.991601 8:-0.904041 9:0.000777878 10:-0.0518143 
8388608 1:-0.372041 2:0.272491 3:0.291824 4:0.13248 5:-0.20746 6:-0.360737 7:-0.978402 8:-0.666561 9:0.161726 10:-0.012876 
8388608 1:-0.205148 2:-0.178775 3:-0.0554431 4:0.0771338 5:0.309363 6:-0.0711233 7:-0.980898 8:-0.538771 9:0.29295 10:0.0734244 
8388608 1:-0.134372 2:0.230954 3:0.139317 4:-0.00370151 5:0.307896 6:0.0914567 7:-0.843598 8:-0.764324 9:0.276664 10:0.0947199 
8388608 1:0.0174435 2:-0.0221906 3:-0.0590631 4:0.342035 5:0.242391 6:0.0840428 7:-0.833682 8:-0.59439 9:-0.132359 10:-0.0588217 
8388608 1:0.31949 2:0.0944266 3:-0.178833 4:-0.0401545 5:-0.0976811 6:0.00868866 7:-0.730033 8:-0.73578 9:-0.36991 10:-0.475094 
8388608 1:0.292843 2:-0.280068 3:-0.235563 4:-0.0188538 5:-0.176879 6:-0.412344 7:-0.770975 8:-0.401844 9:-0.114525 10:-0.32513 
7430454.257069687 1:0.215368 2:0.0205968 3:-0.327611 4:-0.275706 5:0.0162395 6:-0.135429 7:-0.846656 8:-0.851831 9:-0.126141 10:-0.503061 
5844188.578316804 1:0.587314 2:0.150234 3:-0.0485085 4:0.189756 5:0.156603 6:0.389011 7:-0.775076 8:-0.730522 9:-0.202979 10:-0.0866277 
3842898.745837444 1:0.0587312 2:-0.0633597 3:0.0600896 4:0.0716221 5:-0.251409 6:-0.673308 7:-0.848345 8:-0.741218 9:-0.269723 10:-0.500763 
-8388608 1:0.260208 2:0.409852 3:0.135678 4:-0.0102479 5:-0.187732 6:-0.3703 7:-0.570528 8:-0.525409 9:0.142357 10:-0.721279 
-8388608 1:-0.184561 2:0.341834 3:0.119194 4:0.120491 5:0.114461 6:-0.485525 7:-0.87649 8:-0.727085 9:-0.0622068 10:-0.381549 
-8388608 1:-0.156538 2:0.373244 3:0.178768 4:0.210599 5:-0.0337745 6:-0.0298277 7:-0.854266 8:-0.730337 9:0.367642 10:-0.508001 
-8388608 1:-0.0112343 2:-0.100581 3:-0.121687 4:-0.147952 5:-0.258379 6:-0.119082 7:-0.518486 8:-0.60029 9:-0.245724 10:-0.270029 
-8388608 1:0.431363 2:-0.0970012 3:-0.141674 4:-0.0276885 5:0.349759 6:0.249367 7:-0.695633 8:-0.70089 9:0.263708 10:-0.365905 
-8388608 1:0.196681 2:0.158007 3:0.266514 4:0.25919 5:0.0730389 6:-0.165987 7:-0.750883 8:-0.516115 9:-0.33315 10:-0.752993 
-8388608 1:0.228853 2:0.127553 3:-0.0168066 4:0.502542 5:0.136768 6:-0.440756 7:-0.783358 8:-0.923925 9:0.160282 10:-0.404947 
-8388608 1:0.0851257 2:-0.294853 3:-0.124224 4:0.018624 5:-0.252452 6:-0.410053 7:-0.757252 8:-0.439741 9:-0.192209 10:-0.278127 
-8388608 1:-0.141323 2:-0.0395998 3:0.0444006 4:-0.279895 5:-0.0600301 6:-0.0377963 7:-0.892892 8:-0.684788 9:0.0956842 10:-0.492028 
-8388608 1:0.348194 2:-0.166099 3:-0.126428 4:0.548814 5:0.111384 6:0.00294982 7:-0.710169 8:-0.673016 9:0.0746893 10:-0.408211 
-8388608 1:-0.0123735 2:0.0566658 3:-0.251106 4:0.138778 5:-0.00462175 6:-0.103459 7:-0.950058 8:-0.7028 9:0.254577 10:-0.356574 
-8388608 1:0.199036 2:-0.0977858 3:-0.0521088 4:0.376379 5:0.116541 6:-0.536215 7:-0.948142 8:-0.550044 9:-0.0258235 10:-0.51483 
-8388608 1:-0.0643495 2:0.451463 3:0.314553 4:-0.287973 5:-0.252603 6:-0.425419 7:-0.938254 8:-0.674517 9:-0.28571 10:-0.559488 
-8388608 1:0.331386 2:-0.297943 3:0.0756166 4:-0.0722399 5:-0.316462 6:0.213875 7:-0.820514 8:-0.558906 9:-0.456465 10:-0.58591 
-8388608 1:0.419774 2:0.32413 3:-0.2012 4:-0.201706 5:-0.0261112 6:-0.268525 7:-0.62571 8:-0.474949 9:-0.401216 10:-0.570418 
-8388608 1:-0.302645 2:-0.0850845 3:0.0816741 4:0.197914 5:0.24537 6:0.0246542 7:-0.784868 8:-0.599504 9:0.0794632 10:-0.196167 
-8388608 1:0.075728 2:-0.63985 3:-0.572607 4:0.151821 5:0.231932 6:-0.351039 7:-0.567239 8:-0.658123 9:0.153062 10:-0.43251 
-8388608 1:0.0245273 2:-0.171493 3:0.0372382 4:-0.146131 5:-0.270914 6:-0.407832 7:-0.878349 8:-0.615075 9:0.348052 10:-0.42228 
-8388608 1:0.426636 2:-0.221244 3:-0.141204 4:0.228378 5:0.525378 6:-0.0838202 7:-0.754771 8:-0.580604 9:-0.0607109 10:-0.269359 
-8388608 1:-0.419717 2:0.291813 3:0.213682 4:-0.0715634 5:-0.304166 6:-0.0565872 7:-0.793776 8:-0.41471 9:0.118929 10:-0.692545 
-8388608 1:-0.246166 2:0.390996 3:0.0956037 4:-0.150906 5:-0.177882 6:-0.37777 7:-0.975386 8:-0.591785 9:-0.0295307 10:-0.301114 
-8388608 1:-0.3773 2:0.0249123 3:-0.0309378 4:-0.301534 5:0.0876787 6:-0.224487 7:-0.822726 8:-0.580116 9:0.22886 10:-0.308679 
-4392963.705365369 1:-0.493933 2:0.0662041 3:-0.124085 4:-0.117229 5:0.208537 6:0.4279 7:-0.97538 8:-0.799575 9:-0.31823 10:-0.471711 
-1246908.340978989 1:-0.166576 2:0.410416 3:0.271571 4:0.289664 5:0.0100492 6:0.0174012 7:-0.522931 8:-0.395208 9:-0.295245 10:-0.0548044 
-8388608 1:-0.0784225 2:-0.306917 3:-0.102007 4:0.150209 5:0.13511 6:-0.162978 7:-0.891805 8:-0.802526 9:0.112321 10:-0.0181523 
-8388608 1:0.0914626 2:0.131182 3:-0.152398 4:0.382129 5:0.105976 6:-0.153006 7:-0.925133 8:-0.743387 9:-0.11178 10:-0.580452 
-8388608 1:0.0174388 2:0.045264 3:-0.31247 4:0.0334081 5:-0.272502 6:-0.311434 7:-0.668761 8:-0.541881 9:-0.432682 10:-0.341998 
-1041974.436932557 1:-0.106542 2:-0.114484 3:-0.337236 4:-0.167352 5:0.114765 6:-0.112536 7:-0.743035 8:-0.596723 9:-0.455803 10:-0.572122 
-8388608 1:-0.141824 2:-0.12645 3:-0.125829 4:0.113885 5:-0.118012 6:0.217646 7:-0.863029 8:-0.68926 9:-0.348266 10:-0.810304 
-8388608 1:-0.211641 2:-0.117573 3:0.151999 4:0.0360347 5:-0.0958824 6:-0.3238 7:-0.8907 8:-0.800037 9:-0.283031 10:-0.228133 
-8388608 1:0.266378 2:-0.178555 3:-0.55842 4:0.0359252 5:0.336703 6:-0.0445264 7:-0.582269 8:-0.729326 9:-0.259434 10:-1 
-8388608 1:0.235769 2:-0.15911 3:0.0495311 4:-0.316925 5:0.140243 6:-0.175166 7:-0.72586 8:-0.806446 9:0.0599122 10:-0.879356 
-8388608 1:0.221861 2:-0.205036 3:-0.0686669 4:-0.243621 5:-0.226643 6:-0.121306 7:-0.594464 8:-0.541855 9:-0.287492 10:-0.581419 
-8388608 1:-0.0830907 2:0.240983 3:0.262669 4:-0.129407 5:-0.0876358 6:0.25072 7:-0.988518 8:-0.714346 9:0.03348 10:-0.421117 
-8343775.64885131 1:-0.541181 2:0.359954 3:-0.0889635 4:0.50685 5:0.801064 6:-0.262005 7:-0.939067 8:-0.863471 9:0.341093 10:-0.3151 
-8388608 1:0.449416 2:-0.363632 3:-0.382941 4:-0.0807165 5:-0.338685 6:-0.297555 7:-0.81725 8:-0.726432 9:0.204899 10:-0.607505 
-8388608 1:0.185433 2:0.196381 3:-0.111233 4:0.0781785 5:-0.0303077 6:-0.164678 7:-0.658877 8:-0.541347 9:0.0622667 10:-0.569857 
-8388608 1:-0.245892 2:0.0991344 3:-0.342287 4:0.140757 5:0.083174 6:-0.409804 7:-0.65221 8:-0.538209 9:0.00344452 10:-0.629035 
-4383355.276050458 1:-0.335537 2:0.176225 3:-0.343679 4:-0.623655 5:-0.689931 6:0.20509 7:-0.758018 8:-0.681767 9:-0.0672409 10:-0.487015 
-8388608 1:0.0655361 2:-0.214158 3:-0.298023 4:0.0518336 5:0.0756922 6:-0.261069 7:-0.644647 8:-0.493425 9:-0.018578 10:-0.165192 
-8388608 1:-0.443082 2:-0.256479 3:-0.101051 4:0.439147 5:0.0901096 6:-0.104977 7:-0.812101 8:-0.702193 9:0.392488 10:-0.370964 
-8388608 1:-0.00973102 2:-0.266435 3:-0.0857662 4:0.128411 5:-0.183969 6:-0.392619 7:-0.827015 8:-0.805487 9:-0.226277 10:-0.480989 
-8388608 1:0.0752978 2:0.120835 3:0.396013 4:-0.0377867 5:-0.249145 6:0.332167 7:-0.890359 8:-0.50277 9:0.0414018 10:-0.181702 
-5752927.29140398 1:0.302825 2:-0.223598 3:-0.340781 4:0.365007 5:0.465933 6:-0.0662467 7:-0.973603 8:-0.646015 9:0.0459156 10:-0.912454 
-8388608 1:0.0265458 2:-0.208616 3:-0.384826 4:0.0808349 5:0.11182 6:0.234924 7:-0.539433 8:-0.475025 9:0.245315 10:-0.737889 
-8388608 1:-0.0540276 2:-0.140205 3:0.130797 4:-0.114225 5:0.264743 6:-0.117536 7:-0.718923 8:-0.782488 9:0.119723 10:-0.373976 
-8388608 1:-0.239872 2:0.202511 3:0.142621 4:-0.0101683 5:-0.0392449 6:-0.112537 7:-0.669343 8:-0.526095 9:0.0601724 10:-0.319036 
-8388608 1:-0.00574359 2:-0.192703 3:-0.012947 4:0.00876454 5:0.292854 6:-0.0219933 7:-0.921422 8:-0.568816 9:0.00356159 10:-0.497183 
-2256188.962282291 1:0.170062 2:0.132408 3:-0.309001 4:-0.0620124 5:-0.265629 6:-0.2538 7:-0.917915 8:-0.635269 9:0.114351 10:-0.629657 
-8388608 1:-0.143311 2:0.260844 3:0.00505967 4:-0.0225349 5:0.0125016 6:-0.244402 7:-0.877354 8:-0.942276 9:0.342264 10:0.0433075 
-8388608 1:-0.0019878 2:0.250742 3:-0.135583 4:0.139484 5:0.0851366 6:0.0709785 7:-0.961548 8:-0.728433 9:0.0697593 10:-0.534013 
-8388608 1:-0.294897 2:0.2631 3:0.40132 4:-0.0212813 5:-0.0127415 6:0.0119998 7:-0.720356 8:-0.720383 9:0.35708 10:-0.339551 
-8388608 1:0.155656 2:-0.0686315 3:-0.0251147 4:-0.0974208 5:-0.258332 6:-0.387325 7:-0.857966 8:-0.625767 9:0.33628 10:-0.438093 
-8388608 1:-0.27396 2:-0.15553 3:-0.142595 4:0.0622999 5:0.0198507 6:-0.115983 7:-0.835926 8:-0.730866 9:0.0485432 10:-0.589235 
-2477603.457829846 1:-0.00446251 2:0.421695 3:0.0581973 4:-0.0460941 5:0.124561 6:-0.294548 7:-0.842401 8:-0.441695 9:0.0532651 10:-0.520165 
-8095062.877122683 1:-0.272584 2:0.0593384 3:-0.0624105 4:-0.0300961 5:-0.471218 6:-0.480682 7:-0.819165 8:-0.795384 9:0.230122 10:-0.452427 
-8388608 1:-0.224608 2:-0.364981 3:-0.395993 4:0.268204 5:0.463124 6:-0.0480549 7:-0.764453 8:-0.769079 9:-0.0307015 10:-0.435383 
-8388608 1:0.175397 2:0.22144 3:0.0554924 4:0.423865 5:0.389981 6:-0.315512 7:-0.885954 8:-0.742886 9:0.30428 10:-0.432252 
-5493940.714241374 1:-0.315203 2:-0.420077 3:0.00115521 4:0.0804767 5:0.0567974 6:-0.195231 7:-0.775184 8:-0.445151 9:-0.0471566 10:-0.416509 
-8388608 1:0.331658 2:-0.607091 3:-0.181084 4:-0.0496757 5:-0.170523 6:0.354733 7:-0.40678 8:-0.595244 9:-0.292982 10:-0.201823 
-8388608 1:-0.208788 2:0.011083 3:-0.180911 4:0.212947 5:0.123617 6:0.200603 7:-0.714799 8:-0.793813 9:0.288762 10:-0.351372 
-8388608 1:0.152456 2:-0.124267 3:-0.038669 4:0.214917 5:0.275555 6:0.260152 7:-0.963009 8:-0.645183 9:0.247748 10:-0.0621763 
-8388608 1:-0.397284 2:0.279357 3:0.395565 4:0.131634 5:-0.00789737 6:-0.0870235 7:-0.667469 8:-0.784521 9:0.181433 10:-0.234804 
-8388608 1:-0.226262 2:0.187848 3:0.249856 4:0.00143215 5:0.178091 6:-0.217745 7:-0.890237 8:-0.69161 9:0.0653886 10:-0.545376 
-8388608 1:0.25442 2:-0.534046 3:-0.454407 4:0.0943754 5:-0.531812 6:-0.51229 7:-0.667256 8:-0.718521 9:-0.219825 10:-0.649837 
-8388608 1:0.254515 2:0.0494814 3:-0.0845665 4:0.338812 5:0.129739 6:-0.261005 7:-0.793486 8:-0.697739 9:0.252574 10:-0.265831 
-8388608 1:-0.176449 2:0.313219 3:0.575013 4:0.370977 5:-0.0652742 6:-0.334566 7:-0.977234 8:-0.495407 9:0.375876 10:-0.285069 
-8388608 1:0.352633 2:0.217223 3:-0.148472 4:-0.0586298 5:-0.0372335 6:0.0166343 7:-0.76353 8:-0.652617 9:-0.0724571 10:0.162408 
-8388608 1:-0.658188 2:0.0847412 3:0.265131 4:-0.0212316 5:0.0296873 6:-0.437888 7:-0.940544 8:-0.806986 9:0.342589 10:-0.452737 
-5206435.638277112 1:-0.1428 2:0.0270946 3:-0.397603 4:0.202073 5:0.254122 6:0.266343 7:-0.515189 8:-0.658454 9:-0.056041 10:0.187357 
-8388608 1:0.109426 2:0.0360444 3:0.296525 4:0.393511 5:-0.0801442 6:-0.294928 7:-0.796422 8:-0.576997 9:-0.318685 10:-0.383949 
-2282590.573281684 1:-0.405117 2:0.506804 3:0.493447 4:-0.0565405 5:-0.0648314 6:-0.313784 7:-0.976405 8:-0.581444 9:0.0216817 10:-0.154266 
-6655347.728519835 1:0.233606 2:-0.714955 3:-0.498637 4:-0.292202 5:-0.377298 6:-0.245821 7:-0.90229 8:-0.589148 9:-0.486975 10:-0.250397 
-8388608 1:0.136395 2:-0.116715 3:-0.247319 4:0.340801 5:0.262262 6:0.0676638 7:-0.948303 8:-0.879456 9:-0.108762 10:0.116662 
-8388608 1:-0.00779049 2:-0.0387171 3:0.123988 4:-0.0579234 5:0.0226523 6:-0.434471 7:-0.797307 8:-0.747532 9:0.133043 10:-0.625463 
-2101019.38521662 1:0.402066 2:0.14332 3:-0.0684996 4:-0.414914 5:-0.765506 6:0.0682133 7:-0.59655 8:-0.318285 9:-0.17388 10:-0.375756 
-1168945.683165255 1:-0.336442 2:-0.131452 3:-0.0131326 4:0.0343234 5:0.488095 6:0.494123 7:-0.804069 8:-0.855154 9:0.329009 10:-0.851524 
-8388608 1:-0.136551 2:-0.352843 3:-0.420256 4:-0.187529 5:-0.237178 6:-0.0475213 7:-0.89038 8:-0.653817 9:0.197953 10:-0.541546 
-8388608 1:-0.251555 2:0.337395 3:0.118172 4:0.0183752 5:0.362785 6:0.0145565 7:-0.883168 8:-0.560498 9:-0.0277226 10:-0.0298727 
-8388608 1:-0.596866 2:0.222519 3:-0.0725463 4:0.0379548 5:0.14344 6:-0.142831 7:-0.962246 8:-0.755843 9:0.474932 10:-0.256331 
-8388608 1:-0.0264725 2:0.0984479 3:-0.142324 4:-0.160398 5:-0.239678 6:-0.382585 7:-0.809423 8:-0.716809 9:0.130494 10:-0.654372 
-6113826.224864632 1:-0.46637 2:-0.110438 3:-0.311149 4:0.525802 5:0.147658 6:-0.570189 7:-0.963365 8:-0.815862 9:0.101447 10:-0.926058 
-8388608 1:-0.389442 2:-0.0664983 3:0.282922 4:-0.112384 5:-0.0963916 6:0.120213 7:-0.99783 8:-0.599678 9:0.104296 10:-0.476686 
-8388608 1:-0.262771 2:0.21916 3:-0.300568 4:0.146986 5:-0.147235 6:-0.486668 7:-0.930728 8:-0.59453 9:0.170337 10:0.152999 
-8388608 1:-0.0103881 2:0.00904789 3:-0.0524564 4:-0.00181121 5:0.0273813 6:-0.197537 7:-0.848319 8:-0.574645 9:-0.051098 10:-0.709949 
-8388608 1:-0.00270398 2:0.0761837 3:0.057764 4:0.391461 5:0.25517 6:-0.0281191 7:-0.920337 8:-0.670069 9:-0.118167 10:-0.339083 
-8388608 1:-0.306975 2:0.22681 3:0.0306579 4:0.185239 5:0.0940231 6:-0.121976 7:-0.943259 8:-0.837515 9:0.455251 10:-0.528077 
-8388608 1:-0.191474 2:0.208028 3:-0.0557762 4:0.0686374 5:-0.0649153 6:0.188347 7:-0.76887 8:-0.583535 9:0.247891 10:-0.240356 
-8388608 1:-0.210145 2:0.180492 3:0.0644207 4:-0.00862625 5:0.268081 6:0.125266 7:-0.828065 8:-0.792787 9:0.283949 10:-0.507958 
-8388608 1:-0.354304 2:0.371135 3:-0.124705 4:-0.408464 5:-0.332815 6:-0.349567 7:-0.786834 8:-0.638497 9:0.105882 10:-0.483468 
-8388608 1:-0.200052 2:0.171861 3:-0.225177 4:0.236506 5:0.0378266 6:-0.60867 7:-0.911268 8:-0.911911 9:0.247019 10:-0.0149053 
-8388608 1:-0.288402 2:0.328372 3:-0.333226 4:0.00958036 5:0.00549967 6:-0.385071 7:-0.819074 8:-0.615966 9:0.263617 10:-0.436589 
-8388608 1:-0.109707 2:-0.271878 3:0.0243134 4:0.21233 5:0.469093 6:-0.315136 7:-0.994945 8:-0.598576 9:0.0895965 10:-0.500845 
-8388608 1:-0.110717 2:-0.578991 3:-0.295314 4:0.216907 5:0.213135 6:-0.167355 7:-0.906988 8:-0.759278 9:0.307363 10:-0.52026 
-3903891.254963198 1:0.0274298 2:-0.333497 3:-0.619813 4:0.392168 5:0.428454 6:0.0895219 7:-0.934597 8:-0.946148 9:0.395714 10:-0.549103 
-8388608 1:0.0839747 2:0.0377363 3:0.265566 4:0.405758 5:0.213728 6:0.193086 7:-0.887567 8:-0.758932 9:0.195273 10:-0.417275 
-8388608 1:-0.202609 2:-0.0842263 3:-0.0361156 4:0.0789048 5:0.204461 6:-0.22469 7:-0.914252 8:-0.714997 9:-0.100632 10:-0.565877 
-8388608 1:0.0580812 2:-0.350783 3:0.294471 4:0.31957 5:0.00213237 6:-0.527953 7:-0.945496 8:-0.724589 9:0.112946 10:-0.500827 
-8388608 1:0.152718 2:-0.167055 3:-0.383581 4:0.0291002 5:-0.0813557 6:-0.151223 7:-0.921825 8:-0.72198 9:0.0876583 10:-0.5502 
-8388608 1:0.144857 2:-0.237771 3:-0.173434 4:0.0530673 5:0.0634872 6:-0.0534704 7:-0.959011 8:-0.855347 9:-0.156619 10:-0.407655 
-8388608 1:0.0223055 2:0.0919256 3:-0.210016 4:0.0952509 5:0.0578802 6:0.187049 7:-0.95661 8:-0.78057 9:-0.102597 10:-0.463327 
-8388608 1:0.208849 2:-0.108795 3:-0.357317 4:0.178285 5:-0.245404 6:-0.450585 7:-0.981383 8:-0.668582 9:-0.0902651 10:-0.413419 
-8388608 1:0.246596 2:-0.117819 3:-0.118349 4:0.512123 5:0.341555 6:-0.0489896 7:-0.949179 8:-0.601109 9:-0.046194 10:-0.651727 
-8388608 1:-0.0819301 2:-0.0839566 3:-0.040535 4:0.259498 5:0.367819 6:0.0808854 7:-0.923734 8:-0.739391 9:0.0736617 10:-0.384307 
-8388608 1:0.0818143 2:-0.0148837 3:-0.223031 4:0.379294 5:0.00381992 6:-0.12213 7:-0.929981 8:-0.713886 9:0.285458 10:-0.242996 
-8388608 1:0.3958 2:-0.0608832 3:0.168573 4:0.0804866 5:-0.190768 6:-0.365905 7:-0.919475 8:-0.679428 9:0.109772 10:-0.524633 
-8388608 1:0.354432 2:-0.0987176 3:-0.15097 4:0.303483 5:-0.0451367 6:-0.283342 7:-0.970824 8:-0.795944 9:-0.0939463 10:-0.473433 
-8388608 1:-0.219349 2:-0.390727 3:-0.371982 4:-0.0474272 5:-0.0120626 6:-0.199382 7:-0.871633 8:-0.866615 9:-0.00693586 10:-0.495355 
-8388608 1:-0.155512 2:-0.18672 3:-0.101543 4:0.36634 5:0.459729 6:-0.304276 7:-0.909858 8:-0.739855 9:-0.0383242 10:-0.605765 
-1792605.838170325 1:-0.228853 2:-0.56168 3:-0.0779823 4:0.0222852 5:-0.185824 6:-0.134136 7:-0.881767 8:-0.816412 9:0.0837689 10:-0.569963 
-8388608 1:0.244521 2:-0.512812 3:-0.527056 4:0.060927 5:-0.219901 6:-0.202781 7:-0.944689 8:-0.788465 9:-0.181958 10:-0.490994 
-8388608 1:0.236331 2:-0.189785 3:0.122728 4:0.209972 5:0.0341257 6:0.222913 7:-0.889039 8:-0.750028 9:-0.0874944 10:-0.385952 
-8388608 1:0.288704 2:-0.320967 3:0.0825524 4:0.628953 5:0.398641 6:0.00884061 7:-0.905701 8:-0.705057 9:-0.162967 10:-0.455614 
-8388608 1:0.13129 2:-0.0821911 3:-0.216491 4:0.53604 5:0.184856 6:0.230327 7:-0.920893 8:-0.823225 9:-0.0116838 10:-0.527659 
-8388608 1:0.302212 2:-0.248437 3:-0.0544515 4:0.20842 5:0.19743 6:-0.189427 7:-0.964559 8:-0.746763 9:0.475583 10:-0.499732 
-8388608 1:0.32465 2:-0.245911 3:-0.285292 4:0.351745 5:0.189205 6:-0.152003 7:-0.942051 8:-0.681295 9:0.0849006 10:-0.301966 
-8388608 1:-0.0999575 2:-0.115685 3:-0.0851486 4:0.304408 5:0.0402399 6:0.0722842 7:-0.971088 8:-0.732083 9:-0.0581353 10:-0.315857 
-8388608 1:-0.0860901 2:-0.17853 3:-0.058136 4:0.323351 5:0.335256 6:0.0017236 7:-0.904818 8:-0.662832 9:0.117889 10:-0.480182 
-8388608 1:0.610899 2:-0.651423 3:-0.379124 4:0.381522 5:0.141195 6:-0.0907976 7:-0.970426 8:-0.824521 9:0.105284 10:-0.476914 
-8388608 1:0.088527 2:-0.108403 3:-0.0573459 4:0.231194 5:-0.0328049 6:-0.206884 7:-0.903146 8:-0.83389 9:-0.0746165 10:-0.604112 
-8388608 1:-0.0487615 2:-0.194566 3:0.15541 4:0.202302 5:0.264004 6:0.0262162 7:-0.861317 8:-0.685304 9:0.000881942 10:-0.519356 
-8388608 1:0.399842 2:-0.322782 3:-0.274985 4:0.119785 5:-0.0579777 6:-0.403773 7:-0.890592 8:-0.860344 9:0.188913 10:-0.152585 
-4707331.255409072 1:-0.304304 2:-0.0630165 3:0.100356 4:0.137872 5:-0.0887576 6:-0.375121 7:-0.75993 8:-0.885263 9:0.376006 10:0.436799 
-8388608 1:-0.0119079 2:0.118309 3:0.0115307 4:0.0612851 5:0.0197532 6:-0.0518784 7:-0.917837 8:-0.108703 9:-0.0674491 10:0.18908 
-5960188.579809218 1:-0.0666375 2:-0.322389 3:-0.136329 4:0.0646678 5:0.105982 6:0.358006 7:-0.791231 8:-0.353658 9:0.340924 10:0.12193 
-463196.0519199166 1:-0.202945 2:-0.0610549 3:0.0325845 4:0.195148 5:-0.0770481 6:-0.701785 7:-0.903015 8:-0.376089 9:-0.300552 10:0.0621264 
-6737700.831984133 1:-0.250988 2:-0.290955 3:-0.0408879 4:-0.0132326 5:-0.281675 6:-0.0645505 7:-0.989248 8:-0.748682 9:-0.033121 10:0.00229015 
-8388608 1:-0.291886 2:0.0358238 3:0.151251 4:-0.182077 5:0.206172 6:-0.142705 7:-0.80148 8:-0.966133 9:0.0425335 10:0.0490227 
-586217.6021011783 1:-0.341141 2:0.355785 3:0.17296 4:0.279844 5:0.176132 6:-0.454543 7:-0.840788 8:-0.721204 9:-0.0425778 10:0.41957 
-1463581.825596111 1:0.188319 2:-0.00983253 3:0.235792 4:0.498443 5:-0.227441 6:-0.407899 7:-0.937893 8:-0.595364 9:-0.269658 10:0.405125 
-1413781.897501674 1:0.0820081 2:0.299095 3:0.143424 4:0.381015 5:-0.0337238 6:-0.422414 7:-0.318199 8:-0.320995 9:0.191254 10:0.215966 
-8388608 1:0.0407677 2:-0.322512 3:-0.0277536 4:-0.104703 5:0.239473 6:0.201693 7:-0.656967 8:-0.894493 9:0.196873 10:0.103425 
-4133516.904735014 1:-0.22344 2:-0.167398 3:0.0285681 4:0.42487 5:0.501245 6:-0.173507 7:-0.943319 8:-0.271874 9:0.162259 10:0.132482 
-2598843.983642251 1:-0.121291 2:-0.057009 3:-0.0196326 4:0.58095 5:0.0901544 6:-0.373406 7:-0.43786 8:-0.505131 9:0.0902078 10:0.248013 
-8388608 1:-0.105349 2:-0.102837 3:0.21999 4:0.154696 5:0.254692 6:-0.188137 7:-0.998479 8:-0.706353 9:0.267741 10:0.406674 
-8388608 1:0.129047 2:-0.044038 3:-0.340502 4:-0.0499742 5:-0.208467 6:-0.244789 7:-0.744429 8:-0.777421 9:-0.246296 10:-0.545924 
-8388608 1:0.224615 2:-0.165265 3:-0.0629912 4:-0.0907052 5:-0.110957 6:-0.139417 7:-0.633764 8:-0.712776 9:-0.21094 10:-0.441902 
-8388608 1:0.0927933 2:-0.00225584 3:-0.0478422 4:-0.208949 5:-0.3159 6:-0.347364 7:-0.858033 8:-0.736662 9:0.25178 10:-0.520427 
-8388608 1:0.521339 2:-0.338523 3:-0.28667 4:-0.127506 5:-0.318934 6:-0.442362 7:-0.862719 8:-0.659434 9:-0.405535 10:-0.208774 
-8388608 1:0.509088 2:-0.0547532 3:-0.506225 4:0.0937685 5:-0.368562 6:0.0549316 7:-0.921219 8:-0.419442 9:0.153453 10:-0.513286 
-8388608 1:0.103855 2:-0.209646 3:-0.101561 4:-0.0888746 5:-0.356101 6:0.016493 7:-0.663135 8:-0.629646 9:0.215176 10:-0.486825 
-8388608 1:0.399019 2:-0.00936665 3:-0.513472 4:0.135982 5:-0.319847 6:0.00511955 7:-0.896244 8:-0.659458 9:-0.0987073 10:-0.37459 
-8388608 1:0.227019 2:-0.352598 3:-0.472496 4:0.0630958 5:0.113616 6:-0.296085 7:-0.918547 8:-0.866506 9:-0.0699076 10:-0.57371 
-8388608 1:0.511811 2:0.0496285 3:-0.567349 4:-0.325256 5:-0.388859 6:-0.117824 7:-0.808512 8:-0.599437 9:0.182526 10:-0.584507 
-8388608 1:0.389777 2:-0.0749332 3:-0.390716 4:-0.00307473 5:-0.206436 6:-0.231488 7:-0.987609 8:-0.472472 9:-0.208248 10:-0.437304 
-1317268.064389617 1:0.331736 2:0.159356 3:-0.265094 4:-0.418962 5:-0.0392215 6:0.225327 7:-0.155952 8:-0.314792 9:-0.232794 10:-0.575764 
-8388608 1:0.26322 2:-0.088836 3:-0.298295 4:0.332683 5:-0.0521464 6:0.19789 7:-0.345223 8:-0.165507 9:-0.319986 10:-0.569107 
-8388608 1:-0.0259242 2:-0.12927 3:-0.323734 4:-0.400781 5:-0.10306 6:-0.104247 7:-0.262708 8:-0.354686 9:-0.132606 10:-0.460937 
