svm_type c_svc
kernel_type rbf
gamma 0.000976563
nr_class 2
total_sv 325
rho 2769.88
label -1 1
nr_sv 162 163
SV
33554432 1:-0.108112 2:-0.182257 3:-0.199613 4:-0.372947 5:-0.350867 6:-0.0938137 7:-0.927941 8:-0.440817 9:0.0240622 10:-0.0338402 
33554432 1:-0.0112768 2:-0.0133879 3:0.0617501 4:-0.24768 5:-0.451279 6:-0.576331 7:-0.987706 8:-0.860482 9:-0.0144285 10:-0.614071 
33554432 1:-0.182467 2:-0.219479 3:0.00260638 4:0.0183951 5:-0.341058 6:-0.569143 7:-0.915997 8:-0.777508 9:0.0319971 10:-0.316509 
33554432 1:0.355042 2:-0.503298 3:-0.0122648 4:0.081193 5:0.028903 6:0.0419538 7:-0.532774 8:-0.661214 9:-0.465619 10:0.0219374 
2808211.211085842 1:0.00615014 2:0.111125 3:0.100196 4:0.0274288 5:0.215039 6:-0.135033 7:-0.931734 8:-0.632727 9:0.363116 10:-0.227977 
33554432 1:0.156391 2:-0.282103 3:-0.33227 4:0.0297967 5:0.301068 6:0.400425 7:-0.556573 8:-0.75886 9:-0.0765026 10:-0.464409 
33554432 1:0.287506 2:-0.249712 3:-0.0778269 4:0.156029 5:0.0345451 6:-0.437535 7:-0.921932 8:-0.521819 9:-0.110362 10:-0.439691 
18500382.09858322 1:0.0071854 2:-0.250742 3:-0.758598 4:-0.387188 5:-0.327247 6:0.16271 7:-0.383322 8:-0.394702 9:-0.176716 10:-0.586318 
25611072.20276328 1:-0.0043136 2:0.204129 3:-0.586129 4:-0.0320859 5:-0.110883 6:-0.201221 7:-0.999366 8:-0.972479 9:0.560252 10:-0.0615634 
33554432 1:0.283211 2:-0.165902 3:0.0111712 4:-0.172336 5:-0.445284 6:-0.275464 7:-0.802587 8:-0.604043 9:-0.25695 10:-0.176254 
33554432 1:-0.229493 2:-0.0181939 3:-0.0764653 4:-0.0612463 5:-0.0548016 6:-0.172536 7:-0.940964 8:-0.572854 9:0.134617 10:-0.603054 
33554432 1:0.224757 2:0.127014 3:-0.326547 4:-0.0723991 5:-0.330527 6:-0.607405 7:-0.36092 8:-0.420059 9:-0.211786 10:-0.600042 
33554432 1:0.134532 2:-0.240517 3:0.00727988 4:0.400107 5:-0.135338 6:-0.214349 7:-0.924718 8:-0.728847 9:-0.156385 10:-0.491226 
33554432 1:-0.131141 2:-0.490082 3:-0.198283 4:-0.0959185 5:-0.147947 6:0.289465 7:-0.872905 8:-0.692768 9:0.305009 10:-0.187641 
33554432 1:0.106552 2:0.211755 3:-0.133854 4:-0.30465 5:0.0569867 6:-0.165325 7:-0.765356 8:-0.581464 9:-0.133296 10:-0.241967 
33554432 1:-0.197381 2:0.152245 3:-0.0774147 4:0.0492568 5:0.0281831 6:-0.437008 7:-0.852998 8:-0.875142 9:0.298479 10:-0.225454 
33554432 1:-0.302645 2:-0.0850845 3:0.0816741 4:0.197914 5:0.24537 6:0.0246542 7:-0.784868 8:-0.599504 9:0.0794632 10:-0.196167 
29019716.34853319 1:-0.539444 2:0.301523 3:-0.14777 4:-0.240765 5:-0.19404 6:-0.417005 7:-0.752565 8:-0.935932 9:0.16689 10:-0.438807 
33554432 1:-0.0276449 2:-0.468161 3:-0.259947 4:0.32359 5:0.318035 6:-0.242957 7:-0.890795 8:-0.565943 9:0.0402571 10:-0.574917 
33554432 1:0.120866 2:-0.0773852 3:0.345788 4:-0.423781 5:-0.183354 6:0.281314 7:-0.814625 8:-0.675026 9:-0.143442 10:-0.220889 
33554432 1:-0.583043 2:0.626756 3:0.396224 4:-0.38537 5:-0.189002 6:0.0859404 7:-0.669161 8:-0.630201 9:-0.0111895 10:0.0813678 
33554432 1:0.191666 2:-0.389329 3:-0.4961 4:0.320734 5:0.0722566 6:0.0171662 7:-0.978038 8:-0.745855 9:-0.303258 10:-0.422449 
11560977.20222982 1:0.471003 2:-0.262291 3:-0.283842 4:0.290858 5:-0.404988 6:-0.341469 7:-0.912515 8:-0.786619 9:0.0108721 10:-0.389496 
33554432 1:-0.599229 2:-0.0004904 3:0.0475808 4:0.520858 5:0.48074 6:0.0686161 7:-0.931014 8:-0.692622 9:0.02695 10:-0.270321 
33554432 1:0.165023 2:-0.200696 3:-0.121218 4:0.0315278 5:0.223842 6:-0.021442 7:-0.709386 8:-0.230046 9:0.176373 10:-0.569839 
33554432 1:-0.199166 2:-0.316504 3:-0.211743 4:0.279983 5:0.25445 6:0.140346 7:-0.856149 8:-0.81625 9:0.229536 10:-0.37554 
33554432 1:0.521041 2:-0.422725 3:-0.199268 4:-0.0881981 5:-0.455999 6:-0.282434 7:-0.938114 8:-0.574995 9:-0.45474 10:-0.60246 
33554432 1:-0.372133 2:-0.0518353 3:-0.171921 4:-0.39098 5:0.0967974 6:0.647188 7:-0.710299 8:-0.854359 9:0.219937 10:-0.340517 
21229204.710444 1:0.159523 2:-0.0188559 3:-0.461232 4:0.26497 5:0.246471 6:0.149363 7:-0.974992 8:-0.763009 9:0.0344166 10:-0.482396 
33554432 1:0.141751 2:-0.0941078 3:-0.487526 4:-0.26125 5:-0.230389 6:0.233005 7:-0.629812 8:-0.421653 9:-0.259772 10:-0.706038 
33554432 1:-0.165463 2:0.0058848 3:0.11161 4:0.358182 5:0.332928 6:-0.0344428 7:-0.900302 8:-0.903035 9:0.506177 10:-0.557942 
33554432 1:0.0999693 2:0.443518 3:0.118518 4:-0.348973 5:-0.183694 6:-0.00525384 7:-0.828449 8:-0.540173 9:-0.217132 10:-0.438462 
33554432 1:0.189506 2:0.200745 3:-0.0843348 4:0.106036 5:-0.0252684 6:-0.412254 7:-0.97998 8:-0.579153 9:0.288411 10:-0.838632 
33554432 1:0.276314 2:-0.192114 3:0.122165 4:0.16946 5:0.112582 6:0.205426 7:-0.807559 8:-0.537242 9:-0.0935951 10:0.193884 
33554432 1:0.0332088 2:-0.409877 3:-0.316144 4:0.181827 5:-0.0625273 6:0.108111 7:-0.581571 8:-0.389129 9:0.285133 10:-0.641408 
33554432 1:0.0760187 2:-0.28225 3:-0.343359 4:-0.323676 5:-0.416929 6:0.0644321 7:-0.486817 8:-0.536137 9:-0.625816 10:-0.75833 
21080984.91449029 1:-0.222771 2:-0.281098 3:-0.413386 4:-0.435328 5:-0.0694375 6:0.422829 7:-0.893233 8:-0.817133 9:-0.0616475 10:-0.767441 
33554432 1:0.298695 2:-0.209793 3:-0.202408 4:0.0107543 5:-0.17327 6:-0.0780495 7:-0.992611 8:-0.553622 9:-0.228358 10:-0.536939 
33554432 1:0.533431 2:-0.202069 3:-0.077262 4:0.212291 5:-0.189295 6:-0.247372 7:-0.744017 8:-0.440255 9:0.142253 10:-0.434287 
33554432 1:0.0977049 2:-0.151558 3:-0.488332 4:0.0711744 5:0.235128 6:-0.126552 7:-0.891653 8:-0.927055 9:0.234818 10:-0.447198 
33554432 1:0.471946 2:-0.0816026 3:-0.273004 4:0.237511 5:-0.022621 6:-0.322622 7:-0.996072 8:-0.700259 9:-0.0789871 10:-0.328021 
33554432 1:0.26344 2:0.29044 3:-0.0693279 4:0.263209 5:-0.246176 6:-0.0500426 7:-0.624059 8:-0.113078 9:-0.321417 10:-0.328039 
33554432 1:-0.305025 2:-0.148738 3:-0.100498 4:0.0350298 5:0.0360747 6:0.0875713 7:-0.896128 8:-0.945607 9:0.499595 10:-0.828798 
33554432 1:-0.0111161 2:-0.0375892 3:-0.231808 4:-0.18525 5:-0.409848 6:-0.463959 7:-0.961039 8:-0.864205 9:0.125355 10:-0.592542 
33554432 1:0.332755 2:-0.417404 3:-0.367371 4:0.367614 5:0.265344 6:0.112889 7:-0.898238 8:-0.999697 9:-0.147812 10:-0.635997 
3402922.783492645 1:0.00420488 2:0.0353824 3:0.0709944 4:0.725677 5:0.31426 6:0.125593 7:-0.684143 8:-0.913024 9:-0.073823 10:-0.336035 
33554432 1:-0.202274 2:0.0840056 3:0.225362 4:0.245868 5:0.0404389 6:-0.151556 7:-0.993071 8:-0.919903 9:0.15024 10:-0.270406 
14761063.49136451 1:0.333807 2:0.00826325 3:-0.348045 4:-0.275229 5:-0.220826 6:-0.202505 7:-0.447058 8:-0.805743 9:0.075756 10:-0.691898 
33554432 1:-0.00627068 2:-0.138587 3:-0.0230103 4:0.167908 5:0.165683 6:0.173373 7:-0.828348 8:-0.566028 9:-0.0843594 10:-0.276424 
33554432 1:0.235769 2:-0.15911 3:0.0495311 4:-0.316925 5:0.140243 6:-0.175166 7:-0.72586 8:-0.806446 9:0.0599122 10:-0.879356 
33554432 1:0.0736504 2:-0.383444 3:0.184884 4:0.57883 5:0.248765 6:-0.444039 7:-0.703335 8:-0.673672 9:0.0345336 10:-0.140318 
33554432 1:-0.268297 2:-0.343942 3:-0.108035 4:0.164088 5:0.181208 6:-0.0733761 7:-0.805916 8:-0.651378 9:-0.195136 10:-0.33078 
33554432 1:-0.0571783 2:0.0964372 3:0.0107774 4:0.000387512 5:0.126611 6:-0.00220419 7:-0.982189 8:-0.728912 9:-0.0609711 10:-0.00647325 
7722752.511107965 1:-0.262634 2:0.133144 3:-0.0169159 4:-0.33485 5:-0.0472847 6:-0.0907322 7:-0.929726 8:-0.783881 9:0.067652 10:-0.326541 
33554432 1:0.275031 2:0.312091 3:-0.481354 4:-0.278482 5:-0.329627 6:-0.163978 7:-0.536541 8:-0.704741 9:-0.322575 10:-0.586164 
33554432 1:-0.269471 2:0.14766 3:-0.0756436 4:0.275904 5:0.197036 6:0.0352679 7:-0.753952 8:-0.998595 9:0.40997 10:-0.456206 
33554432 1:-0.125388 2:-0.269107 3:-0.31218 4:0.0454364 5:-0.219932 6:-0.310439 7:-0.944049 8:-0.5569 9:-0.114772 10:-0.743606 
33554432 1:-0.345701 2:0.195326 3:0.190173 4:-0.415026 5:-0.308811 6:0.44435 7:-0.599957 8:-0.530625 9:0.230122 10:0.154059 
33554432 1:-0.0632339 2:0.211191 3:0.145486 4:0.297822 5:0.146488 6:0.0299355 7:-0.753139 8:-0.590374 9:-0.0495501 10:-0.179244 
33554432 1:0.0874728 2:-0.258858 3:-0.251001 4:0.157402 5:-0.158831 6:-0.34451 7:-0.845144 8:-0.76018 9:0.0267548 10:-0.517667 
33554432 1:-0.531734 2:0.098031 3:-0.0673066 4:-0.541848 5:-0.634027 6:-0.285551 7:-0.869335 8:-0.518716 9:-0.467903 10:-0.266814 
33554432 1:0.394932 2:-0.350783 3:-0.278024 4:0.222657 5:0.0867306 6:0.288102 7:-0.746545 8:-0.545174 9:-0.247948 10:-0.435434 
33554432 1:-0.259121 2:0.0570581 3:-0.353682 4:-0.0364237 5:-0.1654 6:-0.230583 7:-0.833987 8:-0.769349 9:0.129427 10:-0.531343 
33554432 1:0.31318 2:0.373097 3:0.00280127 4:-0.0654746 5:-0.397092 6:0.059946 7:-0.847765 8:-0.489049 9:0.260404 10:0.222758 
33554432 1:-0.358315 2:-0.209303 3:-0.0208467 4:0.0566191 5:-0.0710256 6:-0.14088 7:-0.455172 8:-0.639092 9:0.162025 10:-0.196009 
33554432 1:0.441217 2:-0.141481 3:0.0587898 4:0.430621 5:0.057252 6:-0.373464 7:-0.348124 8:-0.166324 9:-0.0630393 10:-0.0495199 
33554432 1:0.00105417 2:0.0691955 3:-0.316659 4:-0.211516 5:-0.171358 6:0.0867073 7:-0.832032 8:-0.495422 9:0.22034 10:-0.644713 
33554432 1:-0.310799 2:0.198686 3:-0.0449952 4:-0.458168 5:-0.0970217 6:0.0517371 7:-0.735518 8:-0.642012 9:0.00663148 10:-0.613998 
33554432 1:-0.302297 2:0.129 3:-0.246633 4:-0.0731652 5:-0.173248 6:-0.0461643 7:-0.938219 8:-0.977853 9:0.457398 10:-0.501905 
33554432 1:0.302825 2:-0.223598 3:-0.340781 4:0.365007 5:0.465933 6:-0.0662467 7:-0.973603 8:-0.646015 9:0.0459156 10:-0.912454 
33554432 1:-0.299329 2:0.303018 3:0.415832 4:-0.258415 5:-0.510689 6:0.0663722 7:-0.664358 8:-0.126013 9:0.191111 10:-0.103517 
33554432 1:0.205058 2:0.0393792 3:-0.173517 4:0.352183 5:0.292938 6:-0.374164 7:-0.817247 8:-0.613433 9:0.14808 10:-0.742093 
33554432 1:0.431214 2:0.316014 3:0.215525 4:0.319331 5:0.194301 6:-0.198788 7:-0.977255 8:-0.735666 9:0.220964 10:0.117904 
33554432 1:-0.283594 2:-0.044136 3:0.216052 4:-0.22236 5:0.0220728 6:-0.528169 7:-0.883148 8:-0.826423 9:0.557923 10:-0.253611 
33554432 1:-0.261976 2:0.233578 3:0.323981 4:0.278809 5:0.587651 6:0.478839 7:-0.900667 8:-0.688227 9:0.248268 10:0.0365817 
33554432 1:0.0575139 2:0.13871 3:-0.17828 4:-0.53057 5:-0.223621 6:-0.0474647 7:-0.828772 8:-0.45683 9:-0.163955 10:-0.505828 
33554432 1:-0.0304458 2:0.118358 3:-0.000826653 4:0.0510178 5:0.465816 6:0.187725 7:-0.62361 8:-0.570008 9:-0.200248 10:-0.572718 
33554432 1:-0.143311 2:0.260844 3:0.00505967 4:-0.0225349 5:0.0125016 6:-0.244402 7:-0.877354 8:-0.942276 9:0.342264 10:0.0433075 
33554432 1:-0.340028 2:0.269254 3:0.244799 4:0.482922 5:0.0620337 6:-0.149967 7:-0.704163 8:-0.620228 9:-0.0554297 10:-0.411844 
28548651.62071055 1:-0.397001 2:0.23115 3:0.440246 4:0.171221 5:0.0433945 6:-0.710973 7:-0.816067 8:-0.782036 9:0.193908 10:0.0330366 
33554432 1:0.0851565 2:-0.463894 3:-0.477365 4:-0.440895 5:-0.282514 6:0.201968 7:-0.897044 8:-0.805272 9:-0.0762034 10:-0.550873 
33554432 1:0.0367614 2:0.177648 3:0.216065 4:-0.221534 5:-0.431472 6:0.180911 7:-0.715766 8:-0.657049 9:-0.0830977 10:-0.483295 
33554432 1:-0.0567552 2:0.0846922 3:0.0882702 4:0.174315 5:-0.16689 6:-0.322565 7:-0.918106 8:-0.487276 9:0.135411 10:-0.298159 
33554432 1:0.28539 2:-0.130226 3:-0.278778 4:0.266075 5:-0.314435 6:-0.015364 7:-0.780239 8:-0.680532 9:0.0804388 10:-0.481427 
11497696.34349087 1:0.379233 2:-0.348331 3:-0.368169 4:0.158755 5:-0.24045 6:-0.0658598 7:-0.918727 8:-0.576065 9:-0.359146 10:-0.424908 
33554432 1:-0.172095 2:0.155506 3:-0.184543 4:-0.293017 5:-0.0590859 6:-0.0404732 7:-0.820707 8:-0.516516 9:0.332963 10:-0.795258 
33554432 1:0.500752 2:-0.353579 3:-0.546771 4:-0.186345 5:-0.177821 6:-0.0158569 7:-0.954778 8:-0.551715 9:-0.0871171 10:-0.530302 
33554432 1:-0.18271 2:-0.0342054 3:0.0305012 4:0.0992205 5:-0.0611695 6:-0.151621 7:-0.745691 8:-0.926607 9:-0.124489 10:-0.598184 
33554432 1:0.169419 2:-0.254567 3:-0.224158 4:0.525584 5:0.36651 6:0.147251 7:-0.99962 8:-0.7789 9:-0.158791 10:-0.524068 
33554432 1:-0.195571 2:0.192335 3:-0.316324 4:-0.156209 5:0.0257113 6:0.00969402 7:-0.941989 8:-0.648982 9:0.340078 10:-0.378842 
33554432 1:-0.00945448 2:-0.0528161 3:-0.182103 4:0.378876 5:-0.284785 6:-0.316357 7:-0.913295 8:-0.983951 9:0.458347 10:-0.329871 
22904303.0924555 1:0.0655384 2:0.0427874 3:0.230459 4:0.0311099 5:0.286605 6:-0.329156 7:-0.560809 8:-0.97898 9:0.464383 10:-0.520754 
33554432 1:-0.32677 2:-0.573131 3:-0.38742 4:0.0832624 5:0.180477 6:-0.0345152 7:-0.936061 8:-0.926103 9:0.169908 10:-0.89138 
33554432 1:-0.285863 2:0.233161 3:0.0272249 4:-0.0688573 5:0.438331 6:-0.0918701 7:-0.851594 8:-0.918779 9:0.208906 10:-0.575299 
33554432 1:0.356571 2:-0.220312 3:-0.0799325 4:0.124043 5:-0.0384158 6:-0.430734 7:-0.840922 8:-0.727501 9:-0.121367 10:-0.587001 
33554432 1:0.171412 2:-0.467131 3:-0.447244 4:0.193397 5:-0.2639 6:0.0489701 7:-0.911587 8:-0.932624 9:-0.191871 10:-0.749553 
33554432 1:-0.403408 2:-0.254199 3:-0.107582 4:-0.0289818 5:0.0537657 6:-0.313113 7:-0.765469 8:-0.521451 9:-0.0751498 10:-0.390583 
33554432 1:0.234488 2:-0.386288 3:-0.353536 4:0.302458 5:0.0969944 6:0.10535 7:-0.626794 8:-0.566466 9:-0.188606 10:-0.58623 
33554432 1:-0.0668384 2:-0.0421499 3:-0.133035 4:-0.192722 5:-0.37828 6:-0.148319 7:-0.585338 8:-0.705198 9:0.0916777 10:-0.462764 
18617402.8514866 1:-0.0867779 2:-0.278695 3:-0.195243 4:-0.119627 5:-0.2818 6:0.321643 7:-0.88567 8:-0.682641 9:0.283806 10:-0.633163 
33554432 1:-0.0382244 2:0.418655 3:-0.21841 4:3.92984e-005 5:0.195405 6:0.093379 7:-0.548659 8:-0.603366 9:0.0834177 10:-0.337113 
33554432 1:0.366222 2:-0.230341 3:-0.127549 4:-0.225802 5:-0.493732 6:-0.00939365 7:-0.979353 8:-0.820867 9:-0.194342 10:-0.506275 
33554432 1:0.329295 2:-0.25849 3:-0.450485 4:0.0879981 5:0.0268233 6:0.174032 7:-0.841316 8:-0.991216 9:0.0415059 10:-0.769183 
33554432 1:0.295202 2:0.0115734 3:0.0863252 4:0.0353283 5:-0.160413 6:-0.278305 7:-0.941029 8:-0.636988 9:-0.334256 10:-0.281214 
33554432 1:0.298303 2:-0.440036 3:-0.0152593 4:0.1246 5:-0.0315465 6:0.3346 7:-0.603718 8:-0.574682 9:0.0843282 10:-0.507294 
33554432 1:-0.149972 2:0.284113 3:0.111427 4:0.474794 5:0.212045 6:-0.261007 7:-0.700603 8:-0.560222 9:-0.0943106 10:-0.752549 
33554432 1:-0.00691595 2:-0.166589 3:0.144027 4:0.051754 5:0.219885 6:-0.103199 7:-0.833576 8:-0.749309 9:0.0977135 10:-0.385121 
33554432 1:-0.498873 2:-0.110561 3:0.243337 4:0.147453 5:0.0715621 6:-0.0134646 7:-0.691921 8:-0.734865 9:0.148536 10:0.16486 
33554432 1:-0.302401 2:0.296423 3:0.137929 4:-0.0382941 5:0.0131259 6:-0.0550676 7:-0.668075 8:-0.705233 9:0.0720877 10:-0.43586 
33554432 1:-0.0712277 2:0.149866 3:-0.161451 4:-0.202064 5:-0.0726643 6:-0.198958 7:-0.724358 8:-0.597041 9:0.161401 10:-0.58198 
33554432 1:0.125447 2:-0.272491 3:0.00200589 4:0.125247 5:0.166299 6:-0.109124 7:-0.80427 8:-0.709404 9:0.236587 10:-0.195352 
33554432 1:-0.0798572 2:-0.32874 3:-0.348046 4:-0.191996 5:-0.130874 6:-0.0127154 7:-0.586582 8:-0.490826 9:-0.417248 10:-0.486862 
33554432 1:0.216304 2:0.0796901 3:-0.527238 4:-0.18921 5:-0.610694 6:-0.0873946 7:-0.802597 8:-0.535894 9:-0.0182008 10:-0.183031 
33554432 1:0.0753049 2:-0.179217 3:0.0544824 4:0.370539 5:0.134675 6:0.483875 7:-0.570111 8:-0.598115 9:-0.0969122 10:-0.28173 
33554432 1:0.00701759 2:0.0166491 3:-0.466989 4:0.209067 5:0.118357 6:-0.031402 7:-0.824836 8:-0.518302 9:-0.22616 10:-0.5121 
33554432 1:-0.47778 2:0.369885 3:-0.0633191 4:-0.172416 5:-0.261873 6:-0.030121 7:-0.817509 8:-0.683292 9:-0.0243796 10:-0.912102 
24726620.58441611 1:0.318481 2:0.148616 3:-0.243301 4:-0.060341 5:-0.224718 6:0.186282 7:-0.888119 8:-0.540899 9:0.0998468 10:-0.485816 
33554432 1:-0.350496 2:0.114043 3:-0.00321279 4:0.0160571 5:0.0434394 6:-0.559164 7:-0.798803 8:-0.723659 9:0.260157 10:-0.449876 
33554432 1:0.0871348 2:-0.404237 3:-0.0652273 4:0.164426 5:0.228271 6:0.0334834 7:-0.854435 8:-0.650628 9:-0.0546232 10:-0.00402149 
33554432 1:-0.280458 2:0.0931516 3:-0.305003 4:0.153383 5:0.462753 6:-0.12054 7:-0.836446 8:-0.616645 9:-0.0784148 10:-0.503502 
33554432 1:0.584577 2:-0.373612 3:-0.395382 4:0.306418 5:-0.0844246 6:-0.315931 7:-0.443997 8:-0.412497 9:-0.290887 10:-0.449388 
33554432 1:-0.0488584 2:-0.353873 3:-0.160753 4:0.0469089 5:0.0763633 6:-0.14505 7:-0.800778 8:-0.683179 9:0.137648 10:-0.31854 
33554432 1:-0.366822 2:0.0114754 3:0.0515366 4:0.0112418 5:0.238008 6:0.134844 7:-0.823959 8:-0.504883 9:0.118812 10:-0.417494 
33554432 1:-0.038501 2:-0.0926121 3:-0.315657 4:0.374688 5:0.618808 6:-0.281572 7:-0.968487 8:-0.813131 9:0.482191 10:-0.801105 
33554432 1:0.036291 2:-0.169041 3:-0.153219 4:-0.424653 5:-0.385069 6:0.185586 7:-0.85316 8:-0.419233 9:0.429847 10:-0.0539761 
33554432 1:0.074974 2:0.275777 3:0.082135 4:-0.0795922 5:0.0530868 6:-0.227141 7:-0.945734 8:-0.694615 9:0.197108 10:-0.484487 
33554432 1:0.0115037 2:-0.13513 3:-0.301879 4:0.0591959 5:0.116586 6:-0.321841 7:-0.870203 8:-0.931054 9:-0.212358 10:-0.602681 
33554432 1:-0.185887 2:0.470049 3:0.359418 4:-0.0701109 5:0.117444 6:0.117092 7:-0.866297 8:-0.452731 9:-0.157816 10:-0.183806 
33554432 1:-0.266817 2:-0.105191 3:-0.115019 4:0.0326023 5:-0.160772 6:-0.134505 7:-0.84289 8:-0.347588 9:0.0248167 10:-0.451217 
33554432 1:-0.227165 2:0.43729 3:0.404862 4:-0.118135 5:-0.0488513 6:-0.28707 7:-0.985309 8:-0.488319 9:0.152529 10:-0.182787 
33554432 1:-0.350407 2:0.468063 3:0.284463 4:0.011202 5:-0.0432892 6:-0.498266 7:-0.94093 8:-0.789275 9:0.129219 10:-0.00190933 
33554432 1:-0.436412 2:0.291322 3:0.227127 4:-0.286859 5:-0.240074 6:-0.0835746 7:-0.84388 8:-0.521854 9:-0.0861415 10:-0.220428 
24575112.65221228 1:-0.314792 2:0.0654685 3:0.173399 4:0.279118 5:0.0379085 6:-0.0357344 7:-0.951091 8:-0.451764 9:-0.0839822 10:-0.794236 
33554432 1:-0.366058 2:0.285413 3:-0.0244523 4:-0.218132 5:-0.174405 6:-0.146386 7:-0.772361 8:-0.588338 9:0.262304 10:-0.135713 
33554432 1:-0.204271 2:-0.00353088 3:0.662425 4:0.44246 5:0.355696 6:-0.13553 7:-0.900504 8:-0.751381 9:0.352774 10:-0.249 
33554432 1:0.100841 2:-0.307309 3:-0.0824346 4:-0.0124566 5:-0.271275 6:-0.0843025 7:-0.950991 8:-0.505713 9:0.115873 10:-0.92413 
33554432 1:-0.439829 2:0.22377 3:0.3342 4:-0.297514 5:-0.0372472 6:0.0859298 7:-0.944324 8:-0.680339 9:0.458958 10:-0.811394 
28885005.95379185 1:-0.15763 2:-0.136724 3:0.181148 4:0.0033722 5:0.0785698 6:-0.0419856 7:-0.98208 8:-0.486043 9:0.0763673 10:-0.61509 
33554432 1:-0.213215 2:0.0582596 3:0.19357 4:0.0689856 5:-0.19631 6:-0.253793 7:-0.986957 8:-0.740863 9:-0.190596 10:-0.1008 
33554432 1:-0.200052 2:0.171861 3:-0.225177 4:0.236506 5:0.0378266 6:-0.60867 7:-0.911268 8:-0.911911 9:0.247019 10:-0.0149053 
19070085.49620217 1:-0.251676 2:0.21124 3:0.351846 4:-0.0447311 5:0.0144232 6:0.290313 7:-0.98157 8:-0.606528 9:0.184568 10:-0.623728 
33554432 1:-0.0936726 2:0.350146 3:0.418531 4:-0.106653 5:0.0378832 6:-0.0252585 7:-0.977318 8:-0.525616 9:0.360514 10:-0.993139 
33554432 1:0.243304 2:-0.352966 3:0.208322 4:0.202013 5:0.387353 6:0.497851 7:-0.798712 8:-0.56155 9:-0.0173162 10:-0.488887 
16146207.91923328 1:0.401912 2:-0.446191 3:0.134327 4:0.738611 5:0.618944 6:-0.0271208 7:-0.89462 8:-0.624603 9:0.32335 10:-0.441162 
33554432 1:-0.236433 2:0.288184 3:0.300304 4:0.140767 5:0.284083 6:-0.273197 7:-0.70751 8:-0.803667 9:0.0440425 10:-0.285962 
33554432 1:-0.0373901 2:-0.0940588 3:-0.158443 4:-0.250496 5:-0.268087 6:-0.227636 7:-0.802383 8:-0.893518 9:-0.0569126 10:-0.72361 
33554432 1:0.509088 2:-0.0547532 3:-0.506225 4:0.0937685 5:-0.368562 6:0.0549316 7:-0.921219 8:-0.419442 9:0.153453 10:-0.513286 
33554432 1:-0.1049 2:-0.104235 3:-0.152999 4:-0.137227 5:-0.291842 6:-0.0651937 7:-0.936701 8:-0.56052 9:-0.288299 10:-0.514512 
6152345.954882548 1:-0.229075 2:0.0814065 3:-0.455984 4:-0.0449101 5:-0.357311 6:-0.0928242 7:-0.85806 8:-0.771847 9:-0.269762 10:-0.439574 
7129596.635901856 1:0.227843 2:-0.174828 3:-0.404777 4:-0.273617 5:-0.39385 6:-0.320851 7:-0.872425 8:-0.852226 9:-0.0750327 10:-0.354747 
33554432 1:-0.0734258 2:-0.0400167 3:-0.00784152 4:0.111 5:0.0843855 6:-0.110292 7:-0.720678 8:-0.255803 9:-0.14283 10:-0.542145 
33554432 1:-0.00186017 2:0.146139 3:-0.103292 4:-0.370205 5:-0.383399 6:0.0200603 7:-0.779522 8:-0.859957 9:-0.223922 10:-0.670869 
33554432 1:0.424326 2:0.0819214 3:-0.0758806 4:0.0436954 5:0.0171077 6:0.146027 7:-0.262042 8:0.0143174 9:-0.177341 10:-0.431835 
33554432 1:0.34176 2:-0.0323174 3:-0.061386 4:-0.497409 5:-0.420958 6:-0.104207 7:-0.218483 8:-0.143385 9:-0.191858 10:-0.477598 
33554432 1:0.375355 2:-0.283623 3:-0.365795 4:-0.227066 5:0.0311486 6:-0.111514 7:-0.1932 8:-0.222261 9:-0.191962 10:-0.317069 
33554432 1:0.334646 2:-0.091239 3:-0.0316423 4:-0.198661 5:0.436952 6:-0.0418019 7:-0.0505957 8:-0.100483 9:0.0117436 10:-0.267409 
33554432 1:0.306715 2:-0.12748 3:-0.17381 4:-0.294341 5:-0.32818 6:-0.198509 7:-0.320394 8:-0.274435 9:-0.205386 10:-0.36798 
33554432 1:0.0587525 2:-0.0211117 3:-0.126009 4:-0.0957096 5:0.0461727 6:-0.240122 7:-0.186802 8:-0.183495 9:0.0738568 10:-0.183558 
33554432 1:0.293888 2:0.0510262 3:-0.0650995 4:0.117039 5:0.17676 6:-0.161376 7:-0.276298 8:-0.204428 9:0.0079713 10:-0.236574 
33554432 1:0.276248 2:-0.130079 3:-0.143614 4:-0.458075 5:-0.0318255 6:0.216264 7:-0.225591 8:-0.137298 9:-0.30426 10:-0.476212 
33554432 1:0.147594 2:0.0608587 3:-0.121573 4:-0.471504 5:-0.106921 6:-0.113334 7:-0.179558 8:-0.0921563 9:-0.151845 10:-0.484186 
9068004.402889416 1:0.0319136 2:0.270897 3:-0.126369 4:-0.637012 5:-0.313343 6:-0.215596 7:-0.220702 8:-0.218112 9:0.0717495 10:-0.306688 
-33554432 1:-0.184561 2:0.341834 3:0.119194 4:0.120491 5:0.114461 6:-0.485525 7:-0.87649 8:-0.727085 9:-0.0622068 10:-0.381549 
-33554432 1:0.185147 2:-0.119192 3:-0.0764376 4:-0.0902476 5:0.247649 6:0.591213 7:-0.666934 8:-0.65684 9:-0.0626881 10:-0.841591 
-33554432 1:-0.190685 2:-0.0898904 3:0.17221 4:0.0272298 5:0.140225 6:0.0769046 7:-0.954366 8:-0.848257 9:0.337178 10:-0.719469 
-33554432 1:0.0576203 2:0.226418 3:0.165914 4:0.143941 5:-0.0535511 6:-0.153748 7:-0.849399 8:-0.654899 9:0.00405589 10:-0.365463 
-33554432 1:0.0721069 2:-0.259201 3:-0.0534428 4:0.0879583 5:-0.0815801 6:-0.34504 7:-0.766199 8:-0.376799 9:-0.288143 10:-0.462671 
-33554432 1:-0.240886 2:0.376652 3:-0.135421 4:-0.0657731 5:-0.364008 6:-0.311183 7:-0.944923 8:-0.574222 9:0.154129 10:-0.726985 
-33554432 1:0.231063 2:-0.402496 3:-0.0774068 4:-0.00707421 5:-0.0367653 6:0.0890731 7:-0.640676 8:-0.474376 9:0.0122769 10:-0.331672 
-33554432 1:-0.768642 2:0.0601476 3:0.1839 4:-0.0902575 5:-0.10799 6:-0.167942 7:-0.730266 8:-0.720627 9:0.0117956 10:-0.299808 
-33554432 1:0.0358632 2:-0.00407032 3:-0.04115 4:-0.0599629 5:-0.423758 6:0.0128302 7:-0.867536 8:-0.609689 9:0.0779413 10:-0.192834 
-22398370.39524453 1:0.224875 2:-0.420298 3:-0.0363158 4:0.162008 5:0.232705 6:-0.205601 7:-0.562 8:-0.405486 9:-0.215818 10:-0.0255821 
-33554432 1:-0.113213 2:-0.168256 3:-0.171052 4:0.0335574 5:-0.134788 6:-0.257941 7:-0.917099 8:-0.518955 9:-0.402065 10:-0.216748 
-33554432 1:0.264449 2:0.137778 3:0.0365429 4:0.201784 5:-0.0196439 6:-0.100773 7:-0.904138 8:-0.85392 9:0.143853 10:-0.477231 
-28369975.82470344 1:0.0569939 2:-0.528627 3:-0.463074 4:0.247649 5:0.314523 6:-0.111663 7:-0.64912 8:-0.623809 9:-0.175207 10:-0.537583 
-33554432 1:0.41377 2:-0.335507 3:-0.257636 4:0.221722 5:0.33581 6:-0.118831 7:-0.845541 8:-0.823325 9:0.262642 10:-0.945794 
-33554432 1:-0.356339 2:0.287277 3:0.183178 4:-0.253838 5:-0.400526 6:0.064236 7:-0.821196 8:-0.60014 9:0.215176 10:-0.199423 
-33554432 1:-0.473142 2:-0.0206949 3:-0.179556 4:-0.407885 5:-0.44616 6:0.220259 7:-0.747813 8:-0.456939 9:-0.0953252 10:-0.927015 
-33554432 1:-0.417318 2:0.0935929 3:-0.16693 4:0.0975889 5:0.101825 6:-0.189028 7:-0.859113 8:-0.921724 9:0.193205 10:-0.406652 
-33554432 1:-0.0445471 2:0.376726 3:-0.061469 4:0.349755 5:0.194529 6:-0.281125 7:-0.635055 8:-0.729381 9:0.456773 10:-0.37655 
-33554432 1:-0.0579938 2:0.194934 3:0.0921997 4:0.0477545 5:-0.268132 6:-0.372595 7:-0.733479 8:-0.705797 9:0.136113 10:-0.577225 
-33554432 1:0.105824 2:0.164186 3:-0.136311 4:-0.613142 5:-0.258202 6:-0.15672 7:-0.746816 8:-0.658262 9:-0.0587337 10:-0.730355 
-33554432 1:-0.0570861 2:0.236103 3:-0.147275 4:-0.760491 5:-0.617622 6:0.0815144 7:-0.952459 8:-0.344332 9:-0.101361 10:-0.741041 
-33554432 1:-0.050832 2:-0.228281 3:-0.191566 4:0.158327 5:0.0248568 6:0.0536965 7:-0.907108 8:-0.782836 9:0.291949 10:-0.304866 
-33554432 1:-0.0617023 2:0.109335 3:-0.0342378 4:-0.155055 5:-0.258229 6:-0.268297 7:-0.837944 8:-0.608277 9:0.0404002 10:-0.420768 
-33554432 1:-0.135216 2:0.343084 3:0.0927119 4:0.109438 5:0.0609744 6:-0.368669 7:-0.846875 8:-0.555652 9:0.367135 10:-0.380707 
-33554432 1:0.305148 2:-0.363387 3:-0.680356 4:-0.193767 5:0.056298 6:0.0600803 7:-0.844348 8:-0.557062 9:-0.226979 10:-0.228663 
-33554432 1:-0.0462655 2:0.0317289 3:-0.331757 4:-0.346343 5:-0.432262 6:0.0474683 7:-0.669064 8:-0.50032 9:0.0293044 10:-0.7328 
-33554432 1:-0.38379 2:-0.0475934 3:0.263564 4:-0.0924662 5:0.591709 6:0.142931 7:-0.86552 8:-0.723927 9:0.33749 10:-0.224939 
-33554432 1:0.173837 2:-0.0712552 3:-0.00632187 4:0.0334181 5:-0.263083 6:-0.0378069 7:-0.833532 8:-0.602956 9:0.0442116 10:-0.230727 
-33554432 1:0.156854 2:-0.0982272 3:-0.442226 4:-0.141395 5:-0.202836 6:-0.0427931 7:-0.753824 8:-0.5983 9:-0.176768 10:-0.594527 
-33554432 1:0.298036 2:-0.256945 3:-0.229173 4:-0.382092 5:-0.392102 6:0.0178765 7:-0.793366 8:-0.560024 9:-0.225808 10:-0.654221 
-33554432 1:-0.219649 2:0.106809 3:0.189682 4:0.192283 5:0.243258 6:-0.385615 7:-0.817299 8:-0.682131 9:-0.135104 10:-0.362984 
-33554432 1:-0.307006 2:-0.270382 3:-0.336254 4:0.544467 5:0.000341413 6:-0.139541 7:-0.999082 8:-0.965205 9:0.35133 10:-0.5467 
-33554432 1:-0.300402 2:0.0855994 3:-0.0246709 4:-0.115727 5:-0.0109935 6:0.251181 7:-0.675075 8:-0.614774 9:0.0592618 10:-0.610049 
-33554432 1:0.270722 2:0.11088 3:-0.549511 4:-0.194841 5:-0.0307564 6:0.192788 7:-0.820049 8:-0.450714 9:0.558873 10:-0.624093 
-33554432 1:0.367361 2:-0.630091 3:-0.439009 4:-0.251819 5:-0.324176 6:-0.315042 7:-0.504639 8:-0.497267 9:-0.0829416 10:-0.565609 
-33554432 1:0.0851612 2:0.0142216 3:0.00122895 4:0.150159 5:0.209748 6:-0.209921 7:-0.762055 8:-0.47876 9:0.369724 10:-0.710371 
-33554432 1:0.137073 2:-0.0805483 3:-0.618124 4:-0.200124 5:-0.360655 6:-0.357032 7:-0.470977 8:-0.545697 9:-0.132944 10:-0.657153 
-33554432 1:-0.10711 2:0.525513 3:0.437309 4:0.202172 5:0.485676 6:-0.0386427 7:-0.943569 8:-0.695839 9:0.0852388 10:-0.448189 
-33554432 1:-0.130191 2:0.21585 3:-0.446346 4:-0.231175 5:-0.0397775 6:-0.1263 7:-0.858344 8:-0.814588 9:-0.225392 10:-0.824367 
-33554432 1:0.370117 2:-0.0106417 3:-0.618623 4:0.277874 5:0.171366 6:-0.0326847 7:-0.739208 8:-0.824514 9:-0.0107472 10:-0.466974 
-26888166.94027143 1:0.427751 2:-0.541181 3:-0.452175 4:0.163809 5:-0.29272 6:-0.00975763 7:-0.931775 8:-0.592728 9:-0.152768 10:0.0402676 
-33554432 1:-0.20216 2:0.133585 3:-0.362061 4:-0.223325 5:-0.419021 6:-0.583994 7:-0.676428 8:-0.710584 9:0.140393 10:-0.398249 
-33554432 1:-0.118677 2:-0.13361 3:0.124531 4:-0.239442 5:-0.123845 6:-0.328665 7:-0.795416 8:-0.604951 9:0.0854339 10:-0.726248 
-33554432 1:0.165728 2:-0.2797 3:-0.285186 4:0.0755122 5:0.163353 6:-0.177758 7:-0.972891 8:-0.876556 9:-0.205867 10:-0.432638 
-33554432 1:-0.0192162 2:-0.222813 3:-0.228996 4:-0.172396 5:0.152824 6:-0.0678882 7:-0.557359 8:-0.829243 9:-0.211955 10:-0.616248 
-33554432 1:-0.011031 2:-0.0471275 3:-0.0556722 4:0.159372 5:0.137519 6:-0.45014 7:-0.897206 8:-0.584652 9:0.269965 10:-0.368289 
-33554432 1:-0.208743 2:0.129343 3:-0.0914102 4:-0.335305 5:-0.326488 6:0.0768162 7:-0.990739 8:-0.960022 9:0.0350149 10:-0.43108 
-33554432 1:0.186955 2:-0.175661 3:0.0707271 4:0.466984 5:0.39282 6:0.00293215 7:-0.767678 8:-0.681103 9:0.326381 10:-0.329868 
-33554432 1:0.197818 2:-0.111934 3:-0.263735 4:0.186931 5:-0.0312207 6:-0.0912199 7:-0.826564 8:-0.876794 9:-0.010435 10:-0.55815 
-33554432 1:-0.141361 2:0.290979 3:0.226047 4:-0.121368 5:-0.254659 6:-0.0989748 7:-0.778639 8:-0.668403 9:-0.0601776 10:-0.357918 
-33554432 1:0.185478 2:0.0321948 3:-0.252224 4:-0.0127153 5:0.0864008 6:0.00742534 7:-0.510512 8:-0.615018 9:-0.132853 10:-0.244416 
-33554432 1:0.00382197 2:0.0701518 3:-0.133356 4:-0.201775 5:-0.0882698 6:0.169565 7:-0.804884 8:-0.606644 9:0.152854 10:-0.425167 
-33554432 1:0.639335 2:-0.456465 3:-0.357974 4:0.253211 5:0.13255 6:-0.51832 7:-0.797541 8:-0.604551 9:-0.101465 10:-0.317723 
-33554432 1:0.178035 2:0.524042 3:-0.114163 4:-0.0670366 5:-0.139685 6:-0.371453 7:-0.674233 8:-0.240385 9:-0.467169 10:-0.634679 
-33554432 1:0.237664 2:-0.129343 3:-0.050597 4:-0.0328818 5:-0.0725297 6:-0.237145 7:-0.981934 8:-0.61707 9:-0.137341 10:-0.551502 
-33554432 1:-0.00686395 2:0.0750313 3:0.0938194 4:0.0114408 5:0.286049 6:0.402704 7:-0.704353 8:-0.776693 9:-0.255428 10:-0.437848 
-33554432 1:0.25442 2:-0.534046 3:-0.454407 4:0.0943754 5:-0.531812 6:-0.51229 7:-0.667256 8:-0.718521 9:-0.219825 10:-0.649837 
-33554432 1:0.30737 2:-0.204399 3:-0.0510974 4:0.0934601 5:0.373205 6:0.130515 7:-0.979436 8:-0.51126 9:0.0218638 10:-0.173106 
-33554432 1:-0.667002 2:-0.0211608 3:0.212628 4:-0.125348 5:-0.0394712 6:-0.433925 7:-0.921626 8:-0.85862 9:0.451453 10:-0.257764 
-33554432 1:0.0834641 2:0.313292 3:0.291495 4:0.278571 5:0.289067 6:0.0287322 7:-0.779019 8:-0.670524 9:-0.0676182 10:-0.349108 
-33554432 1:0.0108348 2:0.0456563 3:-0.168455 4:0.0577234 5:0.330525 6:-0.09369 7:-0.767751 8:-0.655466 9:0.0291093 10:-0.404002 
-33554432 1:-0.0415619 2:-0.0469313 3:0.097205 4:0.405231 5:0.376514 6:-0.273253 7:-0.95592 8:-0.764928 9:0.13904 10:-0.657266 
-33554432 1:-0.0754373 2:-0.204105 3:0.126122 4:0.025638 5:0.146012 6:0.149511 7:-0.640989 8:-0.487675 9:0.128516 10:-0.128871 
-33554432 1:-0.0796185 2:-0.28328 3:-0.379278 4:0.0581811 5:0.00134224 6:0.0273858 7:-0.929926 8:-0.576899 9:0.132523 10:-0.702036 
-33554432 1:0.0381866 2:-0.329696 3:-0.445498 4:0.0763777 5:0.0228805 6:-0.115986 7:-0.58622 8:-0.695776 9:0.334277 10:-0.814487 
-33554432 1:-0.459485 2:0.228943 3:0.218185 4:-0.105022 5:-0.189845 6:-0.12104 7:-0.727258 8:-0.704652 9:-0.0461029 10:-0.402883 
-33554432 1:0.242212 2:-0.240247 3:-0.241199 4:-0.0552073 5:-0.561597 6:-0.126959 7:-0.996092 8:-0.568633 9:-0.0159374 10:-0.666358 
-33554432 1:-0.454335 2:0.208126 3:0.114403 4:0.0435063 5:-0.214581 6:-0.514341 7:-0.955191 8:-0.654714 9:0.45209 10:-0.194234 
-33554432 1:0.278919 2:-0.38212 3:-0.378317 4:0.203804 5:0.262008 6:0.0944091 7:-0.530889 8:-0.71002 9:-0.184521 10:-0.382412 
-33554432 1:-0.0824643 2:0.600348 3:0.251291 4:-0.367049 5:-0.209272 6:0.0230835 7:-0.61475 8:-0.489006 9:-0.0513452 10:-0.368796 
-33554432 1:-0.350742 2:0.269451 3:0.179994 4:-0.31146 5:0.0119533 6:-0.326037 7:-0.847387 8:-0.70913 9:0.634527 10:-0.264655 
-33554432 1:-0.00118417 2:0.252507 3:-0.509827 4:-0.0983958 5:-0.252952 6:-0.182041 7:-0.878383 8:-0.701944 9:0.0782145 10:-0.0717017 
-33554432 1:-0.333703 2:0.235466 3:0.131138 4:-0.121259 5:-0.153628 6:-0.208446 7:-0.957855 8:-0.580142 9:0.126162 10:-0.291523 
-33554432 1:-0.353564 2:0.158694 3:-0.0463792 4:0.18511 5:-0.255018 6:0.0711746 7:-0.947485 8:-0.845636 9:0.0941363 10:-0.698291 
-33554432 1:-0.35017 2:-0.0385455 3:0.275771 4:-0.09562 5:0.0221587 6:0.12399 7:-0.883384 8:-0.78402 9:0.268508 10:-0.237679 
-33554432 1:-0.191474 2:0.208028 3:-0.0557762 4:0.0686374 5:-0.0649153 6:0.188347 7:-0.76887 8:-0.583535 9:0.247891 10:-0.240356 
-18945801.59526997 1:-0.647133 2:0.182233 3:0.125889 4:-0.367485 5:0.337605 6:0.139297 7:-0.956309 8:-0.868367 9:0.196561 10:-0.179701 
-33554432 1:-0.111662 2:0.432852 3:0.483518 4:0.0443221 5:-0.0551586 6:-0.32649 7:-0.835193 8:-0.702051 9:0.11612 10:-0.659382 
-17301115.10634504 1:-0.0343741 2:0.180001 3:-0.728046 4:0.164854 5:-0.0363731 6:-0.0775831 7:-0.723663 8:-0.543266 9:-0.0160935 10:-0.507113 
-33554432 1:-0.354304 2:0.371135 3:-0.124705 4:-0.408464 5:-0.332815 6:-0.349567 7:-0.786834 8:-0.638497 9:0.105882 10:-0.483468 
-33554432 1:-0.0867188 2:0.417208 3:0.101906 4:-0.268961 5:0.059599 6:-0.204195 7:-0.840606 8:-0.724848 9:0.400449 10:-0.181431 
-33554432 1:-0.41136 2:0.0497021 3:-0.332624 4:-0.205287 5:0.0285753 6:-0.14458 7:-0.980195 8:-0.984063 9:0.330791 10:-0.258633 
-33554432 1:-0.205465 2:0.0488439 3:0.492973 4:-0.184922 5:-0.189264 6:-0.430999 7:-0.972327 8:-0.78651 9:0.447811 10:-0.60186 
-33554432 1:-0.37999 2:-0.00637521 3:0.0362848 4:-0.476992 5:0.0587074 6:0.011521 7:-0.938678 8:-0.737731 9:0.486379 10:-0.326718 
-33554432 1:-0.363423 2:-0.130961 3:-0.190278 4:0.290768 5:0.241625 6:-0.0927112 7:-0.955967 8:-0.730518 9:-0.0146366 10:-0.73527 
-33554432 1:0.394651 2:0.119805 3:0.0804836 4:-0.275577 5:-0.0734993 6:0.103738 7:-0.883074 8:-0.529965 9:0.243442 10:-0.252637 
-33554432 1:-0.189633 2:0.334306 3:-0.245341 4:-0.159094 5:0.10441 6:0.106498 7:-0.818666 8:-0.690155 9:0.0111062 10:-0.618355 
-33554432 1:-0.200184 2:0.0995758 3:-0.187775 4:0.110632 5:0.327204 6:0.034699 7:-0.905993 8:-0.723154 9:0.211794 10:-0.743873 
-33554432 1:-0.435662 2:0.0270701 3:-0.123786 4:-0.286919 5:0.0529541 6:-0.0886827 7:-0.950465 8:-0.717452 9:-0.0716897 10:-0.0505139 
-33554432 1:-0.28462 2:0.0897678 3:-0.117156 4:0.0482321 5:-0.216635 6:-0.0837177 7:-0.880713 8:-0.782826 9:-0.0877675 10:-0.362874 
-33554432 1:-0.372471 2:0.263909 3:-0.175681 4:0.0662497 5:0.00772373 6:-0.0863857 7:-0.850252 8:-0.654839 9:0.331831 10:-0.597035 
-33554432 1:-0.132062 2:-0.0956036 3:-0.0245234 4:0.108702 5:0.186476 6:0.343542 7:-0.846316 8:-0.693317 9:-0.181256 10:-0.514685 
-33554432 1:0.0536707 2:-0.1852 3:-0.00678804 4:0.43266 5:-0.000339462 6:0.0171874 7:-0.917912 8:-0.710682 9:-0.138642 10:-0.490834 
-33554432 1:0.0960173 2:-0.202805 3:-0.0634192 4:0.5536 5:0.176226 6:0.139253 7:-0.945201 8:-0.736949 9:0.265295 10:-0.460094 
-33554432 1:0.307266 2:-0.249221 3:-0.174307 4:0.48533 5:0.185725 6:0.155858 7:-0.922936 8:-0.737735 9:0.166695 10:-0.59092 
-33554432 1:-0.446346 2:-0.418385 3:-0.296402 4:0.121347 5:0.244262 6:-0.197318 7:-0.978527 8:-0.738907 9:0.111853 10:-0.697578 
-33554432 1:0.197981 2:-0.317216 3:-0.22962 4:0.571369 5:0.437592 6:0.0386232 7:-0.938233 8:-0.831798 9:-0.103832 10:-0.659169 
-33554432 1:0.252685 2:-0.258441 3:-0.27533 4:0.585178 5:0.183618 6:-0.125828 7:-0.91039 8:-0.765254 9:0.330531 10:-0.654553 
-33554432 1:-0.477874 2:-0.0647819 3:-0.284114 4:0.350203 5:0.137361 6:-0.205099 7:-0.95804 8:-0.708639 9:-0.12579 10:-0.385023 
-33554432 1:-0.132282 2:-0.171591 3:0.0426215 4:-0.199736 5:-0.259907 6:0.0601103 7:-0.930927 8:-0.695088 9:0.070956 10:-0.384451 
-33554432 1:-0.0478964 2:-0.196283 3:0.018186 4:0.161909 5:0.0673929 6:0.132417 7:-0.996676 8:-0.776711 9:0.133056 10:-0.581493 
-7346751.768891218 1:-0.0260896 2:-0.534389 3:-0.40106 4:0.204172 5:0.428773 6:-0.116508 7:-0.918466 8:-0.889354 9:0.258024 10:-0.718124 
-33554432 1:-0.0606008 2:-0.41993 3:0.135752 4:0.496851 5:0.30422 6:0.0709891 7:-0.881784 8:-0.740506 9:0.184841 10:-0.557574 
-33554432 1:0.413213 2:-0.396734 3:-0.394202 4:0.221951 5:-0.0571798 6:-0.216308 7:-0.987555 8:-0.677869 9:-0.223831 10:-0.684745 
-33554432 1:0.383994 2:-0.424368 3:0.0424938 4:0.258971 5:0.122317 6:-0.161129 7:-0.984736 8:-0.671585 9:-0.0278267 10:-0.622803 
-33554432 1:0.0611728 2:0.280411 3:0.201554 4:0.353835 5:0.476292 6:-0.111179 7:-0.912703 8:-0.69325 9:0.265608 10:-0.478013 
-33554432 1:0.0371514 2:-0.520045 3:0.0480022 4:0.249808 5:0.14545 6:-0.270064 7:-0.979871 8:-0.65767 9:-0.319089 10:-0.640938 
-33554432 1:-0.205845 2:-0.261481 3:-0.145313 4:0.146588 5:0.270853 6:-0.0555306 7:-0.910451 8:-0.880158 9:0.10345 10:-0.42597 
-33554432 1:0.247355 2:-0.441017 3:-0.249194 4:-0.0380951 5:-0.125585 6:0.251351 7:-0.855816 8:-0.649019 9:0.219091 10:-0.409034 
-33554432 1:0.534644 2:-0.136184 3:-0.300898 4:0.414871 5:0.162019 6:-0.511557 7:-0.881301 8:-0.669897 9:-0.0587207 10:-0.679482 
-33554432 1:-0.0115794 2:-0.0615453 3:0.136513 4:0.375294 5:0.401858 6:0.299769 7:-0.940819 8:-0.88121 9:0.0836128 10:-0.657578 
-33554432 1:-0.179656 2:-0.254959 3:0.158187 4:0.176216 5:0.104248 6:-0.328801 7:-0.94187 8:-0.780196 9:0.0720487 10:-0.437086 
-33554432 1:0.262962 2:-0.272491 3:-0.253719 4:0.199765 5:0.0298122 6:-0.293184 7:-0.936896 8:-0.695526 9:0.104491 10:-0.412775 
-33554432 1:0.30061 2:-0.148174 3:-0.0750997 4:0.280152 5:-0.164028 6:-0.00676806 7:-0.847824 8:-0.709219 9:-0.0228056 10:-0.344596 
-23371376.45929013 1:0.284561 2:-0.289336 3:-0.296353 4:-0.352238 5:-0.0494034 6:-0.358806 7:-0.852818 8:-0.827602 9:0.231579 10:-0.618413 
-33554432 1:-0.382824 2:-0.292965 3:-0.0895205 4:0.446589 5:0.284465 6:-0.101703 7:-0.971464 8:-0.772777 9:-0.115514 10:-0.405689 
-33554432 1:-0.203843 2:-0.176029 3:-0.248888 4:0.253638 5:0.397174 6:0.0401392 7:-0.915916 8:-0.640723 9:0.00657944 10:-0.481826 
-10340107.41205529 1:-0.215278 2:-0.172106 3:0.0750714 4:0.45801 5:0.140994 6:0.230521 7:-0.85887 8:0.148648 9:0.103346 10:0.497853 
-33554432 1:-0.352572 2:0.184856 3:0.160651 4:0.396625 5:0.372524 6:-0.0792227 7:-0.847692 8:-0.95458 9:0.397509 10:0.203575 
-14681504.21943428 1:-0.124664 2:0.00865557 3:0.0244806 4:0.0423622 5:-0.378254 6:-0.056695 7:-0.699408 8:-0.934029 9:-0.262803 10:0.368497 
-2255799.435344092 1:-0.384814 2:0.612167 3:0.361762 4:-0.136789 5:-0.378662 6:0.0605803 7:-0.955314 8:0.135754 9:0.751053 10:0.00485787 
-33554432 1:-0.372041 2:0.272491 3:0.291824 4:0.13248 5:-0.20746 6:-0.360737 7:-0.978402 8:-0.666561 9:0.161726 10:-0.012876 
-33554432 1:0.0609365 2:-0.0491626 3:0.104033 4:-0.221942 5:-0.229492 6:-0.251874 7:-0.852978 8:-0.438637 9:0.0833917 10:0.120223 
-2787039.895470537 1:0.119334 2:0.15379 3:0.204003 4:0.0836206 5:0.0172306 6:-0.28886 7:-0.8168 8:-0.686291 9:-0.557292 10:0.350208 
-21543269.99683036 1:-0.231119 2:0.0649781 3:0.51079 4:-0.122582 5:0.220453 6:0.0265607 7:-0.661829 8:0.0112987 9:-0.222153 10:0.28879 
-11483900.82985828 1:-0.0373381 2:-0.135939 3:0.297908 4:0.427437 5:-0.0537306 6:0.312015 7:-0.855101 8:-0.904799 9:0.0773169 10:0.428847 
-33554432 1:0.346419 2:-0.144987 3:0.0653688 4:-0.00387065 5:-0.371795 6:0.188658 7:-0.810094 8:-0.499926 9:-0.183728 10:0.0431335 
-33554432 1:0.028562 2:0.183287 3:0.389165 4:0.298389 5:0.147102 6:-0.446053 7:-0.323635 8:-0.460905 9:0.109525 10:0.166194 
-33554432 1:-0.122911 2:-0.125101 3:0.0221853 4:-0.0772741 5:0.0829106 6:0.0388335 7:-0.472068 8:-0.936035 9:0.228288 10:0.0554586 
-22634013.33749255 1:-0.115855 2:0.2669 3:0.458695 4:0.264921 5:0.055342 6:-0.123838 7:-0.50766 8:-0.823915 9:-0.392211 10:0.38855 
-33554432 1:0.0998605 2:0.358826 3:0.357996 4:0.178524 5:0.0690259 6:0.0751554 7:-0.807419 8:0.227692 9:0.103944 10:0.499435 
-31577434.67475537 1:-0.0637539 2:0.0521786 3:0.019013 4:-0.472678 5:-0.468494 6:0.0643915 7:-0.69412 8:-0.984688 9:0.2622 10:0.235232 
-14980933.60060833 1:-0.0761558 2:0.317779 3:0.116123 4:0.484524 5:0.0932837 6:-0.247876 7:-0.544535 8:-0.501139 9:0.0109371 10:0.185344 
-18864491.94941925 1:0.074896 2:-0.034328 3:0.0825932 4:0.303702 5:-0.219704 6:-0.496653 7:-0.413539 8:-0.556219 9:0.0264427 10:0.301513 
-33554432 1:-0.250886 2:-7.35601e-005 3:-0.188446 4:-0.363059 5:-0.227914 6:-0.148601 7:-0.844013 8:-0.815568 9:-0.153796 10:-0.502651 
-33554432 1:0.437563 2:-0.429615 3:-0.287811 4:-0.159811 5:-0.479837 6:0.146863 7:-0.73826 8:-0.488139 9:-0.590806 10:-0.581314 
-26334142.82198239 1:0.134046 2:-0.10649 3:-0.00492206 4:-0.473197 5:-0.354494 6:0.540627 7:-0.854759 8:-0.561513 9:-0.129796 10:-0.328254 
-33554432 1:-0.00267325 2:-0.231788 3:-0.228883 4:0.193507 5:-0.00250695 6:0.115727 7:-0.770158 8:-0.75301 9:0.0386572 10:-0.421492 
-33554432 1:0.477775 2:-0.471422 3:-0.45718 4:-0.128541 5:-0.464651 6:-0.0733956 7:-0.79363 8:-0.597953 9:-0.0210235 10:-0.446134 
-33554432 1:0.118727 2:-0.130692 3:-0.188704 4:-0.311367 5:-0.28355 6:0.444155 7:-0.762031 8:-0.797087 9:0.0289922 10:-0.414678 
-33554432 1:0.30598 2:-0.0635069 3:-0.294666 4:-0.115428 5:-0.55168 6:-0.153213 7:-0.622084 8:-0.386274 9:-0.563876 10:-0.484894 
-33554432 1:-0.157592 2:0.0484025 3:-0.221815 4:-0.372967 5:-0.341503 6:-0.449152 7:-0.884097 8:-0.549809 9:-0.226238 10:-0.533607 
-33554432 1:0.598468 2:-0.14788 3:-0.479049 4:-0.170864 5:-0.258799 6:-0.271737 7:-0.676267 8:-0.570456 9:-0.140346 10:-0.305669 
-33554432 1:0.531294 2:-0.0311895 3:-0.163501 4:-0.170914 5:-0.341329 6:-0.16607 7:-0.873474 8:-0.554838 9:-0.230868 10:-0.419048 
-33554432 1:0.152981 2:0.0964863 3:-0.198851 4:-0.310799 5:-0.314941 6:-0.13515 7:-0.732264 8:-0.773731 9:0.216294 10:-0.310543 
-25329380.0378403 1:0.291794 2:-0.0878062 3:0.240967 4:-0.221415 5:-0.201082 6:-0.403264 7:-0.961178 8:-0.534724 9:-0.473175 10:-0.558494 
-33554432 1:0.354411 2:0.116127 3:0.0153996 4:-0.213883 5:-0.395617 6:-0.224196 7:-0.86474 8:-0.552719 9:-0.218251 10:-0.421542 
-33554432 1:0.0691902 2:-0.012873 3:-0.130523 4:-0.125775 5:-0.475641 6:-0.29482 7:-0.927362 8:-0.583544 9:-0.283174 10:-0.449035 
-17852839.57566175 1:0.235182 2:-0.338695 3:-0.448281 4:-0.188195 5:-0.0298883 6:0.713517 7:-0.219723 8:-0.178971 9:-0.560509 10:-0.59599 
-33554432 1:0.127167 2:-0.0325381 3:-0.0708081 4:-0.217734 5:0.118281 6:0.603051 7:-0.245804 8:-0.126048 9:0.0108981 10:-0.683353 
-33554432 1:0.312735 2:0.302307 3:-0.0840464 4:0.027777 5:0.120546 6:-0.31669 7:-0.224717 8:-0.180849 9:-0.0340315 10:-0.554024 
-33554432 1:0.272443 2:-0.165289 3:-0.0716206 4:0.08568 5:-0.223229 6:-0.31193 7:-0.133661 8:-0.112153 9:-0.273223 10:-0.501535 
-33554432 1:0.0670346 2:0.0222887 3:-0.159703 4:-0.334691 5:-0.228376 6:0.119409 7:-0.221833 8:-0.333361 9:-0.0680474 10:-0.395338 
-33554432 1:-0.257831 2:-0.00872913 3:0.0195727 4:-0.275109 5:0.237102 6:0.482992 7:-0.208054 8:-0.25692 9:-0.263024 10:-0.329725 
-33554432 1:0.218044 2:-0.0610303 3:0.015231 4:0.19292 5:0.0133034 6:-0.423262 7:-0.291356 8:-0.232738 9:-0.155539 10:-0.410578 
-33554432 1:0.0378463 2:-0.00112792 3:-0.174972 4:-0.222818 5:-0.0601413 6:-0.0472227 7:-0.28909 8:-0.206107 9:-0.0254462 10:-0.271881 
-22412097.85641718 1:-0.143644 2:-0.269892 3:-0.0401557 4:-0.320124 5:-0.159457 6:0.231714 7:-0.131996 8:-0.0531048 9:-0.143299 10:-0.480268 
-25639576.36841903 1:0.0901413 2:-0.0475688 3:-0.0129654 4:-0.0158393 5:0.214327 6:-0.079986 7:-0.177949 8:-0.0615598 9:-0.138616 10:-0.261862 
-13550406.15846591 1:0.492959 2:-0.323419 3:-0.489639 4:0.0114209 5:-0.0745548 6:0.393251 7:-0.320983 8:-0.261176 9:0.000842918 10:-0.391079 
-2569166.706937511 1:-0.0191571 2:0.115416 3:0.183962 4:-0.335326 5:-0.0500823 6:0.20365 7:-0.229663 8:-0.178335 9:-0.124216 10:-0.411583 
-10669522.01475672 1:0.0439515 2:0.0947944 3:-0.131813 4:-0.171541 5:-0.00213432 6:0.163429 7:-0.261304 8:-0.180219 9:-0.552855 10:-0.568506 
-33554432 1:0.132507 2:-0.460756 3:-0.320392 4:-0.113299 5:-0.0244471 6:0.366457 7:-0.221267 8:-0.0597455 9:-0.0943756 10:-0.431374 
-33554432 1:0.273494 2:0.0340093 3:0.0986746 4:-0.0642012 5:0.0987034 6:-0.257194 7:-0.157969 8:-0.218358 9:-0.185249 10:-0.527474 
