svm_type c_svc
kernel_type rbf
gamma 0.0078125
nr_class 2
total_sv 253
rho 398.976
label 1 -1
nr_sv 134 119
SV
4194304 1:-0.0480264 2:0.0383493 3:0.345881 4:0.21443 5:0.0242169 6:0.109652 7:-0.775066 8:-0.617312 9:0.0420522 10:-0.458475 
679839.4584579306 1:0.598936 2:0.183189 3:-0.545561 4:0.0434864 5:-0.379883 6:-0.421702 7:-0.843362 8:-0.378071 9:-0.339095 10:-0.507517 
4194304 1:0.184818 2:-0.0494814 3:-0.00917681 4:-0.164815 5:-0.474455 6:-0.213453 7:-0.512481 8:-0.561884 9:-0.283031 10:-0.75418 
921142.960904432 1:0.431363 2:-0.0970012 3:-0.141674 4:-0.0276885 5:0.349759 6:0.249367 7:-0.695633 8:-0.70089 9:0.263708 10:-0.365905 
2175458.602596122 1:-0.0097712 2:0.0708874 3:-0.00878307 4:-0.454373 5:-0.539286 6:0.115578 7:-0.906122 8:-0.473287 9:-0.0207894 10:-0.1391 
1123728.376787077 1:0.199036 2:-0.0977858 3:-0.0521088 4:0.376379 5:0.116541 6:-0.536215 7:-0.948142 8:-0.550044 9:-0.0258235 10:-0.51483 
2138339.559707088 1:-0.239532 2:-0.0201309 3:-0.163837 4:-0.0512078 5:-0.262037 6:0.467602 7:-0.964461 8:-0.879825 9:0.363883 10:-0.606953 
4194304 1:0.0323012 2:0.0431062 3:0.0972709 4:-0.188921 5:-0.225641 6:0.06892 7:-0.91773 8:-0.650522 9:-0.00741716 10:-0.332328 
4194304 1:0.213659 2:-0.37138 3:-0.149545 4:-0.678948 5:-0.122846 6:0.0897287 7:-0.731245 8:-0.785673 9:0.177426 10:-0.315042 
3242241.143093244 1:-0.197752 2:-0.317216 3:0.100789 4:-0.0817412 5:0.141989 6:-0.179859 7:-0.89527 8:-0.81406 9:0.199982 10:-0.738238 
1622879.595688989 1:0.292656 2:0.212956 3:0.352675 4:0.307602 5:-0.334532 6:-0.181031 7:-0.514266 8:-0.572024 9:-0.0106041 10:-0.228378 
1516953.765664367 1:-0.00534651 2:-0.355712 3:-0.095794 4:-0.279427 5:-0.206613 6:0.100846 7:-0.943455 8:-0.554496 9:-0.108203 10:-0.851118 
3697416.754240683 1:0.354224 2:-0.196209 3:-0.338309 4:0.0549079 5:-0.138175 6:-0.101238 7:-0.484463 8:-0.640738 9:-0.0797156 10:-0.56527 
4194304 1:-0.237054 2:0.05262 3:-0.076543 4:0.385731 5:-0.0623478 6:0.0390703 7:-0.590946 8:-0.350892 9:0.0249207 10:-0.50242 
4194304 1:0.27612 2:0.178726 3:-0.175823 4:-0.0156602 5:-0.130094 6:0.230869 7:-0.682646 8:-0.349842 9:-0.354344 10:-0.481905 
3855552.375393289 1:-0.222873 2:-0.0795429 3:0.112391 4:0.0520923 5:-0.156767 6:-0.0257797 7:-0.612421 8:-0.373964 9:0.341171 10:-0.224924 
4194304 1:0.0524534 2:0.0894 3:0.319912 4:0.0979073 5:0.0963916 6:-0.0335152 7:-0.645926 8:-0.702717 9:-0.0126724 10:-0.591267 
4194304 1:0.0977049 2:-0.198906 3:-0.355655 4:-0.0809552 5:0.00797735 6:0.266279 7:-0.766787 8:-0.616072 9:0.178571 10:-0.685227 
4194304 1:-0.304567 2:0.213471 3:0.152752 4:0.358441 5:0.0682728 6:-0.377646 7:-0.890589 8:-0.497101 9:0.441242 10:0.013994 
4194304 1:-0.0599083 2:-0.163083 3:-0.287732 4:-0.275169 5:0.112161 6:0.420179 7:-0.726463 8:-0.670553 9:0.000257558 10:-0.410009 
3649246.496515206 1:-0.222771 2:-0.281098 3:-0.413386 4:-0.435328 5:-0.0694375 6:0.422829 7:-0.893233 8:-0.817133 9:-0.0616475 10:-0.767441 
4194304 1:-0.0876525 2:0.14381 3:-0.193835 4:-0.18136 5:-0.0116373 6:-0.210789 7:-0.528567 8:-0.705553 9:0.122208 10:-0.261608 
4194304 1:-0.166382 2:0.130275 3:0.118667 4:-0.426168 5:-0.617555 6:-0.471109 7:-0.874457 8:-0.685302 9:-0.222582 10:-0.459267 
4194304 1:-0.0563156 2:-0.247579 3:-0.452201 4:-0.0473377 5:0.0987327 6:0.0452508 7:-0.785665 8:-0.635914 9:-0.0599564 10:-0.594195 
4194304 1:0.137073 2:-0.0805483 3:-0.618124 4:-0.200124 5:-0.360655 6:-0.357032 7:-0.470977 8:-0.545697 9:-0.132944 10:-0.657153 
4194304 1:0.0330127 2:0.0592649 3:-0.22897 4:-0.665555 5:-0.481634 6:0.106028 7:-0.918961 8:-0.413973 9:-0.0897578 10:-0.237726 
394518.9274787369 1:0.0558641 2:-0.223574 3:-0.387487 4:-0.221872 5:-0.365199 6:-0.238569 7:-0.916164 8:-0.793307 9:0.12572 10:-0.64694 
4194304 1:-0.336686 2:-0.164946 3:-0.361959 4:-0.259489 5:-0.0727931 6:0.571035 7:-0.694599 8:-0.729498 9:0.0556716 10:0.0188975 
4194304 1:-0.153432 2:0.155874 3:0.145308 4:0.222399 5:0.338919 6:-0.276593 7:-0.538149 8:-0.586724 9:-0.250563 10:-0.287868 
4194304 1:-0.0858443 2:-0.141579 3:-0.0370572 4:0.0295678 5:0.000554064 6:0.0836841 7:-0.856315 8:-0.942344 9:-0.108775 10:-0.0264021 
4194304 1:-0.126699 2:-0.196798 3:0.139675 4:0.373941 5:0.382589 6:0.124254 7:-0.96627 8:-0.659192 9:-0.128535 10:-0.103657 
311913.3382603478 1:-0.269471 2:0.14766 3:-0.0756436 4:0.275904 5:0.197036 6:0.0352679 7:-0.753952 8:-0.998595 9:0.40997 10:-0.456206 
2335732.773491607 1:0.07318 2:0.341883 3:0.188303 4:0.127456 5:-0.110489 6:-0.368971 7:-0.875941 8:-0.784557 9:0.0236069 10:-0.0160649 
4194304 1:0.31318 2:0.373097 3:0.00280127 4:-0.0654746 5:-0.397092 6:0.059946 7:-0.847765 8:-0.489049 9:0.260404 10:0.222758 
1583127.164501255 1:0.128888 2:-0.173013 3:-0.421205 4:0.352511 5:0.0904373 6:0.0882674 7:-0.949902 8:-0.802583 9:0.318394 10:-0.418737 
1911475.491610524 1:-0.246523 2:0.222102 3:-0.166036 4:-0.0791346 5:0.156667 6:-0.436436 7:-0.432352 8:-0.600142 9:-0.02503 10:-0.446922 
3670356.16690036 1:-0.189283 2:0.0346468 3:-0.185636 4:0.273636 5:0.0263941 6:-0.0762261 7:-0.495373 8:-0.756364 9:-0.13911 10:-0.610853 
4194304 1:-0.275778 2:0.377633 3:-0.169451 4:0.0327714 5:-0.13837 6:-0.1715 7:-0.878069 8:-0.343713 9:0.332573 10:-0.269862 
4194304 1:-0.310799 2:0.198686 3:-0.0449952 4:-0.458168 5:-0.0970217 6:0.0517371 7:-0.735518 8:-0.642012 9:0.00663148 10:-0.613998 
4194304 1:0.574785 2:-0.482824 3:-0.585578 4:-0.110374 5:-0.333724 6:-0.467379 7:-0.730323 8:-0.908231 9:-0.0157943 10:-0.243992 
2309975.832532723 1:-0.0274085 2:0.392173 3:0.384991 4:0.248017 5:0.175437 6:0.00249396 7:-0.863784 8:-0.608632 9:0.56219 10:-0.378006 
2748353.364952438 1:-0.159436 2:0.119118 3:0.0817557 4:0.398545 5:0.185229 6:0.0696992 7:-0.995648 8:-0.702537 9:0.448539 10:-0.256605 
519560.0903609539 1:0.0823367 2:-0.210848 3:-0.451693 4:0.605772 5:0.377655 6:0.142991 7:-0.727207 8:-0.642289 9:0.162766 10:-0.236256 
4194304 1:0.125976 2:-0.346051 3:-0.321547 4:-0.175063 5:-0.11125 6:0.0392558 7:-0.544271 8:-0.516043 9:0.201999 10:-0.894081 
727126.0091257184 1:0.111116 2:0.0935439 3:-0.124803 4:0.173032 5:0.10948 6:-0.0750547 7:-0.945904 8:-0.434662 9:0.415564 10:-0.478737 
920705.289021333 1:-0.281864 2:0.47586 3:0.0618002 4:0.121466 5:-0.083254 6:0.126579 7:-0.99463 8:-0.832705 9:0.00479735 10:-0.0914152 
4194304 1:-0.00720195 2:-0.0280509 3:0.17365 4:0.207933 5:0.0369838 6:0.14819 7:-0.899042 8:-0.705107 9:0.347961 10:-0.198662 
907091.9668391948 1:0.28539 2:-0.130226 3:-0.278778 4:0.266075 5:-0.314435 6:-0.015364 7:-0.780239 8:-0.680532 9:0.0804388 10:-0.481427 
4194304 1:0.115309 2:0.0766986 3:-0.00351171 4:0.186324 5:0.159742 6:0.0448303 7:-0.646329 8:-0.68897 9:0.0501042 10:-0.136185 
4194304 1:0.0256004 2:0.0278057 3:-0.274507 4:-0.168924 5:0.179868 6:0.00212115 7:-0.672207 8:-0.267936 9:-0.351164 10:-0.460236 
1381508.520088165 1:-0.285863 2:0.233161 3:0.0272249 4:-0.0688573 5:0.438331 6:-0.0918701 7:-0.851594 8:-0.918779 9:0.208906 10:-0.575299 
3917641.514154745 1:-0.130656 2:0.0105191 3:-0.0149933 4:0.0711446 5:-0.20174 6:-0.032031 7:-0.915918 8:-0.519521 9:-0.29384 10:-0.308978 
4194304 1:0.43201 2:-0.0105436 3:-0.297445 4:0.274531 5:0.0517504 6:-0.161683 7:-0.910476 8:-0.909425 9:-0.00315054 10:-0.235419 
3960277.709166296 1:-0.00686395 2:0.0750313 3:0.0938194 4:0.0114408 5:0.286049 6:0.402704 7:-0.704353 8:-0.776693 9:-0.255428 10:-0.437848 
631177.0814826762 1:0.234958 2:0.0194934 3:-0.125783 4:-0.0605101 5:-0.457197 6:-0.20814 7:-0.982417 8:-0.734937 9:-0.370301 10:-0.504458 
2234901.292825803 1:-0.246284 2:0.317265 3:0.260061 4:0.0720499 5:-0.0414631 6:0.0818801 7:-0.965239 8:-0.433876 9:0.383928 10:-0.388271 
671070.6386574142 1:-0.35421 2:0.300959 3:0.395381 4:0.0133411 5:0.118987 6:-0.386147 7:-0.987619 8:-0.793228 9:-0.143546 10:-0.519091 
1054341.106272557 1:-0.149972 2:0.284113 3:0.111427 4:0.474794 5:0.212045 6:-0.261007 7:-0.700603 8:-0.560222 9:-0.0943106 10:-0.752549 
3459578.974373338 1:0.0871348 2:-0.404237 3:-0.0652273 4:0.164426 5:0.228271 6:0.0334834 7:-0.854435 8:-0.650628 9:-0.0546232 10:-0.00402149 
122680.4716472237 1:0.212121 2:-0.0516882 3:-0.314615 4:0.192751 5:-0.0214407 6:-0.388974 7:-0.52184 8:-0.400167 9:-0.620725 10:-0.904732 
4194304 1:-0.181748 2:0.105926 3:0.609211 4:0.550486 5:0.0507574 6:-0.193821 7:-0.706685 8:-0.58142 9:-0.0607499 10:-0.233782 
4194304 1:0.0897324 2:0.0255499 3:-0.145903 4:0.0539428 5:-0.201555 6:-0.312941 7:-0.608755 8:-0.476449 9:-0.0770099 10:-0.349204 
1235292.96234006 1:0.0178359 2:0.218057 3:-0.145534 4:-0.429399 5:-0.333574 6:-0.499293 7:-0.976379 8:-0.699579 9:-0.118714 10:-0.399539 
4194304 1:-0.305985 2:0.164333 3:0.393932 4:0.0486997 5:0.145003 6:0.199975 7:-0.935972 8:-0.782787 9:0.373028 10:-0.431172 
4194304 1:-0.385012 2:0.278891 3:0.122345 4:-0.120861 5:0.149939 6:0.0726764 7:-0.90675 8:-0.654133 9:-0.047885 10:-0.105148 
1502165.756990999 1:-0.502905 2:0.252041 3:0.37206 4:0.233273 5:0.223235 6:0.109647 7:-0.811245 8:-0.605611 9:0.242636 10:-0.719803 
3496951.667586937 1:-0.574201 2:0.409582 3:0.33449 4:-0.205079 5:-0.073314 6:0.148154 7:-0.956138 8:-0.63141 9:0.175293 10:-0.305162 
4194304 1:-0.35017 2:-0.0385455 3:0.275771 4:-0.09562 5:0.0221587 6:0.12399 7:-0.883384 8:-0.78402 9:0.268508 10:-0.237679 
4194304 1:0.0531932 2:0.326582 3:0.117583 4:-0.217167 5:-0.486542 6:-0.192814 7:-0.844204 8:-0.492787 9:-0.179461 10:-0.219695 
1447275.334293725 1:-0.282703 2:0.329917 3:0.661398 4:-0.107489 5:0.0941421 6:-0.31757 7:-0.933669 8:-0.543693 9:0.512642 10:-0.015452 
2073584.553211695 1:-0.71638 2:-0.071623 3:0.0348613 4:-0.230836 5:-0.168305 6:-0.0381745 7:-0.9988 8:-0.72536 9:0.233075 10:-0.050547 
560247.3692353363 1:-0.172736 2:-0.133266 3:-0.389345 4:0.155442 5:0.0397522 6:-0.450278 7:-0.778459 8:-0.725029 9:0.270551 10:0.0488819 
4194304 1:-0.13162 2:0.259961 3:0.30199 4:-0.191976 5:-0.151324 6:0.0925468 7:-0.952853 8:-0.651532 9:0.216711 10:-0.218645 
628234.9760812599 1:-0.0873877 2:0.329574 3:0.508801 4:-0.131397 5:-0.237928 6:0.308584 7:-0.994181 8:-0.580458 9:-0.275941 10:-0.511227 
2141487.241397252 1:-0.41136 2:0.0497021 3:-0.332624 4:-0.205287 5:0.0285753 6:-0.14458 7:-0.980195 8:-0.984063 9:0.330791 10:-0.258633 
976996.9105348605 1:-0.301551 2:0.346272 3:0.126327 4:0.0623994 5:0.108618 6:-0.302506 7:-0.805502 8:-0.530836 9:0.123495 10:-0.770211 
1452919.340979033 1:-0.413085 2:-0.0262119 3:-0.295538 4:-0.0149936 5:0.299591 6:0.0580714 7:-0.976364 8:-0.806994 9:0.429365 10:-0.978369 
2683205.460012617 1:-0.185875 2:-0.269965 3:-0.325216 4:0.0188727 5:0.412429 6:0.080532 7:-0.876972 8:-0.711869 9:0.258336 10:-0.440882 
4194304 1:-0.300421 2:-0.482701 3:-0.0894784 4:0.180334 5:0.182746 6:0.205582 7:-0.910607 8:-0.798659 9:0.0375255 10:-0.689542 
4194304 1:0.301884 2:0.0255008 3:0.0566368 4:0.147632 5:0.0476866 6:-0.444422 7:-0.863061 8:-0.713542 9:0.215345 10:-0.278514 
3079561.907554875 1:-0.366233 2:-0.530368 3:-0.217925 4:0.146309 5:0.242553 6:0.239709 7:-0.881296 8:-0.847045 9:-0.107657 10:-0.286744 
1249667.650788605 1:0.204843 2:0.0491381 3:-0.222021 4:-0.17563 5:-0.483167 6:-0.445177 7:-0.967929 8:-0.740789 9:0.125199 10:-0.232447 
1072679.004199151 1:0.420623 2:-0.650933 3:-0.240677 4:0.622138 5:0.479511 6:-0.47432 7:-0.98043 8:-0.758104 9:-0.091696 10:-0.678067 
670849.0871952532 1:-0.431372 2:-0.119265 3:-0.745489 4:0.0140773 5:0.554817 6:0.193 7:-0.848586 8:-0.888301 9:0.463433 10:-0.681586 
939689.1122188463 1:0.018994 2:-0.209033 3:0.00561933 4:0.368509 5:0.606673 6:-0.140004 7:-0.931374 8:-0.88245 9:0.237159 10:-0.587484 
425709.8654944694 1:0.127326 2:-0.240051 3:0.00328719 4:0.346452 5:0.064529 6:-0.742151 7:-0.826128 8:-0.717404 9:-0.238556 10:0.427224 
83290.18940742937 1:-0.195949 2:-0.0660079 3:0.284673 4:0.665575 5:0.251309 6:0.653319 7:-0.877295 8:-0.231651 9:-0.189373 10:0.347102 
1106185.108929242 1:-0.134525 2:0.299512 3:0.0244661 4:-0.257181 5:-0.310711 6:0.463768 7:-0.547993 8:-0.43011 9:0.329555 10:0.155691 
1320557.108745398 1:-0.12427 2:-0.391487 3:-0.230981 4:-0.324931 5:-0.0534652 6:0.559692 7:-0.544463 8:-0.755096 9:-0.00720903 10:0.412372 
4194304 1:-0.180037 2:0.312115 3:0.415226 4:-0.024276 5:-0.0460966 6:0.0965718 7:-0.763292 8:-0.335415 9:-0.224234 10:0.231778 
441273.909509434 1:-0.386594 2:-0.122674 3:-0.110169 4:-0.177321 5:0.239079 6:0.475076 7:-0.399103 8:-0.290997 9:0.217114 10:0.0245465 
2193036.410269847 1:-0.118526 2:-0.166197 3:0.373126 4:0.271059 5:0.0867969 6:-0.320212 7:-0.997323 8:-0.384411 9:0.314232 10:0.288575 
4194304 1:-0.216356 2:0.150798 3:0.00784481 4:0.168794 5:0.308425 6:-0.150398 7:-0.82889 8:-0.734719 9:0.132094 10:-0.0317032 
2552152.291717466 1:-0.110407 2:-0.202388 3:0.191989 4:-0.00852676 5:-0.152098 6:-0.482739 7:-0.785369 8:-0.602211 9:-0.453901 10:0.434827 
393996.2564101979 1:-0.00286471 2:0.76066 3:0.702181 4:0.129157 5:0.0919454 6:-0.163224 7:-0.983031 8:-0.399673 9:0.0672878 10:0.339954 
4194304 1:-0.0694384 2:-0.36525 3:0.0141459 4:0.215942 5:-0.200751 6:-0.140253 7:-0.627874 8:-0.177347 9:0.207644 10:0.359138 
4194304 1:-0.329857 2:0.126719 3:-0.0679716 4:-0.231851 5:-0.093592 6:-0.154467 7:-0.525257 8:-0.950144 9:0.189888 10:-0.246567 
301484.5561798512 1:-0.286823 2:0.150234 3:0.288795 4:0.161451 5:0.611999 6:0.322749 7:-0.479268 8:0.00234058 9:0.3592 10:0.222104 
1481121.015033718 1:-0.134915 2:0.55148 3:0.230419 4:0.0997777 5:-0.0523357 6:0.322339 7:-0.989176 8:-0.44048 9:0.064491 10:0.203567 
94433.87454253805 1:-0.111071 2:-0.454258 3:-0.149578 4:0.124312 5:0.292382 6:0.0122313 7:-0.406957 8:-0.457788 9:-0.130733 10:-0.0528165 
1147803.678954286 1:-0.196294 2:-0.150185 3:-0.0927336 4:-0.239174 5:-0.459376 6:-0.0220728 7:-0.251737 8:-0.952896 9:0.537475 10:0.0253914 
4194304 1:-0.0593008 2:-0.140034 3:-0.302687 4:-0.30524 5:-0.235786 6:-0.322433 7:-0.718963 8:-0.73738 9:-0.19896 10:-0.348461 
1548354.16583189 1:0.0612059 2:-0.127357 3:-0.129048 4:0.0387507 5:-0.420533 6:0.044954 7:-0.989366 8:-0.788782 9:-0.186875 10:-0.391798 
307677.0905411536 1:-0.11746 2:-0.164505 3:-0.543372 4:-0.577929 5:-0.332501 6:0.287106 7:-0.81204 8:-0.822623 9:-0.472619 10:-0.362043 
937291.7991395632 1:-0.080096 2:-0.301474 3:-0.352601 4:-0.121706 5:-0.7644 6:-0.149403 7:-0.775924 8:-0.638323 9:-0.293762 10:-0.460058 
4194304 1:0.114624 2:-0.161244 3:0.0410835 4:-0.0675838 5:-0.216684 6:-0.123731 7:-0.811605 8:-0.43507 9:-0.249678 10:-0.484868 
512961.0149335796 1:0.342115 2:-0.216242 3:-0.257935 4:-0.141097 5:-0.195325 6:-0.151432 7:-0.789679 8:-0.489249 9:-0.120209 10:-0.288846 
4194304 1:0.0521745 2:0.312974 3:-0.21238 4:-0.0995399 5:-0.28928 6:-0.289461 7:-0.744973 8:-0.769974 9:0.0934598 10:-0.558462 
9691.11534357376 1:0.511811 2:0.0496285 3:-0.567349 4:-0.325256 5:-0.388859 6:-0.117824 7:-0.808512 8:-0.599437 9:0.182526 10:-0.584507 
3133553.78822405 1:-0.17401 2:0.00684109 3:-0.183183 4:-0.331335 5:-0.476288 6:-0.226772 7:-0.874684 8:-0.790521 9:0.383187 10:-0.562013 
4194304 1:0.101009 2:-0.0152269 3:-0.267114 4:-0.0891233 5:-0.0268721 6:0.457654 7:-0.0819237 8:-0.142263 9:-0.150232 10:-0.273212 
4194304 1:0.204585 2:-0.299463 3:-0.314282 4:-0.0982764 5:-0.277533 6:0.284098 7:-0.11906 8:-0.247524 9:-0.326243 10:-0.486112 
4194304 1:-0.135459 2:-0.103254 3:0.153062 4:-0.0235298 5:-0.0410807 6:0.229928 7:-0.114652 8:-0.135307 9:-0.218719 10:-0.196258 
4194304 1:-0.0865888 2:-0.286026 3:-0.173854 4:-0.0876907 5:-0.241736 6:-0.152794 7:-0.244869 8:-0.279203 9:-0.140294 10:-0.28908 
4194304 1:-0.0219226 2:-0.151362 3:-0.434563 4:-0.290918 5:-0.343241 6:0.182241 7:-0.201989 8:-0.235769 9:-0.151025 10:-0.451468 
4194304 1:0.031975 2:0.0784395 3:0.0781963 4:-0.0589083 5:-0.221384 6:0.277345 7:-0.185049 8:-0.18395 9:-0.408957 10:-0.348803 
1035827.812415456 1:-0.0769122 2:-0.363656 3:-0.349373 4:-0.19108 5:-0.273062 6:0.475394 7:-0.196032 8:-0.326851 9:0.210831 10:-0.363543 
4194304 1:0.223272 2:0.10139 3:-0.095769 4:-0.240049 5:-0.373193 6:0.164918 7:-0.310101 8:-0.0779558 9:-0.232612 10:-0.306985 
3355609.655013215 1:-0.00945448 2:0.206262 3:-0.139149 4:0.0547686 5:0.141261 6:0.286713 7:-0.226061 8:-0.206543 9:-0.367719 10:-0.312417 
4194304 1:-0.111563 2:-0.213937 3:-0.180215 4:-0.185539 5:0.163907 6:0.178539 7:-0.124307 8:-0.127762 9:-0.0999951 10:-0.436884 
4194304 1:-0.155911 2:0.438614 3:0.0239894 4:-0.192851 5:-0.5676 6:0.141866 7:-0.188575 8:-0.161482 9:-0.121901 10:-0.240072 
4194304 1:0.197977 2:-0.0734375 3:-0.345936 4:-0.342508 5:-0.19569 6:0.149388 7:-0.194335 8:-0.161622 9:-0.253515 10:-0.440178 
2054925.877232355 1:0.334646 2:-0.091239 3:-0.0316423 4:-0.198661 5:0.436952 6:-0.0418019 7:-0.0505957 8:-0.100483 9:0.0117436 10:-0.267409 
3120694.204382555 1:0.0573674 2:0.0614717 3:0.027034 4:-0.17159 5:0.031172 6:0.274259 7:-0.256522 8:-0.199915 9:0.0957883 10:-0.520175 
4194304 1:0.0225726 2:0.028198 3:-0.121332 4:-0.272194 5:0.119619 6:0.0323755 7:-0.21156 8:-0.227286 9:0.0541107 10:-0.206646 
2066875.513759143 1:0.215494 2:-0.335728 3:-0.313965 4:-0.113966 5:0.350116 6:0.34492 7:-0.113163 8:-0.182262 9:-0.172293 10:-0.193315 
3230556.851602112 1:0.227033 2:0.130422 3:0.273032 4:0.283565 5:0.0425537 6:0.112136 7:-0.175218 8:0.0600445 9:-0.725997 10:-0.293813 
383266.0475553953 1:0.18389 2:-0.253929 3:0.0687334 4:0.00877449 5:-0.0368316 6:0.0643014 7:-0.277401 8:-0.0993089 9:-0.0646263 10:-0.503703 
1924573.081241963 1:0.632906 2:-0.193855 3:-0.0740278 4:-0.185738 5:-0.517018 6:-0.25741 7:-0.0843665 8:0.101318 9:0.0249337 10:-0.480489 
4194304 1:0.321627 2:-0.0564451 3:-0.247065 4:-0.360922 5:-0.305576 6:0.251952 7:-0.0754334 8:-0.0490363 9:-0.436028 10:-0.439959 
4194304 1:0.150908 2:-0.347964 3:0.0359754 4:0.178693 5:-0.185282 6:0.242278 7:-0.24797 8:-0.16099 9:-0.274692 10:-0.249017 
3696187.42379355 1:0.293888 2:0.0510262 3:-0.0650995 4:0.117039 5:0.17676 6:-0.161376 7:-0.276298 8:-0.204428 9:0.0079713 10:-0.236574 
4194304 1:0.172766 2:-0.261163 3:-0.164391 4:-0.00518391 5:-0.0316343 6:-0.0139292 7:-0.272551 8:-0.170212 9:-0.127715 10:-0.470285 
4194304 1:0.168708 2:-0.00919501 3:-0.139074 4:-0.245123 5:0.0348573 6:0.38818 7:-0.131395 8:-0.194058 9:0.0638536 10:-0.332931 
-4194304 1:-0.395436 2:0.484712 3:0.34995 4:0.102862 5:0.00885527 6:-0.0600291 7:-0.919174 8:-0.718011 9:0.617435 10:-0.130395 
-4194304 1:0.454874 2:0.168183 3:0.0555372 4:0.249908 5:0.131526 6:-0.125218 7:-0.887965 8:-0.707219 9:0.136737 10:-0.261923 
-1013291.83950624 1:-0.425435 2:0.459701 3:0.223255 4:-0.621386 5:-0.61404 6:-0.244563 7:-0.705282 8:-0.400082 9:0.0112363 10:-0.913288 
-4194304 1:0.0275976 2:-0.109065 3:-0.0176784 4:-0.325673 5:-0.349845 6:-0.16648 7:-0.963404 8:-0.544338 9:0.162233 10:-0.369933 
-1305891.916163739 1:-0.172844 2:0.0258931 3:-0.406659 4:-0.437367 5:-0.0837866 6:0.162689 7:-0.638598 8:-0.89518 9:0.0736617 10:-0.705581 
-892714.1674894326 1:-0.107859 2:0.423583 3:0.533387 4:-0.0130834 5:-0.212109 6:0.273448 7:-0.557079 8:-0.405227 9:-0.677642 10:-0.191836 
-4194304 1:-0.418838 2:-0.424883 3:-0.288748 4:-0.257579 5:0.0557459 6:0.17937 7:-0.768326 8:-0.827236 9:0.16927 10:-0.786478 
-1682470.106922918 1:-0.0687979 2:-0.0452149 3:-0.164357 4:-0.116732 5:0.290521 6:0.522764 7:-0.904834 8:-0.856926 9:0.353047 10:-0.0679744 
-643602.3138627568 1:-0.0570861 2:0.236103 3:-0.147275 4:-0.760491 5:-0.617622 6:0.0815144 7:-0.952459 8:-0.344332 9:-0.101361 10:-0.741041 
-4194304 1:-0.193155 2:-0.115342 3:-0.163322 4:-0.539991 5:-0.259089 6:0.376856 7:-0.64014 8:-0.76997 9:0.0662471 10:-0.389774 
-4194304 1:-0.264744 2:0.388029 3:0.0848688 4:-0.211794 5:0.154129 6:0.0782669 7:-0.826907 8:-0.825467 9:0.330908 10:-0.360073 
-4194304 1:-0.206235 2:0.0988157 3:-0.3496 4:-0.208949 5:-0.2749 6:0.168534 7:-0.945995 8:-0.680574 9:-0.267551 10:-0.246168 
-4194304 1:0.0710669 2:0.366869 3:0.0365245 4:-0.335099 5:-0.477248 6:0.164572 7:-0.817002 8:-0.522651 9:-0.0736148 10:-0.258039 
-711226.4709538572 1:0.394159 2:-0.280632 3:0.23462 4:0.0769846 5:-0.112171 6:0.137074 7:-0.565831 8:-0.618714 9:-0.0756051 10:-0.690775 
-1191317.113391216 1:0.0910915 2:0.0963146 3:0.0288683 4:0.362311 5:0.165607 6:-0.496787 7:-0.525129 8:-0.720107 9:-0.191155 10:-0.746355 
-4194304 1:-0.266697 2:-0.105068 3:-0.122687 4:-0.358412 5:-0.245443 6:0.421557 7:-0.882821 8:-0.586197 9:0.154402 10:-0.537533 
-4194304 1:0.0338778 2:0.0444548 3:-0.308764 4:-0.359065 5:-0.302636 6:0.146939 7:-0.819618 8:-0.610113 9:-0.0323795 10:-0.287559 
-4194304 1:-0.101352 2:-0.17625 3:-0.15877 4:-0.00607932 5:-0.198031 6:0.228615 7:-0.823807 8:-0.618499 9:0.287357 10:-0.411681 
-3477800.174154134 1:-0.0157677 2:-0.506289 3:0.163865 4:-0.603956 5:-0.351203 6:-0.0603347 7:-0.81431 8:-0.704898 9:-0.098265 10:-0.390489 
-4194304 1:-0.154058 2:0.40458 3:0.169099 4:-0.054481 5:-0.104256 6:-0.039065 7:-0.876989 8:-0.380596 9:-0.104002 10:-0.384074 
-4194304 1:-0.173986 2:-0.183827 3:-0.231019 4:-0.185598 5:0.0371945 6:0.162832 7:-0.853961 8:-0.508028 9:0.101421 10:-0.841492 
-4194304 1:0.0941453 2:0.262438 3:-0.118794 4:-0.154339 5:-0.165977 6:-0.361225 7:-0.57953 8:-0.54079 9:-0.377965 10:-0.414646 
-4194304 1:-0.0987095 2:0.171689 3:0.0790404 4:0.111786 5:0.226353 6:-0.0133462 7:-0.784489 8:-0.521375 9:-0.169666 10:-0.432496 
-1031481.991254229 1:-0.201246 2:-0.347375 3:0.446132 4:0.709261 5:0.246028 6:-0.226385 7:-0.759578 8:-0.679154 9:0.0192232 10:0.0770937 
-4194304 1:-0.375128 2:-0.285903 3:-0.104001 4:0.0942859 5:0.0146729 6:-0.0111711 7:-0.80418 8:-0.882592 9:-0.252111 10:-0.425007 
-4194304 1:-0.285161 2:0.0560282 3:0.181337 4:0.123605 5:0.414582 6:0.121561 7:-0.914629 8:-0.734475 9:0.317549 10:-0.16737 
-4194304 1:-0.33549 2:-0.284408 3:-0.111866 4:0.0151816 5:0.00335365 6:0.0821204 7:-0.637554 8:-0.953718 9:0.159475 10:-0.75585 
-708749.3057651316 1:-0.0726009 2:0.315426 3:0.304479 4:0.055077 5:-0.0334663 6:-0.438196 7:-0.769126 8:-0.608434 9:-0.356847 10:-0.220799 
-2891901.121717678 1:-0.20216 2:0.133585 3:-0.362061 4:-0.223325 5:-0.419021 6:-0.583994 7:-0.676428 8:-0.710584 9:0.140393 10:-0.398249 
-4194304 1:0.26512 2:0.0996003 3:-0.347031 4:0.0401535 5:-0.185219 6:-0.17913 7:-0.671714 8:-0.650188 9:-0.184287 10:-0.562084 
-4194304 1:0.0986315 2:-0.33845 3:0.00961993 4:0.614587 5:0.371498 6:-0.215932 7:-0.941917 8:-0.613507 9:-0.190544 10:-0.335066 
-2066855.886565693 1:-0.39081 2:0.251796 3:0.327405 4:0.352661 5:0.428561 6:-0.0557691 7:-0.985361 8:-0.622367 9:0.396936 10:-0.30219 
-4194304 1:0.129692 2:0.228232 3:-0.0617574 4:-0.00390049 5:-0.330306 6:0.126953 7:-0.691096 8:-0.403018 9:-0.402888 10:-0.386231 
-4194304 1:0.183972 2:-0.0606625 3:-0.255872 4:0.145503 5:-0.291658 6:-0.143721 7:-0.766649 8:-0.716199 9:0.0794112 10:-0.332922 
-4194304 1:-0.0996809 2:0.123483 3:0.078802 4:0.0454663 5:-0.080312 6:0.1457 7:-0.572229 8:-0.54312 9:-0.0695173 10:-0.659665 
-4194304 1:-0.379791 2:0.168404 3:-0.372808 4:-0.234955 5:-0.114664 6:-0.136217 7:-0.543059 8:-0.770895 9:0.384436 10:-0.417968 
-4194304 1:-0.0540276 2:-0.140205 3:0.130797 4:-0.114225 5:0.264743 6:-0.117536 7:-0.718923 8:-0.782488 9:0.119723 10:-0.373976 
-4194304 1:0.168573 2:-0.206017 3:-0.385114 4:-0.281516 5:-0.409139 6:-0.222544 7:-0.537692 8:-0.828036 9:-0.0858944 10:-0.508079 
-4194304 1:-0.239872 2:0.202511 3:0.142621 4:-0.0101683 5:-0.0392449 6:-0.112537 7:-0.669343 8:-0.526095 9:0.0601724 10:-0.319036 
-4194304 1:-0.00574359 2:-0.192703 3:-0.012947 4:0.00876454 5:0.292854 6:-0.0219933 7:-0.921422 8:-0.568816 9:0.00356159 10:-0.497183 
-1041721.959093405 1:0.366864 2:-0.079641 3:-0.278344 4:-0.346158 5:-0.436963 6:-0.536021 7:-0.595872 8:-0.237375 9:-0.449058 10:-0.608428 
-4194304 1:-0.203326 2:0.369713 3:0.486731 4:0.177628 5:0.187812 6:0.12017 7:-0.986645 8:-0.704395 9:0.294342 10:-0.398556 
-4194304 1:0.126673 2:-0.155849 3:-0.125339 4:0.38591 5:0.134409 6:-0.175601 7:-0.86853 8:-0.893197 9:0.170454 10:-0.758826 
-4194304 1:-0.295717 2:0.326386 3:-0.0213682 4:0.0994792 5:-0.065321 6:-0.421034 7:-0.938092 8:-0.957308 9:0.211963 10:-0.554764 
-4194304 1:0.257913 2:-0.348944 3:-0.414218 4:-0.341168 5:0.0381543 6:-0.195449 7:-0.697585 8:-0.576191 9:-0.0545191 10:-0.215732 
-4194304 1:0.00382197 2:0.0701518 3:-0.133356 4:-0.201775 5:-0.0882698 6:0.169565 7:-0.804884 8:-0.606644 9:0.152854 10:-0.425167 
-3183328.380355513 1:0.0703744 2:0.0512468 3:-0.221418 4:-0.413965 5:-0.805689 6:-0.53285 7:-0.913177 8:-0.604853 9:-0.06741 10:-0.459463 
-3226436.636788845 1:0.207486 2:-0.104921 3:-0.124669 4:0.210549 5:0.276874 6:0.168436 7:-0.853793 8:-0.798185 9:0.471875 10:-0.762403 
-4194304 1:0.339664 2:-0.0285168 3:-0.117377 4:-0.067156 5:-0.174206 6:0.0298312 7:-0.717117 8:-0.713725 9:0.0519904 10:-0.307087 
-2827242.271349095 1:0.590626 2:-0.418851 3:-0.537129 4:0.17153 5:-0.264129 6:-0.712038 7:-0.889949 8:-0.875752 9:-0.0977707 10:-0.550981 
-4194304 1:-0.0503947 2:-0.0805973 3:0.128291 4:0.0446206 5:0.33064 6:0.11549 7:-0.743748 8:-0.658839 9:0.0440555 10:-0.317548 
-4194304 1:-0.176449 2:0.313219 3:0.575013 4:0.370977 5:-0.0652742 6:-0.334566 7:-0.977234 8:-0.495407 9:0.375876 10:-0.285069 
-418512.3411156318 1:-0.0548029 2:-0.369173 3:-0.381617 4:0.144648 5:0.464645 6:0.0320239 7:-0.948517 8:-0.791767 9:0.311799 10:0.213614 
-4194304 1:-0.0563936 2:-0.0205968 3:-0.347091 4:0.141315 5:0.143918 6:0.329513 7:-0.810335 8:-0.689687 9:0.165225 10:-0.615099 
-4194304 1:-0.291453 2:0.348699 3:0.203582 4:-0.0101882 5:-0.108415 6:0.0694925 7:-0.823174 8:-0.59808 9:-0.211682 10:-0.106109 
-4194304 1:0.111386 2:0.0459015 3:-0.0550506 4:-0.157791 5:0.0919708 6:0.0652113 7:-0.943668 8:-0.842663 9:0.0674178 10:-0.528443 
-4194304 1:-0.0912026 2:0.105951 3:0.017791 4:-0.220748 5:-0.111835 6:0.0961495 7:-0.746393 8:-0.432763 9:-0.293177 10:-0.264697 
-4194304 1:-0.15684 2:-0.349582 3:-0.436578 4:-0.159015 5:0.0319894 6:0.314021 7:-0.823592 8:-0.539245 9:0.0594569 10:-0.628151 
-2806393.74861045 1:-0.0454524 2:-0.128289 3:-0.0545502 4:0.256743 5:-0.118607 6:-0.247996 7:-0.873482 8:-0.418345 9:0.411154 10:-0.519043 
-4194304 1:0.246117 2:-0.561974 3:-0.517186 4:-0.035767 5:-0.0959272 6:0.218618 7:-0.638827 8:-0.754103 9:-0.0797936 10:-0.417433 
-3515563.93977473 1:0.109904 2:-0.0051492 3:-0.430431 4:-0.2789 5:0.0303565 6:-0.480636 7:-0.55194 8:-0.750381 9:0.116042 10:-0.280687 
-4194304 1:-0.31565 2:0.0549984 3:0.0220694 4:0.105349 5:0.489071 6:-0.148228 7:-0.693199 8:-0.489215 9:-0.0146626 10:-0.417095 
-1044476.646672779 1:0.567737 2:-0.544884 3:-0.392525 4:-0.387536 5:-0.572785 6:-0.251443 7:-0.98058 8:-0.798961 9:-0.314835 10:-0.429198 
-4194304 1:-0.170911 2:0.120467 3:0.515833 4:0.159203 5:-0.00132273 6:-0.092045 7:-0.991073 8:-0.672868 9:-0.270738 10:-0.451185 
-629515.4612333613 1:-0.398379 2:0.415663 3:0.537535 4:-0.231493 5:-0.286927 6:-0.337444 7:-0.844191 8:-0.724715 9:0.0167127 10:-0.151425 
-1154877.231997718 1:-0.0343741 2:0.180001 3:-0.728046 4:0.164854 5:-0.0363731 6:-0.0775831 7:-0.723663 8:-0.543266 9:-0.0160935 10:-0.507113 
-4194304 1:-0.474038 2:-0.168305 3:0.294747 4:0.175649 5:0.147209 6:0.376947 7:-0.823551 8:-0.724846 9:0.15664 10:-0.289798 
-4194304 1:-0.435662 2:0.0270701 3:-0.123786 4:-0.286919 5:0.0529541 6:-0.0886827 7:-0.950465 8:-0.717452 9:-0.0716897 10:-0.0505139 
-494245.388046592 1:-0.183466 2:-0.351347 3:0.0582552 4:0.108035 5:-0.0792487 6:-0.230498 7:0.0459436 8:-0.0595386 9:0.098533 10:0.34827 
-861388.4794267035 1:-0.406892 2:0.405095 3:0.390904 4:-0.439745 5:-0.390531 6:-0.212298 7:-0.971391 8:-0.102219 9:-0.0985512 10:0.39989 
-2756562.359620346 1:-0.0316725 2:0.0593875 3:0.00294481 4:0.0566788 5:-0.177827 6:-0.0285061 7:-0.850586 8:-0.348893 9:-0.14296 10:0.406326 
-2145464.728012053 1:-0.530559 2:0.143736 3:0.334806 4:-0.524924 5:-0.196386 6:0.262002 7:-0.918865 8:-0.736167 9:0.24884 10:0.14576 
-1768803.222903793 1:-0.250106 2:-0.0158154 3:0.215986 4:-0.110613 5:-0.0655317 6:0.391891 7:-0.181977 8:-0.244179 9:0.0584293 10:0.496171 
-4194304 1:-0.120204 2:-0.0249369 3:0.0329782 4:0.149393 5:0.0243261 6:0.179614 7:-0.67814 8:-0.407827 9:0.224606 10:0.0576122 
-4194304 1:-0.108535 2:0.0327097 3:0.320979 4:0.127297 5:-0.396909 6:-0.16621 7:-0.858419 8:-0.674101 9:0.0136168 10:-0.014135 
-318659.3111427148 1:-0.420046 2:0.0669151 3:0.140067 4:0.0162263 5:0.22187 6:-0.478083 7:-0.440282 8:-0.733046 9:0.517403 10:0.124083 
-524828.3814596284 1:0.143337 2:0.183557 3:0.0335129 4:-0.330974 5:-0.263902 6:-0.0385667 7:-0.988043 8:-0.544669 9:-0.0773221 10:-0.246116 
-2083951.004583234 1:0.294769 2:-0.0353088 3:0.151051 4:-0.0800101 5:0.000850606 6:0.0734574 7:-0.716884 8:-0.428627 9:-0.126596 10:0.173483 
-4194304 1:-0.261948 2:-0.168502 3:0.0135481 4:0.158785 5:0.106478 6:0.111855 7:-0.580865 8:-0.739463 9:0.196002 10:-0.106134 
-3845939.114977998 1:0.223102 2:0.144349 3:0.214064 4:0.0128436 5:0.061269 6:-0.51353 7:-0.708232 8:-0.744818 9:0.136568 10:0.176324 
-4194304 1:-0.0623263 2:-0.110904 3:-0.0155056 4:0.00305384 5:-0.0619615 6:-0.0913012 7:-0.836196 8:-0.200022 9:0.490204 10:0.24687 
-2023107.461747077 1:0.322577 2:0.0997229 3:-0.260302 4:-0.0428109 5:-0.228011 6:0.125856 7:-0.951553 8:-0.900755 9:0.481423 10:0.125665 
-4194304 1:0.173572 2:-0.136356 3:0.0881806 4:0.336742 5:0.0517835 6:-0.342017 7:-0.717927 8:-0.401591 9:0.0487514 10:0.192418 
-2451858.220721464 1:-0.20368 2:-0.574455 3:-0.353054 4:0.0337464 5:0.250084 6:0.486614 7:-0.84435 8:-0.998273 9:-0.315759 10:0.196584 
-4194304 1:-0.297743 2:-0.00956281 3:-0.0818288 4:0.351865 5:0.188364 6:-0.234808 7:-0.960264 8:-0.789807 9:-0.0979658 10:0.125069 
-4194304 1:-0.0647112 2:0.42888 3:0.26442 4:0.318824 5:-0.140572 6:0.276183 7:-0.624723 8:-0.380829 9:-0.0715986 10:0.125176 
-2806800.277154457 1:-0.120639 2:0.299438 3:0.271439 4:-0.215853 5:-0.578833 6:-0.0233255 7:-0.969386 8:-0.540125 9:0.259572 10:0.0353144 
-1884883.046221763 1:-0.0403186 2:-0.199814 3:-0.00521967 4:-0.0692254 5:-0.360274 6:-0.473449 7:-0.583324 8:-0.914715 9:-0.144886 10:0.128506 
-617221.7805082465 1:-0.12842 2:-0.513621 3:-0.255666 4:0.374011 5:-0.147935 6:-0.364511 7:-0.993366 8:-0.181692 9:0.399954 10:0.0925332 
-152792.6897457901 1:-0.00903375 2:0.363804 3:0.30947 4:0.276093 5:-0.0588537 6:-0.0806151 7:-0.679712 8:-0.238372 9:-0.125192 10:0.478131 
-1390897.060079068 1:0.513071 2:-0.607165 3:-0.399921 4:0.153224 5:0.0036736 6:0.0873822 7:-0.246855 8:-0.15945 9:-0.174986 10:-0.462493 
-4194304 1:-0.0480973 2:-0.0320477 3:-0.141125 4:-0.13079 5:-0.340135 6:0.0545482 7:-0.210453 8:-0.0888719 9:-0.0235991 10:-0.373885 
-1239015.402160393 1:0.265349 2:-0.232572 3:0.0347586 4:0.126839 5:-0.295915 6:-0.00561251 7:-0.273827 8:-0.0952448 9:-0.159233 10:-0.419321 
-3703388.199622332 1:0.403671 2:0.142486 3:-0.0497648 4:-0.35495 5:-0.39535 6:0.171603 7:-0.116569 8:-0.223764 9:-0.0801318 10:-0.315386 
-1404850.684047571 1:0.0795807 2:0.384744 3:-0.209247 4:-0.115677 5:-0.390853 6:0.288106 7:-0.181981 8:-0.0990105 9:-0.0642231 10:-0.400976 
-4194304 1:0.13682 2:-0.179462 3:-0.0475512 4:-0.136451 5:-0.0781211 6:0.0165637 7:-0.167139 8:-0.235597 9:-0.201913 10:-0.420274 
-1109213.024542958 1:0.478248 2:-0.235564 3:-0.453656 4:-0.242845 5:-0.784543 6:0.130593 7:-0.155691 8:-0.0281536 9:-0.234758 10:-0.315604 
-1397573.029708522 1:-0.267325 2:0.0287865 3:0.410525 4:0.264433 5:-0.212724 6:-0.22818 7:-0.274172 8:-0.168177 9:-0.36406 10:-0.226975 
-4194304 1:0.118502 2:-0.0835152 3:0.0293306 4:0.252106 5:-0.0409715 6:0.190279 7:-0.241235 8:-0.226726 9:-0.315837 10:-0.265543 
-4194304 1:0.169755 2:-0.276978 3:-0.299145 4:-0.0398959 5:-0.236798 6:0.207225 7:-0.21746 8:-0.132118 9:-0.311466 10:-0.556572 
-3535344.491053041 1:0.236142 2:-0.257558 3:0.141043 4:0.0842175 5:0.0802418 6:0.368252 7:-0.212627 8:-0.136712 9:-0.444378 10:-0.408744 
-782108.257898909 1:0.210324 2:-0.194738 3:-0.306544 4:0.0521321 5:0.0954005 6:0.204997 7:-0.317618 8:-0.0589201 9:-0.0443078 10:-0.425781 
-2317043.790225497 1:0.180758 2:-0.0003678 3:-0.140818 4:-0.207655 5:-0.560137 6:-0.13606 7:-0.147023 8:-0.352451 9:-0.0301031 10:-0.395648 
-4194304 1:-0.0297532 2:-0.0518353 3:-0.552438 4:-0.232528 5:0.102705 6:0.556282 7:-0.0428338 8:-0.0687145 9:-0.0989934 10:-0.229897 
-2276920.107384871 1:0.0188735 2:-0.127161 3:-0.403565 4:-0.229871 5:-0.148481 6:0.145073 7:-0.182177 8:-0.0755578 9:-0.134076 10:-0.405063 
-4194304 1:-0.0435426 2:-0.0175073 3:0.0895054 4:0.0754226 5:0.11745 6:0.210539 7:-0.231011 8:-0.251769 9:-0.0438005 10:-0.21488 
-1874230.770661175 1:0.407916 2:0.178628 3:-0.125361 4:0.22989 5:0.199444 6:-0.12842 7:-0.207669 8:-0.175863 9:-0.23814 10:-0.338091 
-4194304 1:0.165156 2:-0.271093 3:-0.180076 4:-0.0526007 5:-0.214641 6:0.0370825 7:-0.130998 8:-0.192007 9:-0.315225 10:-0.403612 
-3473473.732997426 1:0.0567623 2:-0.18824 3:-0.509358 4:-0.414816 5:0.231115 6:0.11508 7:-0.0821643 8:-0.259858 9:0.101564 10:-0.405459 
-4194304 1:0.419592 2:-0.0259422 3:-0.100507 4:-0.533646 5:-0.140923 6:0.43806 7:-0.0658385 8:-0.0779884 9:-0.348461 10:-0.314134 
-4194304 1:0.0869055 2:0.00115244 3:-0.208563 4:-0.261161 5:-0.575659 6:-0.237394 7:-0.369034 8:-0.174459 9:-0.250849 10:-0.530407 
-4194304 1:0.0282145 2:0.0696369 3:-0.114294 4:-0.0271313 5:0.124214 6:0.30878 7:-0.128815 8:-0.222176 9:-0.421992 10:-0.311977 
-763454.8592140412 1:-0.0740876 2:0.110953 3:0.41333 4:0.176952 5:0.144324 6:0.133599 7:-0.0782253 8:-0.0956782 9:-0.167624 10:-0.241774 
-4194304 1:0.10108 2:-0.190521 3:-0.198278 4:-0.0982963 5:-0.0178588 6:0.139368 7:-0.190882 8:-0.231932 9:-0.0875724 10:-0.513164 
-1674276.966662407 1:0.102193 2:0.001839 3:0.0287143 4:0.0135997 5:0.213051 6:-0.20966 7:-0.197777 8:-0.0808939 9:-0.246816 10:-0.517146 
-4194304 1:0.0439515 2:0.0947944 3:-0.131813 4:-0.171541 5:-0.00213432 6:0.163429 7:-0.261304 8:-0.180219 9:-0.552855 10:-0.568506 
-3006426.676331682 1:0.109535 2:-0.041022 3:0.00648187 4:0.0641604 5:-0.259333 6:0.15075 7:-0.138996 8:-0.0515105 9:-0.186797 10:-0.280577 
-4194304 1:0.106323 2:0.139347 3:0.0736465 4:-0.0879991 5:-0.0447426 6:0.017046 7:-0.156798 8:-0.18187 9:0.0638276 10:-0.406458 
-2955589.310015105 1:-0.19064 2:0.0789545 3:0.0886547 4:0.194353 5:0.00931569 6:-0.105664 7:-0.279691 8:-0.0839627 9:0.13039 10:-0.311945 
