svm_type c_svc
kernel_type rbf
gamma 0.000976563
nr_class 2
total_sv 249
rho 6182.77
label 1 -1
nr_sv 124 125
SV
33554432 1:0.059809 2:-0.369811 3:-0.247547 4:-0.167024 5:-0.588397 6:0.400796 7:-0.812956 8:-0.706512 9:-0.169809 10:-0.562971 
33554432 1:0.101889 2:-0.145428 3:0.0566328 4:-0.377531 5:-0.490048 6:0.0966707 7:-0.803174 8:-0.715483 9:0.00940218 10:-0.363956 
33554432 1:0.177867 2:0.109261 3:0.298869 4:0.193616 5:-0.343139 6:-0.492519 7:-0.728525 8:-0.568635 9:-0.273886 10:-0.506783 
32309542.43128466 1:0.200737 2:-0.0254518 3:-0.00131389 4:-0.454022 5:0.00511339 6:0.0496415 7:-0.521206 8:-0.757601 9:0.0448099 10:-0.532433 
33554432 1:-0.0112343 2:-0.100581 3:-0.121687 4:-0.147952 5:-0.258379 6:-0.119082 7:-0.518486 8:-0.60029 9:-0.245724 10:-0.270029 
2292435.601299516 1:-0.574846 2:0.627909 3:1 4:-0.334858 5:-0.0444793 6:0.259267 7:-0.963382 8:-0.590328 9:0.220626 10:-0.555567 
33554432 1:0.05572 2:0.175588 3:-0.041624 4:0.147881 5:0.361199 6:0.0546524 7:-0.943661 8:-0.661418 9:0.337815 10:0.0164292 
33554432 1:-0.644604 2:0.112351 3:0.0258369 4:-0.0436665 5:-0.212419 6:-0.191008 7:-0.951759 8:-0.529394 9:-0.267993 10:0.0315788 
33554432 1:-0.0923608 2:-0.0743692 3:-0.294437 4:0.17736 5:0.0746719 6:0.0540729 7:-0.763105 8:-0.737058 9:0.272502 10:-0.139813 
33554432 1:-0.0577409 2:0.0822156 3:-0.00634163 4:-0.0782889 5:-0.0374344 6:-0.0983493 7:-0.773668 8:-0.619566 9:0.0730893 10:-0.8501 
33554432 1:0.371313 2:-0.0222887 3:-0.204773 4:-0.275139 5:-0.30851 6:-0.181895 7:-0.438076 8:-0.106773 9:-0.0158724 10:-0.49404 
33554432 1:-0.200938 2:0.117892 3:0.0853757 4:0.178842 5:0.43432 6:0.0356231 7:-0.706049 8:-0.748013 9:0.268248 10:-0.375847 
33554432 1:-0.00534651 2:-0.355712 3:-0.095794 4:-0.279427 5:-0.206613 6:0.100846 7:-0.943455 8:-0.554496 9:-0.108203 10:-0.851118 
14437277.88131573 1:0.11266 2:-0.491136 3:-0.532304 4:-0.247372 5:-0.238107 6:0.263263 7:-0.803135 8:-0.811709 9:-0.145211 10:-0.636013 
33554432 1:0.0769807 2:0.167741 3:-0.37981 4:-0.533179 5:-0.619233 6:-0.0496274 7:-0.516669 8:-0.418983 9:-0.267837 10:-0.535911 
33554432 1:-0.270273 2:-0.128362 3:-0.00666162 4:0.515645 5:0.15943 6:-0.272061 7:-0.750069 8:-0.639856 9:0.156874 10:-0.198783 
33554432 1:0.173837 2:-0.0712552 3:-0.00632187 4:0.0334181 5:-0.263083 6:-0.0378069 7:-0.833532 8:-0.602956 9:0.0442116 10:-0.230727 
33554432 1:-0.157207 2:-0.0564451 3:0.226956 4:-0.0109643 5:0.0831877 6:-0.426582 7:-0.84814 8:-0.811421 9:0.104296 10:-0.305791 
33554432 1:-0.304526 2:0.212417 3:0.118476 4:0.210112 5:0.137771 6:0.175288 7:-0.894137 8:-0.838875 9:0.382224 10:-0.280388 
33554432 1:-0.0599083 2:-0.163083 3:-0.287732 4:-0.275169 5:0.112161 6:0.420179 7:-0.726463 8:-0.670553 9:0.000257558 10:-0.410009 
33554432 1:-0.246166 2:0.390996 3:0.0956037 4:-0.150906 5:-0.177882 6:-0.37777 7:-0.975386 8:-0.591785 9:-0.0295307 10:-0.301114 
33554432 1:0.0572398 2:0.152294 3:-0.00105183 4:-0.105937 5:-0.254598 6:0.103839 7:-0.560007 8:-0.634709 9:-0.039651 10:-0.0640068 
33554432 1:-0.219649 2:0.106809 3:0.189682 4:0.192283 5:0.243258 6:-0.385615 7:-0.817299 8:-0.682131 9:-0.135104 10:-0.362984 
5056629.011897423 1:-0.251298 2:0.598117 3:0.253345 4:-0.541323 5:-0.210985 6:0.0451325 7:-0.912858 8:-0.575139 9:0.349991 10:-0.315143 
33554432 1:0.178359 2:-0.146262 3:0.219608 4:0.401948 5:0.427102 6:-0.209428 7:-0.796622 8:-0.899425 9:0.362465 10:-0.692441 
33554432 1:0.148816 2:-0.0392075 3:-0.16003 4:0.0268617 5:-0.0985805 6:-0.371506 7:-0.908094 8:-0.424005 9:0.0695902 10:-0.673178 
33554432 1:0.390758 2:-0.323321 3:-0.331398 4:0.0471477 5:-0.159756 6:-0.157148 7:-0.882793 8:-0.444788 9:-0.0272934 10:0.0618613 
33554432 1:-0.0835941 2:0.308683 3:-0.257815 4:0.0194995 5:-0.265194 6:-0.508998 7:-0.986622 8:-0.67103 9:-0.086922 10:-0.551555 
33554432 1:0.253382 2:-0.32207 3:-0.0639315 4:0.0653642 5:0.0313339 6:-0.317145 7:-0.754788 8:-0.62317 9:0.122481 10:-0.648364 
33554432 1:-0.153853 2:0.196847 3:-0.355522 4:-0.197438 5:-0.484441 6:-0.156612 7:-0.827981 8:-0.70223 9:-0.0793514 10:-0.209027 
33554432 1:-0.385915 2:0.152588 3:-0.24488 4:-0.162238 5:0.19965 6:-0.403764 7:-0.807648 8:-0.417016 9:0.216125 10:-0.263787 
33554432 1:0.210596 2:-0.558836 3:-0.375413 4:-0.490496 5:-0.350313 6:0.373238 7:-0.911426 8:-0.643262 9:-0.457976 10:-0.569803 
31013945.40993693 1:-0.592739 2:-0.211485 3:-0.262917 4:-0.833153 5:-0.501682 6:0.0704184 7:-0.868828 8:-0.695974 9:0.0575708 10:-0.380928 
33554432 1:0.104108 2:-0.224996 3:-0.219087 4:0.0179076 5:0.0267609 6:-0.295348 7:-0.482413 8:-0.699927 9:-0.350152 10:-0.397631 
33554432 1:0.0941453 2:0.322953 3:-0.0728795 4:-0.0842086 5:-0.108372 6:-0.0582463 7:-0.779376 8:-0.855877 9:0.0212915 10:-0.770492 
33554432 1:-0.121715 2:-0.143834 3:-0.0128679 4:-0.0304244 5:0.026915 6:-0.311885 7:-0.87294 8:-0.727608 9:0.239722 10:0.108528 
33554432 1:0.228397 2:0.0322438 3:-0.0218581 4:0.0920772 5:-0.166834 6:-0.413562 7:-0.77786 8:-0.73185 9:0.163677 10:-0.252469 
33554432 1:0.142221 2:-0.260868 3:-0.513788 4:0.177867 5:0.304363 6:-0.036579 7:-0.208259 8:-0.56159 9:-0.140502 10:-0.409185 
18426541.5494737 1:0.160523 2:-0.101832 3:-0.0610002 4:0.36051 5:0.406636 6:-0.551935 7:-0.877688 8:-0.638882 9:-0.150024 10:-0.451003 
33554432 1:0.0102628 2:-0.202069 3:-0.35089 4:0.0676425 5:0.201952 6:-0.143838 7:-0.927201 8:-0.746395 9:-0.111897 10:-0.773092 
33554432 1:-0.126603 2:-0.129221 3:-0.157531 4:0.129097 5:-0.0482309 6:0.0830587 7:-0.934456 8:-0.766842 9:0.074195 10:-0.19721 
8815798.451674266 1:0.751702 2:-0.18927 3:-0.180568 4:0.224498 5:-0.0818591 6:-0.382473 7:-0.969365 8:-0.661113 9:0.22315 10:-0.762108 
33554432 1:0.574785 2:-0.482824 3:-0.585578 4:-0.110374 5:-0.333724 6:-0.467379 7:-0.730323 8:-0.908231 9:-0.0157943 10:-0.243992 
33554432 1:0.0854141 2:-0.335115 3:-0.0567757 4:0.138071 5:-0.211157 6:-0.358954 7:-0.666181 8:-0.650875 9:0.183605 10:-0.727266 
33554432 1:0.192751 2:-0.391266 3:-0.403056 4:-0.00431835 5:-0.160308 6:-0.213801 7:-0.842785 8:-0.513867 9:-0.0756701 10:-0.443894 
33554432 1:0.057755 2:0.0132899 3:-0.27972 4:-0.193369 5:-0.133604 6:-0.119062 7:-0.709837 8:-0.47819 9:-0.477392 10:-0.122037 
33554432 1:-0.0106127 2:-0.134811 3:-0.174174 4:-0.00133366 5:-0.124222 6:0.0858892 7:-0.991551 8:-0.795764 9:-0.00637652 10:-0.236021 
33554432 1:0.0892526 2:-0.205527 3:-0.650121 4:0.132858 5:0.092993 6:0.148852 7:-0.292772 8:-0.810054 9:-0.0528671 10:-0.845099 
33554432 1:-0.287161 2:0.135351 3:0.0159974 4:-0.227255 5:0.0054587 6:0.406644 7:-0.8716 8:-0.614025 9:0.428988 10:-0.745038 
33554432 1:-0.422681 2:0.286492 3:-0.0198578 4:-0.380957 5:-0.204284 6:-0.04597 7:-0.888683 8:-0.690656 9:0.179456 10:-0.337066 
18106895.11187264 1:0.441321 2:0.249172 3:-0.625233 4:-0.197219 5:-0.0495146 6:-0.181481 7:-0.650654 8:-0.688321 9:-0.13046 10:-0.704738 
8622539.313489514 1:0.345292 2:-0.311944 3:-0.347431 4:-0.322647 5:-0.383455 6:0.108262 7:-0.991704 8:-0.894155 9:0.0766795 10:-0.630782 
33554432 1:-0.0268484 2:0.317265 3:0.165421 4:-0.552696 5:-0.258846 6:0.23972 7:-0.832999 8:-0.468042 9:0.207852 10:-0.540819 
33554432 1:0.0352037 2:0.0821666 3:0.219107 4:-0.176107 5:-0.194014 6:-0.127324 7:-0.853594 8:-0.596032 9:-0.366979 10:-0.274593 
33554432 1:0.0656023 2:-0.0256725 3:-0.114342 4:-0.18138 5:-0.154668 6:-0.121015 7:-0.554295 8:-0.535889 9:-0.181581 10:-0.719224 
33554432 1:-0.268795 2:-0.0350636 3:0.0915755 4:0.403559 5:0.186546 6:-0.0411305 7:-0.729923 8:-0.505706 9:0.21247 10:-0.160156 
33554432 1:-0.0437648 2:0.0840792 3:0.150509 4:-0.593317 5:-0.812484 6:0.105908 7:-0.856941 8:-0.626766 9:0.289321 10:-0.404128 
33554432 1:-0.548296 2:-0.262168 3:-0.00810226 4:-0.249958 5:-0.438372 6:-0.414823 7:-0.877512 8:-0.743427 9:-0.130642 10:-0.712812 
10149141.50172091 1:0.236449 2:-0.155236 3:-0.0519336 4:-0.106922 5:-0.471035 6:-0.346936 7:-0.892663 8:-0.817905 9:0.0135647 10:-0.835181 
33554432 1:0.261267 2:0.440821 3:-0.138194 4:-0.172466 5:-0.271322 6:-0.0304355 7:-0.927753 8:-0.58753 9:0.107951 10:-0.41434 
33554432 1:0.493261 2:0.0520315 3:0.217185 4:0.483858 5:0.276921 6:-0.144151 7:-0.356944 8:-0.413394 9:-0.03156 10:-0.327892 
33554432 1:-0.166068 2:0.275556 3:-0.284292 4:-0.52542 5:-0.54245 6:0.134378 7:-0.83668 8:-0.693156 9:0.0115875 10:-0.299301 
33554432 1:0.0722653 2:-0.478704 3:-0.0032839 4:0.12862 5:-0.0237935 6:-0.064448 7:-0.810278 8:-0.688959 9:-0.19507 10:-0.223306 
33554432 1:-0.0829252 2:0.222568 3:0.336175 4:-0.28864 5:-0.109305 6:0.146538 7:-0.908707 8:-0.677474 9:0.271318 10:-0.261669 
33554432 1:0.321934 2:-0.280362 3:-0.0967092 4:0.232149 5:-0.364537 6:-0.0175355 7:-0.946833 8:-0.777623 9:-0.124255 10:-0.304661 
21660314.09656233 1:0.515066 2:-0.223794 3:-0.221707 4:-0.0687379 5:-0.662072 6:-0.011362 7:-0.84015 8:-0.64617 9:-0.625534 10:-0.838119 
33554432 1:-0.108483 2:-0.0705931 3:-0.0934869 4:0.351845 5:0.0386869 6:0.117543 7:-0.899432 8:-0.772485 9:0.119203 10:-0.288486 
33554432 1:-0.670251 2:0.274502 3:-0.310875 4:-0.238408 5:-0.32236 6:0.191289 7:-0.70775 8:-0.601599 9:0.19673 10:-0.578061 
33554432 1:0.076586 2:0.224579 3:0.24763 4:-0.156677 5:-0.184677 6:-0.120702 7:-0.812111 8:-0.337473 9:-0.274849 10:-0.359669 
33554432 1:0.327035 2:0.0231959 3:-0.134765 4:-0.191747 5:-0.46978 6:-0.215536 7:-0.669859 8:-0.501318 9:-0.360928 10:-0.180398 
27366864.03314815 1:-0.114647 2:0.164529 3:0.0426729 4:0.0269413 5:0.169155 6:0.190604 7:-0.810353 8:-0.816549 9:-0.176352 10:-0.730422 
33554432 1:0.196034 2:-0.355565 3:-0.396432 4:-0.0259673 5:-0.169085 6:0.193849 7:-0.302006 8:-0.458975 9:-0.181841 10:-0.464371 
33554432 1:0.129108 2:-0.0339112 3:0.0399602 4:-0.0306831 5:0.0197102 6:-0.261345 7:-0.791458 8:-0.862524 9:0.0405953 10:-0.626308 
33554432 1:0.593642 2:-0.288086 3:-0.719476 4:-0.0585303 5:-0.131099 6:-0.0279848 7:-0.912595 8:-0.601144 9:0.171547 10:-0.744383 
16565318.58401599 1:-0.0434339 2:0.246353 3:-0.238369 4:0.137176 5:-0.0185651 6:0.0407205 7:-0.835185 8:-0.501165 9:-0.0630393 10:-0.568889 
33554432 1:-0.544991 2:0.45107 3:0.143852 4:-0.240527 5:0.281193 6:0.116861 7:-0.930935 8:-0.835554 9:0.285432 10:0.00269601 
33554432 1:-0.294427 2:0.526396 3:-0.156464 4:-0.0998284 5:-0.206126 6:-0.246828 7:-0.96651 8:-0.815744 9:0.469612 10:-0.355188 
33554432 1:0.0212608 2:0.10958 3:0.126728 4:-0.160119 5:-0.117725 6:-0.185939 7:-0.903507 8:-0.540245 9:0.455719 10:-0.444138 
33554432 1:0.0877163 2:-0.174264 3:-0.36165 4:-0.141733 5:-0.399615 6:-0.339784 7:-0.993921 8:-0.497796 9:-0.23961 10:-0.514909 
33554432 1:-0.191474 2:0.208028 3:-0.0557762 4:0.0686374 5:-0.0649153 6:0.188347 7:-0.76887 8:-0.583535 9:0.247891 10:-0.240356 
33554432 1:-0.13942 2:0.321874 3:0.192462 4:-0.191001 5:-0.0773407 6:-0.0188977 7:-0.810168 8:-0.725669 9:0.384631 10:-0.680402 
33554432 1:-0.152895 2:0.200623 3:0.456325 4:-0.42896 5:-0.480491 6:-0.847673 7:-0.928466 8:-0.617275 9:0.0610829 10:-0.752073 
33554432 1:-0.489706 2:0.240738 3:0.47139 4:0.261886 5:0.065403 6:-0.442314 7:-0.856337 8:-0.839397 9:0.323025 10:-0.232988 
33554432 1:-0.15784 2:-0.00833681 3:-0.0295419 4:-0.465644 5:-0.325454 6:-0.423803 7:-0.868837 8:-0.677346 9:0.294004 10:-0.473161 
33554432 1:0.00142763 2:0.285315 3:0.130782 4:0.251131 5:0.0213295 6:-0.246662 7:-0.869084 8:-0.698756 9:0.00915503 10:-0.483613 
33554432 1:-0.0915761 2:-0.0656646 3:-0.0541591 4:0.12661 5:0.217942 6:-0.209425 7:-0.932803 8:-0.640934 9:0.407291 10:-0.641256 
33554432 1:-0.28462 2:0.0897678 3:-0.117156 4:0.0482321 5:-0.216635 6:-0.0837177 7:-0.880713 8:-0.782826 9:-0.0877675 10:-0.362874 
33554432 1:-0.242566 2:0.218915 3:-0.270412 4:-0.201557 5:-0.0600945 6:-0.0907534 7:-0.957958 8:-0.92244 9:0.562593 10:-0.548093 
5694945.419883376 1:-0.513305 2:0.0102739 3:0.120342 4:-0.127347 5:0.153367 6:-0.00416013 7:-0.94468 8:-0.59566 9:0.29632 10:-0.101231 
33554432 1:-0.327373 2:-0.183827 3:-0.214548 4:0.138121 5:0.307018 6:0.172571 7:-0.850434 8:-0.662054 9:-0.13444 10:-0.661872 
27181474.61584937 1:-0.184154 2:-0.0616924 3:-0.376993 4:0.154955 5:0.437369 6:0.159498 7:-0.897489 8:-0.811109 9:-0.101452 10:-0.431117 
3156800.680461997 1:-0.065295 2:-0.785352 3:-0.064661 4:0.377304 5:0.091405 6:-0.167154 7:-0.948479 8:-0.944342 9:0.252392 10:-0.462632 
33554432 1:-0.0500449 2:-0.0954074 3:0.12465 4:0.513436 5:0.224595 6:0.12737 7:-0.883658 8:-0.729988 9:0.180223 10:-0.456805 
33554432 1:-0.331594 2:-0.149744 3:-0.422336 4:-0.093869 5:-0.157795 6:-0.130618 7:-0.926612 8:-0.87043 9:0.197524 10:-0.470825 
11457454.49194617 1:0.307266 2:-0.249221 3:-0.174307 4:0.48533 5:0.185725 6:0.155858 7:-0.922936 8:-0.737735 9:0.166695 10:-0.59092 
33554432 1:0.0392857 2:-0.620455 3:-0.157583 4:0.521325 5:0.31718 6:-0.370911 7:-0.972563 8:-0.947772 9:0.0805039 10:-0.488862 
5954829.232086024 1:-0.152841 2:-0.330702 3:-0.946584 4:0.171828 5:0.140818 6:-0.549476 7:-0.916586 8:-0.680898 9:-0.23412 10:-0.716848 
33554432 1:-0.269112 2:-0.015276 3:-0.0644213 4:0.104523 5:0.199869 6:0.175424 7:-0.808473 8:-0.749044 9:0.0734666 10:-0.619896 
33554432 1:-0.228853 2:-0.56168 3:-0.0779823 4:0.0222852 5:-0.185824 6:-0.134136 7:-0.881767 8:-0.816412 9:0.0837689 10:-0.569963 
33554432 1:0.104054 2:-0.416718 3:0.00139092 4:0.322535 5:0.216366 6:-0.117458 7:-0.898144 8:-0.807107 9:-0.347394 10:-0.599643 
33554432 1:0.247355 2:-0.441017 3:-0.249194 4:-0.0380951 5:-0.125585 6:0.251351 7:-0.855816 8:-0.649019 9:0.219091 10:-0.409034 
25633039.80660659 1:0.0925995 2:-0.0539686 3:-0.139666 4:0.343925 5:0.177336 6:0.155754 7:-0.952352 8:-0.700862 9:-0.355706 10:-0.247043 
33554432 1:-0.315633 2:-0.0337641 3:-0.176786 4:0.0944749 5:0.185867 6:0.220003 7:-0.982528 8:-0.794923 9:0.0293825 10:-0.561137 
33554432 1:0.0781743 2:-0.245764 3:-0.10024 4:0.364749 5:0.104076 6:-0.143435 7:-0.930182 8:-0.64054 9:-0.181399 10:-0.403004 
33554432 1:-0.0313629 2:-0.11978 3:-0.429958 4:0.160685 5:0.0811938 6:-0.00129778 7:-0.922297 8:-0.877802 9:0.14769 10:-0.536677 
19420178.08522071 1:0.171967 2:-0.0271191 3:-0.628027 4:0.210042 5:0.133617 6:0.132284 7:-0.872171 8:-0.781411 9:0.272502 10:-0.692126 
33554432 1:0.037487 2:-0.00791997 3:-0.0218436 4:-0.144261 5:-0.067709 6:-0.0494136 7:-0.887404 8:-0.720499 9:-0.147838 10:-0.404688 
33554432 1:0.0194171 2:-0.10573 3:0.0348784 4:0.517505 5:0.427476 6:-0.273914 7:-0.908185 8:-0.740889 9:0.2446 10:-0.324895 
33554432 1:-0.0487615 2:-0.194566 3:0.15541 4:0.202302 5:0.264004 6:0.0262162 7:-0.861317 8:-0.685304 9:0.000881942 10:-0.519356 
15244197.66519029 1:-0.518396 2:-0.316578 3:-0.697326 4:-0.0184459 5:0.0139765 6:-0.231981 7:-0.835316 8:-0.844771 9:0.421977 10:-0.513017 
33554432 1:-0.387612 2:0.342692 3:0.3406 4:0.25335 5:0.404625 6:0.239469 7:-0.802697 8:-0.576921 9:0.308261 10:-0.0177878 
33554432 1:-0.157169 2:0.083883 3:0.176437 4:0.238834 5:0.727865 6:-0.593197 7:-0.565394 8:-0.543286 9:0.211234 10:0.476806 
33554432 1:0.401321 2:-0.125248 3:-0.179377 4:0.012575 5:-0.251405 6:-0.334359 7:-0.743226 8:-0.663764 9:-0.219799 10:-0.499381 
12986489.41140593 1:0.37929 2:-0.315303 3:-0.398075 4:0.259727 5:-0.291338 6:-0.740649 7:-0.804398 8:-0.682275 9:-0.0871432 10:-0.611748 
33554432 1:0.215368 2:0.0205968 3:-0.327611 4:-0.275706 5:0.0162395 6:-0.135429 7:-0.846656 8:-0.851831 9:-0.126141 10:-0.503061 
33554432 1:-0.189825 2:-0.404678 3:-0.308267 4:0.36057 5:-0.235905 6:-0.182087 7:-0.748284 8:-0.788322 9:-0.382253 10:-0.62978 
33554432 1:0.128919 2:0.454037 3:0.0280914 4:-0.151692 5:-0.256413 6:0.222687 7:-0.823375 8:-0.704638 9:-0.0956244 10:-0.340494 
33554432 1:-0.208492 2:0.186352 3:-0.139999 4:-0.22042 5:-0.416939 6:-0.443924 7:-0.780378 8:-0.676544 9:-0.104561 10:-0.474607 
33554432 1:0.0643614 2:0.289532 3:-0.208624 4:-0.0568986 5:-0.184808 6:-0.0883487 7:-0.65326 8:-0.400903 9:-0.0259145 10:-0.625031 
33554432 1:0.354411 2:0.116127 3:0.0153996 4:-0.213883 5:-0.395617 6:-0.224196 7:-0.86474 8:-0.552719 9:-0.218251 10:-0.421542 
33554432 1:0.0718446 2:-0.0424442 3:-0.16336 4:-0.0762792 5:-0.251137 6:-0.0279795 7:-0.896266 8:-0.620221 9:-0.222973 10:-0.543655 
33554432 1:0.0121159 2:-0.0235392 3:-0.142254 4:-0.115001 5:-0.316094 6:0.0307447 7:-0.83778 8:-0.619747 9:-0.371056 10:-0.55766 
33554432 1:0.206424 2:-0.530098 3:-0.448203 4:-0.37431 5:-0.140264 6:0.299983 7:-0.998308 8:-0.725698 9:0.103697 10:-0.640367 
33554432 1:0.155401 2:-0.00586028 3:-0.0753012 4:-0.426364 5:-0.0898618 6:-0.0223343 7:-0.747627 8:-0.428059 9:0.00885584 10:-0.287395 
-33554432 1:0.107348 2:-0.221171 3:-0.0818393 4:-0.111091 5:-0.100664 6:-0.416871 7:-0.688615 8:-0.646747 9:0.151007 10:-0.616085 
-33554432 1:-0.136969 2:0.0484761 3:-0.206116 4:-0.255092 5:-0.200132 6:-0.483103 7:-0.878819 8:-0.453508 9:-0.295245 10:-0.358864 
-33554432 1:-0.127033 2:0.0289581 3:0.133982 4:0.168525 5:0.0348124 6:-0.255948 7:-0.64664 8:-0.624695 9:-0.155682 10:-0.224033 
-33554432 1:-0.0377872 2:0.113969 3:0.0385064 4:-0.368674 5:-0.438934 6:-0.373908 7:-0.558126 8:-0.381338 9:0.0720617 10:-0.495564 
-33554432 1:-0.182467 2:-0.219479 3:0.00260638 4:0.0183951 5:-0.341058 6:-0.569143 7:-0.915997 8:-0.777508 9:0.0319971 10:-0.316509 
-33554432 1:-0.0415406 2:-0.176201 3:-0.236519 4:-0.174147 5:-0.221957 6:-0.0376479 7:-0.801322 8:-0.707838 9:-0.121549 10:-0.675876 
-33554432 1:-0.409736 2:-0.172057 3:-0.0520482 4:0.175927 5:0.26098 6:0.126692 7:-0.933305 8:-0.548537 9:-0.181984 10:-0.320902 
-33554432 1:0.373045 2:-0.151779 3:-0.668884 4:0.0623596 5:-0.246322 6:0.301949 7:-0.846148 8:-0.500786 9:-0.0167439 10:-0.396293 
-33554432 1:-0.0801291 2:-0.00956281 3:0.0886402 4:-0.235532 5:-0.427888 6:-0.233557 7:-0.923559 8:-0.654825 9:-0.230973 10:0.301579 
-33554432 1:0.0312801 2:0.176593 3:0.260707 4:0.288181 5:0.0938436 6:-0.274156 7:-0.694165 8:-0.833365 9:-0.242159 10:-0.634901 
-33554432 1:-0.026768 2:-0.112351 3:0.0189511 4:-0.164288 5:-0.0895828 6:0.0848485 7:-0.595338 8:-0.871927 9:-0.18469 10:-0.631277 
-33554432 1:-0.229493 2:-0.0181939 3:-0.0764653 4:-0.0612463 5:-0.0548016 6:-0.172536 7:-0.940964 8:-0.572854 9:0.134617 10:-0.603054 
-33554432 1:0.409121 2:-0.648138 3:-0.538425 4:-0.12871 5:-0.349275 6:-0.0962414 7:-0.852598 8:-0.782119 9:-0.0402493 10:-0.594391 
-33554432 1:0.156696 2:-0.213251 3:-0.390428 4:0.18507 5:0.319233 6:-0.0849793 7:-0.918289 8:-0.634202 9:-0.054389 10:-0.154374 
-18601407.58429047 1:-0.117198 2:0.23142 3:-0.293335 4:-0.624721 5:-0.891359 6:-0.0562656 7:-0.899846 8:-0.299861 9:0.0121989 10:-0.540107 
-33554432 1:0.110097 2:-0.0117206 3:-0.37821 4:0.144468 5:0.278956 6:0.0836682 7:-0.969738 8:-0.739781 9:0.30428 10:-0.526612 
-33554432 1:-0.103609 2:-0.127357 3:-0.0374009 4:-0.0964756 5:-0.230073 6:0.234159 7:-0.982973 8:-0.523758 9:-0.150336 10:-0.780902 
-33554432 1:0.193999 2:-0.51188 3:-0.39976 4:-0.260176 5:-0.132663 6:0.246174 7:-0.667645 8:-0.98062 9:-0.0263438 10:-0.282998 
-5732678.025201654 1:0.26539 2:-0.549224 3:-0.432997 4:-0.459033 5:-0.443993 6:-0.113857 7:-0.637543 8:-0.838746 9:-0.210511 10:-0.237881 
-24022885.61804196 1:0.459379 2:0.252237 3:0.215762 4:-0.184136 5:-0.165673 6:-0.153031 7:-0.412412 8:-0.506828 9:-0.369581 10:-0.209471 
-33554432 1:-0.232679 2:0.103597 3:0.0579352 4:0.298439 5:-0.155454 6:-0.266315 7:-0.935054 8:-0.691675 9:-0.187734 10:-0.523354 
-33554432 1:-0.0645292 2:0.569649 3:0.0387092 4:-0.717859 5:-0.666567 6:0.0581261 7:-0.648877 8:-0.388083 9:0.227351 10:-0.140956 
-33554432 1:-0.264744 2:0.388029 3:0.0848688 4:-0.211794 5:0.154129 6:0.0782669 7:-0.826907 8:-0.825467 9:0.330908 10:-0.360073 
-33554432 1:-0.199166 2:-0.316504 3:-0.211743 4:0.279983 5:0.25445 6:0.140346 7:-0.856149 8:-0.81625 9:0.229536 10:-0.37554 
-33554432 1:0.125477 2:0.135056 3:-0.177887 4:-0.170874 5:-0.268665 6:-0.0466679 7:-0.817518 8:-0.401132 9:-0.115136 10:-0.281119 
-33554432 1:0.454647 2:-0.201015 3:-0.169667 4:0.357864 5:-0.13819 6:-0.72477 7:-0.654125 8:-0.563395 9:-0.153848 10:-0.133791 
-25893371.32472058 1:-0.222873 2:-0.0795429 3:0.112391 4:0.0520923 5:-0.156767 6:-0.0257797 7:-0.612421 8:-0.373964 9:0.341171 10:-0.224924 
-33554432 1:0.189506 2:0.200745 3:-0.0843348 4:0.106036 5:-0.0252684 6:-0.412254 7:-0.97998 8:-0.579153 9:0.288411 10:-0.838632 
-22418184.28061411 1:-0.357618 2:-0.00149572 3:-0.155886 4:0.220508 5:0.501206 6:0.0414008 7:-0.645803 8:-0.823756 9:0.571985 10:-0.732924 
-33554432 1:0.0919566 2:-0.429002 3:-0.294362 4:0.217464 5:-0.000577475 6:-0.21852 7:-0.758484 8:-0.727518 9:-0.467503 10:-0.310329 
-33554432 1:0.0040347 2:-0.064929 3:0.0211503 4:0.184553 5:0.0890424 6:0.00466016 7:-0.915506 8:-0.669041 9:0.25887 10:-0.504435 
-33554432 1:0.0977049 2:-0.151558 3:-0.488332 4:0.0711744 5:0.235128 6:-0.126552 7:-0.891653 8:-0.927055 9:0.234818 10:-0.447198 
-33554432 1:-0.398277 2:0.234142 3:0.344287 4:-0.0428706 5:0.0500453 6:0.00183314 7:-0.770327 8:-0.478653 9:0.48889 10:-0.287012 
-33554432 1:0.401187 2:-0.049555 3:-0.367613 4:-0.21851 5:-0.0596946 6:-0.312305 7:-0.496171 8:-0.584567 9:-0.339212 10:-0.583075 
-33554432 1:-0.311204 2:0.178334 3:0.454205 4:-0.211396 5:-0.0361254 6:0.120034 7:-0.959038 8:-0.657707 9:0.220223 10:-0.34136 
-33554432 1:-0.122927 2:-0.335924 3:0.0345677 4:-0.18328 5:-0.100522 6:-0.0107329 7:-0.70776 8:-0.670313 9:0.0260524 10:-0.724755 
-33554432 1:-0.00627068 2:-0.138587 3:-0.0230103 4:0.167908 5:0.165683 6:0.173373 7:-0.828348 8:-0.566028 9:-0.0843594 10:-0.276424 
-33554432 1:-0.288 2:0.385528 3:-0.0171003 4:0.110294 5:-0.178208 6:-0.0799719 7:-0.93358 8:-0.813951 9:-0.0635987 10:-0.603819 
-33554432 1:0.122859 2:-0.366035 3:-0.1768 4:-0.168118 5:-0.389025 6:-0.121458 7:-0.881397 8:-0.512243 9:0.00665749 10:-0.42654 
-33554432 1:-0.218897 2:0.311233 3:-0.0808899 4:-0.501916 5:-0.280497 6:-0.320942 7:-0.853572 8:-0.799627 9:-0.109387 10:-0.763073 
-33554432 1:-0.341375 2:0.515117 3:0.360735 4:0.229293 5:0.276474 6:-0.652581 7:-0.904895 8:-0.630399 9:0.169088 10:-0.155335 
-33554432 1:-0.0568238 2:-0.188731 3:-0.145225 4:-0.0931129 5:0.00964735 6:0.219383 7:-0.957966 8:-0.762758 9:0.338439 10:-0.693307 
-33554432 1:0.0874823 2:-0.68173 3:-0.204278 4:0.185916 5:0.0362054 6:-0.12007 7:-0.97334 8:-0.685535 9:0.0833917 10:-0.774817 
-19890296.62188674 1:-0.33549 2:-0.284408 3:-0.111866 4:0.0151816 5:0.00335365 6:0.0821204 7:-0.637554 8:-0.953718 9:0.159475 10:-0.75585 
-17043189.62185444 1:-0.269471 2:0.14766 3:-0.0756436 4:0.275904 5:0.197036 6:0.0352679 7:-0.753952 8:-0.998595 9:0.40997 10:-0.456206 
-33554432 1:-0.125388 2:-0.269107 3:-0.31218 4:0.0454364 5:-0.219932 6:-0.310439 7:-0.944049 8:-0.5569 9:-0.114772 10:-0.743606 
-11963934.32679312 1:-0.112931 2:0.200034 3:-0.0634126 4:-0.410016 5:-0.121461 6:0.439226 7:-0.924218 8:-0.79614 9:0.0672097 10:0.0163298 
-28666508.59823711 1:0.0861563 2:-0.314396 3:-0.169461 4:0.298071 5:0.31153 6:0.210833 7:-0.803013 8:-0.53717 9:0.0234378 10:-0.275651 
-33554432 1:0.429841 2:-0.0460241 3:-0.0370124 4:0.425875 5:0.00717357 6:-0.767006 7:-0.893121 8:-0.471839 9:0.0690699 10:-0.0739133 
-33554432 1:0.183972 2:-0.0606625 3:-0.255872 4:0.145503 5:-0.291658 6:-0.143721 7:-0.766649 8:-0.716199 9:0.0794112 10:-0.332922 
-33554432 1:0.361698 2:-0.404678 3:-0.189446 4:-0.101321 5:-0.481195 6:-0.1492 7:-0.894468 8:-0.553829 9:-0.306965 10:-0.712727 
-33554432 1:-0.302297 2:0.129 3:-0.246633 4:-0.0731652 5:-0.173248 6:-0.0461643 7:-0.938219 8:-0.977853 9:0.457398 10:-0.501905 
-33554432 1:-0.228709 2:-0.387269 3:0.0194305 4:0.441793 5:0.200903 6:-0.157331 7:-0.879873 8:-0.773137 9:-0.150193 10:-0.187031 
-33554432 1:0.168573 2:-0.206017 3:-0.385114 4:-0.281516 5:-0.409139 6:-0.222544 7:-0.537692 8:-0.828036 9:-0.0858944 10:-0.508079 
-33554432 1:-0.0390092 2:-0.00863105 3:-0.309743 4:-0.50115 5:-0.520323 6:-0.0399131 7:-0.916011 8:-0.506734 9:-0.417737 10:-0.616555 
-33554432 1:-0.283594 2:-0.044136 3:0.216052 4:-0.22236 5:0.0220728 6:-0.528169 7:-0.883148 8:-0.826423 9:0.557923 10:-0.253611 
-33554432 1:0.0575139 2:0.13871 3:-0.17828 4:-0.53057 5:-0.223621 6:-0.0474647 7:-0.828772 8:-0.45683 9:-0.163955 10:-0.505828 
-33554432 1:0.559452 2:-0.428242 3:-0.404701 4:0.365375 5:0.236312 6:0.199735 7:-0.771891 8:-0.505323 9:-0.0295828 10:-0.410608 
-33554432 1:0.0851565 2:-0.463894 3:-0.477365 4:-0.440895 5:-0.282514 6:0.201968 7:-0.897044 8:-0.805272 9:-0.0762034 10:-0.550873 
-33554432 1:-0.0567552 2:0.0846922 3:0.0882702 4:0.174315 5:-0.16689 6:-0.322565 7:-0.918106 8:-0.487276 9:0.135411 10:-0.298159 
-14137287.63914538 1:-0.558511 2:-0.086384 3:-0.203074 4:-0.369767 5:-0.211541 6:0.478857 7:-0.762819 8:-0.398266 9:-0.059306 10:-0.212324 
-33554432 1:-0.18271 2:-0.0342054 3:0.0305012 4:0.0992205 5:-0.0611695 6:-0.151621 7:-0.745691 8:-0.926607 9:-0.124489 10:-0.598184 
-14677873.11078864 1:0.0304765 2:-0.512665 3:-0.13905 4:0.219444 5:0.0490444 6:-0.279945 7:-0.670954 8:-0.73936 9:-0.0670848 10:-0.533657 
-33554432 1:0.534374 2:0.310031 3:-0.0533414 4:0.0116099 5:-0.233897 6:-0.256929 7:-0.738171 8:-0.579181 9:-0.0753319 10:-0.493655 
-33554432 1:0.042453 2:0.336782 3:-0.237985 4:-0.60286 5:-0.607268 6:-0.631717 7:-0.987736 8:-0.717628 9:0.162519 10:-0.662624 
-33554432 1:0.252723 2:0.00512468 3:0.300568 4:0.469322 5:-0.0759926 6:-0.468659 7:-0.939125 8:-0.763248 9:0.0364978 10:-0.327474 
-33554432 1:0.00382197 2:0.0701518 3:-0.133356 4:-0.201775 5:-0.0882698 6:0.169565 7:-0.804884 8:-0.606644 9:0.152854 10:-0.425167 
-33554432 1:-0.195571 2:0.192335 3:-0.316324 4:-0.156209 5:0.0257113 6:0.00969402 7:-0.941989 8:-0.648982 9:0.340078 10:-0.378842 
-33554432 1:-0.315203 2:-0.420077 3:0.00115521 4:0.0804767 5:0.0567974 6:-0.195231 7:-0.775184 8:-0.445151 9:-0.0471566 10:-0.416509 
-33554432 1:0.356571 2:-0.220312 3:-0.0799325 4:0.124043 5:-0.0384158 6:-0.430734 7:-0.840922 8:-0.727501 9:-0.121367 10:-0.587001 
-33554432 1:0.0782594 2:0.0638011 3:-0.00957581 4:-0.0474869 5:-0.115474 6:-0.0138904 7:-0.551499 8:-0.510646 9:-0.343375 10:-0.720996 
-33554432 1:-0.161135 2:0.139764 3:0.306191 4:0.439326 5:0.225344 6:-0.217489 7:-0.732213 8:-0.708393 9:-0.0606719 10:-0.353396 
-33554432 1:-0.293585 2:-0.0147611 3:-0.331437 4:-0.132153 5:-0.156763 6:-0.0513077 7:-0.954887 8:-0.788767 9:0.285042 10:-0.626169 
-33554432 1:-0.092193 2:0.171076 3:-0.162004 4:-0.12096 5:-0.177119 6:0.0880059 7:-0.796841 8:-0.559562 9:-0.0858424 10:-0.675953 
-20788983.99744349 1:-0.289496 2:0.287571 3:-0.185972 4:-0.608307 5:-0.460613 6:-0.270059 7:-0.67382 8:-0.678076 9:0.0442376 10:-0.59674 
-33554432 1:0.339664 2:-0.0285168 3:-0.117377 4:-0.067156 5:-0.174206 6:0.0298312 7:-0.717117 8:-0.713725 9:0.0519904 10:-0.307087 
-33554432 1:-0.416207 2:0.178162 3:0.106951 4:-0.515683 5:-0.455962 6:-0.178956 7:-0.948334 8:-0.719586 9:0.0913135 10:-0.376677 
-33554432 1:0.100548 2:-0.286786 3:0.116054 4:0.277068 5:0.225124 6:-0.422018 7:-0.796112 8:-0.787991 9:0.0231907 10:-0.34776 
-33554432 1:0.197887 2:0.105436 3:0.0340133 4:-0.106653 5:-0.0431604 6:-0.112364 7:-0.764727 8:-0.483351 9:0.183579 10:-0.425349 
-33554432 1:-0.0563936 2:-0.0205968 3:-0.347091 4:0.141315 5:0.143918 6:0.329513 7:-0.810335 8:-0.689687 9:0.165225 10:-0.615099 
-33554432 1:-0.00691595 2:-0.166589 3:0.144027 4:0.051754 5:0.219885 6:-0.103199 7:-0.833576 8:-0.749309 9:0.0977135 10:-0.385121 
-33554432 1:-0.302401 2:0.296423 3:0.137929 4:-0.0382941 5:0.0131259 6:-0.0550676 7:-0.668075 8:-0.705233 9:0.0720877 10:-0.43586 
-33554432 1:0.264569 2:-0.0336415 3:-0.221893 4:0.109617 5:-0.123619 6:-0.195839 7:-0.414225 8:-0.820374 9:0.327799 10:-0.432773 
-27244136.08548959 1:0.503096 2:-0.153005 3:-0.0401623 4:-0.0715336 5:-0.205735 6:0.190849 7:-0.280417 8:-0.47191 9:-0.211773 10:-0.596148 
-3827834.455781335 1:-0.0798572 2:-0.32874 3:-0.348046 4:-0.191996 5:-0.130874 6:-0.0127154 7:-0.586582 8:-0.490826 9:-0.417248 10:-0.486862 
-33554432 1:0.0639288 2:-0.160802 3:-0.473874 4:0.0180867 5:0.0297595 6:-0.18505 7:-0.683714 8:-0.747637 9:-0.182271 10:-0.539731 
-33554432 1:-0.175454 2:0.0636295 3:0.0199717 4:0.0997578 5:0.228419 6:0.0556631 7:-0.845773 8:-0.79309 9:0.0994045 10:-0.549896 
-33554432 1:0.273601 2:0.305323 3:0.0438831 4:-0.0204257 5:-0.219716 6:0.0280855 7:-0.963754 8:-0.649637 9:-0.0435924 10:-0.440463 
-33554432 1:0.318481 2:0.148616 3:-0.243301 4:-0.060341 5:-0.224718 6:0.186282 7:-0.888119 8:-0.540899 9:0.0998468 10:-0.485816 
-33554432 1:-0.280458 2:0.0931516 3:-0.305003 4:0.153383 5:0.462753 6:-0.12054 7:-0.836446 8:-0.616645 9:-0.0784148 10:-0.503502 
-33554432 1:0.0381866 2:-0.329696 3:-0.445498 4:0.0763777 5:0.0228805 6:-0.115986 7:-0.58622 8:-0.695776 9:0.334277 10:-0.814487 
-33554432 1:-0.0384608 2:0.335655 3:-0.165999 4:-0.232707 5:-0.082341 6:0.0878823 7:-0.827976 8:-0.691501 9:-0.0184089 10:-0.350485 
-33554432 1:-0.038501 2:-0.0926121 3:-0.315657 4:0.374688 5:0.618808 6:-0.281572 7:-0.968487 8:-0.813131 9:0.482191 10:-0.801105 
-33554432 1:0.375759 2:0.0187333 3:0.238597 4:-0.0742198 5:-0.159998 6:0.0579724 7:-0.992867 8:-0.520194 9:-0.303544 10:-0.438933 
-33554432 1:-0.266817 2:-0.105191 3:-0.115019 4:0.0326023 5:-0.160772 6:-0.134505 7:-0.84289 8:-0.347588 9:0.0248167 10:-0.451217 
-33554432 1:-0.612856 2:0.583748 3:0.0102955 4:0.154945 5:0.618242 6:0.153024 7:-0.897852 8:-0.797429 9:0.330374 10:0.174584 
-33554432 1:-0.436412 2:0.291322 3:0.227127 4:-0.286859 5:-0.240074 6:-0.0835746 7:-0.84388 8:-0.521854 9:-0.0861415 10:-0.220428 
-7317164.880306135 1:-0.418897 2:0.424858 3:0.226521 4:-0.36134 5:-0.459228 6:-0.194406 7:-0.964124 8:-0.714024 9:0.0831055 10:0.28585 
-4702411.099148253 1:-0.712054 2:-0.147267 3:0.615256 4:0.0715624 5:-0.265354 6:-0.236742 7:-0.977046 8:-0.68878 9:0.0336101 10:-0.0588797 
-22319987.95524131 1:-0.451543 2:0.518476 3:-0.0678675 4:-0.128462 5:-0.118074 6:-0.0899725 7:-0.907946 8:-0.858899 9:0.646026 10:-0.000277579 
-33554432 1:-0.204281 2:0.214428 3:0.324113 4:-0.31297 5:-0.261235 6:0.115299 7:-0.943332 8:-0.533467 9:0.407824 10:-0.31574 
-33554432 1:-0.203248 2:-0.0179732 3:-0.144864 4:-0.155374 5:-0.110571 6:-0.214155 7:-0.956939 8:-0.710865 9:-0.0426298 10:0.0387684 
-11880732.96289174 1:-0.00165217 2:-0.0913126 3:0.413922 4:0.211365 5:0.168196 6:-0.0189454 7:-0.959451 8:-0.988887 9:0.391551 10:-0.89329 
-33554432 1:-0.251676 2:0.21124 3:0.351846 4:-0.0447311 5:0.0144232 6:0.290313 7:-0.98157 8:-0.606528 9:0.184568 10:-0.623728 
-5640495.98085268 1:-0.0936726 2:0.350146 3:0.418531 4:-0.106653 5:0.0378832 6:-0.0252585 7:-0.977318 8:-0.525616 9:0.360514 10:-0.993139 
-33554432 1:0.432892 2:-0.23527 3:0.330052 4:0.351079 5:0.300034 6:-0.408353 7:-0.924601 8:-0.76226 9:-0.0946488 10:-0.527211 
-15883734.53582944 1:0.281658 2:-0.122796 3:0.402005 4:0.466606 5:-0.0456518 6:0.330742 7:-0.850261 8:-0.819845 9:0.0677821 10:-0.376402 
-33554432 1:0.154968 2:-0.261065 3:0.00788037 4:0.128351 5:-0.174002 6:0.375724 7:-0.892564 8:-0.692832 9:-0.328689 10:-0.528142 
-12234596.20002125 1:0.0558429 2:-0.298825 3:-0.414284 4:-0.226399 5:-0.0814357 6:0.388763 7:-0.88898 8:-0.633736 9:0.240541 10:0.0854347 
-33554432 1:-0.352572 2:0.184856 3:0.160651 4:0.396625 5:0.372524 6:-0.0792227 7:-0.847692 8:-0.95458 9:0.397509 10:0.203575 
-32637861.85209563 1:-0.139246 2:-0.0802295 3:-0.394075 4:0.748122 5:0.451008 6:-0.397036 7:-0.463937 8:-0.489293 9:-0.251317 10:0.0374348 
-28964456.70867616 1:-0.302286 2:-0.0382758 3:-0.0345644 4:0.0418449 5:0.367744 6:0.149299 7:-0.645383 8:-0.84517 9:0.201582 10:0.280284 
-33554432 1:-0.157209 2:-0.201947 3:-0.0425853 4:-0.170038 5:-0.273405 6:-0.19563 7:-0.878937 8:-0.942258 9:-0.015326 10:-0.504337 
-33554432 1:0.108178 2:-0.00446264 3:-0.299681 4:-0.214928 5:-0.23307 6:-0.0579176 7:-0.624142 8:-0.695158 9:-0.248299 10:-0.360776 
-33554432 1:-0.0117803 2:-0.277836 3:-0.573749 4:-0.0495165 5:-0.151261 6:0.0619638 7:-0.828973 8:-0.871865 9:-0.340006 10:-0.733796 
-33554432 1:0.0236244 2:-0.222053 3:-0.309187 4:-0.108275 5:-0.454508 6:-0.271723 7:-0.820436 8:-0.923017 9:-0.23079 10:-0.654943 
-33554432 1:0.263856 2:-0.223917 3:-0.0122675 4:-0.348074 5:-0.339991 6:0.0464664 7:-0.967044 8:-0.482972 9:-0.205282 10:-0.351444 
-33554432 1:0.240763 2:0.177648 3:-0.244698 4:-0.193846 5:-0.263532 6:0.245114 7:-0.857529 8:-0.740105 9:0.0719576 10:-0.481197 
-33554432 1:-0.229075 2:0.0814065 3:-0.455984 4:-0.0449101 5:-0.357311 6:-0.0928242 7:-0.85806 8:-0.771847 9:-0.269762 10:-0.439574 
-33554432 1:-0.0200411 2:0.0776304 3:-0.53904 4:-0.289764 5:-0.460115 6:0.215798 7:-0.894129 8:-0.86424 9:-0.138486 10:-0.497994 
-33554432 1:0.0138532 2:-0.291739 3:-0.204698 4:-0.277169 5:-0.479734 6:0.0912217 7:-0.985755 8:-0.73216 9:-0.0905252 10:-0.30261 
-33554432 1:-0.0176444 2:-0.199323 3:-0.401386 4:-0.336518 5:-0.304525 6:-0.0205268 7:-0.723587 8:-0.557915 9:-0.312728 10:-0.673872 
-26984211.85976449 1:0.262889 2:0.194199 3:-0.141527 4:-0.157891 5:0.358599 6:-0.105385 7:-0.183425 8:-0.150544 9:0.130533 10:-0.313817 
-1546496.977303532 1:0.523967 2:-0.387539 3:-0.321651 4:-0.397068 5:-0.0764687 6:0.13991 7:-0.00687281 8:-0.118342 9:-0.330705 10:-0.549833 
-17195226.08392507 1:0.0988064 2:-0.147439 3:-0.54275 4:0.0106946 5:-0.394989 6:0.159637 7:-0.277762 8:-0.243334 9:-0.121055 10:-0.362415 
