svm_type c_svc
kernel_type polynomial
degree 2
gamma 1
coef0 0
nr_class 2
total_sv 438
rho 0.997445
label -1 1
nr_sv 226 212
SV
256 1:0.110525 2:-0.286811 3:-0.323216 4:-0.0834126 5:-0.289688 6:-0.225984 7:-0.719345 8:-0.758034 9:0.00507052 10:-0.749963 
256 1:0.108892 2:-0.211264 3:0.00861912 4:-0.0592366 5:-0.457078 6:-0.244745 7:-0.808274 8:-0.812932 9:0.350524 10:-0.111286 
256 1:-0.243228 2:-0.0970748 3:-0.222605 4:0.278033 5:0.27156 6:-0.0587481 7:-0.65754 8:-0.742989 9:0.16754 10:-0.320464 
256 1:-0.0480264 2:0.0383493 3:0.345881 4:0.21443 5:0.0242169 6:0.109652 7:-0.775066 8:-0.617312 9:0.0420522 10:-0.458475 
256 1:0.277444 2:-0.110291 3:0.149172 4:0.189527 5:0.254025 6:-0.0605132 7:-0.802245 8:-0.659149 9:0.271318 10:-0.0702356 
256 1:0.0437577 2:-0.0873158 3:0.215644 4:0.246047 5:0.0813382 6:-0.393031 7:-0.894097 8:-0.52068 9:0.0273402 10:-0.512305 
256 1:-0.177683 2:-0.157909 3:-0.365336 4:0.341 5:0.319861 6:-0.323148 7:-0.929007 8:-0.73554 9:-0.151077 10:-0.276244 
256 1:0.200737 2:-0.0254518 3:-0.00131389 4:-0.454022 5:0.00511339 6:0.0496415 7:-0.521206 8:-0.757601 9:0.0448099 10:-0.532433 
44.31631753503027 1:0.0795523 2:-0.234191 3:-0.172764 4:0.00497399 5:0.00341023 6:0.159196 7:-0.781029 8:-0.8226 9:0.539361 10:-0.448574 
256 1:0.0576203 2:0.226418 3:0.165914 4:0.143941 5:-0.0535511 6:-0.153748 7:-0.849399 8:-0.654899 9:0.00405589 10:-0.365463 
108.2433034340857 1:0.0694573 2:0.214452 3:0.198763 4:-0.215475 5:-0.465693 6:-0.323131 7:-0.777687 8:-0.42957 9:-0.0475468 10:-0.336337 
130.2452557034915 1:-0.31585 2:0.411912 3:0.27772 4:-0.39904 5:-0.0489157 6:-0.291018 7:-0.84182 8:-0.405913 9:-0.177315 10:-0.162433 
256 1:0.129231 2:-0.0695878 3:-0.0196945 4:0.0728757 5:0.205977 6:0.28066 7:-0.649003 8:-0.557802 9:0.0718275 10:0.19593 
256 1:-0.119554 2:-0.251232 3:0.124549 4:0.287276 5:0.235349 6:0.0824597 7:-0.866057 8:-0.713684 9:-0.226537 10:-0.557951 
256 1:-0.113213 2:-0.168256 3:-0.171052 4:0.0335574 5:-0.134788 6:-0.257941 7:-0.917099 8:-0.518955 9:-0.402065 10:-0.216748 
256 1:-0.0571499 2:0.253243 3:0.00717058 4:0.08958 5:-0.27472 6:-0.0812935 7:-0.770532 8:-0.765897 9:-0.113042 10:-0.461511 
256 1:0.05572 2:0.175588 3:-0.041624 4:0.147881 5:0.361199 6:0.0546524 7:-0.943661 8:-0.661418 9:0.337815 10:0.0164292 
256 1:-0.175248 2:0.149057 3:-0.162547 4:0.0799196 5:-0.0373154 6:-0.0955311 7:-0.947791 8:-0.859559 9:0.23686 10:-0.622978 
256 1:-0.0923608 2:-0.0743692 3:-0.294437 4:0.17736 5:0.0746719 6:0.0540729 7:-0.763105 8:-0.737058 9:0.272502 10:-0.139813 
256 1:0.031474 2:-0.192041 3:-0.00911755 4:-0.229981 5:-0.103031 6:0.0385437 7:-0.68312 8:-0.573786 9:-0.0983691 10:-0.278755 
132.9245162264898 1:0.213659 2:-0.37138 3:-0.149545 4:-0.678948 5:-0.122846 6:0.0897287 7:-0.731245 8:-0.785673 9:0.177426 10:-0.315042 
256 1:0.41377 2:-0.335507 3:-0.257636 4:0.221722 5:0.33581 6:-0.118831 7:-0.845541 8:-0.823325 9:0.262642 10:-0.945794 
256 1:0.10096 2:-0.365716 3:-0.1894 4:0.607702 5:0.220738 6:-0.613981 7:-0.958359 8:-0.751487 9:-0.266966 10:-0.633776 
256 1:0.0181242 2:0.20842 3:-0.112896 4:-0.248575 5:-0.526168 6:-0.342118 7:-0.712424 8:-0.708067 9:-0.130707 10:-0.40904 
256 1:-0.377898 2:0.141235 3:0.14593 4:0.116243 5:0.207614 6:-0.140339 7:-0.895416 8:-0.847888 9:0.103164 10:0.094869 
24.43396101467615 1:0.0297745 2:-0.279062 3:-0.571512 4:-0.232975 5:-0.328747 6:-0.429748 7:-0.954192 8:-0.592485 9:-0.17388 10:-0.796176 
256 1:0.458386 2:-0.150725 3:-0.696368 4:-0.0853129 5:-0.646642 6:-0.118073 7:-0.625376 8:-0.659375 9:-0.405996 10:-0.455596 
256 1:0.108809 2:0.118064 3:-0.134691 4:0.1266 5:0.492914 6:0.0974941 7:-0.919389 8:-0.858518 9:0.372221 10:-0.853804 
256 1:-0.647724 2:0.0575485 3:0.240256 4:-0.0480441 5:0.14741 6:-0.177032 7:-0.691459 8:-0.627631 9:-0.143728 10:-0.23602 
256 1:-0.417318 2:0.0935929 3:-0.16693 4:0.0975889 5:0.101825 6:-0.189028 7:-0.859113 8:-0.921724 9:0.193205 10:-0.406652 
256 1:-0.180765 2:0.153177 3:0.0967244 4:-0.135575 5:0.199208 6:-0.179967 7:-0.727495 8:-0.778322 9:0.387545 10:-0.74458 
256 1:0.371313 2:-0.0222887 3:-0.204773 4:-0.275139 5:-0.30851 6:-0.181895 7:-0.438076 8:-0.106773 9:-0.0158724 10:-0.49404 
256 1:0.0494635 2:-0.149253 3:-0.324742 4:0.134321 5:-0.1261 6:-0.0950099 7:-0.956598 8:-0.703587 9:0.0689268 10:-0.345729 
4.627156145492111 1:0.287938 2:-0.0394772 3:-0.521905 4:0.303314 5:0.0719971 6:0.462549 7:-0.33345 8:-0.548909 9:0.0719966 10:-0.592246 
256 1:0.0205966 2:-0.165191 3:-0.354239 4:0.131445 5:-0.309341 6:0.131107 7:-0.792359 8:-0.614295 9:0.228145 10:-0.309943 
256 1:-0.453444 2:0.255572 3:-0.225696 4:0.396854 5:0.399474 6:0.167698 7:-0.995087 8:-0.45221 9:0.108705 10:-0.16578 
256 1:0.0769807 2:0.167741 3:-0.37981 4:-0.533179 5:-0.619233 6:-0.0496274 7:-0.516669 8:-0.418983 9:-0.267837 10:-0.535911 
256 1:0.232571 2:-0.547066 3:-0.406602 4:0.531394 5:0.360362 6:-0.0801698 7:-0.371212 8:-0.521397 9:-0.0328868 10:-0.23647 
256 1:0.0586272 2:0.116617 3:-0.129234 4:0.218996 5:-0.19608 6:-0.163954 7:-0.951484 8:-0.783466 9:0.0830014 10:-0.202379 
256 1:0.146965 2:-0.0567638 3:-0.0488878 4:0.409857 5:-0.0916176 6:-0.197701 7:-0.719957 8:-0.567782 9:0.0328816 10:-0.554802 
256 1:-0.394755 2:-0.000858201 3:0.244549 4:-0.105897 5:-0.058762 6:-0.0354764 7:-0.863803 8:-0.709794 9:0.330739 10:-0.39642 
22.72722641311071 1:-0.397256 2:0.149302 3:-0.44733 4:-0.377739 5:-0.271692 6:-0.0221947 7:-0.896191 8:-0.549271 9:0.0539416 10:-0.838176 
256 1:0.101421 2:0.260354 3:0.417267 4:0.23187 5:-0.117899 6:-0.203055 7:-0.779425 8:-0.422879 9:0.0711381 10:-0.258425 
256 1:-0.132994 2:-0.0969522 3:-0.135246 4:0.178842 5:0.0826785 6:-0.469982 7:-0.630916 8:-0.69448 9:0.342719 10:-0.291362 
256 1:0.0477593 2:0.0025746 3:-0.332807 4:0.287913 5:0.179409 6:-0.0373122 7:-0.779564 8:-0.832612 9:0.135788 10:-0.201759 
256 1:-0.0576156 2:0.462227 3:-0.149047 4:0.00011889 5:-0.204779 6:0.0676585 7:-0.870939 8:-0.609911 9:0.333353 10:-0.67452 
256 1:0.168838 2:-0.260354 3:-0.42854 4:-0.2398 5:-0.515844 6:-0.344736 7:-0.7468 8:-0.59933 9:-0.236202 10:-0.661184 
256 1:-0.249468 2:0.0446019 3:0.149921 4:0.0807752 5:0.0484065 6:-0.27164 7:-0.829047 8:-0.58812 9:0.256983 10:-0.483112 
256 1:-0.255987 2:-0.058137 3:0.0521753 4:0.132142 5:0.230163 6:-0.0457738 7:-0.870994 8:-0.619564 9:-0.00534889 10:-0.42861 
42.70525761238517 1:0.315359 2:-0.0464409 3:-0.36625 4:0.084307 5:-0.0636101 6:0.077265 7:-0.824084 8:-0.570308 9:-0.288221 10:-0.518525 
256 1:0.27677 2:-0.531275 3:-0.126757 4:0.14411 5:0.0430356 6:-0.00486512 7:-0.966438 8:-0.633004 9:-0.0427078 10:-0.347262 
256 1:-0.0428406 2:-0.174141 3:0.239624 4:-0.119289 5:0.153716 6:-0.208246 7:-0.890484 8:-0.920612 9:0.0591057 10:-0.812364 
256 1:-0.483431 2:0.0427384 3:0.179453 4:-0.31501 5:-0.187964 6:-0.117248 7:-0.981103 8:-0.785253 9:0.220509 10:-0.329138 
256 1:0.104536 2:-0.120442 3:-0.157894 4:0.377861 5:0.0828541 6:-0.113255 7:-0.95665 8:-0.662457 9:0.0701235 10:-0.514541 
256 1:0.243462 2:-0.444327 3:-0.844785 4:0.00947092 5:-0.0345744 6:-0.227346 7:-0.588864 8:-0.582684 9:-0.11498 10:-0.723379 
256 1:0.0526047 2:-0.0460976 3:-0.0995233 4:0.427019 5:0.393212 6:0.205002 7:-0.75702 8:-0.605757 9:0.261692 10:-0.337204 
256 1:0.19783 2:-0.393914 3:-0.221947 4:0.185757 5:-0.0445592 6:-0.0145141 7:-0.616106 8:-0.584881 9:-0.358641 10:-0.498803 
256 1:-0.181729 2:-0.322512 3:-0.280451 4:0.310218 5:0.238667 6:0.251842 7:-0.738062 8:-0.700459 9:0.0567513 10:-0.539925 
256 1:0.0213837 2:-0.0916804 3:-0.157823 4:0.0878787 5:-0.0830823 6:-0.509452 7:-0.767549 8:-0.582461 9:0.271331 10:-0.369014 
256 1:-0.409154 2:0.425373 3:0.307139 4:0.311502 5:0.359962 6:-0.376696 7:-0.959757 8:-0.611329 9:0.0315418 10:-0.593608 
256 1:-0.437088 2:-0.0194689 3:-0.113204 4:-0.384675 5:-0.249858 6:-0.191174 7:-0.971366 8:-0.819337 9:-0.0200479 10:-0.397983 
256 1:-0.0893684 2:-0.0669151 3:0.0196082 4:-0.156309 5:-0.0702315 6:0.198541 7:-0.708946 8:-0.826047 9:-0.200456 10:-0.786229 
87.43810414336976 1:-0.230789 2:-0.169286 3:-0.303417 4:-0.0923966 5:0.375201 6:-0.216118 7:-0.910135 8:-0.831093 9:0.28149 10:-0.408685 
256 1:0.0990711 2:0.0594365 3:0.119722 4:-0.0904068 5:-0.175143 6:0.185333 7:-0.663037 8:-0.398324 9:-0.244332 10:-0.390257 
256 1:0.137073 2:-0.0805483 3:-0.618124 4:-0.200124 5:-0.360655 6:-0.357032 7:-0.470977 8:-0.545697 9:-0.132944 10:-0.657153 
256 1:-0.134672 2:0.167619 3:-0.327544 4:-0.0330709 5:0.318995 6:0.227539 7:-0.803952 8:-0.628718 9:0.261458 10:-0.0987622 
256 1:-0.094202 2:-0.448569 3:-0.355611 4:0.598708 5:0.440869 6:-0.13479 7:-0.727869 8:-0.799471 9:0.535966 10:-0.465675 
206.7487455170651 1:0.370117 2:-0.0106417 3:-0.618623 4:0.277874 5:0.171366 6:-0.0326847 7:-0.739208 8:-0.824514 9:-0.0107472 10:-0.466974 
153.9721359591373 1:0.108067 2:0.10497 3:-0.0337111 4:0.102096 5:-0.0698999 6:-0.267408 7:-0.738475 8:-0.663429 9:-0.247857 10:-0.857408 
256 1:0.705351 2:-0.233676 3:-0.229594 4:0.00329261 5:0.132133 6:-0.0860906 7:-0.755478 8:-0.31411 9:-0.183428 10:-0.389842 
256 1:0.268944 2:0.249834 3:-0.0706724 4:-0.169591 5:-0.45426 6:-0.670223 7:-0.693491 8:-0.599851 9:-0.0632735 10:-0.63246 
256 1:0.0411648 2:-0.00529632 3:-0.29759 4:0.23768 5:-0.0513895 6:-0.0566278 7:-0.7721 8:-0.588179 9:-0.0384672 10:-0.210415 
128.0835477223842 1:-0.322544 2:-0.277321 3:-0.251484 4:-0.425776 5:-0.285501 6:-0.237679 7:-0.99997 8:-0.887625 9:0.0994825 10:-0.41819 
256 1:0.485468 2:-0.464949 3:-0.608927 4:-0.0616542 5:-0.334666 6:-0.213068 7:-0.818616 8:-0.502239 9:-0.125413 10:-0.544288 
256 1:-0.153432 2:0.155874 3:0.145308 4:0.222399 5:0.338919 6:-0.276593 7:-0.538149 8:-0.586724 9:-0.250563 10:-0.287868 
256 1:0.272393 2:-0.447466 3:-0.381796 4:0.123068 5:0.0906578 6:0.200686 7:-0.727776 8:-0.561485 9:-0.0105391 10:-0.544208 
256 1:0.351319 2:0.250693 3:-0.242129 4:0.0819093 5:0.111254 6:-0.223392 7:-0.736297 8:-0.294484 9:0.256151 10:0.050671 
256 1:0.412891 2:0.433048 3:-0.130619 4:-0.00652702 5:-0.103432 6:-0.110509 7:-0.525297 8:-0.879617 9:-0.0567695 10:-0.532985 
205.0470665077413 1:-0.0703295 2:-0.0822401 3:-0.0264657 4:0.15974 5:0.0141716 6:-0.652189 7:-0.935153 8:-0.682162 9:-0.187994 10:-0.488931 
256 1:-0.0766049 2:0.404433 3:0.21355 4:0.304587 5:-0.0582216 6:0.124255 7:-0.797181 8:-0.733347 9:-0.0267731 10:-0.582092 
256 1:0.07318 2:0.341883 3:0.188303 4:0.127456 5:-0.110489 6:-0.368971 7:-0.875941 8:-0.784557 9:0.0236069 10:-0.0160649 
256 1:-0.146055 2:-0.0826325 3:0.0084532 4:0.47951 5:-0.0408349 6:-0.198541 7:-0.544507 8:-0.408274 9:0.0996647 10:-0.196205 
256 1:-0.394757 2:-0.019003 3:-0.216814 4:-0.308081 5:0.182231 6:0.0098336 7:-0.892352 8:-0.577824 9:0.116614 10:-0.279617 
256 1:-0.121785 2:-0.237109 3:-0.213968 4:0.241093 5:0.37088 6:-0.195835 7:-0.837104 8:-0.810254 9:-0.163786 10:-0.371987 
256 1:0.104108 2:-0.224996 3:-0.219087 4:0.0179076 5:0.0267609 6:-0.295348 7:-0.482413 8:-0.699927 9:-0.350152 10:-0.397631 
256 1:0.0941453 2:0.322953 3:-0.0728795 4:-0.0842086 5:-0.108372 6:-0.0582463 7:-0.779376 8:-0.855877 9:0.0212915 10:-0.770492 
256 1:-0.120597 2:-0.190643 3:-0.481451 4:0.078666 5:-0.0325571 6:-0.242713 7:-0.702747 8:-0.847882 9:0.163508 10:-0.226394 
256 1:-0.318599 2:-0.0859427 3:-0.0971069 4:-0.264991 5:-0.105553 6:0.135818 7:-0.955709 8:-0.687622 9:-0.0652897 10:-0.462075 
256 1:-0.194034 2:-0.238187 3:-0.0275074 4:0.408494 5:0.341497 6:0.107862 7:-0.980983 8:-0.83775 9:0.262655 10:-0.481352 
256 1:0.516742 2:-0.337445 3:-0.0910415 4:0.189856 5:0.0688054 6:-0.0528325 7:-0.763635 8:-0.436938 9:-0.154642 10:-0.486758 
256 1:0.0836839 2:0.170488 3:0.253543 4:-0.108832 5:0.0111847 6:0.158042 7:-0.874667 8:-0.731576 9:-0.32597 10:-0.186419 
256 1:0.228397 2:0.0322438 3:-0.0218581 4:0.0920772 5:-0.166834 6:-0.413562 7:-0.77786 8:-0.73185 9:0.163677 10:-0.252469 
256 1:0.142221 2:-0.260868 3:-0.513788 4:0.177867 5:0.304363 6:-0.036579 7:-0.208259 8:-0.56159 9:-0.140502 10:-0.409185 
175.8999984394297 1:0.182519 2:-0.172866 3:-0.0408958 4:-0.402563 5:-0.226474 6:0.0900308 7:-0.9611 8:-0.609516 9:-0.551451 10:-0.437379 
256 1:-0.142122 2:-0.302651 3:0.0789416 4:0.154238 5:-0.160606 6:0.0030947 7:-0.751639 8:-0.678794 9:-0.158479 10:-0.201267 
256 1:-0.275778 2:0.377633 3:-0.169451 4:0.0327714 5:-0.13837 6:-0.1715 7:-0.878069 8:-0.343713 9:0.332573 10:-0.269862 
256 1:0.237652 2:-0.315622 3:0.014566 4:-0.0865963 5:-0.356741 6:0.0123726 7:-0.820429 8:-0.502631 9:-0.516745 10:-0.463674 
256 1:0.0180013 2:-0.0245936 3:-0.0938503 4:0.478555 5:0.448589 6:-0.116296 7:-0.727104 8:-0.504345 9:0.206109 10:-0.637741 
256 1:0.207448 2:0.162298 3:0.114095 4:0.0813821 5:-0.568665 6:-0.287804 7:-0.799279 8:-0.460617 9:0.0568293 10:-0.256814 
256 1:0.0727333 2:0.0351862 3:-0.342506 4:0.355934 5:0.0733316 6:-0.252694 7:-0.873674 8:-0.789761 9:-0.144495 10:-0.569502 
256 1:0.0628297 2:-0.416767 3:-0.427089 4:-0.542201 5:-0.223984 6:0.537624 7:-0.753632 8:-0.572373 9:-0.0407957 10:-0.23381 
256 1:0.0426326 2:-0.505112 3:-0.207884 4:0.0171316 5:-0.234422 6:0.000214677 7:-0.709666 8:-0.546095 9:-0.117829 10:-0.185132 
181.1480829259377 1:0.751702 2:-0.18927 3:-0.180568 4:0.224498 5:-0.0818591 6:-0.382473 7:-0.969365 8:-0.661113 9:0.22315 10:-0.762108 
256 1:0.574785 2:-0.482824 3:-0.585578 4:-0.110374 5:-0.333724 6:-0.467379 7:-0.730323 8:-0.908231 9:-0.0157943 10:-0.243992 
256 1:-0.123194 2:-0.34664 3:-0.247424 4:0.0803573 5:-0.0396624 6:0.123699 7:-0.637772 8:-0.562409 9:0.0801527 10:-0.791405 
256 1:0.057755 2:0.0132899 3:-0.27972 4:-0.193369 5:-0.133604 6:-0.119062 7:-0.709837 8:-0.47819 9:-0.477392 10:-0.122037 
256 1:0.106235 2:-0.221955 3:-0.12129 4:0.247102 5:-0.194061 6:-0.358808 7:-0.86599 8:-0.683072 9:-0.227695 10:-0.416837 
256 1:-0.0872837 2:-0.186499 3:-0.0164735 4:0.30216 5:0.103187 6:0.166187 7:-0.96342 8:-0.880685 9:0.126097 10:-0.162218 
256 1:-0.0657677 2:-0.206042 3:-0.0527343 4:0.116581 5:0.0648977 6:-0.263984 7:-0.703682 8:-0.636038 9:0.11729 10:-0.544561 
256 1:0.214981 2:-0.758085 3:-0.603251 4:0.0708063 5:-0.342386 6:-0.217886 7:-0.927049 8:-0.476722 9:0.282089 10:-0.295909 
256 1:0.0458802 2:0.0303067 3:0.0194568 4:-0.0399257 5:-0.00585474 6:-0.135203 7:-0.844963 8:-0.606968 9:0.152854 10:-0.374001 
256 1:0.196048 2:0.297747 3:0.234462 4:0.164108 5:0.00286006 6:-0.145191 7:-0.939769 8:-0.622595 9:-0.0781546 10:-0.571143 
256 1:0.0102392 2:0.342962 3:0.422929 4:0.0955593 5:-0.464669 6:0.0606068 7:-0.717655 8:-0.627513 9:0.141537 10:-0.482279 
256 1:0.314678 2:-0.0620111 3:0.187513 4:0.20256 5:-0.0512685 6:-0.398812 7:-0.756431 8:-0.566542 9:0.051483 10:-0.241667 
256 1:-0.0590007 2:-0.27406 3:0.0963306 4:0.104165 5:-0.0878992 6:-0.0602853 7:-0.685353 8:-0.536641 9:-0.0166138 10:0.0575708 
4.225782328915667 1:0.218533 2:-0.249001 3:-0.184314 4:0.567877 5:0.00940348 6:-0.243699 7:-0.820112 8:-0.778593 9:0.239175 10:-0.31411 
256 1:-0.0288669 2:-0.153618 3:-0.0844915 4:-0.135426 5:-0.24403 6:-0.250648 7:-0.546304 8:-0.606659 9:-0.00758626 10:-0.392847 
256 1:0.163648 2:-0.0527916 3:-0.32128 4:0.366569 5:0.305188 6:-0.0441501 7:-0.823327 8:-0.506003 9:-0.294751 10:-0.515214 
256 1:0.35069 2:-0.320158 3:-0.149007 4:0.140708 5:-0.116892 6:0.0449823 7:-0.91066 8:-0.473165 9:-0.275499 10:-0.494363 
256 1:-0.344932 2:-0.157222 3:0.0272855 4:-0.0335385 5:0.330039 6:-0.399474 7:-0.91976 8:-0.81465 9:0.136126 10:-0.109456 
256 1:0.24905 2:0.173381 3:-0.0383253 4:-0.0423334 5:-0.106786 6:-0.252849 7:-0.753108 8:-0.630711 9:-0.187604 10:-0.73364 
256 1:-0.0268484 2:0.317265 3:0.165421 4:-0.552696 5:-0.258846 6:0.23972 7:-0.832999 8:-0.468042 9:0.207852 10:-0.540819 
256 1:0.102267 2:-0.442513 3:-0.191694 4:0.166774 5:-0.038564 6:0.0927801 7:-0.754795 8:-0.635215 9:0.190851 10:-0.382245 
256 1:-0.131942 2:0.0211363 3:0.00473836 4:0.274482 5:0.387312 6:-0.167122 7:-0.843572 8:-0.846981 9:0.149199 10:-0.283723 
256 1:0.346696 2:-0.0937646 3:0.220885 4:0.628128 5:0.222172 6:-0.040611 7:-0.665533 8:-0.467916 9:-0.00935535 10:-0.0590288 
256 1:-0.334289 2:0.14484 3:0.442827 4:-0.224887 5:-0.167027 6:-0.180638 7:-0.764291 8:-0.618235 9:-0.138148 10:-0.16457 
256 1:0.524884 2:-0.519089 3:-0.385188 4:-0.232856 5:0.0350407 6:0.0314833 7:-0.842174 8:-0.535377 9:-0.24627 10:-0.380421 
256 1:0.206658 2:-0.0541402 3:-0.216 4:0.168804 5:0.357555 6:-0.0661778 7:-0.473103 8:-0.697464 9:0.552096 10:-0.376748 
256 1:0.0920039 2:0.0611775 3:0.100585 4:0.156427 5:-0.173826 6:-0.304234 7:-0.698933 8:-0.38466 9:-0.0344608 10:-0.189823 
256 1:-0.217644 2:0.073511 3:-0.0330974 4:0.274054 5:0.326451 6:-0.565346 7:-0.959725 8:-0.443949 9:0.00149332 10:-0.953618 
256 1:0.20853 2:0.0650761 3:-0.0108927 4:0.0351293 5:-0.0204887 6:-0.359527 7:-0.826325 8:-0.49582 9:0.222629 10:-0.631187 
256 1:0.121828 2:-0.469975 3:-0.357322 4:0.143165 5:-0.239426 6:-0.383364 7:-0.880082 8:-0.654767 9:0.141524 10:-0.526989 
256 1:-0.268795 2:-0.0350636 3:0.0915755 4:0.403559 5:0.186546 6:-0.0411305 7:-0.729923 8:-0.505706 9:0.21247 10:-0.160156 
256 1:0.101213 2:0.0868254 3:0.0638637 4:0.673744 5:0.437642 6:-0.248646 7:-0.928137 8:-0.607748 9:0.256931 10:-0.244839 
144.8648989037307 1:-0.182835 2:-0.230758 3:-0.102071 4:0.344482 5:0.22382 6:-0.0181415 7:-0.961314 8:-0.977732 9:0.316781 10:-0.390092 
23.56207982458715 1:-0.422613 2:0.0534046 3:0.130882 4:-0.176784 5:0.223077 6:-0.0578417 7:-0.909729 8:-0.801763 9:0.614651 10:-0.25555 
256 1:0.0468162 2:-0.0926366 3:-0.277587 4:0.37228 5:0.291467 6:0.035669 7:-0.805068 8:-0.684557 9:-0.182089 10:-0.831114 
256 1:0.172123 2:-0.0219209 3:-0.10854 4:-0.0799504 5:-0.0818006 6:-0.20482 7:-0.381566 8:-0.548735 9:0.036758 10:-0.882922 
256 1:-0.0303772 2:0.0506338 3:-0.371349 4:-0.106624 5:-0.428783 6:-0.107871 7:-0.706626 8:-0.502657 9:0.117954 10:-0.585643 
256 1:0.0133261 2:-0.161244 3:-0.39246 4:0.375304 5:0.362297 6:-0.108804 7:-0.805385 8:-0.616085 9:0.022085 10:-0.437611 
256 1:-0.0648175 2:-0.159895 3:-0.407979 4:0.0610364 5:-0.0768491 6:-0.277079 7:-0.865972 8:-0.666192 9:0.256541 10:-0.106499 
256 1:0.0920961 2:0.0158154 3:-0.194003 4:0.235223 5:-0.132917 6:-0.161851 7:-0.625041 8:-0.646279 9:0.049766 10:-0.159849 
256 1:0.493261 2:0.0520315 3:0.217185 4:0.483858 5:0.276921 6:-0.144151 7:-0.356944 8:-0.413394 9:-0.03156 10:-0.327892 
256 1:0.249201 2:0.084496 3:-0.0917934 4:0.412454 5:0.308822 6:0.489865 7:-0.852694 8:-0.780498 9:0.382471 10:-0.142703 
256 1:0.33614 2:-0.101415 3:-0.178886 4:0.45023 5:0.57181 6:0.129947 7:-0.775098 8:-0.666619 9:-0.201223 10:-0.518554 
256 1:-0.31529 2:0.165657 3:-0.0113062 4:0.198461 5:0.381875 6:-0.0638508 7:-0.774269 8:-0.860864 9:0.113778 10:-0.544243 
256 1:-0.0672686 2:-0.153888 3:-0.179747 4:0.522659 5:0.324494 6:-0.0143551 7:-0.991668 8:-0.575853 9:0.241998 10:-0.336886 
256 1:0.0722653 2:-0.478704 3:-0.0032839 4:0.12862 5:-0.0237935 6:-0.064448 7:-0.810278 8:-0.688959 9:-0.19507 10:-0.223306 
256 1:-0.0324761 2:0.0869725 3:0.0820402 4:0.311442 5:-0.00208164 6:-0.36535 7:-0.947057 8:-0.583977 9:0.315129 10:-0.0641973 
256 1:-0.0399428 2:0.171861 3:0.319939 4:0.0299359 5:0.202142 6:-0.457736 7:-0.619801 8:-0.562794 9:-0.000913161 10:-0.118641 
256 1:0.179935 2:-0.0512468 3:-0.0423773 4:0.172932 5:0.191406 6:-0.0810267 7:-0.735605 8:-0.595553 9:-0.149178 10:0.0611821 
256 1:-0.667002 2:-0.0211608 3:0.212628 4:-0.125348 5:-0.0394712 6:-0.433925 7:-0.921626 8:-0.85862 9:0.451453 10:-0.257764 
256 1:0.0689728 2:0.0758649 3:-0.263309 4:-0.0453777 5:-0.231214 6:-0.189356 7:-0.523544 8:-0.561457 9:-0.00899113 10:-0.555138 
256 1:0.0240593 2:-0.00791997 3:0.196846 4:0.454747 5:0.581233 6:-0.278932 7:-0.946884 8:-0.797957 9:0.552018 10:-0.385132 
256 1:-0.149693 2:-0.1277 3:0.323929 4:0.136111 5:0.286026 6:-0.172304 7:-0.947927 8:-0.566913 9:0.361776 10:-0.609666 
256 1:-0.244944 2:0.0014712 3:0.0438712 4:0.503139 5:0.374218 6:-0.0683334 7:-0.816537 8:-0.688711 9:0.0492847 10:-0.402768 
256 1:0.100567 2:-0.675968 3:-0.510183 4:0.193586 5:0.210812 6:0.0874759 7:-0.82257 8:-0.71829 9:0.128972 10:-0.761721 
256 1:0.560946 2:-0.316627 3:-0.131173 4:0.293554 5:0.188501 6:-0.377788 7:-0.817514 8:-0.680691 9:-0.196124 10:-0.278309 
256 1:0.0978869 2:0.275237 3:-0.122562 4:-0.173043 5:-0.456531 6:-0.371123 7:-0.741469 8:-0.330053 9:-0.299147 10:-0.135597 
256 1:-0.2357 2:0.0871687 3:-0.212892 4:0.0974695 5:-0.00690434 6:0.24398 7:-0.949991 8:-0.665138 9:0.0991834 10:-0.920213 
256 1:0.327035 2:0.0231959 3:-0.134765 4:-0.191747 5:-0.46978 6:-0.215536 7:-0.669859 8:-0.501318 9:-0.360928 10:-0.180398 
256 1:-0.0279876 2:-0.337199 3:-0.0232829 4:-0.461621 5:-0.291728 6:0.182087 7:-0.798653 8:-0.796082 9:-0.233834 10:-0.653172 
256 1:-0.631942 2:0.13692 3:0.0373212 4:0.0771338 5:0.285429 6:-0.117161 7:-0.71113 8:-0.676501 9:0.0849786 10:-0.592613 
256 1:-0.136991 2:0.319177 3:0.396816 4:0.354869 5:0.0802418 6:0.203822 7:-0.783342 8:-0.696782 9:0.339961 10:-0.291006 
256 1:-0.114647 2:0.164529 3:0.0426729 4:0.0269413 5:0.169155 6:0.190604 7:-0.810353 8:-0.816549 9:-0.176352 10:-0.730422 
256 1:0.196034 2:-0.355565 3:-0.396432 4:-0.0259673 5:-0.169085 6:0.193849 7:-0.302006 8:-0.458975 9:-0.181841 10:-0.464371 
177.8456766929969 1:0.383176 2:-0.292965 3:-0.191758 4:0.213077 5:-0.322436 6:-0.254576 7:-0.869655 8:-0.540326 9:-0.21989 10:-0.520821 
256 1:-0.0811927 2:0.213005 3:0.0348363 4:-0.132352 5:-0.030612 6:-0.476131 7:-0.647358 8:-0.491251 9:-0.256273 10:-0.197129 
256 1:-0.110201 2:0.0118432 3:-0.171724 4:-0.116493 5:-0.0270535 6:-0.0303542 7:-0.916909 8:-0.666179 9:-0.0790652 10:-0.796257 
256 1:-0.140836 2:0.314101 3:0.0950401 4:0.11885 5:-0.236886 6:-0.0978616 7:-0.811605 8:-0.617802 9:0.0686016 10:-0.255613 
256 1:-0.0666517 2:0.0247162 3:0.170899 4:-0.0458752 5:-0.0787512 6:-0.299094 7:-0.617173 8:-0.327853 9:-0.0943626 10:-0.199182 
256 1:0.0327172 2:-0.0625015 3:-0.209758 4:0.274153 5:0.472664 6:-0.463701 7:-0.602018 8:-0.721457 9:0.472253 10:-0.787871 
256 1:-0.205011 2:0.457642 3:0.163613 4:-5.02423e-005 5:-0.126106 6:-0.10057 7:-0.870136 8:-0.480341 9:0.0810112 10:-0.639415 
42.67170406266304 1:0.217217 2:0.231739 3:-0.0606552 4:-0.188394 5:-0.09216 6:-0.0804737 7:-0.972524 8:-0.574411 9:-0.00955047 10:-0.518913 
256 1:-0.0210409 2:0.171934 3:0.232118 4:-0.00890482 5:-0.0519474 6:-0.0276491 7:-0.691035 8:-0.340891 9:-0.0488086 10:-0.741172 
256 1:-0.122979 2:-0.399627 3:-0.199657 4:0.109349 5:0.000144369 6:0.0839085 7:-0.905179 8:-0.770695 9:-0.0190593 10:-0.519409 
256 1:-0.164312 2:0.0683863 3:0.148265 4:-0.0732945 5:-0.178403 6:-0.116144 7:-0.941352 8:-0.843877 9:0.318992 10:-0.207245 
256 1:0.0897324 2:0.0255499 3:-0.145903 4:0.0539428 5:-0.201555 6:-0.312941 7:-0.608755 8:-0.476449 9:-0.0770099 10:-0.349204 
104.198604033418 1:0.278919 2:-0.38212 3:-0.378317 4:0.203804 5:0.262008 6:0.0944091 7:-0.530889 8:-0.71002 9:-0.184521 10:-0.382412 
256 1:0.0766924 2:-0.718118 3:-0.276378 4:0.0238969 5:0.292969 6:-0.0165601 7:-0.72422 8:-0.772442 9:0.0626569 10:-0.621474 
0.8746587113979385 1:0.470904 2:-0.386828 3:-0.188718 4:0.405718 5:-0.142369 6:-0.0639604 7:-0.965029 8:-0.606084 9:0.0112363 10:-0.181782 
256 1:0.121665 2:-0.549714 3:-0.252081 4:-0.190265 5:0.0282378 6:0.473556 7:-0.645285 8:-0.427956 9:-0.140788 10:-0.214958 
3.097124360584536 1:-0.113501 2:0.225658 3:-0.0720314 4:0.164476 5:-0.200712 6:-0.460102 7:-0.789524 8:-0.744237 9:0.0473205 10:-0.876138 
221.4386369945499 1:-0.239702 2:0.151509 3:0.0262465 4:0.180762 5:0.0403199 6:-0.262694 7:-0.857163 8:-0.508113 9:0.543601 10:-0.198961 
170.776867229616 1:-0.286969 2:0.040973 3:0.00284868 4:-0.211177 5:-0.290652 6:-0.35436 7:-0.90072 8:-0.705917 9:0.151384 10:-0.0549121 
256 1:-0.238934 2:0.293161 3:-0.119009 4:0.18122 5:0.116945 6:-0.589842 7:-0.745337 8:-0.561796 9:0.31176 10:-0.248591 
256 1:-0.275754 2:-0.140328 3:-0.071959 4:0.173599 5:-0.261624 6:-0.224814 7:-0.803773 8:-0.514695 9:-0.205087 10:-0.66317 
118.2616218738187 1:-0.177305 2:-0.00816517 3:-0.242932 4:0.132231 5:0.148339 6:-0.65974 7:-0.884488 8:-0.820044 9:0.287461 10:-0.143648 
72.23240345415344 1:-0.344162 2:0.297354 3:0.172898 4:0.0185643 5:0.13559 6:-0.31542 7:-0.933838 8:-0.800391 9:0.288697 10:-0.00471726 
149.9134878648919 1:-0.491687 2:0.0807199 3:0.133147 4:0.315252 5:0.0502345 6:-0.456115 7:-0.999583 8:-0.786571 9:0.56206 10:-0.0168353 
256 1:-0.366061 2:-0.0717456 3:-0.143975 4:0.163073 5:-0.0520898 6:-0.812682 7:-0.966473 8:-0.819507 9:0.194974 10:-0.0152449 
256 1:-0.0898152 2:0.0271191 3:-0.254517 4:0.065792 5:0.133812 6:0.213563 7:-0.782857 8:-0.702434 9:0.145154 10:-0.897181 
139.2741001274184 1:-0.340439 2:0.143025 3:0.412526 4:-0.160298 5:0.0803569 6:-0.420923 7:-0.819786 8:-0.628402 9:0.241114 10:-0.701418 
256 1:0.145367 2:0.268936 3:-0.307678 4:0.3118 5:0.198177 6:0.218609 7:-0.924411 8:-0.895464 9:0.155222 10:-0.700264 
256 1:-0.172736 2:-0.133266 3:-0.389345 4:0.155442 5:0.0397522 6:-0.450278 7:-0.778459 8:-0.725029 9:0.270551 10:0.0488819 
256 1:-0.192985 2:0.315965 3:0.103984 4:0.0334678 5:-0.137609 6:-0.300145 7:-0.811283 8:-0.775931 9:0.398823 10:-0.984255 
256 1:-0.239248 2:0.0128485 3:0.098431 4:-0.00354233 5:0.237299 6:0.019502 7:-0.923494 8:-0.590448 9:0.0454733 10:-0.0644624 
50.74434732945317 1:-0.124291 2:0.224824 3:-0.106052 4:-0.183907 5:0.213849 6:0.0986815 7:-0.861016 8:-0.733676 9:0.49408 10:-0.177837 
162.695839277195 1:-0.0836201 2:-0.145085 3:-0.171313 4:0.300498 5:0.125521 6:-0.162567 7:-0.971812 8:-0.536726 9:0.48474 10:-0.804437 
136.2712935978814 1:-0.0435379 2:0.355736 3:0.391246 4:-0.338875 5:-0.287799 6:-0.256682 7:-0.836748 8:-0.491181 9:0.157732 10:-0.141072 
256 1:-0.136033 2:0.178064 3:0.00792119 4:0.110473 5:0.210931 6:-0.263596 7:-0.904041 8:-0.855077 9:0.303786 10:-0.0377912 
256 1:-0.0061525 2:0.0970257 3:-0.334559 4:0.300428 5:0.393805 6:0.0246118 7:-0.834734 8:-0.57427 9:-0.102271 10:-0.872441 
256 1:-0.513305 2:0.0102739 3:0.120342 4:-0.127347 5:0.153367 6:-0.00416013 7:-0.94468 8:-0.59566 9:0.29632 10:-0.101231 
117.1027720483195 1:-0.140879 2:-0.0190275 3:0.519916 4:0.620437 5:0.689236 6:-0.136661 7:-0.958076 8:-0.752683 9:0.30177 10:-0.487603 
256 1:0.16832 2:-0.191232 3:0.0636727 4:0.19686 5:0.275942 6:-0.131987 7:-0.815251 8:-0.715753 9:-0.172749 10:-0.536566 
232.0125658748912 1:-0.0690342 2:-0.216806 3:0.282698 4:0.268831 5:0.325458 6:-0.290993 7:-0.850527 8:-0.748967 9:-0.0274625 10:-0.250053 
8.096832524761794 1:-0.0964948 2:-0.251649 3:0.183315 4:0.587904 5:0.818349 6:0.349703 7:-0.959447 8:-0.869562 9:-0.169757 10:-0.563388 
46.84041704348745 1:0.0668762 2:-0.126474 3:0.080639 4:0.218668 5:0.425804 6:0.353558 7:-0.991601 8:-0.904041 9:0.000777878 10:-0.0518143 
256 1:-0.216356 2:0.150798 3:0.00784481 4:0.168794 5:0.308425 6:-0.150398 7:-0.82889 8:-0.734719 9:0.132094 10:-0.0317032 
256 1:-0.200494 2:0.058137 3:0.138577 4:0.254186 5:0.619237 6:-0.109671 7:-0.761097 8:-0.721132 9:0.429092 10:0.369127 
256 1:-0.372041 2:0.272491 3:0.291824 4:0.13248 5:-0.20746 6:-0.360737 7:-0.978402 8:-0.666561 9:0.161726 10:-0.012876 
256 1:-0.205148 2:-0.178775 3:-0.0554431 4:0.0771338 5:0.309363 6:-0.0711233 7:-0.980898 8:-0.538771 9:0.29295 10:0.0734244 
256 1:-0.15039 2:0.107496 3:0.1207 4:0.491558 5:0.269176 6:-0.263922 7:-0.881763 8:-0.688929 9:0.291051 10:0.0317113 
43.04061764451711 1:-0.541082 2:-0.0991344 3:0.126911 4:-0.310463 5:0.296141 6:-0.0432454 7:-0.876393 8:-0.541596 9:0.392917 10:-0.0147397 
256 1:-0.157169 2:0.083883 3:0.176437 4:0.238834 5:0.727865 6:-0.593197 7:-0.565394 8:-0.543286 9:0.211234 10:0.476806 
256 1:-0.134372 2:0.230954 3:0.139317 4:-0.00370151 5:0.307896 6:0.0914567 7:-0.843598 8:-0.764324 9:0.276664 10:0.0947199 
256 1:0.0174435 2:-0.0221906 3:-0.0590631 4:0.342035 5:0.242391 6:0.0840428 7:-0.833682 8:-0.59439 9:-0.132359 10:-0.0588217 
256 1:0.292843 2:-0.280068 3:-0.235563 4:-0.0188538 5:-0.176879 6:-0.412344 7:-0.770975 8:-0.401844 9:-0.114525 10:-0.32513 
256 1:0.186256 2:-0.00669397 3:-0.121499 4:-0.267478 5:-0.353946 6:0.0882568 7:-0.710183 8:-0.546124 9:0.0108721 10:-0.307314 
256 1:0.384327 2:0.150553 3:-0.153105 4:-0.227285 5:0.0493078 6:0.197871 7:-0.709964 8:-0.64228 9:-0.0732636 10:-0.531621 
10.15455785525065 1:0.437563 2:-0.429615 3:-0.287811 4:-0.159811 5:-0.479837 6:0.146863 7:-0.73826 8:-0.488139 9:-0.590806 10:-0.581314 
256 1:-0.0486527 2:-0.122208 3:-0.0712729 4:-0.101679 5:-0.314195 6:-0.414208 7:-0.844028 8:-0.559642 9:-0.31996 10:-0.702559 
256 1:0.342115 2:-0.216242 3:-0.257935 4:-0.141097 5:-0.195325 6:-0.151432 7:-0.789679 8:-0.489249 9:-0.120209 10:-0.288846 
256 1:0.587314 2:0.150234 3:-0.0485085 4:0.189756 5:0.156603 6:0.389011 7:-0.775076 8:-0.730522 9:-0.202979 10:-0.0866277 
256 1:0.0980784 2:0.0344997 3:-0.0759201 4:-0.645445 5:-0.359084 6:0.156831 7:-0.728932 8:-0.591069 9:-0.0384542 10:-0.301715 
256 1:0.129058 2:-0.203958 3:-0.379149 4:-0.276313 5:0.42635 6:-0.119373 7:-0.255375 8:-0.237342 9:0.195221 10:-0.345385 
-256 1:0.260208 2:0.409852 3:0.135678 4:-0.0102479 5:-0.187732 6:-0.3703 7:-0.570528 8:-0.525409 9:0.142357 10:-0.721279 
-256 1:-0.184561 2:0.341834 3:0.119194 4:0.120491 5:0.114461 6:-0.485525 7:-0.87649 8:-0.727085 9:-0.0622068 10:-0.381549 
-256 1:-0.156538 2:0.373244 3:0.178768 4:0.210599 5:-0.0337745 6:-0.0298277 7:-0.854266 8:-0.730337 9:0.367642 10:-0.508001 
-256 1:-0.0112343 2:-0.100581 3:-0.121687 4:-0.147952 5:-0.258379 6:-0.119082 7:-0.518486 8:-0.60029 9:-0.245724 10:-0.270029 
-256 1:0.431363 2:-0.0970012 3:-0.141674 4:-0.0276885 5:0.349759 6:0.249367 7:-0.695633 8:-0.70089 9:0.263708 10:-0.365905 
-256 1:0.196681 2:0.158007 3:0.266514 4:0.25919 5:0.0730389 6:-0.165987 7:-0.750883 8:-0.516115 9:-0.33315 10:-0.752993 
-256 1:0.228853 2:0.127553 3:-0.0168066 4:0.502542 5:0.136768 6:-0.440756 7:-0.783358 8:-0.923925 9:0.160282 10:-0.404947 
-256 1:0.0851257 2:-0.294853 3:-0.124224 4:0.018624 5:-0.252452 6:-0.410053 7:-0.757252 8:-0.439741 9:-0.192209 10:-0.278127 
-256 1:-0.141323 2:-0.0395998 3:0.0444006 4:-0.279895 5:-0.0600301 6:-0.0377963 7:-0.892892 8:-0.684788 9:0.0956842 10:-0.492028 
-256 1:0.348194 2:-0.166099 3:-0.126428 4:0.548814 5:0.111384 6:0.00294982 7:-0.710169 8:-0.673016 9:0.0746893 10:-0.408211 
-256 1:-0.0123735 2:0.0566658 3:-0.251106 4:0.138778 5:-0.00462175 6:-0.103459 7:-0.950058 8:-0.7028 9:0.254577 10:-0.356574 
-256 1:0.199036 2:-0.0977858 3:-0.0521088 4:0.376379 5:0.116541 6:-0.536215 7:-0.948142 8:-0.550044 9:-0.0258235 10:-0.51483 
-256 1:-0.0643495 2:0.451463 3:0.314553 4:-0.287973 5:-0.252603 6:-0.425419 7:-0.938254 8:-0.674517 9:-0.28571 10:-0.559488 
-256 1:0.331386 2:-0.297943 3:0.0756166 4:-0.0722399 5:-0.316462 6:0.213875 7:-0.820514 8:-0.558906 9:-0.456465 10:-0.58591 
-126.2620363326029 1:0.419774 2:0.32413 3:-0.2012 4:-0.201706 5:-0.0261112 6:-0.268525 7:-0.62571 8:-0.474949 9:-0.401216 10:-0.570418 
-256 1:-0.302645 2:-0.0850845 3:0.0816741 4:0.197914 5:0.24537 6:0.0246542 7:-0.784868 8:-0.599504 9:0.0794632 10:-0.196167 
-91.96291210070852 1:-0.528096 2:0.0920236 3:0.383819 4:0.0232204 5:0.108534 6:0.0822441 7:-0.925759 8:-0.596494 9:0.305048 10:0.10972 
-256 1:0.0245273 2:-0.171493 3:0.0372382 4:-0.146131 5:-0.270914 6:-0.407832 7:-0.878349 8:-0.615075 9:0.348052 10:-0.42228 
-256 1:0.426636 2:-0.221244 3:-0.141204 4:0.228378 5:0.525378 6:-0.0838202 7:-0.754771 8:-0.580604 9:-0.0607109 10:-0.269359 
-256 1:-0.163669 2:0.363656 3:0.0601436 4:0.13247 5:-0.0411276 6:-0.101593 7:-0.952833 8:-0.913391 9:0.134604 10:-0.485344 
-256 1:-0.419717 2:0.291813 3:0.213682 4:-0.0715634 5:-0.304166 6:-0.0565872 7:-0.793776 8:-0.41471 9:0.118929 10:-0.692545 
-256 1:-0.38379 2:-0.0475934 3:0.263564 4:-0.0924662 5:0.591709 6:0.142931 7:-0.86552 8:-0.723927 9:0.33749 10:-0.224939 
-256 1:-0.246166 2:0.390996 3:0.0956037 4:-0.150906 5:-0.177882 6:-0.37777 7:-0.975386 8:-0.591785 9:-0.0295307 10:-0.301114 
-256 1:-0.3773 2:0.0249123 3:-0.0309378 4:-0.301534 5:0.0876787 6:-0.224487 7:-0.822726 8:-0.580116 9:0.22886 10:-0.308679 
-256 1:-0.300402 2:0.0855994 3:-0.0246709 4:-0.115727 5:-0.0109935 6:0.251181 7:-0.675075 8:-0.614774 9:0.0592618 10:-0.610049 
-256 1:-0.104403 2:0.169384 3:-0.0461632 4:0.133246 5:0.0206545 6:-0.0955223 7:-0.968336 8:-0.716883 9:0.527394 10:-0.594629 
-256 1:-0.166576 2:0.410416 3:0.271571 4:0.289664 5:0.0100492 6:0.0174012 7:-0.522931 8:-0.395208 9:-0.295245 10:-0.0548044 
-256 1:-0.0784225 2:-0.306917 3:-0.102007 4:0.150209 5:0.13511 6:-0.162978 7:-0.891805 8:-0.802526 9:0.112321 10:-0.0181523 
-256 1:-0.188016 2:-0.0193708 3:-0.102478 4:-0.109986 5:-0.236328 6:-0.274725 7:-0.808355 8:-0.9377 9:0.112152 10:-0.494607 
-256 1:0.0914626 2:0.131182 3:-0.152398 4:0.382129 5:0.105976 6:-0.153006 7:-0.925133 8:-0.743387 9:-0.11178 10:-0.580452 
-256 1:0.0174388 2:0.045264 3:-0.31247 4:0.0334081 5:-0.272502 6:-0.311434 7:-0.668761 8:-0.541881 9:-0.432682 10:-0.341998 
-256 1:-0.106542 2:-0.114484 3:-0.337236 4:-0.167352 5:0.114765 6:-0.112536 7:-0.743035 8:-0.596723 9:-0.455803 10:-0.572122 
-256 1:-0.141824 2:-0.12645 3:-0.125829 4:0.113885 5:-0.118012 6:0.217646 7:-0.863029 8:-0.68926 9:-0.348266 10:-0.810304 
-256 1:-0.211641 2:-0.117573 3:0.151999 4:0.0360347 5:-0.0958824 6:-0.3238 7:-0.8907 8:-0.800037 9:-0.283031 10:-0.228133 
-256 1:0.266378 2:-0.178555 3:-0.55842 4:0.0359252 5:0.336703 6:-0.0445264 7:-0.582269 8:-0.729326 9:-0.259434 10:-1 
-256 1:0.235769 2:-0.15911 3:0.0495311 4:-0.316925 5:0.140243 6:-0.175166 7:-0.72586 8:-0.806446 9:0.0599122 10:-0.879356 
-256 1:-0.295556 2:0.328642 3:-0.0821699 4:-0.239373 5:-0.220459 6:0.0303578 7:-0.778026 8:-0.755412 9:0.307923 10:-0.431043 
-256 1:0.189676 2:0.103744 3:-0.123292 4:-0.0449599 5:-0.215941 6:0.351018 7:-0.864198 8:-0.800085 9:0.148822 10:-0.45028 
-256 1:0.221861 2:-0.205036 3:-0.0686669 4:-0.243621 5:-0.226643 6:-0.121306 7:-0.594464 8:-0.541855 9:-0.287492 10:-0.581419 
-256 1:-0.0830907 2:0.240983 3:0.262669 4:-0.129407 5:-0.0876358 6:0.25072 7:-0.988518 8:-0.714346 9:0.03348 10:-0.421117 
-256 1:-0.153711 2:-0.340264 3:-0.411169 4:0.389681 5:0.282458 6:-0.0778446 7:-0.850667 8:-0.694964 9:-0.13072 10:-0.326525 
-256 1:0.449416 2:-0.363632 3:-0.382941 4:-0.0807165 5:-0.338685 6:-0.297555 7:-0.81725 8:-0.726432 9:0.204899 10:-0.607505 
-256 1:0.185433 2:0.196381 3:-0.111233 4:0.0781785 5:-0.0303077 6:-0.164678 7:-0.658877 8:-0.541347 9:0.0622667 10:-0.569857 
-44.6857481136842 1:-0.245892 2:0.0991344 3:-0.342287 4:0.140757 5:0.083174 6:-0.409804 7:-0.65221 8:-0.538209 9:0.00344452 10:-0.629035 
-144.8393504127562 1:-0.335537 2:0.176225 3:-0.343679 4:-0.623655 5:-0.689931 6:0.20509 7:-0.758018 8:-0.681767 9:-0.0672409 10:-0.487015 
-256 1:0.161591 2:-0.109727 3:-0.218448 4:-0.0439948 5:0.200774 6:-0.334382 7:-0.94924 8:-0.896685 9:0.234232 10:-0.77084 
-256 1:0.0655361 2:-0.214158 3:-0.298023 4:0.0518336 5:0.0756922 6:-0.261069 7:-0.644647 8:-0.493425 9:-0.018578 10:-0.165192 
-256 1:-0.443082 2:-0.256479 3:-0.101051 4:0.439147 5:0.0901096 6:-0.104977 7:-0.812101 8:-0.702193 9:0.392488 10:-0.370964 
-256 1:-0.00973102 2:-0.266435 3:-0.0857662 4:0.128411 5:-0.183969 6:-0.392619 7:-0.827015 8:-0.805487 9:-0.226277 10:-0.480989 
-52.00947678150563 1:0.0752978 2:0.120835 3:0.396013 4:-0.0377867 5:-0.249145 6:0.332167 7:-0.890359 8:-0.50277 9:0.0414018 10:-0.181702 
-87.18642198388122 1:0.302825 2:-0.223598 3:-0.340781 4:0.365007 5:0.465933 6:-0.0662467 7:-0.973603 8:-0.646015 9:0.0459156 10:-0.912454 
-256 1:0.0265458 2:-0.208616 3:-0.384826 4:0.0808349 5:0.11182 6:0.234924 7:-0.539433 8:-0.475025 9:0.245315 10:-0.737889 
-256 1:-0.0540276 2:-0.140205 3:0.130797 4:-0.114225 5:0.264743 6:-0.117536 7:-0.718923 8:-0.782488 9:0.119723 10:-0.373976 
-256 1:-0.239872 2:0.202511 3:0.142621 4:-0.0101683 5:-0.0392449 6:-0.112537 7:-0.669343 8:-0.526095 9:0.0601724 10:-0.319036 
-256 1:-0.00574359 2:-0.192703 3:-0.012947 4:0.00876454 5:0.292854 6:-0.0219933 7:-0.921422 8:-0.568816 9:0.00356159 10:-0.497183 
-256 1:0.170062 2:0.132408 3:-0.309001 4:-0.0620124 5:-0.265629 6:-0.2538 7:-0.917915 8:-0.635269 9:0.114351 10:-0.629657 
-256 1:-0.143311 2:0.260844 3:0.00505967 4:-0.0225349 5:0.0125016 6:-0.244402 7:-0.877354 8:-0.942276 9:0.342264 10:0.0433075 
-256 1:0.106119 2:-0.0586764 3:0.10531 4:-0.123159 5:-0.0826141 6:0.291859 7:-0.657566 8:-0.34385 9:-0.026682 10:-0.295413 
-256 1:-0.0019878 2:0.250742 3:-0.135583 4:0.139484 5:0.0851366 6:0.0709785 7:-0.961548 8:-0.728433 9:0.0697593 10:-0.534013 
-256 1:-0.294897 2:0.2631 3:0.40132 4:-0.0212813 5:-0.0127415 6:0.0119998 7:-0.720356 8:-0.720383 9:0.35708 10:-0.339551 
-256 1:0.155656 2:-0.0686315 3:-0.0251147 4:-0.0974208 5:-0.258332 6:-0.387325 7:-0.857966 8:-0.625767 9:0.33628 10:-0.438093 
-256 1:-0.27396 2:-0.15553 3:-0.142595 4:0.0622999 5:0.0198507 6:-0.115983 7:-0.835926 8:-0.730866 9:0.0485432 10:-0.589235 
-256 1:-0.00763213 2:0.326876 3:0.127073 4:-0.081005 5:-0.0576051 6:-0.060985 7:-0.994725 8:-0.905435 9:0.232112 10:-0.557847 
-256 1:-0.00446251 2:0.421695 3:0.0581973 4:-0.0460941 5:0.124561 6:-0.294548 7:-0.842401 8:-0.441695 9:0.0532651 10:-0.520165 
-256 1:-0.272584 2:0.0593384 3:-0.0624105 4:-0.0300961 5:-0.471218 6:-0.480682 7:-0.819165 8:-0.795384 9:0.230122 10:-0.452427 
-256 1:-0.224608 2:-0.364981 3:-0.395993 4:0.268204 5:0.463124 6:-0.0480549 7:-0.764453 8:-0.769079 9:-0.0307015 10:-0.435383 
-256 1:0.175397 2:0.22144 3:0.0554924 4:0.423865 5:0.389981 6:-0.315512 7:-0.885954 8:-0.742886 9:0.30428 10:-0.432252 
-256 1:0.331658 2:-0.607091 3:-0.181084 4:-0.0496757 5:-0.170523 6:0.354733 7:-0.40678 8:-0.595244 9:-0.292982 10:-0.201823 
-256 1:-0.208788 2:0.011083 3:-0.180911 4:0.212947 5:0.123617 6:0.200603 7:-0.714799 8:-0.793813 9:0.288762 10:-0.351372 
-256 1:0.152456 2:-0.124267 3:-0.038669 4:0.214917 5:0.275555 6:0.260152 7:-0.963009 8:-0.645183 9:0.247748 10:-0.0621763 
-256 1:-0.397284 2:0.279357 3:0.395565 4:0.131634 5:-0.00789737 6:-0.0870235 7:-0.667469 8:-0.784521 9:0.181433 10:-0.234804 
-256 1:-0.226262 2:0.187848 3:0.249856 4:0.00143215 5:0.178091 6:-0.217745 7:-0.890237 8:-0.69161 9:0.0653886 10:-0.545376 
-105.1781242557359 1:0.25442 2:-0.534046 3:-0.454407 4:0.0943754 5:-0.531812 6:-0.51229 7:-0.667256 8:-0.718521 9:-0.219825 10:-0.649837 
-256 1:0.254515 2:0.0494814 3:-0.0845665 4:0.338812 5:0.129739 6:-0.261005 7:-0.793486 8:-0.697739 9:0.252574 10:-0.265831 
-256 1:-0.176449 2:0.313219 3:0.575013 4:0.370977 5:-0.0652742 6:-0.334566 7:-0.977234 8:-0.495407 9:0.375876 10:-0.285069 
-256 1:0.352633 2:0.217223 3:-0.148472 4:-0.0586298 5:-0.0372335 6:0.0166343 7:-0.76353 8:-0.652617 9:-0.0724571 10:0.162408 
-256 1:-0.0907417 2:0.152392 3:-0.028919 4:0.414225 5:0.183536 6:-0.151527 7:-0.898377 8:-0.753927 9:0.401944 10:-0.260792 
-256 1:0.121627 2:0.165976 3:-0.159528 4:0.609125 5:0.138276 6:-0.627351 7:-0.994177 8:-0.85214 9:0.164054 10:-0.668734 
-256 1:-0.658188 2:0.0847412 3:0.265131 4:-0.0212316 5:0.0296873 6:-0.437888 7:-0.940544 8:-0.806986 9:0.342589 10:-0.452737 
-256 1:0.0394488 2:0.107937 3:-0.0458656 4:0.540547 5:0.322374 6:0.0105739 7:-0.92292 8:-0.811843 9:0.209751 10:-0.221926 
-256 1:0.109426 2:0.0360444 3:0.296525 4:0.393511 5:-0.0801442 6:-0.294928 7:-0.796422 8:-0.576997 9:-0.318685 10:-0.383949 
-256 1:-0.405117 2:0.506804 3:0.493447 4:-0.0565405 5:-0.0648314 6:-0.313784 7:-0.976405 8:-0.581444 9:0.0216817 10:-0.154266 
-104.3052369197772 1:0.233606 2:-0.714955 3:-0.498637 4:-0.292202 5:-0.377298 6:-0.245821 7:-0.90229 8:-0.589148 9:-0.486975 10:-0.250397 
-256 1:0.136395 2:-0.116715 3:-0.247319 4:0.340801 5:0.262262 6:0.0676638 7:-0.948303 8:-0.879456 9:-0.108762 10:0.116662 
-256 1:-0.00779049 2:-0.0387171 3:0.123988 4:-0.0579234 5:0.0226523 6:-0.434471 7:-0.797307 8:-0.747532 9:0.133043 10:-0.625463 
-256 1:0.402066 2:0.14332 3:-0.0684996 4:-0.414914 5:-0.765506 6:0.0682133 7:-0.59655 8:-0.318285 9:-0.17388 10:-0.375756 
-256 1:-0.00482178 2:-0.506387 3:-0.353053 4:0.000954603 5:-0.0783181 6:-0.295852 7:-0.976277 8:-0.850766 9:-0.144743 10:-0.308998 
-256 1:-0.136551 2:-0.352843 3:-0.420256 4:-0.187529 5:-0.237178 6:-0.0475213 7:-0.89038 8:-0.653817 9:0.197953 10:-0.541546 
-256 1:-0.251555 2:0.337395 3:0.118172 4:0.0183752 5:0.362785 6:0.0145565 7:-0.883168 8:-0.560498 9:-0.0277226 10:-0.0298727 
-256 1:-0.596866 2:0.222519 3:-0.0725463 4:0.0379548 5:0.14344 6:-0.142831 7:-0.962246 8:-0.755843 9:0.474932 10:-0.256331 
-256 1:-0.0264725 2:0.0984479 3:-0.142324 4:-0.160398 5:-0.239678 6:-0.382585 7:-0.809423 8:-0.716809 9:0.130494 10:-0.654372 
-256 1:-0.46637 2:-0.110438 3:-0.311149 4:0.525802 5:0.147658 6:-0.570189 7:-0.963365 8:-0.815862 9:0.101447 10:-0.926058 
-256 1:-0.389442 2:-0.0664983 3:0.282922 4:-0.112384 5:-0.0963916 6:0.120213 7:-0.99783 8:-0.599678 9:0.104296 10:-0.476686 
-256 1:-0.262771 2:0.21916 3:-0.300568 4:0.146986 5:-0.147235 6:-0.486668 7:-0.930728 8:-0.59453 9:0.170337 10:0.152999 
-256 1:-0.24424 2:0.475223 3:0.293035 4:-0.376837 5:-0.136068 6:-0.0950964 7:-0.925855 8:-0.875618 9:0.113141 10:-0.749486 
-256 1:-0.262402 2:0.1124 3:-0.0879416 4:-0.284899 5:-0.210966 6:0.0366461 7:-0.835804 8:-0.78964 9:0.15478 10:0.214111 
-256 1:-0.0103881 2:0.00904789 3:-0.0524564 4:-0.00181121 5:0.0273813 6:-0.197537 7:-0.848319 8:-0.574645 9:-0.051098 10:-0.709949 
-256 1:-0.00270398 2:0.0761837 3:0.057764 4:0.391461 5:0.25517 6:-0.0281191 7:-0.920337 8:-0.670069 9:-0.118167 10:-0.339083 
-256 1:-0.306975 2:0.22681 3:0.0306579 4:0.185239 5:0.0940231 6:-0.121976 7:-0.943259 8:-0.837515 9:0.455251 10:-0.528077 
-256 1:-0.218328 2:-0.014099 3:-0.171168 4:0.297971 5:-0.138861 6:-0.0888311 7:-0.975274 8:-0.73716 9:0.358901 10:-0.207454 
-256 1:-0.191474 2:0.208028 3:-0.0557762 4:0.0686374 5:-0.0649153 6:0.188347 7:-0.76887 8:-0.583535 9:0.247891 10:-0.240356 
-256 1:-0.210145 2:0.180492 3:0.0644207 4:-0.00862625 5:0.268081 6:0.125266 7:-0.828065 8:-0.792787 9:0.283949 10:-0.507958 
-256 1:-0.354304 2:0.371135 3:-0.124705 4:-0.408464 5:-0.332815 6:-0.349567 7:-0.786834 8:-0.638497 9:0.105882 10:-0.483468 
-225.1769103558246 1:-0.549695 2:0.281563 3:0.732034 4:-0.301693 5:0.142976 6:0.170074 7:-0.984023 8:-0.897382 9:-0.167363 10:-0.539302 
-256 1:-0.200052 2:0.171861 3:-0.225177 4:0.236506 5:0.0378266 6:-0.60867 7:-0.911268 8:-0.911911 9:0.247019 10:-0.0149053 
-256 1:-0.366704 2:-0.179511 3:0.0538214 4:0.343846 5:0.178015 6:-0.0488623 7:-0.997531 8:-0.681839 9:0.00203965 10:-0.700661 
-256 1:-0.288402 2:0.328372 3:-0.333226 4:0.00958036 5:0.00549967 6:-0.385071 7:-0.819074 8:-0.615966 9:0.263617 10:-0.436589 
-256 1:-0.348714 2:-0.103769 3:-0.418833 4:0.498433 5:0.751276 6:0.00826108 7:-0.913288 8:-0.995004 9:0.444181 10:-0.385533 
-256 1:-0.327373 2:-0.183827 3:-0.214548 4:0.138121 5:0.307018 6:0.172571 7:-0.850434 8:-0.662054 9:-0.13444 10:-0.661872 
-256 1:-0.109707 2:-0.271878 3:0.0243134 4:0.21233 5:0.469093 6:-0.315136 7:-0.994945 8:-0.598576 9:0.0895965 10:-0.500845 
-256 1:0.458341 2:0.0829757 3:0.0997307 4:0.414364 5:0.432556 6:-0.0235552 7:-0.874722 8:-0.602998 9:0.00122015 10:-0.256575 
-256 1:-0.110717 2:-0.578991 3:-0.295314 4:0.216907 5:0.213135 6:-0.167355 7:-0.906988 8:-0.759278 9:0.307363 10:-0.52026 
-256 1:-0.185175 2:-0.548047 3:-0.36449 4:0.129326 5:-0.0171233 6:-0.342612 7:-0.968769 8:-0.80927 9:-0.0367762 10:-0.43324 
-256 1:0.0274298 2:-0.333497 3:-0.619813 4:0.392168 5:0.428454 6:0.0895219 7:-0.934597 8:-0.946148 9:0.395714 10:-0.549103 
-256 1:0.290664 2:0.0359954 3:0.318213 4:0.462626 5:0.508912 6:-0.19657 7:-0.997056 8:-0.678766 9:0.0910924 10:-0.551334 
-256 1:0.0839747 2:0.0377363 3:0.265566 4:0.405758 5:0.213728 6:0.193086 7:-0.887567 8:-0.758932 9:0.195273 10:-0.417275 
-256 1:-0.202609 2:-0.0842263 3:-0.0361156 4:0.0789048 5:0.204461 6:-0.22469 7:-0.914252 8:-0.714997 9:-0.100632 10:-0.565877 
-256 1:0.0580812 2:-0.350783 3:0.294471 4:0.31957 5:0.00213237 6:-0.527953 7:-0.945496 8:-0.724589 9:0.112946 10:-0.500827 
-256 1:0.152718 2:-0.167055 3:-0.383581 4:0.0291002 5:-0.0813557 6:-0.151223 7:-0.921825 8:-0.72198 9:0.0876583 10:-0.5502 
-256 1:-0.038501 2:-0.301841 3:-0.278695 4:0.17347 5:-0.0166492 6:-0.522064 7:-0.996347 8:-0.744141 9:0.0653235 10:-0.643323 
-256 1:0.144857 2:-0.237771 3:-0.173434 4:0.0530673 5:0.0634872 6:-0.0534704 7:-0.959011 8:-0.855347 9:-0.156619 10:-0.407655 
-256 1:0.0223055 2:0.0919256 3:-0.210016 4:0.0952509 5:0.0578802 6:0.187049 7:-0.95661 8:-0.78057 9:-0.102597 10:-0.463327 
-256 1:0.208849 2:-0.108795 3:-0.357317 4:0.178285 5:-0.245404 6:-0.450585 7:-0.981383 8:-0.668582 9:-0.0902651 10:-0.413419 
-256 1:0.246596 2:-0.117819 3:-0.118349 4:0.512123 5:0.341555 6:-0.0489896 7:-0.949179 8:-0.601109 9:-0.046194 10:-0.651727 
-256 1:-0.0819301 2:-0.0839566 3:-0.040535 4:0.259498 5:0.367819 6:0.0808854 7:-0.923734 8:-0.739391 9:0.0736617 10:-0.384307 
-256 1:0.0120568 2:-0.0107888 3:-0.043253 4:0.318197 5:0.186495 6:-0.434655 7:-0.879131 8:-0.699307 9:0.288177 10:-0.564874 
-256 1:0.0818143 2:-0.0148837 3:-0.223031 4:0.379294 5:0.00381992 6:-0.12213 7:-0.929981 8:-0.713886 9:0.285458 10:-0.242996 
-256 1:0.3958 2:-0.0608832 3:0.168573 4:0.0804866 5:-0.190768 6:-0.365905 7:-0.919475 8:-0.679428 9:0.109772 10:-0.524633 
-256 1:0.0347925 2:-0.117672 3:-0.308567 4:0.466974 5:0.797454 6:0.326831 7:-0.904102 8:-0.721244 9:0.108523 10:-0.491821 
-256 1:0.354432 2:-0.0987176 3:-0.15097 4:0.303483 5:-0.0451367 6:-0.283342 7:-0.970824 8:-0.795944 9:-0.0939463 10:-0.473433 
-256 1:-0.219349 2:-0.390727 3:-0.371982 4:-0.0474272 5:-0.0120626 6:-0.199382 7:-0.871633 8:-0.866615 9:-0.00693586 10:-0.495355 
-256 1:-0.155512 2:-0.18672 3:-0.101543 4:0.36634 5:0.459729 6:-0.304276 7:-0.909858 8:-0.739855 9:-0.0383242 10:-0.605765 
-256 1:-0.228853 2:-0.56168 3:-0.0779823 4:0.0222852 5:-0.185824 6:-0.134136 7:-0.881767 8:-0.816412 9:0.0837689 10:-0.569963 
-256 1:0.244521 2:-0.512812 3:-0.527056 4:0.060927 5:-0.219901 6:-0.202781 7:-0.944689 8:-0.788465 9:-0.181958 10:-0.490994 
-256 1:0.236331 2:-0.189785 3:0.122728 4:0.209972 5:0.0341257 6:0.222913 7:-0.889039 8:-0.750028 9:-0.0874944 10:-0.385952 
-256 1:0.288704 2:-0.320967 3:0.0825524 4:0.628953 5:0.398641 6:0.00884061 7:-0.905701 8:-0.705057 9:-0.162967 10:-0.455614 
-256 1:-0.0149192 2:-0.0940833 3:-0.342935 4:0.423258 5:0.537161 6:0.193413 7:-0.887903 8:-0.746116 9:0.117915 10:-0.751251 
-256 1:0.136352 2:0.165951 3:-0.0600915 4:0.305423 5:0.36274 6:-0.332713 7:-0.938415 8:-0.751272 9:0.284755 10:-0.591321 
-256 1:0.13129 2:-0.0821911 3:-0.216491 4:0.53604 5:0.184856 6:0.230327 7:-0.920893 8:-0.823225 9:-0.0116838 10:-0.527659 
-256 1:-0.00293325 2:-0.496114 3:-0.396285 4:0.255807 5:0.0913991 6:-0.399499 7:-0.971315 8:-0.777242 9:0.14345 10:-0.51318 
-256 1:0.302212 2:-0.248437 3:-0.0544515 4:0.20842 5:0.19743 6:-0.189427 7:-0.964559 8:-0.746763 9:0.475583 10:-0.499732 
-256 1:-0.324598 2:-0.00836133 3:-0.371158 4:0.392775 5:0.134002 6:-0.19548 7:-0.939224 8:-0.68498 9:0.209465 10:-0.418125 
-256 1:0.32465 2:-0.245911 3:-0.285292 4:0.351745 5:0.189205 6:-0.152003 7:-0.942051 8:-0.681295 9:0.0849006 10:-0.301966 
-256 1:0.297712 2:-0.096756 3:-0.304278 4:0.106931 5:0.183817 6:-0.716576 7:-0.997554 8:-0.730075 9:-0.0671759 10:-0.469283 
-256 1:-0.0999575 2:-0.115685 3:-0.0851486 4:0.304408 5:0.0402399 6:0.0722842 7:-0.971088 8:-0.732083 9:-0.0581353 10:-0.315857 
-256 1:-0.0860901 2:-0.17853 3:-0.058136 4:0.323351 5:0.335256 6:0.0017236 7:-0.904818 8:-0.662832 9:0.117889 10:-0.480182 
-256 1:-0.0563912 2:-0.437486 3:-0.254313 4:-0.127238 5:0.250812 6:0.0544386 7:-0.94854 8:-0.593992 9:0.144217 10:-0.507188 
-256 1:0.610899 2:-0.651423 3:-0.379124 4:0.381522 5:0.141195 6:-0.0907976 7:-0.970426 8:-0.824521 9:0.105284 10:-0.476914 
-256 1:0.088527 2:-0.108403 3:-0.0573459 4:0.231194 5:-0.0328049 6:-0.206884 7:-0.903146 8:-0.83389 9:-0.0746165 10:-0.604112 
-256 1:-0.0487615 2:-0.194566 3:0.15541 4:0.202302 5:0.264004 6:0.0262162 7:-0.861317 8:-0.685304 9:0.000881942 10:-0.519356 
-256 1:0.399842 2:-0.322782 3:-0.274985 4:0.119785 5:-0.0579777 6:-0.403773 7:-0.890592 8:-0.860344 9:0.188913 10:-0.152585 
-256 1:-0.241238 2:-0.494324 3:-0.335686 4:-0.158179 5:-0.0429829 6:-0.0380684 7:-0.906146 8:-0.689412 9:0.230967 10:-0.525697 
-256 1:0.018994 2:-0.209033 3:0.00561933 4:0.368509 5:0.606673 6:-0.140004 7:-0.931374 8:-0.88245 9:0.237159 10:-0.587484 
-256 1:-0.0666375 2:-0.322389 3:-0.136329 4:0.0646678 5:0.105982 6:0.358006 7:-0.791231 8:-0.353658 9:0.340924 10:0.12193 
-256 1:-0.202945 2:-0.0610549 3:0.0325845 4:0.195148 5:-0.0770481 6:-0.701785 7:-0.903015 8:-0.376089 9:-0.300552 10:0.0621264 
-256 1:-0.291886 2:0.0358238 3:0.151251 4:-0.182077 5:0.206172 6:-0.142705 7:-0.80148 8:-0.966133 9:0.0425335 10:0.0490227 
-256 1:-0.341141 2:0.355785 3:0.17296 4:0.279844 5:0.176132 6:-0.454543 7:-0.840788 8:-0.721204 9:-0.0425778 10:0.41957 
-67.71463966585699 1:-0.110407 2:-0.202388 3:0.191989 4:-0.00852676 5:-0.152098 6:-0.482739 7:-0.785369 8:-0.602211 9:-0.453901 10:0.434827 
-177.8604951357112 1:-0.232159 2:-0.112032 3:0.0586542 4:-0.239024 5:-0.0868379 6:0.170505 7:-0.860777 8:-0.416842 9:-0.0134138 10:0.162632 
-256 1:-0.0126454 2:0.183729 3:0.236621 4:0.595246 5:0.283273 6:0.203771 7:-0.316948 8:-0.299417 9:-0.00233103 10:0.119801 
-256 1:-0.0232935 2:0.284506 3:0.0700278 4:0.251141 5:0.238131 6:-0.00037723 7:-0.863992 8:-0.718928 9:-0.00869194 10:0.143846 
-256 1:0.0407677 2:-0.322512 3:-0.0277536 4:-0.104703 5:0.239473 6:0.201693 7:-0.656967 8:-0.894493 9:0.196873 10:0.103425 
-234.7391455393779 1:-0.0167013 2:0.00865557 3:-0.0589999 4:-0.5591 5:-0.273698 6:0.313287 7:-0.826887 8:0.241206 9:-0.195279 10:0.370725 
-204.5401269546822 1:-0.358826 2:0.0803766 3:0.634389 4:0.0269314 5:-0.2504 6:-0.228798 7:-0.38893 8:0.53956 9:-0.149334 10:0.104295 
-256 1:0.267869 2:-0.19822 3:-0.0913918 4:0.00323292 5:-0.148117 6:0.108004 7:-0.667671 8:-0.850134 9:-0.243929 10:0.376068 
-36.58719919629963 1:-0.481346 2:-0.0908222 3:-0.0283225 4:-0.64524 5:0.101091 6:0.263345 7:-0.761191 8:-0.775129 9:0.0684715 10:0.545455 
-256 1:-0.105349 2:-0.102837 3:0.21999 4:0.154696 5:0.254692 6:-0.188137 7:-0.998479 8:-0.706353 9:0.267741 10:0.406674 
-256 1:0.0857285 2:-0.268396 3:0.141036 4:-0.00807906 5:-0.296672 6:-0.218816 7:-0.875766 8:-0.43419 9:0.132042 10:0.342116 
-256 1:0.129047 2:-0.044038 3:-0.340502 4:-0.0499742 5:-0.208467 6:-0.244789 7:-0.744429 8:-0.777421 9:-0.246296 10:-0.545924 
-256 1:0.224615 2:-0.165265 3:-0.0629912 4:-0.0907052 5:-0.110957 6:-0.139417 7:-0.633764 8:-0.712776 9:-0.21094 10:-0.441902 
-256 1:0.0927933 2:-0.00225584 3:-0.0478422 4:-0.208949 5:-0.3159 6:-0.347364 7:-0.858033 8:-0.736662 9:0.25178 10:-0.520427 
-256 1:0.521339 2:-0.338523 3:-0.28667 4:-0.127506 5:-0.318934 6:-0.442362 7:-0.862719 8:-0.659434 9:-0.405535 10:-0.208774 
-256 1:0.509088 2:-0.0547532 3:-0.506225 4:0.0937685 5:-0.368562 6:0.0549316 7:-0.921219 8:-0.419442 9:0.153453 10:-0.513286 
-256 1:0.103855 2:-0.209646 3:-0.101561 4:-0.0888746 5:-0.356101 6:0.016493 7:-0.663135 8:-0.629646 9:0.215176 10:-0.486825 
-256 1:0.399019 2:-0.00936665 3:-0.513472 4:0.135982 5:-0.319847 6:0.00511955 7:-0.896244 8:-0.659458 9:-0.0987073 10:-0.37459 
-256 1:0.227019 2:-0.352598 3:-0.472496 4:0.0630958 5:0.113616 6:-0.296085 7:-0.918547 8:-0.866506 9:-0.0699076 10:-0.57371 
-256 1:-0.0844497 2:-0.36677 3:-0.0400148 4:-0.23011 5:-0.511434 6:-0.287436 7:-0.938584 8:-0.806104 9:-0.200495 10:-0.448477 
-256 1:0.511811 2:0.0496285 3:-0.567349 4:-0.325256 5:-0.388859 6:-0.117824 7:-0.808512 8:-0.599437 9:0.182526 10:-0.584507 
-256 1:0.389777 2:-0.0749332 3:-0.390716 4:-0.00307473 5:-0.206436 6:-0.231488 7:-0.987609 8:-0.472472 9:-0.208248 10:-0.437304 
-256 1:-0.0480973 2:-0.0320477 3:-0.141125 4:-0.13079 5:-0.340135 6:0.0545482 7:-0.210453 8:-0.0888719 9:-0.0235991 10:-0.373885 
-256 1:0.262322 2:-0.0342054 3:-0.152051 4:-0.0584407 5:-0.11673 6:0.341374 7:-0.145382 8:-0.117916 9:0.0161273 10:-0.308178 
-256 1:0.316486 2:4.904e-005 3:0.0347494 4:-0.231543 5:-0.671723 6:0.175507 7:-0.189951 8:-0.129707 9:-0.284618 10:-0.374989 
-42.78144059052307 1:0.34176 2:-0.0323174 3:-0.061386 4:-0.497409 5:-0.420958 6:-0.104207 7:-0.218483 8:-0.143385 9:-0.191858 10:-0.477598 
-256 1:-0.203141 2:0.20641 3:0.0198229 4:0.14424 5:-0.0513895 6:-0.0823113 7:-0.142751 8:-0.192514 9:-0.21963 10:-0.218421 
-256 1:0.135695 2:0.0117941 3:-0.00555547 4:-0.0317576 5:-0.0524293 6:0.165461 7:-0.159903 8:-0.113603 9:0.0295125 10:-0.449068 
-256 1:0.379739 2:-0.210112 3:-0.231499 4:-0.314363 5:-0.187931 6:-0.121771 7:-0.0796653 8:-0.209196 9:-0.472111 10:-0.338665 
-256 1:0.203836 2:-0.253831 3:-0.279533 4:-0.344939 5:-0.468879 6:0.320733 7:-0.241348 8:-0.177634 9:-0.441654 10:-0.234982 
-256 1:0.0758391 2:-0.156119 3:-0.0849379 4:0.106085 5:-0.159787 6:0.133556 7:-0.116409 8:-0.125441 9:-0.07714 10:-0.480814 
-256 1:-0.0975206 2:-0.0572542 3:-0.164573 4:0.0630262 5:-0.0517211 6:0.0395544 7:-0.161026 8:-0.256175 9:-0.00689684 10:-0.570969 
-256 1:0.260771 2:-0.225167 3:-0.317939 4:-0.0896407 5:-0.279038 6:0.1455 7:-0.0234875 8:-0.115585 9:-0.332136 10:-0.341565 
-256 1:0.300466 2:-0.278474 3:-0.170558 4:-0.0335484 5:-0.177412 6:0.0826593 7:-0.0419474 8:-0.0136612 9:-0.373748 10:-0.37073 
-256 1:0.157552 2:-0.279479 3:-0.171372 4:0.211415 5:-0.172882 6:0.139318 7:-0.240072 8:-0.133257 9:-0.0455956 10:-0.546878 
-256 1:0.215494 2:-0.335728 3:-0.313965 4:-0.113966 5:0.350116 6:0.34492 7:-0.113163 8:-0.182262 9:-0.172293 10:-0.193315 
-256 1:0.306715 2:-0.12748 3:-0.17381 4:-0.294341 5:-0.32818 6:-0.198509 7:-0.320394 8:-0.274435 9:-0.205386 10:-0.36798 
-256 1:0.331736 2:0.159356 3:-0.265094 4:-0.418962 5:-0.0392215 6:0.225327 7:-0.155952 8:-0.314792 9:-0.232794 10:-0.575764 
-129.3842169929409 1:0.428954 2:0.154648 3:-0.203307 4:-0.0878598 5:-0.401897 6:0.064418 7:-0.170809 8:-0.148606 9:-0.0893805 10:-0.24698 
-256 1:0.101751 2:-0.0130937 3:-0.174011 4:0.0646379 5:-0.304312 6:-0.0798836 7:-0.347807 8:-0.164629 9:-0.0775433 10:-0.269132 
-235.9952792550573 1:-0.0594261 2:0.192727 3:0.00946849 4:0.399779 5:0.327809 6:0.325375 7:-0.239611 8:-0.140904 9:-0.26841 10:-0.560581 
-256 1:0.191555 2:0.00044136 3:-0.217479 4:0.012973 5:-0.266764 6:0.22312 7:-0.269218 8:-0.293759 9:-0.10659 10:-0.277005 
-256 1:-0.107521 2:0.0619866 3:0.00570888 4:-0.0222066 5:-0.0815177 6:-0.0206045 7:-0.212932 8:-0.270896 9:-0.203838 10:-0.445888 
-194.4844306051242 1:0.263558 2:-0.360542 3:-0.241983 4:-0.485088 5:-0.367467 6:0.348509 7:-0.0867051 8:-0.160646 9:-0.361007 10:-0.361149 
-256 1:0.27097 2:0.296496 3:0.0201034 4:-0.294868 5:-0.20365 6:0.124331 7:-0.387213 8:-0.251651 9:-0.414812 10:-0.506542 
-256 1:-0.157807 2:0.221465 3:0.0729947 4:-0.306225 5:0.0907553 6:-0.0493871 7:-0.37593 8:-0.287225 9:0.131872 10:-0.315376 
-256 1:0.317604 2:-0.13383 3:-0.132115 4:-0.00580075 5:-0.483998 6:0.0497652 7:-0.238243 8:-0.144764 9:-0.350197 10:-0.450611 
-256 1:0.0748913 2:0.160287 3:0.270557 4:-0.030902 5:-0.137207 6:0.124729 7:-0.355364 8:-0.182898 9:-0.00231802 10:-0.376016 
-256 1:0.106264 2:-0.0409975 3:-0.315703 4:-0.275627 5:-0.331598 6:0.0631777 7:-0.216642 8:-0.15265 9:-0.393662 10:-0.223671 
-256 1:0.20711 2:-0.240198 3:-0.297825 4:-0.319601 5:-0.389425 6:0.199694 7:-0.0677278 8:-0.0972028 9:-0.339797 10:-0.263616 
-243.0643737662758 1:-0.023024 2:-0.429125 3:-0.608622 4:-0.195776 5:0.196404 6:0.257433 7:-0.137179 8:-0.180468 9:0.0819998 10:-0.377339 
-256 1:0.26322 2:-0.088836 3:-0.298295 4:0.332683 5:-0.0521464 6:0.19789 7:-0.345223 8:-0.165507 9:-0.319986 10:-0.569107 
-256 1:0.154994 2:-0.0619866 3:0.00122895 4:0.0773328 5:-0.350124 6:-0.0992681 7:-0.203421 8:-0.157159 9:-0.240533 10:-0.259025 
-256 1:-0.0259242 2:-0.12927 3:-0.323734 4:-0.400781 5:-0.10306 6:-0.104247 7:-0.262708 8:-0.354686 9:-0.132606 10:-0.460937 
-256 1:0.208273 2:-0.0723095 3:-0.550332 4:-0.458085 5:-0.693681 6:0.0860995 7:-0.199382 8:-0.0482086 9:-0.428561 10:-0.392183 
