svm_type c_svc
kernel_type polynomial
degree 2
gamma 1
coef0 0
nr_class 2
total_sv 418
rho 0.373296
label -1 1
nr_sv 207 211
SV
4096 1:-0.128397 2:-0.0909448 3:-0.0587233 4:0.234606 5:-0.0275803 6:-0.0462491 7:-0.808271 8:-0.750265 9:-0.129055 10:-0.165887 
4096 1:0.273551 2:0.141971 3:-0.123115 4:-0.0339762 5:-0.25716 6:0.0127825 7:-0.66153 8:-0.69054 9:-0.10179 10:-0.354816 
4096 1:-0.162522 2:0.0602457 3:0.248697 4:-0.0290813 5:-0.0293069 6:0.038284 7:-0.828659 8:-0.765995 9:-0.0676572 10:-0.139647 
4096 1:0.184818 2:-0.0494814 3:-0.00917681 4:-0.164815 5:-0.474455 6:-0.213453 7:-0.512481 8:-0.561884 9:-0.283031 10:-0.75418 
3696.255321272864 1:-0.184561 2:0.341834 3:0.119194 4:0.120491 5:0.114461 6:-0.485525 7:-0.87649 8:-0.727085 9:-0.0622068 10:-0.381549 
4096 1:0.171759 2:0.201996 3:-0.160742 4:-0.335149 5:-0.223104 6:-0.315595 7:-0.714327 8:-0.475095 9:-0.186121 10:-0.454979 
4096 1:-0.150667 2:0.0614472 3:0.18931 4:0.249291 5:0.226097 6:0.010763 7:-0.953987 8:-0.445927 9:0.243702 10:-0.374088 
4096 1:-0.0112343 2:-0.100581 3:-0.121687 4:-0.147952 5:-0.258379 6:-0.119082 7:-0.518486 8:-0.60029 9:-0.245724 10:-0.270029 
4096 1:-0.21582 2:-0.274036 3:0.0986667 4:0.186184 5:0.0625137 6:-0.289477 7:-0.85935 8:-0.790356 9:-0.0230658 10:-0.437238 
4096 1:-0.212085 2:0.306157 3:-0.00614542 4:0.178693 5:0.287292 6:0.0217672 7:-0.799188 8:-0.793752 9:0.486431 10:-0.527146 
4096 1:-0.141323 2:-0.0395998 3:0.0444006 4:-0.279895 5:-0.0600301 6:-0.0377963 7:-0.892892 8:-0.684788 9:0.0956842 10:-0.492028 
4096 1:-0.0520185 2:0.187676 3:-0.112567 4:0.195944 5:0.22963 6:-0.488594 7:-0.572598 8:-0.707823 9:0.0281597 10:-0.561843 
1628.566638120302 1:0.338624 2:0.0561508 3:0.0581314 4:-0.202094 5:0.407752 6:-0.248326 7:-0.969409 8:-0.526578 9:0.264957 10:-0.688085 
2998.167259270952 1:-0.165501 2:0.103524 3:-0.20564 4:0.156348 5:-0.237438 6:-0.323131 7:-0.595154 8:-0.604888 9:-0.0957805 10:-0.467236 
4096 1:0.0358632 2:-0.00407032 3:-0.04115 4:-0.0599629 5:-0.423758 6:0.0128302 7:-0.867536 8:-0.609689 9:0.0779413 10:-0.192834 
4096 1:0.348194 2:-0.166099 3:-0.126428 4:0.548814 5:0.111384 6:0.00294982 7:-0.710169 8:-0.673016 9:0.0746893 10:-0.408211 
4096 1:0.431235 2:-0.405071 3:-0.607065 4:-0.0606394 5:-0.298871 6:0.106548 7:-0.676734 8:-0.663997 9:-0.104483 10:-0.752472 
4096 1:-0.149024 2:0.0636295 3:-0.525156 4:0.146816 5:-0.129165 6:-0.155656 7:-0.462184 8:-0.631824 9:-0.0679694 10:-0.39032 
4096 1:0.122372 2:-0.267244 3:-0.281113 4:0.199039 5:-0.216073 6:-0.458877 7:-0.902051 8:-0.442324 9:-0.125218 10:-0.274665 
4096 1:-0.198305 2:0.230831 3:0.100713 4:-0.302282 5:-0.163683 6:-0.155319 7:-0.888863 8:-0.793393 9:0.123404 10:-0.576382 
4096 1:-0.0216437 2:-0.220386 3:-0.364379 4:0.0961662 5:-0.194024 6:0.122879 7:-0.684615 8:-0.306842 9:-0.434065 10:-0.421698 
4096 1:-0.0631134 2:0.21227 3:0.0967362 4:-0.0121581 5:0.290544 6:-0.105901 7:-0.827977 8:-0.439223 9:0.119372 10:-0.424934 
4096 1:0.485506 2:-0.432876 3:-0.429051 4:0.110135 5:-0.249276 6:-0.158545 7:-0.89428 8:-0.629456 9:0.070982 10:-0.563702 
4096 1:0.23596 2:-0.0215286 3:-0.320555 4:0.402704 5:0.167322 6:-0.208373 7:-0.803855 8:-0.952489 9:-0.107045 10:-0.343445 
4096 1:0.0306112 2:-0.291151 3:0.0059841 4:0.135156 5:0.0544602 6:0.132858 7:-0.973685 8:-0.744359 9:-0.222712 10:0.253786 
4096 1:-0.218692 2:0.156609 3:0.0962687 4:0.0974994 5:-0.0264546 6:-0.219959 7:-0.872303 8:-0.66034 9:0.281998 10:-0.358874 
4096 1:0.175487 2:-0.0327097 3:-0.0435809 4:0.385701 5:0.247128 6:-0.0140565 7:-0.967823 8:-0.658055 9:-0.109738 10:-0.362069 
4096 1:0.0885364 2:0.0214305 3:-0.279212 4:0.290629 5:-0.113464 6:-0.427169 7:-0.848022 8:-0.340612 9:0.0377206 10:-0.461461 
4096 1:0.292656 2:0.212956 3:0.352675 4:0.307602 5:-0.334532 6:-0.181031 7:-0.514266 8:-0.572024 9:-0.0106041 10:-0.228378 
4096 1:-0.0445471 2:0.376726 3:-0.061469 4:0.349755 5:0.194529 6:-0.281125 7:-0.635055 8:-0.729381 9:0.456773 10:-0.37655 
4096 1:0.0473527 2:0.417846 3:0.466886 4:-0.161353 5:0.353397 6:0.0706251 7:-0.986992 8:-0.734338 9:0.200112 10:-0.373663 
4096 1:0.211913 2:0.624402 3:0.370624 4:-0.489271 5:-0.412821 6:-0.0868168 7:-0.680556 8:-0.539847 9:-0.029973 10:-0.390423 
4096 1:0.075728 2:-0.63985 3:-0.572607 4:0.151821 5:0.231932 6:-0.351039 7:-0.567239 8:-0.658123 9:0.153062 10:-0.43251 
4096 1:-0.180228 2:-0.0390359 3:-0.422216 4:0.208928 5:0.0841651 6:-0.294525 7:-0.871891 8:-0.721522 9:0.155963 10:-0.574652 
4096 1:-0.225574 2:0.0662041 3:0.0952416 4:-0.036563 5:-0.152414 6:-0.484281 7:-0.973784 8:-0.707699 9:0.15863 10:-0.284088 
4096 1:-0.621074 2:0.0585048 3:-0.105765 4:-0.223385 5:-0.172888 6:0.197989 7:-0.873999 8:-0.86464 9:0.326849 10:-0.0858491 
305.7648405530547 1:-0.0935142 2:0.281588 3:0.402452 4:0.328216 5:0.1806 6:-0.188535 7:-0.99871 8:-0.633812 9:-0.134752 10:-0.445203 
4096 1:0.426636 2:-0.221244 3:-0.141204 4:0.228378 5:0.525378 6:-0.0838202 7:-0.754771 8:-0.580604 9:-0.0607109 10:-0.269359 
4096 1:-0.103389 2:-0.189147 3:-0.0532544 4:-0.0072334 5:0.27798 6:-0.019502 7:-0.90479 8:-0.798653 9:0.0166086 10:-0.760832 
4096 1:-0.00534651 2:-0.355712 3:-0.095794 4:-0.279427 5:-0.206613 6:0.100846 7:-0.943455 8:-0.554496 9:-0.108203 10:-0.851118 
4096 1:-0.0195826 2:0.179634 3:0.0839233 4:0.0794122 5:0.145883 6:0.380864 7:-0.957632 8:-0.601846 9:0.046475 10:-0.538714 
4096 1:0.354224 2:-0.196209 3:-0.338309 4:0.0549079 5:-0.138175 6:-0.101238 7:-0.484463 8:-0.640738 9:-0.0797156 10:-0.56527 
2127.300589063798 1:-0.177586 2:-0.0367065 3:-0.195448 4:-0.260385 5:0.17796 6:-0.173794 7:-0.945967 8:-0.70316 9:-0.353192 10:-0.159137 
4096 1:0.305148 2:-0.363387 3:-0.680356 4:-0.193767 5:0.056298 6:0.0600803 7:-0.844348 8:-0.557062 9:-0.226979 10:-0.228663 
4096 1:-0.0370852 2:-0.0550474 3:-0.0563451 4:0.158288 5:0.0613236 6:-0.100977 7:-0.913526 8:-0.548469 9:0.291611 10:-0.220469 
4096 1:-0.0984944 2:-0.300689 3:-0.485274 4:0.403888 5:-0.0943255 6:-0.0253804 7:-0.775936 8:-0.864057 9:0.0765494 10:-0.573948 
4096 1:-0.237054 2:0.05262 3:-0.076543 4:0.385731 5:-0.0623478 6:0.0390703 7:-0.590946 8:-0.350892 9:0.0249207 10:-0.50242 
4096 1:0.143382 2:-0.0994042 3:0.0278715 4:0.189647 5:0.344327 6:0.0935663 7:-0.941169 8:-0.719858 9:-0.0705189 10:-0.230325 
4096 1:0.0524534 2:0.0894 3:0.319912 4:0.0979073 5:0.0963916 6:-0.0335152 7:-0.645926 8:-0.702717 9:-0.0126724 10:-0.591267 
3487.20008564723 1:-0.00216271 2:0.427261 3:-0.117396 4:0.462437 5:0.373408 6:-0.163341 7:-0.90583 8:-0.743274 9:1 10:-0.575035 
4096 1:0.173837 2:-0.0712552 3:-0.00632187 4:0.0334181 5:-0.263083 6:-0.0378069 7:-0.833532 8:-0.602956 9:0.0442116 10:-0.230727 
4096 1:-0.308398 2:-0.279896 3:-0.116904 4:-0.133247 5:-0.632817 6:-0.41133 7:-0.683191 8:-0.725144 9:0.110305 10:-0.625267 
4096 1:-0.111761 2:-0.00536988 3:-0.417618 4:-0.399674 5:-0.585127 6:-0.379031 7:-0.685033 8:-0.549395 9:-0.111676 10:-0.367881 
4096 1:0.00316961 2:-0.0461222 3:-0.17212 4:0.052729 5:0.0591717 6:-0.174248 7:-0.563067 8:-0.629639 9:0.221029 10:-0.588502 
4096 1:-0.362584 2:0.0319005 3:0.471218 4:0.154208 5:-0.00836169 6:-0.564381 7:-0.989737 8:-0.484734 9:-0.0678263 10:-0.258852 
4096 1:-0.101881 2:-0.279087 3:-0.475143 4:-0.0268826 5:0.181889 6:0.382844 7:-0.794323 8:-0.774363 9:0.26393 10:-0.707752 
4096 1:0.00647395 2:0.305789 3:0.16012 4:0.14222 5:-0.0975816 6:-0.308513 7:-0.68219 8:-0.487529 9:-0.105042 10:-0.340274 
4096 1:-0.3773 2:0.0249123 3:-0.0309378 4:-0.301534 5:0.0876787 6:-0.224487 7:-0.822726 8:-0.580116 9:0.22886 10:-0.308679 
4096 1:-0.155146 2:0.321139 3:0.144652 4:0.272701 5:0.225736 6:-0.389048 7:-0.900648 8:-0.539773 9:-0.0639239 10:-0.134164 
1541.58569413842 1:0.127444 2:-0.0486722 3:0.114881 4:0.262453 5:-0.215896 6:-0.314501 7:-0.933863 8:-0.715402 9:0.166018 10:-0.511851 
4096 1:0.0241018 2:-0.284432 3:-0.194333 4:-0.0263852 5:-0.124871 6:-0.175004 7:-0.724342 8:-0.810949 9:-0.0643792 10:-0.221613 
4096 1:-0.0934008 2:-0.255695 3:0.0253142 4:0.241182 5:0.134926 6:-0.096457 7:-0.824796 8:-0.708905 9:0.142812 10:-0.335518 
4096 1:-0.000527087 2:-0.277836 3:-0.429844 4:0.176434 5:0.0902403 6:-0.64066 7:-0.50575 8:-0.449605 9:0.199995 10:-0.364295 
4096 1:0.0886192 2:0.230684 3:0.168561 4:0.0932412 5:-0.46557 6:0.310494 7:-0.70816 8:-0.330081 9:-0.0897838 10:-0.558321 
4096 1:0.367361 2:-0.630091 3:-0.439009 4:-0.251819 5:-0.324176 6:-0.315042 7:-0.504639 8:-0.497267 9:-0.0829416 10:-0.565609 
4096 1:-0.244644 2:0.0476914 3:0.314092 4:0.0942461 5:0.0324147 6:-0.0202812 7:-0.53494 8:-0.516091 9:0.000101462 10:-0.721475 
4096 1:0.562818 2:-0.0894736 3:0.167182 4:0.483877 5:0.600235 6:-0.374955 7:-0.632444 8:-0.621968 9:0.0571155 10:-0.591141 
4096 1:-0.0563156 2:-0.247579 3:-0.452201 4:-0.0473377 5:0.0987327 6:0.0452508 7:-0.785665 8:-0.635914 9:-0.0599564 10:-0.594195 
4096 1:-0.0784225 2:-0.306917 3:-0.102007 4:0.150209 5:0.13511 6:-0.162978 7:-0.891805 8:-0.802526 9:0.112321 10:-0.0181523 
4096 1:0.178359 2:-0.146262 3:0.219608 4:0.401948 5:0.427102 6:-0.209428 7:-0.796622 8:-0.899425 9:0.362465 10:-0.692441 
4096 1:-0.032157 2:0.172008 3:-0.0191296 4:0.0321944 5:0.49469 6:0.169853 7:-0.922174 8:-0.683527 9:0.382563 10:-0.375279 
4096 1:0.143252 2:0.0633107 3:-0.0620708 4:-0.326108 5:-0.184578 6:0.0392682 7:-0.738549 8:-0.600495 9:-0.282848 10:-0.653593 
36.81133615481376 1:0.173388 2:-0.266582 3:-0.373619 4:0.0924354 5:-0.119537 6:-0.144679 7:-0.683757 8:-0.726967 9:0.201543 10:-0.610163 
4096 1:-0.369136 2:-0.0510997 3:0.22045 4:0.0827948 5:-0.0132975 6:-0.0861366 7:-0.929828 8:-0.794337 9:-0.0695303 10:-0.167147 
4096 1:0.0736693 2:0.155849 3:0.392313 4:0.300976 5:0.16119 6:0.0389218 7:-0.845671 8:-0.500218 9:-0.198544 10:-0.317701 
4096 1:-0.165673 2:-0.443665 3:-0.257834 4:0.0336967 5:0.0802574 6:0.308125 7:-0.941637 8:-0.826612 9:0.00125917 10:-0.577922 
3274.28204293156 1:-0.1042 2:-0.0783169 3:0.154377 4:0.258006 5:0.161004 6:-0.236039 7:-0.93753 8:-0.934198 9:0.0173371 10:-0.28632 
4096 1:0.0370994 2:-0.0649535 3:-0.0644279 4:0.0522216 5:-0.121555 6:0.0852143 7:-0.719214 8:-0.408221 9:-0.13457 10:-0.106109 
4096 1:-0.00511014 2:-0.0792732 3:0.148301 4:0.0491374 5:0.0271218 6:-0.245688 7:-0.649303 8:-0.712098 9:0.250609 10:-0.419297 
4096 1:-0.451815 2:-0.0121129 3:-0.14304 4:0.221513 5:0.00717747 6:0.272241 7:-0.93996 8:-0.731622 9:0.391954 10:-0.0296573 
4096 1:-0.295556 2:0.328642 3:-0.0821699 4:-0.239373 5:-0.220459 6:0.0303578 7:-0.778026 8:-0.755412 9:0.307923 10:-0.431043 
4096 1:0.0752647 2:-0.0193953 3:-0.530238 4:0.280302 5:0.131188 6:-0.288284 7:-0.794281 8:-0.771525 9:0.329464 10:-0.552265 
4096 1:0.427751 2:-0.541181 3:-0.452175 4:0.163809 5:-0.29272 6:-0.00975763 7:-0.931775 8:-0.592728 9:-0.152768 10:0.0402676 
4096 1:-0.0858443 2:-0.141579 3:-0.0370572 4:0.0295678 5:0.000554064 6:0.0836841 7:-0.856315 8:-0.942344 9:-0.108775 10:-0.0264021 
4096 1:-0.358939 2:-0.0601231 3:-0.130941 4:-0.416099 5:-0.621933 6:-0.0735334 7:-0.521278 8:-0.525522 9:-0.0498622 10:-0.405141 
4096 1:-0.178694 2:0.238653 3:-0.0363342 4:0.306288 5:0.198628 6:0.0049782 7:-0.803331 8:-0.552832 9:0.0647772 10:-0.47177 
4096 1:-0.122393 2:-0.0943776 3:-0.131566 4:0.145573 5:0.293707 6:0.0564547 7:-0.978571 8:-0.676658 9:0.167905 10:-0.261086 
4096 1:0.0221873 2:-0.229728 3:-0.29475 4:0.176415 5:-0.0391201 6:0.390778 7:-0.769552 8:-0.697978 9:-0.0308185 10:-0.326301 
4096 1:-0.126699 2:-0.196798 3:0.139675 4:0.373941 5:0.382589 6:0.124254 7:-0.96627 8:-0.659192 9:-0.128535 10:-0.103657 
4096 1:-0.414624 2:0.215874 3:0.221451 4:-0.151444 5:-0.245815 6:-0.388935 7:-0.903051 8:-0.613744 9:-0.078701 10:-0.206683 
4096 1:-0.501425 2:0.324057 3:0.271926 4:0.0443023 5:0.12746 6:-0.403448 7:-0.99647 8:-0.795595 9:0.402231 10:-0.264468 
1127.118954843821 1:0.352853 2:0.524091 3:-0.221947 4:-0.42101 5:-0.311146 6:0.2129 7:-0.87179 8:-0.517531 9:0.1857 10:-0.537761 
282.4926306546003 1:-0.324719 2:-0.331609 3:-0.256479 4:0.0464811 5:-0.220631 6:-0.513833 7:-0.455842 8:-0.686764 9:-0.326959 10:-0.567341 
4096 1:-0.0884466 2:0.178113 3:-0.131895 4:0.085491 5:0.180241 6:0.297756 7:-0.977484 8:-0.688987 9:0.443739 10:-0.433892 
4096 1:-0.153711 2:-0.340264 3:-0.411169 4:0.389681 5:0.282458 6:-0.0778446 7:-0.850667 8:-0.694964 9:-0.13072 10:-0.326525 
4096 1:0.221296 2:-0.415835 3:-0.657623 4:0.0669958 5:-0.0410242 6:-0.0655117 7:-0.700895 8:-0.575657 9:0.245979 10:-0.8256 
4096 1:0.0891652 2:0.138538 3:0.0482853 4:0.181837 5:0.262024 6:-0.105747 7:-0.760227 8:-0.78143 9:0.403479 10:-0.485704 
4096 1:-0.228212 2:-0.0859182 3:-0.53551 4:-0.150339 5:-0.133567 6:-0.309886 7:-0.864931 8:-0.653954 9:0.154884 10:-0.548261 
4096 1:-0.162856 2:-0.114901 3:-0.160679 4:-0.483096 5:-0.547761 6:0.0364111 7:-0.959879 8:-0.576295 9:-0.202004 10:-0.483344 
4096 1:-0.121715 2:-0.143834 3:-0.0128679 4:-0.0304244 5:0.026915 6:-0.311885 7:-0.87294 8:-0.727608 9:0.239722 10:0.108528 
4096 1:-0.515924 2:0.0756688 3:0.289098 4:0.0317467 5:0.251941 6:-0.0345735 7:-0.875423 8:-0.676242 9:0.100003 10:-0.574999 
2897.587747479051 1:0.24788 2:-0.236226 3:-0.632889 4:-0.18913 5:-0.144029 6:-0.221475 7:-0.807982 8:-0.918294 9:-0.191675 10:-0.618703 
4096 1:-0.189283 2:0.0346468 3:-0.185636 4:0.273636 5:0.0263941 6:-0.0762261 7:-0.495373 8:-0.756364 9:-0.13911 10:-0.610853 
4096 1:0.0752978 2:0.120835 3:0.396013 4:-0.0377867 5:-0.249145 6:0.332167 7:-0.890359 8:-0.50277 9:0.0414018 10:-0.181702 
4096 1:-0.126603 2:-0.129221 3:-0.157531 4:0.129097 5:-0.0482309 6:0.0830587 7:-0.934456 8:-0.766842 9:0.074195 10:-0.19721 
4096 1:-0.00594923 2:-0.0691465 3:-0.20533 4:0.0645484 5:-0.138434 6:-0.302948 7:-0.600364 8:-0.628838 9:-0.130499 10:-0.661956 
4096 1:0.494838 2:-0.590123 3:-0.135547 4:0.41513 5:0.0979406 6:0.108143 7:-0.840972 8:-0.705697 9:0.111736 10:-0.271397 
4096 1:0.299586 2:-0.136577 3:0.101756 4:0.262294 5:0.312123 6:-0.0268045 7:-0.920137 8:-0.655882 9:-0.0491078 10:-0.567455 
4096 1:-0.0445849 2:0.136748 3:0.0277819 4:0.109229 5:-0.0612241 6:0.297184 7:-0.967262 8:-0.385694 9:0.240047 10:-0.364878 
4096 1:0.0854141 2:-0.335115 3:-0.0567757 4:0.138071 5:-0.211157 6:-0.358954 7:-0.666181 8:-0.650875 9:0.183605 10:-0.727266 
4096 1:-0.0190484 2:-0.417061 3:-0.299341 4:0.268064 5:0.240003 6:-0.513788 7:-0.759232 8:-0.630308 9:-0.0195016 10:-0.621223 
2054.529336863505 1:-0.0106127 2:-0.134811 3:-0.174174 4:-0.00133366 5:-0.124222 6:0.0858892 7:-0.991551 8:-0.795764 9:-0.00637652 10:-0.236021 
2850.08786573872 1:0.171904 2:0.0693181 3:-0.167532 4:0.113209 5:-0.24505 6:0.213285 7:-0.572121 8:-0.837306 9:0.0196395 10:-0.402875 
4096 1:-0.246559 2:0.278523 3:0.0501368 4:0.23777 5:0.227765 6:0.091886 7:-0.553256 8:-0.598864 9:0.156835 10:-0.464935 
4096 1:-0.011031 2:-0.0471275 3:-0.0556722 4:0.159372 5:0.137519 6:-0.45014 7:-0.897206 8:-0.584652 9:0.269965 10:-0.368289 
4096 1:0.350567 2:-0.356693 3:0.00923146 4:-0.00952166 5:0.202243 6:-0.0970294 7:-0.753966 8:-0.815608 9:0.37585 10:-0.593847 
4096 1:0.125976 2:-0.346051 3:-0.321547 4:-0.175063 5:-0.11125 6:0.0392558 7:-0.544271 8:-0.516043 9:0.201999 10:-0.894081 
4096 1:0.0892526 2:-0.205527 3:-0.650121 4:0.132858 5:0.092993 6:0.148852 7:-0.292772 8:-0.810054 9:-0.0528671 10:-0.845099 
4096 1:-0.287161 2:0.135351 3:0.0159974 4:-0.227255 5:0.0054587 6:0.406644 7:-0.8716 8:-0.614025 9:0.428988 10:-0.745038 
4096 1:0.127468 2:-0.18976 3:-0.187162 4:0.162924 5:-0.0137385 6:-0.219609 7:-0.800969 8:-0.611483 9:-0.277606 10:-0.737106 
4096 1:0.275064 2:0.144055 3:-0.0515267 4:0.210301 5:-0.386471 6:-0.0382646 7:-0.812328 8:-0.399241 9:0.191735 10:-0.360089 
4096 1:-0.61477 2:0.0558076 3:0.124761 4:-0.112911 5:-0.196615 6:-0.135205 7:-0.893869 8:-0.544588 9:0.0329727 10:-0.354113 
4096 1:0.441321 2:0.249172 3:-0.625233 4:-0.197219 5:-0.0495146 6:-0.181481 7:-0.650654 8:-0.688321 9:-0.13046 10:-0.704738 
4096 1:0.165813 2:0.129809 3:0.0601054 4:-0.336814 5:-0.524309 6:-0.638833 7:-0.783848 8:-0.519153 9:0.354023 10:-0.198204 
3421.980354050189 1:-0.481975 2:-0.0236863 3:-0.475553 4:-0.299962 5:0.031529 6:0.16879 7:-0.740388 8:-0.57863 9:-0.199441 10:-0.256401 
4096 1:0.0564763 2:-0.217247 3:0.131601 4:0.456309 5:0.577448 6:-0.0125246 7:-0.843756 8:-0.700921 9:0.310472 10:-0.0735405 
4096 1:-0.0095372 2:-0.0242503 3:0.0284851 4:0.410126 5:0.329982 6:0.246556 7:-0.613318 8:-0.630981 9:0.226818 10:-0.0892782 
4096 1:-0.261849 2:-0.0867273 3:-0.33832 4:-0.285675 5:0.0610388 6:0.439826 7:-0.463143 8:-0.604246 9:-0.101062 10:-0.715002 
4096 1:-0.281864 2:0.47586 3:0.0618002 4:0.121466 5:-0.083254 6:0.126579 7:-0.99463 8:-0.832705 9:0.00479735 10:-0.0914152 
4096 1:-0.0906921 2:0.276733 3:-0.117102 4:0.222419 5:0.187239 6:-0.16142 7:-0.595138 8:-0.458304 9:0.211781 10:-0.337744 
4096 1:0.0656023 2:-0.0256725 3:-0.114342 4:-0.18138 5:-0.154668 6:-0.121015 7:-0.554295 8:-0.535889 9:-0.181581 10:-0.719224 
4096 1:-0.206316 2:0.0684599 3:-0.180963 4:0.15389 5:0.0770071 6:-0.263596 7:-0.67106 8:-0.698592 9:0.119788 10:-0.437245 
4096 1:-0.27396 2:-0.15553 3:-0.142595 4:0.0622999 5:0.0198507 6:-0.115983 7:-0.835926 8:-0.730866 9:0.0485432 10:-0.589235 
4096 1:0.228571 2:-0.0925631 3:0.313091 4:0.174196 5:-0.422224 6:-0.0767668 7:-0.708679 8:-0.588976 9:-0.223181 10:-0.0330699 
4096 1:0.115309 2:0.0766986 3:-0.00351171 4:0.186324 5:0.159742 6:0.0448303 7:-0.646329 8:-0.68897 9:0.0501042 10:-0.136185 
4096 1:-0.0644346 2:-0.201628 3:-0.144369 4:-0.201517 5:-0.570903 6:0.105035 7:-0.744893 8:-0.516747 9:-0.333059 10:-0.176629 
4096 1:-0.627153 2:0.0906015 3:0.00731017 4:-0.122542 5:-0.0916859 6:-0.1189 7:-0.651955 8:-0.675808 9:0.321386 10:-0.356231 
4096 1:-0.279281 2:-0.044136 3:-0.0375457 4:0.384985 5:0.410856 6:-0.0239404 7:-0.923657 8:-0.713753 9:0.0794372 10:-0.595026 
4096 1:-0.703295 2:0.512689 3:0.224678 4:-0.247471 5:-0.0519923 6:-0.0132614 7:-0.767431 8:-0.733042 9:0.088894 10:-0.188973 
4096 1:-0.222105 2:0.0683128 3:-0.3525 4:0.399172 5:0.0495185 6:-0.24152 7:-0.676434 8:-0.380637 9:0.00161039 10:-0.665632 
4096 1:0.264324 2:-0.21509 3:-0.237071 4:0.0986933 5:-0.0718352 6:0.11456 7:-0.531956 8:-0.631954 9:0.112946 10:-0.189897 
4096 1:0.42755 2:0.0516146 3:0.0989248 4:0.278471 5:0.211106 6:-0.0431959 7:-0.71348 8:-0.657409 9:0.0964517 10:-0.184489 
4096 1:-0.101959 2:0.20229 3:-0.276357 4:-0.373049 5:-0.276236 6:-0.155526 7:-0.506164 8:-0.55956 9:0.325353 10:-0.548711 
4096 1:-0.284636 2:-0.22144 3:0.50148 4:0.216797 5:0.138136 6:-0.599832 7:-0.863748 8:-0.792711 9:0.362335 10:-0.462199 
4096 1:0.152089 2:-0.447785 3:-0.351773 4:-0.0835917 5:-0.333535 6:-0.372052 7:-0.75117 8:-0.507728 9:-0.309983 10:-0.650844 
4096 1:0.482091 2:0.245568 3:-0.114738 4:0.070279 5:0.609599 6:0.0744734 7:-0.709713 8:-0.645665 9:0.0859282 10:-0.341761 
4096 1:0.0161672 2:0.019003 3:-0.0879074 4:-0.133675 5:0.201215 6:0.149879 7:-0.849124 8:-0.748401 9:0.248983 10:-0.408377 
4096 1:-0.370727 2:-0.0125052 3:-0.164349 4:-0.647031 5:-0.505591 6:-0.582416 7:-0.975374 8:-0.522379 9:-0.0930358 10:-0.58505 
4096 1:0.0749196 2:0.0818723 3:0.259785 4:0.172166 5:0.271554 6:-0.186628 7:-0.539818 8:-0.571351 9:0.231175 10:-0.488722 
2411.793687103774 1:0.37041 2:0.0313121 3:-0.104602 4:0.302786 5:0.0475812 6:-0.228408 7:-0.707577 8:-0.616828 9:-0.337521 10:-0.653585 
4096 1:-0.172419 2:0.341785 3:0.2724 4:0.127486 5:-0.186248 6:-0.164636 7:-0.768034 8:-0.639168 9:-0.185926 10:-0.105712 
4096 1:-0.267682 2:-0.0058848 3:-0.18082 4:0.138051 5:0.337527 6:-0.0624603 7:-0.940527 8:-0.944782 9:0.362413 10:-0.519531 
4096 1:0.0856386 2:0.342103 3:0.172937 4:0.0793226 5:0.389893 6:0.12974 7:-0.770215 8:-0.518827 9:0.278954 10:-0.480647 
2251.148557010368 1:0.43201 2:-0.0105436 3:-0.297445 4:0.274531 5:0.0517504 6:-0.161683 7:-0.910476 8:-0.909425 9:-0.00315054 10:-0.235419 
4096 1:-0.00686395 2:0.0750313 3:0.0938194 4:0.0114408 5:0.286049 6:0.402704 7:-0.704353 8:-0.776693 9:-0.255428 10:-0.437848 
2983.243096668122 1:0.366238 2:0.0671113 3:0.239453 4:-0.0529191 5:-0.294034 6:-0.118813 7:-0.620378 8:-0.467236 9:0.187703 10:-0.20352 
4096 1:0.0688522 2:-0.268739 3:-0.222492 4:-0.259619 5:-0.441915 6:-0.287964 7:-0.752683 8:-0.53783 9:-0.302842 10:-0.644293 
4096 1:-0.128879 2:0.122036 3:-0.0312275 4:0.373543 5:0.265424 6:-0.0268134 7:-0.948958 8:-0.454876 9:-5.46336e-005 10:-0.8016 
4096 1:-0.0907417 2:0.152392 3:-0.028919 4:0.414225 5:0.183536 6:-0.151527 7:-0.898377 8:-0.753927 9:0.401944 10:-0.260792 
4096 1:0.205919 2:-0.399529 3:-0.655776 4:-0.234557 5:-0.309355 6:-0.028969 7:-0.711773 8:-0.629957 9:-0.26893 10:-0.772685 
4096 1:0.141595 2:-0.202045 3:0.0557979 4:-0.0448902 5:-0.0701984 6:-0.255779 7:-0.705427 8:-0.397405 9:0.184256 10:-0.385396 
4096 1:-0.200586 2:-0.0580144 3:0.213511 4:-0.338881 5:-0.0405598 6:0.377284 7:-0.915147 8:-0.722942 9:0.540506 10:-0.187183 
4096 1:0.224853 2:0.222176 3:0.266343 4:-0.291227 5:-0.482972 6:-0.163224 7:-0.890674 8:-0.67605 9:-0.191649 10:-0.0948195 
4096 1:-0.182805 2:-0.120737 3:-0.0531452 4:0.130082 5:0.211783 6:0.190992 7:-0.786701 8:-0.578935 9:0.148718 10:-0.117159 
4096 1:0.259603 2:-0.141039 3:-0.212438 4:-0.112732 5:0.0361332 6:-0.0936158 7:-0.655819 8:-0.815998 9:0.00518759 10:-0.352688 
4096 1:0.128605 2:-0.112915 3:-0.319015 4:0.341816 5:0.161984 6:0.0768428 7:-0.859152 8:-0.654812 9:-0.275486 10:-0.504243 
4096 1:-0.597516 2:-0.173847 3:-0.153497 4:-0.342992 5:-0.284914 6:0.116778 7:-0.404827 8:-0.386156 9:-0.175246 10:-0.353774 
581.4376647647833 1:-0.176177 2:0.0363387 3:-0.301233 4:-0.285038 5:-0.549462 6:-0.268548 7:-0.753406 8:-0.649646 9:0.0944615 10:-0.494225 
4096 1:0.0580623 2:-0.122968 3:0.097899 4:0.0858193 5:-0.111096 6:0.0281615 7:-0.599582 8:-0.84753 9:0.035223 10:-0.311461 
4096 1:0.109426 2:0.0360444 3:0.296525 4:0.393511 5:-0.0801442 6:-0.294928 7:-0.796422 8:-0.576997 9:-0.318685 10:-0.383949 
4096 1:-0.00316725 2:0.0494569 3:-0.254681 4:0.0379648 5:0.176743 6:0.207871 7:-0.659893 8:-0.376222 9:0.039984 10:-0.168555 
4096 1:0.0053276 2:-0.4138 3:-0.351141 4:0.437784 5:0.477853 6:-0.0533449 7:-0.719618 8:-0.450163 9:-0.257236 10:-0.432347 
4096 1:-0.140484 2:-0.577201 3:-0.484554 4:0.00124312 5:-0.145573 6:0.37894 7:-0.684568 8:-0.904865 9:0.244704 10:-0.595779 
4096 1:0.454032 2:-0.172131 3:-0.63223 4:0.233273 5:-0.262295 6:-0.0920751 7:-0.577672 8:-0.507216 9:-0.335336 10:-0.412764 
4096 1:0.0443131 2:0.219234 3:-0.199538 4:-0.21061 5:-0.721454 6:-0.33537 7:-0.847051 8:-0.788348 9:-0.306497 10:-0.122435 
4096 1:0.212121 2:-0.0516882 3:-0.314615 4:0.192751 5:-0.0214407 6:-0.388974 7:-0.52184 8:-0.400167 9:-0.620725 10:-0.904732 
4096 1:-0.111402 2:-0.224481 3:-0.176176 4:-0.215555 5:-0.228427 6:0.0857143 7:-0.905638 8:-0.939319 9:0.162649 10:-0.899492 
4096 1:0.0444077 2:-0.105412 3:0.074912 4:-0.0113125 5:-0.126904 6:-0.0269547 7:-0.637945 8:-0.503923 9:-0.0257064 10:-0.488414 
4096 1:0.593642 2:-0.288086 3:-0.719476 4:-0.0585303 5:-0.131099 6:-0.0279848 7:-0.912595 8:-0.601144 9:0.171547 10:-0.744383 
4096 1:0.139881 2:-0.0726528 3:-0.0219713 4:-0.0702402 5:-0.163804 6:0.184098 7:-0.623026 8:-0.536495 9:-0.16605 10:-0.273575 
889.1559586518516 1:0.402066 2:0.14332 3:-0.0684996 4:-0.414914 5:-0.765506 6:0.0682133 7:-0.59655 8:-0.318285 9:-0.17388 10:-0.375756 
4096 1:-0.121939 2:-0.142707 3:0.0830897 4:0.257917 5:-0.229831 6:0.310296 7:-0.99093 8:-0.694785 9:-0.117348 10:-0.360853 
4096 1:-0.0434339 2:0.246353 3:-0.238369 4:0.137176 5:-0.0185651 6:0.0407205 7:-0.835185 8:-0.501165 9:-0.0630393 10:-0.568889 
4096 1:-0.447393 2:0.282299 3:0.313855 4:0.295205 5:0.244465 6:-0.294313 7:-0.892278 8:-0.525836 9:0.216633 10:-0.544346 
4096 1:-0.502905 2:0.252041 3:0.37206 4:0.233273 5:0.223235 6:0.109647 7:-0.811245 8:-0.605611 9:0.242636 10:-0.719803 
4096 1:-0.0103881 2:0.00904789 3:-0.0524564 4:-0.00181121 5:0.0273813 6:-0.197537 7:-0.848319 8:-0.574645 9:-0.051098 10:-0.709949 
4096 1:-0.299374 2:0.0460486 3:0.299593 4:0.324047 5:0.383779 6:-0.0703194 7:-0.875407 8:-0.682519 9:-0.0418103 10:-0.23002 
4096 1:-0.301551 2:0.346272 3:0.126327 4:0.0623994 5:0.108618 6:-0.302506 7:-0.805502 8:-0.530836 9:0.123495 10:-0.770211 
4096 1:-0.364465 2:0.330554 3:0.0775089 4:0.33325 5:0.393421 6:-0.127273 7:-0.871078 8:-0.542824 9:-0.0358136 10:-0.879029 
4011.632643630224 1:0.0313605 2:-0.112792 3:-0.350659 4:0.410215 5:0.136717 6:-0.132487 7:-0.860693 8:-0.838617 9:-0.283265 10:-0.573109 
4096 1:0.161757 2:-0.279357 3:0.020027 4:0.535214 5:0.0742368 6:0.0524474 7:-0.831176 8:-0.677782 9:-0.0974065 10:-0.31357 
2977.324212972066 1:0.0925995 2:-0.0539686 3:-0.139666 4:0.343925 5:0.177336 6:0.155754 7:-0.952352 8:-0.700862 9:-0.355706 10:-0.247043 
4096 1:0.151357 2:0.0546796 3:0.314895 4:0.472615 5:0.0451328 6:-0.169548 7:-0.953268 8:-0.693844 9:-0.239116 10:-0.258589 
4096 1:0.349624 2:0.10524 3:-0.405893 4:0.252773 5:0.207044 6:0.0939515 7:-0.97195 8:-0.649489 9:-0.185328 10:-0.719832 
3102.033563869583 1:-0.00692777 2:0.0271437 3:-0.0503877 4:0.190652 5:0.098838 6:-0.255848 7:-0.763845 8:-0.552808 9:-0.217015 10:-0.166492 
4096 1:0.0373948 2:0.0252556 3:-0.285945 4:0.0284834 5:-0.061505 6:0.220187 7:-0.718051 8:-0.506207 9:0.0248036 10:-0.433183 
4096 1:0.152981 2:0.0964863 3:-0.198851 4:-0.310799 5:-0.314941 6:-0.13515 7:-0.732264 8:-0.773731 9:0.216294 10:-0.310543 
1942.518471607893 1:0.13311 2:0.214477 3:0.127171 4:-0.191757 5:-0.423323 6:-0.234345 7:-0.698688 8:-0.378383 9:-0.164749 10:-0.359302 
4096 1:0.152383 2:0.11441 3:-0.308616 4:0.0346518 5:-0.0817401 6:-0.152997 7:-0.73899 8:-0.64333 9:-0.0734978 10:-0.479914 
4096 1:0.0643614 2:0.289532 3:-0.208624 4:-0.0568986 5:-0.184808 6:-0.0883487 7:-0.65326 8:-0.400903 9:-0.0259145 10:-0.625031 
4096 1:-0.0897206 2:-0.0779246 3:-0.0283423 4:0.193785 5:0.0203989 6:0.343648 7:-0.70005 8:-0.635461 9:-0.341423 10:-0.391585 
4096 1:-0.062903 2:-0.102788 3:-0.0219279 4:0.260294 5:0.155844 6:-0.327617 7:-0.282355 8:-0.27202 9:0.0190151 10:-0.459234 
4096 1:0.312735 2:0.302307 3:-0.0840464 4:0.027777 5:0.120546 6:-0.31669 7:-0.224717 8:-0.180849 9:-0.0340315 10:-0.554024 
4096 1:0.531526 2:0.405488 3:0.215486 4:0.0964448 5:-0.0262049 6:0.116983 7:-0.139991 8:-0.0674143 9:-0.0118269 10:-0.39204 
4096 1:0.0392408 2:0.413187 3:-0.0418624 4:0.185339 5:-0.073911 6:-0.321519 7:-0.289222 8:-0.152287 9:-0.0287112 10:-0.438598 
4096 1:0.273388 2:-0.143687 3:-0.301892 4:-0.0114816 5:-0.459491 6:-0.489246 7:-0.331084 8:-0.165551 9:-0.187812 10:-0.412338 
4096 1:0.332902 2:-0.188412 3:-0.307405 4:-0.0263354 5:-0.480795 6:0.0545606 7:-0.173521 8:-0.299894 9:-0.342672 10:-0.297342 
-4096 1:0.059809 2:-0.369811 3:-0.247547 4:-0.167024 5:-0.588397 6:0.400796 7:-0.812956 8:-0.706512 9:-0.169809 10:-0.562971 
-4096 1:-0.0592559 2:0.183925 3:-0.107205 4:-0.463208 5:-0.44124 6:-0.328002 7:-0.849913 8:-0.589059 9:-0.159194 10:-0.495611 
-4096 1:0.260208 2:0.409852 3:0.135678 4:-0.0102479 5:-0.187732 6:-0.3703 7:-0.570528 8:-0.525409 9:0.142357 10:-0.721279 
-4096 1:0.164565 2:-0.226933 3:-0.251347 4:0.330912 5:0.0950571 6:0.0411587 7:-0.955784 8:-0.676377 9:-0.364924 10:-0.563797 
-4096 1:0.431363 2:-0.0970012 3:-0.141674 4:-0.0276885 5:0.349759 6:0.249367 7:-0.695633 8:-0.70089 9:0.263708 10:-0.365905 
-4096 1:0.372981 2:-0.333767 3:-0.269788 4:-0.252008 5:-0.15871 6:0.209202 7:-0.662302 8:-0.492974 9:-0.247727 10:-0.342114 
-4096 1:-0.00822776 2:-0.0481818 3:0.143985 4:-0.164765 5:-0.117721 6:-0.110288 7:-0.869083 8:-0.637724 9:0.271006 10:-0.684631 
-4096 1:-0.582944 2:0.00936665 3:0.0659667 4:-0.324629 5:-0.0439174 6:-0.191314 7:-0.959411 8:-0.657655 9:0.308339 10:-0.67591 
-418.9026586340421 1:0.20862 2:-0.124341 3:-0.0717891 4:0.781222 5:0.144851 6:-0.34245 7:-0.596509 8:-0.656916 9:-0.0994747 10:0.0133728 
-4096 1:0.134532 2:-0.240517 3:0.00727988 4:0.400107 5:-0.135338 6:-0.214349 7:-0.924718 8:-0.728847 9:-0.156385 10:-0.491226 
-4096 1:0.031474 2:-0.192041 3:-0.00911755 4:-0.229981 5:-0.103031 6:0.0385437 7:-0.68312 8:-0.573786 9:-0.0983691 10:-0.278755 
-4096 1:0.19215 2:-0.0901356 3:0.0502698 4:-0.00935253 5:-0.104443 6:0.114909 7:-0.535025 8:-0.64568 9:0.0209663 10:0.017771 
-4096 1:-0.166155 2:0.592477 3:0.226376 4:0.109528 5:-0.127074 6:-0.268474 7:-0.838317 8:-0.673491 9:0.392631 10:-0.189402 
-4096 1:-0.111222 2:-0.151387 3:0.00616583 4:0.139474 5:-0.194441 6:-0.0481892 7:-0.848969 8:-0.87571 9:-0.172645 10:-0.437221 
-3563.989944075934 1:-0.22833 2:0.0130201 3:0.352807 4:-0.0217091 5:0.0435584 6:-0.345602 7:-0.861086 8:-0.694384 9:0.457398 10:-0.759306 
-4096 1:0.146005 2:-0.163524 3:-0.117228 4:-0.125308 5:-0.707115 6:-0.221929 7:-0.983397 8:-0.883582 9:0.00361362 10:-0.45397 
-4096 1:-0.232679 2:0.103597 3:0.0579352 4:0.298439 5:-0.155454 6:-0.266315 7:-0.935054 8:-0.691675 9:-0.187734 10:-0.523354 
-4096 1:0.0853337 2:0.0555378 3:0.243759 4:-0.0889244 5:-0.223565 6:-0.404483 7:-0.367334 8:-0.503239 9:-0.337417 10:-0.0426782 
-4096 1:0.27612 2:0.178726 3:-0.175823 4:-0.0156602 5:-0.130094 6:0.230869 7:-0.682646 8:-0.349842 9:-0.354344 10:-0.481905 
-4096 1:-0.304526 2:0.212417 3:0.118476 4:0.210112 5:0.137771 6:0.175288 7:-0.894137 8:-0.838875 9:0.382224 10:-0.280388 
-4096 1:0.0338778 2:0.0444548 3:-0.308764 4:-0.359065 5:-0.302636 6:0.146939 7:-0.819618 8:-0.610113 9:-0.0323795 10:-0.287559 
-4096 1:-0.346395 2:0.0132163 3:-0.241294 4:-0.0479048 5:-0.020475 6:0.0367839 7:-0.680293 8:-0.582348 9:0.353828 10:-0.333987 
-4096 1:-0.372698 2:0.187259 3:0.233145 4:-0.0395874 5:-0.109182 6:-0.291115 7:-0.993073 8:-0.798625 9:0.133563 10:-0.839605 
-1322.905575364301 1:0.243462 2:-0.444327 3:-0.844785 4:0.00947092 5:-0.0345744 6:-0.227346 7:-0.588864 8:-0.582684 9:-0.11498 10:-0.723379 
-1357.923640844663 1:0.0526047 2:-0.0460976 3:-0.0995233 4:0.427019 5:0.393212 6:0.205002 7:-0.75702 8:-0.605757 9:0.261692 10:-0.337204 
-4096 1:0.29524 2:0.0514185 3:-0.124433 4:0.0251903 5:0.0210837 6:0.0959675 7:-0.804472 8:-0.596514 9:-0.109985 10:-0.422231 
-4096 1:-0.376905 2:0.175024 3:0.107987 4:-0.0493573 5:-0.432125 6:-0.305725 7:-0.747243 8:-0.587972 9:0.143137 10:-0.334629 
-4096 1:-0.0893684 2:-0.0669151 3:0.0196082 4:-0.156309 5:-0.0702315 6:0.198541 7:-0.708946 8:-0.826047 9:-0.200456 10:-0.786229 
-4096 1:-0.0111161 2:-0.0375892 3:-0.231808 4:-0.18525 5:-0.409848 6:-0.463959 7:-0.961039 8:-0.864205 9:0.125355 10:-0.592542 
-4096 1:0.332755 2:-0.417404 3:-0.367371 4:0.367614 5:0.265344 6:0.112889 7:-0.898238 8:-0.999697 9:-0.147812 10:-0.635997 
-4096 1:-0.311204 2:0.178334 3:0.454205 4:-0.211396 5:-0.0361254 6:0.120034 7:-0.959038 8:-0.657707 9:0.220223 10:-0.34136 
-4096 1:0.137073 2:-0.0805483 3:-0.618124 4:-0.200124 5:-0.360655 6:-0.357032 7:-0.470977 8:-0.545697 9:-0.132944 10:-0.657153 
-4096 1:-0.10711 2:0.525513 3:0.437309 4:0.202172 5:0.485676 6:-0.0386427 7:-0.943569 8:-0.695839 9:0.0852388 10:-0.448189 
-4096 1:-0.00724922 2:-0.175956 3:-0.321444 4:-0.0612961 5:-0.329725 6:-0.0138444 7:-0.708174 8:-0.603586 9:-0.028243 10:-0.729529 
-4096 1:-0.202274 2:0.0840056 3:0.225362 4:0.245868 5:0.0404389 6:-0.151556 7:-0.993071 8:-0.919903 9:0.15024 10:-0.270406 
-4096 1:-0.178167 2:0.0510016 3:0.205293 4:0.24755 5:0.527056 6:0.000499145 7:-0.582614 8:-0.345998 9:0.111749 10:-0.428958 
-4096 1:0.108067 2:0.10497 3:-0.0337111 4:0.102096 5:-0.0698999 6:-0.267408 7:-0.738475 8:-0.663429 9:-0.247857 10:-0.857408 
-4096 1:-0.153853 2:0.196847 3:-0.355522 4:-0.197438 5:-0.484441 6:-0.156612 7:-0.827981 8:-0.70223 9:-0.0793514 10:-0.209027 
-4096 1:-0.312005 2:0.174141 3:0.0895449 4:0.0639714 5:-0.229966 6:-0.666525 7:-0.847877 8:-0.576881 9:0.0779803 10:-0.484408 
-4096 1:-0.322544 2:-0.277321 3:-0.251484 4:-0.425776 5:-0.285501 6:-0.237679 7:-0.99997 8:-0.887625 9:0.0994825 10:-0.41819 
-4096 1:0.00172071 2:0.432729 3:-0.0283818 4:0.0338757 5:0.305239 6:-0.0817494 7:-0.708506 8:-0.640943 9:0.132445 10:-0.33104 
-4096 1:-0.285161 2:0.0560282 3:0.181337 4:0.123605 5:0.414582 6:0.121561 7:-0.914629 8:-0.734475 9:0.317549 10:-0.16737 
-81.16732609239941 1:0.327489 2:0.443445 3:0.306006 4:-0.0660915 5:-0.366428 6:-0.168251 7:-0.162827 8:-0.301436 9:-0.459773 10:-0.331727 
-4096 1:0.26512 2:0.0996003 3:-0.347031 4:0.0401535 5:-0.185219 6:-0.17913 7:-0.671714 8:-0.650188 9:-0.184287 10:-0.562084 
-4096 1:0.189028 2:-0.103989 3:-0.289829 4:0.41519 5:0.172252 6:-0.22186 7:-0.93549 8:-0.904924 9:-0.0327697 10:-0.426919 
-4096 1:-0.147216 2:-0.0538705 3:-0.374928 4:-0.104345 5:-0.138641 6:-0.201562 7:-0.727467 8:-0.630552 9:-0.0268771 10:-0.543294 
-4096 1:0.0729909 2:-0.181129 3:-0.130529 4:0.2495 5:-0.186491 6:0.0192158 7:-0.86959 8:-0.733719 9:-0.157048 10:-0.492949 
-4096 1:-0.0484967 2:0.042248 3:0.160585 4:-0.147036 5:-0.0402535 6:-0.0629603 7:-0.968047 8:-0.864955 9:0.155014 10:-0.534371 
-4096 1:0.326659 2:0.0654685 3:0.00215997 4:-0.0834126 5:-0.365827 6:-0.155593 7:-0.841998 8:-0.706801 9:-0.195799 10:-0.289337 
-4096 1:-0.21247 2:0.328397 3:0.633138 4:0.396506 5:0.439669 6:-0.412002 7:-0.979637 8:-0.72595 9:-0.0118529 10:-0.451035 
-4096 1:-0.0723717 2:0.0461467 3:-0.0864865 4:-0.127278 5:-0.127587 6:-0.0913754 7:-0.961587 8:-0.692172 9:0.0116526 10:-0.817088 
-4096 1:-0.409887 2:-0.188583 3:-0.56239 4:0.110403 5:0.272285 6:-0.399845 7:-0.989444 8:-0.876286 9:0.018937 10:-0.934404 
-4096 1:-0.103687 2:0.0703479 3:0.344076 4:0.367912 5:0.342203 6:0.0624161 7:-0.844811 8:-0.770826 9:0.2206 10:-0.411217 
-4096 1:-0.0164035 2:0.0337886 3:-0.264364 4:0.195527 5:0.142941 6:0.0829456 7:-0.999678 8:-0.638307 9:-0.0325616 10:-0.592184 
-4096 1:-0.286296 2:-0.0758159 3:0.296894 4:0.433088 5:0.385566 6:-0.0174842 7:-0.979366 8:-0.934313 9:0.0361076 10:-0.404942 
-4096 1:0.187589 2:-0.194051 3:0.25353 4:-0.0423831 5:-0.208578 6:-0.205605 7:-0.752036 8:-0.792078 9:0.0354702 10:-0.400901 
-4096 1:0.165078 2:-0.435353 3:-0.492106 4:0.209634 5:-0.120257 6:-0.0339127 7:-0.850439 8:-0.614866 9:0.0380198 10:-0.482736 
-4096 1:0.422816 2:-0.565236 3:-0.501736 4:-0.270782 5:-0.214653 6:-0.136917 7:-0.881962 8:-0.846809 9:-0.504663 10:-0.249125 
-4096 1:0.300272 2:0.258931 3:0.0749529 4:0.436928 5:0.121348 6:-0.421129 7:-0.96626 8:-0.727477 9:0.352644 10:-0.547627 
-4096 1:0.0448899 2:-0.146237 3:-0.163612 4:-0.133804 5:-0.0335014 6:0.0190762 7:-0.456344 8:-0.593959 9:0.273699 10:-0.469559 
-4096 1:-0.175324 2:-0.12439 3:-0.289724 4:-0.224529 5:-0.26367 6:0.0950752 7:-0.805212 8:-0.335032 9:-0.377874 10:-0.319752 
-4096 1:-0.334289 2:0.14484 3:0.442827 4:-0.224887 5:-0.167027 6:-0.180638 7:-0.764291 8:-0.618235 9:-0.138148 10:-0.16457 
-4096 1:-0.268795 2:-0.0350636 3:0.0915755 4:0.403559 5:0.186546 6:-0.0411305 7:-0.729923 8:-0.505706 9:0.21247 10:-0.160156 
-4096 1:-0.13562 2:-0.151828 3:0.293127 4:-0.0665591 5:-0.16772 6:0.06075 7:-0.616595 8:-0.82455 9:0.230239 10:-0.352333 
-4096 1:-0.195571 2:0.192335 3:-0.316324 4:-0.156209 5:0.0257113 6:0.00969402 7:-0.941989 8:-0.648982 9:0.340078 10:-0.378842 
-4096 1:0.49103 2:-0.110487 3:-0.388811 4:-0.165979 5:-0.415932 6:-0.175343 7:-0.805114 8:-0.696449 9:0.0114574 10:-0.373292 
-4096 1:0.119571 2:-0.0373195 3:0.0876539 4:0.263388 5:-0.0638286 6:-0.186923 7:-0.85782 8:-0.529444 9:-0.334022 10:-0.688824 
-4096 1:0.171412 2:-0.467131 3:-0.447244 4:0.193397 5:-0.2639 6:0.0489701 7:-0.911587 8:-0.932624 9:-0.191871 10:-0.749553 
-4096 1:-0.211227 2:-0.35147 3:-0.114213 4:-0.180813 5:-0.398429 6:0.130514 7:-0.678815 8:-0.529 9:-0.0274625 10:-0.238603 
-4096 1:-0.0867779 2:-0.278695 3:-0.195243 4:-0.119627 5:-0.2818 6:0.321643 7:-0.88567 8:-0.682641 9:0.283806 10:-0.633163 
-4096 1:0.339664 2:-0.0285168 3:-0.117377 4:-0.067156 5:-0.174206 6:0.0298312 7:-0.717117 8:-0.713725 9:0.0519904 10:-0.307087 
-4096 1:0.362617 2:-0.0666699 3:-0.278707 4:-0.269627 5:-0.56188 6:-0.358905 7:-0.954541 8:-0.489117 9:-0.0433452 10:-0.620404 
-4096 1:0.26201 2:0.00696369 3:-0.304341 4:0.0604494 5:0.264616 6:0.200415 7:-0.925934 8:-0.839874 9:0.18834 10:-0.722194 
-4096 1:0.0834641 2:0.313292 3:0.291495 4:0.278571 5:0.289067 6:0.0287322 7:-0.779019 8:-0.670524 9:-0.0676182 10:-0.349108 
-4096 1:-0.670251 2:0.274502 3:-0.310875 4:-0.238408 5:-0.32236 6:0.191289 7:-0.70775 8:-0.601599 9:0.19673 10:-0.578061 
-3642.087558003458 1:-0.498873 2:-0.110561 3:0.243337 4:0.147453 5:0.0715621 6:-0.0134646 7:-0.691921 8:-0.734865 9:0.148536 10:0.16486 
-4096 1:-0.302401 2:0.296423 3:0.137929 4:-0.0382941 5:0.0131259 6:-0.0550676 7:-0.668075 8:-0.705233 9:0.0720877 10:-0.43586 
-4096 1:0.0978869 2:0.275237 3:-0.122562 4:-0.173043 5:-0.456531 6:-0.371123 7:-0.741469 8:-0.330053 9:-0.299147 10:-0.135597 
-4096 1:-0.136991 2:0.319177 3:0.396816 4:0.354869 5:0.0802418 6:0.203822 7:-0.783342 8:-0.696782 9:0.339961 10:-0.291006 
-4096 1:-0.547561 2:0.0213569 3:-0.442988 4:-0.173073 5:0.162027 6:0.0334975 7:-0.890383 8:-0.96144 9:0.10358 10:-0.547401 
-4096 1:-0.166044 2:-0.0683618 3:-0.209698 4:-0.113956 5:0.0921249 6:-0.0256631 7:-0.692018 8:-0.550887 9:0.13251 10:-0.269046 
-4096 1:-0.103694 2:-0.0115734 3:-0.435788 4:0.575438 5:0.449272 6:-0.247239 7:-0.998005 8:-0.713048 9:-0.171071 10:-0.865311 
-4096 1:0.0223693 2:-0.187897 3:-0.520597 4:-0.369359 5:-0.381721 6:0.188697 7:-0.461189 8:-0.691986 9:0.0760421 10:-0.248133 
-4096 1:-0.459485 2:0.228943 3:0.218185 4:-0.105022 5:-0.189845 6:-0.12104 7:-0.727258 8:-0.704652 9:-0.0461029 10:-0.402883 
-4096 1:-0.0992271 2:0.302553 3:0.202752 4:0.245878 5:0.0540427 6:-0.19336 7:-0.910754 8:-0.697161 9:0.215696 10:-0.677905 
-4096 1:0.278919 2:-0.38212 3:-0.378317 4:0.203804 5:0.262008 6:0.0944091 7:-0.530889 8:-0.71002 9:-0.184521 10:-0.382412 
-4096 1:0.0115037 2:-0.13513 3:-0.301879 4:0.0591959 5:0.116586 6:-0.321841 7:-0.870203 8:-0.931054 9:-0.212358 10:-0.602681 
-4096 1:-0.0898766 2:-0.0347449 3:0.0359253 4:0.196024 5:-0.0560327 6:0.00563018 7:-0.743462 8:-0.785061 9:0.0388653 10:-0.577732 
-3141.363099053075 1:-0.414659 2:0.207194 3:0.325377 4:-0.387007 5:0.162883 6:0.387244 7:-0.885822 8:-0.453319 9:0.393073 10:-0.103268 
-4096 1:0.0535502 2:0.275703 3:-0.233429 4:-0.162029 5:-0.310346 6:-0.193503 7:-0.826566 8:-0.759023 9:0.343213 10:-0.447823 
-3294.68040935555 1:-0.336442 2:-0.131452 3:-0.0131326 4:0.0343234 5:0.488095 6:0.494123 7:-0.804069 8:-0.855154 9:0.329009 10:-0.851524 
-4096 1:-0.194514 2:0.194959 3:-0.120107 4:0.195238 5:0.205774 6:-0.159775 7:-0.825157 8:-0.671799 9:0.146728 10:-0.534131 
-4096 1:-0.022998 2:0.178506 3:0.267897 4:-0.130063 5:0.0504706 6:-0.107647 7:-0.822282 8:-0.64228 9:0.000543734 10:-0.28128 
-4096 1:-0.285532 2:0.477086 3:0.103014 4:0.167729 5:0.217757 6:0.147485 7:-0.913107 8:-0.660852 9:0.399863 10:-0.196493 
-4096 1:-0.1753 2:0.261383 3:-0.568467 4:-0.0555754 5:-0.180406 6:0.0632907 7:-0.908533 8:-0.821136 9:0.173121 10:-0.594399 
-4096 1:-0.478401 2:0.192801 3:0.603904 4:0.082168 5:0.0832306 6:-0.374524 7:-0.944128 8:-0.622608 9:-0.0944797 10:-0.555617 
-3890.433640115402 1:-0.53574 2:0.00735601 3:-0.209197 4:-0.00268672 5:-0.405317 6:-0.342084 7:-0.9434 8:-0.664531 9:0.540896 10:-0.259581 
-4096 1:-0.191094 2:-0.0774342 3:-0.0159928 4:0.0790142 5:-0.0252294 6:-0.381929 7:-0.940593 8:-0.625503 9:0.240645 10:-0.689267 
-4096 1:-0.314052 2:0.564794 3:0.227456 4:-0.0209033 5:0.188015 6:0.0431235 7:-0.971026 8:-0.956078 9:0.312801 10:-0.639393 
-4096 1:-0.439829 2:0.22377 3:0.3342 4:-0.297514 5:-0.0372472 6:0.0859298 7:-0.944324 8:-0.680339 9:0.458958 10:-0.811394 
-4096 1:0.00891557 2:0.0805237 3:-0.189447 4:-0.0762693 5:0.550233 6:-0.00260351 7:-0.857511 8:-0.847325 9:0.514047 10:-0.418215 
-4096 1:-0.15784 2:-0.00833681 3:-0.0295419 4:-0.465644 5:-0.325454 6:-0.423803 7:-0.868837 8:-0.677346 9:0.294004 10:-0.473161 
-4096 1:-0.208211 2:-0.0208665 3:-0.237141 4:-0.00084616 5:-0.0462683 6:-0.642506 7:-0.873938 8:-0.722492 9:-0.168391 10:-0.44078 
-2857.244197269577 1:-0.00165217 2:-0.0913126 3:0.413922 4:0.211365 5:0.168196 6:-0.0189454 7:-0.959451 8:-0.988887 9:0.391551 10:-0.89329 
-4096 1:0.00142763 2:0.285315 3:0.130782 4:0.251131 5:0.0213295 6:-0.246662 7:-0.869084 8:-0.698756 9:0.00915503 10:-0.483613 
-4096 1:-0.189633 2:0.334306 3:-0.245341 4:-0.159094 5:0.10441 6:0.106498 7:-0.818666 8:-0.690155 9:0.0111062 10:-0.618355 
-4096 1:0.148724 2:0.0406542 3:-0.0875821 4:0.374976 5:0.173483 6:0.257526 7:-0.962087 8:-0.702095 9:0.259975 10:-0.416342 
-34.43588413260287 1:0.421551 2:-0.0976142 3:-0.32391 4:0.41133 5:0.304587 6:-0.0334781 7:-0.853771 8:-0.557109 9:0.176841 10:-0.538463 
-4096 1:0.264009 2:-0.47125 3:-0.305991 4:0.126401 5:0.1191 6:-0.348017 7:-0.952584 8:-0.705153 9:0.382341 10:-0.416176 
-4096 1:-0.10138 2:-0.309541 3:-0.562019 4:0.45997 5:0.0964462 6:-0.283231 7:-0.909001 8:-0.766184 9:0.0966338 10:-0.522847 
-4096 1:-0.0500449 2:-0.0954074 3:0.12465 4:0.513436 5:0.224595 6:0.12737 7:-0.883658 8:-0.729988 9:0.180223 10:-0.456805 
-1583.400337012736 1:0.0274298 2:-0.333497 3:-0.619813 4:0.392168 5:0.428454 6:0.0895219 7:-0.934597 8:-0.946148 9:0.395714 10:-0.549103 
-4096 1:-0.0075234 2:-0.163671 3:-0.596478 4:0.0208525 5:0.126666 6:0.0464364 7:-0.812052 8:-0.72274 9:0.0898046 10:-0.574544 
-23.70135607798308 1:0.334868 2:-0.705245 3:-0.348934 4:0.273059 5:-0.0782967 6:-0.16762 7:-0.920801 8:-0.747685 9:0.180913 10:-0.424432 
-4096 1:0.261092 2:-0.350244 3:-0.471112 4:0.124819 5:0.0143081 6:-0.123531 7:-0.965329 8:-0.794379 9:0.270668 10:-0.739857 
-3800.195134350478 1:0.401061 2:0.335532 3:0.103535 4:0.332186 5:0.440387 6:0.10306 7:-0.884151 8:-0.747245 9:0.139833 10:-0.224582 
-4096 1:0.0168408 2:-0.420984 3:-0.203061 4:-0.0364834 5:0.224417 6:-0.379648 7:-0.878969 8:-0.594745 9:-0.0306234 10:-0.623041 
-4096 1:-0.369932 2:0.0437682 3:-0.21711 4:0.315183 5:0.348657 6:0.0922977 7:-0.876562 8:-0.738376 9:-0.0652247 10:-0.613559 
-4096 1:0.0386901 2:-0.190128 3:-0.336395 4:-0.00931273 5:0.00968247 6:-0.659982 7:-0.924833 8:-0.766045 9:0.115118 10:-0.615291 
-4096 1:-0.038501 2:-0.301841 3:-0.278695 4:0.17347 5:-0.0166492 6:-0.522064 7:-0.996347 8:-0.744141 9:0.0653235 10:-0.643323 
-4096 1:0.45624 2:-0.00801805 3:0.0729223 4:0.405888 5:0.157485 6:-0.181988 7:-0.880038 8:-0.725295 9:-0.033225 10:-0.200165 
-4096 1:0.0503522 2:0.157664 3:-0.00119142 4:0.366679 5:0.185693 6:0.230247 7:-0.891948 8:-0.66597 9:0.145531 10:-0.533791 
-4096 1:0.340066 2:0.351764 3:-0.129347 4:0.390029 5:0.299074 6:-0.100038 7:-0.938506 8:-0.730496 9:0.0395677 10:-0.396207 
-4096 1:0.056845 2:-0.236716 3:-0.19702 4:0.516192 5:0.301134 6:-0.523967 7:-0.867932 8:-0.771963 9:-0.140476 10:-0.498251 
-4096 1:0.122157 2:-0.182208 3:-0.263978 4:-0.0191821 5:-0.151661 6:0.053246 7:-0.921915 8:-0.696665 9:0.137466 10:-0.391392 
-4096 1:0.762598 2:-0.110659 3:0.0807286 4:0.426293 5:0.535366 6:0.0540623 7:-0.978583 8:-0.652937 9:0.147131 10:-0.447499 
-4096 1:-0.0478964 2:-0.196283 3:0.018186 4:0.161909 5:0.0673929 6:0.132417 7:-0.996676 8:-0.776711 9:0.133056 10:-0.581493 
-4096 1:-0.327877 2:-0.125665 3:0.210087 4:0.042392 5:0.11871 6:0.0614496 7:-0.895574 8:-0.718475 9:0.0520164 10:-0.554676 
-4096 1:0.153337 2:0.034328 3:-0.177181 4:0.0910027 5:-0.207844 6:0.0122101 7:-0.976972 8:-0.79456 9:-0.111273 10:-0.64605 
-4096 1:-0.10018 2:-0.132065 3:-0.106198 4:0.333757 5:0.192623 6:-0.122428 7:-0.921125 8:-0.64404 9:0.267429 10:-0.224162 
-4096 1:0.0662333 2:-0.190177 3:-0.136445 4:0.150786 5:0.0556893 6:-0.0382169 7:-0.898793 8:-0.870171 9:0.283468 10:-0.373119 
-4096 1:-0.0375319 2:-0.177966 3:-0.506596 4:0.153651 5:0.194697 6:-0.274048 7:-0.873092 8:-0.695833 9:0.202376 10:-0.625337 
-4096 1:0.242351 2:0.0119167 3:-0.178499 4:0.160446 5:0.306007 6:0.061902 7:-0.987461 8:-0.768201 9:0.00438109 10:-0.490918 
-4096 1:0.171542 2:-0.36422 3:-0.117417 4:0.692448 5:0.075579 6:-0.560584 7:-0.961549 8:-0.668227 9:-0.0544411 10:-0.596593 
-4096 1:0.220169 2:0.164186 3:-0.167294 4:0.214907 5:0.0977572 6:-0.0395014 7:-0.813243 8:-0.639863 9:0.139053 10:-0.31514 
-4096 1:0.17014 2:-0.227595 3:-0.171454 4:0.253798 5:-0.173075 6:0.00643235 7:-0.873353 8:-0.86477 9:-0.176482 10:-0.398328 
-4096 1:0.343696 2:0.137386 3:0.0607164 4:0.30595 5:0.0987678 6:-0.317289 7:-0.837118 8:-0.597518 9:-0.0587727 10:-0.434892 
-4096 1:0.0846767 2:-0.162396 3:-0.460693 4:0.414861 5:0.277272 6:-0.0222583 7:-0.884326 8:-0.648882 9:-0.0356965 10:-0.637162 
-4096 1:0.399752 2:-0.491161 3:-0.219242 4:0.272343 5:0.229535 6:-0.104957 7:-0.874627 8:-0.741292 9:-0.150297 10:-0.37841 
-4096 1:-0.178089 2:-0.0156438 3:-0.187744 4:0.636773 5:0.541005 6:-0.0886774 7:-0.963997 8:-0.798593 9:0.0426506 10:-0.689487 
-3234.664377364941 1:0.34124 2:-0.43116 3:0.0871377 4:-0.153931 5:-0.0293791 6:0.245116 7:-0.968432 8:-0.664289 9:0.020524 10:-0.347995 
-4096 1:0.348901 2:-0.485129 3:-0.27672 4:0.0542512 5:0.0938554 6:0.126446 7:-0.982482 8:-0.815699 9:0.0652585 10:-0.694695 
-3081.415920420594 1:0.358634 2:-0.56092 3:-0.340337 4:0.0802877 5:0.0930613 6:0.245893 7:-0.99059 8:-0.785004 9:0.0572326 10:-0.541646 
-4096 1:0.14497 2:-0.42454 3:-0.319368 4:0.307263 5:0.245804 6:-0.469908 7:-0.992147 8:-0.809456 9:0.206772 10:-0.739695 
-4096 1:0.277628 2:-0.329181 3:-0.105936 4:0.314476 5:0.148468 6:0.0266756 7:-0.965798 8:-0.733665 9:-0.0997349 10:-0.540576 
-4096 1:0.0289094 2:-0.346713 3:-0.146703 4:0.0623596 5:-0.0680582 6:-0.311832 7:-0.972352 8:-0.855784 9:0.129258 10:-0.572567 
-4096 1:0.126569 2:0.0345487 3:0.0208645 4:0.231492 5:-0.0367789 6:-0.159303 7:-0.987186 8:-0.686254 9:0.219585 10:-0.356868 
-4096 1:0.126172 2:-0.325503 3:-0.502554 4:0.112373 5:0.000405793 6:-0.442007 7:-0.962097 8:-0.72467 9:-0.0123472 10:-0.566053 
-4096 1:-0.387558 2:-0.304539 3:-0.319793 4:0.348183 5:0.618301 6:0.138007 7:-0.955382 8:-0.781544 9:-0.0800798 10:-0.657897 
-4096 1:-0.268538 2:-0.162568 3:-0.180367 4:0.209654 5:0.227246 6:-0.0966584 7:-0.990896 8:-0.716578 9:0.280294 10:-0.323229 
-3337.648357970328 1:-0.195949 2:-0.0660079 3:0.284673 4:0.665575 5:0.251309 6:0.653319 7:-0.877295 8:-0.231651 9:-0.189373 10:0.347102 
-4096 1:-0.287683 2:0.00041684 3:0.0317957 4:0.172813 5:0.368072 6:0.105194 7:-0.549678 8:-0.382872 9:-0.440994 10:0.140409 
-141.7835979492816 1:-0.134525 2:0.299512 3:0.0244661 4:-0.257181 5:-0.310711 6:0.463768 7:-0.547993 8:-0.43011 9:0.329555 10:0.155691 
-4096 1:-0.315553 2:-0.0631391 3:-0.0354862 4:-0.0344538 5:0.14344 6:0.510449 7:-0.881926 8:-0.726434 9:0.142331 10:0.247881 
-4096 1:-0.032105 2:-0.196896 3:-0.166035 4:0.38001 5:-0.071685 6:0.105404 7:-0.502124 8:-0.965352 9:0.0248817 10:0.206863 
-2744.301285358073 1:-0.210095 2:0.126695 3:0.135226 4:-0.237313 5:-0.495766 6:0.528666 7:-0.678753 8:0.0198256 9:0.0390084 10:0.242497 
-4096 1:-0.237537 2:-0.166638 3:-0.0535573 4:0.247888 5:0.165236 6:-0.00247806 7:-0.0626014 8:-0.569363 9:0.139027 10:0.23317 
-4096 1:-0.30993 2:-0.0711326 3:-0.176396 4:-0.248814 5:-0.21739 6:0.118603 7:-0.80059 8:-0.614532 9:0.0931476 10:0.122484 
-4096 1:-0.292503 2:0.00225584 3:0.0630261 4:-0.103161 5:-0.0959741 6:0.0746094 7:-0.658587 8:-0.140835 9:-0.112548 10:0.191813 
-4096 1:0.0976766 2:0.229458 3:0.489193 4:0.166227 5:-0.108544 6:-0.163586 7:-0.9156 8:-0.17658 9:-0.18642 10:0.162574 
-3973.878165205091 1:0.053276 2:-0.142118 3:-0.0346855 4:0.0280655 5:-0.409994 6:-0.191102 7:-0.501073 8:-0.907988 9:-0.300552 10:0.237958 
-4096 1:-0.307816 2:0.0683373 3:0.434623 4:-0.053327 5:0.121855 6:-0.190178 7:-0.778536 8:-0.266124 9:-0.423726 10:0.0414107 
-4096 1:0.173572 2:-0.136356 3:0.0881806 4:0.336742 5:0.0517835 6:-0.342017 7:-0.717927 8:-0.401591 9:0.0487514 10:0.192418 
-1541.411132048313 1:-0.0283847 2:-0.116102 3:-0.165133 4:-0.0231617 5:-0.111507 6:-0.18593 7:-0.993264 8:-0.264918 9:-0.00481556 10:0.268894 
-3225.75460013679 1:-0.0647112 2:0.42888 3:0.26442 4:0.318824 5:-0.140572 6:0.276183 7:-0.624723 8:-0.380829 9:-0.0715986 10:0.125176 
-4096 1:-0.361043 2:-0.234117 3:0.261536 4:-0.251391 5:-0.436464 6:0.0824137 7:-0.6552 8:-0.257931 9:-0.295765 10:0.169946 
-4096 1:0.14519 2:-0.142216 3:-0.0939267 4:-0.0825869 5:-0.0725805 6:0.0692752 7:-0.805046 8:-0.795395 9:0.122273 10:-0.0204881 
-580.9352759753745 1:-0.345535 2:-0.182601 3:0.068341 4:-0.322422 5:-0.366067 6:-0.381763 7:-0.965885 8:-0.307733 9:-0.209002 10:0.399252 
-4096 1:-0.337137 2:0.135498 3:0.149689 4:0.201964 5:0.0686649 6:-0.264124 7:-0.800143 8:-0.689828 9:-0.430211 10:0.252113 
-2001.12692240471 1:-0.170053 2:0.33845 3:0.138016 4:0.484843 5:0.0640061 6:0.268449 7:-0.921226 8:-0.206813 9:-0.0255763 10:-0.0197923 
-4096 1:0.125229 2:0.196479 3:-0.0185488 4:-0.0133023 5:-0.127201 6:-0.423659 7:-0.976448 8:-0.751289 9:-0.159312 10:-0.543077 
-4096 1:0.201976 2:0.649339 3:0.0142526 4:-0.14631 5:0.0114227 6:0.146241 7:-0.873441 8:-0.569831 9:0.0360165 10:-0.556958 
-4096 1:-0.157592 2:0.0484025 3:-0.221815 4:-0.372967 5:-0.341503 6:-0.449152 7:-0.884097 8:-0.549809 9:-0.226238 10:-0.533607 
-4096 1:-0.0122459 2:0.156683 3:-0.0681033 4:-0.174296 5:-0.119935 6:-0.0571331 7:-0.648029 8:-0.818732 9:-0.0830456 10:-0.293211 
-4096 1:0.262889 2:0.194199 3:-0.141527 4:-0.157891 5:0.358599 6:-0.105385 7:-0.183425 8:-0.150544 9:0.130533 10:-0.313817 
-4096 1:0.0740215 2:-0.019003 3:-0.0322717 4:0.174256 5:0.0717942 6:-0.114592 7:-0.145109 8:-0.0978104 9:0.0851868 10:-0.405009 
-4096 1:-0.0865888 2:-0.286026 3:-0.173854 4:-0.0876907 5:-0.241736 6:-0.152794 7:-0.244869 8:-0.279203 9:-0.140294 10:-0.28908 
-4096 1:0.258034 2:-0.246843 3:-0.483542 4:0.293812 5:-0.293935 6:-0.139698 7:-0.187372 8:-0.281551 9:-0.16735 10:-0.412993 
-1569.300316676794 1:0.444417 2:-0.367408 3:0.00340834 4:-0.248635 5:-0.724921 6:-0.116635 7:-0.168238 8:-0.122942 9:-0.585374 10:-0.422536 
-1488.80972504021 1:0.548662 2:-0.00904789 3:-0.52324 4:0.113547 5:-0.486205 6:0.110915 7:-0.130175 8:-0.162131 9:-0.2032 10:-0.511299 
-2552.376829949322 1:0.474865 2:-0.0796165 3:-0.188313 4:-0.287217 5:-0.453786 6:0.337527 7:-0.189815 8:-0.208614 9:-0.489953 10:-0.273386 
-4096 1:-0.104817 2:-0.117451 3:-0.216374 4:0.0735423 5:0.0436638 6:0.145396 7:-0.120283 8:-0.163776 9:-0.0122691 10:-0.345029 
-3074.465766751539 1:-0.104732 2:0.279209 3:0.285477 4:0.102155 5:-0.101245 6:0.151101 7:-0.200729 8:-0.108243 9:-0.223233 10:-0.453268 
-4096 1:0.530063 2:-0.086335 3:-0.302175 4:-0.1034 5:-0.0907417 6:0.117621 7:-0.102674 8:-0.183462 9:-0.122772 10:-0.35399 
-4096 1:-0.0975206 2:-0.0572542 3:-0.164573 4:0.0630262 5:-0.0517211 6:0.0395544 7:-0.161026 8:-0.256175 9:-0.00689684 10:-0.570969 
-4096 1:-0.114489 2:-0.0123091 3:-0.0212787 4:-0.0143469 5:-0.306509 6:-0.0770071 7:-0.141904 8:-0.210045 9:-0.273092 10:-0.2306 
-3278.324777554127 1:-0.257831 2:-0.00872913 3:0.0195727 4:-0.275109 5:0.237102 6:0.482992 7:-0.208054 8:-0.25692 9:-0.263024 10:-0.329725 
-4096 1:0.203787 2:0.217076 3:-0.0490432 4:-0.113598 5:-0.354946 6:-0.105309 7:-0.0746151 8:0.0209908 9:-0.170837 10:-0.443449 
-4096 1:0.0735346 2:-0.0456318 3:-0.124611 4:-0.00508442 5:-0.0537813 6:0.0648968 7:-0.152125 8:-0.0895384 9:-0.101556 10:-0.409234 
-2341.947843614354 1:0.359223 2:-0.215752 3:-0.387531 4:-0.0332201 5:-0.173976 6:0.133201 7:-0.240878 8:-0.149893 9:-0.372353 10:-0.329659 
-4096 1:0.219211 2:0.0560773 3:-0.268697 4:-0.015491 5:0.0994096 6:0.00166882 7:-0.239743 8:-0.187413 9:0.0375905 10:-0.280347 
-1135.40827747912 1:-0.248754 2:0.0663512 3:-0.111935 4:-0.0889642 5:-0.0547119 6:0.158579 7:-0.203313 8:-0.137354 9:-0.463379 10:-0.649262 
-3179.229556871735 1:-0.150352 2:-0.222642 3:-0.439694 4:-0.0541826 5:-0.112518 6:0.512163 7:-0.153228 8:-0.179976 9:-0.0695303 10:-0.35252 
-2238.798971222126 1:0.198249 2:-0.209622 3:-0.189796 4:-0.358724 5:-0.234568 6:0.0520074 7:-0.238692 8:-0.156405 9:-0.0590069 10:-0.362747 
-4096 1:0.103631 2:0.155849 3:-0.0312222 4:0.0757808 5:-0.133543 6:-0.347491 7:-0.170854 8:-0.167868 9:-0.292735 10:-0.518114 
-4096 1:0.0601825 2:0.0531104 3:-0.0487021 4:0.0523908 5:0.099513 6:-0.09992 7:-0.20318 8:-0.185015 9:-0.11818 10:-0.310769 
-4096 1:0.165011 2:0.31366 3:-0.121906 4:-0.118771 5:-0.053038 6:-0.0309214 7:-0.250686 8:-0.119013 9:-0.145601 10:-0.33996 
-4096 1:0.0310367 2:0.22323 3:-0.210321 4:0.0356665 5:-0.0482446 6:-0.0147703 7:-0.349395 8:-0.279101 9:-0.227148 10:-0.367185 
-4096 1:0.298754 2:0.267023 3:-0.0147208 4:0.0824466 5:-0.211852 6:0.0778516 7:-0.172117 8:-0.264325 9:-0.131357 10:-0.340314 
-4096 1:0.0336225 2:-0.116936 3:0.0144778 4:0.00553113 5:-0.61022 6:-0.134761 7:-0.285668 8:-0.171157 9:-0.14218 10:-0.286614 
-3722.006092686271 1:0.159752 2:-0.0986931 3:-0.0637287 4:-0.217057 5:-0.153396 6:0.181292 7:-0.238371 8:-0.216538 9:-0.258901 10:-0.393792 
-4096 1:-0.0954595 2:-0.170439 3:-0.445253 4:-0.176207 5:-0.445514 6:0.0514261 7:-0.247942 8:-0.148314 9:-0.550565 10:-0.523267 
-4096 1:-0.216203 2:0.143025 3:-0.246938 4:-0.293415 5:-0.603994 6:-0.106753 7:-0.232479 8:-0.225012 9:-0.278985 10:-0.280637 
-4096 1:-0.332483 2:-0.278989 3:-0.542574 4:0.0863466 5:0.0710899 6:-0.00916042 7:-0.15742 8:-0.333461 9:0.100211 10:-0.493426 
-4096 1:0.33094 2:-0.00973445 3:-0.0547464 4:0.19879 5:-0.314987 6:0.0183023 7:-0.214159 8:-0.0637117 9:-0.0029294 10:-0.271668 
-4096 1:-0.244819 2:0.142535 3:-0.139865 4:0.283217 5:0.0787688 6:0.373013 7:-0.219237 8:-0.276507 9:-0.0439956 10:-0.14991 
-4096 1:-0.19064 2:0.0789545 3:0.0886547 4:0.194353 5:0.00931569 6:-0.105664 7:-0.279691 8:-0.0839627 9:0.13039 10:-0.311945 
-4096 1:-0.0371395 2:0.0737562 3:-0.0436111 4:-0.10922 5:-0.0313456 6:0.0058157 7:-0.257617 8:-0.211413 9:-0.302634 10:-0.514931 
-4096 1:0.0681455 2:-0.464238 3:-0.436654 4:0.0312791 5:-0.0786361 6:0.236014 7:-0.124182 8:-0.112869 9:-0.374007 10:-0.117639 
-4096 1:0.0749835 2:-0.371258 3:-0.341285 4:-0.0648976 5:-0.402982 6:0.353261 7:-0.20158 8:-0.0318431 9:-0.577271 10:-0.180355 
-4096 1:0.249761 2:0.0485251 3:-0.211803 4:-0.112145 5:-0.261339 6:0.0651636 7:-0.23951 8:-0.272689 9:-0.181906 10:-0.322248 
